{"type":"sparse perceptron","classifications":["NEGATIVE","POSITIVE"],"weights":[0.0,-3.5176496889118614,-3.5176496889118614,0.0,19.74127235401317,5.255413358131366,-44.85977837424111,-2.3603180570105815,20.431692798096346,22.55225164711055,-19.739920018303124,-13.444372305004356,5.5687086105440695,19.60322392717628,-18.43234567805214,4.58741682986066,-1.36103280725719,-2.6201741906926586,5.722297040513784,-0.32384617328545645,-0.34699510685515844,8.717365462439908,6.49236580659731,-3.9813150150831538,-13.177076605462613,25.095862072412938,-7.859707274020824,-8.586057576165361,-6.849151297348355,11.478165418755948,-5.775897153183946,-3.0930767876765177,-1.8617927181373886,3.7993276771005324,-2.8171576289535434,-6.984193059835288,8.146956344315006,-9.346114448399947,2.276009884094208,1.3200649227107888,5.394242877454762,-2.8456097356486296,10.077659714189611,-3.1206665836147325,0.998320280334901,26.07523344642344,19.366719088895113,5.755707175823527,-17.3143687258032,-4.557609272912312,-2.858284792687911,10.613149409713891,12.397691207893873,10.53795244064763,7.864282668222748,9.898297118395385,2.6227661595373983,-7.473028667499291,-5.2384160980701315,-4.6187286772855485,-14.870113280262407,7.105089709320234,-22.37731021278307,-20.958440902646295,-14.742184512460188,-5.193233066390064,-2.1470889734757286,13.282354375870515,8.754831620483394,-7.667779189036143,-0.49714024006128166,0.617691961398996,-7.700548064349656,17.446434898174136,-1.1076082779306256,-6.818811634537084,-4.391585706889892,-16.553634674156257,-27.82448914426077,-14.629216571621615,27.937973087748272,-8.79777457798527,-9.966053939028981,-5.346586230406802,11.81001616992857,2.4690720001376207,14.816942039940276,29.472239938486815,-4.66838003771363,12.221780600183534,7.5050881477049,37.276519639762526,8.000190029867303,2.7872112138219176,13.679392557063668,-35.08889445340997,-16.279847881151298,-2.2334944698252652,-3.3313530881056708,-19.790755379877364,-4.700723327810691,-12.991873295012901,3.4657759946330415,1.0128318831971161,0.9200657819787948,0.6890991586400625,6.869118002492667,-6.418440233071323,0.7918745712796169,2.1747253821532215,28.909881144007922,9.358690906820843,-10.23614057472266,12.122260095345526,-12.691197767019203,1.6388266686175161,22.970621284343007,22.20098006969978,32.57203666100475,31.89085990261877,-17.709636449112846,-18.947164438854294,8.234879340818482,15.992478037887865,-9.152405721182577,-22.925716903611807,16.156531352281604,9.487012530398696,-12.44673968897223,-3.80484098797499,23.792615737681693,-3.969398625502396,6.060196023680243,-5.596014407557999,21.51613959403327,5.744761959951593,10.485808613482892,2.337108317713965,-16.58153459168428,0.6758983547234361,-11.769955635099251,8.66472375611105,-11.233746802931899,-2.597073582216291,-11.098946568154382,28.358464952085324,-15.05381727171412,1.0780564932747465,15.74849649139294,4.955407658879499,15.004560480969324,6.102156826231287,8.59544743775849,24.319962597658062,1.105907652129039,10.076800329771928,-15.51240915093528,3.7368350935943666,23.125689455359023,-2.8212883193816736,8.48284962888853,12.194210487548007,-0.32353297977318496,1.233235445362267,-36.547274829161104,6.480547674633095,18.577410142784984,-23.792919407806156,-14.998587592361865,-0.01627183557596959,-0.4399681715268231,4.578134093078827,0.7857803676187584,-4.594433542580842,15.429419139557195,-7.53180612894956,23.448044509480415,16.897508307630414,29.86377408542098,-0.8097970786724961,-29.911519075742845,1.6617117814769795,23.87779906849624,4.796665902220562,-14.97165536412906,4.013226661972906,-48.31521745068336,-19.41363548938673,38.38596785158689,-38.42961440194039,-17.213193199266435,-5.851865273872703,-21.066143084530342,-14.826841207758724,-18.416578040977015,-12.772055342026373,-12.139423463322453,18.514743821705824,-16.272700052987723,24.988260198582033,3.034803318858827,40.10269561048078,-0.6655650701088498,34.5162906103186,-18.50240100932763,28.640527347828723,15.936942012776683,-9.138072828444335,18.343259408133683,-15.325080574083318,21.233214566589428,5.932614591767123,16.91934547495773,-12.271300640966594,11.907791582129098,12.959142691551072,-24.67782168213458,-12.286071978991423,-26.02507709523767,17.228883866959972,30.371590855251586,-18.66400004269427,-28.293053443358204,-6.9121295707225165,5.228167939190448,8.634401871418317,-19.626692356871203,38.633188330296484,19.232934619456326,-57.63999999949702,-5.1981947761771385,-6.536000630127081,-5.276814042179927,-24.73263042967547,-58.06113348846752,-15.493948559639508,0.5926035792185911,17.644245822307283,18.651349127765908,6.608858504775625,-1.4213794536909905,-45.145514839674554,22.040322291780654,-38.032521173619905,-27.650321630142408,2.232094736351568,-9.403521357003902,-13.21398578022111,-13.330474639183501,-117.45943595002237,0.9487026690217926,12.953845315837194,0.3384387270548345,63.99918632611586,37.34991784233588,-6.3726792116141135,-3.7983435639819305,10.121578019831292,-10.234390546142112,-1.462418863704813,18.415698093956046,-36.73872505020569,40.24408470757211,-28.735812477858357,-36.299424477052874,11.690837015323424,-47.458810627177996,5.832637961681943,-25.444465806747363,-13.023377495068278,6.96884490227511,3.9998314061023534,-34.76737636753497,38.06800888612667,1.2716066976015818,45.79843436807297,11.84401188526704,-10.812729662282177,-31.969276142499282,-4.570376853267642,2.573574304571981,-26.144342638997585,-24.497243366904296,16.210430342398876,12.533100794127304,-3.5510399485579636,-35.1665669743377,-12.645160911896573,34.25433241748614,-10.768178741165345,-1.5113949613779805,1.770722808784642,26.36259106714601,-33.64135546373131,-13.108198701041092,-36.13506049329,37.46366487911617,-4.417137974306793,6.651437353419783,13.614013158396974,-28.710169843540548,24.255888228222695,-35.88551780362423,12.331660814480886,0.6015180297005798,-32.31128942756589,-22.61096051579316,6.765156256670351,-23.30447123236887,1.1688816490641607,-22.40221803437939,8.326465266950706,3.211811200661888,30.716718157481626,-14.912009194865412,-6.124834520124707,32.40509647818986,27.981463654233234,15.730826217771519,7.280262720616022,-26.686621183913445,122.60279667646034,40.08568504064704,11.782819972210014,21.63343437985594,17.363670459718247,-29.455439872393725,34.55460514231139,-1.721668885043317,15.967238836900108,25.838374162297402,-10.752974358226673,-6.934489760863216,-35.60761333121352,14.7088440589896,45.586739537551786,-8.007395725478633,-0.9204803831069792,-79.10731275030976,-7.762711340927092,-31.63712221119247,22.872414677356495,10.958807147253973,19.18043701552127,-1.6274833201302072,-42.01357041164844,-7.680020120179204,6.802028299246631,10.066007007470256,18.897996223351793,6.138344462913738,-13.889304499912855,8.594219024393034,3.3120449275220873,52.75676983661388,-17.06761744899427,42.31985885416472,-51.18217873941483,24.510220030705074,-13.826584260889584,-29.90282057005496,11.163239985929927,-13.762928468606198,19.925141560068255,-29.910666950451176,-11.248042079584158,21.192319369177028,29.577082137646368,48.47925532114719,25.778358889277296,-32.327224658043164,27.720990092089863,27.189128380633385,-93.57380316365598,-3.6444591592149607,1.9163280663826523,27.784081084601368,13.969584812478633,-11.757307607109281,-64.40184372569834,-13.808559953654733,-22.623321777756036,29.785531142556366,-15.784160431461231,-35.85054484883775,-11.46391817151918,6.126138913846404,-24.463700256477043,-12.499190909311412,32.565979139848835,33.53685459139219,-29.941919788133635,6.920854829307245,-14.1139000227539,-69.02869634520754,11.351977325016883,14.198947504216692,-8.407123682997227,18.375781191530265,-30.377418145500542,23.80203122560711,34.241897352534565,-15.786080649987737,-18.60503672295811,86.05898883228686,1.5958364191443932,34.57170126790873,-4.433320597844765,37.35039506459743,0.4407495008798579,17.366996736818713,3.2778952135233004,-9.150372165297743,1.4513151162276956,-22.08960502317467,7.3890394741505645,-28.123357921758014,-21.771364478695475,-26.986877082083023,12.42855965552087,-10.624084856696772,8.249712594141098,46.024321232224835,27.276506223593678,-64.17760405102027,32.51119091581475,23.89782991854972,-18.819031511411907,2.3887413585858184,56.81321117890149,-21.06131006244095,-8.588511232435206,-49.533711645238284,-31.09513453883612,-18.437911515679748,23.074184095392482,-41.51551300211091,-92.08159828951476,22.375544934420663,2.002413243805122,25.706038533898546,-32.17934999983005,0.8123375575544864,12.531112973279127,71.73754454710844,25.197772728405372,-19.681115643022526,36.1242029638184,-35.92728324856302,-13.082365441860452,11.667491137568222,20.731553016896058,-21.134874480094844,16.03426998102508,11.060667217079992,-12.148075619545327,-7.781443725530717,0.9735096220438716,-27.100660164871904,-40.17288751930012,-18.764763527576992,1.5327902591827194,4.51303934116772,34.539237024964265,-22.4930424966041,-26.5594518891269,9.461022682877964,11.233182614477395,-9.890807395273349,36.78305543697986,-18.014769279680483,-2.518746286349031,-41.04917491110143,-38.47573946386985,36.33993212967893,3.6212697047853117,-16.65523913908255,8.359269943725565,35.42483441823959,16.733313823367872,50.08393979404406,-18.777189169858442,-22.39806878843685,32.22868037601396,-10.834955252062075,-19.055687001548996,-14.006923752337714,6.909052278245457,-17.36449299511354,15.701394410101711,9.461632493991267,-4.728294742516309,2.719541887335721,7.478532676940272,28.946895950974845,16.91576246175588,-17.807126357177747,-51.94260093554333,-0.7429183354643127,-10.689380123608286,-23.48831193735218,25.81157719345023,-19.337966809304646,-9.818538206592233,-18.08735384102819,12.047948277380284,-6.765143628341749,-24.608167424650507,27.630122397814304,14.92149480801385,44.28558530155177,-2.393345697263325,46.05043787355794,-10.689943821055163,29.575593555253473,27.950988085914233,5.314771648583627,-1.893690695257887,33.890791636703135,3.3607452301661978,-14.182835500733765,-2.809481397776746,-15.528281015933821,-2.9133554688995886,6.385292299142716,-0.3269807919673112,-24.26362848858693,-49.010587808157446,12.724227091196463,10.647980023575677,41.329353234511345,-0.0315232829047999,-27.165192988599635,-6.7689488801553,-13.276142941747416,16.362517782609288,7.4041222321478015,1.4022396690365284,-1.190463438313584,35.21739424844379,7.983042891325041,11.297531244419035,-27.054682300336488,37.85875463860695,13.073366571101499,37.40226043505648,9.540263853099647,-24.121041737262466,34.24465581909027,-30.56094717335736,-26.193896118945062,-1.3851981845566987,2.021263055725797,-23.427702217459025,-13.346416884246484,8.504047715627719,24.44170679550406,-14.604454200930164,-21.64021201103043,2.830005905566707,3.653497735248423,23.29825247842195,-43.97035080122254,8.076648042525902,36.558898747882594,8.453016305295266,-44.872980983722286,-5.550445226083637,4.816920103159637,6.486055457255252,-5.283155464875208,2.52913045420317,0.5107283154884514,-15.47524383341816,-16.245040232047295,-29.478076096560564,-25.67865491557628,6.162825999683776,-39.66217588600151,-4.779058527903869,10.92211679065516,47.79891392523373,18.18379043536547,-18.574173596645693,-45.226987588851564,-18.04777062129437,-30.807276614536168,-4.369775683783341,-16.416996078763038,-9.608043006606449,-41.370849572383065,-31.174241520590986,17.795282342653927,1.474795686089669,-42.48327895516817,-84.33390173384427,-1.5893548714230876,-6.665371014890614,-50.963064377482716,-15.331551827448969,-12.246936827812977,1.674268603757531,-13.978646525096183,33.3757120243531,-4.812258945767301,-23.58830417484366,58.45933575214216,-34.194213587864525,-31.87325596937564,-8.145733719168202,-24.34445841724385,1.8707236321604086,38.2666854370061,-1.6335843344150875,-33.90735120030069,8.409019688182843,-57.346631953241555,0.9393588328051682,33.0139222793639,-41.1139985203186,-14.991379933368078,9.543916623535052,-23.633849573527744,-0.5772367587269859,4.102861932804997,-26.50505191121625,13.742348697486717,0.606747367686559,-19.387841317856438,12.853780669847868,-33.55772152782845,12.59074667321299,16.785005317039435,7.361347246615202,-10.172176073290945,33.987120429194285,8.72787582402018,-11.572860477729815,34.98797794739844,24.8413704580804,20.510466911365842,-4.735499979866259,39.15413972920879,7.827980839238556,-4.865207046783651,-6.105901325917504,25.134917384734464,-51.2615307781655,-9.543443539615165,38.295920132779095,-25.961656988559962,7.701077201615297,-4.27973117647416,4.0698784539636454,7.570804564288478,-6.8009945862145935,8.234809415573682,-29.09248108592455,38.179396596919,-16.962761296125336,22.80119574975824,0.5142659498816298,-33.784680867842546,30.173917932645114,-29.38878006292355,1.3475123343219748,-17.26308927115934,-7.8054705446653685,-10.976939317662483,-20.368277176886107,29.887445025946477,21.21550541324071,23.88397859217848,-5.989676946752824,-4.725830315476441,-26.73351525880773,-30.252820273226636,17.42631658429633,6.23902793792887,7.225828728262818,3.128410170782276,9.591867947509089,19.430974633688916,-27.600489317950238,-4.6364346101980125,-26.043868183528552,-2.1319767377059398,27.621945047583942,39.54799789982645,-1.636095088693079,-28.166145906311225,-45.57910404706531,64.6320553775845,52.98641849599503,35.64716875001975,30.055304307928605,38.5526025345742,14.545773314474555,-10.267431650593192,9.904987694277905,-5.872422626108493,6.070802246060597,45.15139864528099,-13.231275138707284,9.916895774652176,10.59251308829907,-27.3010801054168,5.984642851212305,-7.941530152310857,43.37804791418774,-10.036358140694698,-28.285100271061832,44.14436691810503,-10.069955265991585,22.47260687616465,31.89395756378605,0.9177134269016991,35.41698012314012,15.863660926735573,-17.492675719219974,34.444028960851,7.725242456571641,-7.773953772514352,14.613638701086062,-10.134042169613386,5.022062539536894,25.8566774476065,-14.138231251989989,40.153816178547714,10.87883094897955,-9.717298263578765,26.364568189330384,11.153883480834622,-19.990328319615394,-29.83965018007517,8.161691217073281,4.898111661164101,62.35401853943313,17.64752454853685,-5.050184858936765,-22.862009752604674,5.080042867098505,6.833435378534275,-31.150200474854113,20.55237471184077,-40.72698010548705,-2.5380260491111764,-20.907427732619674,6.750226617105542,-11.076619177112937,-7.240986372182496,14.046365320233468,0.35413312386385803,-28.877571176632557,2.788228859146772,2.2436152513911867,39.988387401333135,39.219397313596,-24.212930287809627,17.293325096929035,-19.30445803298887,4.4505251271703985,-35.973599417997164,-29.414591882529834,8.06056766305653,47.37510092169501,-1.2106236880790746,13.462732337788431,38.875460560646175,-11.896133297333321,24.31601252655632,-24.790403532175592,-32.254541321291484,2.7142380747523998,2.075789761656562,-4.155533073340824,29.420267799071016,27.012275251290024,2.350329965650589,1.7170705964045843,-19.185660487027732,-49.71079710123541,28.01178625697371,16.287585932526493,-10.072486833499426,35.71881376050715,16.464105414453044,12.271998099763723,-14.060326436704129,0.7461358073842422,35.902897083743866,1.7963524140738905,5.7213165927961365,-21.912051736098768,10.296443995445395,29.304136100856052,-25.544111463991616,-5.342310265237367,-31.566649647972113,18.519272961407506,3.509332174963691,14.710227462193213,-10.98966670352722,-28.560131209736596,44.66384474868661,-35.310884938899875,-63.30632256747868,-30.241075992708524,-10.081877429219082,-11.157982260311194,1.3371660317732814,4.65309289745879,-27.56850980022927,4.844468654708907,-15.370979416124618,-37.33684060484336,20.026044202952875,10.900922134018534,26.152512905794325,-6.8005776071255895,7.406604303480851,28.343252715058355,-38.35792997503315,2.677147410166784,-8.10426659755755,-9.79355621582359,21.020221583432427,-21.491578867827958,-1.2673872876214372,58.376626199729785,-36.2114966096455,-27.514669627513296,-19.333321171027627,28.873841704491987,17.74209133334516,-42.24511361211824,-0.946970344065149,2.7476572664756502,-15.426226805776762,29.307571459996502,-38.36936263829702,37.833039848332554,-17.739032219375414,-0.29762216811965486,-15.649538542921047,-3.4320570591106083,8.075176244539568,-15.685301565866226,-43.02078125826574,15.925690650749146,9.521034882892858,-21.294820061056086,6.671256520501775,-25.10445464186659,8.640182450346131,9.905179510326027,4.2065723307761225,42.239391145023276,-0.5472640779604049,4.278827516455469,6.009899455239799,17.765370153324668,-66.46473650423361,-53.421069232909176,-27.835995400401647,3.9054164195472287,17.054946607409637,42.76278569416076,8.542480182642041,8.50908754275573,-16.39150793013342,7.544351992408096,7.266996909470238,-47.24092900051678,-11.468094234885895,-2.1990553516140308,25.495492954998372,-15.690943426431792,45.117613013463625,12.109952837562455,3.505974968692,-23.088973044664634,-19.584015301819775,16.817046473551187,18.00103299438258,18.83467393442688,0.5442922743955659,-7.529808189639615,-12.59994928633977,-5.615741911613177,8.850050311107394,20.116580721134095,13.477120721685743,26.691376776744644,-39.16184744580325,-18.65320564870904,25.426955902107615,25.958441506342684,0.3947791388826827,-31.89672048479521,2.1196879540157703,2.6682882149168066,-16.821110386790053,9.318515782449241,1.0112444264224187,-5.751871864569881,23.0597692863089,9.858332037799173,31.40563346276225,-11.605218253336478,-1.7942271913373071,8.199670728786991,-33.98798723728078,-36.96265942300727,-27.926851804095968,-13.590177076967514,-20.724040336552743,2.1743913687945837,-32.25773807682512,-28.78044388892327,-3.3696210988931137,19.075660749620894,-3.4485614945550047,-16.349463180308614,-3.601198762646733,6.313572124453127,17.62125580933379,1.6951935941290084,9.727564975923231,-33.64112777507913,5.532420519227991,22.645612812507434,13.847697362545961,7.239058888646862,-47.85124143701639,21.28220963880916,36.59582385010557,21.403699318403326,-0.8903906413555102,8.895232908959056,20.659941050549484,29.510844603595537,1.587084180600399,-8.435244550631017,28.86976387664437,2.2291744061151944,11.49634429741804,-14.779410846656546,40.14633302963517,18.559511813649458,23.842397420045547,12.173209485313944,-21.74404051809452,-6.77964275627349,23.911920172460775,19.556764614627024,-32.63306875187731,4.279037730802941,11.18749607782513,-22.183347184192808,24.170167597505902,27.810834605732527,16.419571259619385,-12.7536680766608,-38.03147180877045,15.073806955863216,1.1882950154462113,-25.153851741086484,-19.491155167859052,1.1828834177615069,17.30956496046736,13.261052315100846,4.21709926342804,1.2059931355799798,-6.640514887582585,1.7806811551963801,31.65614581503492,8.243444811899547,-4.8420395114708,35.613030322789584,17.945054165086823,-22.13256288819723,-12.777339031822114,17.969137175468376,25.104647345404164,16.147051020622733,-4.9192663588398755,18.24471049755419,-27.612613827127667,-16.55468396642504,14.870168456117675,32.65982478376114,-22.73511687530708,-5.844807836683022,51.04574769266837,-15.767003848491283,-22.60287951479698,-1.0331736465538433,23.979085481529985,-13.228706566675799],"intercept":-3.5176496889118614}