{"type":"sparse perceptron","classifications":["NEGATIVE","POSITIVE"],"weights":[0.0,2.329602724483398,2.329602724483398,0.0,11.523989910007723,-5.318537786683769,-5.725946244204493,1.2507729512027803,-4.660408743286497,4.009480102562802,-1.007328336414748,-0.5239253510189901,1.9933367769790271,4.653524603653152,2.6094356425481964,4.869486005708809,-6.486725675657625,2.7899991722611914,1.5008167864180162,-3.8609706397561774,-2.746447334649483,1.8457517802486905,-0.946892767619516,1.2596576776695503,-0.9125431258915655,-2.010983608174439,-5.274095981726809,0.10967015817674991,0.44103656155438276,5.747022835846505,-1.1996209423310755,2.499020139448229,-4.913051379479559,-2.8701678592659707,2.814695478776282,-0.6113379890693423,-0.13258418696165136,0.10555290494627662,-5.073911016048851,-6.4595758679979545,-0.9669088691060108,1.7092740370401787,-2.550272389732299,-2.6147703045092987,0.9479130716790873,-1.6090284253390625,-0.4503485273577184,-1.2116920703780025,0.8853728738451863,-0.10758619461723168,-7.108156349116013,-1.9989761098103758,3.690593928545054,-0.20967301213774597,-5.103185566847845,1.5047640440800625,2.7146621824878,-6.2687897472507625,3.861878814122314,3.8118990494351555,-3.1614646655730274,-3.897539016622024,1.1466090434887173,1.8300244814040005,-0.6000923979945393,4.331924686219374,3.670674600858426,10.068629695062853,-7.383879718919568,3.628926233738466,-6.516910642902011,-7.557543294325204,-2.4864323805198527,4.617339334023875,4.13433115955538,-2.0270420912523934,-1.756462909309658,1.1656466570355493,-6.770802554707331,3.996303798891114,-4.212374976504029,-2.739947618643326,1.9207116621426055,-3.6812390405949147,-2.1810163638827,-2.935453343080728,2.5372495907066965,8.290153963469303,1.8701016653702909,-1.570659369984608,4.958748964716996,-3.4713829324204175,-3.167842946030448,-1.0306064220199533,-1.3218192583033983,-2.57155549294265,-3.9867913485931243,3.6864381191658384,3.5671325662056796,-5.585363423039267,5.247887991805701,-3.8086483371950712,-7.141631793725212,3.561117367120024,0.6550045840912384,-1.540721634242205,1.1875916454903497,2.3433988977102502,0.5044661711237155,0.7762199549201214,4.9801298864861385,0.39469072323112886,-3.1348820090319434,4.847519128070295,-8.296024124497695,-4.816482984831511,-1.082430379096547,1.0327622289878513,1.7296026835723632,-0.8855493021469586,-8.267684648380827,2.148706116011723,0.1718739479828053,-0.9123936012316252,0.4296976591524705,-2.5776258332493525,2.8537949975226633,-5.09349039197698,2.416500413710873,-1.129812901423354,-2.5730247767485466,3.4168560781379664,-4.064648864517498,-5.0829100063950206,-5.149307859384959,3.0858081540729394,4.656235039611524,1.0426303164922246,4.235462960259488,-0.21568974918076955,-3.418975749744252,-1.2932146056889444,-2.6618541299706044,1.422850047546244,-6.1086613411203485,-1.5034501818641246,-8.091267901475673,5.80155092316389,1.9699089776132526,2.637348397509616,6.979536102360755,3.752696352297567,-4.088625134664521,0.9982187735974317,-0.7205139574171155,2.242806074659979,-3.421548782347262,5.433100185045819,-3.1807637725780853,-2.8654700446972234,-4.290392855736945,2.5562680566186624,5.610965183181906,2.76236337162382,-5.508536432922123,0.23552376678018166,3.7444514391010135,-9.044328767615664,-1.0002479500675534,-2.3707157826976024,0.4152379802208739,4.865316611654466,-2.254930373086266,1.2244132385535504,3.3523577076991766,-2.192573994000004,9.711283926327333,0.025902157920914326,-1.676490693065017,-1.883820191399683,-3.947642324018061,1.4832803475154483,1.0305468747431226,3.4705423334878422,-0.6278439226521874,-2.265988304561801,-3.7230048446473214,8.002783534599342,3.6692409653905385,2.6614714614119257,3.846705103948874,3.691980705988337,0.8105101358319151,1.953165335965109,1.6385919922088856,-1.8739558000447927,-0.3289590255492486,0.8179614320217037,2.141514150742161,10.689001925043943,1.7853163311171623,14.669671045711146,2.3334092943500386,9.744538788192346,-2.2429693662946013,-1.2903614791176679,-3.9866274938679966,0.8921690987099422,5.229565167969032,-4.35448874449361,3.56260317310976,5.920635799597754,-0.2353873937851979,10.528309134553707,-0.0015011716467688285,2.9659449684511725,-4.4826642510402515,-5.988662898893518,-3.179412661508537,-1.580763423875297,4.424574613295703,2.880674890138923,-3.7408554983649047,-6.340215435012801,2.720470403030572,-1.8589089257280023,-6.351887251356264,10.67352143753759,2.3670316224034718,-5.489280383728036,-3.4802821701872166,0.8913018507726804,6.073303517815763,-0.6454844351025644,-4.425148737179178,4.241621794901736,6.770322351918839,0.5680123268478965,-1.3100476188060393,-3.04578112973852,-1.7142442463449563,-7.382912940031131,-1.61814210179432,-7.359782042454259,-0.2794826971684999,-5.482876983059449,3.4116097458965315,6.1257580972162895,-1.7880198985815565,-36.56162419488545,3.7320024529696076,-1.2324499036599157,-6.789097835101882,9.271547163619832,-0.4829914569498408,-3.0939838449395882,6.888995748883115,1.0711996596621356,-3.4157534857877376,9.500297746568691,0.46027739993103384,4.866618786870199,0.33996423157519123,0.7001951210926466,-4.2866830851515365,2.5512481283307284,-2.9164629630580396,0.5571548947984328,-8.994464331320426,0.026219988049241805,-1.8402464081740808,1.8626130263915552,-11.678108439660086,2.419986510550126,1.4848748738478006,4.654445113125259,4.885109431140532,-0.9340080801942107,-7.767839653712967,-9.424619133266354,-1.710751705214472,-5.865105012373573,-6.494465227897627,2.5473491374471187,2.0660941153996726,2.7887440086885475,1.4138389988865863,6.032888785399712,9.596234125281994,-5.319888675365608,2.721555770422919,-3.8427470091646256,10.114596157964325,-7.543845063390971,-0.3376390290291469,0.7969395002710415,-0.5413676858793346,-1.496352302100806,-4.120186085081359,1.7728831595381116,-6.498535077997856,2.006471227273528,1.5664709774942271,1.4307368498908644,3.158121735581406,-5.756766161634674,-0.831352207252408,4.066746345145798,5.866166494599933,-0.8652526354936708,1.917188125351329,-2.3168500359934057,-3.4038144218452766,0.8446695338236166,4.296702500016349,3.0988282894574755,8.56899528223788,-7.338609515735712,-5.141892284470451,4.1744633975883305,-1.8618150040860697,14.022235951777546,-1.7605583326293075,0.5674008902655449,8.746876407070255,6.318588003056998,-17.059035147853685,6.8578976639765825,-20.16955409871356,-7.625100475517223,-0.33547339815645044,-0.8062256954718338,-9.58400656039126,5.35797237645153,-9.094638549862552,0.07219203238999455,2.690959461111892,-0.4948877233250467,-13.22118971253515,-1.879567553108651,-12.023631720439365,1.6908369806142458,-5.974225789101519,-4.776926274197698,7.752836836098294,3.035390912263168,8.400786485765078,-6.602676956334211,-0.3708308381977313,3.0407710827755983,8.802926582541343,-3.3411235087054134,13.600256857700993,-16.586882722099162,3.8872642894736016,-2.810874903305187,6.720287046646965,-18.133248262029714,7.552020627475946,0.7352033880283964,-4.9554132728095395,-8.321172030454994,-0.3259980835811846,-3.3199147739234136,-12.889231996112127,-6.560123557780894,4.6236463288628595,3.618955638255034,-0.5871675308442276,8.803986342900785,-4.149578243417029,7.476090090201544,-3.501093349490364,-17.801176413668774,3.252131215037258,-1.4944503308850385,23.983018335386824,-0.27034545084171707,-2.2096502325902345,-0.6657701764750936,-2.62357921200955,0.6841660556766557,-3.9012699634463273,-6.536598932750999,-3.839083591157994,2.6875372090201526,-1.4129655935951537,-4.007565383721928,-1.6544282682372682,3.0055942535449978,-5.27414444654331,-3.4128726129343883,4.46599784417978,0.011009487055451184,-12.851887977273066,-1.7088557732735277,-2.040157129483279,4.770824272842921,8.931626977100006,-2.346902871627521,8.865306522054034,7.004407769215567,2.8828792245674357,-4.938773534138589,16.573927262869763,3.7421046291988125,18.031465807307786,1.5813395039448284,5.259493264667137,9.247887499317699,4.863747923403939,4.057931663480064,4.207987376247527,3.7706054242083744,-1.982011710258102,4.211904606800889,-0.33328613454470285,-0.20655895173006922,0.8335571085328173,15.37444214981467,1.1189847452586699,-1.3668687230674745,1.3118845344446977,7.5061243477411175,-17.363011235217737,2.2219936790705828,-9.243266258376487,6.369417649095192,6.178674513981136,-2.9227646430149568,0.7601330391600002,6.021227867927492,-5.344210224972222,-15.982614815220455,2.798724380715853,0.3911059846980729,6.620830909702366,-21.702727969224917,11.603170832684103,-2.686523663490659,0.818022359667631,11.973682260029893,-3.0888824401015462,-0.4969384586506651,10.616906896488844,-11.840304103479808,3.619436405213121,11.56926345427335,-5.575829470214521,-17.617672938004514,4.709493673143016,2.2061930040943927,-12.076084085868127,-1.1505080871061768,-4.82149758718828,-2.154536113985481,-2.1739654497860244,7.054927215828841,-14.98171362830906,-16.87131681667944,-6.599309616473065,-1.8620717821941317,-3.397527495775346,-9.742732888756962,-5.72624459944008,4.877896752394642,-4.015294404311978,-5.609266500490399,-3.809621693599594,1.2879508269903148,-14.765594454866232,0.3623616841387111,-11.066182675488301,-11.283421115845265,-6.772181171045441,-0.20753572795168684,-2.740294391030254,1.6606027364347011,-0.7938524575394127,3.5337733281976726,19.190459404715032,-2.4760874151575782,-15.3614447047205,9.779463589984843,-2.366450913477941,2.428094361516424,-2.852774920062643,-5.98574313562179,-9.922131826325424,-0.8494492968514971,14.18984868121604,4.626763847398298,9.186821393518219,10.650763562067066,9.337624112580944,5.231517717555302,-4.895707848857107,-6.810764889727537,5.288299755946419,0.6284040699797814,13.365171548531857,10.015364446602112,0.013339253525014083,-2.21837612978456,-4.3386969653248,-11.282250652915083,-3.5568456788457348,-3.216095388448956,11.09629302197739,-2.6352852192873506,18.68218316990123,9.046388809008775,7.760047640072901,8.676845680909064,17.40927788312341,-0.7301244092685806,-9.945193955795242,-7.0270530785208285,2.435899755090343,-3.2157077918209183,-0.5223284470201593,7.645298563269766,5.69946910278164,8.28740277432344,-4.821135855159959,2.1133306753543972,0.7719689693072738,4.529878295153952,15.889540841974345,-2.818431207189755,16.996152962682537,1.4248695167597716,-19.11944110980096,1.2634781438511373,3.4375387311802803,5.737332862853673,-6.25716463680553,-6.651704011628606,-5.949570080953424,2.5972892860155707,-5.0652871820366245,-11.17347091119777,-16.780551808876915,13.094173844558158,-2.479200665811222,16.75171126526267,3.7861102387255934,-3.104444276946629,7.116265550324751,-15.485425581904574,-5.335389892416247,0.026668497452551232,-5.224987223349877,-4.246271489300721,-7.087198391274518,-7.666018219776038,0.5689291633735724,2.443141516835005,-13.223526442313446,1.0282366699009629,5.112525000278583,7.45335102682747,-4.083135012589715,11.318227382417266,10.953764730078111,12.69326136229112,-6.335028747658222,-0.4101233231040334,-8.354622027022641,8.938270080415263,8.457313946329156,-18.567953463590293,-14.181055488121316,-10.103085538711118,-8.275447060497722,1.8118455299068004,6.261063962524732,2.5087575523499335,-7.894097944287486,9.773850613576679,0.9892600488603271,24.976443194574067,-0.30651128612845807,16.592614559835614,9.347078481731156,0.6672310862208622,-5.80665363592093,7.0208679903850815,-0.7392350408639037,-12.804250391048814,-0.8742453214936923,4.502820587697411,10.362675927087997,6.32839582313224,-17.67526819098977,-21.284652510284065,-2.0810072986129073,-1.1546410641877947,-11.735108813265162,3.5341593019543858,5.696602560438712,-3.5154495009839204,-1.8691799162599494,4.955076588992309,-1.5299726353531802,-0.7261926097378707,21.196703258324515,-9.24858010358663,-11.316412017070466,0.003886581793147159,-13.96464185237931,-0.31143900099897404,2.1520850888019947,-3.838958090277053,7.893896365178158,-2.987212563753864,-25.048891512730812,-0.01907862642639141,-0.88530838050353,-22.792090921093777,-9.822623720460852,1.18184482419254,3.8795660612602427,-5.119951828323213,-4.796528846460881,3.971511669780316,7.125348308661111,10.733813232122388,-10.837876036183525,-3.1273868690753677,-3.9267273014678525,10.056447976740952,-3.999285494684245,-1.4929708303896816,1.660376463277823,3.53753543874937,1.9280004716904515,-16.88224198819968,7.588614967416609,12.813062812748802,7.346246288706189,3.243862355969623,-9.162591942612345,10.325423019129243,9.229435477020337,-3.7013293912427105,29.529932151255693,-7.648171591559006,-2.4373493773845034,21.121931464303785,-16.236312498496194,-5.606999321861628,3.108903570861592,3.232388909652849,-5.416415283658776,-12.355703290455054,2.8207818845778174,-8.596177850442611,-6.554810361723216,-0.7497250112533825,0.22752520967553314,0.5814967417371518,1.8869355663312963,-5.157228432144191,-2.47546216422242,-10.99133452219667,-20.32237565783913,-9.796689410991341,1.4224947338680531,-0.8253670011537952,-6.129484712772311,15.730743063465196,5.5829212937047465,-4.598397567270045,3.571631554156203,-0.6813105653356901,2.866737678781507,-1.5398981554004987,-8.125194257593963,0.09578495352917804,-4.972548743795425,5.9075569108165995,6.540248493477931,-6.688436228654006,-11.192823939332058,-16.624302527229176,8.224945430315705,3.000443619623746,17.496121174282553,4.635429730720875,-0.7638604509111094,-16.594038009351,-1.8425383152681256,36.700433830748416,7.42088028061381,9.058026795132605,-6.451003446893925,18.276679045271898,15.151893367473154,-6.33416250287114,-0.756322324801975,0.26573787035695384,-0.3825312196747636,7.585137577188682,2.1329201422172095,0.6335435343659209,-3.2396822739353466,0.2901292732855871,13.8333872494772,24.896334853727566,-9.652548852586872,10.069567426839432,8.485599210841425,-2.711944712242717,10.71250388366816,-8.812594964404775,13.562799928895693,13.463639759805606,31.81565956242833,-16.884427877743327,11.674178168996864,-3.874123167726748,7.949191237653402,27.554346567494008,-2.6292493812246587,-13.025593896318622,0.5185695771468655,-14.02346215813648,20.573059898916554,1.8683860735079698,-8.412381040721382,0.7129674455900592,5.462958290220595,-23.450056596466208,-10.271275069681543,8.978978931703836,4.617584070074074,15.98688999778561,11.136898805234084,-20.089077510271885,2.3950545147454347,4.873636653012501,-3.7130575591006374,11.405307092034962,-0.4115111780995119,4.354019862415655,-5.607072499726987,-17.176893928296987,9.353300438902739,5.710996061287722,9.620012685944316,-9.077104322917096,-14.270306636912636,-25.560125618068785,7.046806558492381,-20.08677284219594,3.585630124329907,11.23435269383575,-11.320313910849453,7.463069800089969,-7.274003231615603,1.0092649545004542,-13.563740981920628,13.199503249405828,16.887097038409426,35.83855656184846,4.370353613879696,0.7715580886590698,12.842168718487198,9.196688110636412,19.295971802914497,11.024270708560035,-6.053634485634987,8.00415630890083,5.722626778867925,8.440224104275435,10.578253927973764,18.394845532178195,-10.110486804866376,-4.386661452376265,-6.956521067334728,-19.07343751881132,5.260523857801525,-1.7506041393061147,-6.248884291037558,9.144514320966927,10.023933636359025,-0.7740123771158174,-9.198512079314938,-24.773553692734456,14.483328202656285,3.5869631975978757,9.630723011678079,9.88243218703486,9.117808833589804,17.462832834579846,-6.173676913883579,13.48638792480787,-20.258015075918877,-1.2269215827978754,13.455548362687448,-4.202481355915839,4.923342413721596,-18.236028839089187,7.204276748276998,-12.838264601070332,-14.564357582963636,-13.06695297082131,10.793493346143412,6.041279712146726,4.268787310659657,-1.2932090736117894,-7.669490230692456,10.831274621258416,-2.238719855952719,-13.305768873292916,-6.250723341675321,2.635870965423658,3.3742807378894106,-12.749949123769,5.588236253438796,5.844720267179605,-2.725762642890317,15.774448897934318,11.989459148344531,-1.59961285167714,6.319748937148263,-8.834278701765873,6.844303154816414,19.419342020192747,-6.059083921236291,-3.299636185620583,6.210037237293772,-1.1351685555645672,-9.396786456670934,-15.54455408673287,0.046442598636953825,0.5007031797126565,-2.4279134875351467,8.714283952476631,-5.648352204004889,17.78019945057884,-9.900502370184439,0.32622703234460265,-3.4568881528522324,-10.410261146108482,13.526831787835844,-6.317973120720751,-24.50892525120069,18.030083132630516,0.8592896046943257,-11.047934150036227,15.575287870714279,-4.695461152150276,8.759014537804028,-13.77573252779367,1.495724726327912,22.773316879820822,-7.0823618586471,2.2527671684890036,-3.9878320497458084,-14.239789109988914,-22.08615180144116,-19.713151179436615,-21.6379276414171,-6.520070504000199,13.30375724901524,14.815564223233894,16.227295008089584,-2.1402312743930234,8.198484591423192,23.740756842327002,-1.5402985111232488,1.2963630854410733,0.25585748854982815,-4.5736310091456485,12.019606443157485,6.25233699378809,1.0818030590486378,8.261157922287628,-14.67070862201532,-12.021791472402535,-12.185032203458894,-3.1558425928050817,11.968297099836336,-3.757500838723149,1.8578855996496524,-12.859060980102207,-6.813615030000789,-2.247998128305385,6.0412079113074375,2.5125316871811925,-1.4585314601243469,17.432546784810814,-19.866140786495297,-0.9798442060749688,-1.1498391899340612,17.962440366668176,2.5850336690046474,-10.077400223578582,-14.908108647934181,0.8578487843773921,-20.723721990080584,2.6557256826467532,3.6655698027956403,19.827009034540055,2.631549702882987,-8.162015727130244,-1.7319201874785848,3.636328042349166,10.645647003681805,-7.877685865042013,-13.370804668828175,-9.569803384142448,-4.671104789657451,-12.787921284932576,3.4537713534462045,3.2462567889581524,-14.416303224818233,-18.306945347627728,-0.17032600885883187,1.6963066948599623,7.910564529442924,-14.312453757470808,0.49877722843864103,8.935419182142379,8.91597031515322,-1.9136797580360219,-7.565714124979738,-15.123647761735375,-3.1480587668686604,20.22502662069052,14.175777384931845,5.301455768528461,-27.795234903047188,3.394732788113653,-3.618794134190645,9.169163965571967,4.466892413764728,-8.21411496022482,3.1513372902074375,2.984971456344481,2.054810618622026,4.012293143405371,-6.156584168964179,-10.845560883431247,-4.67237457000757,-27.718857065676662,4.164649836619293,-2.5641778492256337,15.235720083464788,-5.539892963001832,1.8887890702993706,-10.068927394436294,5.782319576023303,15.592387483351619,0.8233420818056021,-4.95775661011393,-0.7748230538458325,-22.374339871155282,-1.8649793872552598,-2.9437053090842045,-10.107587652138886,0.7821925667980123,0.2800468844461809,2.661104357707526,-7.241951451439532,-0.8072121722362924,-10.392337970610438,-4.350357323985922,10.36985370395807,7.778551574427558,-5.955803737341043,11.650573436141721,4.249661056626351,1.6302692633243505,23.562720501053708,2.1073979221588544,-0.5002115048087928,7.198845701328891,-7.549030640623983,-2.739837640972313,-8.190720257772526,12.642326073281295,4.609445044205218,5.76358538327571,-2.0218070201452214,18.265746606563543,-0.730563280538516,4.836356160890528,3.383405599508034,12.922537660225647,-7.143529659354915,-0.4413118429873497,28.064609463774904,-10.503295957182873,-24.061435044543,-11.52955246269093,-3.156931390292483,-5.402761862367195],"intercept":2.329602724483398}