{"type":"sparse perceptron","classifications":["NEGATIVE","POSITIVE"],"weights":[0.0,0.18833268776994289,0.18833268776994289,0.0,-0.1670853993457172,0.4933570526923882,-0.18183827078197312,0.04882460012596746,-0.16698393646830806,0.09119429865098319,-0.006741914759284574,-0.17098211068275726,0.015913547049996868,0.08373329994402277,0.07562521790464927,0.11606779657212238,-0.07090192250394438,0.2388648435229099,0.01237848207665028,-0.020634989668210667,0.21330157085827445,0.19827572954659417,-0.453174165622066,-0.0753886153626958,-0.1059443571207442,0.16638809517747416,0.024906554751116687,0.2602134378108426,0.13248900195230479,-0.22482618612491048,0.08053292073960765,0.2778353114343799,-0.08073591704698202,0.021422657089038163,-0.11257022985310497,0.0623804952452556,-0.09075518472650465,0.050450478413780246,-0.23022604252185425,0.08583974947938722,0.09537139895874583,-0.017765201886649172,0.03040749123402353,0.021359108750229,-0.022021127647082347,-0.07457169057138312,0.007321467412718052,0.06778388737447971,-0.16341092726877435,0.09528703489524415,-0.15246574725783552,-0.1641758393656234,-0.044591956319167764,0.02800858643562653,0.035304818120583586,-0.1411289431750675,-0.007538483563766317,-0.3087383550703293,0.1254744923983298,0.03563890422986061,-0.07628659749236037,0.03789741283646956,0.1106517412928924,0.09630298323371997,-0.08857976727125566,0.14687340560887488,0.10234026869784733,-0.21145467801974016,0.12559243936274703,-0.29488825385394873,-0.08662464656344886,0.1469731487771369,-0.10250862363143547,0.19691051643450355,0.09820168770926702,-0.011557755689206077,-0.3165574386593374,0.1445932067876791,-0.32229775378157466,0.1910582121320554,0.16832761324567336,-0.08621501681142194,-0.09768616212287588,0.17068780836586847,-0.08781281348254198,-0.1499475015176116,0.29044540025849036,0.09082275952259036,0.01973521575731363,-0.021977043098860637,0.11340683244546756,0.056684513963138984,-0.16047706116851534,0.03932331960995916,-0.019171723539106768,0.09840361298434654,-0.14873616323381367,-0.424429073754261,-0.16655334544903763,-0.17890112635902816],"intercept":0.18833268776994289}