{"type":"sparse perceptron","classifications":["NEGATIVE","POSITIVE"],"weights":[0.0,-4.086109744481754,-4.086109744481754,0.0,19.077699770458324,8.857728824400272,-51.802884977707606,-1.2513745822592202,22.611022129239622,31.050482419184533,-26.66731961569003,-18.850987144501822,2.7948197921897755,26.20951276060414,-28.64727244018745,6.24308423500205,2.783403710229609,-2.1435690764221804,6.381073905563476,1.726902345152899,1.049287620483773,13.448925148471092,-4.93838943540943,-6.680081940202385,-30.2423934734653,32.03781813290864,1.6121917793686722,-12.119407927508652,-12.021412299531029,21.150741973460434,-22.06178281999159,2.8704952730222346,-0.5671111317196182,2.5713121820929397,-3.0187948259976274,-2.9595484049363825,20.100842355374386,-21.717756127326243,4.616275671334938,10.01651142712691,13.859842696237784,-2.214658852031533,6.366158228737825,-2.578940090736708,-8.911921122939503,40.058268657703536,32.33813296492281,21.74078619900374,-38.2802722829319,-7.74584734979937,-5.65634182775603,15.24721934697739,17.9669349074375,18.883382088685185,26.932848094271407,27.61071294892554,-6.7518251673475005,-29.696602986633444,-25.65827112023783,-9.857023940489782,-38.382349275932924,16.342791342274836,-37.044802920437114,-40.262663337799104,-30.28940059099757,7.262672918467067,-11.763089299136446,23.366779761856417,25.58027752684238,-18.377475293181366,10.749344018069266,4.485570570921104,-8.087304771518586,32.67715441555317,-6.287847079302151,-9.243003684432505,1.5898155328845414,-31.800290521938624,-51.246771212328994,-34.456023484716525,54.18096541643642,-22.839219322416227,-17.842986996232366,-18.096273157495666,23.558853785833357,6.604220038055138,22.682284333993767,43.91279466358556,-4.681428191985429,27.89006466713793,7.1199606459416,67.4296810753046,6.253669380105075,-8.425370951541021,26.693248872732887,-60.29284715177574,-31.084484132557417,-2.497326158942138,-9.635127137372551,-22.143899398570607,-14.253557042065117,-31.66196998560751,14.481357864231066,9.192289435497695,-1.7437122732311372,1.205625665454819,21.75406428172419,-15.059634838300035,-3.6703284112487995,2.6349802915406277,41.0955817217254,25.190683552261753,-18.49612950318212,23.490479224721124,-19.486343296301595,2.289831355604565,26.925905289684707,36.061750197950126,57.79195374525224,59.364503684880454,-25.0181983121292,-21.865575550229686,9.51238521642891,31.35530264228199,-18.50364443366982,-44.54354459029631,15.8525157271951,11.041667976480117,-19.767325335177286,-11.954620542425173,34.06047185763529,-5.583948246391468,12.103267250922897,-21.32866587613046,33.80096986207252,12.898853106306342,16.668107696389352,-0.4975794232179087,-23.652699765627364,1.4190212898191605,-15.819520952568322,15.845222346136968,-13.633373702483386,-8.35455766323414,-19.92373923202613,37.9443839966653,-23.07746802245417,3.685957091737632,25.18233164010226,6.91352267282708,19.583966222947645,0.7529065246935607,9.920691433009834,42.34483614954305,5.236712686416696,5.7742011929023045,-18.05440990215387,7.4250975635276495,37.440161681494686,-3.830328192736473,14.107691120321212,16.168368640703218,2.1709936400786223,-5.229112269321098,-55.59395314816399,1.4674430174522222,20.795607209254182,-31.09613151018365,-19.08372102278014,-0.733007509203627,-5.011763534782024,9.092581716844089,1.9828172983306054,-6.44790238074288,22.28990497041178,-1.4317444073034369,28.314802926214973,26.747296584603287,42.039732869329306,-0.18606481629875013,-49.6779279772644,2.5247543237944132,33.40524254719215,7.209167824008755,-27.509318636658296,11.143352874395612,-59.58122984498138,-28.868030464740958,45.50557098126602,-53.94920692929144,-17.688132728269913,-15.954121038646061,-31.05123299413603,-18.70298933517546,-28.938049523757833,-20.138844179416598,-22.083507899514824,20.536964428349027,-24.47339604929507,30.276749191046235,8.514571748424414,53.72239553918106,-0.18708538125128438,40.81309217671971,-20.564587721513526,43.164012079749156,27.171309192206323,-12.180681217640153,29.883409405409765,-26.8274375381005,36.07797969401499,13.603520676484683,21.30342505697938,-19.23196691731902,10.105611010076153,16.47461727796524,-31.948394889134477,-8.555851506591235,-32.985168289685824,26.733652521419287,33.77645960166328,-26.062852584358993,-41.095651255008924,-4.7988921809409515,4.120955489242921,3.6178649208853777,-30.38825221330005,48.60101995429607,25.707237967252993,-75.67850156108064,-2.9121079616370307,-10.948682221816764,-15.582147570662643,-38.601908101963694,-81.6957030323485,-18.806260347707056,-0.212015713286137,24.365759830957728,19.63600536357277,12.299771916968787,-3.4189946092477843,-57.5690354928864,29.308643351292446,-55.56353458168155,-28.895374876522084,0.1412874594281873,-8.257092582064823,-18.47530675034453,-12.679580839200703,-144.58432727407043,-2.466865342153261,19.97765528001565,-1.0700422882262028,76.9267854028222,46.20628742967807,-5.283824885531624,-2.2534295192748397,13.077868545221227,-9.628746911508031,-9.458972186671687,19.41136930911179,-43.80929607732323,53.30666265904048,-34.404346882440706,-46.985164935320846,16.614507225814336,-56.1692348325372,8.283301875548059,-28.423817366486183,-15.138991684070072,13.042555813268098,2.8926452324737166,-36.8144515587372,49.95042544429027,2.069481337990586,59.585012857281825,11.670020723107534,-12.144050827512322,-41.2698386226766,-3.634250817031883,-1.7002272686504323,-35.15105420378579,-34.85214883707432,23.262568340247405,16.72172748077532,-4.3245747606184475,-44.07020934826577,-13.008920058562245,39.98765989104569,-12.553258607754163,-13.470279802990568,6.031529380546688,29.888923873278625,-42.31195116272992,-18.60089409892653,-44.96458178780041,46.93702321556529,-0.3528371800976623,12.39738627270526,17.100809636369092,-37.1939046548654,31.776758849040082,-47.34136845968585,15.432596352674018,-0.42854010396490333,-37.03509696817759,-21.01188245002968,8.847588206187082,-26.209725526209116,1.3155020628483785,-23.26017441010195,11.448534818369632,6.157839868797783,33.344955349942595,-23.510747957402362,-15.11034706895942,35.992911216097404,42.86153487720629,12.791824460463538,9.071802381484,-42.02490565430335,144.32960914093502,53.00322284460647,14.551343642602482,22.253465144881375,20.52037731418331,-39.97512994724926,38.66209900254772,-5.974385717653394,19.918899783533227,34.08025534623581,-9.563209575075005,-2.4471359520185607,-43.45046033432008,19.655862865801204,51.03480767528726,-5.646074206399824,-1.2255405340203969,-93.33995410379993,-10.806137560790923,-38.301436151140194,30.980802804518547,14.99734733901165,26.842211347944996,-2.2904784943417233,-48.60136244445372,-8.692879626304883,10.148247448145387,15.788083979499206,25.33944104550943,6.68990646819258,-25.237512097105103,2.819793305782637,4.712729838877843,64.53958791383097,-18.332710245537058,52.79984923609034,-60.2454079463032,35.9100665552398,-14.76600948447507,-34.85544162425635,14.399668982977245,-12.656543609554776,25.65228881854379,-40.55024643171032,-14.352058093434788,21.863909925328517,30.616620169041365,63.46829801841661,31.822487262801026,-40.894139320645955,33.50516424804629,35.698028551668,-108.32467358610661,-5.876267757667469,2.713826450607187,31.742799242378318,21.090913582740374,-12.370700316062718,-76.6369628221189,-15.501378790772693,-28.055771098063953,36.357807398982246,-17.769619872372665,-46.32749052301489,-9.547504263938073,7.30952813480712,-31.22725955925648,-10.201390126521977,43.05385543547773,41.663623632061785,-36.18566497256998,9.40019459774171,-18.00346237348173,-81.27141532324677,14.504022070978824,14.402761731878973,-11.975757967136762,19.923127274805136,-35.07938051705506,31.34616904058948,40.35108101031111,-15.075115294826817,-23.889921230784356,100.39410491337405,3.018602752878512,36.309065400342654,-4.861303786867239,45.136111782031925,1.0839513904986395,18.1947909529839,4.116111963716485,-9.215309660103236,4.241709992745993,-26.262319363008398,10.264908981877827,-31.162231192022627,-26.09304732057638,-33.93642129490324,13.233054467826424,-14.192224842851385,12.734451231453546,53.124402793922016,31.97214844935518,-73.94791182873891,35.28657962191736,26.239007387637614,-22.741754663086557,2.100734661480925,66.34766220649774,-20.262317465952144,-10.18033614158367,-55.61552043913993,-38.55796539984161,-23.147953794573013,23.713081670581246,-47.86079261333338,-108.29591022801519,25.553185226735373,2.3807238450073456,32.94339416932735,-39.13257482044438,-2.5234568839090317,16.73543993575454,81.83817703428161,31.696587891471765,-24.210519892651984,43.615046570271794,-40.233221714682614,-17.49129406342446,9.858504464033,29.08784092125961,-20.80533607056043,19.29706318438972,10.799541363170913,-16.148074772122076,-8.807571490986449,0.8020678171852371,-28.810542464681898,-43.542848153837554,-22.82793989843727,-0.0949985259943675,2.338715632785873,38.418143542293045,-27.0422307192955,-33.1598001853078,9.196714179994022,14.326331853045383,-10.557997521733254,44.89949288569506,-13.733552679804292,-1.784812248486244,-43.929136208451794,-44.00134158210194,39.85123854881004,4.268821114203224,-16.49599144166915,6.897668914717417,40.704011574498374,18.197493594366318,59.52489044856442,-23.497826093460876,-26.22611041868944,39.802469495583814,-14.364005106698059,-20.973395216669086,-17.042701703884095,7.741125139635748,-21.927840630078713,19.178807246739595,12.714410617395245,-9.839654423900134,4.79249988782049,4.889384227413242,29.001267192758263,22.782279982158265,-19.945144636149763,-62.9828983750727,0.5827910815348014,-12.156156639508746,-26.460922720698374,29.5479896615829,-25.33485517519431,-12.937098533536558,-18.758901521049246,10.852100544136528,-7.298765902949252,-31.427064689473692,32.10948763091107,12.692535909343352,52.61358718410077,-5.205338323176712,50.13508191092026,-13.266910669553184,38.30417979594374,33.27310478465102,2.3556911573169126,-4.98544381427163,41.2282591826869,3.045330269479276,-13.154209005451829,-5.0516939257615014,-20.50928204333803,-0.7358899800690011,9.31486089385005,0.42936347569599587,-28.455929805706273,-58.81858004654163,13.375120063401152,13.116634740969701,52.89655868739762,-0.32041747688389416,-29.910044368030405,-7.076114096324865,-26.042812619921726,20.381422803235427,11.892651695082932,4.822127318944095,0.8567245611889841,39.628392808823136,5.567271844995687,9.72020008329518,-34.001372875697896,43.66804041293583,14.055654405012623,41.63737825556918,13.002574404512211,-24.248810812846735,37.66058529776246,-32.98599028677424,-28.336245502274256,0.6189086188441246,0.39720619358749776,-29.670084776727244,-15.95101813018989,11.409714717504542,20.993922221404244,-13.939603156422459,-26.375351614161975,5.795752405278008,3.183013299615986,26.08077063096955,-49.762848594913166,9.308864436982649,41.228421013092536,7.523709711708193,-53.27482109961593,-7.965085327239999,2.5278975670155015,5.048725632587496,-9.937176401758464,3.258605614269319,3.5013716733234146,-18.581868060341016,-19.527851450489973,-34.243775394572445,-27.97851112828768,9.242561196243168,-40.08455570267492,-7.887131248206764,15.933856992161289,54.5885347697137,19.447033710049173,-23.21271951896147,-52.2910376916427,-19.820081860328234,-35.54653996475098,-4.892409033879371,-23.23021204220918,-10.212026462513258,-46.31818189067693,-37.79302051966527,21.93587067250303,0.4234654531304763,-42.13560185889853,-93.903697106433,-0.1750874949943384,-4.930845414734591,-57.22612159643573,-20.536641311458474,-12.92290998487531,-2.08158260516507,-13.715393600946184,38.22313371151575,-3.6701019444897365,-28.198238777952476,66.85680630816144,-35.62590083419292,-33.40026862323008,-9.628357207388573,-21.916339420706056,3.5424191183713436,42.32244867936674,0.1382519652158571,-37.50689288362131,9.72034648052009,-61.65489542198395,1.6898115411358714,40.62153644892697,-47.15584146140013,-19.397752859719915,13.152737450631122,-28.70545106513765,-1.5487388257759243,5.337265665866548,-29.888343934884844,17.328434020665334,2.196343868552703,-20.35994684188223,9.259884539828594,-41.47652881886162,13.286906233962098,18.37841882028371,8.787398619944616,-14.501999498730129,37.86853673819323,13.820684509741621,-12.317788094984078,38.42275115907064,25.837328526626894,19.089195296274184,-2.4529315932683966,40.83376698672014,5.03327164969127,-5.689791083684451,-6.545940909856229,27.604252726603256,-55.56694387157279,-12.951220669194738,43.480948345226565,-26.25727272144375,5.031837752359642,-6.491422306209322,2.346961931321304,8.61913813550674,-7.410536004924822,7.386234370203079,-30.930883283082633,43.948226214090134,-16.845602298273967,23.467105570323078,1.3688884563360637,-36.047839262896844,34.627244021821,-32.962909364196975,-0.529116943970214,-19.287038408490083,-5.966041515480905,-10.76780360572392,-20.270044673998154,34.285751051105436,22.912242999341316,27.916551810129597,-6.900550509848818,-4.509319072003437,-29.69099276078382,-32.784518108407255,16.531667885664774,9.555222840990096,7.8458363882417474,3.8592765717808994,11.870719754145643,21.451368165317337,-32.69279845438385,-5.7415152716050555,-24.66113731152417,-1.8180714428310005,30.495172180862472,43.06350335953046,-2.6210102242794866,-29.409230399814458,-48.74024221541151,71.92439873432434,53.89732037610418,41.561817083600346,30.89646071013178,46.547098705990436,16.35253188644979,-11.13165127612622,14.560884169015553,-7.822605760344445,6.507844472855597,48.64483440640194,-14.740465433885499,10.081655395212964,13.925421291849277,-30.710393728925787,7.855447072131355,-11.580055259916959,44.827656056387454,-9.62732905095304,-30.217524715091866,45.0888367311705,-9.040284932450403,24.487815243123517,34.015417573385704,-2.840778175305319,39.32400024814797,16.35798620059882,-19.69456885421696,38.01492326466516,11.4017001674522,-6.6865199614336825,15.737920667147135,-10.1283979056417,7.113984854176612,30.79400558673275,-11.670162190463016,44.51036237173792,10.47534508820248,-11.182228118151414,31.297909928025838,13.60283500981795,-23.141547271182016,-31.97861453496327,10.154279592792841,4.03467947342453,68.48008413725408,17.76782884559896,-6.289661163211665,-25.26385926560713,5.194403441758423,7.611707732422187,-33.76589200778543,24.030236958210132,-46.99523955456411,-1.8771913389263755,-26.40528009321371,7.163986088321607,-13.239745048533186,-8.011255578479178,14.328297255349515,0.4476442118314149,-31.49218163362999,2.1053099868638676,1.188590648831515,43.26626215727607,41.173087663190636,-22.855702776795592,19.13070877152246,-23.519228179342647,6.980861904813054,-39.336862224411675,-34.53207777710303,9.714205722367595,49.27801747815217,-2.8277499704120226,11.567100094744596,43.18894966185434,-10.508062575003194,25.260108563924714,-29.52871182266619,-32.71371035198457,0.5774042860517695,3.4032336273978747,-4.078911437475005,29.8124953903939,31.31156860197982,4.448618895024883,2.089598964090613,-21.516454784726754,-55.15705923027793,31.271531498668793,18.464920141664056,-10.032279475677766,37.48881804426464,17.924883825383212,14.197170329010904,-15.489514489747483,0.7956845218129838,41.98036070184862,1.1803438605762502,10.061183659491569,-21.505364350902205,12.344245615941668,28.47149796845171,-24.107607871532743,-2.424695457996376,-34.351698232723116,19.557695448036817,2.5862686191991533,18.575364303313325,-13.027262080198772,-31.285952285541992,51.26377604483363,-38.15537371790461,-67.57382364366983,-34.57220780183837,-12.781376247035533,-11.393283171463585,1.5056470330149458,5.991974568574696,-31.386526999664298,3.5127709513149084,-14.977855473719943,-39.608937181991585,21.415937406774248,10.595509836011114,25.316221077566233,-6.510131823078686,9.426529239406722,30.82965674145003,-39.72895679428253,3.4348230125913624,-10.387398041133183,-8.672758692528017,23.992076694258333,-23.8698346859133,-3.5213943537148253,65.47354708149928,-40.38243155332402,-27.62616848512913,-18.393914488618766,30.81870964208932,16.895961603357936,-46.69083890498952,-0.9507079369282547,5.1441973332309034,-16.99014511426244,34.762222245168594,-42.27867020821126,37.03066875065343,-19.509948957432552,3.2167073430528648,-16.815208714530357,-4.808095159269204,7.903039116047013,-15.614069174177477,-43.832089158876144,16.512798748820718,9.568658529101345,-22.344690323300647,8.323040589666197,-26.304238715376187,8.755901605975334,8.44924401647144,5.513994309624473,42.67622983970483,-0.32087739566765033,5.7248830643031585,8.284555838016795,19.74558058083803,-68.96938802763646,-57.21477763710343,-31.30954743698341,3.7872807036720633,18.39473138138501,46.195674335942314,9.466064405601228,7.072041497116318,-20.934253085967836,4.570334927642647,7.166805925900311,-49.87234584970403,-14.756513602211719,-1.9717910083645307,28.349129895821154,-15.778849460628475,51.377612666407806,13.368113079503466,1.848733586258493,-22.749760978982017,-21.05054239057981,21.403336172295674,17.554499703298045,18.702059865695702,0.015305843925789486,-9.86036938584075,-12.596179275234348,-5.09295672723857,9.492379355917947,21.22185657712846,14.670779505722479,28.39877672739388,-44.73466442788533,-19.348282802616293,26.147613669881515,28.575098020388722,-0.05973700955158212,-34.02630518647747,3.6507842057585504,2.0292592342482054,-19.463638025940416,11.806960286338464,0.45908823593933445,-6.347967389544222,26.848741352511645,11.004196939961288,31.330943758042796,-13.66279251082399,-1.1432415886499216,7.495936849451451,-36.03002584913386,-39.37613950353056,-29.72144983110791,-15.214971426947685,-23.058046525033017,3.2124121670533006,-34.09148024400661,-28.76455689921308,-5.865211572066457,23.34081156201486,-3.023425156912278,-15.392946438882474,-5.865211572066457,6.839766088170582,21.081266082052167,2.6454039778982774,9.17918662534435,-34.35682446594337,9.461750764230835,22.126327701860454,13.647916412268339,7.321482024945628,-52.85624652445246,22.390033111468533,42.59724210308435,21.51374220188694,-0.8539220059105365,10.849303443377815,20.426147511443123,32.97659141694465,0.425267969729791,-7.7412907627390455,32.47209431673799,2.534577143370695,15.141461103851402,-17.137643420860066,42.66436453094875,19.724379964898187,27.86201103528729,13.260511944211212,-23.37686594764425,-4.738012361580518,25.757054143047828,22.89500707202504,-34.244382515769594,2.428666110868771,10.58251680730654,-25.263177458993823,27.177908959388553,31.930110421330482,19.371373694258853,-15.040913851828915,-41.18474697413458,16.134113003122152,-2.3361876932037817,-24.917402661091852,-21.406554691360874,-0.20520289865669694,17.678404643197098,13.763101657430186,7.428421376823906,2.4925321133353036,-6.411597322118957,-0.07921068881532595,37.437985557668235,9.302250208778585,-5.660333243233587,37.245519434002375,18.868441863976926,-26.117513445102546,-11.603337925658298,17.75334854906861,28.504032958268148,17.519047209777394,-8.080114870408813,19.471794943422225,-31.11329747223894,-18.565151582445573,17.977155801277608,36.79313754011247,-23.57505849831509,-7.615737857691432,55.11960226090109,-19.706577009321297,-24.69394959501369,-0.8420229187261519,25.375046324064197,-12.75859909349991],"intercept":-4.086109744481754}