{"type":"sparse perceptron","classifications":["NEGATIVE","POSITIVE"],"weights":[0.0,-3.180901122954057,-3.180901122954057,0.0,19.04468288976742,5.343383129894309,-43.61594962390712,-3.338061631307354,20.825860099944176,24.781779865691963,-19.696582699032117,-12.656328485506027,3.1050843279596205,18.073086057499037,-18.82909223877672,3.3550374334808515,-2.307098166967936,-4.5407760956364065,2.097740777904659,3.908383118778402,-2.9318216141499396,8.947703957423709,6.055281228422303,-1.711544463764638,-17.844187367411674,20.530534662118757,-3.7098370911135965,-11.04172287682975,-8.422795828909194,13.061457791945108,-6.8296779456246774,-7.280943905971649,-3.946808345904323,2.044129490342534,-3.714428266274904,-4.318880036091989,7.638649110218295,-8.33587882373133,-1.551513335400851,0.833501867065256,9.001602854911795,-2.006321670714069,7.400125232610209,0.4733148771345416,0.2080891295304496,23.846427430417346,22.853005329165885,9.181459612520344,-17.068860974213003,0.9385739180068015,0.15248299458650605,12.433089454555452,12.549292645755033,8.42920308136912,8.185723777638495,7.237231002811101,-1.3318717233844666,-6.871538271489675,-10.53672595137025,-2.642224372868851,-15.236289482239215,6.1489976616833975,-18.14371029809782,-18.526160272246337,-17.272350351502432,-2.4023747259066335,1.514822216907946,10.461459151975745,7.67295451285095,-5.9010124741347925,0.7134694670790823,2.1973515893747892,-0.9084747559102315,17.177889388853778,-2.9023428698918003,-7.539228645456211,-4.951196747520979,-19.783430290795906,-22.319005797249137,-14.807503511665455,29.82738549730122,-6.186038135799061,-11.652464056790812,-6.876860598601093,14.441569582489045,1.8123500004857593,17.394855085805208,25.62509651833027,-2.233730062696099,13.115783988749682,7.024488739534994,30.393520998081698,9.795953510289507,0.213242634215203,12.606966698385968,-34.86592807581648,-16.10656452202192,4.3108813681126845,-3.399836249065459,-18.943964527422807,-6.2075433729126,-15.359346097713425,6.867424592723088,2.6307517467110864,2.3726923504464086,-0.5531616761873379,9.154774240871767,-7.753811784894419,-6.822735655694739,4.000936880454599,28.89996656258771,7.881388048811085,-5.206924270757249,12.700330983622928,-8.900363845038951,1.2156583072834188,20.897232024079315,20.68392568122567,33.079074986734724,33.49154425529901,-19.919808302059987,-17.226218812796382,4.5911793148764195,14.489800891175134,-8.63253043365546,-21.613482038862998,12.703687392918065,5.195300396682639,-9.758825432921293,-2.5667973057550655,24.58913997656203,-5.041752651676006,6.645365780828316,-8.697925276036893,22.297846437514586,10.156003331302275,15.996974315637543,-0.22477178294640837,-16.99309986837259,-5.61057252719105,-6.866810106992658,6.725747176752701,-7.506371207650535,-1.616654180840189,-10.371899977070996,30.221971710068313,-11.794292611811079,3.0511821608005727,15.048652619291381,7.972835817294595,10.486077015703263,2.2848689887028786,12.379417579546379,25.264694075195628,-2.252173352380452,10.514601839989824,-17.3718094441974,7.211984149637957,21.402565821093027,-4.249103037632425,7.888536338139146,13.602467770377764,-0.2662364885164641,-2.3647496314473235,-36.14980821049842,6.772206130656419,21.999036931017944,-22.209921151143845,-16.83737224970105,-4.016022204586056,2.137429402881269,4.4772765978714215,-0.30420203226255843,-4.885203794167934,12.098615347546575,-5.221261202322625,19.34996195997866,12.727152847314883,31.202992780583706,2.8595549139541436,-34.150725057760795,0.6476045561586893,23.698659773972693,7.582050542102723,-19.761570298727545,0.6240900965171312,-44.93562664508867,-15.842255871017473,38.772185726566335,-37.48240838875929,-15.334767021492084,-6.681706647607906,-17.455950908335836,-10.921816710219385,-18.707511042745626,-14.705289304064646,-16.46539907443888,14.111941375056052,-16.274484056543777,23.169599077404914,1.103156464566384,42.67270811915687,-0.33554883078803516,32.688056944649624,-19.810651320674364,29.75484576147172,16.466901648431936,-12.701582584537547,18.490311824587714,-16.238476499422127,23.425578475205835,6.650765628114471,16.020103365718327,-10.852424907270615,10.646022351923593,14.842728364459518,-21.92525606215205,-14.08767572457769,-23.25082452576716,20.878895802272122,27.56056952466933,-18.59794512459668,-28.268096928944903,-7.558884314587634,4.758423504646246,5.89692720812599,-21.527344258086888,39.968625617833744,20.11918701868198,-56.45541081646333,-4.523492500670993,-3.4895268734781504,-8.980251718532745,-25.399614659197542,-58.39517156221164,-13.02438167961434,2.391895541382643,16.420148600101278,20.209649759015814,4.128051830971837,-5.761346838561918,-41.28252217782196,22.85015850596122,-42.28658391129926,-26.066385641785295,3.559173601145899,-7.787467465498282,-14.23721113219555,-11.593582787815562,-112.47779184877787,-0.6203532608040014,13.568876463134314,2.8800481946018355,60.50397790208639,33.82712404649019,-4.807743516457016,-3.139032622927558,5.560282259454318,-14.096795497349525,-4.995075500852178,15.734746446900814,-35.17327481717678,40.915923501679785,-31.94308808375423,-34.41697152989033,14.322452469612328,-45.97803841573552,9.312609700050746,-26.46532901534702,-10.037986435187268,6.1032781610200955,7.848237752068845,-30.639299119137853,39.97827699058609,-1.0733353171809814,45.692711402052474,12.404234233588793,-9.318417652135112,-30.4814327703027,-5.371834218743142,0.7679628911346975,-24.893987217734427,-27.542791980410875,14.650240975332473,11.337864581728848,-5.446591093355633,-33.673465481138784,-14.336753384025974,30.90226091338019,-11.261404212399984,-3.546439768512546,0.6607382454209756,23.7337068498867,-30.567201324594777,-13.269607045307168,-35.91351526073529,35.577253626882765,-4.609871147171802,7.624322889646382,12.500590987685348,-29.762797537072213,25.023129750403054,-39.58964011200421,12.638917594447447,-1.5435568715295842,-30.22838036519376,-22.195599898194708,5.204292852104752,-20.58332534716631,3.5844018077707527,-23.44341055277245,6.254387335107178,5.590652595425173,30.887852567953264,-17.280706994682358,-7.021947893702316,29.17551291318519,32.360138913093714,13.514021024252095,7.538226003245594,-27.705705795702865,120.97669292994699,40.20122196103215,9.670960541425082,22.8849249115379,14.335346977621565,-31.572147867891815,36.703489707550915,-4.521227790884052,15.944390420221698,23.88603496046518,-7.71211298002402,-5.9703073614997795,-34.640844374914565,15.853139525959278,43.58367787048735,-7.6502488383552185,-2.8344250487854334,-76.99176485743668,-9.730180859443022,-31.119344992026427,22.378046956754016,14.821347110948969,17.07498742236928,-0.465473151386401,-41.77597547339123,-8.779970477321736,7.959379250255017,11.95452258026406,20.47420373831663,7.418816539111574,-16.195603235873268,9.979499261786675,5.653584308653942,50.63399190268666,-15.135149207903718,41.90783490839885,-50.55363245818853,26.93865006514954,-13.868509464645879,-25.69388768034321,9.21904912024273,-14.348029833004425,18.277342567848024,-31.32301948598633,-13.20075857997741,19.625730143127104,26.85953962780934,49.850327721744655,25.794715739400786,-32.44537714970031,29.869405501266147,26.837677959953414,-90.52901533579549,-3.781270809969808,-0.27579804687110593,29.276017910207784,15.662019852405821,-11.280301549449032,-63.64930671365592,-13.912891456206784,-23.262567228331264,28.678556424757307,-17.876941831262943,-36.64624909405701,-11.429430498517211,2.3283454665486816,-24.856033763830244,-12.93551725541387,30.559463048044872,34.146506463005665,-29.975806170026747,4.230434909882996,-14.375066741323057,-69.2344343314149,10.257605350101803,13.644158502077875,-11.43854019849613,18.965813783705887,-30.060049455438957,26.20633829221201,35.04203982751185,-11.005114910756461,-18.050099353886164,85.20291848321364,4.972076331878403,35.334151123176966,-3.5518391029213383,41.360390489131895,-0.2426639912526548,16.026537223633092,4.113162573857746,-12.5920604192328,2.2023481094394164,-22.902003902969735,10.030609676284728,-25.996903567819135,-20.184325774276942,-29.164737076255765,9.587919952843386,-11.625719255377215,10.217785173298255,44.38888518433094,27.655539523742114,-60.64170134916194,29.516871421030064,26.532663992321275,-18.27413308594771,1.0129891067997157,56.690030010411654,-19.82395635949664,-7.172145967138912,-48.88596553680065,-30.15119088904377,-19.907314546765072,21.54939165173952,-41.38668909864856,-92.68389765977665,20.3271682505427,2.932648842879645,24.584009756376023,-31.633703461651137,1.0372841426664416,13.507464668923674,73.50218201962102,28.54304571349328,-18.26499376487271,32.90008797665983,-34.11096531852867,-13.109484340530193,7.413262870120775,22.416200732334733,-20.214000478855517,14.657635486287374,9.026489085204622,-12.563450826059775,-10.393299124041977,3.719376840267657,-26.880754893049797,-37.979802029948985,-19.204291238129162,4.380678390120729,-0.21625895501913117,34.71409993207054,-23.53013080752572,-28.054986589068502,6.654661261146931,13.75406810279976,-7.48722688194832,35.49868827494531,-16.268134509134253,-2.1522060610159977,-40.54465389875656,-37.22161801142824,37.81189707081001,3.5432491470075322,-16.295140913519482,7.771983385929375,34.24362911601256,15.126964434636541,49.670120137957625,-20.806194239680835,-22.708384481784336,30.35818604849963,-12.294706974324184,-17.14204343347272,-13.439371676682507,4.051310610676612,-19.430530751961697,12.710077149685757,8.374704743132853,-5.221498616721345,4.237765041072923,8.55972065596919,25.975095214945796,17.315935099396025,-18.98104320048363,-53.08183524879147,-0.4060159988098046,-8.980089119292575,-24.390668073598917,25.811768408679946,-19.418010049471906,-10.1412211890349,-17.906137278309473,9.801008245434245,-5.0517436838621865,-24.13029147745994,25.973314742275925,13.458394041265544,42.418928364046494,-3.9812674911561277,45.03379819173081,-13.089083836794213,28.812140375064164,24.326032229265397,4.568603527234477,-1.6490051998662107,36.58210998368018,6.066088547937531,-12.390525900772998,-0.8081592326452312,-13.71222402194201,-2.27862871412235,6.647003035962597,-0.5210297710125036,-23.71441067562463,-49.090686065712305,11.470637497770891,12.047280973691864,42.36699113313484,-1.0449178526920928,-25.88363940813769,-5.9995030574868515,-14.070288069552234,16.930346002047937,9.541154579257055,1.4976902670465777,-0.6191023086908934,34.31818276653333,7.844744584603121,8.210328797355587,-26.841437851092593,38.56592316600344,15.569865038290184,37.62006412592856,11.405749530533644,-21.28064425547932,32.686341837465434,-27.50397373897847,-26.6131833978284,0.5022907338168523,-0.8986008696324316,-24.07385422222178,-16.033311921362294,9.766640777928597,22.721118315488457,-12.228482279738508,-19.599173751731552,4.021313330518026,5.074390937566735,23.32110412547158,-44.88344762315394,6.4292695585046955,38.414067861847926,8.003698029978123,-44.94873893630302,-4.199778857606549,4.314882586010529,5.8041588282007694,-7.451234170174954,4.154562105408667,3.669055629406766,-15.902246398561212,-15.485190912942166,-31.253967970088347,-25.647447114710378,7.760226740761578,-36.71724680339817,-4.828033922330767,13.857576526043898,48.02993527774238,19.955768251601626,-20.854031405669506,-44.65761777395964,-19.03988578749087,-31.13946673965929,-5.80602972651557,-17.258134988934792,-9.334157449342607,-40.05294571816874,-31.68408798553263,17.87889073532225,0.2363765962028906,-41.27934340135763,-80.32657150370382,-0.25924098054674627,-6.324834274021706,-52.974128153153586,-16.924302792774515,-12.713229906505793,1.1566641197968384,-13.721633399593467,34.63048181000781,-3.4363334717808263,-23.26899456044911,61.940589588309805,-32.495221457616836,-28.30942546577317,-7.748530518009193,-20.5666835029343,1.212418840583528,38.73683251660533,-1.5711620801907193,-33.69039774614656,9.712668417126972,-54.13783752450169,2.572496486182225,34.69422938606702,-40.50995142884398,-16.196707146115337,10.214237346400719,-26.201928548294557,1.6000108396776207,4.33039695606161,-27.03211859818123,12.868875131524472,-3.6563987828152524,-20.93799734535928,11.534980991765925,-33.35008671697047,11.11664360696522,17.635205299797516,8.487295130860623,-9.721993850391497,32.9162301447138,11.40567516307692,-9.5004371217473,36.271010719244934,23.145323396599796,22.303330507232122,-5.584122014344724,38.48289372663232,6.533006163615659,-5.947059699915714,-5.941043906088696,25.020305041759315,-49.147047602566076,-10.037115737561788,42.69014771276877,-26.15668364868146,5.533649877130381,-4.283938724726874,5.105756712839107,8.533098990417832,-8.156135734147405,7.351019899981626,-30.189804336218828,38.60192664094652,-15.055611177599644,22.427019733048446,2.151363126195015,-33.889520004192654,27.837568776800527,-29.978183873392748,0.7551644830038556,-15.803703355821686,-6.629114702471708,-11.883305896978255,-21.13610557891836,29.962460793477558,20.74843627188271,23.549789097235088,-6.684295036723236,-6.77259586769679,-25.332313545150875,-30.071510369159085,17.89684021589089,5.989804270858431,6.84312373220249,2.712229205523791,9.912276257953907,17.386791011397726,-29.077302177463277,-4.9049569033552345,-28.67000146865892,-0.49863380292766435,24.744339160177795,40.19945208054319,-0.48630370291216646,-29.069793415612462,-44.40100323005711,63.38409575631945,51.87692393263525,35.84906770237447,28.62612253616999,37.55319159258497,14.56582641723807,-10.50786647634717,11.515806433439412,-7.048472947212838,7.16836491207571,42.66892819985239,-12.365762546838544,6.423675098508678,9.886563723417972,-24.98353251567245,6.2409362176695335,-6.884893609756527,45.867560706290874,-9.429680834419974,-28.402084331944064,42.67060835570876,-4.462825862328934,21.325385716355292,30.33577403724532,2.2379220164253337,36.027200712897574,16.25242182340723,-16.625673252606394,33.60241456971207,7.432735186139842,-6.855037563709476,13.82463998073853,-8.723125114340593,4.609771376823641,28.72634354754529,-12.005864872077737,38.545484845068565,9.870535839142402,-9.814480342362371,26.23697580698104,11.572972021283578,-16.576232188534956,-29.581039143242343,8.016498232652145,5.428272277836237,62.34879012378709,18.72131110664718,-3.563450701245798,-21.84300566134656,5.656173786104544,6.299671866890023,-33.32417396572566,22.45372822396372,-41.74942364936055,-1.2538669313576822,-23.26479228643047,5.856463941992629,-12.13757555589283,-8.855733775224667,14.144099848393596,-0.31291377561384065,-29.28693512072949,3.170399254810645,0.8893919231445989,39.58682191304529,38.00143322854684,-21.3195694425492,16.982004368777734,-20.041682363139678,6.000976968376867,-36.217713622004034,-29.140074522570632,9.398339950079992,47.10181384004018,-2.79276250236732,12.583361589313334,39.12677727776253,-11.952898846763043,26.23923402676642,-25.593360272328933,-30.83809852118049,1.1143803012155695,0.857331359991237,-6.544628716062363,27.09441330372276,28.86881553382766,2.2495189741899955,2.648127996427678,-20.71448201111683,-47.81324268851979,30.904117561974875,15.06143322661434,-10.88406712258237,33.95398532744728,15.645323953809823,10.78929654089895,-13.459795566657707,0.04672098959212419,38.07788971232268,0.9816143323952946,7.523003245340148,-20.930815938669237,7.973316609226387,29.635865426370298,-24.723421236171095,-5.597292701908399,-27.472553339212013,17.59907342438623,2.3252476659750814,17.369714978351894,-12.25652223353648,-26.694018453124702,46.613283565267736,-33.72057178636591,-62.634509877291194,-31.06926657340707,-11.763481128085614,-8.442617951728389,0.45378779373226075,3.567449137270671,-30.170467140315615,3.261058298790794,-12.314267804137552,-35.90254811729817,19.453760933131623,11.961214543210325,25.82020224131893,-5.924749371017933,7.070609323864368,28.402649252924725,-34.55021153893859,3.7586447605708604,-10.964656726704174,-8.20408281518762,21.685221484485602,-22.512738073463325,-1.7947859129705386,58.4033893161906,-36.63572721006387,-26.448325526462025,-16.904522286357476,26.331973636450183,17.793491817711484,-41.80411150088731,-0.25222114271851714,4.201533106829925,-16.38878764987485,30.23785807828628,-38.12473776961514,37.83719649519346,-17.92805791551713,2.9773736344833264,-16.29973456323647,-2.860336468555436,8.011563268645743,-14.97423429358872,-43.36583925251141,15.83577907327442,7.454339654388779,-21.088386121858566,6.824305082893698,-24.839251011149695,6.260076604543712,9.273409163490236,4.602110457369125,42.505426375133034,-0.05515515898774073,5.1979359570559405,7.072944791346993,16.774203402303552,-64.81458990610884,-53.82546029333576,-28.7886844612454,4.085247516483087,16.252693636131852,43.73621562101021,7.635150446907785,8.291946447208913,-17.415268472179083,6.753465211388171,8.502276229773427,-45.36535025477965,-11.704028419214014,-4.186456020433126,27.58311777136341,-14.526873831088995,45.17618949995925,13.455810882938,1.2178397239619778,-22.406684696750393,-20.669071083771822,17.530962854031547,16.730839499139712,16.32248463598848,2.1882636272000546,-9.08025794134456,-12.746757401011683,-5.163123295233815,8.22493148989803,20.169303252134682,13.73028692680969,27.13726007613472,-39.93142561611994,-17.63504155133336,24.21676871167076,24.16557805017689,0.0038424172404760426,-30.46739964780191,2.4178036394059728,4.280428173220849,-17.90376572880785,11.103891051108825,2.327213123056045,-8.099627723482984,24.234712996671632,10.43717619957098,30.62091533007664,-12.030403428736468,-1.5613094535698513,5.893254655263343,-33.51787112969545,-36.98939065955541,-27.57091506273496,-15.536046792301791,-19.182062543729568,4.439767001008211,-31.550615178768417,-27.708705497545747,-4.590387181940389,19.63429156045513,-1.9479222912916594,-15.523965435379864,-4.572852147299288,3.395843191224268,18.057732276149768,2.886750541956469,10.106664905029856,-34.93291171224768,5.2892355008363445,21.4292045499389,13.827150453124023,8.623494397122064,-48.0543584615158,19.58713313464017,37.44352312680075,20.10657752113598,-1.904893922898291,10.072897266742435,21.346406550944597,28.696214547227992,0.31404910887806176,-8.543594613026666,27.512858551166847,0.18467292860008738,12.128458770702927,-17.10751411166287,39.98092910217899,17.560486239349558,25.638929701757657,11.475504399694195,-22.026108716626535,-6.680748350937062,22.993850159500656,20.696043132053422,-31.927273325588562,2.2952582852334764,11.447652656056862,-22.37803402821305,25.094904647966924,27.395559895111212,15.798558118274237,-15.415150985414352,-37.34457747787915,13.64560898034627,1.1581174537392167,-23.14847942169927,-18.72819526613613,0.9915222611097378,16.167402228371543,12.588990608224055,5.291785002498356,0.9475334243173361,-6.947379224812114,1.593895046638905,34.15877461042152,9.520789499193397,-3.724106012741351,34.19147518909713,19.6093834844735,-22.81484579267235,-13.448102472735368,18.13939649998148,25.866806036840845,16.618419186187058,-5.6780479373367845,18.40114329593059,-28.388421547269797,-15.972764664487217,15.90152880443696,33.61093443150231,-21.550510764414902,-7.190254731287698,52.04185444419656,-14.971161908675821,-22.799229772227108,-4.2778541346836345,23.87251499572077,-11.396245211070807],"intercept":-3.180901122954057}