{"type":"sparse perceptron","classifications":["NEGATIVE","POSITIVE"],"weights":[0.0,-3.14418219781623,-3.26568740431433,0.0,18.902021112769507,4.191069726668833,-44.84168759395876,-1.2361454201370639,20.101228656566153,26.857092706777063,-17.49370096839438,-14.370138083206848,6.1697832109576005,14.790581032753545,-19.56213401868742,4.391897407992224,-2.1624632552201897,-5.090222598486782,3.6370634673359388,1.762836979125399,-0.1490604569105513,6.931516845601081,4.616880819257596,-3.363922520954061,-16.748421637191704,25.901577181244008,-2.3876401227548287,-5.897123876211063,-7.805611328573614,11.98891748464567,-3.8527137929404778,-4.026796406314376,-4.626447659055758,2.525007468609502,-2.1496261684666704,-3.426947903073863,7.208382594008498,-7.353742157856481,-2.1090741397457156,1.2529804660198818,3.4459400496152988,-4.192024814257643,9.807796126038863,-3.754133530967225,2.1794796970416375,25.628729555389494,17.285634303872992,11.119221134544016,-19.901079204988065,-1.3707419612072638,-1.0796928307611688,11.183143010091534,12.224416227393963,11.935619259905765,8.988763840541665,6.58829155454549,-1.2072107577899716,-9.031728833344662,-10.66403803073163,-5.617887002885818,-13.953469377875974,8.870861080994544,-18.981530219353303,-20.524062690219175,-10.763961489885173,-0.16785496345662954,-2.7020649154570844,11.961387415076612,8.816056098005266,-6.070339917688241,3.4422404146950836,1.6100819220987839,-4.834306044859707,16.470645531013673,-2.6191695602790426,-2.7616258546331265,-4.4268930912980196,-13.991860044673787,-28.77855613889421,-12.747765175475328,25.27785886324909,-7.512676553810317,-11.304815937998226,-0.6406710565873432,12.619323073841496,-1.4094476931790918,12.8808392321881,30.020158544618628,-6.82193807190848,14.491284951554768,4.619145445439489,36.71595833245422,10.27603449109305,-3.9300431075969198,11.705881570755295,-32.988987121198996,-16.379273133940163,-1.1297923387211422,-3.23643805408849,-17.73440302342733,-5.890298767702878,-14.467599400904941,7.357280009316586,4.358946863883765,-0.08590606261544222,-2.1716350119333523,7.674977896583418,-6.853277860754536,-3.8122537332395012,-0.38483167660275513,28.592729309309792,6.724997659537536,-8.663827601496292,13.86454074917265,-10.714377374182412,0.8944818258995226,23.4141502762504,18.718402960628964,36.52289634340309,32.50237422446246,-21.0407986824252,-16.519390337957937,7.436098480448246,15.198711688047466,-9.440521896149601,-21.55332055160767,9.711686331325682,7.305842371483457,-9.306644158126034,-7.098043665312262,20.557735508200274,-1.073674356371746,9.653329316831172,-10.28901115333911,18.695286177721517,7.138892381772915,11.494089305904172,1.2453668678795076,-17.17939751620736,-0.8833701459959558,-6.811900900912144,10.639320913303829,-7.771264041949043,-4.987804222658354,-10.368882472855756,31.50885292845432,-12.040380208234398,2.9166594763480673,17.172267299878545,6.192692381744455,17.016751706870405,4.252299966476002,9.606047139298028,20.8774393283345,-0.640099421467017,12.187661754298569,-16.882033157482997,1.0766894036325074,24.33497455987257,-3.781865821398185,8.664219903907524,11.532685329447016,0.5536204227082793,-1.8990110221888479,-39.13894897982046,6.0612628746299695,20.611277575984513,-23.731129863200337,-15.470832659881093,-2.775809931190748,-0.4353383494351938,2.1289116890128765,2.2068899810937226,-3.292597187493044,11.5005888180713,-7.515677270458536,22.062142240538297,14.321590325185252,30.614270748394482,0.06290157996815882,-33.60600911874275,3.456741693618927,24.96608466168501,5.712947742488705,-16.616062903718838,1.9742430166446399,-45.93122817404456,-18.077519986845697,37.955062608558805,-40.18313470028832,-16.890013769907817,-8.503407833991735,-19.709906619842474,-14.750786773029267,-19.530647451399137,-14.827286050941442,-13.273425981754535,17.29772045466248,-18.055843127933787,24.924681781343317,6.949778848607943,39.678377810652314,-2.0836141507509427,33.56323362007846,-19.16408889929586,30.95192686120852,21.889491576860745,-11.830474503722373,18.241334759593,-17.94972617395235,22.78870695321941,9.192399317686998,14.643358811255625,-11.470064488442564,10.557738199205227,8.19595527925904,-20.88380558884685,-11.92486237414936,-25.136678961138887,20.747760688271853,25.111691036440252,-19.28094589824098,-30.862785315123155,-7.291430895627427,7.133962021880437,7.505476132110251,-19.125136568398705,37.90375835728209,19.141479666302338,-56.330053016020734,-4.203389666059988,-6.811722671245602,-8.854169212633053,-26.092466984989336,-55.040863432753596,-18.031607308731502,2.115186558711689,17.231294364908894,16.006339649445714,6.326856699662718,-7.21649745128568,-42.32600141070017,18.797251033022338,-40.55357353055773,-23.817005656801488,1.7813561091459789,-4.716000094346959,-11.968645426866521,-13.497418896591032,-119.57881606627207,1.9968073105251058,12.390756713268566,2.9139560543442937,60.214462558566744,33.827977039309886,-2.921609889601535,-4.830209194329303,8.16844496051009,-11.473837100927675,-3.207973337979619,16.368087297367065,-34.16897067277914,39.64588811528738,-30.92628398363778,-38.59884517451469,11.259827385796,-46.8552165267984,9.059255032644188,-26.44754756032548,-14.004638283240885,7.649448882112986,6.237157297830061,-34.4317761297145,41.06267098377103,1.798656275466617,46.721046309181055,13.625942072365214,-12.484079794940794,-28.717802423349376,-4.038718429129206,1.111237978494589,-24.63763246398716,-23.807208499140533,16.515531797173857,12.557663534412871,0.18262570140841822,-33.55381404271155,-11.202192872806485,32.73883655479405,-8.682371758025344,-1.7773328027647692,1.1763787123733052,24.49964814429803,-31.865741048559016,-16.087890577776246,-33.24840022449535,40.01211479912917,-3.9433335437023445,6.050523459243921,12.405938782850376,-30.508700440518204,22.55747649011028,-38.16899557079096,10.252189849489248,0.22812928739138,-32.63862529076524,-21.747420265100057,4.15061402732615,-22.19286515636913,2.345602438328793,-22.612027623910556,6.715318104457486,4.8228886401180935,29.84841296402103,-17.017414024643784,-8.036503473829892,30.05918443408713,30.530805667470577,13.300371139885224,6.8916822245555975,-26.9055019378694,122.77564998270381,42.18224114323583,8.082362780504043,24.029377051612368,16.36827082035104,-30.56414098927068,33.65595482273243,-4.389607695203947,16.485382757731525,27.808672556690794,-8.131127268192953,-9.865088650387595,-32.82295664350432,16.63897022164407,42.113224073823865,-6.501520273396381,-2.8520747327563725,-81.42311098272236,-10.538134660806634,-29.536055135961163,22.334783327853575,13.05526969852904,20.37024446611288,-0.9599195391190389,-40.898893119281496,-6.956331691191926,7.500207484775831,13.439055959847567,20.554231594497274,6.552469227296202,-17.18330383458767,9.634766154813464,6.023743304611928,52.09637370391527,-11.849274916368342,41.86378676966236,-54.62523556289847,24.50429122377948,-10.59945611851648,-24.481965547646723,10.17924886601426,-11.982172367623102,20.84363705982694,-29.72012408505893,-9.678824227889834,17.64088716078709,27.18425761400261,49.610167616650045,27.176983307431204,-32.66839486938414,26.554935566190817,26.36243691481018,-92.16092974015235,-3.4153814326880028,-0.3479920020856378,28.67990584304584,12.986855354239667,-11.376253825974471,-64.44910392515773,-13.585595584403597,-25.104856867568927,29.447883524697442,-15.775403103041473,-38.03087149341764,-9.936651358027406,3.6287380313363755,-25.771538731190706,-14.794119109425742,35.04868148685165,30.64226963401624,-32.47199523594367,4.2756490208554565,-14.387929183152206,-69.21832163646366,8.450903693052668,14.028918650130526,-9.634017715473217,19.748537557358024,-30.57754318093236,23.81891415722977,33.088001407781626,-13.752075527346742,-19.764222836347393,85.57386332106468,0.5160963075254628,35.5977496393311,-4.675192574599239,39.39258069108208,0.11951990505917146,16.134972855825165,4.718555606086671,-10.221087160668077,1.6747199781373565,-22.30916706592971,8.85950560004905,-26.57800852887676,-21.91065016266459,-26.954480786745393,11.20507883420807,-7.854092004391734,8.36104368291252,43.605403773507945,30.489633690288798,-64.63552926192412,31.86006263131258,23.520903287347885,-18.054663573010743,3.340928714847234,56.813240405777265,-19.557370784766803,-10.171756336564313,-45.60360863102292,-32.53718333599024,-18.994635541630455,22.785378585471864,-39.427957463164034,-91.98686250894951,21.977952047995334,3.594684513680305,25.977561374059025,-32.98030986410518,-2.8315459988086404,12.869781027342025,70.2379529134408,27.913091915007346,-19.11214375982061,34.68608765151474,-34.90879647508083,-13.214666408673143,11.087063188242197,20.532894031466125,-20.297726974886654,13.128833115104056,9.739710073813255,-13.264046931791071,-7.754274869960448,2.3291047739247817,-24.774436988806844,-36.433077259651476,-19.600388831984382,1.373159487139699,1.5016250009308647,32.60444232316975,-26.05449908441207,-29.161899917968153,9.145433179493724,14.423048472950246,-9.955429109468923,38.0833100345093,-17.481979056909566,-1.3070988727210906,-39.55543207635449,-39.888794102412966,37.07474546130606,3.6266311105884954,-17.188482013605103,8.547794757148777,33.031129157332494,12.676369063429677,53.401903639853856,-17.85638736272195,-23.00680374251536,31.283487492665067,-12.815700274621339,-17.3192462520551,-15.427365667883771,3.977377635232307,-19.42177871136813,13.372629034399042,12.999470515207793,-2.255768401690105,4.114952478959395,7.74728737272588,29.054762936463373,16.44267360022574,-17.423580936979832,-55.16332153297838,-0.35580933500990486,-9.51811496643458,-24.448008786532593,27.25789395486682,-19.06198157081424,-8.994087887481939,-18.266678392079246,10.385539285045688,-5.361687646945653,-25.85495637843145,27.38046937538433,14.562669520421895,43.793541282363385,-2.736666527341655,44.50710048882576,-9.70645501445819,32.221785337520984,27.540572991489793,5.760250105885491,-1.225918883534485,35.877325228066354,6.295741833553751,-14.131545045346757,-2.140644414110968,-16.137839588200972,-1.1290388767192212,9.337958785595847,-1.4460931328531095,-21.748803289079795,-50.34027784931752,11.357363503305898,10.609806170006134,44.76095601057863,1.6236563773165005,-25.247498565553773,-4.765240825343947,-15.476253000541272,14.828867554432879,11.238120413011531,1.6650953940921116,1.23773969646993,33.804646781611005,5.674081444445704,9.90620878173154,-26.47746223982713,39.553205293523106,14.029530423541223,39.27733601690146,11.290441808623155,-23.256902032091716,33.03120354247284,-28.593683875929408,-26.98731543413051,1.8340200713482737,3.067140979495953,-24.058368499542112,-16.399831474023955,7.567338547167564,23.55959466506221,-13.690157447730913,-21.430140138605665,0.9216294806135743,4.091298894529774,24.587541455833023,-45.229063673209566,11.078474663729597,36.68921970788198,5.576260967421542,-44.59984324772481,-6.349948980822059,4.541741979791032,5.038830779625061,-5.729351696361512,3.2179520578872043,0.9556152747129807,-16.702892636195273,-15.98362543424182,-29.9405099422181,-23.848196799481077,6.3139873027552245,-37.24778306163879,-4.724467363303259,13.603602608085867,46.3871244829689,19.19726255109188,-20.169063269429657,-45.628351499284335,-16.9357359411166,-30.21013102639114,-3.9651822349764387,-18.337365540121276,-10.925128868406043,-40.84496804132041,-33.00282185812712,21.422575080526205,-0.5850612978698119,-42.49562634639492,-83.44663937143875,-2.5729130843503407,-5.793749102203785,-52.601018454709106,-16.607640129517264,-13.771018538778065,0.37171185868198847,-13.254651010993358,35.092395182144486,-5.062668419459715,-23.36044432527149,61.95106342935715,-32.36821459618607,-28.557230043972115,-8.662544216560857,-23.372760102040544,0.8210884300466952,37.797523852369686,-1.2371023818649285,-35.03411008285409,8.697730688826525,-57.846517593907386,2.1430874964308115,34.61925110268386,-42.20898564852813,-17.692884509181997,12.468415468530136,-23.80538072102581,1.783318480707932,5.738410196230901,-26.479143352216944,15.590827391995159,1.0914703339572438,-20.705789008670013,10.809703880319834,-34.27966970509606,11.193558817133233,15.947381636180305,7.218902678701387,-9.912602644495115,33.99535529988471,11.87580078285362,-9.773152072146335,36.68351064734337,23.557555624737375,20.58343951013882,-5.405397665179765,36.3354325561231,6.161609484103657,-6.8233712185118955,-6.288377046982905,23.43284597190469,-50.19085716874468,-8.926335372549145,41.79189317148579,-27.758021556673405,7.987908806036088,-5.6707544503726135,4.429824314421709,7.817918349650607,-9.767684165003933,8.65479674197713,-29.509113744217842,40.06925708909767,-13.778333011363344,22.01652519541446,3.3467446372173075,-33.97077701599055,28.952655098992967,-29.14305344864653,-1.8164023809445407,-18.32637251636235,-6.947253429969507,-10.07940105099869,-21.423415506209402,28.472874997561107,18.435580446417642,23.283161423865,-6.059980478132167,-7.248236416876457,-26.437131761837946,-31.79505725557,17.009957658631357,7.757359279450591,6.138359405219491,2.145237843271612,10.270044075010311,17.720141729568795,-26.835646582059653,-2.8844295900499772,-25.846049657142174,-1.5778011617445526,26.488456684669508,39.34994961821853,0.7584358313610472,-28.346142499928327,-44.72830967715162,64.00921247222362,54.39889099971844,36.883913857104886,30.387880829254936,37.249477472938445,14.528052763123075,-10.0350455765101,11.066538854289426,-7.598199786636965,7.150080449400891,44.03169082257638,-13.595013624978098,8.939115404602283,11.502325588785588,-29.555278723512654,7.056332415367628,-5.204376575489594,46.31806226922211,-11.325745068385451,-27.614493738489735,43.21929471204535,-8.280630499045529,21.124565835353522,33.36577157202637,-0.36290102543885117,35.17788112520711,16.004790057708693,-17.317818830748436,35.902323308827825,7.481829545589501,-5.172041111133304,14.367769618906612,-7.601079486060076,6.027497898336988,28.249935705973037,-14.197113835462451,40.09237974014297,10.409236023633492,-10.158741206740691,26.485759963870496,8.693265776381756,-19.252306304515454,-29.344239015988315,7.700130030775471,3.298852828980027,63.311995389445265,18.825019290922878,-4.515420887404462,-24.247420313079243,4.474503290458411,6.048478478562219,-31.542402125441345,22.591714436877936,-40.886104703663065,-1.387435915761614,-24.02646181830646,5.8075159888130905,-13.773927338248626,-6.44094575617468,10.369109785494157,0.15752938951429574,-29.365556587718622,4.6214353887926345,0.5748242514307851,38.659856663604465,38.03450625484016,-22.524418978879442,16.65648983770197,-20.488628268199072,3.8789148483834737,-33.67952011555231,-30.67654798819557,8.062224083263239,47.87240607207877,-2.072659588429352,12.766704652701463,41.97976634537979,-11.869387463370426,25.15987117747395,-24.06966146616058,-30.086004517269522,1.5563071952271461,1.6053856751161986,-5.7154536715874515,27.07282972599619,28.028214086829635,5.061967907750758,2.171904070385353,-20.711548489777627,-48.12786346514627,30.39141861646845,14.749261206739027,-10.31192782222113,35.60124250098486,14.95085988808067,11.364239838721511,-12.21520188169781,-0.5233576993699478,37.791587130852804,3.0042974918223426,7.260372807095032,-20.42445834099615,10.777829966758722,28.29878330639263,-24.06680355460002,-4.137326864855352,-29.652689099341885,19.688117956647286,3.0908246321698445,15.776705297017031,-11.593443125810705,-26.400183827934406,46.983717626775324,-35.242347378087544,-64.06497321573019,-31.26229514448084,-12.396552531145618,-9.663048882915994,-0.01121932885014984,3.7472508341962842,-28.657872008679742,4.718799203589082,-14.343301812213971,-37.54490229757847,19.54294081612953,10.366254192743602,26.307479056932667,-6.18661347333054,7.635392203045573,26.332385463301286,-34.555186460519344,4.044853029053601,-6.840201310563415,-6.95283177394329,21.319744581208486,-21.314955251010222,-2.791285305300863,59.215575085775384,-37.64538901346841,-25.330938450943474,-17.575659014887815,26.107516832946427,15.716686283776069,-43.717266778082376,-0.6782519161036293,4.395163278678478,-16.785291531966827,31.85162117156394,-36.19575132536249,38.17990650020532,-17.02082552712362,3.9605108555019393,-14.405413056446706,-2.1721936320022333,7.127040883873464,-14.698236016898967,-42.82179304436492,15.972533029791283,7.228692456704903,-20.59178324403057,7.261018151309251,-25.41838657741695,6.456253039052314,9.84797105480164,3.487580107424109,40.76303380562936,0.3453590057035639,3.2732773848829875,5.680702598143252,16.30250254269522,-65.87338055918889,-53.251412778423415,-29.90911552607649,4.048617220908988,17.31511566397581,41.33180797461913,8.193627168085888,8.349432247155141,-17.162147963572824,6.050142103959459,7.670796449227534,-46.772647830159045,-11.877633857589231,-2.568487799562315,26.51995494659919,-15.067829815409254,43.75767148031551,12.961624044786586,2.3587821065523147,-21.38236687890097,-20.77992527429938,18.30131481011652,17.234158032538996,17.598565947044413,-0.10542674502265988,-6.839304232189839,-12.570896062632972,-4.081719930412475,10.220518647219215,22.46499359893671,14.382331963969056,26.75724012269732,-39.08631896994691,-19.062608094053605,23.07953757331267,25.868820488514494,1.1495984042236504,-32.13847315064018,2.14818407064695,3.2129392269911774,-16.43730403691458,10.02664025673055,1.1850558765445347,-6.348319559929332,23.036945863897873,9.5764100130134,28.58565440878687,-12.447221086102644,-0.6373706468695792,5.57804789819629,-33.73112997444487,-36.22597390437395,-29.525505181361186,-16.061611396797076,-18.899028029398686,2.5218141123086313,-28.015176851959488,-28.11045206398534,-4.958843105329515,21.261157761085602,-2.9495512360378546,-14.176686997634413,-4.729781788151022,6.5901217412500985,17.450449746109047,2.6770375679022154,9.554515815882763,-32.345223064798475,8.639942533882868,20.23698831436549,14.285706342448794,9.292018777401832,-46.274430289903385,19.806727046161704,38.958036539562066,20.435539866810306,-1.6989554454860505,8.099355474407995,20.432980231826388,28.27945623865755,0.2903904019940656,-8.97183558053711,28.53479165471577,0.7132293550974613,11.568546044909949,-17.157421641280454,39.34827471356119,17.320610277271065,23.810203232434954,11.066583625562298,-22.952923618828073,-5.3892546554445575,23.309843595609074,21.18364956226562,-32.70089398421439,3.295160167728621,10.294497919377505,-20.591663041867914,24.96723067499656,27.484337039930754,15.277790220432088,-15.632901642895513,-37.13547872304534,12.10356630636438,-1.0679857984091268,-23.35244930863533,-19.413847611419072,0.9159938610743634,15.850430945163207,12.234698282557416,2.9025117537557112,1.8602639667083807,-7.42650545392924,1.4183304470270224,34.70264736379327,10.623991843710838,-5.638676963332253,35.554403163840426,18.83832857279212,-24.30031688443946,-12.328802935388282,16.506899265220387,26.938645660214377,16.010285466310165,-6.482375206786621,16.913376835684748,-28.207056664928757,-15.281136284291412,18.40964714519823,33.30311611439713,-22.50182590835613,-6.321131487130761,51.32415096074022,-16.153484159457086,-23.25600149200888,-1.9511709764101466,23.0474479251536,-11.83287874337466],"intercept":-3.14418219781623}