{"type":"sparse perceptron","classifications":["NEGATIVE","POSITIVE"],"weights":[0.0,-3.332742520191418,-3.332742520191418,0.0,19.29433161715786,7.924632146468927,-43.97525011552798,-3.144471741823722,20.082611537719462,23.95743079268159,-16.645878431574527,-14.987578356287782,1.1420162584018532,16.789380713159513,-20.26402686990253,3.6112542762384865,-3.296785785087629,-3.242349958954082,3.649129153169155,2.4706684913428445,0.5477173467831921,9.564199145711477,6.322204890692082,-4.115474657134345,-12.657499448149974,20.587577468875637,-4.285459802026414,-8.943738009498224,-3.5922597105686473,8.018214209168114,-4.250962094570508,-1.6266473961656813,-6.37177688443166,9.809827723196923,-1.7210704047871725,-5.545470723884567,7.403762264930101,-7.477767922401971,-1.452160923807583,1.1542714593729904,7.630468799678972,-3.793117565327276,5.438569908491394,0.10634537429615847,4.3903706967863645,24.456202940988504,16.167861924006132,8.58712984509082,-17.76589572851553,1.1447458445296537,0.9636563950910171,13.801675418630172,7.875953437134379,12.019050616243897,10.442730384320207,6.153076898843939,-1.7718304801056224,-5.8409468117079735,-8.606119305999576,-7.03048193910981,-12.243196379898556,6.303874283841016,-17.03923280753404,-20.4185547057317,-10.50203132407772,-1.226605475627791,-1.1727200467574344,10.40802622393318,10.576622338706827,-9.881918502555184,0.2263347820543719,2.320177259554506,-3.874315911363126,17.656945082874174,-2.3528791420524295,-1.2328028533527713,-0.6823672147529679,-15.732790440375936,-26.497383739317247,-15.50289709261678,23.507837526669952,-7.108486270868036,-12.546439060191412,-5.769729293461058,8.048272854372103,-1.8653418245633926,12.810384782071397,27.64508363437834,-2.838785858980851,16.392730734410804,6.899026745542253,33.29534637759028,9.931625472591334,1.1945945069410304,15.546717779343652,-34.31318891205176,-12.779258375398516,3.412922559301431,-7.080336157313683,-15.616058789118242,-2.265237082875629,-11.692032354160697,8.32423830913991,2.305179219785384,-1.3535342175789034,-3.6439549986063167,8.429121351911675,-10.85966630206421,-3.4452398209694937,0.3664268054384557,28.040604446189608,2.172643216177499,-9.576608560058967,13.993120314903024,-11.579736987540342,3.5092350939917076,23.406580538005247,18.975797392720562,31.839790959035568,32.21399497948818,-21.60110400143596,-20.303502620026126,4.292653013592194,18.21120256179046,-9.172729985966393,-21.46577994584567,8.993491402880677,4.292955817092871,-11.23598552787446,-2.435913882685111,22.51628476733866,-0.8858851796877869,12.134849841064577,-3.307090352571117,20.36857240544999,5.603165261411079,11.347932658207526,-0.8465279318588124,-21.475977790737602,-0.6495008573883777,-8.817939068206798,10.428590012040107,-8.554322509212072,-3.7489967052022486,-9.458705288951483,29.422842744849476,-13.563217974939365,1.6398164639213813,13.413708551275935,4.013140641068237,14.25029069286388,2.559143715741499,12.922780630790223,19.69296051372185,-0.7392169310874372,14.700641566719195,-15.77612785499958,5.5108123752421765,24.928064624395265,-4.936456266716419,10.937876557972267,12.243235208450605,0.031881959576561716,-2.33288680942595,-36.45708978497439,6.927390641503722,21.2986513279295,-23.43140318463673,-13.154996943942674,-2.4737191202319533,3.290595840021478,4.151883860019008,-0.28343615200286654,-6.7059547014855605,10.623624245945285,-6.215191922308457,22.290017339523676,11.88433776125215,32.75043491463722,1.1399570798527103,-32.98823469639688,1.1137666289173525,20.856825996052635,7.990972025468482,-16.57761940349763,2.7502939452469573,-46.43041591918799,-19.67800425606366,39.39760744489433,-36.26098350169134,-12.36381040339797,-8.601711376603593,-16.332582332958296,-10.57951003329586,-18.075581978496025,-13.63838467833914,-11.296882022619487,15.094421781951068,-15.59501764597991,25.05372046451164,2.4646299040049153,40.29651737577568,-1.9355035995403682,30.794128586760447,-21.547334377795952,30.741904370826017,19.58609812880735,-12.961530942610604,20.009299873754603,-16.321489834830953,23.176009965588698,9.265738855658022,17.2264678980762,-6.938120005406937,10.39924134671386,9.679886541653083,-20.13393442424155,-13.421463474240522,-24.519559028783085,16.232113302160034,26.329845773323328,-19.878588289574605,-27.76096308654075,-5.191283785825056,5.632408636251799,8.895602839860482,-21.554226168833527,39.22284716574751,20.835455872328616,-53.31149590302305,-3.153381252059112,-5.60355585215116,-8.098671955786273,-25.97732515710484,-58.02083617071378,-15.121056509503257,2.315038612115158,17.77205620030736,21.376821136387168,1.7624121742253251,-4.862543808383988,-42.61820231920268,21.513722975371884,-42.26222027234401,-27.19771790422542,4.120907737957671,-8.494608878766265,-13.355509474358085,-13.246752528768486,-116.2879621437879,4.308328656450456,10.296154459954193,-0.07087488784624323,60.21298634151279,35.83228994960207,-7.468407576343417,-4.895880833476156,7.327693364908375,-12.031951556293741,-6.524727471297863,15.52236141555628,-34.24721065044393,39.13486745258235,-32.20278935892503,-35.034212456882734,10.63075812183268,-46.59915141495943,10.508381240162102,-25.41281919299637,-13.192233932754325,7.967653770215194,6.492834885420117,-32.870839762629544,40.002335056365304,0.9246212749806331,44.601920354781996,11.070532121152574,-9.448700211076636,-29.418808326446623,-5.323777587127291,1.8737167274211872,-24.18606241501206,-25.851212733932936,12.710786804133944,9.982966141273685,-5.008173647417644,-35.42131280391647,-15.824735973278791,32.97554485400118,-13.700769291833081,-1.9247659440458111,2.0318608279988024,22.17564257797636,-33.714558689420834,-11.357193943166559,-33.16711670977791,36.015787388414125,-5.914781194774233,4.692696980402404,13.904966400387242,-28.75309445051412,25.261725329036818,-37.39795068975486,14.131932560274882,-1.274722181315198,-32.58561387441288,-20.137389313415678,7.82023868383459,-22.67670756676647,2.0226465533135682,-22.056558817849304,6.467865870470821,4.730739775541056,30.352769324779143,-14.26091231609379,-8.97994719643897,27.545687692268086,29.76145006835702,15.351882615080036,6.5990714343917976,-26.70348469901987,116.09249875554805,43.27680997328098,8.185280565630555,23.01042492733329,15.899706812928624,-30.352045597529667,34.08362514657089,-2.5195016308245983,17.77571555505931,27.549588952285664,-9.499839262936035,-6.3315076039654725,-34.08369149434154,16.297584893189175,45.40661899224207,-5.185749197244182,-1.8409352953576135,-79.40583476054913,-12.20373758910469,-31.3768738698645,26.209842450816236,11.254450227081525,19.75349643442258,-1.7281639925429975,-44.381198494832816,-4.3227430203654595,8.590419093266974,8.68880781241888,21.287361862508487,4.579770409751422,-15.810418168127617,10.932600326714649,4.351339784538056,54.123717648245744,-14.494642213314693,40.40462026878596,-51.10313840258413,26.504247009740684,-13.589500537771237,-29.70625926089814,11.121848699973345,-12.529793294926053,17.52990445357859,-26.63875909492131,-11.25566038754646,20.71011217502315,28.97227727693325,50.97858680037266,25.35682740620699,-33.71842982890215,26.559562488321472,26.768781817332876,-90.5592000488445,-2.570408528262511,2.1231373089295738,27.458652227785052,13.29933751184244,-13.613054771492129,-64.86933178471347,-14.817656989600257,-25.137658140184016,30.295159719664213,-15.820495547347113,-37.262568005846106,-12.075948353956417,4.533344165606553,-24.445482394530334,-11.968221262698027,30.56137824360567,33.70755467897131,-31.81430899353829,5.092768328039197,-12.896408237611755,-67.68280598143774,8.890277327491628,12.742637147088162,-6.886372880345376,19.184597098797262,-29.67051488919885,21.942214763958315,32.595450452077735,-17.43104970042869,-20.408620854328134,82.86634393260087,0.8828422759568092,34.12466865465229,-2.336622172937801,38.08459123434418,-0.10652367744703792,14.898091249058954,0.9771439342616743,-11.150661770442982,5.536519354930505,-20.75820062872045,7.893816169571817,-24.063433845626214,-22.76371758618584,-27.953577806442198,11.46875696455008,-6.806842686928632,6.398416054918466,47.8027493268689,25.85277820377762,-62.086132056187544,32.46823513164961,23.129617939627703,-17.597550499298766,0.14843854148271798,58.820677352552224,-17.850700231691157,-10.773394268749659,-48.19132020899783,-30.104260301181696,-19.89219169683855,23.47003155568658,-40.744607043011676,-90.70597436605149,21.310072182176963,4.004969187723919,25.83450283569152,-30.24973958454169,-3.8252156838073517,12.648407579068266,72.93522496432892,26.284277485115243,-19.115572835995412,34.48894357656721,-36.29146894329911,-11.605823559680212,11.076232898850874,20.044137894070712,-21.981237975377656,13.444028032228681,8.77896520106408,-10.735900190209835,-8.777993061634508,0.16849568277632948,-25.647962430464567,-38.38310066471076,-19.859518257812827,0.7751097055933531,1.5474018555122016,32.43297236714386,-23.909819543929125,-25.740556515420227,8.67475738873812,13.93949701482226,-11.34822332320469,38.45802557398495,-18.491199781348325,-3.233195442770286,-40.165720802959704,-38.68522109255223,36.21535565211406,4.240441730091139,-16.19905170799477,9.305587680129204,32.393584715971464,17.25348915069639,49.143825566914835,-19.886597551884787,-21.531855479241,30.86993973660434,-11.315461079227749,-19.834571637456538,-15.920579202199631,5.584990175773352,-19.904605629960344,14.323535113049434,11.504353684559835,-4.002587106879092,3.3152924001560704,7.23915321742488,28.57625407572612,18.867893330142024,-16.207026517959648,-53.22883546987754,-2.211812692111786,-12.239280341759637,-23.234772590092916,24.604105820121784,-20.664019371638485,-10.323045820918544,-18.320118273234176,8.536216671214339,-5.944222882925651,-26.31422443421291,28.37785615123047,14.478632314241512,43.052886700798624,-1.8696710601539785,45.203345321995016,-12.338225990727437,29.723605173682554,27.485011453457055,5.026982515001117,-2.229022913013134,34.57146747277052,3.7707422556028938,-15.469978710408764,-0.10157459929333108,-13.702164278986569,-3.3281830429685053,8.02109273936246,-0.6522416849522774,-24.62342809306326,-51.914797223130584,14.977053218597977,10.01484625185713,42.68287479915921,0.6455921315903844,-26.52852644843987,-5.259440128216053,-15.31272389220298,14.419865288223713,9.951918399420087,1.0167880274618537,-1.4499934143944775,34.93405651309157,5.266423133369355,11.429351314339629,-26.37613168960993,40.11257396033824,13.29094129572117,35.99234803655726,11.950821310907443,-23.910095184156894,32.098913417619904,-29.663655667676085,-26.219025562308552,-1.1534508359571376,1.159861930946452,-24.344868293345495,-15.246805183496908,8.03359018819978,25.226232454188338,-13.878304341160618,-20.76430615870922,0.8950688993169771,4.457519608232733,24.16021486502945,-43.83192747003029,5.971986182139836,37.803116425682056,5.444697062202545,-45.35539511912991,-5.620044580537857,2.1623464804217463,7.680866705541233,-5.6426045979837545,5.219177922122,1.1139296441717652,-15.98405611042295,-17.186307133904897,-28.621084384809905,-20.497907690041377,6.2161301949081915,-38.3647231620159,-4.066723059504151,11.786330581716108,48.993923106240544,17.021973746845205,-19.3398597426758,-45.633486704157235,-19.501563911495264,-29.670172193997047,-6.139706313667124,-17.173291158914505,-8.87453165134178,-39.45703935378592,-31.55016832067297,18.45414773619442,1.6828831397414925,-39.42172232086255,-82.60964147855938,-2.7501417612013395,-5.1688294449906556,-48.92001009545191,-15.791523696477865,-11.087459784089013,3.5561015383716708,-12.503821170240244,33.408075116653656,-2.6483467337768776,-21.79974074959916,61.68090499359155,-30.64279819951122,-30.089395153719455,-8.962562419977097,-21.079672310896477,1.6372965090442395,38.53797088773184,-2.302728750695966,-33.337833107012266,9.317105968011072,-55.7100019769943,1.1854301060057206,34.47212187526664,-42.489442403170656,-16.43524973893722,11.649809806299155,-24.310197062729493,3.3531237448730007,6.285997036572089,-27.748639976669487,17.434338594105014,-0.008424079443753868,-21.211618982066515,12.388229559395183,-34.887359695545236,11.129673925338883,15.774624154573221,8.942444735700326,-11.394899130647435,33.49657764861892,12.262063840621787,-11.221069847264767,35.05443528588707,23.18515137828739,17.580839608424938,-3.4398316078892,37.397151769490385,6.233451192544356,-5.00337826702783,-5.615554275649025,23.193968894230277,-50.62805244901949,-10.52515097476644,41.32867230044291,-26.470485319511972,4.9476281655693715,-8.143549872019348,5.382269100905491,6.026484016712759,-5.9539146491572685,6.993731147323662,-26.42808111614906,38.220498412872956,-13.752616258099808,22.129219457917127,1.4010365977114536,-32.06507236804703,31.39658894028995,-29.245723969430205,0.5864230220363509,-16.943002614940013,-7.349949779486376,-10.288430399767217,-20.83387272663483,28.046940941703053,21.362433184214275,22.065003694749716,-4.193034825459189,-4.399620316769021,-27.712933904526274,-29.89560739731266,15.810699749937525,8.622687983527275,7.8757965482180445,4.504679059250698,12.833885621378734,18.43023092468881,-28.928953908887728,-3.731794624670731,-26.963095912629747,-2.1345304232654705,25.418772066225753,40.35884551282347,-4.127707041904595,-31.078028098084456,-46.03324623536801,64.80155221760741,52.94445407782545,36.982901804543765,29.127698967654442,36.977599929252705,14.437054251053254,-7.671272605750514,9.915909528118878,-6.508252890483107,6.281119369009726,43.99860457024163,-12.40902610984774,8.119636233666226,11.676186745639662,-28.434832905553492,8.006435763392057,-4.060168154675094,43.003095831936186,-10.985316973630065,-26.802382058151014,44.50980340262712,-9.192053419547054,21.40218454963622,31.07096628939012,0.574093316392692,34.6104954511,16.71703578239976,-16.13158686082806,34.212352444363226,6.660102787455947,-8.096826918702213,16.177193146818958,-7.710783248160058,5.796787881309885,27.092110812942494,-14.283032680595104,39.434024172011476,11.452505413579905,-10.605770611430458,27.12293173328719,9.365674445155157,-17.946513703241227,-27.447023365060655,7.388637485236226,6.440970585809044,62.9564769612029,17.542136988278298,-4.081012009968749,-22.442691143575995,4.530247872314583,6.04122959627844,-32.460254910797076,22.36377733487055,-40.701219880824,-3.192972701948364,-23.275880891146304,4.216946880504848,-12.225150378316561,-7.582518217328107,11.001553176171285,0.5063327895309113,-28.756939423265408,4.534203208106645,2.076782700086728,38.90406879679078,38.12947147583099,-23.5495312503155,18.91181176365459,-20.41933961089051,5.730492123576607,-34.95507698135979,-29.88786173686896,9.357416676511182,46.73198389366529,-0.8391140750895669,12.555866831417704,38.797134358419946,-12.105282212067742,25.563023109411837,-26.65254669850053,-32.25124589122174,0.11016764071244102,-0.14110282506025784,-6.359422013297406,26.095400601537488,28.692372613263178,5.4089510307410835,1.687399230165996,-18.40755503143648,-47.78667083746167,29.039176626640362,16.258347054981407,-10.146892420780421,35.353779729286856,15.548178907522752,11.119381061852275,-13.712616806518689,-0.3122713597567258,38.14565164271589,0.3962180694443089,6.633508805719774,-21.267272116404687,10.528062883193142,28.263954765673127,-24.867496114139602,-4.759310798903886,-28.96391304901951,19.661892560216764,2.7214523081047113,17.709695331717725,-12.99154102877218,-27.0273696083038,45.516561820275804,-33.126105256219226,-62.841646676322675,-32.01341753477559,-10.539034692265687,-8.973106419981807,0.679968908693007,4.051407450999874,-29.01727508472428,3.2530447719626023,-12.50044006412293,-36.31717431853688,20.414658814726142,9.745126403582953,24.941065811993802,-5.844734815683577,7.817363432219701,27.048847637631344,-33.668002012094725,3.1745968664832773,-8.274000118251738,-7.243459122377745,20.447809294855638,-19.826039432025727,-2.7039880058395935,57.96285409021177,-37.239125584383416,-27.424631998732316,-17.025837142765646,27.28946226659914,16.19952605051544,-41.485485216607785,-1.295692591214056,3.5856807516786633,-15.924605888215439,30.62331850465207,-37.365791860648365,40.050890125931176,-16.695172959517347,1.1699081422705566,-14.603107875509094,-2.7856115037274667,7.8867243224039925,-15.98906137814974,-43.52336446137447,16.84334402284367,6.870228669597126,-20.517270480103182,6.8008090124296565,-25.544128573243675,6.538159314193725,9.401891196435331,3.5636780579551246,41.10593962869334,-0.879984358435385,3.93951996494339,5.95178502801937,15.753408558060372,-64.59598025918487,-52.6363986455752,-28.21241956628227,3.52242204992058,17.340393011157527,42.15092332351563,8.61542979159805,8.532641577408906,-17.533276786282507,6.2881006014119984,6.151422711047643,-45.91244673565804,-13.176535758306466,-1.347258359784686,25.979946219442937,-16.585893482182023,45.94260939566194,15.033640555393196,2.459592900343582,-22.0814638256514,-19.139580206774475,17.21450633901833,15.894583085090673,17.56355658896486,1.6318381443091985,-8.976882191465181,-13.1877846017988,-5.313641545916412,10.003040214895758,20.830115664237756,13.621482009478767,27.6116015660404,-39.50400897950273,-17.296623185389745,23.119818679000826,23.063909752853217,0.05849400320652538,-31.888463302136536,2.2262562560319603,4.163313240566951,-15.855344649607392,10.57908672001594,1.4077359569067716,-7.811659391915509,25.564693362743295,9.70981032072996,28.35602143480533,-12.948685067022323,-0.6233984637005633,7.33890020639325,-33.18791514297429,-37.071039960473975,-29.19032832784515,-14.386651053347386,-20.113961678080102,3.970034739351756,-31.606690832413936,-30.21387667781386,-4.440530427188745,19.28237283214448,-2.9208834390614085,-15.501989068395226,-4.340813463482502,6.006439878203958,18.905073574534068,2.024544514891971,11.267479732661416,-33.429340734628624,8.370266045420387,23.40253367935075,14.510009471870216,5.455475053042697,-47.7772188164175,20.527732967677878,39.21456647689981,20.804198286731687,0.12481451632748801,9.780604897603435,19.761043971895713,27.419936890887225,0.6917186879976734,-6.91142124860653,28.507985696324294,2.2023503847816825,12.743670329544447,-15.706466263060673,39.116952825429166,16.718415258914504,24.659473798840168,12.898151042810944,-20.114369072551373,-6.4331780459440955,23.53293460674713,21.078724092174998,-33.698542924363245,0.2889387608688859,11.330253634756444,-23.117651125122094,27.70392079213267,29.229756448308393,14.680653247230396,-16.32557841174935,-37.201234045435065,12.754782407121214,-1.02797363258449,-23.32468901255588,-20.400436225246242,0.2331756112517715,15.332297239395272,13.349034765055809,4.724544355379439,1.0029903970377159,-7.219496642309707,0.9993099495567619,33.23823133336867,9.173510695969549,-6.562398355829129,36.090470745762154,19.621282750593142,-21.94651993692475,-11.314924495711395,18.83079424585906,26.808878327891268,14.18727243292622,-4.344894816463604,19.963598038167248,-29.892852727503005,-17.076925162229273,17.594073995810927,33.78041408717369,-21.93907792749095,-5.903889458034224,50.21265546904316,-14.76352257339465,-25.238673521764248,-1.9913491879226695,24.22698725625441,-13.534889226637985],"intercept":-3.332742520191418}