{"type":"sparse perceptron","classifications":["NEGATIVE","POSITIVE"],"weights":[0.0,-3.613636567472212,-3.613636567472212,0.0,19.828207586678676,5.465462786788457,-43.89668726380738,-1.4029870509278926,20.896649868913943,24.96268930736022,-19.627087664977388,-12.524258627384468,6.209502374207203,15.310420991903285,-17.813582899269246,4.01363044724696,0.6485016917985001,-2.1634315278873815,5.904862869177945,2.764386431063801,-3.1188658002814575,11.51290345722951,5.602709727834172,-1.4704572116936832,-13.749456578036591,20.3896189141599,-1.5280773418951914,-8.596737844185991,-3.9040815204425434,14.313998506626001,-4.1910005475539185,-7.528275137640149,-8.601325618792782,0.9360957159650636,-4.400520803832515,1.2030258022106377,5.884496239988667,-9.922501292649272,1.0635933525057581,3.755764637470771,10.999884170911562,-2.617415065759404,11.090553279107763,-0.641835978079739,2.719579977759943,20.75422847404209,20.0959279163308,4.842137589190943,-17.90612934753574,0.7129792681091505,3.2683779142890215,14.630571977745058,9.232069479531104,8.054391570999702,12.71906962368552,6.73938160297595,5.537372091056867,-3.5618312393155818,-6.955002824500665,-6.449594638470157,-14.529592589662645,6.461481685304027,-15.941108824950323,-19.304970797918234,-8.937039929508297,-3.977523792793039,-5.002377872481599,12.907474341112882,9.491828962132042,-6.26875448543985,4.068493938917656,5.280480887806679,-5.473145152141073,15.453498325872088,-0.4981854830924401,-3.062946465622909,-1.7914873353548069,-17.029007247970526,-29.034741610914207,-13.153993505372362,22.79747007175794,-2.5122954121678864,-13.685167795368928,-7.471892588403147,11.944897407415416,-2.5811472400400395,14.677739440359122,23.598574766636677,-3.7001259299350537,14.611382531890646,4.237044620748597,34.85552849860568,8.788128159727906,3.129319514363739,19.44820245611685,-36.74858865633543,-16.127402607595712,2.491444996187643,-0.9303059839093253,-17.608844013825767,-4.053464053974374,-11.066668406483677,4.908909022983522,5.168566438509598,-1.2743156216405966,-0.9046611186848212,6.647926122977177,-8.26870515509838,-6.163155300124001,1.6430552548537811,29.454802334578005,5.848064445660209,-7.117514091663521,9.425206463519096,-8.883708356162415,0.6881429856475272,24.43091216883881,22.92165753714306,32.47407316337771,31.569387262293365,-20.09822982549545,-14.418802804451856,7.861862224525399,19.99991271182713,-9.638767034283342,-20.112012370063102,8.387522415576672,7.718314392220598,-11.488295907904224,-3.6033848173266096,23.712676808358992,-3.1079106755650288,6.223650802112007,-8.840210830289825,21.101539051146208,8.083786933274078,12.837810012973513,2.65130263913883,-14.522810580895017,-1.2232804382060487,-9.964671804707063,6.991131314254925,-9.162474679041237,-2.2255748532692827,-9.70152547006329,28.804043730655906,-11.947593922249872,2.8123083430677567,14.582782347640663,7.715814858599284,11.993269706887164,1.9649201055359558,7.236211992982073,21.905264142410566,2.019400150266237,11.843549724754096,-17.092861449449938,5.1348252870538325,24.809999591371938,-4.314211191746828,10.045929254425754,12.641874895582621,-1.1708132741495647,-1.553192749575858,-36.22869021267413,4.3458863603719635,19.49258169874115,-20.90359490864565,-15.906587460054853,-1.0004159632658036,0.1795867657537843,0.15423400398797132,0.2989449650111823,-2.8063156230029307,9.265560529202178,-5.549670972467675,25.87915924143482,14.119104164317706,27.768327031122553,-0.37620246683382896,-31.92977326973448,2.9547842700636084,25.01092617843727,6.714885456336463,-15.033770352425734,1.4837211789920322,-44.15212934402635,-16.84260069593672,39.2193935704862,-40.26891478793096,-12.64290967849744,-5.20984653047067,-21.65938504644289,-9.671676595766694,-21.52374440825272,-15.14767379222644,-17.236216603419653,12.906942740164487,-17.69934772262375,23.258026818611064,3.511562140706661,40.78856015266071,-2.881656266593443,32.41704954776371,-19.576364959024684,29.673670989057406,19.37056171632781,-10.720564102628558,18.932990494592048,-17.01856504097431,18.800263595310195,9.573682639125574,13.65845759510967,-9.681600629771332,11.995395895217236,17.66998282294466,-26.590268712472277,-13.522246285063392,-26.544257758879976,17.952078160322117,24.465283266173756,-18.982090601484312,-33.14869891814943,-7.718290851968687,6.491662740831392,7.215220262033813,-18.388412109821353,40.460350071820386,19.596809066075828,-52.6227429209861,-2.520829285309991,-4.815525827499388,-8.937349825542327,-23.695088814931058,-60.23118493189728,-12.843606593029254,0.9307373467987623,17.696933599241543,17.01004008920864,4.929924517156822,-5.766096488352616,-43.140910590651906,23.059454908553136,-42.4697342971421,-26.095388120015414,4.625516716794644,-8.676694626293681,-14.554622517132882,-11.61875492678406,-118.75540098758513,3.5362166152834953,8.847104292660287,1.3479806007282182,59.10884092229064,34.870392754175015,-4.0131644517696445,-5.851308152204179,7.896006614141459,-14.777535834005223,-5.8421969415278285,14.618801008095355,-36.922136616913335,39.77626612976999,-30.330544974860153,-36.781337257029186,12.892813344402915,-45.273097270689824,9.062231841202868,-27.091191337027883,-15.320779945536326,8.373253790558213,5.1439720945034715,-29.541431337053385,37.5845582474761,2.429718906725193,48.036447809886525,13.178330596318455,-10.935521458219204,-31.07194528545051,-7.614957241904077,-2.2258876950805973,-23.738805271515485,-24.58616399691006,14.389826738228082,9.851120008835512,-6.546695864804606,-33.93171470263164,-11.902597117331934,32.050933789476574,-12.22555108503037,-1.982855164078167,3.1095291687406035,25.785856222768977,-30.621626475345746,-11.191376278907832,-38.40898745271178,35.00543195806491,-3.590540090141873,9.239966908216964,12.246058181738075,-26.19846369839768,24.460424902400103,-37.31867470524725,11.9445860547009,-1.8154984706935229,-33.69420711797838,-20.87402450944989,6.821498639707172,-21.112759315034456,-0.9961745343685987,-21.466160370062415,8.3578195759206,4.266578339209086,31.19530789237694,-15.771897027571388,-9.313701743173016,32.16107234550539,32.17485831311785,12.802858346869128,5.33800278110217,-29.16118383155194,120.13622776640534,40.63498224807297,8.281938426761325,23.17301531066892,16.715129257352785,-30.580429394196862,36.407456213567464,-3.7255727556588525,17.632859876825272,25.308845487198294,-8.168476410849129,-8.29901732736217,-35.423060972036254,19.033445650651384,45.486163591221235,-10.680099919369198,-2.1640621009285876,-79.6959959962081,-8.242572327576093,-32.11075747234536,22.957048568103197,12.610883757807922,17.560704097009317,1.0205083122329799,-41.78103718929276,-7.120531440252162,6.224852681939164,12.357858893689803,19.71169244227075,6.691934466568778,-16.749271872275255,9.063761685760308,5.969909628216048,50.31650834607201,-13.856116973273974,40.92206601898384,-52.88559911728547,26.534482152770654,-12.218872263807155,-27.34666839782559,11.909738079526798,-13.501039638438133,20.240237748116453,-29.419347534840664,-14.298927510939176,20.830244232910903,26.815136950557438,48.47680396606324,26.853122776933805,-32.33504883726379,28.400502377197583,27.91583520026891,-91.58686454675968,-2.23512974783587,3.5009178257269244,28.242804266893366,15.783348133123065,-11.707253410898941,-63.185758566038274,-12.42173030129379,-23.987856067843623,27.515013351804576,-12.972738416354865,-39.579143061296655,-8.719573659281805,5.526358217590344,-24.332151396509403,-10.004936526289605,30.5019684339112,32.453775221566865,-29.853102621807643,4.754952864500251,-13.826042417483173,-69.77718868961033,11.039406720114194,14.144876973854307,-8.444264209008216,18.155362054873834,-29.427239676243605,26.579631299059184,34.30226208683251,-16.03644733626976,-18.913850581485544,83.92417869640545,2.7228280321727456,32.624331268165136,-3.305407531413781,37.32458162943409,-0.1501732436769938,14.852061443080629,2.423895188628864,-9.906816984172158,3.693633862178483,-21.515020780021118,7.854342043707132,-28.790458893479443,-22.68409253493757,-29.36610530347927,13.814814572055294,-6.582405098298289,7.912406344173152,44.90172208714611,29.075750722896696,-58.728830626046886,30.31568049414829,22.73157416866872,-17.527026080843964,2.5257706101082618,56.20421925312812,-19.59999201618621,-9.928384626408285,-46.99403695337921,-31.83896833457141,-17.19787888571107,18.92468508805552,-41.13129130809199,-92.31552625024482,20.81640476922062,4.865741343957705,26.119281852966385,-29.642022902284538,-1.778098626824427,10.967732968382197,69.9844862679398,25.370105610350443,-19.126530346438276,33.017341435773005,-36.42297458382445,-14.071690324299343,8.802391105644485,21.01561631883241,-20.771355073380413,13.866655719789042,11.087868528397856,-13.965293194585241,-10.305644919955949,1.3026767788970166,-24.479967853987592,-37.409008448997014,-20.702402683571133,1.595290406777169,4.50818303442061,32.8969060054059,-23.433596471167895,-28.97987709523464,7.6714071201246234,14.434553871212504,-8.680261933353634,36.54605025368599,-15.569477607201312,-0.9237561273310191,-39.18860802662249,-40.709930069668125,35.15471364891409,3.732148710678868,-17.93385015036219,7.734255462363054,32.842485615711055,14.31399087810766,51.45631731839301,-18.721556632513273,-22.486913825896657,30.468359260450736,-11.27218064661545,-18.77655228009409,-13.901141983802555,2.511441658752136,-18.556337024783932,16.419198097333393,11.425998574247608,-2.0291787681690074,3.488916716327733,8.183828352621306,27.73436356150653,17.616452185091322,-17.890875935368907,-52.4596590316589,-1.12141839507534,-9.467298705047165,-21.786168048941928,25.789124232601264,-21.624821067468513,-9.889474394408628,-18.459450657579183,10.21830135031199,-4.952693258467509,-23.912408777750507,26.03197410652222,13.479782145134775,44.49580201204429,-1.3099366731758038,44.34634990484362,-11.291907623375112,28.277736247011312,28.273698865890477,7.4397484170992225,-2.0817711841192224,35.60695207542131,6.0787893402223,-13.814187589266538,-1.2166719529215073,-14.167176296168714,-0.5917611178168847,10.267679448094883,-1.2536474906070156,-26.64575747827117,-48.94603550108482,11.169417417772092,9.487534323594648,40.117869600671156,2.02753994534746,-26.772672692714814,-4.686063544284289,-17.57404431703861,16.93926562201869,11.163561016544117,0.17898080038326047,-0.33550841191073666,34.99133077520997,6.467184266860501,9.144945984397639,-24.636348769085558,39.3200118049303,14.14179852393581,39.229554907720726,11.718089184595309,-21.352532244314002,31.673043282525406,-29.2370212088831,-27.653518540599965,-0.9538671350576545,1.3598092271226287,-24.02952025595067,-14.362388781205315,8.152373592470141,22.27778766027249,-15.240616360566824,-21.603278773742108,2.4272405769330003,3.6176416607877275,19.995783164245328,-42.82555920035262,7.064420144423751,37.74317842385234,5.102501324071176,-44.627001001192475,-4.357204541745745,3.5412351465103717,6.931151263006225,-8.543206141182852,4.011287784125495,-0.6719513513309028,-16.734733000353557,-15.342485585315478,-29.559949457922244,-23.994015491682354,6.670453159581873,-39.73793767984917,-6.966604558796611,12.046884156991043,48.81527741378574,18.46842500145809,-20.64335206346531,-45.796301401588096,-17.44928438586203,-30.88631133597503,-6.057408639955823,-18.1447402404044,-12.482180871819512,-40.36299520239942,-30.227390717101738,20.025147376124618,0.6262910261443326,-41.883795094644995,-82.56519588340498,-1.1589083962427935,-5.173012212603827,-49.71973585294055,-13.174941499174638,-12.552046968125456,-0.2880365712089184,-13.06087189508733,34.87022403700587,-4.351911713654131,-23.358725637002202,62.76844327967809,-31.53949443608039,-28.649219676229677,-6.001093165605561,-21.437114910293726,2.1667281325432604,37.80303051344065,-1.973094503267007,-32.09576567670101,10.241314261753693,-57.12531911676897,2.107279102356689,34.40079344140185,-42.30577744893133,-15.367200003140233,10.999315015450913,-22.650768324228096,-0.637425856715672,3.9991907282571377,-26.67059892567481,15.652719850603356,-0.8213540216120834,-19.331127176767268,12.694032522038007,-36.96366373064866,10.264563105551213,15.776483651209269,8.366677252857885,-10.46804974439481,34.155033834582206,10.064981734942446,-10.824847400714575,36.40568333441155,22.75939756773112,19.09557080165056,-6.0372504260072315,36.05859405732495,4.14401982668963,-3.904965140973894,-5.2140157597221215,23.262666762044145,-50.91678650804976,-8.998922163645744,40.26272027394046,-26.50268661694933,6.782926901923998,-5.543786769476834,3.4650258007841015,7.823634819610936,-6.7503277986918295,8.532310668970982,-27.28894619628742,39.41014372146675,-16.516161686169898,21.72138524447473,1.404974348715815,-31.795981073561094,27.725035740267877,-26.994091327757555,3.2428337311648785,-17.05198304244051,-9.052348152555368,-11.037941063311198,-19.276531357965897,29.717114154836207,21.289004666207116,22.569902246626544,-7.40260490364236,-6.830038033611225,-25.83769633975636,-31.17690490711209,18.451986254570006,8.702822276957926,4.84952167512689,4.271618140837204,11.684072114329783,17.584946651409904,-28.71262873440979,-4.204652123256443,-26.79545308333886,-0.08516905469795791,26.011754564297153,39.2624822114259,-1.1861127967656555,-29.71185259504979,-44.44904368887771,64.54713561661794,53.07264799342497,37.91517782371716,29.434654184190236,39.13960617313204,13.725892563482278,-9.591400390509255,9.662143336830013,-7.689593151866351,8.264862788012955,43.23323919741175,-13.868547019180385,10.62118891778965,9.934865260673941,-28.839178554659668,6.160611469693214,-4.92920388646422,44.05617697426638,-9.561226867169239,-28.081576301181105,42.40932700920665,-8.916529770638753,21.37770953317173,30.51352876353375,0.40842510055893855,33.765338110072044,16.04244388959896,-21.014102177879046,35.013785428240745,7.2163955399731,-8.267204769121886,15.497081781445601,-6.622154925282611,5.714227727993351,24.82892123851381,-13.855001416773437,39.299521871524696,12.249264156865626,-10.330958293440084,25.84120569479658,8.186752810091054,-18.524189605541114,-27.45813338252961,6.644709034534133,4.270769035889734,64.02463769328956,15.616303579368465,-2.5869143179635237,-22.355616395941137,4.747059443716016,6.001572046193174,-32.30112763465952,23.50652707526916,-41.197609098472334,-1.2104508151767377,-21.128691501565402,5.906699013454358,-11.824751186834245,-9.360577860913729,11.898880373442918,1.2552660646286702,-29.535806382004598,1.8006224645942683,2.8617800358109826,39.82656258374757,38.62170334108925,-21.97575929346905,17.634193867103193,-20.637628028547866,4.786087652314617,-34.22295953945439,-31.360305865429336,10.07445641624592,48.66389632375015,-0.6137139848251538,13.024116081408497,38.42769660986374,-10.738905465699553,24.69879220634407,-24.573753120923843,-30.036789002715768,0.8144276710533314,0.3206240589730599,-6.005335607059717,27.155065605576322,28.643383828546362,3.284818477295584,0.7621374152984207,-21.036034643194732,-48.712174026064545,28.770727937730793,15.058642108054883,-9.14648267639322,35.35904205317589,17.37435917004326,10.717113486832439,-13.75576585737695,-1.3380775668800327,38.38210300915494,2.32852249130825,7.335826455019881,-21.44503093544235,8.885491740292487,28.736919639870333,-25.215900543737547,-3.8125991271061404,-30.14179702636944,17.689221271905854,1.3957910772550175,13.190335813564996,-9.897487236103887,-26.729461895096495,45.38568287482159,-34.54037355471725,-61.83749441031962,-33.828618236351105,-10.412996206628954,-9.112018218988378,-0.6131488285518389,4.267425276964814,-30.100499613040235,5.041247204085391,-12.747718785978085,-36.93263165539102,19.210383322331964,11.593112012138722,25.310720972234897,-5.726184842210841,8.707105732127006,27.384863494709965,-35.01300288211756,5.610289175457985,-9.788360554270179,-8.803843290968869,19.746536703479983,-21.474622263820457,-2.4737429894955607,58.15591265001822,-37.301533571635694,-26.27718405739346,-15.88216436276278,24.965718142400576,16.168082776944633,-42.337571942676774,-0.11176356806459933,3.7437706084655153,-16.58920601743781,29.40744287119865,-37.24572271554336,37.18810410406237,-15.992227750817227,1.6438976759301687,-15.957768302341643,-1.9375155465587286,9.051152511191313,-15.520466084136235,-41.23490265685876,15.556966896726435,6.357842162193121,-21.72167191088986,7.135223044490088,-26.497810132644464,6.871526690130623,7.6578779620662845,3.3830461475431695,41.9690507864518,-1.8031333885307368,6.215017223857339,6.7385998985641855,16.173238423443774,-65.18252478704916,-53.39121325065513,-29.41115089201879,4.541127550295611,15.804588926028952,43.08456356916641,8.425305277658744,7.860614926799432,-15.827340284904128,8.436954080706135,8.023229928783786,-45.277580428824,-10.368721691364357,-2.5428189812158735,25.087928761790284,-14.079009851701588,44.126295001120816,13.474689648087592,3.042163428078439,-21.086338144289634,-20.306707800520076,15.795343978057062,17.343397371660213,18.126108116332226,1.642098811522081,-8.164263294698777,-11.42573911598102,-4.667916585085348,10.128062838041465,20.565220119969872,13.616809367640577,25.631944564626703,-39.16232714376873,-21.005594576849944,22.290101568698883,24.301178366140785,-1.1460297676091131,-29.875754021417826,3.708768482889474,4.445331696334393,-16.998414390985324,10.788365892300385,1.5591939353787287,-8.594189400878655,24.28532439059221,10.429673106689577,29.314919066299993,-12.872366566727527,-0.7279137812603219,5.97276932661517,-31.903147347764037,-35.43968767972461,-29.658642711948975,-14.630736417633287,-19.25578223813558,2.5353572184548305,-31.511894722941783,-29.587330441098263,-4.02587936486872,21.348324161810826,-1.092639113601761,-14.74685085299687,-4.113975529458623,5.116281296725058,17.847940824272925,3.256679452958197,9.246124956569505,-31.836744756030185,5.423165226828936,21.04511748321858,12.486516422465261,7.410188276717191,-46.900557776859486,19.75746428449962,38.587787460675486,20.199136849364542,-2.079113129381227,11.22629793289943,18.901456854917082,28.911209149029073,1.6463158306331367,-7.901480738242241,29.232844571970585,2.523914482735306,11.096895812166883,-16.699728318813495,39.92850896916533,18.940290831599956,23.100681684127142,10.755728301343293,-21.76258667905224,-4.566753059839823,22.419528866004413,21.358913040614773,-31.90630049281383,2.8203576317697134,12.02835372677425,-23.39825942258769,25.017530001425715,28.796970372062415,15.501607807972187,-15.679106315459771,-37.98475814448644,13.654760917487712,-0.9486218399648394,-22.953783595266724,-19.527530829176865,-0.9702137582519992,15.313338685641503,13.77274154585289,5.648738339792561,1.6260054357169504,-6.681033877380382,0.9657086692759922,33.714098226602324,8.827320595214047,-3.7586607110153913,34.713454967209636,19.028713118321203,-23.739286542346388,-13.681282502679204,16.67877279806108,26.147998157360608,16.081135340254328,-5.445371063386191,18.05029029884799,-28.521022542790078,-15.434313721008667,16.8937366168228,31.015169266412244,-22.456124885373278,-6.103005545485881,52.90451986484875,-14.745652983089506,-23.5345988021299,-1.435198295248979,23.130644127376026,-11.287389106390552],"intercept":-3.613636567472212}