{"type":"sparse perceptron","classifications":["NEGATIVE","POSITIVE"],"weights":[0.0,-2.124138203537031,-2.002215234468892,0.0,19.325954835522822,7.05699915840677,-44.7238344731212,-2.593683482403123,19.834990497641286,27.92187469462933,-20.902029175927826,-15.163440572964227,8.22665687336321,16.240938362520456,-20.004142402384836,2.296052831813953,-3.3984568963896202,-2.1384709203711694,4.292829024717311,1.361303680984647,-4.86026240091642,7.940415803494692,4.658971929198045,-1.7388625101943984,-17.635913654452875,27.602728795862063,-5.136615279204653,-10.32538371433102,-5.700749008616461,13.324767950634342,-7.960075168466537,-3.469672181426674,-4.2160822255695525,2.0377875769294396,-0.5790374867259648,-4.1395120882488134,6.065763365391901,-9.443084322814375,-4.470220330754118,2.057301136386708,3.5616147293928897,-3.603515132154874,5.4371618475300645,-7.088585279799185,0.27877235404115464,25.816536525814502,16.430000639479243,12.901745156173583,-22.17482027390815,-1.3378528699344272,-2.2417234521125864,11.863232778751154,12.556082436692327,12.439167800038087,11.917664246288199,12.126192908678526,-1.0321054042102227,-15.54382860540332,-6.8858059165027115,-5.005065029383928,-21.416788452250923,7.4151492357082835,-24.73401304007161,-18.793020519364063,-15.80059501083267,1.7029677737330466,-3.80405408294445,14.867587645264177,10.40303485255459,-7.896772971738424,2.7749596738869124,-1.7214238859782087,-6.9037217874392685,22.704945410708284,-5.866176270983371,-6.292567880797529,-4.697387781560966,-21.724641508205767,-44.78444606113582,-13.861110796185255,35.54789030647965,-12.187757773229366,-2.293726057165642,-1.4102187115658082,11.444395761599154,1.0657106299039265,17.115221111336343,41.64291845026552,-3.866358494251958,13.825183166976256,6.838662970578515,39.492473806131976,4.1110914224234625,1.785631918486982,19.019537568930254,-39.41601775652575,-12.57211109140401,-2.908857561965918,-5.230187562772777,-18.602013442352654,-5.9194301230330995,-19.300203320720748,4.484196773701401,3.5384169222094544,-0.01198335358032146,-0.054511204891165566,12.872626441929297,-6.37140435283197,-0.3966956302676016,3.8166993812363894,33.722069530086756,12.797301558581536,-9.922948548774887,16.165412486476963,-18.61340213517583,2.139309633632789,16.407794667031627,22.153111975221467,42.74643443337594,42.77114280827975,-20.795676102486556,-17.395506730839653,1.6195110763149552,16.56600627893795,-9.404967338916702,-30.435414753671793,10.035027029400291,8.059532884858763,-16.493593935065917,-7.7536213607169575,22.72862106824671,3.020910811921981,10.831574182246925,-11.419906276644443,21.7176607705741,5.037243092793941,10.404309651823201,1.6470149449407723,-19.97597734306844,-5.635807095690857,-11.130411653059415,8.308541995189898,-11.838960573518893,-3.2866717226185895,-15.392920380498607,29.846685701746576,-17.78719841118445,1.3611009418581939,17.266694994870885,1.3412476658621997,13.914088654315584,5.248272468602334,7.709212777183063,31.035125094064938,-1.8357611424423,5.954924540234591,-19.536191367660166,6.219539754904341,25.887787121186243,-4.0845505105346245,8.008984795862942,7.895000348369916,2.017773113427089,-0.5620881032231058,-45.81772034453125,2.9542317585551783,24.143817263821713,-24.526240233329723,-16.768834950737702,0.9631350930162785,-0.39639023133039936,3.184235791454971,0.49367669417374604,-3.488066965248253,16.424996024581425,-5.14431510075854,25.791406687980093,17.810422068884773,34.82987966182177,1.4130485300353806,-33.823252033082966,1.3944157100882315,30.529452887734465,8.354852428811675,-19.99292461733068,6.351855744806166,-49.629562199682454,-17.973526584389564,38.43992390595056,-41.683998694427586,-16.46504516945363,-9.483135816261136,-21.228608740923637,-9.473252997459458,-20.665020195499377,-18.433686241564583,-14.30258977399346,16.43217301031627,-20.445762246842563,28.79035059093425,5.3795454571518455,42.71239850307945,-0.8502510190983334,37.136596601821005,-21.637949790883294,34.44681757717755,18.8480114294183,-10.177177014936879,18.882216348616527,-14.872132417724039,27.666626696755795,10.273905738173415,18.56972954998269,-13.073795595078868,9.192210070371557,12.968003297701632,-21.056247511744083,-12.083165367252024,-26.234447785984496,21.586386523893207,27.896246668584276,-20.131546953390107,-34.430094483580376,-3.8707535598462433,6.850228246640191,4.710390876075617,-21.774574548202516,41.34401092214572,24.97459176674748,-61.76552635831138,-6.9592941106662565,-9.09446347352287,-11.676657194259265,-28.483716228902328,-66.90673877382821,-14.353024945998273,1.6855300171501906,18.15603213394625,16.31051030247078,8.433234640820192,-5.517871136853113,-50.04412266560653,22.361003032017653,-41.50071101210781,-25.543512157914055,1.1042659837925253,-5.9793791867571215,-14.994267875104157,-14.039345456822742,-132.48392742334906,0.8204069620989403,14.49729750815245,0.9510506502405496,68.42551426921806,35.99431988894142,-6.433054155556242,-1.5891341959578715,10.751918611844799,-11.960180206914409,-5.762393210628595,16.86284705408949,-34.97964621000262,45.998128056770014,-29.07916002578287,-38.0092000824966,13.308670900682143,-46.07752021688051,5.365580245523128,-24.850169121049138,-15.633963110129466,8.469867825491287,5.296862690502926,-36.61181027352804,41.32955033039507,2.565023459033587,51.11711875427994,12.539913824957571,-10.984382348181656,-36.072893303617036,-6.458238638190895,1.384604662011514,-27.363569605863532,-29.309463651541282,19.487388767805616,11.08287002094698,-1.154055363399991,-36.5405081118297,-10.275885013118472,36.906265752910095,-11.994972293233932,-1.5371635788089653,1.8537900191154293,28.460068211762525,-35.699780559599084,-16.98190482351819,-33.1904091730932,35.99960649937313,-4.758735778821182,10.214208304318703,15.99779609225686,-34.27176353790237,23.026601602188382,-42.12246499555211,17.136730082386585,2.7605692703654072,-34.99360230986251,-22.222252704954435,11.288820205711541,-20.656428856994516,1.780828568503146,-22.37296562791393,7.342538598703865,4.368252417596123,32.59522002007224,-16.942464496203048,-7.262943656885688,32.12583943857334,30.188839680669698,15.780366289492452,9.53525392822704,-31.36679393726103,131.78802950180935,43.10078036427178,10.01233874306067,21.694512896715974,16.062155715644263,-35.18269434991799,35.42879152764271,-3.2383366754933074,17.132875342816536,26.425671965288295,-10.295913477345113,-6.05410018725029,-34.88413628473353,16.112492687868315,44.01743719312481,-3.2934729717012647,-0.7618529677896371,-88.31555504647609,-7.395011629288532,-33.97599851314493,24.148672926984844,7.434958302909025,20.551231951896042,0.6655408444112264,-42.884901206607665,-4.476443716376942,5.510063258384823,12.89771080248891,21.026973849319116,10.858217137972863,-18.95591353472002,3.651205937280245,5.533519523995702,56.19767648572818,-15.863863294633704,43.85433125855219,-60.03275574497211,31.487078435123564,-12.523182581776473,-30.381709888454264,13.028444618616483,-14.41604752626461,21.48433462172388,-35.42449777113581,-14.883630605861653,22.801959752500732,28.423036240722652,51.284904602923646,28.527835534400904,-34.333156479873466,30.55908733374909,26.71397152703979,-101.84882217401399,-5.3466690394623875,1.4713257308567567,29.36856751836888,17.632641880078925,-12.88794439874889,-69.35082138857797,-17.229950784234166,-24.557364706113628,27.31257746725507,-18.14953401840519,-40.886839766922826,-9.792960368274208,7.9804292597452955,-24.314118639534637,-12.549501397845042,37.190864837052125,35.80020790049831,-31.674704391225927,8.599894583073599,-15.059142075773611,-77.82703652711757,8.987585458022602,12.574064786418443,-7.761733022715368,17.914188359183655,-30.457589497410986,27.38699790308231,36.246715272451155,-14.181006178414421,-20.46485224539746,92.3156514767858,1.0990501970342834,37.82161329819407,1.7619887978967774,41.55741341436983,0.18719482987538824,15.175594305088005,0.32891707665458225,-7.184924056342184,4.568066534910565,-26.466271533472412,8.074079257364463,-27.990330970418857,-20.469184944701478,-29.51998749299246,11.947214475409574,-11.426931100792453,6.46403070754305,43.73650321244612,29.92046289074052,-68.06441997534571,29.309463549400444,21.918324328396167,-19.570221289185447,4.056887419765332,57.55137640516218,-19.342366625237062,-9.169517973495815,-48.387073753255564,-39.012556363502355,-19.01848776232522,21.618179017028098,-43.382866477895476,-100.94876474307124,21.46385362015393,0.3072999340632794,26.818440114165913,-29.346919455870644,-1.0604215863747402,13.321435203934609,72.39392758935891,27.38907581398966,-19.97497250618795,40.55665807532067,-35.69763388509723,-17.74043326716894,11.411527981211583,21.975476153156222,-20.716226013294605,16.112968302094313,9.946524153724582,-12.919242879054048,-8.848880100897672,1.5194963869196327,-26.27466963877203,-39.41391156544343,-19.548826861455417,0.7395890658808577,2.5154802885892966,31.494618073651527,-22.496344013345514,-27.33080373572828,8.359297288415801,14.739166927996449,-11.755823280704583,39.09025871867456,-19.074783542387856,-2.0522675934542978,-44.76638524701731,-39.89689514028607,35.36390958829624,4.510313364524254,-16.464138587139498,8.301966352235528,35.15604482691028,15.47791863005705,56.72095358016264,-20.59947527809803,-25.38692757516485,34.38731652604203,-12.985564292813399,-20.289841993204497,-12.622169154607027,2.9483121439286255,-19.535773152519145,13.695148576952313,11.631634712372087,-5.090653371919552,4.044891246896218,5.265166912023005,28.90446136350879,20.215919113102057,-17.753920685644523,-55.26944728699417,0.0761630624892548,-9.153385726273687,-22.214748985168768,26.491094342996025,-19.59468312112281,-10.70109653325892,-19.93828625283374,12.029291127296005,-6.145702172200775,-24.714484977892305,28.54587190795576,13.01256788680195,47.727803604286215,-3.7581388414190626,46.760804598528075,-12.558664060410543,33.72865105376545,27.55663915674914,2.2225961634345173,-3.8671813905111363,36.31782999176281,5.133492842857178,-15.589540036972094,-3.040907745110507,-13.508748532296261,0.21080368962447463,8.695177056072447,-0.6155318191015628,-24.797261205865066,-55.854458985140305,12.389475465271703,11.348335875015295,47.18694792265682,-0.15575653178397753,-27.101793883696423,-5.575812190423693,-17.673117550600544,15.158781554919848,9.016473383636392,1.6495911412397681,-1.5076099895363013,35.931991842071774,5.463521335750593,7.727796466223104,-30.523485937058815,41.71998806476688,14.331079110460148,42.23282636640594,11.13810961389127,-21.96880546060744,31.40789017876437,-31.81742140758052,-29.31314391448867,0.8722717362068104,-0.0345968208646181,-22.537918942781285,-14.702484842347678,9.34872459895873,21.938905171932916,-13.44754748573279,-23.573099366389492,5.138418219801292,3.6909306248528395,23.982275051379087,-43.99547954665394,9.411576830653296,36.66062413661489,9.104823562920009,-46.69267581753516,-4.2345763375805925,3.6048223323527706,7.101992856779513,-5.0921244792980245,3.5728871480215556,1.3264457094732784,-14.407504266224157,-17.462824020754642,-30.03527922898128,-25.3501218490985,6.62438516965864,-38.382567883408704,-4.807508965015198,13.481497974523641,49.138862966563515,18.5524148176015,-22.148797525541845,-47.03129470358613,-16.13692365605731,-32.56373774839415,-4.5249931538744725,-17.88394116410795,-12.303174447786917,-41.50534186567059,-34.24273212099341,19.82099363572348,2.6985539969230428,-42.19754278501062,-88.36365402190431,-0.9152110735812539,-4.738228377548877,-50.1686590645934,-18.59392158667411,-13.838051244006312,0.7720166235951095,-12.666604630792147,35.344953397375114,-4.48960617037453,-24.42123873800526,64.72402011178391,-35.27844078070201,-31.272918636547498,-10.94909939551459,-23.797774756702914,1.6279656747972377,39.21727012034924,-0.8853902620796831,-32.701000643301185,8.322931390736663,-61.29507156570553,2.141444190580709,34.43549843594491,-42.77572618804264,-18.42578198544404,11.533661272766697,-22.320903848877435,1.8165444477961308,3.994516360156635,-27.336298996650683,16.801475181760807,-0.5184428207473981,-17.823839404632594,10.754823037886348,-35.08404005328856,11.874616638672906,15.867961516612956,8.010297441032076,-11.070343423444136,35.21412133282338,9.987965323992592,-11.848399947950364,37.14572190945883,27.668290319633492,18.620924610875196,-3.928666676448066,40.66162487597078,5.957047870521076,-5.05096927023323,-6.691024780916488,24.5508659049711,-54.84394828794052,-11.747234298954163,42.02721665884739,-24.680117322148323,5.824966193811639,-4.744847183595993,5.9888854265515805,9.026295148477946,-8.532510922970372,7.103167967752669,-29.117915603783345,39.63488649918352,-15.134392195468228,19.686842201679614,2.731737333468153,-33.10256289310826,30.383597718496798,-28.13670412514172,1.1414254268745847,-18.815125209172724,-7.218818559362452,-11.625455999963087,-22.36984645667576,30.09738376319469,20.493931813850782,24.31861024103381,-6.835165268680843,-6.138184477382587,-27.591957012000453,-32.385278519041485,15.373383996388327,6.725511314490375,6.462529359391177,3.4104766799872097,10.77047712827589,18.28609158716103,-29.566266050131265,-5.526450220496769,-29.74773408742345,-2.1170141424283644,28.12300042546276,41.38602701184361,-1.8632560995357765,-27.63768179016547,-46.98491770004654,65.23630100173975,55.69102677782222,38.753834789765705,28.93368570699209,39.934539018578754,14.161350644927024,-10.018900549590667,11.728264199066341,-5.615238853697067,6.846736632462415,45.58656883604005,-13.382720715084986,9.40459044975409,11.77215308683242,-30.67706253126608,7.916287075631513,-5.924533976963678,45.601437930442195,-12.329641669908934,-27.41840851523069,41.93267000027768,-10.512082167210373,20.911377287072956,31.95319807671558,2.6717158642646144,37.22568328531887,15.961642563132848,-17.500419293139423,36.47699208518735,7.710179931643052,-6.818864848345283,16.144993588812703,-9.71619592240504,6.55432907296321,28.137141378344992,-15.14017292579349,43.923848045109885,12.8827142939187,-11.564065806760686,26.655387315606614,11.455035667808318,-20.043202685145044,-29.53872646104486,9.497710494833767,4.875296265113975,65.0318573522539,19.656061713864627,-5.160094552856578,-22.914549082415025,5.20741711529635,7.4264163101539085,-32.865869092731295,22.761005533871767,-42.735769153953186,-0.8446215210720854,-21.57033289098016,8.339442818911895,-11.31728214650479,-9.356665843505864,11.35822105254548,-1.1013180624812418,-31.608328242686248,1.5928957967139723,0.65045817317074,41.18439391029902,37.33772288901154,-23.40629063460189,18.01493015884624,-23.458392052642186,4.201380994585658,-37.24236126673252,-32.72801757859427,8.234759727695193,48.46791647492608,-2.3740429729401447,13.135608197110926,40.15199905741215,-12.135488593587038,27.724539018207466,-23.944043297721336,-31.271770134780905,0.9195820221761315,2.3392516967480668,-5.3931626499138865,29.06459710354081,30.391417348248307,5.753434123998268,2.899834825518365,-20.016476875897556,-50.02031717410683,30.25983291105293,15.793866851684493,-10.103697952975772,37.231676165620854,16.100892463342277,12.245480701569248,-10.956428440083494,-0.8698147507686511,39.29764244458254,1.6033870031435324,7.320746925741067,-19.858692868275295,9.471796444206083,28.75263893713847,-26.79366704704493,-3.976128982539335,-34.94299916454386,18.671046962285,3.510248570430477,16.347263043575065,-13.651359577384868,-28.84991064331712,46.70365887910909,-36.51082123196827,-66.95070984626288,-32.234767300282265,-11.639546911069834,-9.761154901079813,1.03047067600741,5.453124935887239,-28.14305229884195,5.728495484112906,-13.326447165283435,-39.65481713027174,21.901260817449103,11.318261475021757,24.55392077571828,-7.85225751001852,7.21904884131946,29.85590882947236,-35.47084853211103,4.9486999997464185,-9.469184382552214,-7.803539596456468,21.674630214226024,-22.428808569150668,-3.238462124388814,60.08259066402027,-37.84271622070895,-25.981677981259782,-17.206838684442822,30.47703174148683,16.677093234956345,-46.68784795849629,-0.1506432158001746,4.255902593608971,-16.79365163515828,30.74884986012905,-37.14526701617543,40.64318233386187,-17.969266888596035,3.161184415617101,-15.08210386587505,-4.471484624788153,8.89930520847661,-15.565939174690742,-42.39384796053284,16.522158786645793,9.693020236959727,-22.856084937325626,7.234901055761336,-23.93770360029388,8.230772288136228,8.738505236753928,2.7915965444500586,43.095081759896914,-0.5117583791819558,4.9132805159274815,6.097394863284544,15.575796483870148,-68.90257849541356,-54.67549172668617,-29.50427276623615,3.18851781537667,18.112146692028233,43.76263032541412,8.616662077383332,7.5306449251159275,-18.745695344960094,6.395998316876784,8.046594229508543,-47.042540993690054,-10.912408996830681,-3.3593297271462914,27.19624298010114,-13.760244324124358,44.716269354738316,13.237198028599654,1.1267981301186947,-22.508861941092267,-20.375247417722505,17.402934169932305,17.711726962903303,16.810601896812518,0.8783431876796971,-8.610287731115367,-13.178659347373655,-5.38976151113974,10.402904869793275,20.18499082748513,14.971556732535612,26.44524449170554,-44.299684533819175,-17.798998777717692,23.76937279764737,29.65059626020701,0.13721976420503806,-31.623055443568006,0.6737961741015781,1.753093434733129,-17.640950379539017,9.382089554306171,0.8209120552342856,-6.114107435713586,25.08328950035911,9.729610837789629,30.032999690891273,-12.299878924398202,-0.13908039496072117,6.466578566587764,-34.61258212786986,-39.26128242114827,-28.606274428013496,-15.865729005328346,-20.394526844344462,2.8078334561342713,-33.40148544483786,-29.251342630854733,-4.827777467063359,21.106510876799675,-1.6060175901160325,-14.878462172213105,-4.707156025395888,6.516367411590727,19.578187664923988,1.2856659505821286,8.95851849793959,-32.44364060984358,7.722431068105864,20.59730680269263,13.960088427741274,9.7618052679396,-48.22865645425558,20.4478007388663,40.81829207866355,21.70269544091671,-0.06603579506426631,10.807306774084887,19.089699522511772,28.892158317952003,-0.033330802623893,-8.046038467452393,29.183681728216346,1.5052227505894558,12.220768690957778,-19.768050794553698,40.009361331327256,18.382370168734806,26.183016133408405,12.279655565204582,-21.804351294360686,-7.754431117505944,23.216207119747192,22.113673799018745,-30.959561420245112,2.0222550188111152,12.695740726998222,-23.935552831767225,24.43637334215919,30.203032746699176,17.571732712539394,-15.2677544596359,-38.730770099475045,13.5918471328501,-0.690456762581149,-22.62932554961189,-20.120125865787358,-0.20102083548761762,18.43423033656612,13.191718157149134,5.939715616766505,1.7203629928049138,-7.187437544629175,-0.6407034876922544,36.25654872203886,8.02691655652038,-3.3875253619216474,35.003283457354996,19.064557327749565,-23.99115176953223,-13.40236173213164,17.387319630346102,27.514819452855335,16.118655404562443,-7.905640251429006,17.0487225602905,-28.521575048953775,-17.223146538479305,16.968001482458654,36.029936951164395,-22.49890004170414,-5.8711279347063074,52.954762883322786,-17.60936005821468,-25.50347616742919,-0.9997376100058697,25.2383545634055,-12.954060087570362],"intercept":-2.124138203537031}