{"type":"sparse perceptron","classifications":["NEGATIVE","POSITIVE"],"weights":[0.0,-4.499255512486022,-4.499255512486022,0.0,19.047558674175207,8.4370221124072,-52.21664362708925,-2.7030252180709,23.100429849551432,28.82755612219743,-22.31832915365804,-19.016859646099125,3.794023621389619,27.208119709256724,-25.347321622764987,7.61907464560225,4.435951466002363,-6.257648717344639,5.425311516136522,1.4417778319566679,7.171211507453227,15.107198256142526,-4.181484337216497,-8.498342990858534,-23.195133075640125,33.82340649522282,0.3007356169133125,-13.412391885595108,-8.067946451091073,21.529116986822515,-12.573649611661496,1.0486441548656784,-1.5854298047827355,2.4359382985219398,-3.433125609193775,-8.145278969158738,24.462679419829115,-22.76288013632662,11.411005171947876,9.262294118005478,14.654146616589372,-2.364243315298797,13.158315523561159,3.9543818816498746,-6.358851950256193,41.09089435476755,35.40082741515897,16.58696131585123,-32.656281995614506,-4.802483175669138,-1.310931024492319,17.65694025259746,19.75160006879987,17.335570135154807,21.4188114491268,17.85357796245511,-2.7740723863452583,-20.348478505993892,-26.574085538927765,-8.592944893209298,-29.126606173728327,14.408566962826606,-31.888406220751744,-38.97749375897744,-23.61306893625592,2.5175845746222016,-8.046267591128565,19.75467913436831,23.52413024162396,-13.504401462959873,8.805845006690443,6.673374985034716,-4.49716514233621,24.572358613735233,-4.500961239141475,-12.193533963063764,3.1273334345361277,-26.923874603570585,-35.9687943528473,-33.304505473482074,48.9085591517561,-18.729784157455136,-22.081787074881646,-17.07625286968537,21.621016737110587,3.7793719132699364,20.765693575774172,30.433037449364654,-0.6936878396200268,27.240267526354504,6.348305418120365,61.63278320528009,11.77230366537059,-3.9326286660633145,23.64008340243082,-55.407235579029965,-29.194149197584153,3.125008963161023,-9.13582626759805,-24.325799338072578,-9.875398058940856,-22.430922404468348,14.586757519738415,9.551280213041386,0.17762666295250618,-0.4805373314758218,21.61748734364521,-13.395909167848465,-5.474668373116777,1.4971670438275055,38.63864441595912,16.572910975304584,-15.028148370676133,20.6552062729539,-13.599802496450591,2.019997927550905,31.28064720522217,31.305963780036205,48.938346884467165,53.4503679869479,-23.87555331206467,-23.041119598771346,11.048182987757755,27.62440668400483,-13.483532800151632,-40.4331713880217,16.763443056924586,10.005176436925105,-16.29706613007751,-7.2156028878344545,31.73689054740714,-8.013769824518775,9.92591916795028,-17.711161315779844,33.6714225427151,13.41993669425623,16.13983448358708,-0.6590946469068911,-19.286195594113426,2.069854190426212,-12.990802029618692,13.53119886677491,-10.816688626005444,-7.326319649973669,-14.406899486652028,37.559977476598554,-19.227846465998077,2.01710186125202,21.461417451394148,8.724799536647312,18.17553352003375,1.9098841241680782,13.500821220958896,38.35447626403159,4.081676858663426,11.040651361554316,-15.871566448503788,5.74208566683011,34.37082887504702,-3.319068324280638,13.962584661430318,18.73020355616509,-2.0656837980652423,-1.5079586677467545,-48.80030861752547,3.26345442774463,17.325262125876908,-28.275025463422878,-18.57090698484532,-2.547647810513721,-2.4550219584483726,9.351188750899828,1.4692529338872253,-7.22657616969216,20.865751221326885,-0.28206351731264656,26.76252539460429,25.44694472941065,41.40145161312646,-1.2093431011691376,-46.33378630912273,5.343327972042568,29.297535192188686,4.381031015965383,-22.886757310985193,7.419282232164999,-57.15064836703798,-26.438003740361022,47.82201614169391,-51.76768663003111,-16.397188518272873,-14.39944308104057,-27.582703124007104,-18.578314216185444,-27.270852021217294,-19.88300532256574,-21.58833526981556,19.12213455379548,-21.65106390911301,26.945560213999727,5.942604416996856,52.31418561147658,2.130645144446592,39.12998984297577,-21.20315937845227,38.286420184104216,27.293767082183283,-12.822721197245002,27.56986901759987,-27.08901260467876,30.69669493876249,11.807234158999169,22.33321525043408,-18.599197107241764,10.61991108394044,16.34043294238018,-30.9168725312915,-11.376490803681193,-29.908107713729912,24.558179496879095,36.08560653769765,-24.140398944260802,-36.60085346316387,-5.957977681868842,3.6074918409786725,5.421346878333675,-27.69947253812652,46.56617084512537,25.325883268647097,-68.10925731986572,-2.2765490428332535,-6.976479387780407,-13.132126734018533,-36.304163203537954,-74.76518789592664,-18.69786267601191,-0.6058318442906556,23.731177793437357,23.726450490638484,8.436983504968696,-2.2490343574688025,-54.74205491356284,29.18779952276883,-54.93534060982181,-27.620551392366647,1.035750612325061,-10.713306123558029,-18.355276129246324,-12.309156561266263,-133.93179329941412,-1.963727216754995,19.208043664084908,0.46556995019369307,75.12597394360998,44.539843691237586,-4.5158474580568235,-4.702148406194959,11.282570308638435,-9.501214624348457,-8.686168141759389,18.629162567750026,-44.721997555536106,49.18767907977538,-35.93958367750994,-45.83609477336994,14.952398071540113,-56.306635212540186,8.916222248728051,-26.37944679378786,-13.73494282141887,11.885864890472888,5.198923901513807,-36.28848848205924,48.28597593928834,0.1411478848209565,54.71471550472096,10.771752304787134,-13.308095662794033,-35.6259386285633,-2.7442420696782817,-3.636738934617525,-30.78682992280503,-30.36082220303995,18.89612255780252,14.679934472380404,-4.716498167322949,-41.37984526792306,-14.164880684990653,37.79762279123014,-12.167863614660806,-13.473999777059346,5.9048485187160145,27.319406386652624,-40.38305404259133,-16.16261456983996,-44.59432105099867,46.286834796713116,-0.7308270148389553,10.09106204548837,16.842769561407575,-32.18940657347339,31.13057456341473,-45.54506847009149,13.758830677829453,-1.334958957059834,-34.33688220968825,-19.73759614721313,4.601320505019968,-25.685617066194478,0.5422427309108717,-22.618537937069146,10.935324526146449,7.833841348608464,32.311780066965056,-21.836363672602825,-15.49567819108785,34.83402684965315,41.32260176054149,13.305330368199696,8.29585616208035,-38.03922857604709,136.10144053198,52.224637545056645,13.003892798023902,23.79359126012963,18.717194532432803,-37.00667531522515,37.1316696601266,-6.100551087923616,20.685453481070404,31.901774519236046,-8.287116028625755,-1.4255810446179704,-42.932382584730625,17.994606124487618,51.6720958734653,-6.553273931874164,-1.9925443194286268,-88.07871129852096,-9.91882838402821,-35.35464924213229,30.579156514274548,17.95526809750351,26.71296289488757,-1.1401155263554037,-46.42594303769036,-7.281557009617264,11.947890356288292,14.383726737613067,23.66535940266151,6.567721569895954,-24.343426731652425,5.506275237582755,5.086065244284135,62.617253427198406,-15.902146859462148,49.210100782833656,-56.65671864019063,33.345086722129714,-13.107498570432933,-33.56938984620948,15.162494762476792,-12.653708268043435,25.00028244479313,-38.37264481075584,-13.969276690162523,22.76626104116407,30.740628088416596,60.392590499332755,30.417259967794763,-36.52643174998084,31.45357136410851,34.80225670240539,-101.90600952170534,-4.071401716731287,4.3871976181105214,32.89513188900309,18.384957100099975,-12.113092743489116,-73.4227737266329,-15.638629573142456,-28.191179746023636,34.41445809427561,-15.593128324046704,-43.378605166647574,-10.952493227563773,5.249122229377164,-29.94390463473966,-10.327784933196124,37.78832205763013,40.1197469255293,-37.218669661862094,8.870423926073004,-18.01257692090389,-77.29433969003493,14.883551636762384,14.914133504941926,-11.330503150558929,18.89982788049354,-32.50364216308278,29.163699434493637,38.67599192606465,-17.906372847360448,-24.141192137739814,95.52842080348033,1.987658766206677,35.01136086124368,-6.528325778109311,42.939769527923396,-0.8385923687413125,17.036866757137048,5.523015543336197,-11.527950763638325,2.314045920616599,-23.96246863221785,12.962353802147394,-31.03177441746991,-24.420566900009035,-33.4260138362487,13.484172347046128,-13.937147688468347,14.011340485271278,54.03135942257377,29.66847290660074,-70.09862377778116,35.29490660418708,27.01211357534616,-21.71340520044865,1.0769544728289397,65.06471524601197,-20.90424168403402,-10.95195327295052,-55.108816643348874,-34.075847774187494,-23.401450872095126,24.35629252700299,-45.94121861200462,-102.39759717628523,24.389557738473133,4.053897664948264,30.88081573497836,-40.0255284924309,-1.7581565980800835,15.829620204809185,81.83057739126232,30.278451181147584,-25.110119803621355,39.89388926330089,-41.51630972388473,-14.407456823245433,9.729567096637512,28.56984547004603,-21.584014405602552,18.525631104519878,9.40184744072204,-14.357216836453585,-11.512395911647006,3.113082146676799,-27.791225447177652,-41.87218313690194,-21.797455670821833,0.6739822292407321,3.1120238371883726,38.67712772283725,-27.299918318019834,-33.79792351603555,9.717485971397185,13.81143770224341,-10.431348606298354,42.971637537383714,-12.190082865872935,-0.3767054438617002,-41.87464816559715,-42.717727991427836,40.882707697817544,4.524612633410782,-17.52778171757332,6.766494816250576,39.03564039930897,17.807087261856303,57.34555719725035,-22.207878904165266,-24.689209780915792,38.64466008065075,-14.101292286525785,-20.71678131535248,-17.30239269323946,8.90106660878062,-22.570522504470382,19.31416773028438,13.105661716917345,-8.677737830520588,2.477052815369525,4.88897087699624,28.351443872945477,20.095216853525333,-19.556423706896297,-59.39698962114821,-1.7292363260686592,-12.547526301973575,-26.462314268502364,27.99982839606234,-26.49331808543469,-11.398327906198952,-20.68544803135076,10.208209138070965,-8.333499566236892,-29.88631667343497,32.37359117351102,13.85721508554242,48.8975647474024,-4.4339730703205715,50.2723525975505,-13.269190228424774,33.80531955375257,32.49457746771671,3.7637177706599063,-4.4707602754158335,38.40906643972605,2.9173040248006235,-13.023073872965977,-5.693808036600259,-20.89747316285017,-1.8846306875984153,8.919121785536728,0.9499704121616306,-29.616510686983062,-55.48427010282627,12.603321187567497,12.215087172945568,49.94103896762228,-1.4697429589518725,-29.39287847073132,-6.8103340262849485,-23.727963011312273,21.15345507426632,14.463959188965573,4.30476313851639,1.6235593984671925,39.753202009457695,7.745958724319854,11.128493881758557,-29.511031162947518,41.998087234798376,13.681752646743197,39.18820383991296,13.647007883381573,-25.405605467612066,36.11827574134574,-31.44790610863236,-27.95410121841924,1.0032053944448602,-2.1839800538292935,-28.899086296532204,-15.68978347899921,10.126463235840559,23.42892637831246,-12.651784860103415,-24.704989045652326,5.016690114697025,4.72551359673785,26.719613314640824,-49.38058611619201,9.55964408142298,41.47666770190534,5.97660224913271,-52.2466673512872,-8.479475491123983,2.7878707889953573,4.535605531884346,-9.292498331526021,3.503785702823778,2.978359556808886,-19.35218682117532,-18.375072282231763,-33.60852533891444,-28.622778255827498,8.34175997988028,-38.29144273074951,-9.042734262019255,15.297928094212196,54.19933456675878,18.55381323489799,-22.56399171420669,-51.7756681308482,-20.857499032603368,-32.20664668278397,-3.873262064902999,-22.586804325382815,-9.701258890157764,-44.90718835425553,-34.58339736559251,21.16905997134197,1.5835807004805849,-40.98671889946847,-90.43423195590903,-0.9521059456750153,-5.5780776998730515,-56.96456778869688,-19.774772654406007,-12.278737300610699,-1.0438181176012746,-13.206850169167332,37.58138542468986,-4.441609931599594,-26.660296064907488,64.92706250163589,-32.66810514359465,-32.2498311156197,-8.210497758992092,-18.322054693002393,4.178287577572878,41.03212375539318,-0.49725972513330463,-37.12597159423595,10.75134389851505,-59.72794902354075,1.4332162626323253,40.104400365839446,-46.386020737772434,-18.24471946816756,12.898093635205075,-28.456518671185886,-1.1564376749881706,6.744938792620985,-30.01618992701251,15.018068294792453,0.2641255615528677,-20.61814348867439,9.648160232132721,-39.942903657830655,12.646570597363615,17.99682492498413,8.66185517379517,-13.485667652586086,36.970045199364684,13.310669245878952,-11.808383383375569,38.42791185897814,23.7775808013218,20.248942925576827,-2.585037655596656,40.96264689228755,4.138629625489938,-5.169051517086752,-6.929496248006762,27.216970819297785,-52.739589284711485,-12.568714882815714,42.062341941100904,-27.288119939368627,5.023193284195558,-7.2663423260957885,2.2117899748792227,8.729062732415816,-6.897045354721508,6.870463352861553,-30.93097740932996,42.66262044736217,-18.384092063354302,24.756261088941866,1.747132584190775,-35.022132913741196,33.462269421206386,-34.631582225598024,0.501206882162115,-18.388872543223943,-6.348639175521296,-10.125421449842833,-20.276467570218188,33.50776076417846,22.782246995089945,26.247511284722346,-7.029404437217321,-6.43822613300578,-28.409195430204683,-31.76719420788454,16.26806920609637,9.685181755399729,8.10700849055889,3.475028604380974,12.505359832926297,20.55900691632056,-30.385988867032435,-3.298536610380254,-23.76330694469876,-1.3051100149103183,29.59720913545284,42.802387965051885,-2.8751293831008007,-29.406656818427383,-47.458277850376135,70.76830106562907,52.36851668516124,41.17395724085964,30.769180319553783,45.63856949259643,16.356402959462237,-11.643981002265498,12.88180479539995,-8.461434219870617,6.640054437782639,49.410927384949034,-14.098041824443653,8.80237312307325,11.859722221778998,-29.173075040116537,6.8209593232245,-11.574924077390259,43.812112750608186,-9.368564246994278,-29.577086769090982,44.57044917058551,-7.245396016554098,24.875311284706022,34.02153727305383,-3.3517584818423622,38.68450889982465,15.715029868177963,-19.181291823718258,38.65890155308694,10.891363054405575,-8.089950269765106,14.33317376677579,-10.647887846595259,5.444805486046675,31.046457553808136,-11.02011775165919,42.83756528721979,10.47560985354172,-10.15874191178746,29.753225546749555,11.039802620847698,-21.596840399150192,-31.729881327989894,8.99699644012483,4.156376983752028,67.45567781304159,18.406597862095314,-6.936711939176479,-23.852058334112808,5.202447439891231,6.3340886922417035,-33.89524664494116,23.514254100610124,-46.86462151608913,-2.7842697276975192,-26.273862730942586,6.7830431341376825,-13.360162077728319,-6.595772298042706,14.844852592677285,-0.321357459996653,-28.540099305004947,3.780952900813565,1.0571274767274264,41.34886023172848,41.55856009745286,-22.466544350502623,18.483778205824244,-22.35762859850126,7.113554961383932,-39.58770367426289,-32.61632099894503,9.83675374383867,47.858964622172046,-3.342174243741215,11.04934816460458,43.187824907484014,-9.990720415755346,24.355103824394018,-29.911431726934214,-31.816478257438753,0.31942814300405736,3.797227018399631,-3.95989068833895,26.73127652711926,29.12676165937507,3.5427350896784655,2.3474086964093694,-21.389972952372897,-53.106713401353915,30.243947238825555,17.815027481612784,-9.902086500631883,36.32750199954354,18.949083576761677,12.010965211886905,-14.848542675885795,1.4378772506289226,41.34108918542848,0.9223025603334045,9.15825816767694,-22.91961736247018,10.805677252914732,29.496475534110022,-24.232522806826147,-3.1988271960987937,-32.30132315890148,19.164444212424407,2.7160774364124336,17.676248546504013,-11.868574932431288,-29.613374254059178,49.20122261348867,-37.13105246729613,-65.52387714464415,-32.00064017542201,-12.778200514731257,-12.55345295127629,1.246712944287706,4.582196397426662,-32.804068693971786,3.772945390076761,-14.725222624613158,-38.97137824507425,21.546706872643828,10.84998599515921,25.961299842476738,-5.222458568822683,9.552807340370139,28.25969960604975,-38.05767909432225,3.4390769598717434,-10.7716025055975,-7.776928157623569,23.6124024411046,-24.384869764442147,-3.2663756059497095,63.4184499431705,-37.687129084481626,-27.5093415147758,-18.770315505262978,29.918853414919123,16.25359219408271,-44.75922990112448,-1.3317274520151288,5.1401646887415735,-16.35082731374655,34.12142435778799,-42.01482644895029,36.26081920678032,-19.256746405544877,2.3137142617972932,-16.433918076724613,-4.040315075446864,7.769152799371243,-15.615641179363687,-44.08962084410553,16.765167498024148,8.6681665801555,-21.44329056007422,7.30089097297021,-26.55952619772652,7.9828433822437415,7.934251666268829,5.391921998150447,42.420505176495574,-0.4480863458041076,5.0818003278398525,8.160516160622223,19.612176953798098,-66.52596155771779,-56.70579602974302,-29.257710315031666,4.297531788209303,16.859470137242084,45.81297888044487,8.433780226751356,7.9732421520909815,-20.290101240034996,4.697359513039167,7.549241469624262,-50.00701473527957,-14.63227422517428,-2.358966377455013,27.061274933050893,-15.909356373994793,50.08708647379434,14.392388938986715,2.6130490967047644,-23.26307632529591,-21.06146798982603,20.372248380498945,18.07365134245532,19.599679191200316,0.7866685223601826,-9.348312212693164,-12.597487263836776,-5.481024266662807,9.103419587972637,21.475586774123492,12.995691163122823,28.14062033293905,-42.29178234105116,-17.940026356741313,24.98547446278831,26.52228408211687,0.8381957169528063,-33.384319173943865,3.6378929503442916,2.409830542518997,-17.28961584999834,12.066652366221602,-0.18613387917013963,-6.996948021798373,24.40790840588334,11.261235127870538,31.19734454488835,-13.792453298360007,-0.7544206135465931,7.238332825112766,-35.51671254802762,-37.3222341103815,-30.234617499228634,-14.57966775266219,-22.67198475203634,3.6002390960668564,-34.09634395844517,-28.118819752334325,-5.744768981447538,22.185472163865203,-4.314863794506969,-14.625598532554037,-5.874113334919787,5.426577524905953,20.052923807597704,3.4178078631446627,9.046065039242748,-33.71160310680045,10.742085420604656,22.258206895807152,14.546565483771163,6.297099592031385,-52.21384639863675,22.39492878567958,42.07754038170543,21.386413556693086,-1.4955431434000412,10.461823894941919,20.939639351982517,32.72112431208786,0.42520074630677207,-6.317610034045396,31.827614089583744,1.8901990209278408,13.342708530159253,-16.364651428097226,42.02596781928921,19.7199904164086,26.958714012937367,12.237867702035173,-21.963505065503533,-4.486177988353988,26.27341356622784,20.96811659002001,-34.11956898592248,2.3023086192236066,10.713648347705607,-24.878445456458486,27.94483656237381,30.390077339462948,19.23592723311491,-15.55687933647667,-38.74638722508441,15.619510915094867,-2.338784724193585,-23.500863553848337,-20.503396307613894,0.5620329245873117,17.553844674070753,13.116956627473835,6.272933012621658,1.9845521804428328,-5.903920715715226,1.0755285545718551,35.389144048037736,10.973501986370632,-6.295863099506241,36.862279568725185,19.25090264344208,-26.761189458872142,-11.599141593511089,18.652096463023135,27.992908287234723,16.2343483015512,-6.668297499246914,19.855922062982415,-29.96088136754887,-19.205769706983713,19.25421086502011,35.636366174244195,-23.708875785363468,-7.226777045365764,54.601076146862454,-18.682585090452747,-22.771462406260998,-0.8451434823325238,24.350392927015914,-14.0421924659858],"intercept":-4.499255512486022}