{"type":"sparse perceptron","classifications":["NEGATIVE","POSITIVE"],"weights":[0.0,-7.060012465728786,1.211286128150257,0.0,14.743599386727757,-4.574781208773598,-7.728966076608213,4.298391173905345,1.141728498455129,4.4734094083916816,-1.0538694422879793,1.5084733262145285,-0.10340534831696695,3.3420684542935892,-4.348206286370678,0.15805751110806218,-2.22978423424572,1.2878948067328517,1.291899255035061,-0.009894251792517622,0.6779631482012373,-1.4854467907767024,-1.8896491922677658,3.1717635019167236,-5.198946184420727,5.965038873810998,-0.891467792716849,-2.069166604280619,-3.971399640360955,-2.248270526026755,-1.4957143856470894,0.13616270221599852,-4.406783312412473,0.22712547321945467,-2.562844692888324,-1.6379452711769085,1.9610793873805623,-2.8997518495917913,-0.4131084656867703,1.533462460353744,-2.562395530075409,-2.5988013044888487,-3.925614276353507,-2.3747203563317334,3.5869434303053014,8.560422508402935,0.7208316940469914,3.4297517683031944,0.7997642058342296,-1.1741025281380544,0.9809114843892999,-1.6056864867225045,5.7638145232072135,1.9954400094834601,4.425523321993301,4.48860478746658,0.6863195708365583,-2.263410134430011,2.947139496032234,3.5661797282960603,-3.8618273752215813,2.4935281595076786,-4.741239033815946,-1.8664998502799532,-4.438213493533627,-0.525438409311347,1.5560289728713552,1.9431161568109203,1.2275124198528542,-1.65197520453615,4.260644667726017,-0.22495020850558667,-2.541721335537697,4.272521979656522,-3.021008477737989,2.16704938876841,-4.248903898255408,-1.9332885794910473,-13.072062393742858,-0.6413044064019512,0.20130941690092052,2.2730223562673237,3.7139518052901144,2.5116284516273413,1.6534839139229907,1.9106605293358414,5.4905519849660305,11.975943726261308,-2.270373998350368,0.8450180520504874,3.6981978591003357,3.8397124005123486,-5.599680876179546,3.9148081030825357,0.9359057670304745,-0.21020698617920264,1.1435344577979631,-1.7315130338883225,-2.786541877197484,-4.342965778128723,-6.894399039165326,-5.129204158211697,2.911846424491619,-1.99920272262872,-0.3639089842913558,-1.6942050728474594,3.508103187444613,-7.1156735122886765,2.9447207930957497,-1.3395258286049132,3.176579393512481,-2.793503087630271,-2.9862578725240727,1.3501958057981198,-1.6174749626454117,3.7505860308886487,3.549345815092742,8.605658539541885,13.781181548660951,7.502986137896143,-2.2290568485480358,1.467580064965058,-3.0067552448331263,3.1981729557388534,3.0950315387831018,0.4034859768006027,4.248893033598786,0.425587024738215,-0.2122469910367359,-1.8920382767773334,8.237754541591377,8.817297814463705,1.388946781411577,6.730058233461572,7.238813319005616,4.447569361605872,1.532440797564942,3.9587432865650656,-0.9148023503305365,-4.4842026013020515,-3.9204642593779635,-0.939618877990618,-6.5627240984166395,1.1211282344487383,2.728819126089246,3.1207310694712147,-4.01594266885753,4.039078942701304,5.710936246372987,-7.645708006569066,1.2022937893635142,1.6047218694959724,-0.5997185277537209,7.202616792251218,-9.72581369251936,1.6702855894526312,-2.235855843942532,2.4189581144595604,5.967061087453063,0.1885011973116375,1.9574023133857972,2.026201804973428,1.4355928829076348,-3.4239529176406154,-14.861460370897124,-0.236834460646045,8.6433351317808,-2.032922977884435,-2.0171806240654515,-8.478777783407736,-0.69575550891691,-0.3453684891174705,-3.247703681209148,-1.5998868848627132,1.8544611956260495,-5.769109125902412,6.994250736055314,0.6631434006443995,0.636786972140213,7.145060718806968,-8.434281006904875,4.868408115463346,10.788720234078196,2.802147150409483,-2.395897601210814,0.3036730084424205,-14.534198481789637,1.0077123398248355,-2.7180152015006143,-0.2783366929628239,1.304292393995079,-5.759745829233271,-2.7772383823589806,5.182694635402233,-2.6114893970956796,-0.533844247832087,-1.9398553997268022,3.014203507041908,-0.11054373772574089,9.171132022927068,0.42320884297889777,12.558423177232232,-1.23997874269855,10.777368825404949,-5.843136927513525,11.068026196293994,9.356410827649219,2.5246718704475564,-1.5310594733951217,4.155111474005525,8.832304065348998,5.5945641171759695,-5.819318342040291,-1.5385163281847445,5.881837645669272,-1.9413310931593417,-4.742219387123916,-4.892557060829707,0.0823646400521699,9.971525765191986,3.8677644897078185,-5.554807689518445,-9.877553870401627,4.719256852911877,6.252704429091274,-10.888969156794248,5.578190587839437,17.361157755221257,-8.705015323609862,-15.467860159737533,-1.7087969508414216,0.8289228871125812,2.050871350404075,-8.095409465535779,-8.729796228663853,-7.119848098894015,2.238113929836402,4.845639773754657,-4.8701287589267706,10.7868139106788,-6.058415103225932,1.3812881203278309,2.2055029172388236,-8.640116649232718,-2.720463772670491,1.132831706797117,-1.4796984959724508,-7.110668227028038,1.041226453502476,-50.61622026036898,4.052618392098487,8.888591245152789,4.66827588281335,15.137179502541727,-2.4425412317116844,-11.987711579804667,9.86103032541908,-0.322322091219006,-8.30941289298504,-1.3465273538060996,7.526119030447996,-3.3803700902501337,13.228156596661952,-4.510036870031286,-5.417061811347193,4.862055778655958,-5.877532860266405,-1.7684005368857192,-6.315205220414458,-5.329691658796398,1.7981614820357217,-5.861029921772714,0.5781940600254305,2.146903585079323,-9.82669513282675,10.468074148047913,3.3934237371739684,-0.7703933961751088,-22.036356549941434,-6.40763957652207,-0.4812539638578063,2.6697204162718164,-17.65216839744733,9.736827838473108,-2.277166037280527,-4.2329400517868665,-2.0801481906825523,4.477517040578722,20.337170238557086,-11.748798117389036,10.3725346865675,-3.662265593790502,11.515769379051248,0.12962318406467224,-2.3028360310820553,4.157753330234616,10.674161218515101,-2.578085028414673,7.901885134713652,2.2617668728292077,-32.75672734338729,-2.7241620714284607,-7.50024279480712,12.745108634016296,7.566453035139745,-19.066011026481316,6.931502157545924,14.723939405709123,0.5295154197714799,-2.183865381000385,-4.1575059461442185,-0.5065530244712811,-2.509732032709299,7.345505581225407,-1.429958754785758,-3.3934280253801,0.24780994496582967,-6.786210558189347,6.032836076371896,0.8974421097164329,-11.17406655872271,34.56896541274207,-3.652968978825292,3.223170012668022,-2.3991917434512233,1.107013825162915,-3.809707383360452,9.009564973185293,-0.08057320355129334,3.7094875720849947,4.565854105954654,-1.7756383620065501,-4.773368435489484,-13.51359815973582,6.590635597148768,3.496149230392554,-3.8194560704009137,1.5600297190770995,-26.059981319291506,8.927892552780332,-9.009230198444174,4.879545628474922,-4.03642641228904,-0.9843397393881005,2.678453624691266,0.49923432579126453,-3.3235980251604267,9.273783199952803,-8.186359683650753,13.59164484268729,6.2192049648676395,-2.5575190551055016,13.847578092379454,1.135091714660481,6.155840415794291,-1.0806726851671056,9.60233939352352,-24.351762005460504,7.503650339015433,-7.267056892135775,-5.999908530162208,-0.4128187042755608,1.707067216586888,4.037103414431887,-12.615587424649986,-6.6710019655763855,-0.15578035061340234,15.28932329629896,6.92969569413612,7.766818915977378,-10.573623560710356,9.755271105184734,5.166304017264799,-30.972513809636734,6.594194202766963,-0.37260989299949837,-2.0809293346489057,7.6253207562445775,0.6054525324884439,-15.777122391433318,0.25701713964924794,-4.72106511698665,-0.07748895901637777,-5.519467451218661,-6.4076656520015085,-5.397481937376137,2.3839896304728083,4.696528205684174,-4.533959355118478,14.408798724384223,5.880179708665206,3.7871407424952124,1.9493677079474658,-1.2183846280042283,-36.305698037568035,-0.5633546612740151,3.4036981768747663,-3.5154124538290423,10.297518195520738,-7.898168531450322,20.160212041909762,10.248366347545183,-12.552039261196567,3.823360950686878,29.645390874240523,-2.7195528914335227,7.9222895696186955,3.3684009306800697,3.2115839279702696,7.513597907860681,-3.8048248592357936,-7.603585478566309,-10.666218768471444,-0.8681630413743618,-2.3334190037892184,0.2325387293243932,-4.588868116559245,-4.287403905236097,1.8337818385084044,4.154964146036213,-1.2654475519284776,-8.129559282086667,-0.32866403100999764,13.87146264812124,-16.87209961610152,2.7982090179384005,-13.858916881420885,-6.506963206439334,7.178500423919403,2.9095846710394717,9.605493152096454,11.460170163490771,-13.913947329162308,-23.34239481068224,-1.69781980502857,4.32898437930467,-1.7215145099194211,-53.69217074410921,4.834516896591108,-11.6856591310884,-2.5202368534025905,-5.970505760001519,12.639607291120042,-3.0519543346309836,12.964449426017385,4.775894420581513,-4.491270511612376,14.468161045425706,-13.904571970466304,-7.8534750724741755,2.442786765101572,-2.2731267759238767,3.2254674168612327,5.882492579649086,-1.5142717147314408,-2.477607447021713,-0.919299087952772,16.67258852472021,-11.982764131387352,-5.654744456088945,-2.4307424891005542,-3.926052360428179,11.006335453924963,-12.943048690077001,-12.262731523768664,-3.5262151141576363,5.0757508301103265,2.5277954495839583,-10.173394008105923,11.949601592499347,-28.701354694729943,3.7495481337850602,-9.968085117109364,-10.881506484097219,-1.5026035632251162,7.285971766857125,-11.733489803554974,-7.915834510461655,-2.254287170639764,3.730993255630706,27.757090371072096,-5.192904457693633,-10.77977075312609,7.517193944106047,-2.2331106619345262,-8.053272137031056,5.756834100879063,-5.039768947924461,4.021568653488911,13.331596909724153,-5.623571579371472,8.731761382976764,-5.050123690441409,12.61318772187776,9.923358388324456,15.394865839919456,-4.351299178690747,-16.43625598544974,-5.246566592735649,12.203625714122749,1.4849786497794708,6.742933532250035,5.628581053306192,0.38228852686842413,-3.3209406780351225,-6.969234498598719,3.8750702939205826,2.6731826103100103,-23.70848266550005,-2.12212239147862,18.00891650137621,-2.23061203140853,15.091208770680183,0.03885504452939,17.33858066614368,-3.3530615104715147,-11.305017187029927,-3.606871655596192,12.411191991509702,0.10462359939652874,-7.990957389770628,-4.561171048939581,3.5592256115411276,13.32651832072805,-5.606794322093729,-8.0417040264267,6.1066273427113416,-22.821077301348332,4.569349353004526,8.489344326410402,12.065115581669309,10.328448081088403,-6.59294125468513,-0.661230129415417,10.32792634575615,10.352180478624925,-9.085461010653457,9.003035907038068,-13.15627106799923,-4.569014840764372,-2.2462908490206686,-5.989680364438166,-11.80925907094833,10.889089520809028,-4.282076191277218,35.49266752308973,6.44379008691498,-8.324357133730505,-1.1905771361040192,-15.509632615189334,-11.78835290375602,-1.0559394620438738,-4.247255087629132,-9.207250583013288,-8.005698590762973,4.020097920054417,-5.784033082362456,-0.7362372783543696,-5.070650451505932,5.0381776452191325,-4.167647180387126,21.09220389440297,3.0111211186799527,5.246417387207294,-0.2852264253439672,14.175376922685185,-0.3993467318686264,13.189416107061454,9.64613349392785,10.065235688346027,-0.993792695968075,-3.659012290758859,11.592254696497626,-7.260447547232409,0.7492412513411086,-18.210564050098256,7.2986535279160405,-13.298760600769041,-26.526001019350293,1.5879958165790014,13.997884943991426,5.5000425649233975,-6.505408902139389,-2.746620377804844,3.996068378705827,5.412186359669252,-15.440292888757286,-10.924009581372315,22.3759799875149,-26.642492331364103,-5.926135125673152,-0.5296872420545685,1.3486973479769602,6.463623397678856,-22.49822723260179,-24.178634383659915,-9.540152205092753,-2.5656653807423955,-19.035468686825293,-12.055329065984507,-4.847879233938539,3.103071125954676,-6.241650395703861,9.824114345858295,0.9307865324197392,-3.5674701935767863,34.751012431426595,-26.31650087398798,-15.56147211888898,-3.5063257816143736,-8.639963076231863,-15.811930196859892,24.991754870362314,5.104137052025245,-9.49811867577974,-3.6393824731882285,-20.544349386642633,0.22905818557049384,-1.211672265462273,-10.841749247819187,-9.80019637810405,-14.865127374652406,5.300130457576815,-0.753053740946111,-10.935500448791487,5.52092547399438,2.545607809635031,-3.591236119890683,-1.8471191229295962,8.612993991087205,-7.8629430684280495,-11.456201744215955,-18.056299105565493,-7.068220766092605,8.056914239021976,8.18394140801247,-6.571455130275562,-23.682836354396983,12.558998655682355,6.987188562202403,13.08829524274411,10.836688570642456,7.85664086355524,1.382380648960793,2.1628614994092388,-2.9988390648862837,16.737785165633177,-12.00919370298592,-2.3372152751324777,5.7661016241402585,6.796392517965109,-4.760072634892878,-2.9510987203065393,-2.6219226325313776,21.635627603188244,-6.709789084603549,5.238072273613444,15.212542768919858,4.884264383292917,-0.4754739197024186,-4.909335257920715,3.5934200563239806,-19.27344875269926,-10.163254335304002,2.0493694296668994,-12.130664509301642,-9.315506094625459,16.221425813965894,-4.690260269068822,3.0046909178095973,-3.964204949846393,4.830166667440991,14.202226529270522,3.6544097322699063,15.75504620582406,-3.6505835337769574,-5.73000357409384,-3.874565378265927,-2.6507024567790154,12.310073405102017,8.750074271579507,-0.6572508776399022,4.9171453608042155,4.55357712308853,2.2363744587836685,-22.78978280911233,-1.767918426836046,0.23785446389568904,20.24934439256028,-5.914533797756116,-8.61135942505254,-15.205854712323386,0.264956125015735,17.759865025591274,14.991260865825472,-8.170650764041586,13.565170988547367,-0.14172820691680726,4.6856920573120355,-6.888515767028306,5.3654182870760705,-3.879176249277214,17.114306527368917,-6.766320856084073,3.5063733578772056,0.4044672858565135,-21.120744955623437,-5.191989542240703,6.458105965964887,18.202886076080805,-9.387416527498639,6.2282395272164885,9.14986922525811,-6.030425676194795,4.751216693549399,10.199327986678904,11.81206903034738,9.486809387256542,37.97173318451879,-10.889078693677275,-6.488448750656729,-4.941907945685943,-17.579172859839396,17.561144531782375,-4.649818032969634,-4.044652920865854,4.665031965461489,-18.493547842962585,19.90348277886779,4.316206882472509,-5.844741374607532,14.66808295948537,-0.2543550492490003,3.1168274264649067,-12.89409586608693,24.920792100811347,6.441286011478763,20.835442220915304,2.5695361472948623,-14.581228133946382,-11.989812414733477,6.938143543103668,-13.827065758795072,-5.304374498042793,7.352412052539588,-0.9059540183840481,5.364525598359972,5.633720599490337,-14.68846359554505,16.717867196692847,0.8895879968687004,6.261041964934131,0.549554883257838,-34.467438485286834,-8.138585892545407,-11.989596825194317,14.4420442900712,4.013883981819709,-6.05366915685083,9.3209866022542,-4.700363727335564,1.017368315385211,-13.212383751301594,-19.069533852087616,16.915781920715112,17.879391081189357,19.21077120481614,4.468546451929898,-7.903519968600155,-9.631461067732666,29.081590053597697,18.764310487091226,-8.886417223661821,-6.733216335331583,6.14989500449389,-0.22001464307896734,9.973895832015941,16.540335124606983,3.2690250659743763,-5.824202973166047,5.806989389466308,-17.73803755628412,3.930396990525562,8.868025843760211,16.123763796680908,17.56362037334896,-10.578651800264023,2.1697082438034707,-10.211505439849864,-10.926646603932086,9.56062621067303,-9.23156580786052,10.536332142976597,4.779393347772948,-1.100457028445013,15.15665663154136,-21.84347381928764,-8.915603873377048,-38.99656223744901,12.600398626918562,-3.9205175966298227,17.81708554946983,2.4376932598157857,-10.740349367802962,22.800747194754162,-6.447213601186065,-9.141729376405177,-1.7372335815316475,18.622884805174337,-3.180526289970479,-1.596268244646775,2.180420565365526,-0.8946048733790969,-2.7329668242362897,-2.7488298703235245,-11.753070971240353,7.7789077125005575,0.12280293229950522,15.33448373989881,-24.394680328543018,-9.224858067315592,26.115015178033417,5.24441372341234,-9.605047917433188,-1.4787500711215094,-0.8073607393398059,9.466945958096963,-0.7958958893292499,-13.309126450276437,-3.059644739278059,-18.26103262010209,-9.284082045598643,-7.065361168932743,6.055307226257716,8.861878423636128,-33.562820241271965,-5.961637552030006,8.517600734496764,10.922605064644538,-3.7498492518376016,7.002834119205604,2.4213770824975884,-5.1829769595414,-14.221398932558342,4.886005479228262,2.935385073765554,0.0659937983095197,2.092517002645983,-19.663681361196065,19.09055785684257,4.289471897728739,-10.105516090573737,-10.805821532057102,-4.941250174650061,-0.8786488011991128,4.605799494203278,-2.8415994698244185,8.716732904238938,-8.460187133250338,3.551375108625482,-6.817904162269312,-2.7956487098675944,-55.12377869853128,-16.497662707524434,-16.28307823552733,-8.058875085040613,25.69111501963677,15.955640326895772,-3.691981414442556,-19.83887043645371,2.002705979610378,25.23322775421763,6.054172511257201,-11.152977779832726,17.7818772185973,4.657480326499043,7.907396735278571,17.85765671053508,18.009926860270017,-2.6682026492197317,-3.496421876760833,-8.70326913088086,-15.261274296987105,12.162018596924883,-6.302879849620844,2.986748793928405,9.183746704525884,-5.084452715030797,11.032243790891757,-6.8668369023951525,7.640301373302416,0.4968195201352498,-3.242023749988038,-3.8069566355970252,-22.963850688088144,1.3276613653199698,-17.84189253590005,32.229182033850016,-3.5490516787970594,-31.174157724503633,-11.904115369314587,9.816993261341468,-9.459944546198319,6.349204402770469,-0.09911775448480367,-6.464784086796381,19.309053797386937,10.700577281994255,5.425055967847485,3.528838870201206,1.004888399383112,9.951293801038476,-7.144474159471578,-49.98720430603193,10.338245734728439,-11.930996988140901,-11.461426602114635,7.2299273884996005,-18.735804339550675,4.5566337258463765,-7.4674848220351135,6.272162302234669,11.11662060850796,8.76928977483903,-4.902723516598946,-1.2990142513702376,14.886745858423087,-7.149486375731179,18.564446167604547,-18.58680244435742,-0.6148236523704352,-2.2441930396753995,0.02202328049010749,11.121143419067,-22.64575348836085,-10.576374592647086,21.981783712918823,2.397924719440289,9.244588107916442,3.4524521345767236,-8.265173284733498,19.956965674370974,-12.280028740067177,-19.769981202612545,1.2913130441789045,-1.5097864289861884,-4.281644303457922,-23.43219445979236,6.086949205537113,-2.2088135859779854,33.73938284869229,2.0764465336617954,-7.851067394618562,6.803064700897309,-1.5936555558672103,23.28151887446279,-16.69975834275786,3.303572840293707,9.132389458406083,-3.2313086666346265,-3.822443410641521,33.52152279342826,-6.961746045983195,9.6245269017838,-14.821061805586499,-3.0046840049840666,-12.09219714630157,-4.997348876534779,8.471008450763701,-18.90414458317823,-2.729167103248086,0.44797408508169023,-18.589968026506195,17.82393591571938,6.095920100917828,6.108264222426978,9.047268053542407,-11.45408723859855,8.603066085385919,11.026830479334306,-8.67668306958442,-7.430434252019548,-9.05986942576127,4.000925324783308,19.40841508841381,-2.2971197818695224,-10.524148407182453,-11.22696955419999,13.751876588518675,6.03339866653726,-3.3064600512755113,11.8179218379949,-12.770988651751264,9.49108909394667,26.883085883009866,-6.584528802406766,-21.11162837611281,8.942600947194935,7.215137511345102,9.554457484302446],"intercept":-7.060012465728786}