{"type":"sparse perceptron","classifications":["NEGATIVE","POSITIVE"],"weights":[0.0,-11.484270322341416,-11.48385255977137,0.0,11.81425230991085,-0.8753672713502819,-56.704709786647776,-7.601039017598459,18.13319601519743,19.599593118263623,-18.181400721830617,-23.422234062420156,-2.795189009147048,23.552998769649243,-25.569302979073914,9.156207510361607,14.196567452467221,-18.3551468632641,1.5562751846238543,-6.8318837841794515,15.074188988854381,8.872902807919093,-8.027349973164672,-5.19848630833189,-15.453754503951345,28.55081488676343,-7.730604680956557,-26.70555743668351,0.836284492388688,9.614211389721287,-9.35239183578505,-4.537624128025281,-7.45445540085972,5.092665262824527,-7.322041844267891,-5.962393896622791,28.447385226751624,-30.419155203698377,16.4434770279783,-0.7816163759289376,17.444290702455092,-12.14961591714017,28.90417262663223,16.667810971428743,0.7069035665678237,35.53130774198908,31.45716287850096,1.9414833565463983,-15.40334008011673,2.460902766660834,8.024933935181966,20.95719197968358,11.388282244783802,15.20821681675266,13.142744931780161,0.4647500484768185,1.812701622683379,3.765785421488829,-24.850896079782306,-11.274805622985856,-7.250865049738934,4.389742516273112,-20.2408149080257,-34.410857160996684,-12.014840292584868,-7.57242274500697,-5.34015067679047,9.199865593414863,16.69835942783449,-8.775798351934244,6.929705139112916,13.91770469435804,-4.663347735882668,5.758298156132687,-2.562569122110849,-9.847947482028585,4.041562663162367,-18.757430038517708,0.08443785871116863,-23.347912774105513,31.36973315248483,-9.362390352257126,-36.63431425798911,-13.573301411192947,20.774777312655736,0.12592028294636307,16.671383379450294,1.5943526401798143,2.535978757393923,26.62519682350951,-2.819940584030626,49.56592480616534,23.506477289979873,1.1635202690243647,13.565470457670857,-44.394620932618984,-27.20775098513183,15.410056893877403,-1.3774854147928455,-18.47815744632117,3.357835676126389,-6.211641808271115,11.701977696245967,6.826967169571859,-3.285065098496969,0.364917263127251,14.269084968732049,-15.073440731208882,-10.22398790288232,-1.9554105968541873,35.84450039105556,9.560406504455775,-13.394391436977038,7.239224298740658,7.487891896233614,0.23548774933900013,40.45375378183869,30.28028737140113,28.7830321278278,28.925615606642225,-18.889475470928694,-17.359410726906216,14.770964447670572,25.453951018657566,-13.285619294801931,-28.077168818465548,18.34923159242563,8.701486525975895,-9.950937681779276,-3.2520139365166774,35.05741584256264,-17.69964390214475,-0.11987971228323918,-17.49437085229933,29.595479960305337,14.341761828520402,16.28550776370897,-4.669189452041794,-12.710961563085293,2.3022994083337815,-13.941857355478705,15.578553182881596,-1.9454553315812004,-6.623747876636532,-5.9340796102459406,34.56251435345766,-11.462353139401781,-2.7411711034010295,16.50929869925909,9.514575160890095,13.655561517326912,-3.542686110828184,15.10510239734506,22.259591563972208,3.9608987437858465,20.291994186926612,-15.79474849562127,-2.176400121732529,31.257806445271463,-5.029898369538969,13.339125824721318,23.997083221702376,-7.730663764873036,-1.5957404872957597,-28.952336930171256,11.064821039667885,15.348804419951213,-22.559161233402587,-15.626124543049373,-3.845640707460887,-0.9195240651975016,5.66573814148792,-0.26122660850627066,-4.427763601434298,15.287967281555696,-2.911915478635998,25.75050751945975,18.756177220750114,34.30052997838159,-7.79218772623292,-41.41881331440556,11.17845478779727,19.22955542281268,5.168756213291158,-16.258079378540838,-4.2204149281029775,-52.12976417913609,-25.287759010068758,46.88550898744733,-39.48135208775561,-15.77841554162759,-7.91405226677404,-25.767631780169435,-15.255723993006784,-26.931978873573186,-14.518044134362553,-20.44823699473691,19.800342723571784,-17.266982908388144,17.18976349061018,-0.5939672011417678,46.03454704298038,1.2120711300446598,32.17124590566373,-15.563345226216287,30.072149462438045,22.80961566377967,-11.596568364510778,22.99510998975177,-27.98561761776866,19.276927047413285,2.359069448787181,17.37845846182679,-9.059036958842912,7.12080965087381,12.479996686383421,-28.32303438158343,-18.246737216784332,-23.244372204704394,19.741156017840087,30.827929442175975,-21.55498897801503,-26.14720354459742,-15.117976784065633,4.283143155346842,8.854904419753273,-25.111016964614013,40.899774127990256,20.77481548875254,-56.20197690993509,2.16700173566917,-6.540883094589043,-4.480228032216288,-23.643940916184608,-56.61774028335965,-22.592720371004745,-1.7465992285072014,21.664555572811498,25.77165693018083,-5.422684463302092,-2.5658403154860476,-43.90571418714589,29.28350358627931,-49.67973948928502,-29.642578950434903,2.767286969758691,-10.228186679122102,-16.87977277009656,-10.57788351113982,-107.02196586546323,-0.5412205128790996,14.424987200552726,-1.4247998664998285,66.00805489195808,42.472033944493845,-6.058859964803425,-9.622568596680718,3.463953982016705,-8.85640330094082,-7.6386513157915115,20.281026175806478,-48.30610490290849,43.14333832623793,-38.72956451454644,-36.49560118068963,10.420063083384495,-53.93365665888803,10.431574238430036,-31.983236123540483,-6.439302293968507,9.781276100569663,2.647108682626529,-27.126096640227143,44.8093463485942,-1.3091668659584499,46.720520408862825,13.195963488469063,-17.83257293095543,-26.02747752669205,-0.18114923534324973,-9.033099567623868,-28.890185170267234,-20.747121973413716,11.296475462024912,14.061489855450455,-4.288183582171471,-37.05996756207525,-18.882676661606034,34.52860400911445,-14.472985300506688,-11.720446111465385,1.4333433176958257,16.228487082599674,-38.903577489051216,-7.716735947245079,-46.78724398716932,45.03313156216092,-5.119052385635423,6.363619003514079,10.99119187647361,-23.090088531180402,31.55904489973942,-43.85102311523592,11.439132396671276,-4.166974904206369,-22.925526340091086,-19.01925765348842,-4.719957389484301,-31.31490705195635,-1.1860757552984413,-22.165550317210155,8.82884439173918,5.547808470232038,33.46445518775328,-25.760356164561216,-16.86270549789965,30.285411259064528,43.25986100863701,11.180620551576498,6.3933491467620875,-28.990648262767095,122.2593894016141,44.52828811979446,11.055536530833411,23.78032239331366,16.02343965547521,-30.750636925696362,33.788770786042015,-5.0827715522986,21.151995321084648,31.591950345410762,-2.7920956298410786,-1.6380613240929343,-40.127753605006525,22.666447430712427,51.17080765660576,-11.362877910527391,-0.9804760004513401,-78.40032916349327,-12.00894196704685,-29.61850554812368,27.71064224858942,21.705550751493796,27.142892242337656,-1.9872233453235264,-36.337718192812765,-5.964667225573282,11.786780916427215,18.66447419520338,20.222037329913043,2.392752435072967,-20.900720219570555,11.067851086178003,10.586933874460767,54.23203156200796,-10.783514839204862,40.32806703664485,-43.64358212916518,25.947623490781336,-10.619098314016908,-32.4907333668886,16.925693483362217,-13.23810386169108,21.680749259417333,-28.816983343247824,-10.487676727289232,20.847216730244245,26.728994273019715,54.63121911205719,26.94716236781781,-35.438182613210806,25.87284807392056,33.39669934890171,-84.86032650840511,0.2451570830531562,2.021017492761533,31.712010358006577,16.124071849365194,-9.905529218961213,-58.106606532067765,-12.391719067193652,-27.082585774420735,34.99392253152356,-13.026018566767313,-37.04088999026218,-12.993592054560352,-0.12783313225980786,-26.251712886263064,-13.406714252285933,25.378377032635242,35.92125450055869,-35.084146956697474,2.9037783841325417,-19.509617690482592,-64.62732293016484,10.584666482709133,16.41568280552504,-9.513115562036097,18.77239525379091,-30.503851668910553,23.51335924435617,36.43207409447329,-19.434605815870615,-22.77311793804257,81.28051803009495,-1.0738343893347162,31.345529196599006,-11.762426490428027,36.28615246465858,-2.5249974617291993,21.11631782096628,9.601593221290768,-18.956842208666483,1.8178485928316745,-22.147301331026252,10.905465675781096,-33.91287467968357,-27.79589491347934,-26.95871741262001,13.23199229144641,-9.694901556766654,14.381460509037925,49.89296902061002,25.77726253903116,-58.973769832834336,34.66220241125011,31.9192393807406,-18.446262652610553,1.8761908508273688,64.10120283792318,-22.22880733824296,-10.42242554841101,-49.330627702143346,-22.512768276553516,-23.710213420864147,28.017035410360613,-41.76914675654935,-87.33266302434201,22.075658424422024,6.235578297393521,28.8026758427985,-41.7642587724734,-2.4219566142727356,14.596129561833608,77.35018002493157,31.901378954447278,-21.614337061300937,29.96144591328285,-39.96116961323591,-5.871260525835281,6.24159726074084,22.615668669094497,-24.16038519924778,12.084904934851746,6.713001027006025,-13.649453871427024,-15.043998611463715,1.5505643783479757,-27.410676689442123,-39.073907816472286,-22.37438155679752,-0.29474284626816694,3.012174562442737,35.62441286170983,-31.266578664084747,-34.41093572064508,4.205556832024364,15.321574946976346,-5.090687896504414,37.691826930084055,-9.630308398628669,0.68737809582104,-36.322400289889494,-37.10732360420553,37.443758299893595,3.144753838557011,-19.839215135930516,6.043188254578462,34.07168449330819,14.64044231925817,44.46707213070737,-20.507558829113886,-20.107690540705565,30.812162821827688,-12.632135506149732,-20.5165057368018,-20.393918459847775,8.56137280382712,-22.57229418883076,18.904077784000535,10.563394426117771,-8.179154946641118,2.6604547321279295,6.7799364482398605,27.880487819213077,16.959735953943067,-21.31067421599338,-56.94195973310882,-1.052638143459184,-15.928505183959546,-26.061399000374823,26.838800564216026,-26.541436306363483,-7.840578854895114,-21.178770494651033,10.970410475610189,-8.1317224805791,-24.547136960877136,31.197509862796846,17.204995200309003,43.07088650011407,-3.4787012699966637,44.787122410161025,-13.571798929507297,21.94642564587089,29.20467462619591,5.2171010224140435,-2.389275725618583,36.69706170181988,3.2717496498199585,-13.732790284504107,-3.31288894452428,-22.484783907990735,-2.834063511332494,9.172272123170584,1.9394120663868226,-26.75031018159278,-46.109444228518804,11.082981788431397,11.072235411940985,41.439077987516455,-2.6394183848761226,-28.766915654396456,-9.094773040554738,-18.322666390283928,18.59903615497685,15.568309152755718,0.09245775523903454,-1.251138323279815,40.10895667288203,10.827354444002856,11.735596720724276,-26.883779528419847,38.190671143725304,11.840114665396742,30.861230536895558,14.368493597957315,-23.49617586477531,35.30455750785337,-27.47253168269991,-26.11675381589176,-0.9471543870935869,-1.7360113851988321,-25.292758734433573,-14.201440535748755,6.689226713114089,24.144702225864897,-16.77498139379101,-21.871700440534486,0.8368493534965289,2.8511852991623194,23.1103966310302,-46.962591297047155,10.089928855881121,40.2183934206487,-0.27410068223900297,-51.661816546303115,-7.327814522632261,3.503667063713104,3.9060781703104897,-9.052960724636902,7.128805555348151,2.5129637793382713,-23.07914553202499,-18.78039305668436,-30.011037619744016,-26.6326423663284,7.475377240360039,-35.71918025310084,-10.970891401739543,11.12162431197257,49.4678603877352,18.098432356306365,-18.244798284423336,-51.73400775703479,-22.523503333984927,-28.18593869436104,-5.818649231700578,-25.34826574384274,-3.094802247004292,-43.405981205740645,-32.51437603412586,18.059786503373363,2.763158718236942,-36.89028781229596,-82.08307209386162,-5.225064210771337,-7.433433001832447,-58.24165566917717,-16.156433095256997,-6.597968486575582,3.5603088347055,-11.495541428414112,33.5906118919138,-1.6849856995587087,-23.29552496755722,58.238489956939894,-27.524876582416468,-28.072810663678364,-4.5388815020723,-18.62346833221319,4.927051616727186,39.360295761059135,-2.859954154541578,-36.2806475714028,16.2513506683614,-51.82440800954304,0.1730243411782022,38.893910465687384,-47.01739165974917,-16.025875060490158,12.048163106354913,-28.85184520947981,-1.6448305882084429,6.704189056190292,-29.299513916037125,13.968806135540461,-0.28802453203961165,-22.62120646577225,12.889618062356837,-38.97580356658834,12.052321880247742,16.995569491839007,8.3848699271415,-8.255106734153937,34.65642019641527,13.42777450566883,-8.694164199856102,36.677837368686745,19.38152495086996,22.329483563819213,-5.821337392687031,36.9496465357711,1.6945012203930945,-7.6471553944316435,-5.5482842642487595,26.24925830779535,-46.08170100193785,-11.724395305853532,36.99522036111156,-28.493952315753393,7.914947689408465,-6.612114479862995,0.1422663715447705,6.806149196700909,-7.876982938992647,4.936131358699939,-32.656206934088104,39.685887087474136,-21.094633390966028,26.716051616984227,0.7332436237883171,-35.66243046351955,33.387025990856124,-35.686506659178875,3.1399343717525583,-17.755353838023026,-7.305584235084272,-9.390625311683369,-18.911693718632925,31.926785164810838,20.521345424780954,20.667378879527263,-7.389447832086205,-9.739453314864122,-27.93858738082137,-30.875405405798773,18.9260612209251,10.262210497463801,9.810164006371908,-0.012278098596514825,15.896281412077556,17.48434248033936,-27.70185288747506,-0.33839143829024004,-22.180409410030734,1.8079481139325972,26.77460291771087,41.71490095400078,-1.8878515517660102,-29.538411872542152,-45.50487218489029,66.69538800512431,46.51882311135345,38.78865198466706,31.521089249124216,40.20036127169875,12.50630115600041,-11.920535942234311,12.174639319836675,-11.423697815184529,7.259056750209182,49.76124578004678,-13.118254310821717,7.18746344718443,10.167322585442577,-22.04111999384008,6.589815761519784,-9.844291086182151,38.04727814476721,-5.026153652604456,-30.58076507801679,42.73279091494249,-5.7962483435094505,24.51337753896058,31.153408827368104,-5.952280394100649,37.36435333716065,13.751912794095603,-17.1867970403217,36.79988785354381,9.535153909126235,-9.082362616308206,11.981806778366142,-7.14234820466103,5.2352005859089354,29.921356304696147,-9.553037229996992,40.33238241261634,8.608176138047694,-9.811206206117575,25.911379165410104,13.106530399577087,-20.391417026456214,-28.250487134577227,5.548207633923677,5.158597498700227,62.11966269803337,16.392289739358194,-6.209464844032886,-22.97896472573869,4.084436739486136,6.583842974918511,-32.59277523796866,22.205034429535004,-48.11731539899101,-1.8766589633005508,-25.421442355332307,2.7670497506784115,-16.20901078212945,-6.755833300583927,15.83514432790878,0.23791092485244578,-23.151740159165687,-0.6104691263482335,5.18729258695226,40.1461029902018,42.503022088750996,-23.46381350799034,18.123684919528895,-20.76458137221163,5.598871709990446,-32.6363114639537,-30.144289677664027,11.448446057153363,46.177672203446335,-3.8184044144465816,11.8132144734537,43.097034325058004,-9.131268658632013,23.36846307924512,-31.17329262043165,-29.90225235238604,-1.250039109650093,-0.05466857048954904,-3.6944054763913927,23.934149607817762,22.7212555138923,1.9070426076598936,3.2508960425665583,-21.98884355714492,-47.93291349862394,27.809190292692517,21.063666482450426,-8.779961195561953,36.853528896536154,20.040077887003193,9.922112603925905,-14.972024393080085,3.1322345745484363,34.51126681561267,1.1995325602748284,9.949380585708532,-24.223320666612086,10.428376284744783,29.6377141357276,-23.34556327723947,-3.7666046918230287,-24.909906149890286,19.197233718411407,2.3500246040995587,16.07059335031915,-10.770396285411676,-26.178215229447428,47.38749091329705,-34.54689805094925,-61.73224012688412,-30.073016261631867,-13.153348123828403,-12.29775930431951,-0.2068932336678636,2.118493407836385,-33.759203619123134,4.159313876887581,-14.095039252114885,-35.01266124965746,20.161557050976047,9.986512928135483,24.048652821088528,-5.019604454234582,10.821323544568035,26.23565966328176,-38.495790796073685,1.0629396683460541,-9.658921415300005,-8.112830043379114,20.332144642724252,-24.89223329871074,-0.5416912319351733,61.95902504158065,-36.032188403291535,-26.50605322429796,-19.492237942756976,28.34535264038804,17.022377211142988,-36.60568152204608,-0.3377346138914571,3.37167276110359,-15.619160566187633,30.914619747390976,-39.319060297998924,35.288029945439696,-18.472181477225885,3.3586649109369753,-16.433908814620576,-1.4468977138888504,6.918824985556958,-15.969556434082136,-44.338890152836754,14.082078773550814,9.435695407548991,-21.487565550847517,7.293657221446741,-28.040694996726423,7.11578020756985,6.827426988220924,6.9074546526226674,43.78600273569906,1.2734971502402417,4.21771809170966,5.541865839529402,18.384775364082678,-58.364690905806945,-52.64819444400675,-27.618568680722504,5.271750742465826,16.743532343775282,41.851504500229375,8.963501202526293,10.340493042256668,-16.354531194633086,4.970096811980782,8.124180339178546,-47.64381695042331,-13.020147674906116,-1.572637268463123,25.383073490228806,-17.498985290195122,48.132396131925155,14.245607730978339,3.4925981401584067,-23.359781854789492,-22.313394329158687,18.14245291292963,18.041812904392046,20.557748945644754,0.7770831735598911,-9.748540143410171,-12.20505948468659,-6.596611715948419,7.868547365922298,23.545751256728302,8.91754823123513,28.952476245922508,-36.24539924900444,-16.58528723207914,25.75709431438187,21.09662026055061,1.9361900835570127,-31.001001477125627,6.655868080432319,4.771307921613583,-14.731199980384643,12.702474113824337,-2.032823908972048,-6.2300278649864795,23.102498259437205,11.412958793874939,29.061114846456388,-15.790627663280011,-3.1015988647351524,8.469062738201856,-35.172137951181156,-31.16898748769753,-29.949163169281963,-13.356397061546064,-21.16853933528596,2.0867094589452386,-32.21094062140894,-27.644619686813854,-4.839975623856888,19.384788321778768,-4.246870094652187,-17.242590231547176,-4.839975623856888,3.4688044519264207,18.83619964743959,4.129280443210025,6.595144578917587,-34.22143368099916,10.690320510736237,21.61971271476273,11.280926838939987,4.567614505361039,-49.49218374019575,21.899954250079357,37.028184174114465,18.86921839803941,-1.5880652545136673,7.862632063534779,22.05938782102255,29.142975031901535,1.4251093345952666,-5.145142299161135,30.336975377548626,2.536178166851776,14.741465353790687,-11.20604851846431,43.14190439996548,17.464843591674278,22.49366164508284,12.02441030662746,-22.219619958346343,-3.7475650895206707,27.373938605480927,16.925396715139684,-33.25752009305581,3.6645316014502543,9.222846212169273,-22.873555377891844,28.946555195562585,25.33147495202672,19.025312681477942,-16.667334697829247,-36.70650173905173,11.019041985261232,-0.46229754043197097,-24.047122018583433,-20.390037382973084,1.9060446428925812,15.929368411763434,12.136866498457474,8.023951504177797,1.1231127134590329,-6.893440084179023,3.921556088999136,32.18145368619292,10.951691408914098,-7.9318441186929105,36.62839689229456,19.509611172570168,-25.651018710276997,-11.97803677819966,20.895550850826787,25.25302529451356,13.886181674422716,-3.955126747821687,19.600437102799432,-30.331404005638255,-17.575738490164472,19.624038265242547,32.49979241081948,-21.597423135345682,-8.874524091864878,53.00675238572752,-14.100738198024093,-17.35240220299379,-1.8518910359851934,25.503636944940105,-16.15071621687467],"intercept":-11.484270322341416}