{"type":"sparse perceptron","classifications":["NEGATIVE","POSITIVE"],"weights":[0.0,-4.851984937889131,-5.123716684309049,0.0,7.134263838558176,10.342753562865912,-28.537187383674247,-0.28433098043792054,31.298256203720634,7.881592373152352,-6.904920594830347,-4.7994676242575425,-5.462928273726306,13.54873204581532,-9.381807015933317,-4.174727038457276,-6.645261339117211,-11.96157934109397,-2.1242801015096315,2.7169447919006844,3.5369487449346497,13.041866859301118,4.602130699314458,1.5956068769274638,-3.1344458446477157,7.061452223157144,-2.0703132115320075,-6.608537503670751,0.6241814591320485,5.9806415737120195,0.8761685235179326,-7.731458215787665,-0.19077019510779897,-1.799975857088746,-1.4319374704838064,-0.09240830029921182,-2.5561627430034286,-2.0040303760813964,6.971363293259558,-2.143526612679733,5.218542181158361,5.315303323713144,-2.6975900281808536,-2.14244562120017,1.0337667407605433,5.729516464792607,8.067839282177358,-4.049966589208581,-5.337652781272109,10.61991272984962,-0.07775343711694788,3.2766355027164753,8.37505278587542,6.522951489808874,-4.389316526110993,-2.8194576799931363,7.054508852408347,-10.604827394013661,3.920652791901787,-9.00314254689126,-3.613704972113749,-6.922102582280875,-14.217066085709684,3.8936654403492694,-7.636750805023571,1.8633762549400605,4.232505102625527,9.28574081290879,-6.332658157548947,-4.704863554056795,-2.263673475061828,0.4976233440356316,-1.031849772220341,15.394401486379058,-4.757145093201761,-7.151664036663103,-3.0792370344017987,-6.667490231952395,-25.9548304428604,1.0638641603761263,8.141593214290687,-5.221798081851175,5.682418282217793,-4.353942002116475,10.137678862292,-3.309714634046439,2.7590743916290865,12.806662374202437,-2.721070592990585,1.356489715675623,0.3862990245061125,8.643918885538707,3.8100552110621733,2.2358918580992606,9.259271043140194,-7.546945971115944,-5.518349418611264,-12.69509068455647,-0.05779080380014573,-20.048523028467194,-5.959341170889017,-7.897166800678157,-13.966922031540816,-7.285698128669507,-4.0642880383982,-2.101521612080892,0.09756686477176388,3.6821312832784594,1.4093603096736558,-8.814838752604722,24.375606486305387,-6.442121345858707,-6.978600734156957,6.026026661191048,-11.99181489450719,-3.673705778494759,12.734904273899355,7.042999867496621,15.167885990456421,7.9268004767493006,-9.39933883512932,-1.5880305507196126,-7.809267549123388,9.15891910040606,5.620423320061,-7.608783334086954,3.367897824056862,0.7110685631111553,0.7867960975704322,-2.8639413501020576,13.792897995151145,-2.2322811645821217,17.045130971251222,2.315202554088385,5.301706236861917,-0.04575985115605022,0.0512739432565556,15.789137352188105,-12.886126415171253,-4.197702731952908,-11.831670400877142,2.2865094495149596,-6.51507637880333,-4.532471846129094,-0.5250642981563266,12.663289294679686,-12.131878592971013,0.8946668047375494,10.30465757768471,4.2957441519590525,10.377756255205298,7.808477017130794,-2.5049505480807133,22.36757893081418,-4.426378626368062,22.005137533192837,-7.099483511623408,-3.199297590553206,10.686350193730282,-0.4567740456068657,9.407421900326886,15.106263556676707,-7.405551090674626,-15.687774897837393,-15.85378152054959,2.6000187061222038,26.42825139765885,2.2863947497758463,-7.317680706683814,-13.029239725048336,-4.415841857688211,3.1386822058103965,-13.480179951754721,2.7653436086658205,-3.3732726101454062,-5.787614544046723,8.374099521079163,-1.2122920326099271,17.0909133683415,2.0140700700733944,-13.653340157794984,0.9872540409193971,1.5965496883734933,-3.872597820209164,-14.589466309689563,-9.560162313570896,-20.76383075624096,-11.675579792246513,17.935095035103796,-27.383701304024786,10.733145000868587,-12.911957105630783,-17.307235234025224,-9.045431313549704,-11.814081846367582,-0.70818529322712,-6.10061411013015,33.099979167591464,5.163322722730516,12.288921304130465,8.150824087439023,34.776173639253926,-4.626738546113306,20.601083605025295,-16.205817904086906,23.70271455297989,9.874066537463657,-16.864649877994484,3.4098185275630817,-9.741364237731037,16.226096540909086,3.2421267559399345,15.895968582661686,8.634154075985757,14.226247830155838,8.139293850692614,0.46709381148885915,-26.499258283164867,-6.146473872745153,18.77194103672194,2.549424034359152,-22.475281574640498,-22.150064251262013,-4.845064963770963,0.8188421670097087,19.448707477541486,-8.317777165211425,39.97142684513436,21.735454216119106,-21.39016139291033,2.725921684781045,-15.79340602632457,18.67640612332044,-10.828975863639865,-36.386944715001306,3.105522505703278,1.1452449266381257,-3.606863728003481,12.651053548164095,10.310100620805926,-3.173823662359013,-18.722547151841873,7.783588032168817,-34.81106106398169,-30.42651192898234,-3.8698613518109606,-13.725608671956415,-2.8315524081305266,-12.109974537782362,-86.46173501853436,13.681524740516993,6.471655566475526,-3.477441182054405,51.91498383872295,12.679497739552911,1.6507587760971756,-12.165851658391817,-14.841257444214309,-8.42536478446062,6.348928016339503,-5.454224562897684,-11.297983376965405,22.187545483280047,0.15265622075305169,-26.715108986867364,1.7042914561174107,-25.505253957347083,13.097547618411276,-23.6504660069235,-4.05450362168664,3.6871419605316125,-1.3887915426379354,-5.288308713486571,10.14154637179301,-7.579570445091606,26.93876624920481,9.772051199542549,-15.331124128124324,-26.809909578565122,-22.784435450857814,-0.036848000128409164,2.781573639969002,-14.239070853994498,19.598598227423615,16.71601578631431,2.482144917389009,-22.767523901844207,8.12084986372097,9.481453518424049,-1.787849582920159,-1.7831655093002226,-2.7871649788366626,12.457726451322069,-20.41862124862264,-9.911678755750152,-15.719157708073485,33.90093712264797,6.198216037223875,9.552101151294524,-16.384702257139004,-37.614254542626526,4.81516952963193,-12.192180871923936,8.799783432229749,-2.9994551437139187,-38.29289752626596,-3.9667781602090155,1.138556216230205,-7.3496830037553,1.5395814439294662,-18.811623837358116,-24.91926051382036,0.7745033103436184,20.27814673794829,8.48789624122554,-4.1914778539721915,21.195370858702898,5.372013763509485,25.33214264167809,28.390391534019866,-3.0142163988118766,57.81187361688052,8.027111641185378,18.56411046533956,12.610937694572316,14.295312761248315,-26.203458724996125,14.694143164086388,4.986405087255355,8.564715157719595,12.055177803476468,-1.9853789118782337,-7.421714678985122,-1.7928258183847672,11.26130252068312,23.85210210083805,7.764663953726253,17.05774740350325,-69.41215590344471,-0.6627538298879286,-15.793592467410996,6.330254456734859,-6.24232274494141,22.67498848278066,20.216892152069374,-29.65086746843166,20.403572820325927,1.2388955883091382,-14.104795689939944,22.16837786349763,-6.380523449803695,-0.15116148148694825,-2.857440572070387,0.274719554243962,38.84593937427672,-32.62932584624271,20.533320605982723,-63.67913909779162,24.766322598793277,8.80637208596493,-18.54505980772096,16.308199436946666,-9.59975281262721,23.3205569381779,2.92581529879555,-15.303048957600069,7.367553362746193,18.081892232249512,6.363014255636153,18.010070144856364,-7.953067010476969,17.19407123458381,20.66520447213094,-65.52548695399327,-19.218493234772094,-4.621124641801264,8.28228503808226,20.737843497112273,-12.68162184592985,-68.33823410267091,-2.587213819379996,-4.017959164382618,4.841388209516876,-3.784492248416008,-46.53154790210353,9.81013864252523,3.3226422257088095,-1.8578546122153958,-18.189625735742972,32.78295319754936,44.519373232681346,1.7809591893882473,-9.54842589163279,-2.391843097892076,-44.59801924694518,26.169019578749605,1.0055546641640574,-23.36524413927036,24.11053275477833,-3.268829321355647,0.22601921265434968,18.50131815934315,2.993694924631347,-23.06916103349584,62.81211356544826,0.33400203056772104,45.01495888238922,20.1287702626653,50.10394923068182,5.3307716853563045,25.546846105381558,-9.119872416919268,-27.703687963004143,20.725695055075054,-42.240837827267605,11.463865365357572,-16.093560016607125,-45.16184124157248,-1.703080525876674,8.048985615370242,18.20751080020278,-6.1238846348490314,32.25861115949546,8.308580030917415,-42.64539337902817,8.082427154232636,0.24496191627310632,-8.733176694528364,-11.410344854783514,-11.778224318728503,9.693644433755699,-11.346031759814647,-32.77401726679992,-35.99423639250175,3.890712305813767,10.87835471551442,-25.07780301548811,-61.77352699378321,23.04212631982441,-5.255375332425062,-0.04975177970033512,6.551388743985757,7.812043822920404,-2.9457671513115415,49.8107160325744,17.856250733071914,4.4931579537364055,24.491169487978688,-16.055609564361138,-24.75506643991479,2.6610642522157386,35.4944369180856,-34.85619524057162,15.552528582748367,7.268283167039321,-14.741372943150845,14.386097911145566,4.099077222956155,-9.888964491894306,-14.217605829260144,5.5387599067043265,3.761802008833442,-21.729230762849504,3.793479854755903,-14.34010200403858,-17.45682038804396,-10.867184681192985,8.351244131635918,-2.505041877344231,9.557880026780742,-32.56805488444211,3.9105518879352825,-35.14456850091961,-42.72412720595449,-0.10336800202709429,-7.315853848635043,-21.232897314574977,-3.9827727200490273,20.238890738910296,-5.498501095798227,35.32576412371642,-9.989213881494633,-31.45737415894802,29.4058145802158,-12.475400434236146,-16.143117632307217,-15.930786751398667,-1.6408569299186275,-24.970739783046,25.19931522724591,7.703984932946762,5.268775407283601,1.5307833591738074,3.9597158354334114,37.23288210697449,29.932251206682707,-28.799428621548397,-38.60617832738823,-2.4726621646295732,-3.0686070857645364,2.2405822425933204,13.445256904370652,27.154017584444794,5.394995678328858,-37.20739056135729,10.045765193448899,-10.269721656610512,-6.7765751155678124,13.942789306352333,-0.23695443609172237,45.8599421014599,-0.265973431832229,12.413382878074232,8.94877807833741,50.7745343069155,15.782503774959327,-0.20596129230568516,-7.002389993175854,23.774455017491093,-2.5213611515068224,2.2754734881890424,9.969421681826574,-8.033163609399697,1.8060763875553496,12.932093246764282,-4.520006175980545,-5.394359596959656,-14.340184620229225,5.278189866737518,16.2681899653802,19.998593885185446,11.123978381032035,-45.75975189042578,9.120353415692973,14.625757915556903,0.6646012885776786,-1.7176871666805615,-2.0128778349537453,0.910725497312789,4.141983118504533,24.07255073065065,-9.155467478627283,-39.863962012932426,26.97411404892742,-4.422597139895866,26.063614216203003,2.099369153438432,15.951197127097803,5.342967638027382,-13.838538469782932,-6.5125508787687965,26.370346322508407,10.89142631780487,8.438269736882713,-25.064429823499825,-10.088392778133999,-2.3443097813259386,11.87923579730367,-14.1449836635855,18.97150706645557,13.272083160753294,12.408614804776404,9.98503461211247,2.417567617011422,2.481934564152602,-5.509087176301379,-17.999331722768144,-2.840953117252387,-7.982036704211692,5.4459537311941135,14.710251063596196,-6.340383513825402,5.000936442682008,-5.677886740678634,1.1948194208723024,-4.146482116483824,-12.79401787571517,3.096259654979216,-36.113710957365335,8.250648498204697,20.420322919443276,44.93217581999053,-7.926591804993245,16.251501974120053,-18.161130387042416,2.278768216221445,-31.863843526705633,-18.36657730133512,-25.802886058124603,-25.787399496224726,-20.301292075582133,-4.997896605045699,15.881812119105339,22.510666327713164,-49.48379693320329,-62.239114695821804,-42.7870590167339,8.933023241648085,-31.87276779835906,-9.067351855767196,-2.726743836145836,2.382275083621462,-28.945545810034744,-5.171395048934885,-9.238015621895064,-2.965489800016758,61.47643651004587,-34.687823295190846,-23.84801886933956,-8.500795051508877,-40.35920049477932,4.452458659931334,-0.3661284570979837,24.222161546116432,-15.534875848658757,-1.7368046394089152,-46.64845941313735,-0.004653070722955621,11.448692908999599,-35.29589934330017,-18.600088082209577,-10.332948881456758,-7.7608293762588705,-0.7829782804605206,16.773856699428126,-16.33664105069126,4.570243008984747,2.319804948670079,-8.11800329178226,0.2815525160972965,-42.09581730105582,10.097136496041264,4.488129563748172,-4.615680564483345,-3.691793811916055,4.294843194476522,-11.287316116171878,-6.021622343714958,21.998250526747913,11.820239032910333,34.4217912980397,-8.348960652699088,39.959692042797414,-14.898418370736353,-14.262632589048192,-29.64548168747548,27.162924192001903,-13.343120129696713,1.979988364078456,12.757254815097388,-19.57362956593538,-8.254854807264797,9.100619932329689,39.80275445319258,-4.508531371865187,-7.267474177406681,7.5261568301401205,-19.057913464893996,29.41235194600465,-20.39549588470491,-1.3321059246861535,14.930669669507658,-18.076449631969236,-10.873667695808757,-10.324740876309873,-13.362118076129928,-11.099462203684565,-6.185790713233825,-13.398964243157533,-23.961541916415417,-7.114906285641967,1.3154256022387754,5.08505991969753,-2.5172937642274658,9.47985438182023,-26.417992869229007,-11.747509960694002,34.38309682317759,-12.470495751009016,-8.620061713035344,-9.699154496872689,7.203907637259868,25.119478256345584,-11.092390467551501,-6.584410640440396,-38.314178456424266,8.271480037100945,11.547451075067412,26.850556497577944,2.538041492280694,-23.522197289684033,-37.50930814505855,23.440972505413654,39.80541725843628,33.91661304251307,-3.833309332989728,26.693584215965117,17.13842311485417,12.03958054551166,5.523651232360756,9.073687885452308,-5.726403764002802,15.26316323920852,-24.861943335548922,-8.498361819156614,29.30751666937606,-26.888939696281643,2.169630175276011,-10.03938487340135,50.180093590265265,-19.53140298322736,-10.997777291762711,25.96512493459543,-5.372125026429143,2.6101118015973035,19.29832907101941,20.3353787222835,35.40220098493792,34.673929272518556,-19.85551056712922,12.164875350334029,-16.539854916641787,-10.108403778683739,25.210548070340774,10.04417865849484,2.6979316420034385,33.55577239473398,-1.3630092517675583,7.047483221586388,6.163023977460802,-10.279692659066605,19.66525166328482,2.7595600692732143,-23.033330271746753,-41.56296141719092,19.858499282778244,24.122902116030463,56.28463325107342,15.765607867736314,-14.895043936053595,-3.9771790468541512,6.049633112075361,7.663653692251695,8.706631494752433,13.147839191834853,5.069456178159172,-11.291963454270663,-20.257283285519964,18.703575493446273,-17.274760715200596,-1.3121357050235596,6.25047018802551,10.218918650870497,-49.81488100479322,-2.397292821397493,-7.363671312394573,20.32809387553846,34.97370777551292,-40.684956274811725,9.51811709405999,-0.40847125689934227,-1.7042443570125168,-21.539117319519477,-9.17842284248708,22.02490136275971,18.887622625479395,33.00573857612221,-27.74777765720205,12.092662475670068,-3.0151900159595293,20.26669408624784,-9.876207687853402,-30.3789884990531,8.469649453915675,-0.5973382017067358,-14.482517967238739,12.160326833229707,26.618600084815615,14.4853413824551,-5.559597982427838,-26.87754272054583,-14.336732570072577,9.595730376725541,9.437174720845421,12.731515391729518,7.968621370889245,25.783642502237186,1.5678870639636686,-24.41330417831151,-21.003788825778393,33.487907104006105,21.70848657487381,-0.05531245358405126,11.758317537115895,-8.165098736750616,28.684740064020577,15.055003308991793,4.3754664055078365,-40.288524820375564,17.525058757074543,23.358872530174047,12.95742878972363,14.167355670841221,-41.36934656683714,36.61985401871999,-22.330772735176925,-34.972987761592115,-17.273037757286325,-23.498167299285708,1.0190524766744231,-8.021171772714668,16.816500605115916,3.9273771373666566,-2.488654569037482,-1.9722822905205175,-14.957599202801521,3.0668471317197827,4.827557314850684,8.693147908198842,-5.501410562371853,-0.31316452908303105,19.254575367473848,1.4852104712996976,29.123799694301987,17.71489861265815,4.587903283994917,8.838745973808406,-18.87021162442695,-22.19025497331942,-5.772155115878461,-10.249710725181247,-10.133143776685936,-21.2818976725835,9.54146430961698,4.396400669147892,-55.038641333533505,-18.579977387305203,8.995344173013686,-23.10635763776961,25.882343141262847,-11.47934061688935,19.40547694471986,1.8385825195303123,-9.143803272980968,-5.448110600269342,1.9564398797494944,1.5068504619034506,-9.95242582972222,-33.07278513142431,-3.2258717930747633,2.580817613033921,-8.937797481237991,30.70198272226524,2.3012182440540214,23.822318969253594,2.793226623700673,8.129415189436132,47.440470062149124,-4.511158976178927,-1.9882142581890776,19.597633706067345,14.09642822726834,-25.79926752149524,-62.22168653172223,-17.164714216887166,0.399367236288639,31.870165076074034,23.795733324681816,1.9798129570817478,23.24688146195878,-28.42187624441657,6.303215185722368,-7.815860811036953,-37.99754921964959,-25.49690256229978,4.798583104657422,4.325445567024527,7.762192495583883,28.564391765321577,-1.0237500200156524,6.8327167468620384,-11.176573668692003,17.63595464062515,19.753321415444336,14.194992947704343,9.108220011798139,-4.276893887082998,-7.174726307371694,-27.045482260933547,-16.69091957744825,26.268321471144407,13.687982349699544,2.254682941200091,29.63760097541982,-25.404479872544623,-25.40195493185167,19.93656651278419,42.320126745436525,-11.313431277213493,-10.891401603297348,-6.847792488393703,3.7515253964734416,-40.0221195722584,26.868742873853723,2.311128557967617,-5.379435879385558,17.952851271873623,7.277510841412692,20.468124851906353,1.093273230694491,0.8668317280321459,11.597537758575514,-31.10895719933681,-54.914961745804206,-16.932214783220367,-14.750259017831162,-12.05646918677622,14.345022846799369,-44.79892712642195,-12.2824686079989,-0.2974850727722418,12.127625867127493,-2.8525855941116975,-33.39276293056127,-0.6118219790684094,-2.3807105119329357,19.46026608571805,4.575253062886617,12.753080767169475,-30.165317229359076,-2.8212519922915877,-8.522086565930108,-30.665252385583674,7.7727796386997765,-33.73054880058109,27.431302147889404,21.302723174821022,-8.755403295584806,8.25179359544804,-2.5732402195696635,9.515146222236435,24.73581678928798,10.93063722218356,10.778510973104499,-12.317074429325011,-12.961112899176413,-9.221763902715091,9.732800997408177,32.33144041567735,25.770394925440005,32.16930772019488,23.070130766077543,-42.811669790096346,-24.73697314539825,-0.6246370257786492,7.300949194305557,-8.610445319644038,6.407395015398336,-10.071905739710772,-5.922809766830639,-5.043393278183672,22.693194904037785,-12.498756197380127,-7.256919546401731,-17.625742221973034,15.192324682459004,1.2556780923977304,-19.138798290188827,-22.96046952233947,-5.170098601389057,10.872837354826018,14.883084043134911,-2.9143060245784453,0.05266407535798345,1.1078932850354262,-4.001053201572598,29.399275659381928,7.213413073590596,2.0597789150574966,5.264778150533544,16.31164713886034,15.696129608756186,-24.259645672018024,32.46948610283335,25.210264910113434,-3.8847305209496694,-6.453823384745878,-2.774022010186072,-13.095450366733264,-7.179999883037775,7.672860521015918,35.02315112761504,-3.7873378111067995,10.112710898541525,45.13714426135419,-23.660790122458494,-28.075076738103395,-5.842316529922249,4.046870717547091,-15.60837741551216],"intercept":-4.851984937889131}