{"type":"sparse perceptron","classifications":["NEGATIVE","POSITIVE"],"weights":[0.0,0.14320938722204676,0.14320938722204676,0.0,-0.13409469631494517,0.2856021708491795,-0.18283700330148878,-0.1859494805427751,-0.11260916988724062,0.09185869746764125,-0.022351951570564584,-0.08149603024940114,0.051445604144932426,0.2273002203278172,-0.11761511487628881,-0.04153732956171085,0.2537199642821556,0.09008092193183359,0.059031292184124874,-0.12109093792656017,-0.04201454788586197,-0.06394573030061035,0.0031452771605380986,0.3486860659621705,-0.008125588941007532,0.5362635736292594,0.44380778654310704,0.07450937840614665,0.2759948801686885,0.1656389839597937,-0.1486736200194748,0.16485944716736686,0.054567010009950956,-0.004731839502209005,0.34371745184807606,-0.054442438950524655,-0.0029504653470313197,0.07645338812240735,-0.0719649696352104,0.12199974708163472,0.14972737314698722,0.024545578677110824,-0.16473201942681298,0.15315513146995535,0.445085276608696,-0.07779213857742706,-0.32373869463882815,-0.24720349218663062,-0.3864723973319614,0.20313845809037823,0.14937095030790595,-0.08584563904138076,0.14857967279854706,0.03700394259405731,0.009557065307918076,0.23668100113750704,-0.3813995222929354,-0.4976013683108527,0.2302404652221165,-0.1638633335851962,-0.5238698662938026,0.08566790431921774,-0.11655576841993154,-0.30810494139174593,-0.24837817125269457,-0.1443135083894033,-0.12389468137647328,0.5665780258180119,0.14526831936809304,-0.05091476068122185,-0.011804186068756023,-0.6716777178030531,-0.11011347514404454,0.34844823524429586,0.03438980142350042,-0.1860403051211994,-0.11406345975612539,-0.39297083071682454,-0.8063346269022235,0.11576920033438284,-0.03774879118641818,-0.087223576049552,0.23449535573536953,-0.04246389373998404,0.2971947260132716,-0.17182308237356975,0.36021124913596714,0.3086477608056316,0.3205058661495812,-0.030712434952714085,0.14783685022545423,-0.14234710269368864,-0.3001364195524467,0.4685280873552947,-0.11053795679137891,-0.4431975999851927,0.2995803406998799,-0.14638788553579646,-0.12202732360511748,-0.1590928393659078,0.09592452909281016,-0.23912105003304748,-0.16909989556068705,0.06734745996991126,0.14449046131948123,-0.13920227749675604,0.32383257048564795,0.029710746532611687,0.399150139598055,0.22700489417410483,-0.09139380659755425,0.345283809585798,-0.05879186778447667,0.15770913920692123,-0.29937392472827995,-0.13062210451524253,-0.23134657433115488,-0.14199336213614158,0.11951814653959794,0.21726939633672998,0.022880516397826574,-0.05705038986982507,-0.12770082814237493,-0.017229445099003114,0.059357831502182434,-0.08060371761262264,-0.07396076585898342,-0.1741900652799207,-0.21784274669195738,-0.13878573460513424,-0.2210417838357257,-0.3301678903960605,0.20427932491187153,-0.06095416765460654,0.12165093408503758,-0.3301348002303766,-0.0673350528988971,0.24471433519218275,-0.38175568019021866,0.32150355305506145,-0.20395955453387143,0.11021780455478775,0.17235753559554018,-0.16916787308693043,-0.314215241782248,0.18316803956249814,0.38816072912088767,0.07940703861067899,0.4720573480565433,-0.14376203095084714,0.09448792393065819,0.35065262342674064,-0.23791423951286284,0.4303395573362289,-0.024022607204297455,-0.17017796910570576,-0.23515275448112782,-0.15759424662133092,0.3058608030302956,0.26611336666299434,0.36306610677219625,-0.4113716360079164,0.1444994962591188,0.031630214564844404,0.16237379911039385,0.23948496332323757,-0.06285965462861812,-0.03000898782822515,-0.019273824171374555,0.16416694209099553,0.008516138966697291,0.36156721555811205,-0.06532367042287535,0.2410631036426712,0.11369005558402154,-0.021364915410139518,0.2771276010420099,-0.13259659339905444,0.3475539022629316,-0.137120689552364,0.037898523551472045,0.08635067201981561,-0.11662068799599562,0.10385689330148787,-0.6274385602924627,0.021430098709778578,0.14925383197913078,-0.4945291207838691,0.1809131293792475,-0.1936657102958523,-0.28359063257450645,0.01675995296444322,0.006444504648453767,0.13568170988948952,0.11779054739610084,-0.22888089887660787,0.17590538872227926,-0.19684175809783558,-0.3227253329227647,0.3770919346477059],"intercept":0.14320938722204676}