{"type":"sparse perceptron","classifications":["NEGATIVE","POSITIVE"],"weights":[0.0,-10.886382364867483,-10.886382364867483,0.0,-4.644982923931334,19.71310284091297,-36.886806040729006,7.217725430580931,6.727179630288723,11.426292237623626,-3.7216706307255363,13.426053285134373,0.045658094048264666,29.86231670493933,1.4004994808108266,-8.339946605791871,-12.095120222396702,-4.722815367341749,-5.514855763807165,13.929658501729511,1.375184899250626,-5.275212970134067,-8.474940489925125,8.506620286509413,-15.32010205122266,31.31568766857511,2.8405482500303783,4.884309180829251,-13.438441031956827,5.548813949630259,-5.794505912634443,-5.589851761370285,-8.488969382470923,9.971051976565267,-11.352702707235325,2.209908431935451,-4.098557803099497,3.401604188491798,-2.9958108348313393,-11.96694545785673,-7.025948639878109,3.616863421320555,-9.198926558769621,2.120194617018984,5.490856038108644,26.44127690226055,9.188777910668852,3.482101244165612,-7.358106609592196,2.9437897497029195,-9.299816085172107,16.91513996127031,15.718135529058667,15.038952387210928,20.748710628531533,6.071638577771911,1.7422457941789449,-9.570449352014284,-6.097773938986901,-4.933746932882548,-5.356737110904664,9.02725891213084,-16.655860061729637,-12.359521348938118,-18.235623381979483,2.5995081775163036,-12.387480395031586,13.110200829858416,4.881192885829539,-10.302816854440419,11.455336865411367,-1.913528033412803,-9.629006792933922,7.388510886717439,-5.2321956344139835,1.0745734131471814,-0.6649600234772518,-10.573380318372978,-27.68472960019936,-1.910339114170902,7.551148473417056,-10.158752986863808,-1.4683834889984244,10.029814709087244,11.37509814735603,20.446648941257543,5.6023802973430605,30.903727263614424,-3.793414352101798,1.1642847969820422,-3.9624935703845834,31.275987378923205,-7.208982718363913,11.242196112549369,10.794981856440447,-6.056375464884495,-1.4778637132974024,-13.042308679047764,-1.057169479133589,-10.457930861019046,-0.2668060306334169,-12.851302157792098,12.118759429103736,0.7401574869898631,0.3368600391954551,-5.465041279479659,-2.078609129998485,-10.564215743375286,12.632390431213448,-11.656700955320654,25.825804650887367,-8.558739411481044,-13.18119843054822,-6.715965913250398,-5.037242515407774,7.224387542733285,14.753811682871483,5.747003800416818,35.89971538737611,9.323859924071346,-5.266807195924295,8.131659167633638,-9.49850036985766,5.872697643374306,-8.793942780612456,-0.13752744332134598,9.843613932901713,-6.874676859445499,-5.632791913347066,-2.7847416099026274,15.288861993731118,19.867902457692676,-7.116552405349171,12.017756791688134,20.242701256475453,-2.648560920345601,-2.3345007587370508,5.912029911716664,-10.693583073328638,-8.536519766116625,-6.297979767077618,-5.394108017569657,-10.551890999322094,-3.0082323017887562,14.339944785034273,2.5916752398706095,-17.078001480808503,8.086155141852105,10.983246033357746,-7.8106158152521035,0.758325190348329,-7.4810995175551165,8.277458199438822,18.777590837173623,-8.499338348605544,14.10353425418071,-13.475109783328417,-2.776527674057905,23.79235078842353,1.8122761050824479,7.165139190574221,3.200909333537781,3.95092609052437,5.203241431470197,-38.627421082118666,10.55680846675968,11.131763744591357,-9.200855559533315,-13.042487314252499,-13.86993047581049,-13.748047016484163,9.311291952899744,-12.242086551000776,1.9107001311113716,4.4591346502154,-5.846727715335715,27.24691498232151,14.07075849383288,30.789659105190783,11.405779231190927,-32.461638012860064,13.217806416417748,39.57342568382514,20.36516941094786,-1.6198720299010634,3.531846185107859,-29.60290845388481,-8.591137601559767,26.887932906103185,3.8721746739182787,-2.3925670801822982,-27.321690279510786,10.076937215161717,-2.2311774821905646,19.618943548962424,-13.87980568182774,-9.960563328874636,23.020009306403935,-3.9293523843279767,31.779292224943053,-0.8883675503480781,20.858529618649236,-11.811231119661002,15.682819203514494,-17.00410705908393,15.574104764137982,1.3007881389678781,-9.394081623504233,-8.956500064957153,-2.161959461542626,28.17255326900302,0.07618084705847812,10.90971745693999,-1.323508246027135,2.812098631828924,16.84868990120137,-6.8048635569366,-21.962532514116887,-19.688666802596554,27.397011971489007,-15.48670476932492,-16.254095465868282,-30.11932304531727,2.2914078965653895,1.9194936129093172,-17.16458636742084,5.639481499553157,33.97674275313508,-10.365238292022369,-34.074576022893325,15.98261800861478,-9.276533065648037,2.5575525417494482,-23.298096829932167,-59.945844582568554,-7.349440764587539,-1.3338329072767054,24.894368382824574,-29.054610672312084,17.633817270688294,-10.692490841948427,-15.94470182014928,5.958158909764998,-23.209567500795895,-13.689219326507745,-3.161379365195107,3.993924282814984,-6.944117353156718,4.03586792674691,-110.39768909475136,-2.960631811700168,20.29661318492758,1.5866215781653912,51.40902882248511,21.751591187660715,-9.901877732772435,6.9470296637131,-0.7491707367683923,6.849892029576654,25.33230550177318,9.50542699041224,-24.766033109532327,19.248295013628002,4.462471955721034,-9.836984262525212,36.24391685170379,-2.1060628276856086,-0.321896266770628,-34.41231578949841,-6.308109417609592,25.459190800749262,-2.8504462448689436,17.13128045683645,11.984081583856314,-4.1323730414305775,12.343181578854901,6.466060208343057,8.171796501483586,-36.986774463687226,8.45246502909925,11.234872822467915,2.040447206236172,-24.793106389117,31.762905756271106,11.953961455536657,-6.52615663759386,-41.09663769619186,14.834626188408363,18.803110428520917,-3.0383246382539895,17.646638706337285,2.4878262721929567,15.141353138877552,-14.822863262163478,-21.965053151207357,8.572274390517812,26.376393869020156,10.835222918270711,6.26936589948717,7.965781642367274,-46.64948292341572,19.561809196055023,-52.30628941621855,31.917183527406447,-1.750579578678209,-20.095170819861462,6.820307350727936,22.861322490858388,0.2476597848507801,-11.68280697331974,4.097973736943476,0.3175497075517495,-6.234692456003888,28.353436562778118,-17.188196936180077,-17.92335599293203,-0.7540837814736071,-7.172166238787593,-7.365651739956808,4.91965749387894,-24.97923598698379,91.54241833320178,11.23648481838744,2.5525180597646546,2.989168593762268,7.630096485316251,1.8106081274661985,10.116750264878304,14.80610864257485,18.413387990535995,13.850302303985398,-18.486948592910615,-6.466662915852433,-18.34632799735096,2.1028286683432893,-3.541954036539231,1.0119187981537916,-17.29220999286664,-67.97951292756156,1.7478717783853503,-19.356809182233402,5.783746888087038,1.8224608583953987,23.15462865463715,9.182151910469605,-10.384594181448032,-13.540996391488282,19.351680762877223,5.149589260623414,17.650322775270272,-0.3321682560003281,-0.9708937812552328,-4.878309227826121,10.433989699579444,34.42187989696263,17.718675274159153,20.30256345081411,-54.091124259149446,10.73142706203566,-5.8186564805197065,-12.554286553840269,13.406630251679571,-8.5496232231872,5.724059069861955,-14.521955373684449,4.9996207140319076,-15.021021686433231,45.29852187185915,2.6276461729492024,17.88695723615542,-23.33664250223807,28.54475586860949,18.96778067373694,-83.09505320591047,-12.820986780981132,6.958059021285816,-28.641568480950646,14.686217079497645,-15.903781559555114,-48.51140962732099,7.487640846977774,-11.80005713682603,6.064530850423633,0.21821960742564414,-15.674080420488972,19.703966303640588,10.248297402762857,9.971069469382776,-22.600338469342724,24.77463062544392,6.941393817897418,-2.3837812769498017,11.728461114948598,8.041270887868379,-93.80496496401959,21.094270843980325,15.69416507918954,-3.584363386521184,7.643098887580604,-19.613322178223854,46.264802838873436,34.02677912200157,-4.204154314262519,5.151466269940402,49.499303960911575,6.269780032178738,17.607528494201503,-0.37530879075207435,-8.795831912570879,12.548440328731658,1.1973901638091418,-6.89517857969259,-6.165454126254607,7.0361887528624445,-32.45712364948727,-16.16171753796792,-6.69341484329819,4.638066638910915,5.456622162332597,4.944753215487945,-21.642919115429528,-4.684519408498405,6.126406849124644,38.07575738017794,-30.28361436629507,-4.286279335937487,-22.015265866072685,-4.483335898796606,-8.781902250198875,13.014451673448251,4.515781325292833,-8.780237439717954,-36.04846434786216,-50.473364479325426,8.967944350284684,6.868110781428911,-29.859022830224042,-97.43242200856882,9.09871409383594,-18.092630197963466,17.48616918922207,-13.01527120863173,29.42513289186359,-19.861577405937147,36.622348966087195,34.80273288499773,5.923794058794366,10.196085498081336,-32.2119922526451,-24.758559159442115,3.6808915958547743,-1.1257413357472705,8.859019074308259,7.405156699224664,5.341584914371172,-35.06599315598716,5.8883087087396895,5.473235462492347,-7.868690044818173,-13.665127912306714,22.007149016551967,-6.988786351302473,-2.9446749450747083,-18.107619398417164,-6.793149256308702,2.775788227277975,2.8129614630297066,9.672935739285114,-3.511627971444205,29.719268729084398,-67.54569939779915,3.291733061866433,-27.14893976712148,-18.868310877705085,-20.812735012808947,-24.662375006050958,-15.56008429682515,-9.591505886151571,11.766663134259494,7.315891822269646,63.48271236938048,-13.380765760591048,-30.02998471702949,50.02948034222526,7.061158011191528,-44.55334025529819,-3.0497906176075933,-12.282546671316577,-16.813755806975767,16.416663268027968,-10.26020250707312,-6.009049966984948,2.2933754595782445,17.432401345042088,13.883824310723995,25.07528705381986,-12.64892053800687,-44.5196998437089,13.187865714651405,9.793587037231669,-24.409999629506338,23.6924615454296,10.522078100303228,-5.8753206884768945,-7.370182184776198,-18.668908709610506,-24.121984701274343,29.057578413769473,-2.778532727321976,-6.025263959073041,64.86940894568568,-44.690799035356804,25.51609024242739,1.2152554008851142,38.68165515886275,20.513681515270864,-15.84030682991597,4.851774958746412,-1.8908049916613596,8.270923450645462,-13.19546221969177,-7.533604084067717,-3.5841073945135826,22.472752161377507,-6.334462533951652,6.604495160697452,-1.216142625823332,-14.781777111124999,4.802540971473124,33.03387280514017,46.009885933123414,26.39671676948295,-24.779937107365587,-2.447756988126971,30.27687423122119,26.285552053024613,-12.520873565516514,-11.659045654455815,-26.700321146986074,12.847096692296333,0.4941064757795826,-3.2625321496353843,-34.503416517463684,-8.806463782592711,-2.64240135347267,33.22217290766506,-20.347493397184962,7.12681437182956,-0.7124916094471724,-18.74677114072286,-18.6131796178367,17.048020828932724,-7.800586020754792,-5.129968193249104,-21.04943239359319,-18.41727201867054,25.86648391980758,13.228719137500335,-2.579384221469222,10.68064984392895,-24.511023102665117,-11.696789125288202,-38.76004551485431,9.26024436539065,-12.421036577530499,-11.03511385923359,-4.241399491059662,-7.160148070694099,6.573993679647379,-32.83854565348725,9.85964942126572,-12.181533082447865,23.635678889605547,-21.66096543940557,-7.39069675485331,2.1225055000998347,0.38180266021244524,-15.27946939917058,-48.7483412936936,-28.898429028779013,6.294153466702327,6.431054501351987,-16.25124205190075,-22.293515089116802,-8.306535028963031,-3.0929733856474857,-10.768197905953313,-1.28233810421673,55.99094796403723,-32.79696604573085,-29.70506351519148,-6.140167390158224,4.678149108672938,14.922290027081823,-40.43980567217477,-59.0904214249424,-38.21714458852318,-21.128507199536866,-41.249940807232946,-39.6840027139086,-16.382461820635072,-14.470631102297775,-10.406636890024139,26.774121222185798,8.517350692380639,-0.4825380509290238,54.090392083744014,-59.11305819388039,-27.28928313670449,-8.641862274194743,-1.2369239338629814,-7.922088740099505,31.110824796788005,-11.597789114016301,-1.2854801440853205,30.050954838463937,-55.840768217092716,32.560985738310094,37.429784049292685,-37.007018426985546,-11.771446607426343,2.9595694648328212,0.8533419373254231,-3.5873837887894373,-14.896298982470068,-13.745206274679754,3.8537300711199185,-2.4405489488155108,-23.26937217796021,5.392950360577368,-23.051578915572925,17.711834283796374,-7.925621867841339,-10.284615581233023,3.1406045414796866,29.021590903500734,17.248638812476536,-29.86964387680365,5.77849648568059,31.882813992354347,16.953590591027943,-4.472796145757421,16.65880245353129,3.1555365152790698,-3.485680641489933,-29.19464585105294,54.14113414217912,-49.86082374016843,-21.23252021521265,6.131751570079618,28.892733809840536,12.026427601723022,20.58424339438422,15.392453493796362,10.643213676191154,-13.550933826280675,11.696167917160954,9.255047327007253,14.706279072377702,6.370613981886304,7.120078660053718,6.291238594912585,-27.024212416709847,-14.736534342031245,-12.148953151308593,-11.680596027335929,-14.511678193599813,19.62009420741184,9.503981075201873,-48.858936439367305,10.439560297594081,10.361306415615449,9.0861959958119,-21.55387910350895,22.552448134039036,-24.020692759341806,-29.416710847991315,9.05020088038325,25.953875144677667,1.351121253095356,-12.691493986550267,25.22820890205277,-6.256087797095414,-4.038681219400355,-24.44190860364905,-49.78233360113195,-8.046180024218042,19.762811097682427,26.21167150879099,-1.6596760554342413,-9.53386557771286,-54.07417594363702,38.32906657832936,59.108164881872185,42.837175384977485,20.503374357332685,36.370766183609646,-18.755633787265317,3.3107625862340417,-26.666903970781743,14.430052746491612,-41.207205134396155,21.921906105306782,-19.89213309654902,14.884106626366048,-5.7757193327711125,-18.154133032853128,1.0990846399445093,8.636498767925929,41.34965883339064,-29.979922084335044,20.618603796191252,44.16297731933492,-18.349670630091474,51.3348427886378,34.30008772269316,19.403271155707163,8.592006581588674,31.536326934744537,-5.409688631401324,3.340278155190462,4.387820394657982,-48.91668555940381,6.092547165208531,-17.59453612410051,7.673151244436301,-16.407267459956806,-24.191635273886593,19.603191154727853,23.368727638598997,6.178507682848255,23.699669131466433,-3.4933631247178174,-9.54969252994022,-26.289717159110687,45.561526021089826,27.932996290390857,39.446817790788934,10.907409331608221,-37.0345816645744,7.8942561562793125,-23.366722443975608,-14.079162311320008,-8.705394758393524,27.835616047833952,10.34139005919907,-24.711446133101518,-15.423283175646365,-36.01720679513921,5.9981837846318,4.163424610068339,4.346890538011527,60.00205020932754,-63.615557059025996,-5.64385837150033,8.109981181388726,19.24048997287683,15.991207204027965,-19.60057182818563,22.199858903395473,-27.314078679491658,13.3587483739764,2.1770651079381413,-21.34061982136721,41.089586943494986,38.50573903348846,14.804751754364522,-6.704385638853242,18.150232811186005,-27.191578917960527,67.45561871425852,5.450068124873617,-36.80315204873126,-18.114552263152607,-6.8654568785303285,11.827311726147219,54.29638026182759,22.119624543623186,7.708046536989841,-40.876860362139766,-18.13718948223877,-24.64479530519676,27.35178009382808,17.18140970904437,14.660085585621403,37.550999148901,-8.021986605007777,2.3202439144194718,-15.410147742061516,-28.990092999130034,32.88634218028053,-30.858498090572166,5.230443181214598,15.655243977350931,-4.421132032554616,33.357068639268945,-31.18405468651796,-17.524475014664727,-57.00332384028977,0.28357607306801685,-2.107111978529424,-0.3241658754318743,-12.9974411248695,-39.64206409895193,64.50706246745702,-48.633276312366185,-19.25907857826086,29.00315188091055,10.561079141015428,-29.80566246856786,0.7857113363171511,18.485554270715536,9.203376650742658,-13.459999749614031,-12.652905079158437,-20.318656505473182,14.970545125186222,7.029311934860022,30.117719022076514,-1.6159620480436894,-7.780494231598509,61.142349092365095,-2.9425843750230154,-16.360046970279814,-8.94039714250522,24.52312717813097,23.215056266967544,-24.452879616699253,3.0977138467816823,31.203077349538365,-10.414032486690322,-19.047831595497595,-19.70968973925277,38.91315644103295,21.94182916335543,-63.05519932907346,-21.270188491073867,10.574976800239948,4.873461628565881,19.528476933996814,-0.5336375536816135,10.69794433549462,-21.42467050097116,1.872729482747941,-6.331438420427309,-11.989939028347859,5.127544245297818,10.52045966157114,-34.063664872027886,28.634069446827343,24.64264188513625,-22.82870044650353,8.975742874714898,-20.24113314238949,-9.637768932935831,5.729041266479346,17.658861604016522,4.877046566124141,-0.4292970041945486,28.366855976052882,-8.136076926941291,-1.1293150253255095,-52.41896869931059,-41.48547763218292,-35.18910811937647,3.0823832193665797,58.783853688621186,20.37076048320695,8.102144398938226,-26.36190971320622,-7.675261268356318,18.451251732446952,-12.69300023085858,-14.316128883518683,-2.470279981095254,-1.8976153734384686,39.455296214337125,35.97930833495293,37.65917656931722,5.2259236841501036,-28.564707011806593,-13.5140062852699,-27.567087269067525,30.474146398051623,-23.250582208357166,11.247728509531868,-2.151604265775117,3.9988707433558215,5.108704178013497,-15.24616245578198,1.275577812293939,16.371008137042963,-9.776380284713715,15.354505480387786,-58.55697378281334,-4.950805873138493,4.437183802235035,54.1003351437805,-8.724383876483508,-54.69333713726654,-40.396471691365,-8.435396529284539,-25.950910290367712,8.548227332753578,-0.802902036287032,8.110604072257022,17.364170258322847,40.84437684890626,27.96971872680437,3.474644909327404,-7.997187772084982,53.79578564987508,-23.566614936012197,-67.03202201830132,28.54133911649666,-11.338955575155513,-0.6089183924615429,16.73565106968875,-13.620311145819821,-23.241229009416184,-20.396600167973197,10.397305729749732,7.4665896025501794,5.588549225027879,-16.24401861430104,23.939499740048067,40.569882098168655,-33.1208512460262,27.45157641948911,-45.75609059157415,-9.933615968888578,11.851518657534712,-8.066122329356816,10.38777608274882,-33.90031339678949,-7.699050596467873,33.57315775716191,-8.270067806376625,-24.09996375477705,16.3971221778161,24.593160013667333,32.87136028615441,-9.645336572066757,-12.715689887271505,6.331857065771909,3.5084126597077274,0.1468775549390647,-53.511850135011755,31.051194656436653,-22.529848294829712,36.71767404653053,-16.239469928528692,-35.096110424228314,4.301840047699051,-6.553850600218448,15.378403444926564,-4.225624045816019,-29.972288207227916,7.506370848951956,5.294362652182438,-3.577319048840416,3.1829442997468496,-27.37518654859289,16.32476800168389,-14.593068063292097,-3.6126585579949015,19.54505287443113,0.41972164412012103,-11.659312515826675,-64.39664796919924,-29.559445412850117,21.48413923255609,-49.749455836764845,18.422084470383496,-22.50723902133512,-24.388349236506652,-1.9930691740608677,-8.061396381156438,-13.025769645383383,13.135751360220546,-1.6190014693405186,-27.849509398495893,-6.806114023915309,21.84624400942634,9.853247528117876,-11.450880738130564,-18.431468453588653,32.662231961101206,0.9114662869333409,16.64426865583669,-11.69603052871614,13.389419580594744,-32.31050476998931,-11.237506750101415,23.916112665147157,12.133400384905782,-39.37244918676451,16.630838673404348,17.914382503242177,7.168741220349591],"intercept":-10.886382364867483}