{"type":"sparse perceptron","classifications":["NEGATIVE","POSITIVE"],"weights":[0.0,-12.133280292584825,-12.133280292584825,0.0,0.9143521763250673,15.521196989657692,-48.61941933702209,-1.190085070329818,51.32063014622734,2.98977467276927,-15.663138708641188,2.0800641495568217,-25.975341404791333,43.32263432386404,-18.946877950602758,-9.232401362041315,-6.649539155927666,-15.607275323114132,1.2063057689343777,7.6879538239459615,1.9701030181759165,32.03098887543347,-4.6258817505530345,-13.644138905226022,-17.354895159083444,22.79340916782229,13.04874564970859,-3.4581093632458306,0.716685352734141,18.977326216099858,-5.872983448482981,-1.3453714862336061,12.179212060072045,-6.069695165275854,-4.029354588222616,0.41728019855245474,-7.432376231122208,-10.370356779743194,25.032520054395953,-2.5197989530057794,35.745553743029426,1.421553676938092,-20.19897505612261,-13.909554448662933,-22.95352132581382,24.102556746932677,35.11828144720164,-1.0045606922090895,-29.388030608180806,7.936728315507419,-15.696780923109738,11.304491606180424,40.96211920740783,24.320478731288105,29.074187088413172,4.650836326360611,6.8666934859152375,-37.08577289736235,-41.7630056296448,-26.81937069845441,-22.348876272160016,30.27408317980844,-32.16273436006913,-33.06846311375774,-30.165877056390823,0.6855410093521701,13.248921775663925,8.223415790282882,14.5022446290712,-25.820967540701318,21.53638003309474,4.534358716794967,0.4548922973368206,42.6777882168564,-20.892899986189956,-14.210432469540873,-7.799104329288795,-8.259410324505687,-91.61327905278024,-26.021216564357733,41.24733857008441,-24.848228549244997,15.033894392783186,-27.36462542901983,23.417490712089513,23.38187022310556,17.09152641992745,42.42083589733094,-7.116354947284985,-2.679678635335206,-6.870060913640562,56.550096309450865,11.143358519176502,-0.22770349867358475,45.65967653007301,-47.20167116765837,-23.66724675306664,-59.21804644015357,-15.004675930024984,-41.61980903353434,-22.56890857625264,-41.30568005308778,1.742756230758574,-3.5170747799287185,-6.981886062597626,6.577011156610865,18.673092043724083,2.8327870037205485,0.7399170748807902,-30.29805965889408,48.86139035497951,-12.841218885773996,-22.10653800038757,36.15368478640076,-23.263663290632763,-5.027777328988477,10.596614795179333,27.64297614504749,55.38096998743858,43.036164078336036,-14.119631456837839,9.659275729021498,13.933052739178143,37.75825333149973,-10.874596330052468,-38.672103549586225,3.7965772804590134,1.7305636793177959,0.5795693819804053,-6.934778882105634,33.0982394438407,-13.66873071366282,31.9941259395349,3.1669586333106445,29.002332390767318,0.6374178558808321,4.2089547652279595,26.89387342539487,-32.185007487826624,-6.914805770773157,-21.52321380268148,1.8409445629562113,-11.160214333461022,2.9656801406525313,-2.3871434367240623,33.81161420107151,-23.827806022315293,11.135683901769948,31.617235605518427,12.845311630501396,33.67397294768277,12.71613902395675,-4.8731033814703,72.07257347506425,2.8553885190283195,23.445870808710392,-20.589934860679847,-10.919924756883999,24.37929820237079,0.24057654540989254,21.360424432865443,28.143750538845335,1.6473434933936546,-20.26590446328983,-37.77934149587546,-15.064029683614015,35.578857928099275,1.7643095405408287,-13.846650963066299,-12.471563811611064,-4.787900957305097,18.729810197054558,-24.018341545549816,2.2010635833122283,-3.47333764946745,3.336265117816606,-0.4447066401528095,16.812473965991273,49.72614160404831,4.03139455760493,-40.43377492706597,4.954075762129683,10.786002233673507,-6.219869438148308,-46.874363558987284,-6.761227072986536,-39.07022463963377,-30.607457948043784,26.73280018926373,-48.28280961111377,27.02586196801272,-47.51058351504572,-45.866054107106834,-21.23074250631452,-39.09008341653426,-5.773180397435054,-16.955647946925406,64.816506046188,6.36606010143479,25.436877950221454,25.587900445247914,68.43902874214886,-20.191445862861848,27.97799106066,-18.6987788758701,55.5710048954062,18.879903488248132,-1.0582465300721795,1.1455825513653384,-29.275565330288092,57.99560354524763,14.947050097690706,35.68911468599288,11.564439479202049,20.567699142621088,20.453030354273135,-12.566346843742737,-29.516534608204296,-17.326143049892448,30.649051697331775,14.553114776340749,-49.015045970128135,-37.28228102126601,-2.4949313732933827,-9.357664622583615,31.125676511838673,-18.75666126531698,68.57054063091574,26.595183574614765,-45.68057846412685,7.2493239713006545,-34.32420628530676,16.246741663840332,-29.378966106213767,-78.35764046153423,-2.668280823538046,14.742766455840677,15.450669187079775,30.58806202971472,13.57784307366812,4.105375845431506,-43.701078578751876,2.5475064654140427,-71.13604051353462,-33.530253201486666,-5.50751367807306,-23.15600787155637,-27.538232275648955,-6.712878402073362,-123.4140473343371,19.967899322796182,12.076420321322196,-12.122405391596754,95.33504533640404,13.163445862746263,-4.68600855995308,-22.729836561413318,-20.812902480199956,2.5615041511704715,11.480760859528225,-20.06247683722613,-25.32690424216727,41.009472828564306,6.822104418835576,-51.440443689950364,-0.45727361293017055,-43.99074125754743,19.14668880369438,-42.61870277930908,-1.7888257712530558,7.660938563832602,-3.101706588746327,-2.996969283199117,14.691837459516579,-4.496613589568878,44.07425471386799,3.1841112771999036,-27.84736039592289,-59.298385757411936,-33.206242170979465,-6.764572288534588,2.2997217185263463,-22.058177937429576,32.576025298588476,30.45854915760937,2.161467624450122,-48.88824142283783,24.626194252254262,13.263573110360747,2.485790585399326,-15.134512734713047,2.330288187129844,22.84471104975693,-37.112422224377674,-16.922224407729384,-25.19641524714304,69.6265269560801,6.5892543346615,29.182533969811267,-31.320348988108407,-58.38146199484569,13.441756240597467,-22.324762167516372,22.51675205676629,-7.788375612023424,-47.93107085077521,-3.952918379844444,-1.7215539564739393,-12.124457959345563,-4.674489608707587,-23.96804085697528,-40.79455937766274,1.3900903926130692,33.67228180367547,17.733478694069362,-14.903752583876383,35.88620069959595,19.12109244163291,42.83769129052382,50.232584643364675,-17.572699585308637,93.7278031209643,24.144525673495956,36.18924732434608,11.375221855184984,30.584027804657985,-41.80082301893384,23.033653245621885,12.49498576962001,10.269566275123026,21.390996081660486,-8.128580577549615,1.0183297579776274,-9.052270127219007,12.606460486480252,42.95366133672936,16.101985925296198,26.48270569424576,-94.66996411195217,-2.5849932082527536,-38.363659598605295,13.594687046052822,-12.342748467374987,55.58333989706317,31.618845352004698,-50.24127420979588,29.933631596424565,5.563716148321898,-24.117103279451186,46.42480349534592,-10.195484975444856,-9.407601257498888,-12.919626579217274,-6.0344092413048624,70.84409685001818,-54.22153927404447,33.61200059183865,-83.68286572264797,37.073356336806405,14.13164467666382,-37.37153093138669,27.536057967275713,-22.13478049430878,33.18988242998602,-5.256664598353242,-19.44701838897358,10.735945449763713,28.353674763496997,13.883176917573909,31.966557083785467,-18.49097252985952,27.163645718646027,39.56563064292418,-99.50703713963446,-32.884733214915734,-4.713333381786764,15.843400318161548,42.985818557123324,-10.82647390176204,-103.58972197155077,-4.309704905214405,-10.355430350493203,10.934221264761545,-12.031370818237548,-74.34543533608695,25.683763569418808,19.385448289324973,-10.658534560689542,-18.488110143523876,55.18317571350767,64.21497029788172,-1.0459591323643833,-19.948183051552217,-12.303339089364306,-71.96356840313797,44.831297388389935,3.6048723606345776,-35.47750260025868,33.572089712675364,-4.161126940985987,0.19316808514756428,25.122337960215493,16.516132395957175,-35.59700067751221,92.25920329311428,4.692385855748473,64.34833102647508,27.749206585311185,63.60097073551188,11.708972788383067,36.60929988719619,-16.653746394359715,-32.93896688099062,47.437989843851184,-63.332026558184,18.28424079698852,-21.40320079833405,-65.71973162649883,-10.630908456667843,10.408782172905042,21.443829456696722,-4.352009335404069,52.69859760322933,12.987006004331649,-66.42524435832235,13.094508121703324,1.8077261940145708,-16.068221658238937,-8.888935946822164,-12.625987856032697,16.909364377326952,-26.255284763705887,-53.73296490285018,-58.569760987350904,5.026468906939542,12.55086980183469,-23.083836406182808,-93.35461083617989,34.107783984264586,-10.061299965362917,8.056712186498082,7.668925042097399,11.582157446744338,-2.7310841233498477,66.3970603952667,26.381623430323074,0.5608066789471926,32.91631146022852,-26.083658966051573,-33.443822435723725,-1.414441788641919,60.04308679783824,-37.65894873499521,25.991594622783296,2.351849564828798,-21.851465354624352,26.76781227191377,3.9851635511750074,-20.238507516944136,-23.227093111612515,12.174373268737776,-2.63851800750642,-35.1524711030248,14.200308267572446,-19.14272672667326,-30.45701024287808,-16.596969854079752,7.279207553189623,2.037340123066243,10.2577335536289,-42.66348415150362,6.055978182252492,-45.384756977199025,-54.10418359304564,-0.19447658281077523,-9.085431632265266,-23.924435626935676,-5.565509502699389,30.4249297952769,-3.577633904124738,43.63626160817618,-22.031587001281867,-48.97229766762086,43.68436989275328,-12.106883729576213,-21.190085359122094,-25.519283726556168,-3.3365878750019307,-34.674310528240376,37.08890774249269,15.431081123419846,-1.9245405636033246,6.3653744665855045,0.872700085403751,42.75171426455854,43.988512013033855,-37.660450137543435,-51.05220944502428,-2.448718215363875,-9.046508045620884,-0.14671075905281572,13.009172426573867,32.451550210206435,2.301809043610283,-53.32442844784646,7.826966157167281,-18.176774906334565,-18.32520372105744,28.716945575572236,-7.213134009275582,66.74229826610234,-7.777513215519225,18.55349496196952,-2.6530162521828324,73.96145794558923,18.353445963505386,-7.098627187148705,-14.373470061260303,29.295340110449356,-3.9172876918539594,16.595586674795126,8.111167457733231,-13.030387101214624,-1.4541853017799709,19.450195159777582,-6.468773594844357,-10.083852064328365,-23.636907284052086,5.0192524900844555,21.882284963005343,37.88068810892048,17.377006317544737,-62.735094683055486,13.409561043806745,9.262851795929551,3.6305447727901967,-9.666189735109187,1.0387499852564859,0.04797594980753911,6.953039085664715,31.26784929616692,-16.173654915072667,-63.96923287126348,34.794401644101455,-9.24930515936748,38.267233488181034,0.662038623896301,20.291578541789107,11.874232895791717,-23.567056915894362,-6.718573186534567,36.86049033692513,20.277455737138386,0.19035622921727818,-35.220459005023805,-8.751497502008231,-13.289441737639235,14.559175316236738,-19.889008396650993,27.710862965299572,21.339628147401204,10.137084739600748,9.562762684416324,6.29289287329018,-2.439384196854653,-4.282684376098932,-27.448717613254814,-10.387989407498042,-10.465586270192212,1.2575108276730798,17.04676820073053,-9.59227148798594,4.643858839864721,-14.350496874718646,-0.8458003489820688,-6.739817881005912,-15.656887312614208,5.698210600949133,-39.66816135598183,11.499306345718042,17.71785108954454,60.90422090657378,-10.64308029485612,23.878392931380443,-23.454198320566274,6.753666056918816,-51.362460243293626,-24.11259222538997,-35.594359202326324,-36.55804468868332,-27.15070326315563,-11.018566348736094,20.01143891587974,30.68068906186314,-52.91112297059253,-80.48290314175769,-57.41116014470563,9.073738053159051,-47.298169192374736,-16.81942546910272,-2.2199595707002104,-3.981984906571341,-32.35463022974757,-5.883189844753043,-9.235459056551578,-5.1790685549785245,75.58564317573112,-38.57874971430275,-30.947940662150543,-14.014649162066219,-49.34334205960563,14.330196870876643,3.3849376870169054,31.029622023545308,-24.084979792263795,1.6734897602293382,-57.23635647455972,-3.715459363919079,24.494460221886037,-44.802468134029695,-27.26094469346855,-8.30880057738732,-17.376411076515254,-6.472344441149264,18.922377732460006,-19.505808598180742,11.310675222597009,7.2938049689217435,-4.4264419202683465,-6.015666070061523,-56.90765800497168,12.832874225364428,7.715607222640831,-15.370099963556598,-10.063761185186332,2.129399541120713,-16.377848278384725,-11.185613016957777,28.456614656874045,12.359930880029491,37.611157935922634,-4.581455673856594,48.7325981931842,-23.03665676967974,-21.597650280421004,-38.303831485579316,29.87756806241638,-23.48894806230783,-1.351395643109004,9.4655932831135,-20.04630504979253,-8.271831613463918,11.957816901839363,48.364426034191894,-9.866726093237027,-3.1449996676103993,10.389986412270211,-26.706501189487618,37.86372776691264,-19.79022513493954,0.887856667027709,24.488313055300814,-17.260562705646716,-9.047660439160676,-11.56642561635638,-23.830147543609854,-12.5858432039033,-5.7854321982424795,-17.95675924978061,-26.258456407082402,1.9450102440389774,8.220514632583825,12.042164248343623,-3.400477063007411,16.295662682175383,-32.65408527003859,-13.019345627349193,41.57286588482079,-8.82799580112528,-3.9224072282314193,-11.391358785093871,15.871385634825916,31.868439685902562,-10.88260609810323,-6.785960632551931,-44.08646812282449,11.459958842245001,18.868815553881394,35.55326340411622,11.510586453379902,-25.1007939257121,-50.833084330864516,31.27848750912957,37.62934448150389,49.83882339651787,-5.7026586295198305,41.81198166344733,26.019786809608394,21.895145350710354,13.973924238977906,10.700352621791302,-8.885973993896172,18.618600432196555,-26.738729039123957,-3.9485448767456237,36.92174626120566,-31.796609321676517,4.719992545555486,-23.899001483176086,57.261935713144226,-20.934988396144433,-10.86694723520011,29.53615907239297,-4.859643025248666,2.2145430141495615,25.90831788190751,21.275509258744428,40.49850558831621,38.19243704310691,-28.163684193309816,14.162083837853844,-13.080197701229585,-8.353768628405971,29.916891918331604,2.863782565713681,7.396216579935127,40.58132667714427,1.51356728280143,6.821234480157251,5.649222560019484,-9.551593172273986,27.390517501105364,5.931318751547932,-37.35391532433453,-48.46919051459587,29.03646131140766,21.15244618547338,69.52090331630157,14.902828822872099,-19.02675969730173,-5.374748261434861,7.486267965581092,12.769721833110934,13.876689922739732,14.579633885739018,5.453321065999623,-17.848679299266752,-24.455150787202474,28.178316122000854,-23.345388265958903,-1.9218004261278496,14.992680825512407,20.203571324281253,-60.9251471322966,-2.1221517199253217,-6.6443814970581085,29.016247923215328,37.35552972661287,-44.44550142983124,15.092392266327227,7.214548326450169,-0.41313569235072156,-27.23477076140576,-15.54480764064549,25.705070897682102,26.566105169668766,35.4277508281563,-41.851309242643474,18.79393564214458,-3.3448264244175556,15.92789386011379,-19.472404508009564,-40.099197727936996,9.737545199526844,4.891612982976465,-20.21742638757484,13.773040903824697,33.44474444028177,17.728406693591634,-7.133516781003131,-25.687499106535874,-23.74658701156964,8.016663448892906,15.981196852020128,14.035709994325737,6.019453533836703,30.90723722633357,7.93106229127872,-30.527384029404136,-22.205731657281557,43.43520632830601,29.503422496173613,-2.3674269531178287,16.505834373812363,-10.677863269236338,27.72124064009584,28.15861772166921,10.07064368786922,-51.006968202155456,15.998883566746281,29.539075611889675,18.918005017238936,10.136553588200133,-50.797515034842355,47.8413630816335,-28.81928260625842,-42.51438714882627,-18.72710370966221,-26.765743757614167,-2.3742220161397998,2.784455970814973,24.684868538754383,6.451722264822946,1.1116846349102032,1.12559599407206,-16.134479060749413,1.647043995222835,8.639848042853648,8.284957339830058,-6.863088369671726,-0.5191920256146387,21.24663754104634,-0.22587446587299287,35.484127167796494,18.03523848986614,9.589756100430563,16.468225598341437,-15.65448765753692,-27.243092445430385,-4.994127217126625,-11.667582983649329,-6.587442628072914,-31.432364441594608,16.065188623762086,6.89761611597692,-65.33900894487253,-23.87572891649272,10.164529176879645,-28.026170656977207,33.26263081090096,-23.9098587313389,18.530901588242415,9.987360540267769,-10.40620928992803,-6.731041806777544,-1.479246119283123,0.022600582145293202,-16.905954423395244,-37.32612037657155,-3.765339697411536,1.7018275683951747,-11.77587320105417,34.873662631547205,2.151435736325732,34.56033303194594,0.04879688491544437,10.924489661770966,53.769805386864526,-3.6447416602820373,5.533842131729857,23.113553093831964,18.083852492362006,-31.238605840085743,-76.19963823237464,-17.149311442114257,1.0789581127689833,38.368365059192485,27.161835241599288,2.0892262379828708,28.327212897827106,-38.43089783815501,4.415338067433148,-8.05127762083787,-49.317165532271716,-35.467789933893975,14.337585316046662,5.331803842909904,13.50419461146178,34.495797333311394,0.21175181202656396,11.112751961516928,-7.013193500154559,26.286880459056878,27.156853303110406,21.611842800266192,10.92008645208926,-11.40153317888565,-9.725350913741098,-30.90576210783964,-20.64601317131624,26.299137402947867,16.738320783106595,4.78192537591973,31.651300044134388,-31.497542898293883,-28.725263162855317,22.72251477864572,50.63870541355895,-11.018683734946775,-19.555865379457018,-6.942096713453557,1.6543453761160192,-51.711140172694,29.62190266683063,-4.164593026554818,-7.768004398798098,22.429372697391244,9.722542032484661,20.74425690701942,6.2086671183140645,4.039007204990784,8.16504173044985,-35.890978904926385,-61.83210498978359,-21.38297893310214,-14.007456925600561,-20.260602001114126,14.717343810036274,-55.532626537608785,-10.770160200287787,1.443538819520189,18.296423961328173,-4.771645761005808,-42.93714523410284,1.443538819520189,-1.3991068766276702,23.139369104879055,8.802856661791056,18.896283901340812,-29.91956474682617,0.9161442632014076,-4.468707058827293,-36.8180052994387,8.503194236516103,-43.605141226159034,33.97324017896849,24.108551845894205,-12.694057129095865,12.788671211107555,0.11402404659595095,9.505211519309253,26.976090998444047,12.378045640750884,7.477163130587838,-8.936844183685604,-9.779090698445835,-7.5069941563984015,12.648485467177693,37.977062954578,34.262294393752356,36.12147198058045,27.068393532987905,-46.54664585186615,-28.680388727136584,-1.7460545988342782,10.43007139499988,-7.356836167355281,10.219591670963387,-17.211266768527075,-6.405843923863243,-10.65954215163813,31.138429795180574,-10.749425111480903,-6.399564063968576,-21.383660122880443,22.915941661786537,2.206533388863935,-16.854689210739494,-30.63753364590848,-7.972007838346274,12.968718915334673,19.646439434226174,-0.11596342300790285,1.0391606210441002,2.711892072421012,-4.389985360684636,31.386762077570225,4.764505203201303,1.4974602816461402,1.814561871290425,16.74033489911214,16.148811430309312,-23.835581346089324,38.09527883186327,29.16312287804879,-0.903142849816206,-9.176098758279386,-1.1643174045773477,-14.579143421901707,-9.112250979149527,4.248771390693902,45.76687706774384,-3.046913373738663,11.167254073788678,50.59690239421535,-28.574662160815045,-28.3661754558185,-1.777850871570567,7.713022518591657,-16.067049826317938],"intercept":-12.133280292584825}