{"type":"sparse perceptron","classifications":["NEGATIVE","POSITIVE"],"weights":[0.0,-8.374257691232021,0.6595034677483288,0.0,13.805418008698076,7.2563595665133604,-56.07307123907471,-0.6380760625066864,32.83493066797353,17.50703992312727,-18.40749524969558,-10.666326172431184,10.353394963700957,13.991048132569686,-9.041573346272504,-10.798850528775597,-12.91378458370845,-12.644539593737658,0.6974935882235397,2.4982871493488257,5.513971502177387,5.621142058150132,1.205019754100265,-2.3990179310366564,-16.598589580547262,21.56587130607217,0.4296480498227684,2.556056132673305,1.6429929988728513,-5.2175275745565175,-7.817148613144782,1.097723785177606,-4.428590756615915,2.8020256327957567,-5.271417237779952,8.004979051112214,9.389431512293235,-8.927234202545845,8.44938468400263,-2.113680915695979,17.111033737671345,-4.023621940470402,4.963878538659416,-13.676375458497759,5.9914472904809175,36.129359172949094,21.453987493049173,7.4107581462722605,-7.737982964248559,4.275731524331373,2.4673702389859766,6.86713792949846,14.33475713604858,23.73974056815415,16.631496313114095,5.281225224026847,5.661596858391581,-2.502486554330627,-2.372376637304069,2.4195486257829417,-7.604319338951319,1.1699084827024837,-26.97591903295637,-18.98601448180061,-6.5796981257979175,3.20091134916585,-1.6890059835608708,16.15776466525054,8.797098506657184,-11.89121885250538,3.1350381844271578,-14.552547989180693,-7.865584004382889,18.645440277612476,-11.389013647489762,-17.45763113766214,-2.7534222188783173,-10.735888192815347,-26.365452673151516,7.286547622174397,14.43497467443532,-10.186549486869753,-10.107963209861218,5.249604463062961,23.085481412481595,0.39312704791858816,2.1946570531055847,45.86981016699663,-0.5633803857816397,16.778298076369598,10.808735860426903,35.002060717882046,-7.271702985097803,-2.80936403826014,14.224558660175342,-22.469857473553517,7.1102286652103075,-21.83455638838434,-18.103268093236853,-9.70920061097969,-2.911591976434947,-3.429818217960043,-2.127922668784613,-5.9428867532250464,1.9137455107237151,-2.2669870153670835,8.948111578044756,-19.254600753130713,-9.831782611069713,-8.693084870265892,20.997773544808712,1.7829887057738505,-5.019061359544189,3.3550020620138574,-5.118825830358644,3.425700849974566,13.54244664744403,-3.6116016085381095,31.353671262848646,16.0980848744608,-14.642519586529202,-3.6157919971050947,3.2831816853823024,-4.495938370097793,-0.1914093224764808,-14.33853289512818,9.3684758387403,-5.3654564329661785,-2.68796476073916,-16.33357816243415,19.657321802878172,-10.40696821985346,-1.3564894786378332,-16.10734188484852,25.219432018513462,-1.0961674716068737,6.911771873621286,-6.460748064176501,-27.66884615251015,-13.31124609161171,-19.503668419867875,13.110820235470719,-2.1605956227465315,-11.714073300565625,-8.21078371595191,15.696062279703831,-9.665296377850057,-4.150581480167141,15.310958073891072,-8.92274726576788,30.345335713847764,-3.869641032239611,1.2994095292072099,22.812224830847857,-5.392448029789065,7.823510333143582,-7.867963793813277,-10.256083873181346,18.500943198877394,-0.5232090656045193,12.521643231808534,17.964932403126383,7.79348067497275,-11.794156234282504,-51.27488623697964,0.7541581079526434,31.488031257397864,-5.292900633654214,-23.301348956240357,-3.9917689353422348,-6.559929933687689,-4.017336483278384,2.7597240468062605,-6.961542733684096,3.831468233311143,-13.316669407167897,14.715513295905224,21.819078383488215,-3.8016740631873263,12.574128585225386,-34.03653638307658,-4.562892132912258,2.7301613451415903,1.2493222798692034,-9.489501032716596,-5.641405999211547,-53.00544201871486,-2.6354808875336113,33.241147725965334,1.896511296200021,4.196605984140411,-15.604013264586904,-18.77215680182427,6.0947286937532175,-1.4851570953457396,-14.785500484332738,-9.470628796438744,33.67333823751269,-25.052041370263538,23.341327571266678,-13.803671410418316,47.96797965898877,-5.036076461862369,25.066766058401175,-44.07298635351043,27.65676886854239,44.0666894289915,-4.632044648996684,16.41311419505823,-18.803886429780974,29.114991049954895,14.373867952722652,15.496944797487943,7.506395878809875,-5.416907984859876,15.03155616763166,-16.567574651270387,11.027247497442326,-37.313286515264885,35.55178734893958,12.930954802963123,-12.760383230017327,-39.46432159843115,-4.930136840882249,-14.235035249916507,-7.9069929238758565,-28.693014604672886,59.12071992411754,6.464130968376179,-33.106971771583595,9.679750749925358,-9.49680192733457,-13.536360304050998,-45.73708171156855,-58.01979726534212,-5.67755053725238,-24.503161536727518,13.972381901175984,8.677238439173582,-25.16586359041977,-20.89165710442901,-18.35304634241866,6.44999682954954,-41.64695360172823,-19.51971184325599,2.9414156728374734,1.7928928991641124,-6.853939482518527,-14.432212015384994,-119.43526354284757,11.810363348119392,34.668271836194066,7.337000873499244,59.72348837306832,-24.158245716319588,0.7007221066411189,21.3264147316507,2.003185002969122,0.45639868978502474,-3.706802356957433,22.92919889387743,-32.859512666396064,36.835827960896914,-23.6330529040038,-24.110533671749668,10.281924712505518,-16.634557974166036,-5.647490868884427,-34.55794344250176,4.898983707587168,10.526380738178565,11.003473907371374,-22.615729274555115,19.50319659886037,-15.320677703045993,35.62181932546806,20.16819782839459,-15.4974113956846,-25.628436496102537,-2.016578874626358,-17.91092731537736,0.14127860368556514,-42.89907834456444,29.905022364179665,1.6710675986160402,-9.259195143357898,-31.410658985994456,-1.706782960660679,18.892141309804487,2.014200799683096,3.9517148629635233,2.4759280569156434,2.7893648826711908,-21.086132508085907,-4.849574762050575,-12.756070585677298,46.893287799599854,0.9425180215696941,0.5166131710460977,3.1950875430008514,-48.78398169986305,43.55783618994354,-33.85765583914911,13.358289377695574,-10.131931307879666,-21.61781686811532,-1.3685213428634535,6.455773578464827,-14.338669348468061,-2.790581353615615,-7.450244657678109,6.3617438500633305,3.97227391537128,24.506102248395532,-5.354504325391076,-19.969113274268388,13.724855530447634,13.5858361099158,-12.602380826518495,9.650089361205692,-29.692115039370528,107.16870874111726,17.23900402082355,18.33311918652933,39.22036420207427,0.8492143930191343,-32.399393729319904,24.124350749606002,14.343508798780354,2.2941474760454867,21.95889898083433,0.3190244215007768,4.451195812079558,-13.924043276975882,33.90152986673413,25.149425579214217,-2.9009279490575524,-3.6346491388443063,-83.02458680245248,-7.030732440463347,-17.935541637452733,32.90272867430382,0.1294028550021915,22.998424520238515,27.795985607906214,-10.918493657896798,-9.501946786556198,18.135837071489778,16.167417447720258,30.517899752609686,3.9651898557840237,-10.797120968770352,18.538467232172287,-4.633682038773407,56.18683656838205,-6.663170208823814,32.50360718018777,-55.83567726635625,36.021611564489795,6.947261068850586,-13.1258321828139,-12.8586415399722,-11.930646778214498,-12.016324220007036,-5.775759960836782,-30.260994753710857,13.635138789019246,28.17917908542813,41.58038891641567,40.22632441252844,-23.44123771924906,10.539756125227477,33.654075568950304,-93.42388545757623,-27.024169665908836,-11.386342617354114,23.303107728927444,40.58725856976643,-14.27525048097277,-67.75220581416383,-5.897451202377387,-2.805878761228497,28.756647289385135,-40.28041976579966,-17.21645422207082,-5.762276903906231,10.712214585502766,-7.994476760062626,-3.6471953895805447,44.65969524394969,35.067604235769075,-36.87798024979801,3.0138468088749946,-11.111855196893572,-50.548588114923405,32.545055338380166,-7.176569665350871,-11.990502454510134,-0.5117436987597057,15.087857197742506,30.925328088270422,15.57853521326504,-12.230217577994635,-11.881200691151998,82.10829833028973,5.779354278961634,40.54857301233613,2.953183286482005,34.21169326013394,-3.9681495965002345,10.314454081572183,12.06522510294703,8.533632741820432,9.501626140025072,-48.79976215384421,-1.0212710295335128,-12.027430528662977,-14.174387551397354,6.760169121089861,15.09114326108978,-17.61896218945451,11.196785982188766,17.472863887460676,43.14127479204437,-36.95768743568967,2.529075753262098,8.751111552755617,-7.819618118983649,-9.152709260077119,20.70461856285916,0.35220250054008095,-11.577658725898345,-37.84622351795152,-39.45410765199702,2.7200375046164518,29.610668244625245,-23.927447821858188,-96.11988907228417,12.025679661934674,5.365181355928312,6.731933113514963,17.272849650878936,1.0224709326136099,8.82111332296557,53.690114371000774,33.64545908617996,-7.21000172944222,37.89639230822876,-8.712722553431485,3.62678851597499,-1.398119826172645,11.590551863599515,-10.592344305071169,2.2833047604677104,12.533621605063527,-27.539623952037395,8.931718571982069,25.845976143748803,-34.49549612468492,-35.26027299601717,5.068152480552493,-4.465713088003891,2.5805059595325,-14.125553099976315,-25.20878504408144,-34.13873633786373,8.492833851780496,-17.790155318137913,12.96576365635021,22.194180102036746,-60.0682989449978,-11.602291633295536,-30.564587241491783,-11.29080549633712,-2.804189435933607,-17.288163378326477,0.354335068601041,5.040389602713671,22.208937447865743,0.1828995242335587,44.85983644593731,-28.88392900610997,-39.98372428118579,49.57142290167518,-28.369360348950728,-40.735303312993665,-6.7432057075977605,7.735513612018858,-23.137599357021003,17.624470955794212,-1.2516031209620415,2.0551413995818413,19.16947106308063,0.8930173640873489,26.97100619728491,9.297028439248523,2.417603052861093,-42.33298065152657,8.017884546037628,-2.04194360849206,-24.663595575738185,13.477439727713872,1.4910114270736534,-2.5444593244558256,-44.54602500184729,24.189869001244517,-23.584316914095737,-7.298101477508864,12.958433974901464,0.41974603267294575,36.44700181920977,-22.14387513417685,29.792852669865848,16.10000999182799,70.07926494379126,27.049432379755032,-6.0463281117526115,-13.937217104158709,24.494661889694786,-31.080929835800855,4.135246553609453,-21.10353600272985,-24.02182631100715,31.683001626521257,-33.25682685734861,-0.3142457007099998,-10.984479955637951,-48.68676854808364,-1.5650975341126072,28.16563099311477,46.90328842249163,45.67623205253312,-14.281867529590977,-5.27480579709459,14.477429997580945,54.34681233103031,-14.471154739907515,-5.658844903727502,-9.072688823090797,8.172303076819453,25.10420056153909,-9.529232988867586,-41.26511210750915,59.22282976804942,4.668877078935179,67.34034265826148,-15.193914573226738,-8.166695912483249,57.202482430422684,1.178671577766887,-24.100633457789044,16.811967496880715,-3.992773035826748,-1.3887234456441317,-19.411843281208025,-5.518609609613482,-14.56225980982379,10.444437956224496,-10.187368421475405,-0.9082048688934277,-11.800272460404111,38.488916421187895,-53.617987414819844,13.519926576976973,15.011497594762877,19.448925625729125,-22.44608397029423,-14.77425890675761,18.694992379983095,-15.148629023954822,-12.111391075668939,-20.36538658521032,8.302105733183549,9.287880196374061,-33.6770910042055,-0.7765157417651464,-0.6486706016484958,-8.872666157076077,-15.40188757485243,-28.751497800855958,-7.3032736108368805,29.753273140514455,5.235603532900182,-23.540502159588534,-48.632907516088665,1.0543386480980346,-19.870198684963633,-8.739170184251122,12.886779990943209,-50.8501328232418,-8.597037185101287,-6.839954924033,24.733671252988348,4.561579422089548,-43.050808840249594,-68.21321779333658,-10.082765009719992,-16.777609857270495,-46.017588149264355,-8.070590136617144,-19.655740851105783,-6.626030179963876,-22.478699887128805,42.65445681498608,-1.455874813320832,-2.319228284875163,81.85424660090104,-22.80192032147899,-12.235639822024519,-8.482096371364005,0.349248870113281,-8.744300449722175,27.648410754837453,3.6836986118461064,-8.83486939384523,-12.44528371172937,-51.20578585354435,22.27966561169312,35.52321819855895,-43.53109943350289,-16.21022657214181,2.809711292813956,-31.883948612614983,6.760682056983026,1.9886319697805785,-1.3497414382743254,5.553107356282238,-1.3597047408340013,-7.061775170853383,20.44492135053555,-35.301002005074004,-13.321755671318138,-3.2363367883449983,22.633139878075333,15.789974998106228,16.26429229776438,24.670657910627895,-26.425497776597243,11.929189735104393,25.546430889719378,20.582234456107443,-12.910561803224194,21.919249917737893,3.3913200203610026,-20.63815379130801,-7.959968129934189,11.615472571425867,-52.11915408802121,5.612796569212829,17.545715067015884,-7.002848263468505,6.747363953102373,-4.022432326930674,42.78612505207082,-7.654084889934432,-25.97084161349347,-18.44294738118535,3.6519792634418287,35.20454768358988,6.34629234831699,-2.9873054081733645,19.6000385920549,-28.72845465741,14.117399589143849,-16.646696956886963,-0.13148396522415298,-24.125398779719955,-0.5125254720021023,0.9357736786847207,-19.24678303436424,7.627676177157884,44.351911208498144,19.47649576746211,-20.505414776018526,16.119802556905917,-19.298558172360355,-17.51514573690482,9.208467935255355,30.199897311076672,12.351164101049235,-33.88041786434953,31.131110284555373,18.65828696262837,21.66349497433542,1.9392051167665627,-51.62377728518297,8.038688693407812,22.447262811004414,32.53820294590278,-12.606560884421077,7.211587982117069,-61.60668838790579,33.64263944351225,33.363637630262765,19.327912257240786,-0.987013135744861,41.161889837480835,24.721656910674007,-1.11510453085403,16.940467710164018,8.419050090484761,-1.1344218743862111,43.578668805826794,-10.838562186372833,-7.611491628077046,29.842772839738227,-41.61773735498475,27.14371957883904,10.87284921659327,25.938322014153105,-38.49026375310202,-35.03574236234061,10.344562404349174,0.6050706464603193,11.19241304547099,14.440371683844731,14.709334186806691,47.93854165497434,7.956924775569673,-6.832443201909108,37.63315896656498,-27.452981759194426,-6.805366982349691,23.209162630751546,-1.9480210696627305,-0.564154209366855,35.62617856210096,-37.58132440267988,6.836292300463271,-10.18374710402338,16.446932468735326,22.639736296775954,7.100327294293638,-12.66688417111565,-28.94616061637428,27.90428673323171,-1.457689556293107,41.28851171721689,-7.505362469099997,-39.09730437370361,4.675095087204208,10.370434829566541,16.95503563400587,-18.369661980058808,11.074451224685255,-24.631580338332945,5.3397053481407655,-50.481211384743,0.5257405997735968,-4.309009294913801,14.413294067439317,-3.9082774614248494,15.94640037165534,-50.03728564101834,11.601550360396471,16.04911483998335,14.675069411521777,34.40933075091375,-38.23640795346448,12.383498871079562,10.03879572094807,3.253649534425516,-38.199460912772864,6.68158488264756,29.926549043121792,39.25669966673057,14.320544998672347,-4.4138942761608915,10.528770352290435,-25.956918650470623,5.754870253992269,-2.900452357674246,-17.73237244802311,-13.693509228298382,7.797789081276542,1.8001970530279605,21.142568826746757,38.90215121966132,5.789540810041916,-1.7038066992099805,-12.420339727490756,-31.311761547753086,22.37381794963758,27.425262839439423,16.80019090794682,28.403544125356497,-21.560931355164342,34.766326761853875,5.228078559030649,-23.709700859113322,34.355243548378205,-7.9904696065724785,12.599407373104828,-5.886265321671437,-0.3899697275967468,34.942785141096216,0.08533225128498068,20.69628703292071,-38.611299938505894,-8.423770425481823,-0.684334075911365,38.388116572764304,-10.991880521806221,-41.00661663780805,40.28195568919637,-30.288016910656612,-33.039676925897226,-4.565358171351734,-21.66425668800958,-58.02149069662402,-3.3473135000087044,28.211189872936973,-10.005055380845617,9.44418712941042,-13.317137683146774,-29.644704090265375,-9.178671816679342,-1.721225108017488,23.40735881302834,-23.53034547301597,-17.618255457772314,21.33165572623435,-16.68679351397364,35.63856179468055,-17.750655660787864,-14.46527436626439,28.0162442536169,-13.940353688427532,-12.874888430796643,39.5733634503632,-5.517953103302095,-21.44670212155816,10.705580772960452,3.6008452258279187,-21.536418127464568,-62.54108180837179,6.08453078197334,17.862211096115455,-31.208722561860704,21.596025563023776,-18.844198003446014,28.43161778804739,1.3278472356149962,12.596159789778145,-0.456069703147867,-10.898497717853155,11.01658278185129,-1.35020564701625,-21.165361082114966,8.633449997673397,24.91731978752177,-21.43045802021971,14.328989372676446,-16.32750910800595,41.90860428645292,19.26702198326787,19.610772373721023,50.00664501539222,-3.676175089422828,-0.7572197801219716,-8.908614616594479,12.00313694293442,-51.51992011970996,-50.9517106000676,-43.08567223798446,21.731450578511847,40.338338232448784,29.061676001902015,1.5596838256279142,9.323737954974307,-2.226107413390537,29.54533708495262,-3.6029215308431217,-30.940201854615893,1.4067481516528229,48.41286081924614,29.143521150494678,9.40764108611671,21.095099156908173,15.440265000324414,3.160933841162061,-6.088242039504495,-23.63905103798009,33.41411654923599,51.23583990316054,1.968397711254103,8.978451102054603,-24.029650682516596,-14.77854970015501,-8.963275917738072,35.946415986069645,23.92959646879183,-10.488351151588123,22.23595845521443,-29.787470642796784,-7.786422615222373,24.850140602671733,40.053098556898185,-20.095097012011077,-45.16042849760941,-6.993098721573957,-0.18855371192407766,-26.517445934301026,7.7554432590168885,-0.5446632208563988,36.848427510745175,17.42758322238796,25.020599913342842,25.389517338858415,30.150913562504073,-6.638632306133955,30.108689456474295,-22.556389735743437,-49.84598069907093,-21.67610079780447,15.21165898788159,-29.53625594399732,24.33508182579261,-32.58447023534599,-16.76124085846493,8.269497993815383,15.02146202245097,-9.704349094461381,-12.906304013051196,8.47739476624505,1.8375398814460233,22.075420685937054,1.481103811394272,-3.5537060096018167,-26.940185651021302,-18.515725174301153,15.594119043047339,-36.51616627619722,2.4826487313318415,-56.619218022293296,-0.8950127288593204,16.11251367518704,31.519539612816523,28.224042245271082,17.335227594355164,22.857754695615487,19.522296143467198,1.8652889701760413,-3.062610698882534,24.757308078041266,5.228483490094991,-6.1278777245637075,-34.681884442188405,26.28405419449933,2.6099039319871915,25.746903822315172,29.751798822170702,-17.090622739783612,-11.82452037175161,16.289193572295527,3.7407207340537343,-1.9462993187913447,-9.645573056939075,5.895911374964075,-11.291717685218504,6.085747611742977,17.836044193351594,26.724567041631985,-25.974975901571085,-9.909178015715229,8.371277022615368,7.970454547784123,-10.732070849962529,-30.711897440661847,4.800403799465475,26.288984811021418,5.762305916328084,9.97558793258003,-3.841834381027888,-1.7323038943748688,8.069499916303526,56.22758820102747,31.135258660302075,16.168823971685043,31.394242944302402,-30.279596382866973,-0.1462540150455963,-18.65992951107409,51.3242285963238,11.7165811020292,-31.457506447820098,-7.177642115841568,21.350747192624755,-32.06371792183362,12.06678593817886,-16.400181363034385,61.87655850966373,-10.590408975382072,-9.559482386807751,33.842299140582384,-22.748943404388324,-30.469403485605387,33.81261406999859,8.841515803584528,-15.965580521186023],"intercept":-8.374257691232021}