{"type":"sparse perceptron","classifications":["NEGATIVE","POSITIVE"],"weights":[0.0,-8.313552162534783,0.8523506788950016,0.0,19.963121437142807,-3.9076749470762935,-34.52275192559109,14.69097220009852,17.77722100514846,0.49026866110938794,-12.48844039395189,-8.175391906553529,5.091808919726853,20.673725356768866,-4.495639627945484,-10.213620123937893,-8.873975911298217,-9.871599997408097,3.306098656354677,11.770006148143883,-2.1760662138524043,5.887319047996821,-1.742157628815926,-1.1307131316183945,-16.999251808568474,23.722777719290356,1.7763931915987627,-8.107191439312018,0.611397842778669,10.673529290312736,-2.294843795381699,-5.838959368089396,2.7923109228988814,1.0973785858721419,-6.243298292944097,6.914398584889925,1.2734471097987596,-10.13913447948782,5.377502818280584,-0.41570142559406886,5.095789327916306,-3.545964257776811,0.1654777219662139,-8.858046278379307,5.627315382205608,37.78081951747286,13.737243102154245,5.237463210535814,-7.085598221164994,-8.412882040907926,1.4740938061166318,5.940692220692255,19.804975053574495,13.67430458577606,21.44286235054934,2.865315638387274,10.446886397288745,1.1741946742086735,-0.8390781349699198,-0.7141912000014919,-10.195314782775212,11.461118363943568,-22.36193074741141,-14.684736930212315,-17.631696277973376,-5.908683712772722,-6.489332114223947,17.084952677176627,0.3408963240817312,-17.789731122825113,8.556771419182708,-0.8777268015945198,0.6481352773718925,12.408741767562596,-1.5808335378942844,-25.405215905906886,-4.792017523692132,-12.592555406977647,-25.438248365771774,-8.436527807236462,17.921741321830847,3.0571301879067296,-2.7108143184632687,-0.6981961101699355,12.99248771567106,16.045052694323818,3.426876998370043,34.516063422764525,10.807646047316254,11.30850464988958,6.0019150738304905,36.420384183308244,8.265593376083817,-2.0177602445647524,16.175564220790097,-27.5822350377606,4.5913274055765925,-8.083067731361604,-3.8560702809400285,-18.808154669473854,-17.163580052308603,-6.254341110349749,1.2443560304900378,2.983872106584011,-7.670350987214487,-0.9286920938536869,17.49277817096964,-19.590457766682356,-4.7120621029186465,5.56282997789094,28.244987391675366,0.05391877818074668,0.12397256752930762,-4.169083421719491,-4.834398403739252,6.546513116716786,16.272355291804235,-5.869168264090512,30.14469878093587,15.80141528984052,-0.433732142692551,-6.120854242444646,-4.71754714162473,14.91001313642363,1.4831657557394875,-17.413260119531795,16.415538739854988,4.3147426440889,-4.5985294691740215,-15.692592212309998,23.05727661245539,-7.276572421848425,1.9337067714662028,-23.384732570362054,25.19082327534322,-8.820466945101046,7.2948644805740726,8.875763741318694,-21.01463671605061,-5.478986514640954,-18.29213572190802,9.31083446096309,-2.5212644020683705,4.461617474607877,-8.803532804437943,31.920589900503252,-9.13326358862276,-18.632930581006104,5.353865951379428,-15.374007006325265,27.765965423386373,-7.499384725644941,17.878172980257844,13.558424288260555,-0.6224114722758352,-0.9638474420658285,-7.163524312455723,5.277115426803334,12.918787786339882,0.097993767434632,-0.3516424863432202,17.451369779014104,3.0131868314244854,-9.774310955083013,-51.247606549198395,9.041417560136841,25.676623172028112,-27.14111228008813,-24.216436833799442,-20.23920094798535,10.134591967345552,0.3611412743820963,-6.04315127716472,-2.255388786042851,11.685350628312097,-3.3148543065163896,25.54093542846582,21.084690360523478,38.25237479769538,3.505245248611994,-43.408162924436375,-7.048430138658638,15.94164322991151,-6.1400804547616765,6.000763363143535,-0.3834023567470853,-42.77832370363116,-19.679988583258883,27.601334888890964,-11.20617381037392,1.7492233866779126,-37.30505368151945,-16.34641984687689,-21.81728755291344,-10.63879126199106,-24.050123252316123,4.7409377009008296,44.03488837197566,-17.54678108376044,42.7973161815583,18.863391110283924,51.421410907425205,-18.83598499249257,18.04433158845024,-37.27366630012782,24.996291355999784,33.10620021735635,-7.305966700952547,-15.189757158462449,-15.97739394586204,37.30638543767751,13.39147330147731,16.302791344680212,-6.725652379299117,1.1914732018182492,1.9198096941088192,-26.97838052197889,-26.901812478641503,-33.559018023773554,33.74692482744636,10.282648883626143,-28.74574730852401,-13.810715846374348,-21.064092835552398,-4.962211663393742,2.3783518981823994,-13.80485484763176,46.871511159633805,-1.501033982167403,-42.877226443296315,-12.277708918770946,-22.765497308908976,-10.793368408548094,-28.697823470951334,-67.45601947353057,-7.580891039198451,12.649223192349337,16.021127889569957,-15.877655126524107,-15.667870832789278,-21.883462870874244,-42.029931024054335,36.41541149458926,-24.01774228981132,-27.310535282081734,25.739707088120177,21.807834564638362,-18.319902667991176,-14.89058378234953,-138.8533497028425,5.6285789890408795,20.82034079454304,8.337883252900738,44.824437086339394,24.256747776893363,1.8590245312253377,8.834012998578414,-2.759517147927414,-21.151407810682635,4.577937008769169,9.351662882607233,-28.581869641154448,16.042779871191733,-30.408534904333667,-26.924463896653123,9.85010315801506,-7.936619596824507,-0.5664206161612567,-27.0383226946211,7.680639101828745,5.0120395749123485,9.490891263359485,-7.356581670148202,16.659047993013118,-3.6376159103021615,30.185668220591786,15.977518176644606,-3.904319683562362,-51.225345126033545,-13.6239645031022,-4.964172496733315,-2.1898938411226667,-26.12707449348512,49.565063013039094,15.266956936785322,-2.660549441522496,-46.98197128331479,-13.99069318550003,28.493686393777253,-9.467547809768828,-7.916389357911294,-5.09360134563029,17.299563179571937,-37.9681473708536,14.81602183806442,-25.002205024982246,29.905482660244033,-7.498350997480581,8.772405422163992,-11.919475449527969,-23.10610086533464,41.28836996622728,-28.173982476516294,25.577221016645925,0.7259049850158082,-21.85624663917194,-0.03557824694062763,4.971122577243686,-0.4634175456985774,8.59286409456186,-24.64100802668477,3.335266420004355,0.8346612410822101,41.27271209364954,-28.276170778909208,-19.458556354622026,-4.467226660635309,33.27939234684614,-6.4244697307634135,8.29689457468018,-15.237451047853021,102.97892886906031,18.33800642996591,25.541215062479978,12.449944398933564,-18.099657896208193,-28.324762229568638,26.604705704177405,23.771920896724847,12.925074209582036,4.772898744600197,15.732298196579636,-8.669993844872238,-11.01431054142895,-0.7302076966607837,28.35993624396049,-15.730826618665091,0.8647403531438187,-91.49704100008373,11.261393513003636,-24.691609493462042,37.17418523123681,5.167389832517769,-0.6417263998130485,33.55903128256856,-13.401820530737412,18.927990094398634,21.129809899590896,6.517138353390125,27.53025210417563,-6.419879073279747,0.561430392684456,7.188188470327882,9.21137591932929,35.5018135060177,-20.87262820468031,44.368996646576946,-65.83538296936634,26.216535261169184,-28.991950500310278,-54.11071601926425,5.362482728313635,-29.92042560136174,13.893014882783506,-1.62765120178652,-9.22481836009399,-1.644450562774371,69.98422743483798,35.380852349160975,16.174195510729042,-25.09052304467921,14.40749599991136,28.27345438110064,-96.09879961444855,-30.92087034897143,-7.66958573905106,0.8898650965491784,40.478975977169064,-30.95317595541611,-43.34363119430623,2.717027673385127,-21.849862150689955,39.72990568507826,-12.55495907907613,-28.698507253376956,26.745049644037092,7.899364384644955,-0.24434469774562886,18.451962237298805,34.408981820971825,29.69725724242515,-36.25627576479573,5.457382803688148,-12.18410378059545,-59.950898688036055,16.43554897516819,4.151942359361877,-6.840776816238472,4.470153986155562,-3.3805950263570668,34.96162445061702,38.14394338173402,-13.853998926291231,-17.721309104073743,80.18303836775124,14.424065825715632,23.73877570787149,17.925553529924418,-8.303177768339879,4.085025791215632,2.9166965684555803,-1.4981964596929913,-9.3738874755598,26.21846911691179,-83.96537419372204,-5.5714589524509295,-28.97024148279097,-46.44675827401834,12.326062055615608,19.450515103019896,-27.800309299743297,6.794014180909594,12.648569952591295,27.636549102824635,-42.58377355903993,16.729872624445886,-6.876582918752677,-12.452180717126332,-17.738868398822472,7.516017786241004,-11.239461041267731,-40.64175673469056,-35.060668087435914,-46.56781609424133,15.292634076720732,31.92939046254443,-32.49017194472169,-110.55373094883957,14.224809244558202,-5.104414663520732,22.488822725148495,-11.67061371789957,11.805024692281599,-4.7870811299832985,66.93197409756529,39.960482160549944,-23.16388516549503,45.14871531086576,-7.212399597733162,2.428895852002648,-9.547181083332278,9.869901761477136,-1.3063681530926567,33.138853923167225,19.040142335230804,-26.38696738882812,24.225080082936863,10.464007114145115,-13.113768601457023,-27.84439625170529,14.628718662072512,13.936855145479782,-18.810006630412865,2.0369680948586923,-16.741862247778887,-40.6110866885945,-2.2819535060231653,22.290531907508868,18.556373788294604,20.128838788975873,-56.86877351321915,-3.221943922326719,-31.224254063911257,-20.008577612038504,-35.26425033367847,-16.362039313262127,-10.851133710312798,5.0516051254678445,31.970469965421078,9.65929796579314,47.6437734948085,-29.21361504967083,-9.025973059269129,21.087030065546777,-34.14183827813408,-46.247128814923315,-15.797973495490636,-4.29382824144184,-25.36985459944042,-10.325865685766706,9.349475303953149,9.897410945068446,-1.5831896657245095,-7.5062936264550055,22.96829095311862,25.520763679531,-3.5456199827333212,-23.62531698273093,18.614500506529833,27.85849496020038,-10.424567962637557,-4.205643765214872,23.897146859408704,24.817021509161982,-0.6414227185654549,-2.347111687132647,-8.627908513164,13.704565286998134,-11.64534575494436,-17.630379515977737,52.32455493187728,-29.73522435856704,15.813819799248536,11.323008594415311,57.93375350631404,-10.961546071915983,-13.264849187171864,3.4813064296914527,8.695267139232254,-4.283353342390142,9.185653428263588,-14.580664337039092,-1.2612375321575109,35.95205693196242,-26.814674843739077,8.681053441364309,-15.296715601614054,-40.97918753397311,-3.1558392391001155,47.85013306882799,50.820251048263934,22.150166018411728,-17.190982549463705,-1.3257557974205607,-6.394049240552142,27.583755207647208,-18.49804699801782,-17.09563741359687,-19.58798012949541,32.8352451395777,18.358564573153224,-15.391759768548967,-26.71934310442445,44.711368381400874,-13.249255106772269,64.96326298225011,-14.079351648797347,-4.2274495892579305,19.3102246208526,-12.072396048035682,-34.65323066484984,47.78158065221548,21.239821198710334,-25.013483365397605,-34.661718074557825,12.177369416706018,7.680478502072612,5.976674605825115,29.223076788935863,-1.374366227154505,11.352263518588973,19.26113484583733,-36.18418936206403,11.908119898175343,13.41045058747643,1.6575224775472757,-24.231752377121623,-34.70648984888966,17.865093578759648,-4.826001096512038,-10.150562991945081,-10.963678346569212,-4.62696923145188,-10.583930396582394,-38.397591278306805,-14.392764864466187,-6.332508872498299,0.30912847001474636,-53.0284841175804,-25.521301767832274,5.5908488222822434,32.202239301839924,-21.677870385759324,-2.240161067964358,-31.24982166929382,-15.752053643695492,-20.952237441670025,-6.5526065044372865,7.213197491043197,-39.41396654885907,-4.725505131353393,-10.77460572469359,14.799746755355635,4.047477790563149,-48.62093864374451,-65.7437267549264,-3.922933513831248,21.180682621144275,-33.010603477751594,-18.884327076741442,-1.7378575175047577,7.58564931488435,-21.986148014654297,37.90521361104839,19.285069418725882,-5.437551859060365,69.57894609203315,-60.2120958267924,9.057349897574095,-2.7999963868886844,0.4509648782103924,-22.66833197409545,29.106661165649598,0.5944023832783571,-11.836542924817845,10.297221678470455,-65.01383835095041,15.393342317721812,39.19485318300941,-25.3445464837916,-39.877554438142525,10.518650163467496,-38.41229083954397,-0.016406990944382402,-8.518543854628282,-1.6942352310062747,6.617242476392292,-1.11342079984506,2.5959137242613677,-4.786093328823496,-55.52852347980355,33.65449672422326,16.756900255186288,4.884303468786791,4.194527644867085,34.457428608030675,0.8835436358432301,-20.530068245243307,19.297844402239896,31.787030536757364,23.241148248144963,-25.28454230794961,41.23273089790865,-8.264290237415613,-2.100988244580499,-10.525693065513964,32.138160920622774,-34.84961723657818,-10.70793663197217,8.031213640555817,-12.528584745425663,1.547985728004239,2.209099050403107,16.294608311225225,1.607218586452697,-23.339811126998157,0.6828852441619292,-18.1976444018426,28.18374070754038,6.906316857531714,8.57226193868981,4.736969166904356,-27.374296793789515,-23.229283374563884,-6.761146602581525,-28.244601602462232,-30.147168879201367,-3.5850169383661235,-7.419740493253245,-23.333722254691892,21.12056084724302,10.58510349392992,-6.72038748309357,-22.747586428393966,23.157037052227437,-25.840534591584156,-22.874428995325424,19.952391114342227,6.0568060936549735,-22.989058037486288,-19.846751086380525,48.088898089122296,-4.079105401290577,-14.88982227260713,-24.413672471959373,-35.30310678489462,-20.201087320728988,24.989691107992954,31.19774560945474,-13.498699515275797,7.323878434828144,-38.07345301435496,55.87761293805724,52.59289312501317,35.70796562453861,12.287011129200044,30.86078359276267,18.356920392959047,8.794781712277526,12.960685344028342,-7.864654039585301,-14.258227493641233,38.20850250587688,-2.552709346586551,3.2446459124930747,2.931204048859347,-47.829393978272954,27.59812650741758,21.87082004465356,50.74935472217863,-22.541828324911947,-7.6310161101026575,36.21173806870891,-28.337778338441982,48.2117650096519,22.63235255672534,26.8357040650776,54.20832115638995,27.06825019499399,-18.314834834343923,7.544180253245268,-19.743586635927542,-27.586347076785955,25.73572730696579,-8.812717197515493,-1.2498265653016492,25.354070066479434,-32.56936399529748,25.130143838628474,-13.174099671463495,-8.044563194841894,4.700099085857437,-6.787828970755015,-32.818908261062134,-18.647681465928724,56.651754425508344,29.52601483379084,57.72160927298709,4.665107092994505,-52.122447500429466,-3.9256350687542403,4.082081592925485,39.519171583761,1.1412901164055231,22.959129747330127,-9.877641760229855,20.138108410931363,-20.8174865129894,2.6949297895420337,-5.79818292022332,8.631718239597335,-11.478709256767806,40.94205598901462,-70.15982719551792,16.71353554954024,14.716118729051193,6.663906771974073,34.10158481487208,-36.445588147070104,31.16689168115849,13.178749877445783,1.7953295365980164,-14.390133578986692,-9.475601023412338,32.209224720085544,30.376056367720487,18.350537600773595,-8.623592161445922,15.118701712235438,-15.054004582605916,33.36280287169639,-23.413385190859028,-38.17525341578171,-4.423483375545419,3.326799643101527,-1.8306997280787436,38.75581020907449,20.8369528955502,2.539121232694469,-24.00261004111002,-7.409392256076907,-20.39108684625817,39.93871810707434,41.42586373143665,14.686954712270134,17.6396377049086,3.260931852614654,47.85727665458947,-32.76471294858437,-17.114523203704824,26.42470150023754,-7.122126819090695,-4.016566164603598,-0.9088646858072617,22.4169789033267,40.964509746337676,-11.15445454309773,31.720698806912687,-51.75824039048606,1.0420656103007682,19.39367271644531,23.265522565962954,-21.94612752006538,-46.5825930911799,58.94674673610573,-21.92036933842885,-30.586734942323222,-21.026524805450784,-22.671767063531835,-42.197739973163664,-13.07295447187821,32.40396108468053,-5.301252426337873,31.318787339606892,15.024221558624513,-42.58283442150371,12.788030751540528,6.464995717273255,31.342976082666194,-6.968602880832351,8.673255938275947,40.49369083631135,-23.100899058980804,18.07931136315819,18.84767333956835,31.341737393929208,50.958733969645856,-20.79002626425815,-19.674232746875198,51.37752138190356,-22.87870973411439,-14.653653554974849,-27.00880547058727,3.444974390991045,1.0337579671544088,-65.89838926401023,24.127283190214598,5.284490403026785,7.135021468195113,30.84166984494757,-38.43024534652305,24.106832409899397,-5.769259449223061,3.3950445781219956,25.241602141923117,-8.113069226286559,-3.9861969614360464,-13.788001235282668,-15.043776881093418,26.879669461536164,3.269742184485502,-35.57740098924131,-12.050473866566533,-19.175046369633307,22.876349803917545,7.247469839689171,1.2203066193503689,15.449397281736957,7.484465059598062,24.633807671262012,-15.894302559863288,30.12849662014203,-61.49538031391046,-30.465691356037414,-50.29809865313421,10.381620678343015,28.518647885576872,26.882608189486387,9.0590384979094,7.022644646475457,-4.676291706909085,18.51603678192913,16.79928851729588,-22.99518736700731,-23.45204207998262,19.773376655501796,9.447178068600252,42.6153756166195,32.33966984118599,4.113565811460153,-14.175097293523828,-4.619283818388455,11.645391643228294,38.36006973227193,-18.02404616022698,23.04912776371706,20.64802377956358,-12.014607347613499,-3.8882653079279454,-12.949897747190436,38.582498555647746,24.957344078382818,11.874168176860184,51.290906686373425,-42.93413307771557,-11.668359935506837,-11.560318726395861,48.27142301862315,1.0306228060498643,-37.889372800673776,-52.20789924363472,-15.117089061085172,-44.489352859293426,26.70485450351275,-23.165670972591567,23.231346860217062,13.90105394560102,36.95369288081788,2.1465280127977806,6.634971926140667,-0.5686588109842535,32.331921699465724,-32.22934917847017,-17.595426982303366,-18.37762624930406,9.701384302044026,-9.130979163522378,5.797976932260496,-33.91068582011411,-12.500933373413103,-10.233821479350372,19.321666221891007,7.806913648759747,5.106581906860063,-5.1737485675158945,8.296765668036178,-0.9163950067351164,8.535016793244084,39.45021383467335,-12.010051500221381,-4.651482029832581,36.554147242404305,-47.46911028808131,5.991479533565885,-45.15213919882358,14.9496313109371,14.761964046700703,18.92932695578213,0.6956558060202847,8.354332868111063,22.987223265468604,13.316297383428768,6.753246914756001,-25.189407995762167,22.27247096938048,16.807084289439164,-14.929291477058872,-32.21730967965431,36.632806796120505,-16.98234011488194,23.234936874179922,22.48191657817485,-28.999328100459987,23.699070219079438,-8.528618221844178,19.134191548556117,-15.269136566359798,9.977684486722987,-3.1775224206767816,-30.285932617254733,-10.773531333298186,6.511604549062698,9.898213058823282,-10.367664238507675,-14.660186494686917,16.47924373597256,3.0238689140508983,-20.439722466856654,-7.902558942153572,-28.2874768996936,18.758974199951236,20.176203963346232,-2.3646433966735203,-25.142750701997425,-13.221226426993303,-6.3192173865222125,34.58682778293174,-3.044234070447482,10.463298789474738,21.827919646041973,-3.8949076950853727,-18.231186689380774,-21.93767348366885,39.85954722239638,22.227083251890342,-26.17412357930433,-17.514412621106835,17.945184424003155,-26.19336862808217,9.942951441944182,-11.439215287352855,51.11657436370394,-9.56790220197047,-0.42779172814724375,26.459848492428613,-13.892076940113835,-27.250052358802893,22.095197787423402,4.748615795106096,-26.385780627434006],"intercept":-8.313552162534783}