{"type":"sparse perceptron","classifications":["NEGATIVE","POSITIVE"],"weights":[0.0,0.1910132878917375,0.1910132878917375,0.0,-0.08871690142150246,0.11735566137170743,-0.23613421246159033,-0.13667145288180998,0.06891082375476489,0.0016625431740396879,0.33876068125680703,0.5010717730903514,-0.31949479643606205,0.4519732258673502,0.01365085115129791,0.5057813574700591,0.3908463881250446,0.1726858405889481,0.09474424715286227,-0.07515696319099,-0.2176540054187593,-0.15017754851069168,-0.08530020110526776,-0.23005036120262431,-0.24115140831265264,-0.1421716046826078,-0.3681835115676493,0.1554691124460602,0.006400185425168389,-0.18767076344233763,-0.13791862650401576,-0.014013324370702511,-0.12878511584202273,-0.013776334886565732,-0.19061400478193435,0.03443557613489373,0.0010961692640528084,0.16440315571716754,-0.2103096078028493,0.08434463390122314,-0.11816644636419978,0.11493314553693623,-0.24774893478920768,-0.03641404631200224,0.13356781239090648,-0.35131551810686135,0.26792618192608186,-0.16142135072831942,0.0625982180017858,-0.02204476597138596,-0.16679520921643032,-0.30948054120112756,0.146253536593913,-0.008682434498208907,0.23637564215642565,0.3645169038857542,-0.018311248344410294,-0.1276009435921279,0.14510086499722377,-0.24844746508228485,-0.07351410519236988,-0.27017357854910157,0.14957535189905768,0.10839541829599052,-0.2074690242542644,0.029415203450297668,0.2371985713143442,0.21289475475291048,-0.44251545268633113,0.12480896234315098,-0.5624142250888045,0.1868352913114563,-0.019760712566048035,-0.05666044564093337,0.1678790665248077,-0.32322332431352446,0.015256717373490589,0.425965741026652,-0.7182344333104431,0.07197470849114244,0.1521064326957695,-0.3159075698325555,0.18304615171238967,-0.04997445194001237,0.16597775548576693,-0.12950179759267516,0.27391995929557217,0.4018249393551182,0.5356488781174178,0.06794705828978004,0.021192165150466444,0.34881363497523266,-0.48040860625335235,-0.15792994641296149,0.03644175939568232,-0.13320493629610827,-0.2350054882698357,-0.1495291859765585,-0.06508517572584557,0.25969839864864414,-0.3187513397866798,-0.6460608299863639,-0.13023950304824444,-0.07234440199812008,0.3307607803027395,-0.1354625920109672,0.05189580226986722,0.06573167419457335,0.12393930615309678,0.2648888282979091,-0.1864728949340765,-0.022050544220427834,-0.1451274288235898,0.2990286312386674,0.014188393045864382,-0.046583295825285954,-0.31924099430234515,0.028737664599121526,0.11145684987163372,0.03953969024136525,-0.01892948652422418,0.04387547483669461,-0.03385975748311805,-0.01180814753799727,0.04972889790034345,-0.21319502191965328,0.20037444692347242,-0.043339380843461825,-0.07465699887061053,-0.23606187365693024,-0.07135433118919751,-0.09504436661600546,0.2552441523941693,-0.3674230812421754,0.2492923447784112,0.07496932744324994,0.06470595527970649,0.12589589708200713,-0.05612333113510063,0.004321934835676472,0.15709974223037532,-0.06953631520355308,-0.14229208089458958,0.0599513798885667,-0.22905519314971387,-0.1442245949732127,-0.3033321466265447,0.5269259814359423,0.6072343896690484,-0.14320743819024384,0.1722079468328928,0.4434691033332733,-0.23488626946172578,0.17125257179743864,-0.22113175074003946,-0.2208402064887805,-0.05741702619671305,0.34349467159099967,0.12338042789309814,0.093182370469096,-0.05098146984656448,-0.24714020956694302,0.1456012737205114,0.21138502476563364,-0.41744236006823265,0.04709478034265571,0.2047149741089046,0.1358838374041339,0.2850942414567513,-0.02903125730909984,-0.08747747647322443,0.2528253726783195,-0.4410255836994142,-0.09300024788686179,0.06851842485930078,-0.016135597283452124,0.23652947351177792,0.23107550916719247,0.11765472890515002,0.012146959588196553,0.2557678183139879,0.0060737229098032225,-0.24467911817751561,-0.0751747480846572,-0.4466797943956854,-0.16668322286414194,-0.3874075614265718,-0.13964848731058102,0.09431311755575184,-0.36164646166220993,0.1565882316891541,0.011820870633059075,0.10061607653303231,-0.17671624278290904,0.2252939715836258,-0.27886280611193637,0.25070365037619463,0.17358216703254845,-0.07684214848506025,0.0638177284830401],"intercept":0.1910132878917375}