{"type":"sparse perceptron","classifications":["NEGATIVE","POSITIVE"],"weights":[0.0,3.407474138375164,3.407474138375164,0.0,-1.3437283431455513,2.599771443760988,-3.3219981763083655,1.8878870837192745,1.41700490597847,2.4692064142046304,1.8830746716700066,0.3942145805826855,-1.802638675919524,1.9206995444590997,1.3120821375953913,-1.1044586190720587,2.892725178959494,1.8873641425534633,1.3404115758184196,-0.4508478707684067,1.344653229889095,-0.4951445211725835,-0.25004012711750084,0.31844849033487665,-1.3082458661683016,-3.2965557334292903,-1.9376068347046145,1.0268744234999667,3.717010382082481,1.2951059479055458,5.940399550513531,2.825742254875616,2.7810900074234626,4.393429841213994,-0.5163126210358437,2.388000262065391,-4.5148844399592925,1.1959436685621705,2.5106126429415454,-0.5283598976995123,3.981449220906389,-3.13742265923198,4.520485917820975,-6.172018845775303,1.0540062923807125,3.2622431717154607,-1.7244057856053048,2.0185765436869314,-0.3662092493178391,3.5902676635361397,-6.642038454658782,-1.8649706848881589,0.4930325232335805,3.6496549148178397,-0.48703986543702943,1.9552231042744268,0.46477393134977135,-2.1580467714216565,0.8098212341675861,-1.2164877170841124,-3.2088691731417605,0.8779062629018202,-2.5621539617288875,1.7657820540335745,-1.067653733484075,3.6108452406851357,-3.2110102633652216,2.1140918225196144,-1.5198786536726372,2.8192240043987953,-4.415618764024824,2.38304789147265,-3.7328349540457966,2.2788311275076314,-2.232076006222321,-0.6531597009555914,-3.495340169590694,-3.086860232042403,-5.647856789893683,5.839746494298672,-0.9318545185859877,4.496906519771493,2.584879951412815,-1.7420520298206894,-0.4904049822269814,-2.7114246458396325,3.0825669045706197,2.4499962805498923,2.976638926864899,-5.8236901417178055,0.5328915561518928,2.846833069623937,3.6255639028894526,1.7489602895506149,-4.683842233500774,1.6414624186882152,-1.2791070845669832,-1.021753390212054,2.238642746426936,-7.337278978048671,-3.721368622136203,-6.243702550358723,-0.14435824462800162,-5.105325697585228,-0.33718225494804316,3.264123273679842,3.3957133820758707,-1.0497941926463827,5.42625999937908,-0.46292001557210716,0.29457111061461905,0.31489026190527636,-1.6428845872304303,1.0846763029045254,-0.5365030480199717,-3.0649126728610607,-0.8706854499253727,-0.8748680878069166,2.0911506823790074,2.8961822311546186,-2.237971790805884,1.6537495899362529,-2.028487479694258,-0.6712255792185113,1.6736756556296863,0.17214521899773227,5.34364744480207,-2.834156837290653,5.235266318610344,1.5435078222714795,0.0869480934589219,4.274314100352051,-1.5981911995295943,-0.6009077138982906,1.786613702653879,-2.7826718375468236,2.454149042860415,-1.2182189162094617,-0.7043452351004569,-0.79418701012596,-0.30038595310844735,4.681757569241253,0.8415076083903807,0.38169826616575986,-3.2617744892412865,2.369971301489214,-3.8671312220825933,2.641266031182673,2.7870847707991313,4.398227696805543,4.605677521119291,-2.390329924625762,-0.9756980606972614,-1.009866412465127,0.3336299241167582,-0.4348562402932567,-2.3350063951375466,4.507068907903841,-4.92528574688569,-1.0750036540959562,3.2946416591467074,-0.07139113424988264,-1.2431939841696602,0.2430840515442927,-4.150698359213954,-1.032273201805572,3.0158573448796373,-1.38547968299744,-2.4121646856403265,2.252400719626527,-4.95382263052804,-0.5029102235093492,1.91668986676687,4.065387604758594,2.3439778099316433,-4.078857693779569,4.222427398585501,3.9481381947084877,0.5714673946215207,2.197685577033018,3.377557778457873,0.7407431865724712,-0.5238687397667603,-2.068681748793905,-1.358898830239799,-0.551198767955722,-6.622167112932635,3.5355935119552564,1.2619276102684212,-0.9302507124593977,0.10244555309889447,-1.4368923548595003,4.197438582659944,-6.632212233809003,2.0129988555690064,-3.176554654533163,-3.2359166773603905,4.05936846620016,-5.9703763500145755,5.50353035458895,-0.07916087941260352,5.611111413433567,4.334870647647236,0.20466487855294385,-3.092815544023068,-1.5493141243118358,-1.8073919501539824,3.6672049878300323,-0.2701682175845367,-2.091174650434274,-0.5273639654335942,-1.3096401525368648,-1.212280547782898,-1.3487481984190424,5.007365618647976,1.2695830848166054,0.5165430739580488,0.8102248371421548,-3.99478194940321,3.928328747172843,5.026907141569718,-2.1765029154075277,-0.8002236828864664,1.9275103373639881,1.7121801628732547,-5.349307642897909,1.4469064428813236,4.237182213870861,3.7184763969137684,3.989554601539266,-1.817822609671401,6.0246341110157,1.3859016919084697,2.719586784356615,-5.127015531057747,1.1531331772327476,-1.1077003629510414,1.3994467349882325,-4.588426047595108,-0.6106457559834941,-1.2458856738578665,-1.1479806928757403,-1.6080407946757143,0.966602088019364,-2.313967911911845,-3.7377588780136937,2.0412341523761883,3.3152074946214265,-3.9156896342159744,-15.852433340006025,0.05114488386135646,0.879094677717591,0.9578445070252044,7.803042992017171,-1.763317002056467,1.726770824941951,-0.5259566049294351,1.3410120030483743,-0.5380038731696704,3.0786720478585368,6.433158365619338,2.6751404250022537,1.0383047815961304,-5.414513238562613,-4.45791456986189,-2.60046688580001,0.5930716144143521,1.0216717029340507,6.002095728847382,-0.5359507306626841,-2.493018106028248,4.2725807351034,-4.844863101882243,0.3339397345786229,4.7055533091726005,0.4687078031319589,1.990329515207964,-1.6911423284350688,-3.900998204157818,4.903937169167345,0.4818053667768236,1.11696218582789,2.168539877587758,7.813836162790456,-1.793164459347945,7.107593629955442,0.9798588569626832,2.658060864907684,1.5856643605901177,0.22837874802568087,5.338214701052452,-1.8548460207289315,0.26545110882660894,1.0028704667371413,-5.968039807505176,3.138387248830117,-3.0330816821490236,5.029982747447883,6.30734071672237,3.3315993015881498,-3.9105347241713933,-1.7674016499086285,-0.2301317036864965,1.174312081766919,-2.191024541881125,-5.8845429963398,-3.3900571728843154,3.8762006561425073,0.8629411895081828,3.473990377802562,-4.428964818898222,1.0279425534108777,5.071624278495316,0.24128445861363573,-1.537652333939274,-0.06536127414792037,5.3661834276882034,-3.2886224055494386,2.4268760899605404,-1.7694057122159161,-1.3763784079585686,10.349438667089006,-0.8061382030608406,-6.552944234454363,7.693577495546959,2.859009477988279,-6.694705571529142,5.983197669568586,-3.624824718001863,-2.4965187322317504,-4.4010733380363085,-1.78655164152229,-6.428259978003836,6.3522599174733045,-7.645043516921939,3.0756103562042947,2.310043868251384,2.1969327104184084,-9.751888116816183,-8.250494962085172,1.5282696292960092,-0.04551227991612261,-10.198515473593579,-1.5220004885556453,-2.158421843087204,-5.581976361448355,0.08241381606819348,-4.496537726989415,3.8645472625518407,-6.4164197337114635,3.366957872156472,1.8568668207729817,0.7696694902707784,0.1041982954981251,3.1251986106423693,-3.2535339440905022,-1.5356633417878363,-14.327166394736581,0.3831408966055436,2.213226430795584,-5.6517948632570665,-4.2860502721921865,0.5605940116788563,-6.845752923411927,-5.484695613405899,-1.0872532904544485,3.8088066819940427,1.8314419082827078,-1.2884923240177697,7.492833515089169,5.057753598836409,-1.036938356170911,1.7332316491755646,-10.507827293480906,0.9567669811909151,-5.164654495893816,0.20416015359110462,-3.55903234833604,-0.46735901682704517,-4.846656230898318,-1.452741843301555,3.423929927894355,-1.2113688667346247,-2.3560659143766185,-4.92952087538774,1.019939766694613,-1.7263937377644254,-0.6601084924761003,5.807307104703759,8.704773611644864,2.6196989826263675,-2.1909004500406466,4.886394176324412,2.0240104369475187,-5.208122816990987,-4.151329859194829,-6.102877298910545,-5.2825575322595695,2.5943453546659496,-0.4271993442298025,2.7978198477525593,0.19136942013355412,-1.9387542276773286,2.556987389319015,13.099302439300235,3.236645231015424,6.687294833944714,4.379059921622528,0.40933189719296476,4.813479421934168,-2.596042018264467,3.6549761307919324,2.8483180758380593,-3.3305921758621237,2.9546194573870466,8.462164258305016,-4.294410193117765,-4.433199451828126,-3.5093025360099586,-7.00701054953114,-0.5139744137912547,-7.426598274363996,3.789981887365756,-0.20052480740491013,-15.121270761672355,-0.4353110258463955,-4.898668544366196,-1.4298632351758354,1.8477654781614026,4.690989261713087,3.3933968723364085,-1.5298865636209442,4.506230890358174,-10.653495688175761,-5.154788249302907,-4.743828230668862,0.6914567427112825,-15.59811914142085,0.22287656453595983,-2.9212078195022784,5.868207437511554,2.0259701918466533,1.125468787595915,-1.4023416725462203,5.368330722919834,-8.567082808590742,-2.242218810557852,7.140289761136207,4.443818627182367,-5.397961309965364,4.361625787361637,4.956466325614664,0.3658837497087518,-5.208166833666767,1.906029036784017,-1.3430629201461468,7.582603835805852,-2.0637192416785495,-0.5318012038451421,-5.519345005452124,1.4074082776726506,-1.8861665599638118,-8.093751460187697,-5.8813791292588435,-5.548769528547085,3.764158979083544,-4.950423752123536,7.159049408756426,1.2939078298768107,-3.209939545914438,-12.844731492992834,-3.099495133789416,-11.72735714308619,-3.4212595568551643,2.2305807907650483,-5.9400040646700605,-5.221678869208771,3.4889553230509036,-8.947195010292667,6.485297487136332,5.023250130996078,-8.16706164391082,-6.2395108464373745,4.950083994014879,-0.5436505055686627,1.4746048870108794,4.878096830719399,1.1832562591487972,6.082395811681219,2.0588075314020275,2.5302702984027485,6.673652582003096,-5.724265959218828,2.4816487507154994,-3.5309213354236775,0.8952319160861015,1.921380326840275,-14.515084152427946,5.328105205443838,3.1199585521392725,5.332990147723332,1.1181220557294558,10.622446317332967,1.1058891012192353,-1.6572838557640437,1.2132925202930194,-3.6758507863835215,-1.9006916956966535,-3.120519751033301,2.9855259306189756,2.6290759855778614,-1.1054567584265786,-1.5343674929059739,4.696585679289472,4.336077373606855,-1.6218515974194498,0.38882596779447987,-6.674573405590028,3.4781175634412573,4.3410093576312985,-5.331915215221287,0.5494549467635128,1.8342088792805509,6.34926411906844,0.599478219394205,2.2788972103588954,1.8064088600452741,2.425390278682816,6.411120946057306,0.37481378211448735,18.13507663251187,-2.3783113665139277,-4.086336909720885,-1.589820394566221,0.5434369829694132,1.6013058491441754,3.4732948903583107,-6.509220825290839,-5.390432455236209,6.079670369587266,0.17630685207631203,-0.5048806651674975,-3.443042837831203,9.11570621251675,-1.7057821931491624,4.189396377621728,-7.662396414533951,5.087743466428956,3.5117727760020045,-2.057975982523316,-8.278332172412748,1.8557865692905087,4.669219647145352,7.255153278919283,-8.789394190388425,9.883042521859817,10.987910732734814,3.251080393827049,3.4736025660350984,1.9512113277791248,-1.0220423036854362,-2.4250589104841387,-0.29439268227864834,13.444949570713867,-1.5782925897607432,5.614783938385622,-1.0283271642319893,2.2882849715082507,-0.8899928338702473,8.198229950308443,-4.021210288215017,-6.749421353154976,-4.9909516713580375,-3.639437607188291,-4.13147257379719,-5.506194627289432,-1.9305405616062379,-0.8230559611562351,-3.996005821734654,8.915431991707248,-1.7203039612994744,1.856368302216359,7.938198564938005,-0.10356525047623522,4.239783448855189,10.353054692118384,-4.886306940831206,6.577863870664671,2.481981535566178,-3.617250053229822,-4.472268380710419,-1.1046971735521935,3.807889152548393,3.027722795086543,-6.045879086148313,-7.426649776964257,5.951766138024574,-9.816397212109916,-0.32668970888183807,-1.4666509304156568,-7.155540855277425,1.0733737116840694,-7.349728230308587,4.41009115971392,-0.5041132956661305,-2.488647739791225,10.96634971845015,-9.652167254393136,-5.980342314594609,2.4660885179988377,2.5334995291980356,-0.46954562464679794,5.922482241667293,-2.488158463685097,-4.30733463996145,-2.9040248670689364,-8.357165605229056,5.863024591610162,-2.1563510301681705,-12.042943088858529,5.031790897660327,-8.002907811592006,5.611927111314983,0.08457913556924063,2.7204986725097204,-3.9975991986280315,4.340444323337121,3.20141499424199,-3.5549563482935453,-1.9022717919555527,-8.647792790350238,2.698572602657384,-0.06301016905505175,1.8699117535434344,-1.0664681930458075,10.395543290897848,6.339922840265701,4.449511677448454,0.43938678032499,9.420227896194177,0.8501627317709788,-3.72096844965705,4.762657704423506,2.986190797272837,4.219500020432691,-0.8480600018908927,2.6113359289715157,-6.952809736384903,-3.550417665475373,10.212336462669258,-6.355643304010143,-5.00537863236673,0.3432987293932723,1.14139237046721,-0.18033412438179752,-4.249612122825749,3.5643531757401905,-0.29155641223721657,-3.9112935019007944,-9.300268246360847,-5.206089764371597,2.693750626565764,-2.2826478122474922,-4.789136087793887,-3.298759705217899,-14.260962020499099,-11.479092135445002,-2.576427410448263,-10.875119496909253,4.6748484280308915,0.2643742400865927,10.625873435753041,1.8860188038406749,-1.612342621696179,9.538683014658423,1.0368337465204922,0.9619309420562877,-0.46771770732277773,-7.537685704311168,-1.6924898762083624,-3.0585908872081444,2.4826819278189496,9.547015692205779,-2.4794821981493023,-6.325205011781015,-9.913247936433732,7.617379416023252,-3.723698202123237,2.8404210338165754,-3.9160930241214706,-1.7538333885212896,-4.431244591353025,1.2206474362775441,17.19293114785281,-2.534948410191415,0.6814937682200446,6.213866168898369,13.853766307460242,3.6075581056809884,-1.7418377118047685,-2.5421296178502972,3.465576244157882,0.577898334678597,5.440234617689973,-3.24286128136092,-0.6176594705900138,-2.608237275888649,-4.554946088466959,-2.9537061320107476,11.940230435972536,-5.099525258135065,6.594011889433451,1.4583314993573688,-4.100804638141148,7.809024104239336,-6.533368611788204,15.58540865262713,5.880315827545638,17.36255694927695,-5.834315441690097,7.212923245239213,-10.045850130431091,-3.851188921068866,9.023673111200207,3.6576320134728197,-1.4322572035203263,8.149002158945185,-5.634075149792874,8.332929413328712,-0.7045558051036025,-13.643172176581366,-4.217174528245026,-1.0557622294313544,-7.935640330324907,-6.683215736765909,3.1660396877682917,-2.2850062361283245,13.503498785085261,10.207755761646734,-11.456555122759648,7.412082531742268,16.655592206890113,-5.123748946917876,7.661927142717201,10.102286529763912,-6.198096227893838,4.905127318020281,-13.348920366694292,3.3728399648537204,-3.6232764593894187,-7.696242633590994,-1.616543157988584,-3.4032776041385153,-21.981522986919444,-0.24371917241899177,-1.0824337373114061,9.524640391178657,-0.3448537631011482,-5.34896694154123,6.973485978360517,-1.9254438219565473,-0.6321074669139992,-5.463507864201826,6.293574724732167,2.1976964313401157,17.1120243827799,11.515655007412443,-5.460614648172597,7.765898601899593,-1.6605174638096647,13.290418548559499,-2.661476602372161,0.8884750268549038,-5.336650560187817,6.654897294962385,6.971848679150241,11.404849214931708,3.840331601952264,0.8787454722351438,-0.0710283576001946,-2.6831169766294174,-1.6355384205950063,5.005364814171201,1.655530898282513,-3.07100733970928,0.30648814217450265,1.1923915574978825,6.488079718678874,-2.8021843571118614,-0.4698644037186698,6.0304576308667,-1.0022810042535504,5.372089951104195,3.9430656852467965,4.413486833074173,-0.0317145261207753,1.8966471089066643,10.619211765639399,-4.795634424045025,-3.7210380261760285,8.178756273473935,-1.8118880477280976,6.51982400494953,0.9279056194638304,15.796686899024092,-2.481931077622153,-7.410895915786724,-6.912461829155489,8.88373962351456,1.0699612941655432,-1.3265107053822978,0.563483201680281,2.1476080235888526,8.853617522557606,-0.6180826404224677,-6.438739209520239,6.2090230225464955,3.854237519893071,4.060911640564205,-3.3431868290865987,-0.17345962284119576,8.540391535713098,2.7704374817219435,-4.262366342769833,-0.8410544722047335,-4.8869454432210695,13.47075678318446,-9.668449630077959,4.219759302596007,5.000597243197113,-1.6721689611962947,-1.7308458800849393,-0.5473562885467462,1.6458064261996432,7.287708810356414,-13.13645047962906,1.4850325122867964,7.90706306559246,-4.523666366844875,7.300211792297462,-0.10649176814461003,7.7633568885368875,-3.3151742517212144,0.7697172166595807,-9.400949124245678,-1.8872534885245948,4.613839923980054,-4.38781568822648,-12.871398062377066,12.03558610545708,1.8407551052498474,3.2346162896328714,-1.4786315773665353,-3.8880392429569497,1.3831507508422678,4.042030914994059,-1.0290974017484782,11.635822553238443,-1.8912945963293817,-0.8417953208955722,2.29601014760982,-6.597803942480398,-27.10241552776361,-5.54258328967547,-4.117427713203297,-14.519646201119349,8.669219415102821,1.8377294905412898,-4.308317829482948,4.3502543120902155,-2.2867838682046018,6.500598152025404,-4.226518217458384,-2.0180636345091303,1.1295721744378207,-5.903163637183577,1.1794737279278293,2.105895578709576,-1.265743877945684,1.8545573227414602,1.1669556232914475,-9.246392460265207,2.4414558274389226,-11.049462204763858,-1.5356159289831341,-15.450122599618467,3.8200971275067506,-9.118021441322426,1.990776952092546,-5.10981455593063,6.667279089282539,1.6182798946516914,6.529366474963177,5.234933941546035,-9.189035462922961,-1.701396220946557,8.12697289131828,13.552576344278426,0.16298867379003723,1.6057211045249082,-13.140516956072123,-2.200572743203344,-11.377307532167363,5.005362762391463,0.776473013745219,4.8158266461425745,-8.764028157036227,-2.243718718162034,-4.021855879844357,4.072565224429046,-4.821312298426293,2.1965470473793367,-9.028760409326063,-19.475041450512954,1.8063162482662747,-4.359263433459793,1.6518016679256453,11.597017825711111,-10.396345427542691,-21.004259904982337,-2.7106223552103366,12.886306193345648,7.494881872194015,5.694946755494111,-1.1289355598427981,-4.8019989601316215,-0.5249121590025734,0.82961524604797,-2.5182783677883993,0.18276253764307376,-13.221074648543398,7.352406181372483,-2.315940895933889,4.13941625358488,-14.17861815752225,2.0842003622765906,4.030477838683264,6.981508427586679,5.245469324194913,-4.279921206444151,4.460053527280133,8.465348863039697,-12.212891114283527,-5.808900398525716,1.8831529620164427,-4.248405954299321,3.1017132284079874,-21.294544720135445,9.867236277133703,1.8830896818379632,3.220141119104431,0.19252145860377295,0.660797945949007,-9.781680737938256,6.303955438582922,16.688408968755944,0.08048620982725246,-9.325852220466192,8.986022527961719,-16.680078278267725,-5.675006657669555,-0.9250508824912828,-4.779089931983459,-3.7077507343854617,-0.7174336344745198,-8.439720223923349,-4.976909069176913,-9.882479985060817,-5.24291876582025,1.3962777349761861,-3.075402888989952,-4.350002559540596,10.154426268455541,-8.05916592576318,-2.626807210724603,2.549290776717485,10.222977854541039,5.127726412129066,-0.36357299266264553,4.601936437590239,-6.656086540879831,5.728789751473057,-12.577250820944615,-6.97157486708699,-4.202996233665507,2.4690472382543964,1.4087271129413064,5.798344525256057,-3.278255280300204,-5.468765721059756,4.566393305207176,7.101147034146281,0.4029378429190238,-0.18745879416074068,5.649847654485162,-9.721777282515477,-20.013418981994906,3.216077855266741,6.509837258774177,-3.879353754213774],"intercept":3.407474138375164}