{"type":"sparse perceptron","classifications":["NEGATIVE","POSITIVE"],"weights":[0.0,-11.235611735699075,-11.235611735699075,0.0,-5.016911823897927,19.409572342092055,-37.34361599594734,6.851881781048594,6.65914944569517,11.435322838068666,-3.721626310525834,13.275845311001337,-0.1603588537095204,29.66630623263314,1.1493897072772008,-8.736500668808938,-12.362353280965161,-4.623148079023397,-5.757189184188129,14.099760006779793,1.452608434574828,-5.289978739114398,-8.962685674960799,8.561566997698355,-15.488346484954844,31.110987400664833,2.7407391502220455,4.6871282547221425,-14.155945195590252,5.6944931951188344,-5.756321931761381,-5.803687326674089,-8.359391888988286,9.864438775330449,-11.785133014539824,1.9807391270126569,-4.2295974823496705,3.599604948614903,-3.4232011480675544,-12.241192141438177,-6.90466303882654,3.632451477335026,-9.403048003258617,1.9988030227266063,5.226966716430397,26.304756672664784,9.326457574317724,3.0615374519768093,-7.1289389093650115,2.8617147481434597,-9.19344860281612,16.953617745635015,15.94716588120593,15.152012813783541,20.8338118832845,5.744209328650045,1.7052105011968517,-9.332842201613166,-5.953027586396761,-4.841619928295975,-5.0215108789723,9.340636774351253,-16.907081336450037,-12.214762192261238,-18.670093317680585,2.422000992759882,-12.39334143337669,13.315682782615205,5.058990322134366,-9.760982884354778,11.341827067250144,-1.7544101419752247,-9.465977920142176,7.473231095292342,-5.392511933114376,1.1660611485411685,-0.4518544617380308,-10.544523258927562,-27.341539708358976,-1.4061674811301312,7.511629680484022,-10.020755105144813,-1.8507058027813383,10.014354294765264,11.177006492227791,20.210540932202992,5.564880943389051,30.819833358046175,-3.763361358328858,1.3469240138742444,-3.7185813839165824,30.687173256415907,-6.821382356877782,11.10530265807794,10.575095559600333,-5.873707926653378,-1.4402279206279083,-12.958278503785237,-0.6058209249638231,-10.131118865695118,-0.350474139263963,-12.980911288151228,12.241905557237924,0.8019395834421068,0.17776082206888094,-5.335499447701545,-1.9782424120950106,-10.55450162823844,12.17449839233876,-11.975957550251458,25.68852956934039,-8.362121848737685,-12.898234294462135,-7.149249074651196,-4.967834255989541,7.1013087814652724,14.64658500307448,5.633570885726584,35.78487276191079,9.188147516280964,-5.023708490550482,8.042751520225936,-9.360569478695783,6.047860407179822,-8.854299908608152,-0.1733633068552655,9.926655956833963,-6.934555606602785,-5.595067663788904,-3.2042841613167226,15.449140869513842,20.110335235789226,-6.75068489862128,11.835924692656228,20.28192934356368,-2.48158541391766,-2.3251462198102533,6.088100109650967,-10.724552513749279,-8.597161865276295,-6.457707357278742,-5.233504604061556,-10.361303075968296,-2.9980476159064917,14.415940201387548,2.865639580763128,-16.99982002437757,8.14575407057264,11.096806896894295,-7.7269120000215965,0.9860765858540971,-7.412130524264699,8.474909669769005,18.73274740340287,-8.026963547373644,13.966773567009847,-13.237174224892044,-2.684535230433453,23.81540360958194,1.6290563937311278,7.264988348105049,3.252445910215952,3.736694719819105,5.303192792820566,-38.59088714914562,10.770219162420313,10.911245959723766,-9.277843838340864,-13.134331556437445,-14.282024956218693,-13.83263137596029,8.997181503127607,-12.638825333859529,1.7583020044675484,4.451291612673442,-5.754652587281794,26.933084231949625,14.322142519925636,30.903457356426166,11.291807406490998,-32.202814836405494,13.356102156229683,39.57253664775502,20.44950684913167,-1.902830207202513,3.4629301797481093,-29.633382203219387,-8.415597533745826,26.994596948144267,4.125035697645023,-2.202757547332196,-27.51803104297919,10.114020498020636,-2.0478791897836066,19.694833634849793,-13.695660137016363,-9.952974092957016,23.387216603899848,-4.005221330306394,32.04689168927708,-1.032992952756904,20.545422452018208,-11.896302873575527,15.789452839808995,-17.065026447039937,15.758341484146092,1.239469482986393,-9.310709207985491,-8.841243479708568,-2.1755045313392984,28.440561957912877,0.14569446678887832,10.787185803540984,-1.383468916083402,2.660515165285896,16.649664164686445,-6.996130531656129,-21.99992697767086,-19.634538115373278,27.4519752297382,-15.555447868118344,-16.255216105467856,-30.09596581778391,2.6106439360681777,1.850204374413728,-17.25622185413515,5.776192993525015,34.05261717934931,-10.441487688952042,-33.96637878294914,15.960236817094891,-9.383686559581536,2.6956000161328646,-23.374311318251134,-59.96103794133217,-7.318391818923006,-1.1432758003492811,24.788985067795974,-29.100720958728747,17.604199329858037,-10.616004006510936,-15.868941979495796,5.974116739756691,-23.042245865837124,-13.637364582649093,-3.1924324290117343,4.061876685942042,-6.8674649636488825,4.0661815107269925,-110.4048144330721,-2.868388718122163,20.33553206991082,2.0824245797690275,51.516643601658444,21.720651802005104,-10.032082897924889,6.885952810911828,-1.1604447001218077,6.904426431213041,25.44603126207032,9.223583691720872,-24.81925665756651,19.416539535317455,4.378401528464801,-9.950787803938448,36.37396095289963,-2.3052613089890275,-0.3287865661843456,-34.36648129768525,-6.299841570452102,25.634545992864265,-2.62052401218101,17.306470142848216,12.091619412344633,-4.2468235602045254,12.350839536289733,6.711251822790614,8.065417043487674,-37.01002998944111,8.512974140326802,11.379206803084573,2.3910332103767424,-24.740617036456502,31.785463169740854,12.067716972682675,-6.487940386674068,-40.921890767468746,14.789358652451067,18.87174631970484,-2.969732288509445,17.517251893918612,2.6854964321703534,15.179675692608932,-14.890873212809133,-22.186405215286815,8.481906538474938,26.665949578181767,11.040006720377415,6.283878037679136,7.958022262311552,-46.703227433198975,19.50891501563127,-52.14644317139297,31.977641767628434,-1.6275893507393977,-20.195195846880015,6.6534264442202975,22.899176623990627,0.38518767762353556,-11.468476142060965,4.175481084882069,0.14177344956280033,-6.111781787379106,28.49776759507313,-17.148893942586454,-17.87004114463734,-0.6779527737705175,-6.858778627803349,-7.289510603669522,5.179025713566035,-24.856806707850314,91.50383654966946,11.4051900837445,2.506680678355382,2.9666064870049995,7.6378610329496786,1.8494557653683292,10.247492444795341,14.614834562775993,18.20753993732092,14.041043133177935,-18.593774346631438,-6.436252828076218,-18.383800674602952,1.880600135951059,-3.4505254550681945,1.2554260556237973,-17.28515052964481,-68.03358197817406,1.7940686532083499,-19.401745318006245,5.944291705866842,1.7538803724519507,22.886465032068326,9.35072058320516,-10.239063063484588,-13.640433297426867,19.351021583110718,5.270881035923703,17.58127853058355,-0.43878052883021634,-0.8861609350424237,-4.946117675794541,10.549441784894736,34.44444301239769,17.787399756890196,20.493056842815218,-53.801856569649274,10.769884383993633,-5.696196260134639,-12.385901706946818,13.161956197159219,-8.206412191427958,5.701235008741747,-14.42197351224134,4.778534841409126,-14.861290325858107,45.28388256146702,2.5424242238121604,17.817531842745982,-23.427594775476884,28.384832943385895,18.93707700818461,-83.22493699086274,-12.775230514633748,6.965650532312358,-28.57957014066255,14.625313184998205,-15.796871546535172,-48.47324270738449,7.7470592886169145,-11.585920886732952,5.973686371244115,0.09619972547595372,-15.59046941661555,19.573995604182915,10.362773026374413,10.131516173053768,-22.676764408914266,24.721294717631345,7.108547227231554,-2.086454968830427,11.636319732356172,7.9886862278537665,-93.87339778389803,21.093840158712318,15.625717607696355,-3.561570630342837,7.719267212198253,-19.529134250380284,46.31085536083007,34.35359187932,-4.31106696563263,5.234977446390249,49.30938624620751,6.276935598204056,17.622545822953313,-0.29041598058442253,-8.733328834549763,12.495313191459827,1.1503756582052151,-6.909906504448088,-6.172567126655879,6.838317580565358,-32.43500751199525,-16.154486597406848,-6.656229671612261,4.638854837901772,5.411945234648142,4.876681901456141,-21.66662017906454,-4.425202497720451,6.088887234208131,38.105934654960926,-30.237871438941628,-4.172108355722366,-21.924244547898113,-4.551655152375741,-8.782588474605374,12.870464614187043,4.500367038167621,-9.00950115255455,-36.025080092220584,-50.25208903840289,8.967825949849384,6.860844515392195,-29.81319417901781,-97.17287193987052,9.076064821935692,-18.06922250225141,17.48577801149653,-13.273359880939308,29.27241110131073,-19.81563539493556,36.66721029406084,34.72577630931696,5.893697601739541,10.013411465791688,-32.074480662932196,-24.67408889317399,3.650733983227712,-1.0957268336726562,8.919856001948906,7.472335903051135,5.349080443732146,-35.11179870373971,6.010507808225525,5.221574511304758,-7.921915716780791,-13.5051236075792,21.952994882270502,-6.90501518545885,-3.151183447512571,-18.207152815128783,-6.708947263884278,2.698671450498016,2.659331005371728,9.5971234578531,-3.388960041831936,29.719066872618193,-67.62252787788661,3.2762876514626442,-27.21720537258173,-18.646969450380904,-20.766140427007173,-24.616557947365518,-15.430582400904902,-9.537765581262455,11.88921385645682,7.323160688921681,63.589515611088615,-13.449307396230333,-29.930456743190305,50.152149564959295,7.228884734626776,-44.50765065696757,-3.2406469060325738,-12.220549397523875,-16.73750449439829,16.46195509670347,-10.374283795873108,-6.176527712613992,2.438560470588376,17.516491872185696,13.967549627943729,24.968373351661118,-12.557170817990295,-44.320894657525706,13.210067664742365,9.840159555339712,-24.562867688117027,23.699633866870787,10.545266581739345,-6.011716911753352,-7.401194500280529,-18.51707614322151,-24.100409631983727,29.15726727474093,-2.519428468238584,-5.941648495881619,64.86929088687056,-44.62314565834082,25.35606756808379,1.0398126231972178,38.64360234879002,20.513946931801133,-15.9158122777372,4.882629934853302,-1.761176907223381,8.278999988671558,-13.203987482003251,-7.556048255515262,-3.5762203778631783,22.48775892256766,-6.349484076654697,6.50538651143008,-1.367731143993905,-14.866190307462519,4.939950628968959,32.92000091265832,45.956604289004126,26.61010511942112,-24.8638220762249,-2.4712749517280614,30.276607378374116,26.43834294276026,-12.237993762210605,-11.68223378109791,-26.746286439516364,12.816168050937332,0.4195826737651547,-3.2395824039402648,-34.46573351927564,-8.799089993415691,-2.520591970447283,33.26049557308499,-20.171708029725075,7.134294564958763,-0.6738773282747493,-18.709014717369076,-18.704341095660656,16.902771532877384,-7.731588655350776,-5.084726397433754,-20.904760990224904,-18.3863943847293,25.889496325669057,13.27456194934087,-2.586721655325809,10.741386500308758,-24.58676939632772,-11.757332693444171,-38.64532421006595,9.3746357560876,-12.413831311105067,-10.996972246394709,-4.149836191365871,-7.091632586195806,6.574365236994963,-32.837904506693725,9.89791306307462,-12.410244494267195,23.491224097227278,-21.63075754652084,-7.315326372963917,2.2754606597578753,0.4195851171701548,-15.027710845959168,-48.42060360537704,-28.97458947374811,6.416977323287063,6.621730422651679,-16.28913784425102,-22.33261365890529,-8.078234739138955,-3.1161699155187352,-10.722003276926406,-1.213177339126759,55.98370516336925,-32.598069903899585,-29.75113410832837,-5.980298375582332,4.785385752081867,14.899014393678303,-40.508318963173984,-58.907295689095626,-37.94295738600321,-21.258416369445634,-41.15048446552485,-39.64531206230865,-16.283633388955458,-14.447410099666124,-10.4679903864862,26.850598805890016,8.518340777864168,-0.5134295863361066,54.13621040627916,-59.19737991041068,-27.145043871355075,-8.755856396119789,-1.123179157482292,-7.929939185375896,31.11917391293648,-11.476393702411622,-1.1019962787261528,30.0439276681406,-55.886166007405336,32.439101330421906,37.475790570132844,-36.89293780330896,-11.68781410314948,2.928711627779236,0.8453089628180531,-3.3576821972624358,-14.94908338945003,-13.63086192111994,3.9757201667552704,-2.319337908508926,-23.108753499193064,5.445605310026609,-23.264410402625714,17.87196184794314,-7.978894416884702,-10.29253860729116,3.186285551334585,28.838845179716188,17.1494359080574,-29.72480099548432,5.808996631461513,31.9437038872135,16.900971668753606,-4.511198781053751,16.452964519592946,3.2315170643453865,-3.4398208242466484,-29.164507059211854,54.323614710798346,-49.81484853487037,-21.194721277789412,6.117080901507044,28.892842105052825,11.97392792958472,20.706734430169366,15.437125850653015,10.6505324962504,-13.574724612234023,11.71128184216792,9.308824128986103,14.773990238783645,6.462722755324605,7.13562458864324,6.245077231389971,-27.100462849739817,-14.615346344139466,-12.188050239378315,-11.810709952736389,-14.420799133376361,19.551741034026904,9.313212406021446,-48.8887784458831,10.408948349566751,10.262958587664086,9.192314802948168,-21.606965516971773,22.567732890553128,-24.11253591863193,-29.332857944852506,9.064879342226309,25.93874329776688,1.3968450503089755,-12.638458944867596,25.20584329523262,-6.614023041669893,-4.107774507249944,-24.472156282459906,-49.744458601702824,-8.168067496029433,19.6560114628794,26.310716122443218,-1.6669771487186729,-9.449939411327527,-54.15819910836826,38.27535468884676,59.229734499258605,42.69278194120139,20.633661495795156,36.40818979946136,-18.78669903804486,3.2870749413648293,-26.64393137851504,14.468911861083535,-41.055091605986824,22.005813319422895,-19.9152858745795,14.945077391058083,-5.7983023993860385,-18.168798995147448,1.0685086982057446,8.606526241085964,41.35616326875719,-30.041409681231876,20.664629001112154,44.25457236286803,-18.380241438078063,51.395688716331264,34.261828479354186,19.371975561592524,8.576706653126665,31.635060602601623,-5.401924678309257,3.2644275238296614,4.594037964415198,-48.92422981119773,6.114991357884444,-17.495448702698425,7.89436236352516,-16.61354760417689,-24.153182320381152,19.573467827099922,23.33064285432157,6.193593897438236,23.76859074686912,-3.409912391995412,-9.328442183068752,-26.297492972112554,45.62983956105512,27.90239310076536,39.25686094511059,10.800667648871144,-36.97438502939776,8.001235877304119,-23.35123051953181,-13.948714163157096,-8.652495735463216,27.86564640375934,10.394698582370513,-24.734153584423147,-15.278158488075784,-35.97946223696879,5.830660723178061,4.19398526150768,4.331886744664816,59.903298315431975,-63.554179741318855,-5.582588689665087,8.034319596136656,19.392810045684975,15.998141278158002,-19.623794753931225,22.200089443671796,-27.267956567686273,13.351255123538712,2.13880582328183,-21.409096772713426,40.97571345362923,38.55887700407918,14.850026576743844,-6.681126836975905,18.09711221368038,-27.245490801202344,67.455968225983,5.5104293251073395,-36.87909567951638,-18.190677673576022,-6.8118801465041745,11.782369072516488,54.349978464542694,22.126528716869892,7.708084154442044,-40.91485830195413,-18.06768888433902,-24.545544235595102,27.41210410409633,17.013943679790604,14.682357816490825,37.50534179497825,-8.098750478117587,2.2362952873518016,-15.532001813028462,-28.9755607071713,32.870786383641416,-30.82823221382479,5.268213678980702,15.617451627260337,-4.43568153332677,33.273524535417856,-31.237723514547397,-17.608370801485165,-56.987248144435654,0.22946081068919646,-2.221896624841196,-0.37004414054496504,-12.989223004382312,-39.83366125105088,64.48406597871693,-48.626550110870454,-19.243840169236087,29.033587333512504,10.40849410454405,-29.74509848126459,0.8925532614450571,18.530635714265223,9.24893474818421,-13.375725656060837,-12.653060103511532,-20.241890623865874,14.932073663777247,6.937431618607142,30.141110427810897,-1.5477138011982867,-7.506513427379215,61.09702373444487,-2.9040756983966105,-16.344609666430546,-8.894300102998864,24.759661726774446,23.276406353049605,-24.414755262922643,3.1585415027078296,31.127215100591084,-10.43654008664491,-19.009464313444518,-19.6944061056006,38.806409148906205,21.93376092427694,-63.07027552331741,-21.247444927545107,10.514323461529004,4.721135794234187,19.597138407839914,-0.4947801633224882,10.781832263145482,-21.45572950465699,1.9416389544898014,-6.430039296823162,-11.814880604717978,5.03576605930672,10.459418250908879,-34.086288225889135,28.679755208096392,24.711086083581492,-22.904586066613568,8.922130156380147,-20.165055395358195,-9.500098551273009,5.9273551099002235,17.666307518879805,4.883689670549341,-0.18504182992305301,28.367150107148113,-8.112776810953468,-1.1676222119512318,-52.53356714574619,-41.5538806197811,-35.16620159187849,3.0597242916461806,58.85226587144723,20.317566116764688,8.048697124896126,-26.385727800295694,-7.644215466231581,18.473418058340222,-12.738894551539197,-14.292711348996571,-2.515605998391125,-1.9591148679533392,39.5618602739313,36.07803813946987,37.55968595041604,5.301531445505403,-28.602400841560133,-13.598207942095744,-27.590062023045768,30.382575589704885,-23.13507018225313,11.33166455397375,-2.082621739662205,3.9993998550732845,5.017689532789399,-15.093223854180833,1.138252230785834,16.332765956120475,-9.600864581331253,15.384875752558383,-58.76266698283406,-4.851625100862948,4.216802236836939,54.123367553117895,-8.670845169073882,-54.609448525799536,-40.42745742016883,-8.602344752286202,-25.890430298679586,8.609110707639381,-0.764507149710809,8.285745750479954,17.295167756893104,40.88237529702137,28.01586581172182,3.5128675324204126,-8.096198116817506,53.697128144410044,-23.483195941009292,-66.88662196816665,28.61761897470477,-11.13309802407953,-0.5864266258526961,16.89602797284477,-13.4678930621668,-23.386254212192608,-20.442008186173453,10.488682227853081,7.420708633922059,5.817595236573156,-16.281821011338806,23.939376597539006,40.59266919284206,-32.96050767715238,27.412750401329205,-45.90841698062206,-9.903485747342728,11.927739305112993,-7.89813167371659,10.425252690461255,-33.90056336542989,-7.744762556425087,33.656993713924045,-8.468513828129552,-24.031188401763238,16.25198883630552,24.554299940293966,32.92432007756263,-9.668584252894647,-12.684687191356268,6.262931960453612,3.4324009622188476,0.1471496739566966,-53.58057891973851,31.120117196363733,-22.575569276918102,36.7484865757297,-16.254733559507542,-34.98929166389413,4.378854286735725,-6.424231084177425,15.240424100298776,-4.302116797608829,-29.98718687760221,7.490991205166007,5.1957399036343705,-3.562235793334737,3.0989182715655197,-27.382767446596205,16.340233001286823,-14.53924712361594,-3.6959940914502076,19.651797470993486,0.3128963071835108,-11.666876304743779,-64.52595709839734,-29.49136959227531,21.430836494744902,-49.89423594663012,18.406506688771053,-22.538460936082355,-24.327064681739515,-1.9698491806390261,-8.107393370922855,-12.956933964680893,13.21180989295209,-1.6111359126006064,-27.704322704811883,-6.813921330144308,21.716324437188252,9.891796316511448,-11.511411877783777,-18.48462328328076,32.63969247349421,0.8737574029966242,16.766463512314445,-11.764505319794145,13.534082640977617,-32.32550529273017,-11.2449802405888,23.908786506067635,12.034303269146651,-39.547734382558616,16.52344151125967,17.80799561600382,7.069568487560761],"intercept":-11.235611735699075}