{"type":"sparse perceptron","classifications":["NEGATIVE","POSITIVE"],"weights":[0.0,1.6501005409369998,1.6501005409369998,0.0,3.3086995801679224,7.0717123517669,-16.616360725278764,-1.3250510267839535,10.612881724392096,7.474404462803694,-2.2189806844652873,-4.379920000760698,2.5832859498199645,6.665328475377507,-7.723086947973663,1.055717773401228,2.4547436979434267,0.931907230977167,5.603431433735562,5.228361917428815,-0.1423539965032697,0.009208578043278348,-0.18045057831750722,0.43162636129157533,0.41902760588428595,2.3545349861965295,-2.052809072922395,-0.5457555543230741,1.458898510551942,7.145608317103508,1.0798649607475377,-0.11235913216276344,-2.091956470349569,0.7964586983145217,-1.3798452571191238,2.186446513710804,3.245378067039597,-5.797480242477987,-1.6577738185866298,-1.3915964620992756,3.295896973617707,3.3585005451110477,-2.843487559054692,-5.921343898988807,-0.6392645405393034,4.877335873425997,2.1776818752916176,1.0383667342213672,-5.574571926612876,4.785835087866977,-0.8775990215429113,-2.410055229963091,6.407335953578511,-4.237359325455869,0.7691542852715646,-1.2408656076357245,-1.6658732332089126,-5.256076218988859,8.794181820650849,-11.234734054333238,2.577707272419288,2.1351945133258523,-6.992535330416478,0.742226184505451,-5.09623797597825,-2.4927895747492768,6.114348001036348,6.206323955975411,-5.405784506294794,4.341661638260606,-6.393903435318822,-7.030520491939571,0.37420521399338263,4.241183573729922,4.094558890353937,1.7998602787980769,-4.00541623587106,-5.606963176281984,-11.525249946102143,3.819835675884328,3.479614654112788,-2.3682716709405773,6.45547656695291,-2.0866618568442843,1.4210554641771393,-10.871930956555465,9.153364654168296,15.220517732939067,0.5682555233829015,-1.1764333440300696,0.7156899844076738,4.0337057390055815,1.798558792093484,9.09425493674687,-4.161595119233386,-4.201469717324154,-3.018200229257573,-2.119634625054845,1.1751746454514125,-10.1536223059088,-1.983101324379926,-3.88284698006283,-10.332846924446253,-6.118491146812662,-2.440338305605282,-10.00768476933853,2.4678259775400617,6.286821029400776,2.6626899808729965,-3.647919288447972,11.2278495816333,-1.611986694448564,-7.421985326125263,5.39680945535242,-11.697737283390692,1.854481514767298,11.43511494169266,6.039298754133,9.146295109183939,2.6806894783720927,-2.607558343069694,-4.289087986509356,1.732721893348901,-6.8746074384416085,4.250944867651382,-2.629474150371463,5.740035237432616,-3.100026775996306,-6.068586598974765,-3.2890157487254794,7.096413443841333,2.0851682757105405,1.3502877240932727,2.2040395509117268,0.7412511619675364,1.362898921009771,4.970394590602376,5.61682512279391,0.6257197326951416,-7.476903480805488,-1.8269732897990192,-1.977003905886708,-8.58377085802257,-5.670698841929386,-2.8716337500246154,11.801977465022713,-9.042899703708109,-0.010501273208831596,4.37057368370539,4.768051497622612,-3.5094512933271345,5.202943024301843,-0.6265302478628307,2.341186514148073,-4.377306897316444,5.8709221715836675,-10.605839085068315,5.544021822373555,-1.4855572322331785,4.759122625865979,-2.8894123675180303,-1.1501471961186374,3.7461810677693714,-2.6900815959002546,-0.996741727294302,4.520366068848237,11.146597993430952,-3.58855739444005,-5.0812261812626165,-2.7419922024850583,1.5182644856632783,-4.389788935229687,-7.937407908217139,-6.379697601001014,-3.6707336537242745,-3.103445342151821,11.87862645746966,5.531424682984558,10.141321573798129,5.727379859506523,2.21267108079517,-0.410833867876112,2.415105433122975,2.9685785000310236,-4.593321005558492,1.5532966910618653,-13.199444943628775,-1.064314272834451,8.939256732394094,-4.693320018662088,-10.364051270431808,-2.145444156320043,5.021006040493357,8.791388581967016,-5.484722402880669,1.3300480153930838,4.366795147618959,9.850296932588689,6.6907906907512436,7.995387847791007,-4.3233170260571825,19.317007191027606,-11.503502138096579,25.06031465625704,-14.108715442640998,1.2200377758480427,-10.284488191575807,4.161603594185562,-1.4243709876393413,-2.61231355510717,3.453111220723371,5.969221330744818,9.803140651625629,4.868627958179308,8.87153939394875,9.517648552371123,-0.6694229770192479,-1.4245692122562796,-6.960467635421876,7.615488437238759,11.797195693399328,-7.518878324245047,-9.725795277792423,-0.3480855522614855,-2.154762460612754,-0.9425240690465757,-4.557087519782807,18.68042876470359,2.430551852876778,-15.901341552889205,0.22157769813229827,4.125173585781057,-0.7801950691481226,-0.9831836495548767,-11.932682234647933,-3.5240022726584894,6.0531234072791245,-23.24942995852744,2.1542709953354358,0.44821244574593067,-0.6449041455627058,-16.252013933418667,7.362192835470605,-17.342620981053784,-12.840141750268298,-4.193040981671102,-6.645315538488547,1.1801813025870667,0.25955765490971205,-48.382539977456844,6.321647413177238,6.081694792532243,-2.3824700964991994,31.63691361453099,1.0899485095634498,3.6150747956965406,6.198684293269762,-3.965282345467073,-8.706821102240966,0.628029273070686,15.448417347066577,-4.177998517004672,8.714375189900807,-11.341972112653684,-13.7206256627118,-4.760300971784906,-5.613305354315728,0.3742939797764722,-20.041186649762984,3.458577528632296,-2.428478885028679,7.496105520385043,-16.507327626998745,-8.273502858403695,3.572946848750665,4.7511459461104995,15.068130098791423,5.8007078627360595,-16.920937398429906,-8.603248074082128,-3.4154968510973345,-15.669458322837931,-15.948973617277327,11.13809491017159,3.185620477618679,-1.9764846740406667,-13.349494971873597,12.757458082299193,4.910930841945058,-12.791586036102595,3.8244208696394706,-15.02387977439478,10.808738223383196,1.60116431234048,-1.440519248313639,6.001615732514891,3.025669565672029,-5.183190706874483,12.488650342902474,2.720240917180535,-12.741146052792617,9.52175295881718,-7.704395888040853,1.2745689846655088,8.12734217878852,-6.5116319097391315,-9.607730264182399,4.670162415940462,1.2510262562932226,16.162218035593188,1.2939398612775421,-4.758475064560312,3.1980632656014665,21.819652100343042,-6.103878523658581,-0.6985520637449023,20.313125636801562,-14.56627707366092,22.146454309561484,20.532445705149886,5.293327193285239,37.48804347112585,-3.6360171216882176,8.042597999929368,15.207995652828492,20.975824362516004,-19.305150352916787,8.949113296220768,-4.87888141913864,-2.4626408685491525,8.216209342976601,12.456400059220819,-10.359075571304642,2.0610993265574136,-14.859346858462347,6.956180568699592,13.603593556566112,3.249507626475577,-49.6700218930417,7.836156842733511,-25.36892592478436,-16.301517022739876,0.4021807687896373,7.654231779354286,7.512889443431681,-23.32791296393007,-5.403488351566394,-3.903371403451896,-11.487501900303453,0.4017293081974719,-7.684609909512243,-5.16302446451576,14.24133876812991,-6.196753255016226,17.000399707459962,-23.024926095838072,7.39759212601713,-33.98965452750736,1.588700120019964,3.3665087304622228,-28.451364590091178,-6.611207640256177,-9.975903245473928,16.44146093034477,0.39348215883833043,-25.609031539056986,12.890150764090066,26.7741134562843,12.435457713142501,0.01625875164258861,-17.163723699543223,-1.2419065065739894,5.8396704228369725,-33.2150058152856,3.8999701158886704,-2.307887856070763,12.147023276635663,4.6974396798673865,-12.06461337282979,-16.54599788740539,-15.84998768331094,7.55550451822552,15.464703710480606,-19.976248476998407,-6.857817917809669,15.209548170252623,-5.835714505198324,-21.75707572360884,4.189761947339587,15.316408337035913,-1.8065641474627427,4.23644576256192,-26.159786698309816,8.342176737996434,-34.754760928510784,0.6680557414114285,-11.010629405727439,10.227946097802105,23.77513572782899,-2.718852709179193,17.599513983725135,6.529440308134688,10.863135323215904,-8.65558464181161,46.775176066264784,6.470444912944922,27.903277871532335,18.47074933290041,25.15310988239266,18.252490071196704,10.360236412565744,13.989194708254061,3.0989825515602694,22.24870425464775,-9.590290436464933,2.88263312735131,-8.800706889707815,-10.311159140443829,-8.028484527854838,2.0785526181533216,-3.4221273021032297,0.36870583453392547,14.048536348965223,15.819403950696346,-27.133566516085303,7.683101805895513,11.998702746024112,-8.250410687491236,-13.407978870467163,-1.6279906527984538,-1.6281114980838651,-5.929803084464122,-18.554769418782158,-15.517921133163117,7.962017535703894,7.039338266535561,2.0007160539055153,-31.727261950779596,15.671654807111322,-17.894730107585485,2.799717108498132,16.358297508984087,9.617212423872592,-3.9157997303414875,32.38814515532252,-11.579923967250632,5.627760913510598,3.83346688294255,-6.242840926483462,-24.54897539142478,-8.71037179987585,6.587448635715641,-26.57031381879159,-6.542229925546021,-2.386835416599869,-11.015210208898566,22.915904197687052,-3.9816890790191617,-11.934623045516654,-20.152076340120665,0.8219835379886151,-7.718283486950064,-15.908686212042879,5.616647170783176,-13.451419047156792,6.483261267941652,1.1504471110258334,9.119502939558696,2.099579147582218,9.554307224637784,-19.745036730454636,-10.07394966863934,-19.967954543509254,-9.182226189974443,2.335108235023134,-21.80677739835557,-10.28279663210571,2.2274674629121343,5.674794545405255,5.807244087670723,45.351548785536075,-5.732508258303437,-15.198421969551925,9.35351457619154,-9.42105683079038,-10.61713209097285,3.5507832778083035,-3.1960558589608783,-24.204544201791606,17.18693802746042,8.524520233325546,-4.599605527991451,5.745065780055562,12.726513210206733,26.950303481386634,16.654158192127444,-8.523006846730267,-8.473514308600581,2.127369628088357,3.3982299712665567,21.947737178763703,9.211488297138255,-10.284326799630918,8.875558641513114,-15.256480518340627,8.056692320257964,-3.633504137899759,4.670687324635823,-2.9076922690948535,-19.212596736597575,33.684416433745035,-11.528078093049023,17.361980733192617,17.51328296842711,30.431952632094905,14.668132600615516,15.94560274278293,4.077314378545718,-4.518195737979315,-16.060586222324783,-5.401238102014603,-20.58223420075765,-9.478885682173026,-2.8256316866895212,9.989298937757882,5.826370769699464,-13.758185650973687,-29.345253503740913,19.502317663032915,7.5089842435018985,31.387652870210733,4.965017774155983,-20.47206065406497,-11.628484428402544,-0.5653383677249637,4.583149355341631,-6.8519320577336025,-3.0704363346974044,1.8115541315924713,-8.04255893974976,-2.674435735808763,4.264265675834977,-17.20651670750087,33.400635375879894,-12.373680587374428,47.87787886237615,7.298656059115979,6.3188570068447625,3.2183698633797073,-28.03257937141296,3.759180531299725,18.08948443818286,10.307540627639378,3.15897814180024,-22.551327920190523,-5.017330758157369,6.382630158047998,-6.326564170664751,-16.89326354907114,-11.961625395417206,-3.3669769723654412,6.762219159469458,-6.841587713976017,-5.5595759449916144,-1.7032875898058597,4.971056088939523,-5.409211080203188,-6.2268349691256475,-6.8529103589165326,25.54400650767506,-1.067469698112761,14.995567466640559,-2.93273472709403,-7.299334838022305,-20.599880949152052,-21.147204652928046,7.440712160632486,27.242412206922694,-22.85077970043939,6.412763112892526,-3.741987984582387,31.386814503376957,-9.213169895081005,-10.248388792965166,-17.340913196833075,-3.588040174581818,-8.332832803569403,3.9846796966974596,-13.184350811530948,-9.064023252397284,-3.179615897051933,7.418466777795248,17.06642976762838,10.360642197984498,-13.27809850836686,-31.833049550774792,-4.5532248072058366,-5.5609425676124715,-7.197943184694311,-20.62634581276393,-4.93586631875012,-2.6049658843039687,0.935876070710195,-3.373796820505445,1.821023250451023,10.949303520678951,36.98302889708756,-34.282896382352135,-20.596720483069664,-3.053887590465265,-18.757937773276694,-4.082949219767485,3.8390229897256063,-20.78400347049394,-14.204001014861555,-20.11293894600837,-31.606740317510834,6.260097541546742,5.738432089533984,-23.91147799895627,-1.6968022821198674,0.19294064303710406,-3.7771167058526487,5.6630708488645265,10.33546697084055,9.39232820345697,19.427189762243536,20.7215723083283,-11.383023609326862,3.089135391048018,-15.71517829470409,3.2250374931912145,3.178840094768837,5.466155433325191,-14.95008162244732,13.291341835598963,-6.500230707799303,-4.500243701983589,11.84275839298765,8.037298554722438,11.432661509864147,-8.693018368001397,22.576448931187304,14.489883741126102,0.8539704324957872,-21.317544905353454,22.88718645222133,-11.462532746982694,1.6600813834825363,27.814638589912043,-18.137425507894214,0.284935677673679,-7.938092161039973,51.82852606561835,5.264435564556909,0.8318405392344549,4.362176821086808,-25.687504732911815,12.857943239119404,-10.979741938668939,-7.948957130384231,14.859019231193734,-18.52423742162037,-1.758772376361392,-8.89428691016283,-19.402371656736303,-16.242791964439405,-10.148945736476088,-7.517582682781628,-1.8923252542433806,-14.804096549679462,0.7994237994720168,9.426469255727975,9.409275991565856,6.593721628410824,2.575889548750777,1.981604315190689,8.325783814981433,2.1765087961391427,22.679508660132875,-24.22639637514967,9.560962093435268,20.095963765683894,-16.926713725842756,-3.5758101362459525,-19.37228638677193,4.274398274547122,25.566898064658627,24.56740363088023,11.70726630573216,-8.10622518110691,-30.918980904743503,6.656934545319065,44.70841237252299,15.433413508244474,21.734572654126694,10.277766144556562,18.19017405750527,16.083708498358433,-1.8221136079315197,9.709392032475158,-2.396107262200678,18.35367935953371,-3.7381927511716238,-25.253092267061934,23.897212608352472,-32.74193964911706,-2.4159801367223275,11.582650609224038,36.919405372652996,-5.288925878600211,-6.336800591176483,11.820339989611481,0.07427645217716189,29.4495319876904,20.432901561442797,32.282275200033155,10.942744704779345,8.691633510801612,-11.199065582929304,8.102379220103936,-0.36313110436058343,-13.61175606288104,16.758593164774485,-0.41724832690237584,-6.9389660947503975,12.409958957727785,2.182086432404176,20.38317720613237,0.5849943125810853,-19.53992923843215,-0.10135936665121309,-1.9545406498225895,1.5143365389108827,-24.310790297000263,11.745042980585316,15.31416800547707,22.355990857997675,7.926010574589534,-15.620021911914902,9.359025583598289,12.385465198937455,8.225649669278864,14.682430937756688,4.665471973542616,-6.357479553261467,-1.5759581384365553,-15.745808445742519,9.260034710682223,-17.25811367203277,-3.8855092693110476,-6.700973433360483,-13.238463125911322,-33.84054296894389,-5.880281306040519,-4.100835154935868,19.925570728087813,13.79062200611695,-22.933437679034952,9.273860617638336,-3.0072322824162696,13.127022354136185,-4.050824293014973,7.479039390421004,18.90688245548174,25.285725368982266,13.331806306377056,-10.75919766026006,26.694072261925697,-10.937180641788949,32.04211012212441,-7.6969789513506095,-5.03980446568462,14.284805049258246,8.330628137378971,10.068931379398126,28.71611314099103,30.946939980393857,-0.9475038083187488,-4.520141268725787,-0.3347521672521641,-33.10679898367178,11.45751401320933,1.7757467023539375,2.8677348357778403,16.88490929203026,0.3117504097217713,24.019256536378148,-14.993582932876498,-12.32190233760888,10.297719840741125,-8.022173342818173,3.228264086742721,-5.112979816603533,-3.003138392793052,42.11866002856821,-7.304419450100123,-1.4422364902749192,-49.883643759773584,9.678414117933345,6.487785256569586,6.707279410654634,-7.344741887995717,-6.655192466340123,6.14593670677491,7.006000204541599,-20.459558468867336,-22.955296293453593,-16.77123248614792,-3.833316315891192,-8.408631641961986,14.029701405169943,-14.611631210645992,2.588281471351006,20.379076024411795,-18.980760501955903,10.91556566866792,-3.8514930157949547,20.907930743264252,-9.260532944470432,23.199344587801427,6.927387101086804,-2.956039254868947,18.96703222508439,2.5394422429188577,11.03978942194112,5.437968506873599,-31.63662840481738,14.087521380180483,4.556431765959637,-6.13256899300993,-9.852063991292304,-15.240166937615703,-4.087438783734074,-3.651962676672175,-53.03930979760824,-10.47393921415958,11.953005892937291,3.1504655455288617,10.665926591808631,-8.129227615795287,17.852885511064642,-17.98362995554326,-4.263814831257732,-6.5954298466695445,4.454994114608514,-9.185797385610842,-1.5751445528562114,-36.85155525620068,17.226683609647626,8.46355932867978,-33.28043927677695,-4.081295114080002,-8.644562068482012,-1.0090965721042289,-19.33714688552242,-6.804045625337183,26.500177512002924,-12.338018838897629,-8.85781730822326,18.248934029342603,-14.770385208838377,-46.52661117559822,-26.16388334874897,-14.152183545344407,8.798849012184968,-17.93184761126197,15.820164414988266,15.680877321184493,-19.743469994065055,-20.48155730117953,7.000295870646818,6.188217257997381,-17.241849441795196,-9.531557145538862,-6.598251300468097,10.453325420202457,10.641343126858912,18.363246681539458,12.055853575508959,3.350672432015915,-6.804556012379817,-18.880420801265963,6.669235718961493,26.957787463770078,3.5975310902514868,4.678402155930799,-5.120733552193649,-14.976974223892997,-13.478397979905258,3.2775418665122187,-4.381343440762761,2.014830133357521,28.960407776869705,-28.400227729214674,-10.358337193690911,3.3831263973246926,21.066976142152036,8.196432821962912,-34.24173356249437,-16.424006196084225,-8.924882069883283,-28.934814937336018,28.96587674272988,-8.831910467381201,-21.826247448007564,-3.4668544615398984,7.628430382421059,7.002883763741782,7.763864394396628,0.05530159451901334,2.6135941202229964,-7.024597712747998,-26.718745430529037,-18.600199609801596,-8.582335973463849,-23.636082151135902,20.093768049077173,-23.62379279547168,-26.57322069497732,-13.143207038608718,25.10358702711043,2.1107421302767935,-12.089977785664608,-12.0117897938218,4.335308242656176,16.920870420769695,5.230151340673041,9.460851704690825,-21.650053867379267,-17.204530485804597,16.702656073916607,-7.826295517911197,-10.104051044528047,-16.096194034785608,21.304689757246965,13.798073491177343,4.410995748135945,25.41388167322687,-13.505854412956701,-15.422039081239127,8.212776188810594,10.144341306869357,3.303531171029884,-27.063109662059635,3.4259942816484688,-20.877206051973708,-31.795515992722734,12.809722418209425,10.088649468257206,19.556383237720112,-5.993074475432664,1.1088970906245885,-14.129424702660282,-22.594000339794714,44.68580251422746,6.136131064714952,-3.5617846481397977,-2.528793436608331,-19.028415025336095,2.5066148616073454,9.987534616093702,-11.6300775628965,-6.052004929784835,-3.1242846851380803,7.66093756545497,-17.30341345970651,-18.092756005956765,-15.558796756530462,-27.174972839241452,-1.1039568516827512,3.819834793503752,4.007367063670795,-6.877544927629245,3.464318985132948,17.36124871523962,20.178851311090895,-8.496180277898478,-6.37897185853593,13.488797302061048,-3.0916602231703547,-2.3564165592460835,-28.318074282821684,11.828433006119477,6.140251715108148,2.377495086504328,-4.774166297325334,17.8310180762184,0.06992763365154314,-1.5054225236766625,9.70692162459961,25.31787014897364,-10.51732836702232,-11.98504203435264,42.000210816349686,-6.213408967945327,-16.75427809439881,1.788512639960235,14.54651029495259,6.379186514532282],"intercept":1.6501005409369998}