{"type":"sparse perceptron","classifications":["NEGATIVE","POSITIVE"],"weights":[0.0,-3.8164601859417058,-3.9354767822480277,0.0,18.634164153015952,4.443390942800068,-43.73264387445344,-1.763519894765599,22.014949165703953,27.409145254426257,-16.782971374253904,-12.773727549968806,3.4246016103127084,15.199554514816933,-22.488463102060603,4.000528973662248,2.139077111355677,-4.85885759581724,3.4607268751055056,-3.5934941927505366,1.3991831937781072,9.39376293080694,7.109631862776085,-4.306806851173208,-17.249317834910997,22.690253434107692,-5.431734034409599,-11.493470702268976,-4.964256990652187,13.386500963927613,-4.7416119837086965,-5.535104023162337,-0.8339760134913781,2.8330667789208293,0.22282720877006107,-4.925980850071929,7.22390199847431,-7.1460683069144535,-2.1354311794614866,4.53878879415143,7.083565507424968,-3.0858184820334524,7.08149061375812,-0.14377078511426736,1.6773037396894448,21.474967450936724,17.165316934316092,7.657018117195139,-20.328617208620564,0.17211629563424724,2.640217497742754,11.04731590048647,12.552534411782602,10.612395375024887,12.19668586291262,7.526887141490701,3.262382370834509,-6.433831858475847,-7.856587487549894,-8.724368321871202,-12.039442386866826,3.5207287025141256,-15.597652835655607,-19.326802362311277,-14.076622022564216,-2.248260844578729,-1.9439949288291811,8.734251787256248,7.031082460286616,-4.161899740573998,-0.18227492866592498,-0.7155661510630473,-6.205428532065582,16.53319516558873,-3.048076578028858,-4.927890698722552,-3.3934559568813984,-18.547179658358736,-26.775458425787846,-15.318358539573468,29.80127188530646,-8.95454824506289,-13.42603904832829,-4.4899080906547795,14.763270357598682,0.24481134225481788,13.736124996196828,26.45358311712905,-5.404310407096045,14.477245077672862,9.17587381312616,38.142469431221514,7.750551047431749,-2.8767369608901867,10.858108357163719,-37.18055894295638,-20.924685196286624,1.3360307542535486,-2.821956582950669,-16.365325513139148,-3.0452983930618873,-13.739579220762199,3.509293274302669,4.425620972157078,-2.240786623278321,1.0388717626402384,8.696114560071738,-8.76518491022568,-2.701735791482204,2.060346876877391,29.421593621451407,6.435030729230973,-6.744425531026307,9.274191218743034,-8.90073792080654,-0.48045812957081707,23.199605823547312,21.582605733482175,32.65172898798932,33.62415231696305,-21.65573486886499,-14.430067308242492,6.374817975664469,15.444645733589736,-6.130634682416486,-21.586224831390354,10.668674908188722,7.183744037360436,-13.529971146909627,-7.664603427364265,23.231958166954207,0.2932396613021444,1.2818585861517455,-7.911221547058445,19.81390886185826,2.5613945883481755,10.542656815690265,4.565908616837314,-12.633752073493605,-2.0210499595808793,-10.612289943636057,5.723752583354625,-6.735303540418294,0.10368003739971804,-8.725153019448982,31.55177873219669,-11.569909189956196,0.6918116305309245,15.062889678874317,5.114361879265448,9.699558349984539,5.80820050926461,7.000272958263162,21.878788538166976,-1.2375728261262844,11.429978383447521,-19.158259424043237,3.6560734720098793,21.92865689178463,-3.2177437336087444,8.26953729231642,14.336850037816486,1.7580362216903531,-3.5186917990577484,-36.83043461045145,5.229468614399228,17.761911113601315,-20.902981739651914,-13.703724097209477,0.3239939249634364,-1.2963849649889876,1.266260886632427,1.5908597863090208,-1.2195955480765541,9.938636291640975,-5.710729468226183,24.85857062721962,13.591353174981005,30.229457453416817,-1.3652449445698285,-30.998142438102956,4.025314377903439,24.166253265169807,6.50336971291294,-15.844142037792007,3.1270385834579386,-44.3558817291084,-18.009217290044457,41.32817013882576,-37.65912814933404,-13.562714154002629,-6.863165738086309,-19.67518972079079,-13.498555907777394,-19.43513421334709,-14.28284462368052,-12.197737396001928,18.373874334710745,-17.57914271233416,21.442768579869927,3.4523770274791796,39.35750387665362,0.8992256581435192,34.07964624420042,-18.15902831490237,28.463098960367805,20.498671776903134,-12.426383057552592,19.480065535550438,-19.363743315964644,20.97697492840006,7.584315618226971,13.255932623502046,-7.275011247771096,9.29176228484625,12.376008363989703,-23.31811228537569,-13.08670340649348,-26.768130557781358,21.413620862127598,24.732605617294187,-18.149359617387226,-30.96904061662161,-7.399446365516405,5.752855928792136,6.931237135634362,-18.541100363479742,42.704540157696016,21.26712228082209,-58.23418335693353,-3.4197852948719367,-4.502367650677112,-9.160340314697564,-23.65889449327225,-59.01642011935054,-16.59555643564167,-0.36712198909910854,15.873915450202205,18.30081775890868,4.376027363861624,-4.684194281619957,-42.238366657521155,21.833466834949633,-40.06122715129034,-27.520432174034294,2.391764453830879,-7.451228914386343,-13.248452071681251,-9.586095439350558,-118.35582219178279,0.6514612168423488,11.24148020107833,1.2270010195520127,61.420924421840986,34.2341358779998,-4.928547108775537,-3.9182409787366677,9.35877965429148,-10.778700394871787,-4.058027484598347,16.109080567598404,-36.83978757262112,41.00201684081269,-27.997781118665948,-34.525227610898455,11.570187120895158,-46.81435120080457,8.50798685857394,-24.584884556471376,-11.53003578496396,8.228148728874107,5.658385906156294,-29.897974727842453,40.71963895795285,0.7006474414987387,46.88823148321855,10.744600104332523,-9.030529345210548,-30.19510972876228,-6.101439683773433,1.2953376523412574,-25.50024520073997,-24.736787942751185,13.407305646796072,11.15599742931319,-4.053370588914873,-34.80059211394644,-14.764821462414453,33.28826692330042,-12.793960621685692,-4.438506094768514,1.9569675833485172,25.40944522618419,-33.101258140025244,-14.301233947614678,-36.29864114712775,34.91259449871542,-5.73287175222866,10.420809518175616,12.061814159797954,-30.428154261792656,21.601429474144783,-38.604172064766125,13.751261043834452,0.9886616516302484,-31.578752812916537,-19.60259550445305,7.163435997872818,-20.881666408900557,3.638844025327773,-22.861393945329063,9.923448022318677,4.881291044611629,31.626666054751215,-16.772858937148644,-4.319611149025876,28.747770437563847,32.061470363350615,12.696974566316067,8.112573037880283,-26.93953716952826,122.70846745077705,39.97474026059626,9.449987156126785,25.0810702020523,14.644719322020679,-31.53274439392061,37.45824379002384,-2.4096061145363152,15.35380685075453,25.32179414614045,-10.211881438153235,-7.5417775232524775,-34.846497976051644,18.666118689036768,45.38233057896195,-5.765852676142088,1.278516259642732,-79.02397669621188,-6.122450861541242,-29.89200856516507,24.074345770271513,8.270653977182132,18.561556051395083,-3.218493404450705,-40.28224710103429,-5.408091302177623,4.744302386767368,10.597817982983834,18.755969427054783,7.443337777499007,-20.347776143574375,11.059756282527182,7.126061796469299,48.65956707772032,-13.060969032720257,40.5943451457693,-51.21249057850367,27.023397383294252,-8.748209524727079,-27.709142024060913,12.572150646163433,-11.42367071884298,20.182068492534846,-27.178012914879595,-12.17755394079716,18.805798811597548,25.73554548683908,51.57496440364133,23.872148395768246,-30.910985766664684,28.68074204699522,27.337241396233786,-91.61099608654321,-1.6406982908807406,1.5851485679364128,28.07378263288231,16.211022682214825,-8.391227371431283,-61.166458490300926,-14.22879393255021,-24.430526567932887,29.879477361014747,-15.96265104800766,-39.45548524653839,-12.204970061081182,4.072408279511062,-25.983124315853637,-12.353418567162974,32.49119800882832,32.34799167621412,-30.428193999251334,6.166324628409695,-17.03770734421845,-68.90504065591828,9.034502078046092,15.698438402573286,-6.787087915097813,18.176247334122642,-27.695704602719506,23.211742224523235,34.46249153242351,-16.431656359063695,-18.906772758685953,84.78092287710045,2.7204962303510785,34.455127080019494,-2.163354418803712,37.44719590125228,-0.9510108099828891,15.778225744953964,2.9143407837435675,-10.461199645464973,3.0048150988399263,-21.700738150187114,10.426067296833471,-25.766296704283242,-20.55221296964484,-27.491744614800563,10.485871323963025,-8.79353562830401,8.334092917934749,44.40902640556546,29.42755248146907,-58.95374516973409,31.981274344729616,22.416436409956255,-21.123892861089093,2.515300512031416,57.778805861823336,-18.20500355902756,-8.630959160829557,-48.54469208503869,-28.538059772980805,-16.95324015606869,22.702239697680394,-39.918075384252674,-90.87440433845939,22.19019488913399,2.402157838964253,27.18430867414776,-30.46559216292726,-0.47138244909167715,12.484916777658126,72.4117015682475,25.720847030812426,-19.301084363039006,35.10973033895459,-36.859649534637434,-11.72190124819787,8.715231544505317,19.586067412882308,-22.276738795101505,12.343664839379334,7.491543528165987,-11.439855809646874,-10.858447838215579,0.09158207273750989,-27.347459262780628,-37.59870348880838,-20.987178204609027,0.9889150518171643,1.6461209413691757,33.89252268919436,-22.22641700474116,-29.68883217429903,9.591823689000647,11.347843944911679,-8.930787832414584,37.16907983218797,-19.35276228896826,-0.2015666377023002,-41.717094471695454,-40.284500114688015,35.06257835199378,3.857724961047441,-14.443472157265104,5.3518302589860145,32.635900296556486,15.632192358462092,52.847133555444664,-19.576314279017815,-25.31333555963781,30.61113081934584,-13.235756701456179,-17.017097406968308,-13.023307118436602,4.017643300963615,-20.2646139218716,13.392295163612832,9.754418099301141,-2.930528064026648,4.052801832271883,6.175289971484438,26.631456413667788,16.209005164601212,-14.622249501010605,-52.955217394459844,1.767658900392,-11.392811429502025,-23.696985864365818,22.42278951995765,-20.05001131858804,-10.806226757783737,-16.99307068191703,8.644169085606064,-5.347972311279492,-24.420580830067365,29.5489502029407,14.849963718129974,42.892247327357815,-3.5595900140469787,45.25945657446749,-11.654411245436133,30.077578878178848,26.499504154256083,4.427695116369478,-2.719762709672308,35.294249676149995,5.546169890525395,-14.407217796606714,-1.4619326388323146,-16.773063851721723,-2.8228184857953105,8.505133137606322,0.22704838913670577,-24.524344568794422,-50.93970716201431,11.483155093866614,10.832420571480512,42.11469422373121,0.11845357067408163,-25.691650298304058,-5.84605310331268,-17.15761742559095,18.293179521847662,9.198335907314066,2.176734880512877,0.377485489537564,35.329452042548354,7.08468437185071,8.14121974753654,-28.13852348201785,39.96421757121173,12.475702881095403,38.13280677125947,12.39724502635598,-22.767347521440456,32.72483644767333,-26.54861063678235,-25.853777730833116,-1.4900878190740805,1.3617208207505103,-24.151822736334804,-12.716167866730412,6.548617389222472,24.70472741916892,-13.507802707508011,-21.181877664695218,2.6209594630566864,4.184492616277672,23.879125961609276,-43.602824748071804,8.469122297132335,37.19735238764744,7.325758352786033,-45.12801630380961,-4.672150418304278,3.74697343311382,7.340208990565779,-6.3526701494882,4.313222826056403,-1.1512042335612074,-17.14851499923346,-15.862788701338644,-28.751693165546797,-24.123954721301953,5.381771914724683,-35.83091569821605,-3.7793142933384747,13.698444594141593,46.49347323291406,19.238506781873365,-19.930263662966457,-47.16690264824709,-18.406823525868727,-28.812159431808006,-3.876552574699181,-18.835929584708456,-11.03363377163248,-39.31736046988456,-31.18540785754474,17.871069436507316,2.55623315571616,-41.55423827836718,-83.6224654771734,-2.7777087595984047,-6.397527121460594,-50.5517151855255,-15.233609524526472,-14.344338486564226,0.8746166474733793,-11.991927506617936,35.396347704775394,-4.592452407504126,-22.886035045316113,61.782141417254486,-30.58352695805359,-30.12859490949659,-9.519966956738001,-23.406853517342977,-0.2614380861939909,39.19691917214031,-1.0739366781445523,-33.44979403243914,10.594420009875847,-55.184059121408865,3.320121608595433,35.8915393610103,-41.79305096345275,-15.867838937891422,11.355554079969234,-23.317112629128516,0.31828214610108196,5.663270893042381,-28.10853955191551,14.109202703973995,-0.46940457923760315,-20.613248895903354,12.721616467565601,-34.14275734790956,10.613675668926499,15.720333998059338,7.144958035318109,-9.365163300784298,31.8716685926804,11.289858967275734,-10.692722413712852,36.066108298466034,23.978476212091437,19.327347686795882,-5.774748134279429,38.27198236563533,7.389778828666006,-7.782740660144228,-3.714288003556558,25.33053869017296,-48.927527124223175,-10.627699665900204,41.310947631650095,-26.664055643374223,7.05514290727554,-5.633272518264752,4.441047549182128,9.10483532233347,-7.410822149554144,7.675827411165774,-28.08191124093267,37.853856493607644,-15.836691849611595,20.043525756639273,1.391276617596184,-32.113313263935424,31.80424825609693,-29.2887041276962,2.3952739009181583,-16.1165880977808,-8.263551382771157,-10.409424880133614,-22.46252989128824,30.789394454521908,19.30686215309246,22.28213836670562,-5.520030476846149,-7.206457474636887,-25.895518529584425,-27.490273641035675,15.216756060305519,6.941882498918655,8.736035391994703,3.107850789609355,9.230002967517228,17.942336466264507,-28.217351942212932,-5.491679123382803,-29.95288339940114,-0.6222862485477467,26.56523392345135,38.09701748020233,-1.8087570840789233,-29.431900487799787,-43.26512524643926,64.62993539650712,52.89274491262302,34.62861923635392,27.116604044088554,36.93918438871206,13.413273525341264,-9.74513368015675,11.4297906572465,-7.3850576858318195,7.557132149422456,42.910726681061384,-14.355654395001013,9.928575317826416,11.287919276683278,-28.904205283976765,6.408502018768704,-7.337784310912388,43.35065635873856,-9.707012904823555,-28.571758934152193,44.23672070252415,-8.675584380351753,22.242716223933332,30.3175376956368,-0.11551032537059291,34.63952487438252,16.729883091695555,-17.219398286398455,35.68835653764389,8.160524298829191,-7.5167701198819685,13.490815810922683,-11.908035334575088,5.818825523330607,27.40155598399636,-12.636500390606697,39.131274581689645,12.209435508229399,-8.024274513939432,26.907721630538724,9.137774896967091,-18.13761572581983,-28.98148269655585,10.140479255166609,4.638934675067857,60.93682603494019,17.90135187453538,-4.265842848101677,-22.133978380763192,7.495851231774809,4.904302804133532,-31.227463265365095,21.379916463425992,-40.44357815889017,-0.06863296526992328,-22.194818425587577,7.028044609205922,-10.659973158127954,-8.931239869328998,11.801420962976332,-1.406293900788848,-28.42022217791634,4.267899405262375,1.1502324109452147,42.300519087953425,38.70688796274438,-22.404711951401417,16.403222321185286,-17.69481688081922,3.5339628934908167,-34.09295769302952,-30.198524630894877,9.65960286414773,48.149796031723156,-2.2441760699403224,13.998861356551405,40.63839944969991,-11.174266884676845,25.388285764080962,-24.808779652134206,-31.882858845499925,0.19778801547546537,0.7436822564697783,-4.0721635673048215,27.721247328381423,29.445381657694742,3.314771289285872,3.5877854694407523,-19.79237640499695,-49.33904476080944,30.615452438594026,15.476558628993635,-11.21341430952635,35.590921044078165,18.887392275771678,11.503793723026751,-13.006544399905916,-0.5967473763274265,36.35499390468338,-0.5049245930020607,6.257108821252162,-19.9477291029733,8.790107349682296,26.091533264102104,-22.924628264654114,-4.062452718166287,-30.264892504828268,17.746364816366203,3.4363110342530643,14.663759837503864,-9.736078901198264,-26.47397070670207,43.78852261229921,-34.882877784818184,-62.74168251138448,-31.79904265269723,-11.8036167259069,-9.83315622808543,0.4595030861179574,4.152570357024382,-30.013338587831754,4.712054429040086,-15.679880783022504,-37.39822932502719,21.174214418481718,11.535164380804922,25.037033174561312,-4.7401912169819,7.692783567502441,27.298901278057325,-34.90586064024456,3.7058827091423447,-7.484448554299432,-8.014728143215574,20.542512372427133,-21.518962217959483,-4.349239424980712,58.418238111112544,-37.92349509647237,-24.991442700364782,-15.244572463789279,27.06981470723507,15.669239393947615,-43.31682847646967,-1.0302462108031978,2.246643154102041,-17.312914962207977,30.24882691437111,-38.19922101736501,40.78712034571214,-17.497481486939815,0.9862397516007237,-16.328884489122505,-3.7482707671776145,9.01020354772366,-14.68079190632492,-42.93125265700466,16.240861466110065,7.825301446470327,-20.613824690274555,5.889834287078104,-25.895446693733025,7.303074245609733,8.436171824784417,4.149048209192869,41.51468229386931,-1.3407378219686354,4.57159096408833,6.729402050539406,17.10248587018905,-63.614699214213864,-51.27064522548931,-29.49242278222137,3.7189429003762142,18.23797673120154,43.1814024486226,8.782196576197691,9.125807357511666,-17.68708401932335,7.37002439406239,7.639435684260015,-47.02863200484356,-10.89549703617144,-3.2338070850354104,25.115092266774525,-16.053710768101745,44.25235279638489,14.312822868124737,3.4610853623305418,-20.517619632726667,-22.169740299813302,16.1344269018623,16.208273824608554,18.858861756375607,0.37339365484906484,-8.023436281066616,-12.922799500687699,-5.137211835267604,9.626910261315151,19.88222108774753,12.86987665218025,26.17391634154011,-40.52343829359967,-19.285263904061,24.430566035833948,26.190966083790027,-0.41951049621211917,-31.12445845914304,1.0105440400734012,2.844166305914598,-16.324219577174816,12.222766758686204,0.48759233266411695,-8.333232074572763,23.410400818945572,10.331891307589892,30.363992686417642,-13.128107863229502,-1.736707187557984,6.371598901229872,-34.08704892295058,-35.99751801770544,-28.435334098026782,-15.86665663876312,-19.45819342781696,3.0202310655846443,-30.577139399486047,-26.691073642356827,-4.522258862719936,19.76858943921132,-2.1157598063935596,-15.72697049431158,-4.7396993807820875,4.6857606676167745,16.637483584864732,0.8821225026982941,9.434206268856009,-31.403653607207715,7.583589893570947,20.668713474314085,14.859584213706144,5.24884909592696,-46.5820508042789,19.49619543349687,37.199253491073144,20.813282221451907,-0.377928040624437,10.229401361697969,20.86456804537942,28.542074813963765,0.9993944862751524,-8.335310109251424,29.11575185883941,2.096623475787731,14.438231960045766,-16.987250899798596,39.994802536805665,17.519356900607164,22.61217662963018,11.324413428032713,-20.860775511238177,-7.150990506172679,22.821080616098214,18.92634966979108,-32.212873594630615,0.731365175726785,12.076313605756843,-22.09414060725728,24.78381824192306,28.758258874766035,17.261830014078896,-16.84171777100464,-37.50129564961767,12.0035304322523,1.6514732593561003,-23.012927557228252,-19.186500942602287,0.5292291103800032,18.086056909414296,14.083779780220434,5.967584388330011,1.8235876596403366,-7.39128198466023,1.9764332144403038,32.78063925413633,9.337411659628279,-4.096346124413886,36.45128050978921,18.10469905682454,-23.12587326129606,-13.058832483759842,17.12602194882033,23.278140352656223,12.875145871177507,-7.095290902787867,19.384845853416582,-29.59361084513698,-16.927541927910198,15.343721777932888,33.21721516169144,-22.31875090728691,-6.733147466066752,51.00083367352203,-15.077096880715708,-20.946882577454847,-2.4643486570182938,24.903298211386144,-14.115463181465193],"intercept":-3.8164601859417058}