{"type":"sparse perceptron","classifications":["NEGATIVE","POSITIVE"],"weights":[0.0,0.20955029658909663,0.20955029658909663,0.0,21.474029375655167,16.17465455414241,-56.67653213578259,-3.100095866982573,24.081863869723797,25.44678386993629,-19.308047291340408,-12.135299889473025,-7.93512179641708,8.824519689866186,-21.93366760428772,-12.618423981021742,7.826829390929588,-8.609720809985133,6.396308926544403,-2.1812664054429236,-5.8357903043446715,10.754491743596004,-1.4263623535981753,-5.081367633944065,-14.48324090462858,14.694334482683985,-2.619895022584528,-7.08460796708457,-4.74902081069524,7.614237191737895,-15.66170778448364,2.222161535139197,-6.482775684565739,5.207539526250057,-4.650352889171539,8.8578733016205,9.187232890874267,-16.835628500956386,7.01064629716343,-4.318600894920661,7.361553581378491,-8.664014571475557,10.833101652047565,-8.79234295634975,8.730580015465401,22.650452758187416,17.19928144565846,14.178126001558478,-9.567479710463639,-3.19596591964247,-3.0798595065036536,2.760899716750473,9.13232195150575,8.429197235753945,16.699691924563393,16.324328256366044,6.028317994683667,-5.838223097709658,-11.054855917642502,-5.790527535208293,-18.5416966754962,4.999470988853194,-18.33494909053448,-14.254892126549445,-19.686463698186106,-1.0066057321346156,-7.0292174008766315,19.87223449829056,11.850547071669107,-8.050729015100101,0.5197365920110588,8.739118347021243,-5.735633116836188,13.929612879309976,-6.2277472830153,-4.772442855465318,-9.17717576054009,-22.4703677268639,-34.472511939025516,-9.23177021165681,32.32084382737547,-12.399335794739123,-7.781290764477843,-5.891179869067587,23.483437281700645,-3.2529302504589577,9.991965040964423,27.091062025606334,7.8703570137082375,18.169933408359213,5.176962791846168,42.5717493646144,6.999520413022972,-5.524188556150788,5.641574752317367,-29.347970640798465,-12.987929851137011,4.863410104820325,-15.211491026799575,-9.665191274284721,0.4685224872903634,-15.69217467839109,10.235032737108613,2.272981229159225,-4.492564021959086,-0.6808303687703053,11.730174607163585,-23.820020678873984,0.6712169779860664,-5.741520538956461,22.908029704089085,4.947623478007563,-5.2250843324758955,13.036828245097134,-10.021882360751407,-5.543386956029712,14.70354734919315,19.02614535714263,29.649247118710583,37.180600174837,-25.847913661192468,-7.7447492373627504,-0.8473070353971068,4.462477118071571,-4.743067957403397,-15.141998105598965,12.427171354803708,2.9809907338602963,-8.744099334446158,3.6549344923594242,24.349886336117052,-1.94687597236374,14.532378513116134,-8.04678596172117,14.073173849559826,14.047954852092543,11.592121236161608,-3.648479798815726,-20.640895552412484,7.800597516332787,-17.148652932478498,4.551877214525961,-5.282225038969108,-15.091323967793352,-2.1632969253634604,23.97376909675737,-0.7050429650326784,1.1467872618561876,9.478092816702846,-8.939236999399245,25.724406880533692,9.244020754577564,-3.845697709560004,32.18750396405782,-16.353195544736888,17.12610616168117,-13.026349071219228,-5.993669162053763,34.613088325052324,-12.751597595631834,4.707518373151344,25.383767629501353,7.853320470835735,-3.6880713379418806,-49.40682335675375,2.6959638086183624,31.56030738661689,-26.60883659497637,-17.670865712292127,-10.522173623317052,-6.949175813706978,1.334643096619295,-7.640541446074318,-7.959191329405624,25.955836611232968,-13.52285671311081,18.012147004043317,27.623974863697104,34.39538702425452,-4.795114848527563,-20.361543807215924,2.941922980932803,20.555912538242744,5.064438388977738,-18.857794995970583,-8.500267455649725,-35.129049221593704,-24.671664072896235,18.77763679144436,-38.59796920482604,-11.867414470001142,-23.137188759326456,-17.416511467488316,-17.867504219087788,-17.85573945933344,-26.620907604102435,-8.180579772733203,13.390994973194427,-21.268874321509145,29.45391171531887,5.770659010749795,47.033092472941796,-5.2172331210597225,27.646147815037736,-23.199997546678617,30.223876979728626,18.077140764639854,1.456753568216928,10.810340270102978,-20.883679617873703,35.285375278481595,6.213078742796657,4.370574521560936,-15.246505477341096,10.315427637887058,27.60684124772062,-13.475787690314451,-2.349071059211459,-23.37067642713152,9.973440221816194,17.88258478513048,-26.647726685335535,-28.685728276160056,-1.9244827873144574,5.1842315095593,6.709759730630919,-21.89005450136204,54.49092280434858,25.067068498808563,-54.09987600059619,5.462947180717844,-3.2517933959566405,-11.304477313688853,-31.176761091599708,-65.83443547137409,-6.371848115651918,2.9553304232503343,18.971180877914474,23.644602696294548,1.5260962261560533,-10.985031562882423,-46.0837231598957,3.4507157487207096,-36.693163098427156,-31.901948837849933,0.1516686363818423,1.7181893805659885,-13.803253751709812,-12.52944868204119,-110.6696264822854,2.393150312202875,19.807419360872487,8.50167508051857,52.19949044810789,24.818636064221796,1.1967984711537796,3.0194501427314355,3.9837560300797445,-5.4945391480418895,2.8566893055230778,21.362779129963915,-43.96724123934453,36.61988665315681,-25.532497712560136,-42.28623764161394,12.6007002078113,-29.436942247051054,0.31337470262715605,-10.06275323706371,-10.761110562387689,12.948915520197383,-6.822527242238691,-30.94904328026685,37.24514537243514,4.540189273171248,47.63385988373414,12.091701780701117,-28.594249078329177,-36.462753524623245,-19.995540736732142,-17.744426384764544,-16.25863633028626,-12.50685018849988,19.777898534852103,2.7176682014212665,2.414295576526162,-39.1784714390237,-8.484435617519939,19.26260985655123,-7.913934010180365,6.218752991787528,5.6944460291519094,50.08656935431133,-36.09629315644676,-3.0323768878493227,-35.61513547218742,32.68219034724773,5.1015603340292905,-8.038021709039393,15.139287945044735,-13.137314550334125,27.342378867271805,-32.43206869774552,10.651645348046834,-7.010440957413977,-8.858062385852433,-7.227012321972414,16.542227236033586,0.8281985848532055,13.033310122458762,-22.297874299720906,8.784638121854497,-13.033582963952373,39.10738731572242,-9.200056016369432,-18.29873899563617,22.28346696301806,17.317699171768275,9.379120289917866,16.068318910109937,-38.12107927025836,122.8053815829107,37.19982814605006,-1.1062795052064416,19.524783816813226,20.939380982323364,-37.626912667965186,14.966241902615756,0.20074428266050132,9.651894718171567,18.815899039736,6.464925016763411,-17.270637283975887,-23.551221446385945,10.161243515807499,23.952138788262758,-13.69458850370333,-5.918361818529307,-83.10210433657402,6.119337443992299,-25.2563939095137,33.77719857554271,11.246611052845491,6.170558784675321,18.755448525016938,-39.77185108730968,-15.628490845391365,0.7721589425120787,17.922666764213325,17.35758582929575,-2.984830795304688,-6.837502510837958,4.400582598508311,1.1736493705012971,51.526357087354185,-9.152638239274758,39.81734286416888,-67.00605649815694,29.688342987741187,-7.897770534925983,-18.71156010300348,6.782713336822403,-41.484940083208045,4.978748712018525,-32.74866750609964,1.863029986430765,13.670067966726908,12.441512247934993,60.45845070035787,32.32594627430659,-24.913195130006184,29.891414441190808,28.640480599007187,-101.12678938629205,1.4222447803041367,1.9885765275854101,23.968380087724125,31.052821213357593,-12.286240440147425,-75.98751024517833,-21.38258202833819,-17.797840421256236,31.4965868879525,-20.106804280273494,-45.47204333702968,-10.241987252669965,24.406839699038397,-18.002823397899757,-8.359498406269003,15.472162157665952,17.90138824041957,-16.59223224105401,10.846130609638728,5.370527016521486,-53.272557464391944,16.86371692260368,13.496530291207394,-11.385018907273976,12.38652933793368,-9.647079335442172,12.806615638515682,13.33146718729821,-6.971717438306788,-17.12091412733771,93.79554338966213,17.756949796672583,47.50643871739732,4.4668983241165545,21.82379282684838,-3.5066046930394243,26.89108277536109,17.50999199939898,-11.168389295251078,24.692083230452027,-36.31175802042809,4.617869978174008,-25.230407233706664,-31.599650244010604,-22.00126082430537,11.191151632945871,-21.29637106207471,8.164246126113643,47.04040463347869,33.62608830824957,-71.1012441018689,-3.0843571801836736,18.3220126952647,-1.5103738579391315,4.793714449476124,35.76691582881454,-6.650270942610168,-17.26630566506002,-46.85048579117577,-39.094706006407606,-5.368772045556341,4.578093677516417,-38.57172757460419,-97.73022266108305,15.925050788142066,18.790092960031338,27.4190922026069,-15.360810581857487,10.591202689974851,-3.5597014896777965,55.71580368939811,31.626879559985454,-13.921120227959607,21.879679140945285,-36.49593296697091,-31.993247779650307,19.24799788190164,15.737177895336654,-25.656127059872208,33.08308313923317,15.427153743259453,-19.687481839599823,16.597512829535816,-7.176601092226052,-22.424649186249557,-33.16834144518683,-6.2932708147563305,-8.931688858935143,-6.522999199661319,25.501841211987383,-16.199969141757983,-22.913864231024544,12.93890359900291,12.699323600224636,-8.116117396722917,37.75169560353202,-30.1483425734668,-10.48979884211107,-49.716616061125734,-63.772809448567365,27.93350536778354,1.9072674908423648,-22.71671133634546,3.362264889403952,29.614260659256754,4.022946605205278,35.150105915353876,-39.96897030157742,-26.531556627391755,47.509983560290415,-9.113873169294084,-2.1134084267906195,-26.375140426212123,1.4688963892523819,-0.7176035987156514,2.8951697793185174,19.2697347201059,-14.833414082886417,-3.8778792412611804,-0.4333094503598216,43.753594973535385,42.108373131460766,-23.7687792063319,-38.82640662940699,1.3603916490324814,5.902715779154699,-20.40823198516936,28.299835752952003,-11.995219005708199,-5.998939951388329,-22.05751745671993,21.084397735481577,-11.541460417473433,-21.902472714974913,18.85363918019151,-2.908395642373062,52.04699540142932,-11.970117267289053,35.34733302438447,-6.139056682238538,35.169354498118985,38.03014133552362,21.43755213958867,2.71048857482561,51.41564944182305,-8.227713081352695,-21.391665315163465,4.689932103745917,-14.166822874384495,8.115956302561228,-10.055270445439382,-3.089520197593459,-17.487325860517902,-40.172128207093515,11.665942950549294,10.849896621297216,53.82800198814279,7.46899396005718,-23.950245878657537,2.33098661186817,-20.533991065693304,14.460444673642,18.27616383069632,12.759687137417032,-0.7686911832701446,14.785065123694427,6.05449801079143,22.503876889599027,-19.1648132856641,33.39341555498789,-0.8874049647091573,45.58982950578433,24.44268984594187,-4.447374158411171,39.97413998596591,-16.749901011002386,-28.00526099006864,4.130080334894573,-14.149451246901972,-8.144187688580153,-33.93434497812779,17.212194573374347,18.667719361913296,-3.185882344841426,-23.435359834500034,-2.127428367392932,6.314058223721691,32.804836812641746,-51.75359097538536,25.538429814088577,56.492066937933345,7.128008568708257,-45.53919018425274,-15.248696035404455,0.14794462876528836,6.749504791562402,8.151005862789251,9.657426808756256,-8.513000643237964,-11.627527279206733,-5.074052056289623,-25.002339989979088,-22.74447492292643,-0.5338620652657521,-57.47807420943165,-31.399638512266055,3.9991916215929506,46.26199171934884,18.176856350079003,-1.3547141335540958,-65.72928320109271,-9.049440510000336,-35.9331001058921,-15.776607790840918,-14.048151544172994,-13.51269335940115,-39.56921822879612,-37.38447342273387,26.64497512966687,13.376319769207033,-44.007491821286735,-85.49392125159842,7.420920092193512,-9.758447087021032,-49.758012266563576,-15.535828930422722,-14.803368083448365,-9.3039676947425,-28.867476317807142,26.47677486703572,-3.922633609534575,-26.95036027868257,71.58955872354696,-32.95795692078815,-30.880181921466175,-12.480647880492267,0.02825068024974403,21.103635022816313,20.637479533098027,-16.092837016093245,-37.74373664732835,8.195424961854792,-58.64309423735547,3.3420826082903305,36.48733096594605,-41.56790183480725,-9.386958908684493,8.27458111326317,-4.709211141002387,3.93762002158006,3.1683647168387044,-28.396664442376032,4.791200083754337,4.53049288336855,-21.335055427774734,-0.21162619588506854,-39.54939346473898,8.32438184739291,5.180323514474165,4.772561398042625,-5.873555515882916,36.70483901380681,27.37891520286614,-18.697671945053404,31.59144885417888,10.371939317071755,36.02536919042152,0.31799095068903754,24.36739709115055,-3.9197544540037295,-18.9173730545861,9.973349406138137,30.209415555453074,-40.62125543132546,-6.917019876901503,8.631160425757903,-16.479445299735016,-5.638060653295383,10.763233688324878,6.1287624149602475,36.643773935069696,-8.023702183094251,-4.321755048984634,-23.154325550964405,38.812266986082456,0.7173805546626305,10.81778494448034,3.901048766665261,-38.106325349602635,43.273410754296364,-29.30478565774137,-17.9806625616967,-11.449464369032217,-24.166513896748835,-1.0292792344636623,-17.835401425538375,24.121840204888805,23.343249168503885,23.66569428265038,-9.055088067816726,-9.501802135390234,-33.34322831490822,-32.62671889101783,12.412708372562902,27.414818278859947,16.62637160532643,-3.830502322676542,24.082357498404697,11.847727808640519,-18.95301250892414,-22.841119472900374,-40.31461335191364,-13.09698649568074,4.321975407570839,50.06457653909997,0.6701315127152058,-20.021801622105798,-48.80916122087025,60.27728520292399,42.18294680834004,48.82570917434952,27.818619647444617,46.61815281109862,16.794859311073083,-8.675477355450266,4.358811052084723,-9.227943690573845,-2.6518550930879248,42.8896979546584,-1.1166984834967193,-11.236847597002368,-7.679607975533395,-34.07382983831638,2.565236636993353,2.0342476998040446,40.55917821696797,-19.57386305676694,-9.669310786525458,47.926541021380444,3.4151926878024073,31.248219614237716,29.636005858779722,2.548709946890828,41.699278158949355,32.60172785698898,-33.7819653589183,18.789646309609758,10.52890332571985,18.899689750329355,24.17534687638845,-7.708051622823936,18.25968299091268,23.357393884584774,3.707604288803378,35.118279176259385,-6.497938970224597,-1.3145681626625625,26.369266562840885,-10.159169848738214,-29.65642355462824,-20.670288173473015,17.208697859978887,6.9705803923674425,61.68651178405887,19.832286440106902,-15.987607682525574,-3.6822800767642714,4.599522826561084,-13.3292636444284,-13.187361873297814,34.7102029988629,-54.08749091522922,4.130625268476207,-34.211392912954274,5.082168786006044,-8.574133567434243,8.422684412082912,-4.2716903686339505,1.9180368019895433,-50.747874166416935,10.819885848604065,8.640365700910722,52.773302698076826,36.37341248175291,-25.901749015029317,19.285771414402795,-7.9100064742283145,1.9044863743071945,-17.722602522797867,-29.5113612314596,26.640123588198428,38.297092785275,3.272786844081122,2.790688259966787,40.25064913828281,-12.897851536981413,32.254095005932804,-41.27634562322738,-49.10508934828537,-3.8422021221846347,-11.021830953636467,-8.365627912169316,23.953143830462786,40.658310539393746,28.68095005535675,9.099169685701945,-20.467615392931386,-22.43549703260693,17.86583201811757,12.384350470569288,-5.671804224534935,44.976314120888794,15.961677628059984,30.067399078865307,-18.918704935777434,17.7265262870683,37.34229098173348,-2.802381023370235,10.846523755922135,-23.39548061724423,15.17568569359919,43.40589377840048,-23.601440965925963,1.6932666712293287,-43.17815181235669,1.6191205232697772],"intercept":0.20955029658909663}