{"type":"sparse perceptron","classifications":["NEGATIVE","POSITIVE"],"weights":[0.0,-1.0207675910958642,7.089538077607811,0.0,1.2859499963637369,-5.991575775960056,-17.85978940362608,0.6130321314618785,0.0908808075682725,3.3410374165804178,-8.324399547665214,11.153323839718844,-4.712968399589559,14.610500988019849,-8.194065770638963,-5.931201943363853,-3.743455537393344,1.9976064960116486,3.6948672365493187,2.417953908982074,-3.144778977052289,-0.9545586466697554,0.2992891722757011,1.155516303391759,-4.480942098461458,20.156912605116204,-4.607213095230933,4.903529004307116,-7.734139046323359,-6.259563836315161,2.5578562052971408,5.670231761478051,-6.313634090972609,-0.09085966642622764,-3.753610167090072,-1.5603842505648455,-3.8375570755043373,-2.2233669641921074,0.9815921284467058,-0.4369651804514711,1.690295032084876,-6.8694038117875875,-4.961628383644489,-8.128670289403662,4.8521912533028635,16.06972839704913,2.3801630636514157,6.786182694548392,-2.1418915912993692,0.2902790138242604,-2.665655061866822,6.776403892539693,5.696318433208982,3.699114874895692,8.23640651910204,4.651439069409424,1.6570594197980677,-2.963202007065529,-3.375711644301773,6.3592847917016,-0.7924943092094372,7.823447202146586,-7.279259083373998,-6.692084816144706,-11.043966592441855,4.548597535942617,2.0180091299946445,6.655115700077954,-1.7183470911945293,-3.6238803656605074,2.5096138867989684,4.975440131590285,-1.8213054010091987,9.002991772211875,1.1423786504316469,-5.224187070567444,-1.2130575468801637,0.5499527021974532,-12.537938210548214,-2.314298675911485,2.1363161687995667,0.6845555541777886,-1.8789699807630451,3.31113814180599,4.228689387911527,6.095336468347446,2.887690689522301,22.930739705051014,-0.5690789497214468,5.418878723286203,8.307970145997778,14.850621634548897,-7.484571534687732,5.338550992371146,3.158309554173117,-5.412665470531472,-3.216193943613965,-3.949875461147013,-3.9465234933221884,-14.255298337309537,-10.222391968084782,-7.020383762995943,9.398647100123352,-1.9091885030980857,0.16854390883908318,1.9080835882249216,7.188433464437099,-10.994641251855898,5.958158644674832,3.62090913671916,2.769253326826486,-3.744638484824248,-0.42347417663973186,-4.5243477005534825,-7.68937867227548,2.093010611805954,0.7216267845910365,16.76632665096436,19.218743827444015,14.786238520151572,-5.145034103910244,1.9430002219103828,-2.8602767969213194,11.87872497515782,-0.9276674565408815,-3.1533590416942987,11.54390126664559,1.9829783953675824,-4.985631134405781,-1.840989510037427,7.473441529797661,12.284709677394556,0.6786000755973751,0.11745074402912097,14.928633767774897,0.5347658772958002,-5.668951481555437,7.832076598305013,-7.75374123127738,-9.578412144163522,-3.6713865292931454,2.660480381856768,-9.3233227895651,-4.339621554824547,6.199002573686439,-1.2188137914152843,-6.452668250090321,5.081807399465498,2.082580422957643,-5.571906899691823,-3.087643141685581,3.902074185028632,-5.327226992422429,7.454004964954541,1.806439177650275,9.650770732584395,-0.5236263909670423,-0.9111754081624754,1.4784079877552108,6.635275266177332,6.001647290851459,1.9185935818314304,-4.553207395406193,-1.887952158530767,-32.834759988320066,-0.7812597478033337,14.938870995120064,-8.44486747254151,-2.621616670402244,-13.00204702983713,-4.581651991042414,-1.5933055042923734,-0.7856222002641193,5.3005962279648005,-6.050082632692882,-8.95313141459057,11.1529678498328,1.9843312993426367,5.187003288786928,1.4386920024615988,-13.745092652411994,-1.2842304159642706,25.93452505839081,5.495719756828043,-6.5812875406005205,0.14911324821688335,-18.207299268195154,1.3452837217653686,-2.016704961626769,-13.130922504800077,-3.5270334547119666,-5.72817928933583,-1.131046071889382,16.679560423639764,4.704488141081931,-3.2291073862775126,3.3578337133805713,11.640557542653852,-0.9547112689582523,22.505312326746704,-5.953399216607221,18.812417249459042,-0.874145134916468,12.378414783917648,-1.4608218837285127,8.930966634040754,6.23298809307853,-1.26956130773846,-8.837603750634036,2.5460986396867873,8.15402549760514,2.0660421932065485,-7.096154323148047,-0.658374410041221,6.3137800842767735,3.285672660914525,2.1793352933947188,-5.067785819012646,-0.9560792731963258,13.529919338820523,0.13946489941353393,-6.682079303337391,-6.0875816593814704,7.316228241051628,-4.423255350946729,-0.5806295150874087,3.775873220112169,26.922427330091374,-5.490479073875172,-19.763740520342044,1.9163951677720077,-6.33474922928912,0.5431577483422181,-15.722913340807127,-24.152861587088967,-16.3284139122208,5.692063159009542,10.537134150889544,-10.649025799618586,15.56394633108564,-5.563070515930195,-1.171913345516179,5.0862507168476885,-13.194851486623609,-3.3341463245341156,1.8054750347312392,4.385060577490248,-14.969553292208689,-4.038579370017556,-94.25985947402668,-8.521049999041818,16.21593873601533,6.992745737594163,30.509645067527046,5.3704745172524975,-9.37584946002582,4.520088841812797,3.455482872780584,-8.101336064695719,-6.381476384120366,19.49453525396448,0.9928071831891842,22.96320893926357,-4.508391515753433,-4.819339584177272,11.075502187310375,1.14293646782055,3.0994280082900305,-15.201147524149551,-14.941771685786762,0.20823239550499809,-0.8832574875633984,2.8041772282832946,-1.6440436817868653,-5.2648573507899865,18.795580720328793,-5.059790997017913,1.82475471878544,-33.81205208271489,-7.168602789889588,10.083607842273814,0.42234493294679576,-20.628593920343718,17.325257873254646,-10.488239522134037,-4.130311880088711,-11.667154819433069,19.469730944657332,32.99978275754177,-7.400186737564557,12.75830002203423,-8.180453977372192,12.91254369619917,-7.395447093131215,-13.119289400811036,13.946196900074472,11.676566215461866,-4.021432150082936,1.3275236150608007,15.76920865186535,-41.75639166449108,1.728110738376305,-17.48682486089022,26.53592047054585,8.553963453760058,-28.180136553351137,9.423249023254685,22.119101097008762,-2.9112729829716177,8.126593718196641,-8.130146661162767,-8.002639961544785,-9.42153397810496,23.552469079110185,-6.408866217334127,-17.754751177104865,-0.3677998841466419,-4.860590038781545,3.022965623555462,1.3527604359073448,-11.263471625587268,49.45324606022787,1.6871509803912828,2.78337787198781,-4.9821676220527635,6.875597807141225,-2.415966060321169,18.36603680680195,1.1733272139264186,14.03858911463913,1.4687616676270376,-12.435929285075861,-0.3079405772804014,-25.228256955722127,-0.857811834761775,-9.458908473169537,-6.8391338094696374,-9.482703126599745,-31.337843321270313,4.463082152790923,-7.736181629601548,-2.004405967832991,6.729260710177657,10.934261353545532,1.022040606374702,-1.164149607320923,-8.971835761801803,-1.9194714436029197,-7.301678722592165,11.418587658919169,7.654952601322015,4.518709778340358,2.9569246729626273,14.03619647885438,14.643040487093423,-2.707211115470314,-0.13463919990831374,-49.23460123959072,3.977998867308355,-12.721612378833026,-3.438143589680692,7.563041946300796,5.221913255318467,1.0279806265203488,-6.684633562865003,-6.96985662451045,-14.333999912280955,26.331855918637967,12.621680128603147,8.234003393897499,-11.22682181649412,22.255104617066813,3.794787741629855,-52.27638466639957,3.1024564976558597,-3.844594505525235,0.2913386244452187,5.177018924995363,7.43182289523298,-30.050419204663,4.881931616553716,4.987682335481092,11.432653851798877,-5.928441520855914,-10.39976040711271,-7.6762783664985035,17.27240337919174,5.567197018529367,-6.990711756913288,12.391536255549223,1.3474785531111908,-7.511470709644818,11.528249735701014,-3.119626123011215,-41.15086628605342,0.286150098096172,8.360811478129504,-7.216985121094719,15.650716736812305,-10.676209202416436,19.805887888594178,16.684420335381475,-20.557455660708406,6.233916102376768,51.262163404908975,-0.5307592053570688,9.41883596599822,-0.7895865251415572,2.3836284374899095,15.095154829660748,-6.216060981467128,-7.153821668541704,-4.0739958600562005,2.0103076481858513,-8.899026217859276,4.910550560760747,-14.280344381305799,-1.155757617336818,-9.572946687342329,4.40581966574605,-4.705473923189759,-4.82828287003608,-3.9299692593372724,24.288228957546526,-28.439555572227576,11.555232497850206,-15.175455959529991,-10.304378927088244,-8.081937463883056,20.042137456077935,10.081205706331009,10.459499292753089,-26.76037677069722,-41.574021619167,-12.066085992519398,16.129766067809516,-12.060490308506795,-78.42815749793552,-1.6610119472822784,-12.229554990933112,3.2561052993420034,-4.162872083618899,12.018637811167086,7.77038757978294,22.53723169689157,17.041568703712596,-5.276306350879863,14.795258984645846,-19.08834906837486,-8.634059414790238,10.928238175461459,0.4781673632838191,-9.190559923762038,-0.42035914453343276,2.8020918227769065,-23.637390756220682,13.290219143667178,34.34069990581926,-3.83852610324595,-17.98368043889524,-2.3004017644058967,-2.042437895471121,16.15836430306481,-15.019456425343499,-11.086467335800213,-1.986579501064108,19.817860142208648,-0.3818013758161658,-12.971441486585316,14.351358362708563,-44.156271746565,11.736471078309835,-19.55809665935079,7.962365754229147,-9.469105665161537,-16.096807089259958,-10.270637781981682,-22.545335681311894,8.824995298988785,-4.321352753761553,36.10886854556015,-3.3229136694504016,-21.478523498855015,11.038957896142778,-12.534868030439714,-12.583020526483443,2.8048918621581045,-9.702719302410998,-6.009940614836668,4.04464728887734,-17.636148378856536,6.159938298854916,-8.688403217874088,8.56337894232945,0.12551125683948397,8.143951997624816,-21.764188573010212,-29.99405139926329,3.7864000509151383,12.912685281492795,-1.6882094340094962,5.085422502829022,0.38823161382399396,-3.0286447508526937,-7.495372784033415,-15.45461826917224,-12.896761992504038,21.771158501170277,-18.059265112078904,-4.369957788245856,27.054802312757698,-2.67191835230937,30.358411492192364,3.53757701190871,17.595235390447215,2.016479827572061,-9.120972099172802,-9.52398797083407,7.705755631781445,-3.6260392499558773,-10.522164295720987,-1.3086803468995376,8.30530895149784,12.88851276642046,-4.2796901011154524,-2.6891790158068285,3.883849254556616,-28.5821913276085,0.6897656110877164,10.749208072680057,35.71260553149487,30.913295895163692,-1.4069882622358194,-3.5577730708602346,29.361096965939105,15.030046348835365,-17.274005402234266,20.0351589185282,-25.706768806940556,9.918507429198367,10.191009511949481,-7.347009543931762,-12.352884060721882,1.6566560576527862,-14.576631514471904,36.09053999295232,4.466054425019002,-7.5876608161031855,7.445223138695702,-13.098851871134327,-17.16303513940359,11.522834684053917,-5.999713144060638,-19.241440895588177,-15.188189641082781,-6.9475381066289135,-2.43749647251959,-1.5127062536678169,8.416046021835678,3.846543584431215,-11.7520681892238,7.908165104233841,-17.22562924300808,7.0394859743447515,0.3956029878618283,6.378023379576534,-6.989712166335381,-0.24792929236645375,20.196644705341274,-0.42626029984746877,16.258115611094414,-0.5127150355861454,13.743169690279307,-15.753531891190448,-7.9815554276609,-15.081888979780723,16.195937020599917,-17.763264837206204,-44.15453307992479,-1.1977945993713797,19.574078569001397,11.688808810818355,-2.9600036075687686,-10.607991400345531,1.4626866891521897,-17.484358863852243,-21.65577818904414,-6.429367874957388,48.110788471772466,-46.11538923032032,0.5128297548836703,-8.872405725299638,14.613030004209993,21.089508490099497,-35.80503816762711,-36.58006566197207,-14.584331288887697,-25.185096247299132,-17.879974055439718,-17.02717446799834,-13.307623054598407,-12.826264929413503,-7.1123801530641515,21.974423593540287,9.561525519694028,-17.985943051143398,54.60358826603426,-30.48975173448886,-27.247758442703937,2.1610943072077013,-6.355621305318353,3.2612183129256316,24.25942414017897,0.6567725016978369,-22.004512484809638,-5.251498345379429,-56.853956383503935,28.18909138613266,11.039536156865852,-21.390582256236982,-23.21418035884644,-8.39749441558427,8.204797077662327,13.468803127703456,-6.781563541410124,4.102582326866952,-0.6225634253023734,-0.6157225184563739,-6.158516205008488,3.4781878698080186,-12.837173938242444,-10.472541099507831,-16.83828305916752,-3.912872453301732,-8.916380940884158,12.662946884339764,23.616715175758177,-26.83512450723969,8.80294115188504,22.16028769420885,14.484813062451149,4.122532294957703,28.028213050205455,13.50419090408074,-4.053280190484439,-12.183002324460027,30.026166300648274,-22.85879285373459,-0.5544204324842891,13.210048929011869,14.803673444023268,-18.18062759577616,-5.030622185064257,8.107142419422072,24.68770515631369,-14.846209903150298,5.777289201632214,12.728430208236352,-5.063822202053717,14.883478683906159,-10.8692512105234,-5.27932418038344,-13.126158272576735,-6.706775580809554,4.68471659340717,-10.247428673581853,-0.30604589758561035,10.400871847810143,5.371360274891391,-29.341701958228658,-11.805048754611,11.585717620327697,4.690586170883112,2.9663181719146596,22.749417696492134,-3.747102041705611,-21.254972351376527,-23.615336100389197,2.323628826476366,15.414090821432865,4.139652997617643,3.804884749613861,1.5139550714999905,16.64855123905263,-10.643508796546563,-33.091627780413155,2.4417351241146252,24.361477722633477,31.452834426606575,-10.166713898405172,-22.894068399600002,-29.721430811462834,15.752746530722122,40.71464598288333,22.06509771869255,2.559134957049748,30.46503540099641,6.273114299879731,5.263399000700224,-14.200923675047711,10.77235761405779,-14.027961159796789,22.32121839129583,-4.019173471726794,0.17356432821320333,-8.685143147836454,-43.69597665136574,-10.478141209540278,27.36338360909103,20.589685570829598,-13.187952422380453,-2.292894361579189,5.548137880208968,-11.53218720742231,14.6923843134301,24.27453658940961,13.790004656699278,6.168712616872152,35.5372812278027,-8.639889493627214,17.27066761720655,2.080602626967124,-19.21412753998688,30.825391561049212,-12.067040526663055,-7.329466932895475,12.7761662583254,-23.156142039344875,23.73654073621185,4.468112314200629,0.7162199131143979,-4.9225199091982885,1.0608484018969904,-12.091760907263922,-16.395469945763022,28.705062041750008,-0.7588049092433773,18.28160721357883,2.972047940901738,-13.904192054121843,-0.6304768086680393,-14.095616232989132,-9.881473341420014,-0.27403091187523043,2.5025822651877005,-5.454531290371962,-17.289775915523965,4.613831508539581,-22.65245066190117,6.406325957284081,-17.51166223514506,12.193671819324782,23.519937422204553,-59.42713074733095,6.780872256838385,-24.213401654087267,0.0027848280337073343,-5.8249575435825545,-19.60688505786816,16.933238253406632,-13.74391382280079,-2.864753346834628,-24.084384952492737,-17.96977324065957,31.178470526243583,4.414704019647392,36.96610992526801,-17.678461541464053,-1.5099028922810651,-11.187425121889673,45.56471330157993,9.46367509683953,-21.215182948095606,-20.35204078593296,0.3747305858853014,3.8074590918496662,21.567340458711367,37.36959312183138,22.736506195984308,-16.804108803308118,9.929603000884512,-29.697944027364976,11.3074814552383,-2.3544063316302575,26.792061380221067,9.891071958397093,-11.400832795547903,-7.238626269139955,-15.34551961327406,-14.40455525137335,10.487753558101033,-21.66084636159316,5.9160539304851785,7.4871808907834,4.375148832557594,36.19804970001866,-24.091417834095278,-8.738344217137103,-52.0767144791807,24.024686570965386,-16.482881257479516,19.832462568483596,4.292179524108406,-40.34228921526511,10.676892962962148,-23.51938750658014,-34.67297554051589,-4.029773321105558,23.473446875296624,-15.087963441116125,0.6342628032958628,11.777171502728244,2.091819895572759,-7.953159806719174,-8.96761300038928,-23.144944717056486,15.178920721972801,29.004193989735178,27.600064937165936,-14.752398142675334,-4.566089232986966,30.516832509174254,3.4138798514103086,-6.1082916295240235,-6.642695139035754,11.375018467205935,2.2502072742791523,2.5936850677318652,-7.316350056199858,11.339058512041094,-12.588551417124132,-9.32628923369307,-29.014285766629467,9.278905930956414,11.325750380603363,-51.72661821964687,-7.655866246850603,10.336546556094422,2.7260992934999524,10.208347267481923,-1.8445200082196824,-2.3160083833781315,-6.643554070687077,-19.701501643321293,8.222990139462775,2.5443365231665074,-3.9275657444851992,7.287150822921613,-35.19813985965955,21.363591524257494,3.978154447083244,-10.43000233406803,-6.034405051235387,-9.012698384113612,-12.310098461659365,18.469337886760613,0.7640139597798721,11.191548848220854,-9.21146556911421,16.690619643201114,-1.6606020922575824,-20.749680222827912,-71.65803845111675,-27.157400722899112,-18.56355974434357,-4.6711752590971445,23.15855421066399,25.548285507888654,5.57042922750857,-21.14945168960242,-3.045741669292562,33.573864510971134,-2.085526218221754,-20.60667837178233,19.93957058092422,7.057453390562628,11.370126196023504,20.73131163860332,29.114974533183908,-6.190195278761683,2.428365474292228,-2.2146866321754,-14.577834942104088,37.82328362957586,-11.883842439276602,3.49375711798266,4.523489258489381,-2.2394189006992673,4.913339550603105,-14.447959420909015,24.102414959511897,2.0429126231650523,16.3334588934367,4.708964119621845,-39.542955358705534,-3.7500509960912023,-14.108733114768976,51.97163540571308,2.9681057508860342,-27.966826597546724,-24.127863085463897,4.036676423384299,-16.612353953035143,-7.3676771691553125,-10.35253690958283,-7.607941231866749,24.635214806100393,24.784427741538572,30.555591852194627,-7.935006813537646,4.65397668554203,31.99138724954717,-16.22388320356146,-63.94466464239051,7.095822563306831,-0.5803166279883646,-7.336363691851428,7.436644532965572,-22.66856617336524,-21.36571337937769,-12.358140049893153,10.273461702735759,14.446315751638258,0.28876131919986575,-9.969206978074498,27.402237120487964,28.586727591897322,-9.674053364652876,31.05101472928637,-29.88266407757795,-14.11220013101081,6.550394024969271,-4.9003426936915595,8.075801597538863,-13.59978311266415,-9.397184056286305,13.84030384164614,-9.349018190398647,3.5292338385103617,12.216590700996841,4.014688774463771,23.65434918763242,-8.5134002963082,-25.083542623657344,11.594932867570867,21.490329469643083,-10.99139447947014,-32.652760598808335,15.966420102107119,0.7900633232452495,35.544986846009635,-0.5241660663277632,-14.430097563069054,11.066833064585182,4.441431192802896,17.880506850025235,-17.07367490830852,2.44754808637248,0.7672396811952251,-1.0429711255001362,-0.17867374313309003,21.58233670030602,-12.826430001704482,-4.4455395838739085,-24.366684746995368,-7.8564164396766,-1.5581416407417747,-15.10666416740671,-6.690802370869291,-33.749670616559584,-20.40634958672813,13.830552220938266,-1.6886776456320165,20.656119274345116,16.019306094565824,9.298102223890686,22.67402468681486,-7.91330631776744,0.2998733717956573,14.787733113949155,-14.360476483041698,-11.673074178351406,-21.06078329551807,16.160805909086836,19.707823616428815,4.982813300880525,-17.570020091206153,-4.178585807345525,10.066321316678755,12.904596273080442,0.7010730196895959,15.212211284688122,-24.23661602715566,-9.27947916482946,17.591176429669083,4.2140695310101,-30.869738416233382,11.725844126327924,0.9371195210879715,-9.40331907174699],"intercept":-1.0207675910958642}