{"type":"sparse perceptron","classifications":["NEGATIVE","POSITIVE"],"weights":[0.0,-3.680513282878174,-3.680513282878174,0.0,18.796636579862952,6.170018888671983,-45.8384972623157,-1.6959412929540059,20.79856131793832,26.37768994959658,-24.12796544953916,-16.488448782039796,6.407798130629456,18.575305709992318,-20.183302023328746,2.8669662478210265,1.8513737981024099,-3.05567619563875,3.808305277019305,-0.27385134484278767,-0.6564475715368095,13.445308687078514,0.9560182336991057,-3.727106893566515,-18.855492700424413,21.782284663783905,-4.125833085737558,-10.93465799138716,-7.7638990011861235,11.86824713869503,-7.507242542844552,-4.116049611529055,-3.2657573022259077,2.8573926141662445,-3.4865870457486565,-4.890331674500269,12.942278680299518,-16.398391806366373,-1.6091783175228884,3.581201117737214,11.623934467797532,-2.6487571006198034,10.950596197003591,0.5209820977566076,-1.8586423431567536,27.549447633101735,19.219301041620596,10.501639368477347,-19.370995978815465,-3.2771540972958473,2.3855963669348594,17.574561758214305,11.929877857418118,11.357371548620305,16.523635356665803,6.940596124405574,0.20955797323215752,-8.447654882257947,-11.31209551900311,-7.824437526431829,-17.24500445216828,5.031316044031055,-20.342540132297223,-27.671508613992014,-13.345693439954758,-1.3811946551016496,-6.0689888853733684,10.690593782028342,15.033882903019466,-6.981609378292962,5.56979748043549,0.383116864782618,-5.286247749533647,17.782718095523126,0.403809275216302,-7.0288580218145755,-4.146615139666333,-19.136530977738943,-28.163405404123893,-14.395286744795088,32.855622536171225,-6.654557535542517,-10.193495305232755,-2.1375460867940705,13.752814484166208,0.8337935469892187,16.031493377224276,29.210416652650242,-6.6488086707757725,17.771099039497958,3.405388171578307,37.451545333793966,10.210408143018324,-0.036639601760584256,12.444283847414463,-37.104593372129706,-14.587667680513604,2.3196008211505657,-5.22579074519534,-16.727810713709886,-6.45230133365734,-14.299712982010771,8.131685520769906,1.6803522633879708,-1.2816009985054886,0.8964735363742601,12.422729896133138,-10.416068465333135,-3.1590565513762403,0.0016091542040421875,30.67743045788554,9.435921788709734,-8.574799965100741,13.245423660467399,-11.331535881784335,-0.09884807581330722,29.47879896428922,24.037139427553903,38.0720175401646,36.22948530340722,-21.54415046339555,-18.684926608180245,5.280734428466782,14.656576766903804,-7.539018631469946,-25.85481156707866,12.091665282868913,8.9104796595312,-13.861706844308816,-7.650121749530538,25.335370667405797,-2.473322921388949,5.325395157735024,-12.818117014158748,21.340156696601312,8.801792441876895,11.755710129200562,0.3763565159250575,-15.908434957162758,-2.14785731741509,-8.35686437326602,9.096643215836771,-7.712935817649701,-1.6509880189479158,-8.894993239152155,30.320940077072144,-13.567937200256242,2.398069995318608,16.969431087567983,9.18834465098288,15.981380169364282,4.191393698481663,10.333365519683165,28.291404898870816,-1.0356030593356325,11.993884604036323,-15.474476406584566,3.620715135668735,27.763004502390146,-8.599013363401857,13.171694969072036,14.826279736142924,-2.2378605593758008,-3.7162534418097852,-39.05906276434159,7.425798425217325,21.523218928102498,-23.491346085710738,-17.99790480931606,-2.8477270191343154,-0.6749047331142602,3.5977841141458784,3.742098957686543,-5.58900092699635,17.089585102857814,-7.500999307576273,27.770235993646295,18.397915137529573,31.60599364543983,-0.8919309447006997,-35.95178851237347,1.4468237532786632,28.03269086941183,6.388120554388332,-19.148364176193756,1.4585279053112012,-50.1360587309204,-17.867756173016144,41.5134613767387,-39.227310040988016,-14.637737561487446,-9.304169240872419,-20.424506310209253,-11.1504137232373,-23.3365769864741,-15.839891307260897,-14.85965206899086,18.35783974486926,-17.53986348222973,22.854563481989683,3.5965725564701643,41.952774381986885,-1.840804613041819,34.31496724720425,-16.44547790323414,29.719432926074532,22.543002168358342,-9.900672199303537,22.458278831803877,-16.846013956253703,24.41380495384671,5.7999090603124355,16.27594901308682,-8.680143152940026,9.55844456460699,12.52891429847556,-22.72332247150875,-12.531990094426472,-27.666731345265106,18.89393582281326,29.676270172995743,-19.113175141624616,-31.32764504317776,-7.771858103713319,4.684891173517513,6.304683165237682,-18.656610436384653,42.08938778885781,19.43868882560743,-60.266610596781064,-5.304734517571483,-7.798946149989872,-12.02092251645541,-27.391878724352893,-62.487015738092026,-19.985260761592556,0.11280314520936803,16.330646615261674,18.194958580980845,4.559877763381906,-2.703213345004217,-46.96625615747138,23.983774613388366,-43.3154894783017,-27.105984814054477,3.8876369055318936,-8.455387778055112,-14.72868339719142,-14.38283343264072,-119.65240871812067,2.8753725562071843,14.89708389526218,3.4589090532145845,63.45983560179202,41.34788575332616,-4.269855398914003,-6.442811111430639,8.999222197130088,-8.913514220622911,-6.115805693858918,14.868046721222493,-36.6451396480427,42.27754734428841,-32.407559439658684,-39.73869906642496,14.429192322785319,-49.54427449786434,5.962889810418832,-26.846973616569223,-10.700023054255134,7.359508404593857,7.020274961047715,-29.576030138327695,42.09569929563085,3.2681335567049397,51.727573394434465,13.89497073056641,-8.549423010951678,-32.47150724447254,-3.210100418056901,-2.121462166815152,-25.48940431945071,-24.45909298713873,15.456333999950607,10.835857650347794,-5.179928863580498,-34.779777697277126,-13.570180756559111,33.377648074572946,-13.949529109417993,-5.817710993576249,0.03327730597726773,28.061469770420995,-34.090101317721555,-12.662324544142656,-37.47030889296553,39.05781204783354,-4.927636309128245,10.159090266767052,11.55166370474893,-31.408202965413665,22.81551119173872,-38.41203760067672,14.797629403687235,0.2581950014924582,-31.22026733580915,-24.198046347598144,5.019475486895152,-24.577645955722463,1.8422099674775616,-21.987681266058303,7.971270765527688,6.080877706745577,34.47586098296112,-17.23220169276122,-8.980425505168949,32.74589491991106,32.956677628197596,15.864562581597593,8.506819747521911,-30.283732388427637,124.74546745253457,44.060292142934145,11.611983571483776,20.115168354567253,17.177766474987763,-29.820922583074925,32.585646789727086,-4.115106470414695,19.435769667981,28.31603813491923,-8.199841749583454,-4.8877484420044075,-34.29482229426439,16.64239832297799,46.654038023091786,-4.949874447700478,0.8475845522138646,-83.2768126957787,-9.615722880300032,-31.268353461676043,27.143917001633426,11.440952589571548,21.309733431047427,-0.8231631938834175,-41.77222194591822,-7.337270830140303,11.029343680259283,12.870490716060422,23.111318469116792,8.094856475892144,-17.901854440273777,5.50283274589932,7.91612723939359,52.06305066589168,-12.646236859010166,44.80484177135644,-52.50174446634018,28.97860102408167,-10.6355915040154,-29.213118524653712,11.377430443145865,-13.304065030225118,21.127758749516545,-33.12623717508875,-14.595231020250369,19.96990968645009,29.55673962349064,49.39030981147421,28.619481396647803,-36.44916883815665,31.18472509762852,31.474663586833856,-93.55707591054612,-5.023233892927746,1.0827366769048934,30.828311169115448,17.165148233401545,-12.41303788275838,-63.68973726156847,-14.72622034256362,-25.573657848570654,29.885732758287126,-14.355137465828392,-36.60933374240477,-8.076091236208002,4.301932133140834,-25.18181268937661,-12.023435127262314,33.61613616821323,34.238214934039696,-35.78387647475799,6.060680975069526,-16.137422918700295,-71.56349886429989,11.377001993026369,12.864306170326392,-10.671232950906177,18.067045417787817,-31.38118179269013,27.455095727846995,38.607933720117835,-16.18386970843971,-20.54253810513943,89.31147528403802,0.5227829932657814,36.57507683175348,-3.227199213481251,39.85106510870661,0.04296728156927582,16.73761197057938,1.4785543796282778,-9.691393975919686,1.1788559652848811,-24.087943178996092,10.16121513512782,-29.487506392158117,-22.625384914643334,-28.25344251554405,12.14960337763103,-11.636618102223837,7.482259763095476,45.63156102500804,24.232355616594926,-63.66894472856131,32.18337255445893,24.905624311764132,-18.2080060747629,1.5578319170188322,59.594402160215466,-19.005952958276406,-10.942524189159592,-50.76168879395006,-34.100500654437695,-20.38821482557914,22.41381432908046,-41.29228948186978,-94.53100141567154,21.203633204281402,0.1785110960850704,26.062081871889593,-32.90653409150716,0.37160950553019323,13.613279485809727,74.2079609172006,28.14882775918414,-21.295774143872,35.98992329022791,-35.8083435309455,-13.09455148543201,10.71072921454757,23.142200899471025,-22.84884514511818,15.16741391947722,10.90080708371176,-12.480617779373365,-10.976603416510414,0.03129518658522379,-27.915212741370212,-38.46865470588923,-19.263973867565984,0.6347434130644041,5.576453009437581,33.88141882021882,-24.42684570674481,-30.17520034697989,9.833094016017396,13.09476181312981,-9.139221617946149,39.629244908847454,-16.657039993581904,-0.6880920875765579,-42.880822872626155,-40.65415546221024,34.092933228558124,2.503031473016039,-18.820417595181187,6.827793548489911,34.4626161145987,17.725992895908394,51.88495131462245,-20.273857826927298,-22.302095677407976,33.16559568880391,-11.40042000636583,-18.38790202865067,-13.739708722512404,3.287399001421636,-20.21030294928174,14.566014749129135,10.96252669309007,-3.312496821228414,4.258849591931641,7.042109422543328,26.935089810723586,17.977397837708132,-18.423883093248634,-52.598994124509986,-1.0208617318866702,-10.357240864464364,-22.79776115045028,25.51561432355279,-20.398101037918554,-7.99018614270926,-18.734854418809842,11.483085094468358,-4.58775265578881,-24.462493719381747,27.986009711686272,13.543209908107505,45.07404620209097,-3.9240336155337125,46.865245759466205,-10.980913692506402,30.4642153178924,27.394096853629215,7.28073844696986,-3.709305870599897,38.990871000165384,4.723952700071113,-13.557837711470407,-1.334269010675714,-14.881764744386807,0.18465171304770578,9.170854767446855,-0.03516596000736305,-23.215782577897045,-53.001917090038894,13.20666572683137,11.011689647316377,44.93747521735318,0.4352568109695969,-27.863956426759525,-6.329471039691038,-20.638825063069312,20.334732198270956,11.603848840808102,0.21773650543748144,-2.898794616932745,35.06475486168127,7.534937294792282,11.068045285651486,-26.36984966023662,40.22878892686216,12.550765234497764,36.04535478228788,11.620547062802887,-23.62989808873177,34.998875957557885,-28.82817658487371,-26.856671484551,0.9334484445788633,2.3898438967601097,-25.363515223930694,-13.421309078205026,8.845836911475354,23.58282121648394,-12.993453169869273,-18.99232179332238,2.512059605945158,3.639559178838606,24.278970260215118,-44.00740365126967,6.911460432675293,35.79148774025823,6.0231477399858795,-46.09983050964192,-5.131776869102067,5.209445490513869,4.871810463796725,-6.074892309463606,4.5200432153408165,0.8782970999172687,-16.55926275482335,-17.73629973657527,-30.80460517521677,-25.60090984674147,6.4720012385980725,-38.04862727953917,-7.464013393754222,13.986441268137208,50.01471650066952,17.672105759727124,-21.80281217359452,-46.83160464577299,-16.11678294426793,-30.78986731706319,-5.535585280479971,-18.976760914564483,-8.140425607200106,-40.699225934351986,-31.12943397024354,19.792287342518794,1.3900394854096554,-42.289619396408916,-86.4456355390565,-1.1792481038694038,-7.100970949360297,-54.21317044071059,-16.352516052368994,-10.927215935354962,0.16228820243976574,-12.589386131121204,33.73706982434879,-4.208050787541448,-24.83691371108461,64.12933289258437,-34.45033501988958,-29.266835980552532,-8.46978717266167,-22.345730747125323,-0.15223504630943224,39.235804717218045,-0.6879051935491308,-34.47156500357602,8.394203617673243,-57.808521211358936,-0.022711380882879273,36.80129237090216,-44.84267557482748,-17.368855418191647,11.968948005202417,-24.685488150282872,0.6969981012076514,5.60376120890572,-26.55639912392428,15.804310649360335,-0.010804714167184912,-20.92951806409117,12.975489608188406,-36.151915412091405,12.118905927405844,16.4401802049228,9.58152726362518,-11.460765758185572,33.59982163817717,12.001267839079542,-12.660525868178246,37.60414300520618,25.02565695454678,19.122776177609197,-5.717821958028963,38.900017949770316,5.4732871999688655,-5.783664459817325,-5.871315526033499,25.366316643957674,-52.89937338826423,-11.792602373911036,42.0587011386249,-24.368609985185596,5.4351771909051525,-7.283062044353699,3.0809522225048465,8.748055020527923,-6.162546445574276,7.4057703188272646,-31.46784448303429,38.98888648668232,-14.86685586381411,21.057884130733065,1.5917889879907896,-34.04701532348677,30.507508810919525,-30.106223746517873,0.5135859574602587,-16.997035483143097,-5.160714984489531,-10.709883715830179,-22.06889424899644,30.298671645803662,19.965851333030887,21.37354416400219,-5.595802365770238,-6.64254324394104,-27.76596102846696,-30.93417206317449,15.119341573963872,7.200073862605438,7.108318860013707,5.078833075685144,11.415999382923191,18.024724125535474,-29.739072846854803,-4.8214216240468,-27.868978353915505,-0.21779108695003827,27.417774847120594,42.22555868833783,-3.0738150489499843,-28.790471658011203,-45.47198576521454,65.81132582234696,53.86072797943914,37.5383192725318,29.998311088758218,43.061804660320036,13.83096424511771,-10.072980118386793,11.556640902632305,-8.275716682578937,7.146465649154684,43.792883432894,-13.41248708094671,9.48536886098954,12.784523681654576,-29.016494791462755,8.183687293145669,-6.852494528986783,43.49977359560113,-7.944386794519942,-29.694806154344654,42.32870096040097,-7.04866931143861,22.40722752083793,32.45862707072365,-0.5440350561982084,36.08523312751943,14.552439438351659,-17.628675215721106,37.32331101858693,9.843824705751295,-5.70113832890183,17.562406843535186,-9.584257982567099,6.5599932807101,29.25538359627085,-14.302629074016796,41.6209124046154,11.524637878163187,-10.371203209728503,27.554785792647877,12.302687104898224,-20.150886288408742,-29.400307475629333,8.903672119485234,5.3066763861373145,62.58164232351141,16.30994287941052,-4.73813931736433,-23.88700054123206,3.651248190789781,7.478053621327813,-31.554925878010884,25.005510270396876,-43.65611319715412,-1.039044426839651,-22.718098934133096,5.495986693063264,-12.570775395552307,-8.074010608831637,10.499549634399704,2.642141162114867,-28.28347360952502,1.702813895413535,0.5093097246344379,39.64377495139149,37.386391410041725,-22.760258360780146,19.88529963400113,-21.304347635133915,4.623885908060183,-34.2499342953957,-31.887138447970333,11.533201006830456,49.55186016697245,-2.160433190701176,13.423713456335596,41.02625645839239,-11.716173437904812,25.134618168012672,-26.970530421906215,-31.496543336981595,1.9558989030045353,0.6819883753531127,-2.3811879818603736,28.129500303419235,28.367627808432193,5.506704345250348,1.669108331143854,-17.71016154118078,-48.83061525672135,28.44305759044205,15.18156931704569,-12.064426831813606,35.02433529725705,16.97499824153924,11.68070750021769,-13.271998543971076,-0.9538842630289565,38.02467181531199,1.035268363703032,8.542634747381419,-21.693948165661336,10.124711471009823,27.832246827988016,-25.922744530577766,-3.039762124726342,-30.839943541227136,18.554528478027468,3.4966956531213946,17.159800415944087,-12.142197978697352,-27.86513355490649,48.59492991638353,-34.15757915073686,-64.4733281504029,-31.207418467551133,-10.988257577949286,-11.215288067793184,-0.1376639587799321,3.113975849321791,-28.830037706920066,3.1604872645331743,-14.057919814405693,-36.49800659780031,19.11858088672658,13.782874478095176,24.737514256159383,-6.944637791900095,8.140850905994988,26.922413305919793,-37.15146949159526,3.8309343988975786,-8.81498279868758,-7.634811305210705,20.837182819780047,-21.86621550140467,-2.412706901099766,60.992584038815444,-36.02027817800213,-27.448217819993136,-16.833360286297506,27.57487874931278,16.983970105273485,-43.82017648848028,-0.8825620362631323,5.96570691064112,-16.298352261998712,31.116745930177792,-37.63065444201119,37.00278039552871,-18.66022721799944,3.256931297336205,-14.646989017786156,-1.5243710374458157,7.427878064528001,-13.62939454501753,-42.19858987552496,16.252171967066626,8.318713566190507,-22.077590728181995,6.713439308969009,-27.42908042925171,6.068852978923403,10.548793763319729,6.340108227288623,42.02467613896793,-0.07988782998718078,6.705815470718816,8.029925768983752,17.202461918554352,-66.19110262214545,-54.194848853774445,-30.369440699518112,2.7407815904782806,17.834261452985537,42.87048904414969,7.28210907711506,8.145011226823115,-17.885611259493135,8.190578407614355,8.080603945476058,-45.49163197901001,-11.718591605071769,-1.8959889516142836,26.570221111585614,-16.247142946258023,48.445574584930995,14.54857798086862,3.835618302011234,-20.84596144417728,-20.81969251972694,14.757005338512684,16.707389131249272,16.583267670707507,1.7817740643445965,-10.327996331026258,-11.790542523102285,-5.733749505711156,10.334687034302089,20.25179050131389,13.950945971983256,26.691223699677472,-41.36320149837203,-18.71590470364195,23.835931552413676,26.996780046879945,-0.24091172031499725,-31.457839089116394,2.6414919592400876,2.758561115784778,-18.06407401115002,10.1894205608282,1.5320536376764649,-7.181919702293501,24.97422235461562,11.46506161874905,29.11149747619089,-14.234706272538542,-0.7706909109364161,9.469913122363758,-32.699400914587464,-37.1563854907014,-28.45094450529859,-13.94908714814887,-19.590446358538106,3.9728408297348516,-33.10360080946546,-28.248271563665874,-6.410478580956837,22.146256858776788,-3.5613479051580965,-13.986429954216888,-6.179675228955405,5.054579947730598,19.826216123379,2.0467031084531992,10.135795109104553,-32.79593560032191,8.37565832709861,22.839884865251825,13.93228760256816,8.566121504652976,-47.71762572145237,21.87534914665059,40.44854301183904,19.972479806638074,-1.1520396605282772,10.023106713474826,20.60293461926691,30.258112884070353,-0.43472427867384994,-8.253905953301643,30.188471652433556,2.885602949579122,13.73905884990972,-15.82950923370343,41.32738851493702,18.92558119532762,23.788133308038514,11.96045956286847,-21.753026003958805,-5.348233203366875,24.465285465053963,20.941187094054328,-33.8241884343428,0.29154826209772217,11.394424318075748,-23.64719362156661,27.229434148484398,28.907678219140966,16.10772171101503,-16.713364481967474,-38.991503927415465,13.494565174656412,-0.22002456481847743,-23.900992642623734,-18.90461760970158,0.6725917777428432,16.61777785175439,12.454014415360579,7.704487438770396,2.2694858117129377,-6.160683531518472,0.5933386461643695,35.07399143051089,9.193501510805852,-7.146813715884234,37.5650586697429,18.908958717314746,-25.13397413076329,-13.519727720596716,19.30456529143701,28.47322257689741,16.12262838075958,-6.122061518806513,18.726305752250916,-28.514313749622858,-18.058894914396053,18.64214061469858,33.144495745249024,-22.14355186837013,-6.582495153783298,51.941652342950896,-16.836254269876743,-23.944862685971696,-0.4183288818990117,24.785525948082892,-11.340550552505121],"intercept":-3.680513282878174}