{"type":"sparse perceptron","classifications":["NEGATIVE","POSITIVE"],"weights":[0.0,-2.0253246696140077,-2.0253246696140077,0.0,23.434523023873144,8.440722312617318,-42.397277688921164,-6.824106272992982,21.03682663122868,26.678178392675996,-20.56689432522915,-9.059557158149605,-4.1395311074339505,20.4712036508216,-23.390046362239,-0.06483072838170456,-3.8907388597539487,-5.2033611593451035,4.937744200117227,6.705032892927988,-1.127103134839369,7.394961872293129,6.277490597656019,-2.8007086033083146,-11.065574463278066,14.354154067541526,-8.792215305112988,-11.179800671510485,-10.330440382565074,9.060013330994268,-7.491541129610182,-5.151225468886804,-2.0627334993070274,8.00038410214049,-8.720486288440314,0.9694937250275225,8.594626839680803,-14.396677878894339,-1.0567034673591134,-5.857127929885536,8.417023114565662,-12.154762770433917,9.381605211589447,-7.488082227129163,5.183952229023365,17.04550578746856,14.531489797223411,4.783469496661359,-17.43498358274547,0.17433157178397513,-1.805059064898582,6.8459438145991,8.250021629775937,-0.49090010700001585,13.237446184877232,4.76805555847635,2.632815412549195,-5.551005160913783,-6.191682536023262,-5.896846465466977,-13.399555591771655,5.849451665687034,-14.989653457567087,-9.582652449055132,-10.445711915448527,-0.9955733119538297,-8.442202145582868,15.133554702988102,10.308307362773647,-5.326476184343807,2.3501118894400705,-3.123289615504401,-8.768856516277891,12.672508513075417,5.616603337161855,-0.4715214505246299,-7.440949465516569,-11.367070940939128,-23.858630088860842,-12.47939703879085,29.264382740942743,-8.03081432836949,-6.085966288695258,-3.9192437233144113,7.90652399008165,-7.1131060139531765,12.866589023545547,30.17460635754847,-0.0009228208132399107,12.83577817032711,9.588832523889145,35.573065048536044,11.925292940581082,-2.5427178159503714,11.125100315388462,-24.114138534771353,-8.286181168748458,-0.6189446455579241,-10.307933448974975,-13.054889044304131,-5.1594837770178765,-12.17498623547546,1.449452463338082,0.9247021843931915,-1.8885272881223771,-2.806573742518293,11.92585875960603,-17.567979138976415,3.2518373643416707,-5.388834112008224,26.19761340896207,11.920594260276454,-2.361821440797337,0.018887786424550176,-10.091665218393599,6.176084309235791,20.932294921072618,21.658391708948866,25.068191286193922,34.751060547667436,-15.540940155105266,-10.3654677580229,-4.36191063527792,9.315325013937741,-2.731730603831938,-12.607205191891717,9.052438198689314,4.165378372596545,-6.1721999001229815,-0.15722619495825924,18.173322520462236,1.1387150477130836,5.0764806155344875,-7.296071321410335,14.481605557093339,10.600970927644717,13.692095202485188,3.3188925017440827,-12.88235161864307,-2.130619798417039,-3.9892271759398032,10.951859708091371,-12.55771150592506,-13.34030457907875,-9.3755700750986,26.06143476142961,-19.53694114810137,2.948020449800969,22.75667121354072,-1.1043229963126877,15.790295511784347,10.141205693618447,7.02926276821519,26.424446098506362,2.6948091156113048,7.177517693962761,-13.803238698213592,-4.160307070200983,33.86807564554913,4.003558598354698,8.055967649046702,19.95757909924828,1.925087025403356,-1.553550985285722,-43.71383971505934,0.6409988966245193,25.252775265937608,-5.580146037352746,-18.781830303955175,-8.417393738888832,-2.2669478861529297,4.645197445601176,3.07232994683094,-3.7892032937967324,10.201595606012196,-4.843770476796748,14.482173977819864,12.773637974078278,26.309461025753432,-8.851473184990244,-29.312429862065173,0.7720243509902638,21.548465045848342,2.660344253808956,-7.012649039020467,-4.443120588817765,-32.90231993561453,-25.833888241420105,35.235126983693306,-28.93065976981369,-6.032596810790152,-6.533006172750867,-5.709534312899117,-19.95750580835743,-17.247407052749722,-21.732019235392592,5.335612970087329,20.81749855583081,-24.595032432556305,35.73370151369814,-4.163052445246689,47.23228581181565,-4.685233862849952,16.036828627160727,-30.718471940531806,30.739334150367203,14.878639008942933,-15.90125851927331,15.757177317391744,-23.581940429214576,23.231982125899666,10.695463151438764,10.4404116993411,-12.941220402667437,13.522242548979968,14.933989497385715,-8.21618483276478,-12.330401038001979,-32.130539809279895,10.861109009491932,22.79094441293761,-7.434149211751447,-28.39969686250235,-14.028429821550146,-0.3446113381217305,8.39242956058547,-12.144470929151503,49.15829543327901,33.870351322483764,-49.122778771050164,-3.443064085935618,-2.4515840719978352,-6.174643756648962,-20.376367974489483,-72.83425075511167,-8.258719733197461,7.0350840832379635,23.637809109261234,18.909245102583498,2.100027254251623,-13.34130426499275,-39.31679685037473,12.53030582440042,-33.44600491284817,-28.388628780169828,5.698207952895762,-5.133781639463601,-9.745735608735846,-2.5924357130009064,-101.73433634446214,-8.161386209318957,9.297522819882188,3.728196445489666,64.41215144315402,20.760241835110897,0.1979095700766989,3.717265948980215,11.512597456226409,-13.96503791886696,7.783604914476928,21.477030631043874,-42.876280720334,27.931973713712196,-35.06901030209365,-42.463377165679255,12.631895904426592,-19.33193359045813,-6.653376134257021,-15.08460105885331,-0.0766058849578089,6.09119684920674,11.30513254225047,-35.81876038229465,41.44045181809419,-4.8112029728360834,49.37992902427581,23.814227359026845,-22.132186363833547,-42.82124080635101,-14.6742200328087,-10.980459146200428,-28.399823427068593,-18.122129310764915,24.232708305323218,10.69229034293218,-6.203235601539513,-35.78063103318001,-21.28212662636358,34.440727042049865,-13.827903084055873,-1.8441913231581595,4.513193895258536,25.679603269111674,-32.29027173459986,-13.523467122071272,-30.669948170150807,41.954895390914146,-3.8153624668098374,0.30564157052166296,11.615950005129834,-14.537122080972381,12.205136024173116,-35.17062298975877,1.747407305238599,5.7026805472324025,-19.69074426708794,-11.79952129544522,17.759673957917705,-2.0093600607199766,15.651294428967534,-21.25076019431059,9.85852551464367,-7.084439564327519,42.50780516253823,-16.266119333012313,-14.920043027063395,32.06911391049899,8.80866287505776,18.73821172244134,12.625534416684705,-39.10607539276122,115.22623861892762,39.96515470290321,4.003025443419917,24.149760798988435,20.930216013859734,-29.216512069035225,18.375169201552108,0.4788421123319177,20.45856245013755,15.788793389974103,-5.742601324971692,-13.019319025124569,-21.133436026881412,26.956566547040207,33.689917907048624,-3.629410285234048,-9.886035973531726,-87.2446512472386,-5.478850331574429,-28.999004759146448,20.486843049709552,5.355285040306421,9.78067783962309,14.470130054531053,-26.096151394453475,-10.257252077615528,17.757466154324117,11.357777383125113,26.777557303978753,5.306468105079723,-24.12379625934831,11.567539209703382,4.195173312004095,45.632487148379276,-13.925490517323055,38.37516836521031,-59.647893198985926,21.33863217884816,-12.158121396393865,-36.023269734021866,15.630870328836533,-44.04275361386181,-2.741726025406012,-20.334795015158328,2.7376875676819035,13.050592132202222,20.20752352710701,48.98195002629824,33.00813977404883,-26.385079167915798,38.63244960461482,26.481992155831577,-103.66058928468297,-11.783321735566764,0.7116231776399655,18.541338024015868,16.071235654686983,-15.660597075450752,-65.84105394970462,-16.636723589489844,-15.528725796942194,36.75792479937768,-14.646429909679135,-32.35904618146894,-1.3019163573665542,12.038091406133967,-9.11306580754346,-10.743760404977804,32.58371546132907,29.07691775230629,-15.496747883685497,2.9289636894173254,-3.6205515609525256,-60.63329919355392,28.77565794303236,7.608139152547354,-12.398429503563422,23.73904331923032,-19.610486406579614,21.452662536675348,27.955522415847053,-11.054124718614567,-16.084788884486837,88.15600652671574,18.71976556554743,45.07708583880554,1.6162855688019624,13.61405553653462,4.990504597320566,12.574337346017838,14.726179514626768,-3.2618485744517463,17.335132034874718,-24.61441666541463,1.659821775387815,-34.20445321940586,-8.105176725145473,-15.577908658525951,10.821899931463117,-30.60238092185097,4.4288959281582505,44.456226141825994,21.94386644264819,-64.64301701111398,-5.4750671360089145,22.091154636059898,-13.108443394944379,-19.055391850367286,33.604530439215715,-33.763824676302264,-19.59358445834519,-52.10313379712327,-46.23918428289554,-12.872140553733516,14.075677821991151,-28.949660650572188,-103.28244382922325,29.76002780961774,0.27498945012078857,6.444828331176664,-16.8869491837438,3.9302777469659476,8.110435255505022,49.9498036950206,34.101789595693,-12.551926643675301,25.066004493383538,-28.362206443060177,-11.91860144810273,31.037825662392603,3.6113142569290853,-32.77223761115032,23.20943877082935,20.884799135448972,-4.924203938748113,3.4651226957539696,-2.2743354013258674,-34.421077011547496,-38.89388657236636,2.150801357075265,-7.2124817175430795,-5.498389500594243,17.435266950255514,-29.201598641436835,-38.919688847694204,-2.892881282001687,12.566507092086987,6.005057709087828,36.19568706562998,-26.44246937983985,-11.610178417454122,-41.08226502379981,-50.26607322668064,28.302092178698288,2.1669413994737248,-21.470150688001677,28.925403050146368,26.9058021946433,8.052685092550396,41.7388904847658,-30.350906280977664,-19.52644147660624,43.522016122284946,-13.399672263523774,-5.934078473639669,-27.56776226305048,7.48475124753211,-15.118418523691318,2.4720327023673567,28.477608317478403,-10.291177746855157,-0.7320583133420328,-1.1788148777570437,28.774820669391055,39.59088955719756,-14.73294177900464,-35.938982553293734,6.435831162562763,14.37522088185175,-18.992735273258493,24.1436106080282,3.0517740713637016,-7.081056545804226,-22.629560658309227,9.887187266035973,-10.821734370599588,-12.427888646053995,16.45679537994115,6.00583943543378,46.1827625730018,-13.165715686158869,39.65901065114738,-6.206392208571539,31.615592355877798,27.300016352204313,22.53586514324445,0.6771049433547816,34.38700966462613,-16.40629268837957,-5.186841413679641,4.479527508633645,-17.712616337984286,2.248082604070492,-3.693703298383056,-6.537957196302241,-14.850374716351505,-48.34435408085942,48.11492215569377,4.990250557818695,42.19511785710883,12.924968450445387,-21.216923171413512,-0.4906298038341245,-14.11824043271368,27.035515605876235,8.425448449035434,13.429607188927667,-11.103423699842175,30.52017596336417,7.551677105873684,20.29213367958821,-18.380745164347328,32.53736354862191,0.44342040740593,37.17128192842218,11.395638548903904,-11.94228203425849,33.19240795572264,-27.132427656390284,-28.61417406239439,19.12869277045714,-7.07900672162829,-2.3341042610577714,-31.939300527139462,2.436248706232886,35.47094854547505,0.23886358705278107,-4.33283540643632,-0.1781421948964388,2.341081993057314,24.7434160365696,-64.5389811813064,26.841194786114695,30.073355479441737,11.456418784168294,-29.8291168641652,-8.975304490817376,-10.772457058139473,2.988057223066626,6.031017297699903,4.922707743979336,10.03738210833024,-13.721281020661062,-6.291987818995676,-16.612328164364058,-19.998666416613453,11.670390606488928,-34.889180143429705,-30.26693313456942,6.37344492054937,54.187111487352006,20.1631187568904,-13.486104174065481,-45.98666621772674,-17.32231943377501,-25.747619138182028,-33.44790354048838,-14.817567578168044,-22.790374481884218,-40.38204024547636,-44.3678978550303,17.16886173466829,10.823566492528565,-59.759242152802145,-75.61127058082164,-4.279613897791336,-3.642929568227782,-52.40958374532553,-3.264774944328113,-9.546542944079063,-11.831929783567087,-13.060754104417297,34.76875824444259,-1.1757210357246606,-32.05719937063985,81.48399365511504,-18.675747947350708,-21.45313733864347,-1.4638906319453422,-9.899943968437043,4.426914666287854,23.255210772839366,-4.964501331240948,-31.870103633176683,2.2757840509189458,-50.94160841028269,8.94299012593948,27.05220103354851,-36.33359712821626,-7.89921847181558,9.129798005984606,-2.507144258739728,2.183919468987774,-6.014715369938239,-21.589096340591734,9.130726104718182,-11.083065679847254,-9.126581831974425,15.944062660583741,-43.26402485470324,-1.185068667617386,10.827260411306803,12.806226245774333,8.514484399697203,24.728457578221597,14.23302571051975,-10.383270795898865,24.988123715856254,24.761375116651106,33.16604061718005,4.065895677357553,26.35909769713666,9.217952668165147,5.498811782283778,-11.209995805607615,28.62739227506935,-52.98793788635826,-3.8122852101221882,7.1019071271152425,-33.20392267161165,-13.036851168369534,26.096813094556342,1.2158802120898256,8.823170675693822,-4.811190313845055,4.584730909486499,-40.34282269736614,48.45210596589769,-6.948123799042287,5.845029735839985,-0.21181312184742185,-39.389292289189264,35.41809455282823,-21.92010986655782,-12.875815693414674,-18.087619820990177,-16.327421731178454,-12.36074589680823,-10.918825384498858,21.260365937828,14.87808636282383,15.881323648578354,-5.924213946197624,1.4884892229226863,-20.47351341867964,-29.963923994986757,4.79282862214522,8.436174152309164,6.394149430180659,-3.4363178634544647,29.054671075844496,14.771333164156763,-18.837922140063203,-4.089139985477809,-28.771176419452146,-24.75109721209487,12.822466338482394,47.62929122204526,-0.3985766185293576,-3.8767228167783525,-59.02124548321442,35.62879901697123,47.42588323338089,55.71713842684001,19.626932723995697,44.858802410115594,5.154054999674861,2.3749162869021947,14.21473729141652,10.900445114061453,-8.848336814147226,48.61232332454304,4.3243974585935465,-10.973830613749074,5.608796649979202,-30.00870140711906,9.892300483050064,-3.327084179270846,30.00418931372114,-25.459523355329136,-10.621580758197263,33.71717969116026,-1.4877113200674326,30.47079606782758,18.900654465940526,10.406771891126526,39.451316751765106,23.664870597457227,-24.81124528948204,11.41458451493496,12.534935373505606,1.8169007056272533,13.370474982155665,-17.06626397940037,23.58482037174272,24.90335747385255,-16.566334138542082,49.68675743745768,10.3086703123872,6.466753972565362,25.615556920899778,8.858542258535316,-25.768244921637205,-25.620719219336845,14.084119369951045,2.0017612701989367,57.0345514556578,15.662764982763713,-24.028193387892937,-15.361887357423695,4.4268708505790375,-11.92822147036066,-15.821036272610959,31.768854181004365,-39.388619074621275,1.7492361964718568,-18.77396619210237,8.206082452740484,7.608855873149716,-0.8755405141423566,6.714068652056239,-8.149829116232643,-47.24520285169123,22.174983652848695,5.29483209772526,39.25621671943743,34.943265807963606,-23.24148779340188,13.498892115536778,-16.9313015453032,-4.869035112885128,-4.471261856676452,-43.01595526693868,27.95269055275607,25.87844365703153,6.886392320523736,-1.6093132891162616,19.180686930420233,-0.6499281527878888,33.968970118274974,-13.939598044079395,-35.72778224286462,0.3931774594250534,-14.423404226544417,-8.722663706249055,33.25995138546914,33.96897483846162,17.480299318359588,9.112853872384695,-15.804581275006111,-34.18061607018345,24.38696118057932,3.651720510393671,-3.06740079383239,39.297729260271375,5.263013740708494,15.207136765564782,-11.074236699543283,0.3656224581488294,32.42312858849072,-24.055303508792385,12.573526565712328,-16.52394951404759,8.851846501678217,29.032247680499733,-16.88291056457549,1.7178927971997127,-28.3082470681696,20.48189691094071,5.483258547513131,17.26210521980877,-18.098649527086312,-45.8279920506882,28.736283958986828,-34.4502285292669,-43.86498758966359,-29.280841680814657,-23.744370761937713,-19.470926131371563,-8.803530445286647,11.373851240656062,-24.08170595621836,8.493392020817648,-29.011945866180277,-15.214392796225171,18.020158257649562,-0.605554435382658,41.34909341871206,-10.012006267772968,13.479085430259993,14.11863678698999,-27.095302503671146,23.34094776516821,-5.680895678714475,5.413779205987497,31.353708973968597,-20.611785268920137,17.574064394524605,41.00283069912917,-22.88148642951874,-29.310253443024717,-16.0043872723854,16.938940335724965,0.10365603156508421,-38.39361145599744,-11.07109494481374,-5.693356925837597,-10.935251947951807,39.10955139423375,-30.250625651242817,48.762807641453435,-5.368105123925922,-1.3944655861259292,-9.001789031213542,-6.491082058239204,-1.3699935220605384,-1.1676753121261474,-39.94000769142465,17.920109923215335,14.692241695552545,-20.614528878123323,5.584033390646959,-29.300099158716893,8.315404523646107,10.16691726818665,-1.3225732585590364,28.467985641943145,-7.829486039631537,9.676856841780044,-11.074466046195212,36.86983320057259,-62.62585835385857,-33.89336997118983,-4.819014967186996,14.202050810703273,13.454094979460752,40.75318474627415,2.6394358957600383,-6.148078356130464,-6.200253371314574,19.04387077403088,24.01839338000916,-42.566747160553525,-1.2848668063854067,9.016565689842933,18.36636998909658,1.9467230235711266,43.11853998603397,-14.554702482028429,-15.014319059568376,-11.717724741821055,-20.625301828303662,12.218895053272206,16.10494920923154,13.029586376085714,-8.104136001247294,-16.63062662666723,-20.67162899574888,3.141904657556222,12.04748400149649,30.82723097160283,14.84799200009629,23.65851313460188,-34.75129628366061,2.040862090776962,14.939119730065205,30.885376300214855,-1.1020995423650117,-51.913083779930965],"intercept":-2.0253246696140077}