{"type":"sparse perceptron","classifications":["NEGATIVE","POSITIVE"],"weights":[0.0,0.03817709776431728,0.03817709776431728,0.0,-0.028771201737564818,-0.06889749221205277,-0.05635308383699732,0.012595838805119997,-0.16031940274219525,0.313278782415867,-0.006634530409931911,-0.04842146983071098,0.18241605141008105,0.3228962814185002,0.025532518069919033,0.008733061686688134,-0.07742718929159759,0.31211808699884497,-0.02773758369062198,-0.13167765814081941,0.06517883712154839,-0.24851201440846482,0.03268343637449246,-0.11386130413117578,-0.05514933738787036,-0.19500403349831907,-0.30109070718470893,0.2624031962529018,-0.048472430744419495,0.09083322063302089,-0.0071670339617942,-0.028145054334315793,0.06970479307111553,-0.0103502417175233,0.08424961074764616,-0.06886514363386156,-0.2708149230265917,-0.05251401239315705,-0.03215536545678442,-0.25045551965817026,0.11281121922418332,0.28424665262208987,-0.049985768305599594,-0.25931001498251266,0.1347613073227252,0.014842881318925125,-0.13678145641108683,-0.05134048728600158,0.2390003910604814,-0.010362904559383844,-0.2668360750339184,-0.13021597041464078,0.022072955101002316,0.22866518266876273,0.1971085375890043,0.06638676239145806,0.014466826351366244,-0.02994856077488942,0.02446819608255894,-0.12299247322153967,-0.1695154312498187,-0.14803834578219707,-0.08000296688943545,-0.005682246693495804,-0.05952331622087509,-0.08979915882341805,0.09148484778501148,0.18045904272997246,-0.11596903050919435,0.06114185465668302,-0.11828470647163326,-0.10626338019605346,-0.21447232809885453,0.354682471954872,-0.2144087683644399,-0.17744399379188816,0.0639362950477512,0.18410866946101245,-0.48370126666283403,-0.10546602241055661,0.37904953791308177,-0.017855427666317824,0.08177305004291639,-0.18527773620956808,-0.2206290097539888,-0.3210569694441287,0.07338105483684873,0.17428399869199235,-0.0699060674849933,-0.07954994776450508,0.08123473388520451,0.17368015405813148,-0.2240794914650023,0.07338841209051217,-0.10382946813721386,-0.1109773900271839,0.03463896771496541,-0.2749205531056203,-0.08786775893067271,-0.12254698312034698,0.21135978755056473,-0.29281816456546944,-0.1232175633184481,0.08376139385045182,-0.07781794459804021,-0.01715498341566069,0.06302590953734924,0.0979495318590384,0.07778130890120483,-0.1790152219696457,0.15725242525923855,0.11761138269410884,-0.04873418479484787,0.2124757890697359,-0.28770100261394077,0.01743790312505708,-0.11093537601156175,0.07915121904249786,0.24160785813260346,0.026171329198585495,0.13233884562135978,-0.019019439205697538,-0.18651361012873144,-0.0830731493524033,0.06783343130408641,-0.03921438550256142,0.1361546796582055,-0.17039162975703012,0.03948711780138099,-0.24309025030887418,-0.20619832970973184,0.0527408879476413,-0.08039958505795226,-0.2121095052721387,-0.033215948021879285,-0.13171324473458834,0.20054244339301386,0.17693722206504134,0.04402652129489529,0.10297363600885935,0.15769651068610846,-0.1845667061853142,-0.049066225356714,-0.32814257966250787,-0.23086264966398523,0.07126516921594017,-0.03122928273724774,0.03658079704662301,0.26390684825336497,0.041265331645097686,0.11611016863051324,-0.15461367543903257,-0.10185838899416703,0.12986154531770805,0.010432033667512695,0.0624380149802328,0.026159250167605577,0.07850145673783294,0.14023643432405228,0.07962953456312696,-0.07897932655760027,-0.4206500278245521,0.25790887411756974,-0.09914911862981568,0.02278349462547113,-0.3576803151806366,-0.1111066130123127,-0.0231330408348069,0.20572541251687065,0.040966580907764526,-0.4777827493313812,0.04541637399858611,-0.017683018213259186,0.05790819154200362,0.029214773444559312,-0.18033907846200892,0.2890142431533292,-0.15450055425877915,0.03306989388501386,0.1320285732406308,0.17288938730970427,-0.15666377922479952,0.059619543777001065,0.30075698559078023,-0.27824294320764176,0.03611083570652257,-0.042254020269880635,0.005955107992687073,-0.27914498410615396,-0.15419116175271774,0.07922295269963589,-0.08229336994844597,0.1790997704396376,-0.06774908221219535,0.12244963049491017,-0.2517855981361207,0.1679796332417578,-0.04598734756675597,0.13303089725085676,0.312580108949012,0.03978375472746751,0.06652994771293033,0.1574953847650962,0.20536978578677476,-0.20382430564159115,-0.06132353274772191,-0.11129964967130301,0.034919123147347936,-0.03705649866831229,0.0144291595171419,0.2003056623366078,0.37880740789836,0.018533651644100802,-0.08214323537810185,-0.06769035259510994,0.005517703521931795,0.07971772072176665,0.07274144935273327,-0.14863070652613464,0.0829109183795794,0.07430842489595586,0.2899584545067794,0.20648352305227205,-0.0036216547051335264,-0.1745957157336249,0.12177265004548199,-0.09211052643129544,0.06494879259000444,0.037645868747742034,-0.01369810652584778,-0.23214461630382593,-0.36861471492376785,0.03340955114895065,-0.030514040319169884,-0.09913052283839545,0.04210916494435581,0.05021089074495251,-0.16704652884244214,-0.17121666936681454,0.3091935448821977,-0.018518605771112272,-0.2456373084818122,-0.0001647997948145477,0.09241657538519057,0.09459918486414773,-0.03147047124530186,0.04220596986060711,-0.12236721087790839,0.004372627734530642,-0.5559183221214289,-0.026425094708756182,0.08388252186091702,0.1245999237422859,0.3151248557226203,0.09593389852218492,-0.06223880176451572,0.28614331964253914,0.3530222367304031,0.09637907143696364,0.3293144245624798,-0.03530834330827369,0.30216763482677367,0.12730168936663208,0.11712326910020135,-0.27770117752663204,-0.2402830521280543,-0.196491767324176,0.16074982602124524,0.1405045856523099,-0.149293264614061,-0.01797707338655402,-0.2581997497571001,-0.28461441191731657,0.06609786289850803,-0.11684987295482309,-0.10756141952162664,-0.017232482367878287,-0.024171046880636274,-0.02458137040404207,-0.017648258509572055,0.2512693737361939,0.09554802234034532,-0.22871568010825574,-0.10057486819911808,-0.12306797118327953,-0.12203448066784102,-0.2767784721742009,0.011440969258867846,0.2270368053037234,0.29608180862796957,-0.0864931680772149,0.0339623885096638,0.34852011865892035,0.019960218937163998,-0.1479416204793572,0.06765146994059179,0.16727797956261492,-0.08964566899110667,0.07852732680816145,0.16476139616250382],"intercept":0.03817709776431728}