{"type":"sparse perceptron","classifications":["NEGATIVE","POSITIVE"],"weights":[0.0,-3.3308300579152417,-3.3308300579152417,0.0,20.622325294158284,4.668942526442588,-44.35104971545428,-2.4948732243130265,20.062236813471657,25.695948640375608,-22.424209734816483,-14.814497215825728,4.850365097564391,16.706029132069602,-18.478789152915862,4.053433205118764,-0.05380274264755501,-6.074983476955991,2.0621213179782396,0.8460605442933399,1.7284652724207146,10.488089584057235,5.805082715032119,1.8496439882656184,-14.716949988142487,22.014019621814608,-6.54744543174617,-11.492250719755324,-4.129483565992735,11.98029365829811,-4.743722546443306,-5.250407707570603,-3.5382062086383375,5.759466594071217,-5.2571508619803895,-5.822782858201185,8.281160110827084,-3.1662765584818735,0.38682759306260656,5.060035133164392,7.914075560531034,-3.2389351911640833,12.076090544605332,-1.5042233871338624,0.3608500698385711,23.16988015154316,20.654041260973415,9.759230745012523,-22.286894664320553,0.2576140926225127,1.586557425266886,10.761360797808502,13.564453316933864,10.439509624791057,9.555085767852555,9.498965955117985,1.2310123814742115,-8.771937496770374,-6.4126722077268274,-4.810695243252636,-11.864819327203131,8.10938196887211,-19.82817553449244,-21.249697049336977,-12.736615048873926,1.1143157963034631,-2.0182242570019073,15.569714844698256,4.207181781223087,-8.305582071262657,3.6119605789408338,-2.3106738292550033,-6.941718962132838,15.13673441650061,0.30857138204498386,-3.5499504322186732,-1.7786079921821252,-17.689255076029394,-26.479329490894653,-15.289651282114182,25.829777057660074,-11.392998461087494,-10.220899726047236,-2.1212262648379534,13.32316353430507,0.9563680581565964,11.92678009144552,27.138903576705932,-3.5857601174185456,14.296681844451266,6.864095665718671,35.974630677679585,9.918836585760014,-1.9778235700700575,16.736221101217172,-34.17265824360342,-17.278721016361086,-0.11966386806022584,-4.18390717302148,-15.286041291742038,-0.9887271835786126,-9.637142675099843,5.659034596047487,2.328686962993963,-2.1460081101798307,-1.7614799963758943,3.5636292226084865,-8.217653022014773,-1.8169464155324762,4.574230901275818,29.48020138429504,9.070650053518639,-6.079747946033434,13.997322506873035,-13.612613605220377,1.9462137893445013,26.017452132933688,21.346556912099565,33.01829270623763,30.906413081301782,-21.429684960376303,-16.90370679714708,5.774916279204485,15.779879760074122,-7.919605991500569,-23.691871716321206,13.052953395414194,8.128868653742943,-11.820301788934918,-6.944522306362823,23.66749096102441,-1.9057114483798554,6.871427179343416,-9.670029447565087,23.346409671895056,6.734843602606083,12.506536317482212,2.302937563551158,-13.21599323578949,1.099202657412522,-10.628709126330563,12.198255421917871,-8.225530124671332,-3.670505720870302,-8.986486125490995,31.85270007735698,-13.02672307156708,-0.14507778858737716,13.180011868930114,5.523285326932366,11.305486208546151,1.8766981562378424,12.559485924976183,24.809054497932333,-2.9406531074940814,10.596008756615703,-18.23169204270219,7.080180875494906,26.470887544681712,-4.403226763841753,6.971029467426242,12.131816071045844,-0.6701093507713529,-2.962758383034265,-39.82409193248533,5.312525530212245,20.832600908732054,-25.381997022892254,-12.630110138400376,-0.6606718238321543,2.1525652693089237,3.7390077391345726,-0.005472625032863859,-3.897037270658857,13.49540187036494,-8.271646107681955,23.786805154799957,15.211394862694382,30.864321533808255,-1.149309876640884,-29.639405209091027,3.39398497014846,22.44112069021802,12.12173833824131,-14.860018675460847,2.1892622109983217,-43.66802090067323,-18.22138727236699,39.51315215199848,-35.301155930054186,-13.326145255598979,-5.544657632183975,-17.251370404383877,-12.93741845077369,-20.353998082760572,-12.733884166743513,-12.98386772372373,14.661996299885677,-15.585435176504417,24.205005919554416,2.3865995093438697,36.24937937731338,-0.812879407428167,33.391369788633405,-21.62084928756809,29.419284259159987,18.004632664939955,-7.752325134749638,21.481373702954343,-14.244290895887067,21.988591437386773,9.78182131343656,14.36218608229458,-11.851647816211687,12.515787700245566,11.442109657236543,-19.304899078490937,-16.136295619152925,-25.00116775770192,15.665428705510594,27.876621696182013,-18.142410415021374,-27.896830005143546,-8.127382124027259,4.459531183135808,7.565323486808907,-17.20635164906751,41.73326447095433,20.40748336739509,-54.0374629062063,-0.8309989221390353,-4.365670158673979,-8.303791867969531,-23.18520024444866,-57.70954049417287,-15.921599876875796,-1.4972314971446878,14.566841416791114,13.283737236474062,6.065536490732347,-7.753143258649332,-43.73357630918996,24.154065896284827,-42.12453795526146,-27.36766442571129,0.20751588687944555,-8.100160526945775,-12.734710869232867,-12.955486506829084,-118.51989179834528,0.8198870471442721,12.843372015623913,4.968556852587023,63.12905956189317,38.05743696516184,-5.12996605774256,-5.656396835119673,6.670033832443076,-11.374278086558865,-2.8060778478505024,14.690963656480823,-36.811949633694546,39.2270973840978,-29.644287726244105,-34.02239854453859,12.391136903826288,-46.56311665319775,8.178967536334794,-25.72549952121496,-11.651561051587919,6.267032717970124,6.49262968774789,-34.92732595308236,37.91744643665963,0.2764230524241814,48.92438816520537,13.102194901206499,-10.876043056527033,-31.44161952124669,-5.123394093885758,1.291842477182646,-21.85298730290534,-23.07979253726963,16.676272645146557,8.8065563858834,-2.245453528209845,-31.827659380898186,-12.583592612781873,33.112706467476215,-10.570928927229735,-1.599632472398308,1.1493616052401132,19.892710650763732,-34.16291105802096,-10.031647786082017,-34.682073712746565,36.938317817797085,-4.194186576415071,8.336269397657954,11.364106442381212,-26.283833806703,24.293936037520737,-37.65399550399154,11.220606457672904,1.410707815158633,-27.564901365549897,-21.14584564777211,4.942774858784523,-22.092648246732768,2.4783066154584716,-22.169200769977923,6.086942016362014,2.2177862660804752,31.175957573896195,-18.87564805098426,-10.643925117177025,29.363513259858834,30.888761126652216,13.126483795319514,6.145278453800849,-28.950691572519922,122.38429206018267,42.96799478442601,8.593027643387508,21.497362826524537,16.167949455564013,-35.46850540052371,37.470533977298594,-4.639884223660047,15.978570368457667,26.21037085916289,-8.802287885443501,-7.557730021061833,-34.14871854888657,20.038842109344557,42.637095119833,-7.498850724729481,-0.29282502293850754,-79.82113415806809,-8.775895259535979,-30.30629084028185,24.035403280675222,14.28692143862735,20.56522186594592,-1.4296747855145602,-38.55956174558378,-6.249311602894935,3.05183755634724,11.098413054807855,19.936324774759235,6.642479084747379,-16.94674807887938,8.253885063124601,4.99164332783265,52.179962996120786,-14.350680001549566,41.681014774867606,-51.091514652018354,27.037639875609322,-13.048546822363305,-31.40943945229919,13.026651379783809,-13.244756010999192,18.889518131544232,-29.653328339175488,-11.989708024653082,20.3922970218766,26.041740637025317,49.844494233124955,27.31960081246018,-31.641367918779697,27.545817911969575,28.14537534923767,-92.53112187256013,-5.546652286702457,1.4353290535205596,28.080324635992035,15.742994263900385,-10.066643776721634,-61.870930238936005,-15.382698269027655,-24.650505900675913,29.84709424074158,-16.25595991684837,-37.003849228171894,-10.449712871053343,0.41260472693850897,-22.86614629658645,-11.464249530268345,32.81113595866502,33.440010978860684,-31.456541492889684,3.707586024647972,-14.949596354617276,-71.01217089197,11.94158571197275,13.910587491309213,-9.121682841521109,19.92212496482429,-28.43706682120435,26.96879179572825,35.991393060178986,-14.144825276701146,-22.151398477788796,86.08878032792347,2.3219077398175867,37.17143772124355,-0.5158066007215311,40.758675698450176,1.020066870217179,16.95514829814983,3.060505831199297,-8.423403397921385,3.3748811483707986,-22.272799442737487,7.892465776810783,-27.530841181206778,-20.836914816234366,-28.088585775970245,9.243636323341104,-9.749876862775915,6.468827380823087,43.52322879545977,25.79950507374958,-62.50093511661628,33.53708169495953,21.937641881008023,-17.84723942312805,0.5796154827067289,55.40131477495681,-19.387049813932553,-8.4584690184734,-46.64658980574118,-31.21572118600218,-17.697039921352992,20.076643606576543,-41.34876857036641,-92.99040052478843,23.508813363018838,2.009512573923143,26.305067425000203,-32.796113370398515,0.28403331930865494,11.265246072381892,71.76510877089548,26.73545736550769,-19.362536594843956,32.317166629544374,-35.10422187369905,-12.949626875769754,8.32022582652141,19.59943018512517,-22.75743339654459,14.41142949001761,7.719343494894456,-12.073169123956912,-9.29833099730417,2.64958392815544,-27.12618906582169,-38.59031896870849,-18.52095342140809,0.12453638473104689,3.6941377937616116,32.13558195602897,-24.93867280419929,-26.600713003856477,9.484865915757641,10.522626056981968,-9.879244655782323,38.10280287581675,-17.572553638543923,-0.6351025426165399,-40.78915343080409,-39.28170193919098,35.12892723640874,4.570375088612563,-16.592261396775633,7.55955136172108,29.880112357598698,14.569362738659486,51.624387978018795,-20.0539875320489,-25.0286696947038,29.791623246034767,-12.272577181147385,-17.1622225692448,-14.267666442361595,6.3900496592137825,-17.98628621493548,14.821985388976929,10.371570125514005,-4.0133408673704976,2.368175571420746,6.71069170360838,25.924343036905007,19.37229723551539,-15.35840280553836,-53.49271575825395,-0.8096923004980694,-11.845677986494902,-24.869589631680622,26.437319535297654,-20.08963844241066,-10.162356032249608,-17.892990704497674,10.685390790402996,-4.988610982339612,-23.603510017926656,24.290980764919514,15.647570324764393,42.90616029622953,-6.321559573118819,46.50645408663607,-14.856245393691546,31.828666316019124,26.475749003286037,7.044025145280629,-1.451683866498384,36.17357603730588,4.287939210597497,-11.016492983872585,-2.9837333460664457,-15.727013217307247,-0.6090176718773285,9.637756480821055,-0.07891155106850142,-22.786540199288957,-51.56328692935821,12.205989062979091,11.137781921673778,42.7650135838155,-0.7543159703066747,-27.161891628060328,-6.31404202435983,-16.69251136433773,16.66869232169029,8.447550944886677,-0.5585388667631292,0.5142759929876233,35.243264406824366,6.756640155990541,10.337371315170667,-27.114891444943762,38.65841451299013,14.07210116730075,36.982384619242495,11.078672224744261,-22.0772793816917,34.12147341471615,-29.593672176409218,-27.09582569116743,1.9627937662747243,1.359869561191551,-25.957765795213145,-13.191138287253624,8.052006023076615,24.260744371139502,-15.133396442146559,-20.395327553277895,2.7331798196672814,4.190662611673165,24.3652629919111,-46.54490828605061,9.044153211356974,37.64059003447857,9.236503005404224,-45.65258867488055,-5.1839754628606585,4.462349832558189,6.128845244561004,-6.398505780571596,5.439489310464034,0.431014780334718,-18.426648792470807,-16.285270849660996,-29.473048080749344,-24.291289692386734,5.689653692677448,-38.75941845670784,-7.449247586797074,11.91655888113161,47.17989166007042,20.798989094578268,-21.394509086066172,-45.081193465183766,-17.339685227952447,-30.102326002055293,-5.963020112135396,-19.358697115016508,-9.585221533247624,-41.02103605963501,-32.666834308363555,21.018374134097137,-0.15807726885746265,-41.26579903275774,-82.04142740607544,-3.3781273277473414,-4.939471958898728,-52.74581583442485,-15.424343038812834,-12.804013197818119,2.1751496868499935,-11.806802046496458,33.27072596623612,-3.988035964540428,-20.702815281591118,63.98858543651393,-33.81906952425414,-30.285142639246004,-7.813849853680464,-23.08690316283258,0.5257505666645976,39.197441638921894,-1.9602103306388323,-34.041093939721705,8.699045604341753,-55.41282502580916,0.4804546624898163,34.460962700251045,-41.16103962717854,-16.365674003262107,9.730084457057133,-26.27423257224545,2.0937079671573127,4.955846771086326,-26.611918434161147,16.597880773934143,-0.4089957106676869,-19.965418030399814,12.881690392629432,-32.74347373409322,10.76026676882997,14.430448107955504,7.5710829270645075,-12.257569814655438,33.865404790859856,10.547533301040554,-11.003426643350231,33.216296547708545,26.67273464970519,19.034116375245972,-3.8369172562283116,37.756605055591855,5.165787224783872,-4.0747147513385205,-6.510197371656904,24.044469459628278,-48.77837901338467,-10.669650108291073,40.19224170746483,-27.883595301929276,6.780531448231104,-5.48068791466399,5.787249323150673,7.624331539299652,-6.563426697637821,7.705210643006795,-28.6380529083209,39.73323356592203,-14.637692928884901,21.6415810726453,1.8008739462470502,-33.54878691376423,29.187372704824647,-30.706236487261332,1.737348772292569,-18.388555656005867,-6.707522150566915,-10.563069309249027,-22.876642618053353,28.730529490251442,20.04505777415644,22.465176153643444,-5.0726272442602065,-7.212234241021883,-25.612464208071962,-32.79092543934075,17.028167592327456,8.974898020167757,7.569086305976336,4.384870605568276,10.966785067536525,16.331265865507152,-25.986890052993427,-3.9400739556519024,-29.287086123320748,0.2894617764433963,27.056152479550395,38.63417829437654,-0.6220545188114684,-30.203662488626538,-43.694322721432535,64.15591329745442,54.46347890553186,37.560987456897905,30.271479643648224,39.529420863205246,12.556578356685458,-11.800129280096968,10.743200747789103,-8.139650143470021,9.110515439241798,44.38261789310989,-11.799953065010108,8.169355830242392,9.154437637729732,-27.348437513039983,6.983410115636154,-5.847005973707303,44.526387208847325,-10.02062207425214,-27.789311518748566,43.0860384512708,-8.835048597807349,21.944000518952983,30.037723662716385,-0.21589829621994758,35.26732880518956,16.01196955254766,-17.86815545565558,35.38528197566698,8.71391241332243,-6.588641155799232,14.838863635575843,-9.733554325942443,7.257839725008096,26.496289987158654,-11.910975091443554,40.16280906601163,11.600385494254043,-9.719017030469349,27.141478266042608,11.105144489065102,-18.33549592609069,-28.86299920137307,8.922716670931933,6.43691123602166,61.307848565368744,17.800497231721888,-4.648106742809581,-22.037367589635704,6.093266870239179,5.954797035556292,-31.849577729374612,22.290081217638097,-41.6980476478889,-0.7890789393089339,-22.822321295620508,4.840955721422451,-11.995908842319283,-7.594455139898197,12.323999270401156,-0.0986066156780381,-29.172093177866415,2.092856377655715,1.0606273242496194,38.21045843828622,37.539143433627544,-24.09253481177308,18.32556272529899,-21.20925681679194,4.7668062857950755,-34.121992233457,-30.655078790232455,8.450511141355774,49.413608131407535,-1.3249101327940187,11.846261229455694,38.611006443035826,-12.951242758795182,26.373508356994034,-26.85728228367504,-30.851261702440993,1.3110571257244759,-0.1437768855358831,-5.973167337299394,28.40699205018631,28.112622804470476,1.9330565956049197,1.1713355474059728,-18.357796844100204,-48.111076355909844,29.907625093986525,14.868751819349104,-10.523204246344497,33.3315395680058,16.810193138894327,11.23144048889078,-12.957244204440846,-1.315727955358827,38.46508088131105,1.6319586664682637,8.091326005309737,-23.19769783321092,10.602881440698608,28.7826959300915,-25.18097298266637,-2.7644883250890753,-27.02777996414354,18.210755079696195,2.8607858273859454,16.649231910970673,-11.607660298813206,-28.72698197268446,46.545165564891654,-32.77467554257793,-63.141936452716635,-30.51185733509148,-11.030129998555879,-10.581316137341766,0.4133662132525596,4.30630028294206,-29.88541866294161,1.7097567539595313,-13.11123672844315,-37.20808087078343,20.561668692630217,9.449405475647064,25.440478428365306,-5.986386058508004,7.888488400963993,28.065116432040746,-35.72638834833214,4.2307911081014655,-9.528526763391744,-9.237624919183869,20.292736976346347,-20.507458480692655,-3.86597757617894,58.20310616708765,-37.33144069533465,-25.68817050633398,-18.164993027383478,28.010344432258837,15.974247742778942,-41.70261100893839,0.22619326590912023,2.717664946870839,-16.85827988052835,31.053830448679495,-37.913292823538214,38.13153915270075,-19.392292819204883,1.5659780860064667,-16.243963391245327,-1.36888346469197,7.123182057325477,-15.160947650438496,-44.31911169731087,16.296080569682214,8.918306492569142,-21.35048757603221,7.007628131099118,-22.999534891411656,6.19774633994294,8.874375132793274,2.9883533926542767,41.5784894848894,-0.4807832262129157,5.0956826812531695,3.7740489668529142,17.073952567659667,-64.37788700720098,-51.136637493406916,-28.792553217080282,3.730100460909332,17.03271479481605,43.44117044439552,9.190634654523944,7.219860579674181,-16.896964154671426,8.604003524672029,8.111572599842209,-45.200056161607726,-11.360998316813177,-2.469400193694664,25.686485516674335,-15.182842408554869,45.2244156593201,12.816277803625049,1.8123532987863744,-21.74589097304144,-21.140397302029132,18.033043546224228,19.4484563253095,15.610236421771692,0.9735275398941198,-7.226086366170113,-14.509038766386542,-4.095830559366688,9.420153701397139,19.798649321574718,14.14370774495251,26.42014725044461,-40.50344006798805,-19.424674626361313,23.733745389744254,24.33029647482952,-0.2329510437846074,-31.53103885162595,3.784146020197531,3.827480150880647,-16.951839701227332,9.739677727685656,0.2970154589783893,-5.901671230106274,24.846952885654552,8.574308609492231,27.461907425038717,-13.161331289538142,-1.4048174278847747,7.4833263628588735,-33.41182928830558,-37.250305545724295,-29.00664992674151,-15.038092724498972,-18.764068400328714,5.135285854770262,-32.898653116980476,-28.943429010050476,-3.9486859996777106,20.537310202237027,-2.1951038889723744,-16.231279054385162,-4.165160090533861,5.126673269847855,18.876253466414678,1.2351739149595453,9.769975798336237,-32.9572962554383,7.043394863976111,21.95515520764375,13.996873557457002,9.14760608147357,-47.33127766554998,21.29309304238281,36.34992012343194,19.90690150854692,-0.7340059665323024,10.488997732056763,21.028639110286964,30.926339557690223,-0.23410991494261268,-8.084888386752596,29.95228905867025,1.4219524685661677,11.801174625808162,-16.203874893342345,40.68557736292274,18.75947156356197,24.08623806862094,11.437724503864377,-20.40782235531897,-6.611917788246985,25.049945406356706,20.230460280601122,-32.17439336282818,1.5510775436506272,12.374807953385117,-23.016875889127796,25.47619869185574,28.702730583920395,17.037497180202624,-14.457211405994064,-36.79012722620858,13.381691795308338,-0.6812276772499047,-24.445912926719185,-18.75195330551017,-0.08010568812977073,18.65601485321492,13.767666025083935,4.9143017050949505,1.4035154470051756,-7.415700923066336,0.4630908466576124,33.534262495327035,9.465925107435963,-3.2283697162241842,34.52449770095905,18.845827415653268,-22.39366184472351,-13.028269165526535,18.06682121641296,25.20205493157865,15.76697176072594,-6.749383468462737,19.126421706860658,-28.887749766089403,-15.954579939490385,15.998386252913065,34.26028858065513,-20.798168311829695,-7.521940458451008,52.232347241015084,-17.739643929550173,-20.974006933447697,-0.35569985443807334,22.501457614598493,-11.29007487706238],"intercept":-3.3308300579152417}