{"type":"sparse perceptron","classifications":["NEGATIVE","POSITIVE"],"weights":[0.0,-2.725649343781373,-2.725649343781373,0.0,19.974388565329413,6.971455774631553,-47.14288556038799,-0.16947183857457415,22.894888788144907,27.312929971659063,-21.305145995086598,-15.222067074232069,3.5242564060244597,18.96313769362802,-20.568518495826385,4.882966974975786,1.2696588766403731,-1.3050671009959058,4.191501542033661,1.8582480782692592,-2.60385432365367,10.202783132178588,2.305400421901707,-4.52641675216729,-16.08528323236835,26.81819302211831,-7.0695959684838,-11.318343606716999,-9.662004892856269,16.03541318984148,-8.79257770788169,-1.5057340943865076,-0.006052551036335563,3.325654088400057,-0.7228921238399189,-4.763476745865007,13.484501050350236,-16.062120502720518,-0.26331337447057807,1.6154666446628736,9.581961842970092,-2.649521236698445,10.46664088828046,2.3519540313088783,-2.5378512526487933,30.319129380721737,23.33161867018563,14.187299588852307,-24.734370179430197,-4.916538931812395,0.8850540940233347,10.983299497500424,13.333944152708625,13.87898761059995,13.662716775742256,13.140951461076119,-6.017380436246188,-12.431489688554853,-11.305410629561488,-7.473438078505347,-19.563248832815642,8.171605221718062,-27.104345194119258,-29.565767411971958,-17.115913881027215,3.198489995115242,-9.91355873864833,8.915094102223534,15.672541600951321,-7.323977777722479,4.821909398109037,1.4100733273932748,-9.954700945075622,19.96930145081739,-7.0681284004576845,-7.437957878098227,-2.0339621902443143,-22.9942363010365,-33.650798160394636,-20.398876648955945,36.09362902722004,-10.438179359410624,-13.276548758357578,-6.771037752715892,14.54758926821619,3.0207437101506276,19.559706491106134,35.14516069787818,-3.730792672020246,21.242587100763334,5.66212067131211,45.671551429685366,8.372187933071547,-4.171005332378855,20.112407919137393,-44.621781626925674,-20.44464602438145,0.8506558155723386,-4.340101985171415,-16.04666417177261,-5.131087379098149,-16.39243295417184,9.847785939948764,3.919414226766335,-2.4149396930669313,3.9353249872072182,11.949225863705616,-11.626348574901863,-4.546048165544676,0.9086177931490744,33.56829066794616,10.213205602848802,-11.357375563093212,15.22368863836658,-9.456313723651489,3.818575330101357,22.270447529009164,32.562505417695014,38.34053736833814,43.543702919913194,-18.80570875648873,-22.282907800755712,7.3082630765467265,22.173077485617856,-13.609638708981652,-27.254561772765697,13.725506435214813,13.337193523789864,-14.496979705156543,-8.8029275484301,32.73753935145142,-3.236856967322522,5.11334497868652,-13.965877878211462,24.855069861595883,8.80030171244247,10.713524408467642,1.670992682300868,-20.4565314406561,-3.9255687119860614,-9.353305844183023,10.59099132200054,-8.569701302380903,-3.3287065052016773,-14.391974542719556,35.31877998989939,-14.051997427820368,4.523396691986465,18.365907314667815,5.061983970418105,14.263295603500895,1.0112602526322152,10.776612827903048,30.741734012115465,2.853342796990155,9.732258852771992,-16.297880308494417,5.517229237125511,25.789416095033022,-2.5717394537069636,12.756809594621561,15.010219791483149,-1.170509724730698,-5.837991496442946,-45.915796238108406,3.226895755459968,20.260866338728192,-25.91766094178808,-20.33772381782111,-4.121232569534711,-0.43708241761578487,5.908288016194608,2.5023643445800263,-4.5041892649712265,17.41987130477648,-1.7472418459831913,22.741687495338876,17.617576291886763,34.12023540908985,-0.46566393824769575,-38.213773520078085,3.6600624074216324,32.63090332717441,9.817502210700262,-21.622108075758046,5.170261392011066,-52.606612817755575,-20.9122184265838,39.35261278183612,-46.46995871439917,-15.275085869658682,-10.237816304542747,-25.61354393055479,-11.816221618608871,-23.79725573831909,-17.41986894213431,-17.0400418573839,17.029969051953692,-19.28162513163157,25.536080899123213,4.488462206878853,43.13274936043021,-3.1796137688590327,37.818729900490794,-19.621159392958063,34.73062903107555,22.69799221758389,-11.04246462399111,25.569910555061494,-21.40481949204872,26.96428977008433,6.762546825178637,15.944036376468068,-11.575236611243325,9.289423769702225,12.10227224776565,-25.797093345917297,-12.364758427019694,-29.539678038666874,19.923585770119548,29.583439378013953,-21.75126983107103,-35.144247000201865,-5.982378578468129,4.042791188903417,4.541299378015308,-25.51779450797585,44.83289898281351,22.787049603843528,-65.03056252581828,-5.810315400232385,-12.1630509910724,-13.663541971036436,-29.922161207494124,-67.50163057384817,-17.96718397694873,-1.4916770675092392,20.37958056665617,18.205135958997513,6.971027713415754,-4.1516877089343005,-49.241102463532336,24.689844783506913,-47.07917890555846,-29.124078882229885,2.5288669800116867,-7.614753804213039,-15.354838042712137,-13.062622578967684,-127.54866203649699,-0.763875346074187,15.00776635780857,3.391735619555936,71.32612519271743,40.45768403437597,-6.913919528764984,-1.77749391562299,10.15165467820279,-11.68739173631941,-7.768507454600297,15.526011675894235,-38.223307674268476,45.914407019591195,-31.17406664730799,-41.329178402903516,18.148202267451335,-51.12005234082155,9.342612620978175,-27.040498577916942,-13.238329407812284,10.588077255468306,6.865003262270975,-33.40903134963465,42.3847271802189,2.8738984410652986,48.779716663428545,14.220065027971291,-8.678543048919362,-34.541478319958436,-7.938841707514731,-1.4021905287332483,-28.336381457910996,-29.121281133927592,19.756929054779548,13.358567369894645,-0.15930295355269034,-37.68024000656299,-13.445212204182411,33.50784371629904,-13.09204377609,-9.042083230267382,2.3235930518269856,26.597324353551098,-37.37049648927554,-14.709000518530049,-41.65116959283172,42.40347297359184,-2.0676044831408227,11.503018986381468,15.76051008300722,-34.65377900450078,25.555310998359104,-41.50104040761642,16.914257646047055,3.194814430269261,-33.179041097909575,-19.526222492550858,4.6879912839380085,-23.12204220777521,1.6782159425397225,-22.1013221525522,7.730333086078538,6.841723560816854,32.64037522671267,-18.315299244196137,-10.722511991325542,33.980456858503324,37.412152580915205,15.163636636895856,9.176459490017713,-31.78849305406796,132.91127852861027,47.042151193218004,10.333713241212912,20.871040433383506,18.667614522142895,-33.93406744430696,36.227114625540494,-4.722929740626213,20.755617717972633,29.444940934055264,-6.449057340760951,-2.488412613501231,-39.09088613350205,18.626145524431283,46.28321589963683,-4.545640315866315,-0.9872756243893677,-88.28576564124253,-9.228616056228184,-32.79394058333702,27.98318950349227,12.535003176845114,21.66301754483024,-0.6938539514786342,-41.031474070551894,-7.424486454075555,11.539330921189801,13.655546199969015,23.625348457710245,7.796280367101834,-20.1288848051899,6.2060239359092035,5.454542784363055,54.36057903803603,-14.122308812544828,42.655270812417946,-54.318287045987105,28.11648644393158,-13.658495778795062,-31.67832577208304,13.062365370759933,-13.576613553568103,21.62739646444435,-34.29934384085751,-14.202057206921014,20.409231172369317,29.444159586425553,54.52157616432184,31.281841265208282,-36.51283363062268,30.244362276707104,31.85242014982463,-99.36672445608852,-3.4457603415264666,-0.017507796449514862,29.977506231872376,14.615067889305791,-13.66861935990862,-68.65957511461922,-13.388734168848844,-27.466282048423615,32.096660617534454,-14.17219688444721,-42.448222032580524,-11.015844790903907,2.5305082184654872,-28.712050812912395,-12.477505992210839,36.21816480261685,36.4830500583891,-35.736583280651985,7.450844216462776,-16.52861462003297,-73.44789966955764,12.480730792532851,16.436123893390903,-11.710121501260696,16.65601412271269,-31.661230959618454,28.11337789096161,37.743665338854356,-15.643555642289966,-23.227763514007265,92.22402328405148,3.4677803495321067,35.3256340378733,-5.61540364844087,42.91603425712191,1.339689625979691,17.337382205642417,3.8005053040172765,-8.64588671951905,2.8923929858328545,-25.25901941618471,8.442345068591738,-30.802939753126488,-21.44065501146055,-28.8307387314659,14.582478917477577,-13.848210493927812,10.16972264325159,48.431980165555714,28.692266636573123,-67.22400707859869,32.52438618497108,24.083815398219063,-21.700267639637058,2.900739156714701,62.025986311281656,-20.20290916771056,-10.252358885595163,-52.04096177689723,-35.44789446175365,-21.932731167881638,24.47943922662368,-43.62712705488641,-97.27753149727039,23.2531780658682,2.858650517326764,27.97693160463931,-32.85913810532554,0.04387041734061148,13.978257231984934,75.63580445803771,29.170092071743806,-21.477361914045865,37.72532546608041,-38.3828151445068,-15.451104219879465,9.117674469246895,22.217509759019595,-20.484675286364148,17.690510983799804,8.780235742224855,-14.21605180104789,-8.349276812917205,1.9807338985314245,-29.668187968099016,-38.20187210222335,-23.633724135295125,-0.10709325074786513,3.122600620322469,30.902744994504104,-26.43541025002483,-32.29821065409666,9.397406964050463,12.498745738793565,-9.972203575127741,41.87994828623644,-16.450828499570385,0.18152681119592556,-41.75028741049851,-42.55525347359682,35.73832698001283,3.81777206176917,-15.520726270379862,5.886944779621738,34.24563378967361,16.27002197893318,55.76673080685887,-23.21812463651155,-23.650586423411994,35.35430696259121,-12.51193890422817,-19.84436952650181,-16.105806817353038,3.3455868839146983,-19.208075492481647,15.674738557833704,11.293164074341163,-5.433398528927725,5.613731654548973,9.081608518497312,28.527054272140827,20.633822923302745,-19.889428855855964,-55.41025691307088,-1.531964935815608,-11.427276560336415,-25.59112989698023,27.486725996474345,-21.170494808900155,-10.553345651931611,-18.397947210780657,11.235751798036086,-6.2616303674184834,-26.83819009882362,28.849695181129004,13.504742950504989,46.10346945115337,-4.118527551901722,46.69241146502056,-11.901370385367247,35.80581268389044,29.810741781521056,3.556145458599503,-1.4513683924811012,38.29806127182006,3.8131329613521783,-15.466112693567279,-2.0061903125375586,-17.024184528463994,-1.5108724034546528,8.703226787523631,0.24207029446033532,-24.180506248471126,-52.945962749304385,12.078290171586877,12.061550181109439,46.57440170643978,1.4115424757670514,-29.488017892073085,-3.5927647934915425,-20.674219566643586,21.6370245946747,8.959241609172716,1.713150438129035,-0.4091909033312644,38.27756951013,6.17306967214102,8.174724982173453,-29.701046339010702,41.24320883707213,14.38853058624679,38.09748645452958,10.522984919233261,-20.717877867997665,35.603819333265804,-31.02036397287253,-27.37249593482257,1.5998360543767385,-0.5650785485932539,-28.337785843822733,-15.0739146432838,9.592849604018223,23.027147019281845,-13.553995245161783,-22.27904823374603,4.31740442216181,3.7343289238149184,24.061574886239367,-44.185236882150946,9.70679992600241,39.957495661536235,7.731449922392624,-46.16012531627011,-5.676702836083022,3.7387219236941918,6.016598955542583,-7.0940859043415605,2.7442228680513434,-0.2893046096177911,-16.681048730231808,-17.114115767019495,-32.27391447035563,-25.4730150458106,8.28780827290682,-39.41850488661639,-7.205174446787329,14.27129096555126,51.08406060335718,16.699414825422195,-22.388107875653215,-48.323067776976735,-19.225846192556133,-31.615665037405215,-6.056533234286369,-20.612576145293392,-10.040819186246207,-41.85553346798773,-32.57994578814663,21.218819722901372,2.580939290729617,-42.0129240814111,-88.6270808642224,-0.04606556125913215,-5.637237903610286,-52.79442286097518,-17.836589394447923,-11.745260426313907,-0.218230766421961,-13.916750668415819,35.065260879219075,-2.4978518970173575,-26.268100202191487,65.1133597380761,-34.815102402769874,-32.192944981890676,-8.947549456217317,-22.90778407352211,3.175358493051125,41.51970490904781,-1.9458695920864817,-35.01418280528575,9.484761137899802,-58.77594701897028,0.11798659469338885,36.45096657681507,-44.64846117740897,-17.471362353208285,12.301525726312418,-25.456075372383346,-0.18836691725043836,5.4462186374689825,-29.245438226916963,14.57112766108982,1.7373382519159144,-20.027824437566217,11.284497457899066,-38.00381004500311,13.227249507000668,15.71187872292628,7.561453440647014,-11.910057050783614,36.79032013023173,10.991508321414445,-14.160234000778996,37.94675990751235,23.314834425273215,18.9978479920217,-2.976592840813164,39.27031747232993,5.674721497277534,-6.4746645832661756,-5.656081842647214,25.625314592240393,-50.402363753517164,-12.330063022130606,41.3437707106469,-26.73342534663708,4.997483967494238,-7.156301951177874,2.7317211899144223,9.503134902461573,-6.85428843713156,7.02868966616925,-30.232260153962798,41.50992096931811,-17.241669169343815,22.85101722090886,1.0734570532355536,-35.6136659887066,28.93417998868603,-30.871113138499926,-0.1393221347758592,-16.975602486639755,-6.82887738548506,-10.56970990424244,-20.33402206078246,31.09596914520106,20.816159150771107,24.078006604823717,-6.416757738237449,-5.319921735366237,-27.944809384863635,-33.8105532923469,16.713961956441555,8.927643986798705,8.546740055279484,3.520204329401238,10.866214890165491,19.831175490995467,-28.742873402684832,-5.491087038795619,-24.893955686708686,-0.6756372278066202,28.368994196457322,43.21765351672809,-1.828314317480103,-28.5989869341403,-46.76404559298984,68.24347036099215,52.98375029566774,37.81539473360687,30.4672759111083,40.53117528559864,13.710019939139974,-10.241881595777835,11.77010398423939,-7.996680092062707,7.591653544872038,46.9194312156635,-13.287475594846526,9.987230678754496,11.587792968034064,-30.27692271256454,7.177797514950108,-8.454217152725505,42.26422194123613,-9.727237599891525,-31.72007969512302,43.587864351139295,-10.356334564867224,23.2745272951598,33.14817344261382,-0.21869443235555458,34.9575800774428,16.027544800467048,-19.12380522402573,35.88711481110917,9.783857931661375,-6.501557090694208,14.881914447072935,-10.732164112101572,7.72881420352881,30.954263046137118,-14.60472567793965,41.71779871400515,10.850769922710391,-11.092237847853077,29.553173014375066,11.9420499349212,-19.479512090480103,-28.784739194450374,8.456742582118673,2.50782942852891,65.60370023901186,19.553217955029147,-6.113433202916486,-23.742895236649783,3.7174174242733975,6.811270932997217,-30.94503900169335,23.801836262213826,-44.126423061739615,-2.7698460989031566,-24.036324699824114,5.632573440404642,-10.748592166197279,-10.332834512089889,11.733713869171496,1.2926195342508509,-30.432411111099114,0.5351770050604248,0.9740788022340342,41.75936992607528,40.36163556484213,-22.129511534500722,19.206431296175072,-21.910339186155635,6.473960800012374,-36.558221969960485,-33.28773420441631,10.63547773360073,50.213041340412964,-3.459999565354588,13.151668672468906,41.85134438566546,-11.900732520194177,25.36902351385876,-26.894845753564624,-31.413467701528276,0.5883673783598238,2.795412953840539,-2.46322433938325,28.33270543117096,28.78269723265345,3.0906737990957653,1.6911095578668887,-21.468690174601115,-51.26891921773981,29.36155450042387,15.632558352244434,-9.071339619053266,36.122721391790776,15.278098284857808,13.362837845892084,-13.295641560458348,-0.07561933157134858,37.209634567833305,1.7129960815839997,8.475985661571068,-21.402068420663333,11.41633937678929,28.968876198532694,-25.18329533425824,-3.9879491202572326,-31.813467695904787,19.037274977589668,1.78590919483609,18.057275715183543,-14.512511474807319,-28.560631703020434,47.88946296428581,-36.71838274356098,-65.22556910074307,-33.266126311593844,-12.337343672665781,-10.954799761665832,-0.173782538646866,4.611477690314777,-29.115803023793255,2.9348543398994247,-13.085229759460889,-39.19141506159841,20.176994270730802,12.265548505758375,25.24032460961548,-6.5441549046862475,8.11191250569178,29.10467482101745,-37.55595344883918,4.5227017931223825,-7.719255695682486,-8.121834344194038,21.930712051978702,-22.20563828805676,-2.7936052359538315,59.91234361016817,-39.10468813214123,-28.209547158633644,-18.17758551302909,28.43402744611705,18.026392712004856,-43.51137802965922,-0.47932189493772187,3.955108598815018,-17.088227303398078,33.18973037226747,-38.66043399689778,37.71417980718368,-18.188975869211525,2.551631483714234,-15.140810205873652,-3.6369865792607237,8.008288718995717,-15.61494641820101,-44.65166936086295,16.011516166353864,8.402161940455118,-22.30358724494381,8.161242591010271,-25.27557312167346,8.953603186423436,8.189982670969004,4.355832974223562,42.75575794386545,-1.2216666705449497,5.917840853726766,8.30273848451525,18.226164088481795,-67.590085912981,-55.86174049067133,-30.37621777038955,3.755571768181365,18.16406238433508,44.38783201196067,7.993831527642994,7.714590356134852,-17.79955585091703,7.1886608363545825,6.065218189754075,-46.564993136267084,-11.810906175590281,-1.8340324714129141,28.062429661359065,-15.324303746140995,47.79719037731658,15.290288530682123,1.9098619388844604,-20.97796544279423,-20.91754654567846,18.46673824273615,16.408131304355685,18.446286971467675,1.3160826804636485,-10.086532707594854,-14.59689488928719,-6.385611125461937,9.582562327948319,21.113301991101938,13.418337256915484,29.054413592343337,-42.104648751336384,-17.709995385116,24.928732514694058,26.568129392350148,-0.08894412580057635,-33.10581325655489,2.407112574843989,3.5581035405480024,-16.97354204682903,10.349089734057337,-0.5562399468536545,-6.835330757560756,25.07974379620248,10.672988220238748,31.060971631378123,-12.80154427771822,-2.288477606567479,8.057155880035669,-34.49739851090664,-37.75315076935297,-29.757803163517895,-13.451584344642418,-19.47399053320395,4.323344764739376,-31.634606097292078,-28.842489923687907,-6.011902942243954,20.68127021599645,-3.432959314514398,-15.141098267515204,-6.012137645507173,5.497157054060725,19.65530815426088,2.5080800159870464,9.008510381815148,-33.94445558922167,8.537566539485834,23.056778077475457,13.50957599109719,7.549127138904064,-50.60836974964657,20.697594232958224,40.89000625237171,19.58726586663739,-0.219207750390487,10.970106440851518,21.614883338517483,30.251676934150804,0.6285161358156526,-6.818463539889015,30.637902208797595,2.0713855996253114,12.897951093296747,-15.70558642526024,41.88173455314366,18.437805004624703,24.27618566777945,13.267757211474388,-23.1125385588846,-6.508440567944158,25.183503830541838,20.920869660732933,-33.1238797268142,0.6553959615830657,11.724097001610387,-25.11099859667253,26.453425812404802,30.64928722458897,17.54805473626758,-13.710114033826235,-38.37267501654613,15.187344875507144,-1.7939371196445268,-24.2123489806541,-20.961563930194174,0.6640654025503282,14.622264703454707,13.177852009596315,4.277470551018732,2.502768607919094,-7.024189104374282,1.3124848417698753,36.39721313045334,8.071355859395814,-6.7031358002297905,35.33174134374145,18.80621405707958,-24.106419999865963,-12.918836635549223,17.835969845831027,27.415319264981047,16.22747001116546,-8.199334169468274,18.750355368593226,-29.267044910671412,-17.766250182179615,18.46165872635032,34.38581135085797,-24.28264372346281,-6.653845257724055,52.66721408767277,-17.29230782399892,-22.37398936621506,-1.679636049914707,23.327497427135224,-12.13581131996858],"intercept":-2.725649343781373}