{"type":"sparse perceptron","classifications":["NEGATIVE","POSITIVE"],"weights":[0.0,-3.3077081561770902,-3.429213362675179,0.0,19.8898465250485,5.826190843324489,-43.13058814303515,-0.8943732924888246,18.067835741380602,27.240068198632898,-16.668661873434306,-16.166666311165145,2.8448645982576366,19.836061977506578,-19.097609107795357,3.8823193252943105,-0.2851956292726626,-7.688502833332777,2.4519155890998983,-0.543972703404179,3.3740347442034135,9.070769418805622,4.84571517740921,5.013535967608931,-15.946425018922632,23.793394738295913,-2.5594889716443823,-12.579112087762317,-4.306619305790263,12.254295567649645,-5.489691935319191,-5.820475081052372,-4.885654670532161,4.166338100120417,-5.30221642491257,-3.896044198655055,6.741996505303326,-10.304715224154718,-3.1654240529050153,2.2492039648480775,5.654298858792471,-1.2903263608106696,6.931818127941535,-3.5310686079581894,0.42846088191236303,21.274284162763013,18.802143734354484,9.411229647739706,-16.460952294724237,-1.8129036157342164,3.6243542741824544,13.633372951254376,10.19401467790758,10.735745593672535,9.708333539543966,10.161969593538467,1.2180971289262958,-7.895132658374168,-7.861064260764495,-6.263503878712293,-15.518578557185041,5.118652184465395,-17.692198712732118,-20.673413988792877,-9.960616546534737,-2.138990779121014,-0.5111914088908347,8.42234810964677,7.624280128209462,-7.133929997509971,-0.31241779685576093,-1.8107592944333333,-5.9238862431158275,14.145520139828568,-1.9425031171529135,-7.384561814537405,-5.1914110418080766,-16.667233368796765,-29.554468738439386,-12.361418825533434,27.10619299469516,-5.945002795291849,-13.904243215894011,-1.1681659967707656,14.040937381955974,-0.09996061618423488,11.918120073568925,25.452556440745894,-7.105033438320311,12.518451110336263,7.04581831230554,32.65571821658195,10.194992675878005,0.6790210323406177,15.355323972878736,-32.75360658444578,-9.554167680098297,0.8099716637997081,-2.9586915080552196,-16.995452167180105,-3.531431508504478,-16.099063134231837,8.531006721798878,2.3848707586002753,-5.7588967664525015,1.9117853246741887,5.8019137606137665,-6.85120257953338,0.12552939454865225,1.8520720074815353,26.55302954093102,5.670050423598622,-7.600717108732734,13.254685239650447,-11.06519879016844,-0.7873161475066683,21.804041355810572,20.898175918433637,33.20761319880573,33.2961318814106,-21.876261019326854,-14.886072346784868,5.521658117714002,16.74381494282954,-7.05828323892978,-23.091003127249362,11.389941089356604,7.612609712917864,-14.142673325256892,-5.403953205578848,22.445257179249307,-6.00283998185756,6.0611987464698505,-8.437300288232484,22.734454700596398,10.825781485335835,12.494584936006456,0.17988896124219256,-16.70713869359139,-1.751307889401788,-8.085188954405448,5.256074858231932,-9.824814497391655,-1.8026922988857204,-11.994702091698233,28.772036306431637,-15.063657393028496,2.8136196159694635,13.53962736514496,5.920681771011908,11.91208646217684,1.0740470788499026,13.383517870406322,21.64293521269189,-1.2113850241208997,9.868288848145715,-16.664143240228498,4.936205706023864,23.947115381100325,-1.4502955220351856,11.101346075644532,12.983719959778986,1.4776870613771482,-2.2782827370159335,-38.74528366518421,8.013607254686967,20.692508659165995,-25.467394514172057,-14.398215758014997,-0.46430997679390096,3.393482404395363,4.0638655501818555,4.64060189717944,-5.766929957820379,7.884408284225017,-5.6920178359585085,22.98208948378451,10.341246057541841,28.623015356627523,-0.32561550814565776,-28.36026564149012,5.6957007141317195,25.784018679536672,5.552855235126942,-16.718150044592385,4.248621002155114,-43.69156994351236,-17.44482262397931,40.6217042621486,-33.90961718847547,-11.983212620201662,-7.823097260993823,-24.739133325596562,-7.536136639899503,-16.55210691430961,-13.842454718283038,-10.479232811697855,12.781663114743605,-17.174931097088685,23.334632288647718,3.390938126910172,39.299910888120664,-1.6800315420468728,33.58398447690304,-18.752048737594762,29.908324494356204,17.91769593405498,-11.596249927448115,15.994772477061302,-17.41907584827035,20.72656137534239,7.067367939022427,14.91385866729366,-10.353480145766369,10.188324907277853,12.108063950788313,-22.53668103913576,-13.654788439469352,-27.45973290378429,19.249310769530116,27.690705635791645,-17.274120347845166,-25.012823862763476,-6.283523249152208,5.345474062109787,7.5683546214463515,-20.46947584224044,38.76653586638828,21.645613075152777,-56.3157468823642,-5.115027076461072,-4.774678190717747,-7.038587128466631,-20.774092047179096,-58.334429817851614,-18.89890457768657,-0.46809443941130396,17.325325477051447,17.70487141210877,4.171383872604292,-4.56376804454992,-42.4308003436412,21.944384998065395,-38.83896158868607,-24.212179526128338,1.1596717114077815,-5.423333429720132,-12.363045073176693,-14.065156720689242,-116.32586854090651,0.4216883081578105,8.85604051622395,0.7116661857772633,60.872036362424936,35.58708827115441,-3.4383502367532013,-5.744465860706755,9.576449925093097,-11.849068123866804,-4.355821315483889,17.983215561594722,-34.51736207045254,40.02813051580554,-30.499748474117933,-36.64057195741566,13.860020864555533,-42.7518837053895,8.50331317022837,-22.001284090993483,-12.088535786957888,4.8926157051422035,7.243656476142822,-29.721218255874643,41.81457633868709,1.7814841853723515,45.866745168380476,11.220394997194804,-9.65172799993612,-31.61117078397939,-8.240273213028821,-0.16909886378257055,-23.951315141960944,-24.923561385822907,14.5239149025392,11.701933670939233,-2.648407044773645,-34.33661373092604,-13.25315934970235,33.923226965970684,-11.049436787041072,-3.4856857059181037,-1.2709595077079134,23.217638422512017,-32.108078028674655,-10.015823842338408,-34.90337578268897,38.394261141384305,-5.233594913683535,8.129372002905399,12.651177268062181,-31.03864400225056,27.150504978684626,-38.397805846423005,13.660958944827621,-0.7468452568889989,-33.35931760218463,-23.762255475884462,4.221421953371514,-21.977475394878255,2.954176501341936,-20.636172903766244,7.141331174278012,2.4585100558828343,34.05810018065374,-17.814779842077836,-7.910137708680323,29.955478318617914,31.07432296606884,12.935673589006269,7.321533086755675,-27.332810128114996,120.79277606773103,39.95452593915831,9.37809001111371,22.95005532812911,13.937683292486506,-30.44100971899746,34.85368566915419,-2.2440338495832948,15.64017646619793,27.627086039197415,-10.85238429902544,-6.355889839546694,-34.257198100293124,16.779954411664328,44.5817852138872,-6.031925568718772,-0.9728962499597866,-79.97891873693163,-8.62491251945547,-30.025464470627337,25.536036129395786,12.514091411662896,21.419250328016798,-0.3283911718342512,-40.76838114164162,-5.874676417572877,7.254706441636644,13.730970889023299,19.436233181872534,4.786223671082704,-13.490545921423108,10.770962159934054,10.187480424693012,51.39424123703798,-14.428875213345368,42.22139258557851,-51.71843777242151,29.116519496973513,-12.180865102550145,-28.423395516281087,12.355334101434236,-12.840564905049932,18.874127125925032,-27.708904864017953,-7.878670366047719,19.50962933203791,30.03475252028845,51.31305728846729,24.91102716091397,-31.62978888633665,28.44781725600462,26.575800551689277,-92.06265461256285,-2.3698135768276694,-0.3065908838401209,28.69652188901264,12.729247847360442,-8.796765954397548,-63.18093909335182,-14.69368514706849,-23.31827316654097,30.432450635537762,-16.466017081122086,-38.998080662901565,-11.726112925929439,3.754970116126827,-24.513133540193856,-14.697910182946746,32.54760605630036,32.4406950065938,-31.56015477937584,5.815750600307071,-13.527796573903224,-69.7012434191071,9.885481435073759,12.597815563598415,-9.53334990833438,16.164835545704992,-29.82087564287613,26.126619449308002,33.740707120462005,-14.29348349282937,-20.26300494734788,85.45794844210046,1.4468337860580864,32.67185500596936,-3.278431552341713,40.117075833884215,-1.575003995755754,17.34938642189219,4.403845319405437,-9.797182376649063,2.7339375238427017,-23.411365571469016,7.396031097991134,-29.5143739733417,-21.947628020400945,-27.802981393454235,12.53052131036657,-7.748646859702548,8.3619777577339,45.15050657051412,25.268099067909862,-61.063948090198906,32.220116956560155,22.857801930963635,-14.989171783194454,2.8517586047851062,55.78527832399745,-15.90915081163249,-8.527175882079016,-45.82009054451729,-32.72072638252335,-20.666757565501896,19.31650534085892,-41.40820742139822,-93.38542154550697,18.289093179452266,2.653771612832571,26.159645293644886,-30.910436384574997,-3.0329135440181476,11.624762350857603,71.33007621720061,24.943697734499313,-19.251678125312466,34.55833279894624,-37.73036988805906,-13.455111671264252,11.589136230481698,21.91877854976531,-20.384131358934777,13.558108646571435,9.119601200870196,-11.448292301220574,-10.304766362112902,-0.3944307783012662,-25.879996680875607,-37.678583386778,-18.974456811088974,1.941683648584418,2.802638944687966,30.219933776655665,-24.841847012320237,-26.905012519337394,8.749651695459997,12.286316492389933,-8.663604255810846,37.37201714778687,-17.347981387438967,0.5929877786963735,-39.57454169844134,-39.4392632516958,34.695238092126125,4.462993447726768,-16.59274027174302,5.743878315757814,30.045602630490116,15.888785265332762,51.85271854065486,-20.698497523607596,-24.909176764597284,30.75093567131307,-13.09940663365448,-18.59055917954084,-13.563774305125134,5.487720276379382,-17.43161555030804,15.406727367744983,10.395489322420932,-5.385666976132187,1.9410069951018278,7.84120398190087,25.225128263421443,18.662178874731396,-15.451266232905965,-55.3895114002397,-1.919716712539484,-11.520084044026813,-23.63234160766212,25.759822944686736,-19.434643429495317,-9.912815770474081,-17.906908575041037,10.84172022148801,-4.687243446062707,-26.049112015800507,27.13181207930368,16.75715419014585,44.211840788388166,-2.7889378120524992,44.96196714853337,-13.984239791288307,29.45374770580125,25.98113577254868,5.6228651022405085,-3.15879275603094,33.94306753482848,4.856147276001999,-11.797351487156195,-2.3893479359583245,-14.322534325181225,-1.425087292773817,8.299593585934945,-0.9353263913905473,-23.112167568845564,-51.27442172202565,14.92431622324603,11.785036712659537,44.119503922679485,1.433721668636781,-27.770420483894387,-6.029971984053789,-15.305245597303681,16.6165756050585,11.224210548432678,1.934429217053375,0.10528860941629595,36.50253357095728,7.509222102028941,10.849761907041625,-28.29450654497037,41.872825190761496,14.532152152639474,35.8161653204132,11.276930597220774,-22.083195838502586,31.417264702922,-29.234181400332595,-24.97613854157276,1.2343131601298925,0.9658697629823185,-22.159785650002146,-14.166070574263141,6.7178010410165925,23.007500688809724,-11.217210337075112,-20.9936853628382,4.076530600155306,4.936189009374793,24.66267680480918,-45.95347663715204,8.712780486801853,38.3022472348132,5.630815682583041,-43.81192942832505,-5.694020153334509,4.869617542155597,9.443582109885181,-6.498018969320959,3.5917033787836283,2.670099189937974,-17.223569099332348,-18.26799233906935,-29.149385793698475,-24.052994069657846,4.752652764054618,-35.77316900339548,-5.692484356420868,14.477425431987374,46.529865041022894,19.238862584981117,-21.80762101425603,-45.04278107633939,-17.311304387240728,-30.73088197345044,-5.7346652490611945,-17.646674511171547,-10.2084394349316,-40.19925953448071,-31.799438556632207,19.129759523879954,2.313276716466751,-40.90734389541568,-83.06752148648995,-2.600964683898815,-6.2909300981139396,-49.5844836822902,-13.844868358757822,-11.052362161845224,2.411782585476713,-10.491005363048302,34.779930969929325,-3.75835779071465,-22.006494094888275,62.359501438850465,-32.0254308885407,-29.31309921345987,-8.31139970687076,-22.23938724120107,1.124684649548593,38.68201327037655,-1.3421959450108092,-31.913581968909703,10.897760307079118,-57.096543636106446,1.6286585574585422,34.935212776624454,-41.00035425452652,-15.898578857799226,10.846413886799228,-23.567694222578666,1.0850367339472093,3.933990597723475,-25.77604937950078,15.469249109110503,-3.628472195004299,-18.923300477608898,13.160734168505096,-36.97337110580836,13.363089690363553,15.273864365908247,8.552016376767678,-9.577049117899513,33.46395058405018,13.039720819285337,-11.600839080327686,35.07086085240921,23.91517999478229,18.931131066536018,-4.9118370422131505,38.86174967946239,6.716303424127996,-6.844760238849653,-5.7016432271910285,23.158629787577762,-51.70911453141289,-10.405368910558737,41.17561997283171,-24.296372928837965,7.633255641622463,-5.205443886772072,4.253010002372401,8.644373359162802,-8.18381070530807,6.976714519047566,-28.333754351493944,38.51993239771002,-16.310970067797676,21.21364059296004,1.7850948042209893,-33.21621197791178,30.715925101825135,-29.532365097345266,1.0747104285449425,-17.49546899889872,-5.6386700750068295,-10.909041771392621,-20.888658038902864,29.874699403665936,20.25632049815038,23.23717544326245,-6.143310105002083,-7.1640886723076935,-27.982281847738026,-31.169329284185817,16.04578597993944,6.296001496195201,7.054888257546448,4.701711243235024,10.533462084227253,16.678122263113224,-27.414659021081643,-4.740710640650782,-28.19581552165357,-2.025414228347334,27.331020431905205,38.49133919366451,-1.7281338627090317,-28.690843334365773,-43.129208599147965,64.09114635661318,52.347228230855315,35.9874823437596,29.32295742276532,37.578837300524,13.084704893161312,-9.461008702668789,12.211416786124287,-8.977042894581585,6.215264525818474,44.537936052693276,-13.53406178534301,8.291159657700199,9.849895909910698,-26.792439310836837,5.380451964267676,-6.044163670907878,43.41109390527834,-10.522009714196962,-29.217332714494436,42.8400164208993,-8.162990740157028,21.434116623985332,32.69068048986324,-0.10287718794967485,36.55961825826729,15.476014753987979,-18.420342843339856,35.41522164995928,8.53260411006238,-6.904703854940805,14.452101811093698,-9.223401081016187,5.381226809451445,27.272769676308545,-11.948225121340805,42.003873158995994,12.575003237464527,-10.34704133940572,25.14379638123587,10.5596900301311,-18.00774706223738,-29.243475713091577,8.636439055415407,4.501867198618742,61.91324866092247,18.65813199887743,-3.11287969285756,-22.507895800908635,4.02918810796273,4.706521727987136,-32.520888139612154,22.907081273970835,-42.262750979585306,-1.6483576674911904,-22.238150633873566,6.17022770624363,-12.040284203617107,-7.591776753575468,11.68766489838645,-0.48027792501659866,-28.481956770617867,3.7988467867124207,1.3364512372272688,41.01444768191251,39.04503793315739,-22.02609367934429,15.968423592539308,-19.392235267670575,3.900273723772343,-34.70930517222236,-32.11822821469643,9.999609484427234,45.59236321173389,-3.0877740127054207,14.274865337329265,39.220271954530546,-11.934195945885376,25.67178099876525,-25.551689161547575,-30.833014646687932,0.8414005888381206,2.229555011771319,-4.882253529896309,27.261468898786237,28.52414872113749,3.8787263524164417,1.4353213658189727,-19.44699306980042,-49.17010369284389,29.236399421456472,16.515858356235057,-10.816565775612345,36.412488799285775,17.544667699020753,12.57184825567195,-12.697832485291057,-1.7486753884819775,38.02921773952121,-0.29428780817854566,7.191267018298155,-20.870070140203982,9.716580869614575,28.52413422975867,-25.92873352404086,-4.824721195544595,-29.461307121674587,17.858716126226206,2.81381885590988,16.215284685164036,-11.308222373793324,-25.954739423213173,46.02036057835786,-35.53143140294077,-63.51671265936934,-31.277883674082698,-10.738451552434933,-8.430173042871253,0.6882489896323408,2.8737630374070187,-28.286147083711747,2.975796009001652,-13.633565685840908,-37.94092792393103,19.75392170681593,10.655899525028355,26.148934315701833,-5.902611242352703,9.247200580644755,26.150207281275897,-36.921664616531125,3.8436042047977477,-10.502514960069256,-8.155786426252684,21.617248608416425,-23.19723998157494,-3.59783812188894,58.36014279476725,-36.34699540777435,-26.89194073265806,-17.667137435145627,27.020725278188653,14.927839026376295,-43.502449093345696,-1.5024598073864917,3.02895530032782,-15.682947551904329,29.808411993625366,-38.09383254456962,38.33795591681325,-16.129239976796757,1.2821720655799471,-15.690305757554983,-2.5266204669615564,8.592279427304387,-15.877261761553745,-43.43210520226066,17.749966080652747,7.4255443794434575,-20.59502721724317,8.15345382721028,-24.23998564763399,7.000415516441268,8.644674880423002,4.28740822089995,42.2225835759868,-1.4953297232793628,4.9830854954116965,5.295485635014288,16.502346407635187,-65.19731435752082,-53.28609556849369,-28.305963026079638,4.108801429129351,19.049880725694827,43.797187492261216,10.056665626642484,7.5783839180632695,-17.14813067435938,6.82665426685449,7.306003958773657,-44.52651185349134,-12.148771189630487,-3.099157577998219,27.0316669984015,-16.187722564416596,45.64381013748443,13.838081558953565,1.6667214663191916,-21.796855260470608,-18.70947840295445,16.292872004675758,17.110358363467675,16.22599444182433,2.3799295160007556,-9.834637279215615,-14.256617854196808,-4.186020410974264,8.73646012603169,19.45808471913448,12.45002733678862,27.520701130730412,-38.80830348966618,-17.861331742155286,24.155416857750538,24.15252896838694,1.238312632904128,-31.328724037187015,4.268367201562857,4.663662711190582,-16.96218037145695,12.194814762021485,1.7501296538505824,-8.166388093940007,23.674262884444143,9.352345372115826,30.773941604591105,-13.126898300915283,-0.23845971550471023,7.39759938893532,-34.485085447945366,-36.930360471872724,-27.356095454925075,-13.762729358857408,-18.464484587772866,2.881101035384505,-31.87323976912099,-28.53302979377967,-6.40195478313931,19.71533377620946,-3.5198244499630036,-14.99136454966304,-6.172893465960817,5.299209209363782,19.67361516225547,1.0490420040323485,9.09895870713501,-32.256207335979006,8.544635255461433,21.607183118797508,14.090802694455865,9.706655006912321,-46.287816221759826,20.577927966658834,37.577133486835244,20.76789418184642,-2.276571812482862,11.249142508720102,19.192283899869302,28.71543781412248,0.273367655382478,-7.481128990283747,27.579697497887505,2.4269761300167194,14.079226442359273,-15.922373581024877,41.271120170526025,16.955113095753997,25.980800352638408,11.64278639543888,-21.548578383563267,-5.241342955600581,24.21834014132363,20.37803534242269,-32.48756056453827,3.522452372495956,10.920280363469494,-23.452236381293964,24.103305451132858,28.0615341880363,15.519820561220419,-15.077927109847376,-37.81600559067826,12.924523115437434,0.1824591236178293,-22.763297559557856,-20.4261401816846,0.22229754701972554,18.690096492177425,13.324219915079595,4.663850890610541,2.7688243702120925,-8.89578091755587,2.393694221711445,33.91242783446226,11.061404932931453,-5.593887623480602,34.600035478524546,18.21395266276864,-23.246082438846805,-12.225463099199674,15.424308325759966,26.48772500511514,14.586011083908206,-6.9227373150764375,17.098090598579294,-28.69506791628403,-14.921440254732568,16.41486725275752,32.1856614727722,-23.651558845493028,-7.46553479053784,51.8674422852272,-14.691507731995603,-24.960058398918207,-1.2868909448340466,23.84913569913105,-12.112417953192866],"intercept":-3.3077081561770902}