{"type":"sparse perceptron","classifications":["NEGATIVE","POSITIVE"],"weights":[0.0,-6.213760821195297,-6.213760821195297,0.0,16.35427025363186,3.8929675059857565,-49.66616546966041,-5.5432420540209435,17.550572533431524,22.077109671622136,-22.034487199155496,-17.072023323247805,2.346029900207955,17.954475958036916,-20.38123365322509,-0.054290978565315395,-0.8242010699434104,-7.071730865694049,3.878735476930516,2.5108443373726725,-0.8952360957712612,9.801088299517188,-0.6101736825861277,0.3786151734290849,-18.59259504045982,29.893075639365165,-4.785092508357287,-15.087726385302108,-10.195599022795598,12.279700656277837,-11.51461758182803,-3.938491636032485,-1.8467082627009648,1.736535144562008,-1.228723989849383,-7.400043370768762,12.508070338013328,-15.226517245838664,5.223335379804515,1.5654459708345476,11.427971142806031,-2.4294323636417867,10.504326598815954,-2.3929025893179707,-3.1823540005653914,26.92340152374428,22.455316208084035,11.730800099771631,-19.860344162431254,-4.932019427932503,-0.3755786339356927,11.617980287263958,10.841176659739903,9.366498905408283,9.751463477944286,14.423934131507067,-2.8604059343086496,-11.903767816475554,-13.64764785363793,-10.841387353202485,-18.625111407206376,8.20894008650021,-24.664544867411877,-23.076354874040476,-15.620675877973015,0.5754278724398647,-2.449465775843794,12.747172727608678,14.142023945943004,-8.223704806009252,9.44234669794465,0.5428376989710123,-8.294654588499894,20.221069913771217,-1.6155494729629298,-8.542080050182644,-3.1945849905729493,-19.218164330097135,-27.745582688180725,-15.633240141179224,32.39786364611962,-10.13438285773798,-11.966406345616123,-5.048354489931814,12.088866585426581,2.8867650363842983,17.8217397225665,28.49904875837773,-6.067611706962732,19.77867441957305,4.4180544555721815,41.09629557368407,7.571230206511241,1.278171632605528,16.787816858207773,-41.21757246382153,-21.508436316090975,-0.995569782614888,-2.6079907362442323,-15.010392722101475,-6.476712227968176,-11.697119986165342,9.147501658648721,4.632992313758544,2.3161525202198483,2.974276881827891,11.689919225666213,-7.981631245722629,-1.9914299002369615,4.590696564386183,31.72234289327569,9.906438065187052,-10.402327657797997,12.149968647158943,-9.720676720181022,-0.5410908490269816,27.656043588980122,25.472827694726075,37.71376747249826,39.28166833361466,-18.691951241168397,-17.840393686879953,8.206032298391056,18.757945976155938,-10.731938239727459,-26.151910855515773,14.893472418575818,11.398673206357435,-14.809116864100307,-10.688646098157475,29.38076057696784,-2.5457193293215172,6.051899903198987,-11.20273439809919,23.725280671815824,9.467668751661995,11.473384529220464,0.10816409916392931,-18.46059212810551,-4.536695251078017,-12.747524881770666,7.276556599632446,-10.341229173655444,-2.734594822113892,-12.682644875813425,30.578856676112654,-17.32449973577542,1.437597555296809,17.501347619758185,7.34287515926713,13.548321939264882,-1.0358719917478942,8.363957965693443,31.010044400578536,3.825804401753732,10.247472921160934,-16.416067454097764,4.730113403283607,25.176933352958127,-4.06177994172467,11.960519508949238,14.607468083710614,0.9609112306975175,-3.9919843796525627,-44.61435694750837,5.600656609020046,20.69132307284025,-20.861173107220402,-17.66805512360047,0.3968821009213183,1.7794567296630106,5.289679646054587,1.4534732578195624,-3.509350900077042,18.190397426814613,-5.227926136243306,25.41033966831481,18.272938993381015,33.108646799664605,1.3914781402281093,-36.74426598041738,1.8526002586545793,28.835098572591694,8.464084051146052,-18.387052854519215,3.5585703908499027,-52.34911251981797,-18.76669479460596,42.24053583324362,-41.48877541568771,-15.66860515170608,-12.399323467068742,-24.700203310261205,-12.925154602564788,-25.64696739753176,-19.169925778056868,-15.976445127044009,17.630632695937916,-18.870087329618165,25.208892605875715,3.5732148761932683,45.53658855849705,-3.4099956702379712,35.471105987709116,-17.34584098205491,34.29556945728311,23.130762700849097,-11.269584131852639,22.760543872929077,-18.400675110321302,24.865932284435537,5.881552450657809,13.792310882190247,-9.973108499873014,12.555489513120337,10.696134691152,-24.39563754142936,-12.48504522029268,-30.374321531485577,18.77998308348714,26.9512118217402,-23.126130474241364,-31.349455093746187,-6.810988394010244,4.005123566546578,4.164810011962902,-22.967484336326702,40.692555301859365,24.51679170495959,-60.453928658257155,-2.3842588476771347,-8.706319660310115,-9.661305005092945,-28.116099503830508,-64.92571891319284,-18.007104593174304,1.629957881043187,20.84705517803997,19.244546438838118,5.496002786803811,-4.56187904864955,-45.541603339753024,22.41121323335964,-45.54194920295191,-27.75173532133612,3.76651082383263,-8.856340467158459,-14.822780588173195,-10.253128739838296,-123.22268549545092,1.039166496860678,13.489810246712615,2.56877025792782,64.5102960277696,40.9193640562633,-6.187592590883906,-2.6134061021332435,11.160705062586725,-10.63540901498677,-6.264484337177026,16.715911371536734,-36.17550023935061,46.705009420881964,-31.097633095591267,-38.69419396591682,14.28515075195414,-49.657176599478056,7.672630710208098,-27.87039458064403,-12.936635974910612,8.004882106692705,5.002853281791407,-30.252191698326037,42.98839056406886,2.376234585054968,52.332336105297166,13.037394363115144,-9.871740331086807,-32.68348975014775,-2.8600769178482532,-1.1582554187503706,-24.047402371139835,-29.924280860089077,19.16233587919426,10.126853277984154,-3.509614473555085,-39.293879636019,-15.209288362349016,34.55390695937772,-14.286640762359616,-5.8976950963838615,0.12348277460887166,24.913688415227227,-37.00654319241239,-12.706774500768626,-39.70055061303848,37.59597591182532,-6.256523302305834,8.409666806062281,13.094782985184537,-30.51451438785493,25.976656211303258,-42.44819827084843,15.081005658496471,-0.028061211562536437,-33.62622695100496,-20.87548641104113,4.102383308156505,-24.690416203762712,4.202132485571694,-21.789399801336668,4.994326947392108,5.394782689195985,34.2724213083941,-18.2897205504124,-10.005969990479825,31.80044027092122,34.350498832040934,13.795307083266449,7.496641565750234,-30.946428829373737,128.05789202927875,44.00942399820736,9.62179988162421,20.416363757517775,15.45404169079129,-32.758338584749346,36.37896803474902,-4.162268764256402,19.47535494036347,29.06863497192605,-8.051819649963564,-5.528380866829106,-36.802443873953685,17.79840928487762,46.426651083738925,-8.779290147595189,1.4775745278987082,-82.75944457782676,-10.170573385128998,-35.14251532354887,26.686510301915522,13.000639878277616,19.119127481301177,-0.9085648219692097,-41.879502509026786,-6.663380242705606,9.351519746983664,11.516514085720253,23.21902947309111,8.393195618636812,-17.96897488889428,9.075617368997063,5.975367009272234,52.21040022559236,-15.358131606918043,42.295745831425194,-53.647852998193805,25.861241962964293,-10.729507711823416,-28.969913995661297,12.211616531244111,-12.744689167893982,23.306031890799606,-32.39652718853089,-12.83132360653997,17.367880827537224,30.812319618922277,52.017444737870576,28.202817510281637,-35.00807406697644,30.433210591717174,31.783037510024368,-94.459944133853,-3.714905823693966,2.1587856768911227,30.28203333048778,15.942249718478992,-10.324947497404882,-65.52981886032715,-13.934106811196646,-27.970831833810074,30.57102538944106,-15.049013180370926,-36.544547806528264,-11.032573366845961,4.415750464948394,-26.87353493243235,-12.927430772869492,34.22591390080586,35.580195069257485,-32.9289490351206,5.181681262706141,-16.816389373656552,-72.37433613884167,12.983074363215495,14.266256284364445,-8.322065589079193,18.28661270861467,-31.63941734816825,28.946917229231445,36.401115452573094,-14.299195859381818,-21.03380691607832,89.18012469875401,2.336046513627517,35.25687973836014,-3.0227491594473053,39.366793014780534,1.336409885374115,19.192795489461286,4.070614304712165,-8.315383622296006,2.0333400627351668,-21.31443043354591,9.684032095168737,-27.730230928514693,-20.786210261183246,-26.883333761813343,11.207156321846535,-8.998241948952055,11.162736845946108,47.87850790021081,26.355792160895625,-65.91989651870874,33.260827497550174,24.94948459618969,-18.83761358845637,-0.10418536457929366,62.59918055787116,-18.72297741673796,-9.093132849700751,-49.732921487987234,-32.26748543102837,-22.692117432750777,24.431518753209414,-42.945970538089135,-94.5160956532938,24.62171704424091,1.653352618299367,27.42774490903668,-34.29991171371302,-0.050457027533253804,15.635272759112503,73.1771357227882,28.589970774115557,-20.68816217992169,36.18457036958859,-38.340525280545364,-15.45987523322416,10.793529676912167,22.10947384152456,-21.898285097444887,17.157195570432368,7.745300548387924,-11.7881757678433,-9.533441458310808,-0.011704988926648688,-28.103762839845746,-37.46192089406346,-19.178742835900913,4.482470037933259,2.779696777863254,33.535344136379415,-26.040378308487544,-28.228632899160633,7.026266861657767,14.172233727721302,-11.453505375784099,38.745370472987084,-16.660710276993186,-0.3326695750374302,-40.70536645362579,-41.34939374375625,35.40036874709742,3.6977934109780395,-16.316147078307612,6.457980433878249,34.176778603767616,15.463827560697021,54.13755688880232,-21.137258322479212,-23.97828308767816,33.960951551995734,-12.187480331183668,-18.78403798872891,-13.850360800517564,4.262900122854137,-18.741951828118026,13.764422725355297,12.355314549026717,-4.362503877270793,3.600168635068555,8.808137545648583,27.753649968977935,17.96608779854357,-20.562920017437712,-52.85429368229419,0.8427014279416537,-10.4252442350671,-25.656456298411857,25.68224533031958,-22.643885871935495,-8.838498186988076,-18.66415477049013,10.866908620118386,-7.059154804200061,-26.00471044274448,30.020656917794998,15.516497863206789,47.00150361767216,-4.779541612371808,46.66784435370363,-10.14219270757718,30.06469222803369,27.28778956421259,5.837030419628493,-2.8476287040983994,37.11843111417989,6.42619320439588,-13.705470856979355,-2.0433354622563438,-16.26794036504769,-1.1954088503219995,8.970148523095293,-1.209564767381177,-23.687136516570703,-52.89219610362861,12.412014364692707,11.850404408772022,42.84317904464341,1.358409571124333,-26.408230080618765,-4.8207351198465505,-17.74301666883922,21.20639892136998,9.607609434978498,0.9567795156745855,-0.07923213538222364,35.971300172955154,6.108638092681542,9.956322118866664,-29.748310344605677,40.66023064324282,14.585956940544168,40.894847145161066,9.397947927624962,-21.53711250371796,36.36900393051971,-30.96497062989346,-27.313525906022363,-0.6111596940427639,0.05829754837498673,-24.04815958766224,-14.327528450227634,7.799113544387333,24.268952630212393,-13.886513885471581,-21.103704266102284,3.212501825774934,5.112397547083255,23.9417646943063,-44.5808488845197,8.677651559454565,38.4543466187531,5.0538908399298785,-46.86666869478225,-4.467523832316346,3.0970674499873425,4.7890177044213775,-6.326296572845398,3.7769616303117797,1.7501934398831698,-15.433849835875552,-18.37758679012675,-29.79587719173216,-26.39479437882846,6.661272185576173,-39.37967164477251,-5.2166820030112815,12.542539918629439,51.056947197116294,17.417346311046753,-21.493347332591718,-47.7871513722491,-17.87222431961994,-34.78663598820296,-5.452518852737344,-19.858812511857707,-9.910069828176123,-41.057217149146666,-33.254560563827184,21.492928814459077,1.5671728805138885,-41.56587009556298,-85.43762973170948,-0.8468021402723807,-6.798525205150773,-51.11365304801457,-17.264634622339784,-9.262800318714836,-0.4202418175240008,-12.336045529225341,33.5849501487446,-4.505264153403707,-24.227681110610515,60.885258121934214,-33.48027109968356,-29.488063293716163,-8.450294684111405,-21.107389649235294,3.9916695438564003,38.76148730740458,-1.97662992696873,-35.68161713429197,10.570030780696918,-58.019462263150494,0.5118306060174145,36.49365486532438,-43.095608055040834,-15.985759811130968,10.572606729164143,-26.191265934918658,0.5863567297123159,4.45012672231819,-28.488040480602184,15.868803064309795,-0.8362044792074467,-20.260416793885945,11.954908335671266,-36.76607858935731,12.836669326623491,14.566969021454323,8.375431464137787,-10.93056262463565,36.19347564744674,12.68730473933926,-12.387582827763062,37.57380634015638,24.011056620936362,19.088981301228912,-2.8659095818853793,37.94824672590342,5.205853319089386,-7.308243512870711,-4.484219064404612,25.33923970744192,-50.24755831761572,-12.525023787308061,42.93395656344984,-25.93997774729238,5.343255391152745,-4.814370336583289,4.444180776907069,8.71251316137519,-5.931302989424993,8.550527531091086,-31.28549864948843,39.94515496896805,-19.466519822419908,20.028347928185052,2.0250375529163085,-33.24929260382785,30.459434240879204,-31.887732372965182,1.1210708350444412,-15.726845167626182,-8.238992222283779,-10.347489079684964,-21.470490951990858,31.699833698612494,20.625859539579167,23.944511590898493,-5.341714504971409,-6.521313990662417,-28.345346428121232,-30.775780888673744,16.29450648508058,7.605160004653024,8.711494594397866,1.1524953420676072,11.438922129611715,18.775263722505315,-28.625835799695558,-3.3520290977630607,-28.491637619128024,0.07185790133991463,27.375756521085467,41.28806553986135,-2.360567851261846,-29.84620507099106,-46.637981372012185,68.18538936688405,52.16433186047971,38.41177214474639,30.035686406915243,40.84346128451324,12.494019437116131,-12.777848104766832,11.10389662520785,-7.525810794475505,9.041997879807772,45.740474731817145,-13.396777952767344,7.729231214052023,10.184538018005542,-27.75312237837574,7.543035350726464,-7.783504237416682,43.5587867773949,-9.734240798414161,-29.245798722102208,44.112527205387124,-8.902399238273809,22.00841518756927,31.901802126366096,-1.708033277509192,35.0616047123713,17.607595713851232,-17.621337697815964,36.55223602529799,8.206464949913302,-6.9941114363703125,16.688689831018408,-10.624104013313088,6.912447830565557,27.929135692326767,-12.15120695281791,42.31408007612699,11.856977970942275,-9.502287344921134,27.597690886106534,9.831786473741543,-18.68406581902406,-28.62247499673314,10.219403678491103,4.27384880292496,63.912502429509104,17.801352939206215,-4.008406061961671,-23.36138613140329,4.866646789848175,7.145052963090119,-30.589928596920828,22.917806306712073,-42.5190154982863,0.4308090113045734,-23.72301796368674,7.925075713556423,-11.702994679443332,-9.779822008007603,12.262454118867145,1.7475490986549456,-28.532802287610558,1.4604138204032422,-0.6840182400014198,39.451655346006056,38.32285894227509,-23.197349197956626,17.9836107399472,-19.740822307522546,5.582064283027576,-33.91246478425114,-33.410454634958555,10.124723536809089,48.970672848899106,-1.8962856874481728,13.81700066005883,38.97291855831608,-10.329498711460454,25.538665915154713,-26.61268582907143,-30.146686711576777,0.9199783347155269,1.8886627888657999,-4.018985108422563,26.69085589147917,28.336524091045998,3.9782359659733286,1.5934391749843764,-19.57061803971871,-51.20646904735377,27.81199632832453,17.129538429287912,-9.259373720806428,35.72830659443887,17.46786418366374,12.90291670229815,-13.798984192073828,1.5514000545892561,38.41254018927756,2.579233894602672,7.838738520451653,-21.59321543902488,10.073680207953965,29.302352240237553,-24.77418296346951,-3.0402503053084473,-30.209860149103157,19.54777363562786,4.075755803125583,18.51413709538133,-11.559062491880484,-27.919587485166367,47.592676503331134,-36.1644322056113,-64.67682676555984,-32.29659844802199,-11.852514038650657,-10.679603229536722,1.22956314632449,3.366413222597839,-28.89606478090631,3.4170351945150195,-12.45764369399006,-36.39079136416299,20.066569583494818,11.265623292776498,23.999560242884527,-5.594753117097811,9.964909007877544,29.241323203423725,-36.34081377628677,5.4859299035932825,-7.72089028166968,-7.7932068007632855,22.31415009790932,-20.853648490881135,-3.4464951624853417,59.90369963622426,-38.16158665093508,-27.832849774460687,-18.874794500350863,27.324756756642934,16.40037402509569,-44.02281631285701,-1.7520495322074299,4.132094956173492,-16.20276566560139,31.498461491916586,-37.88064010590563,37.48436711854987,-18.114848008649837,4.018750981998564,-15.954088013251972,-1.4999950437464231,7.872467537620937,-15.44889319332497,-42.67910973159673,16.57243725638114,8.198043735851654,-21.961006364385902,6.630967851165625,-24.315504765697884,7.903285280309627,8.360202773105051,4.193547790225962,43.30543884674581,0.05511119007990534,6.138898693229049,8.273061199255414,17.980149284468826,-66.9379812342985,-54.92213543609089,-30.884586562470687,3.6729339598049577,17.691551736592388,43.06998735194946,8.934350959496706,8.975314733807798,-18.094869429480617,7.12942450987995,6.814923710238471,-45.997467754599484,-12.316579809702976,-3.7323942712988245,27.424885916373384,-16.38408073555947,46.878809962651324,13.387334306826014,2.942388686587137,-20.612205309948333,-19.512134773229317,16.400554110441927,16.18532445623267,16.940694165338883,2.9624887048516717,-9.868871812516055,-13.16746849957072,-7.454765613077409,9.452119895164305,20.26188186206084,12.620781822495797,29.229499991301942,-41.09631648600958,-19.229225439521258,23.723821455989317,26.18857366849385,0.13237100551244274,-31.117504657271493,2.2974541273656737,3.511176879947556,-18.22486644192928,11.250783363134289,1.4248032969484736,-7.488687243512006,25.3361974162084,8.919288667895643,31.487030215968844,-13.106673358337341,-0.49988183478815923,7.3620384503169225,-34.76142800833287,-38.214920745751996,-28.540920561409784,-14.02390706938016,-19.273714583381064,2.8384229841303537,-32.01489552508815,-29.31141078252705,-6.466118989477909,20.253304768796802,-2.7812756538699395,-14.3396065776919,-6.3504453561292,4.220376225212822,19.278013038101488,2.3770325470564475,9.833949967703012,-34.36389140837821,8.316851382263096,22.730576110661136,12.59273633309278,7.249472817856871,-49.5361647844575,22.057897958004162,39.766527519487084,19.8544227394841,-1.776042912834166,10.28062728555595,20.43593675833932,30.67725394883846,0.02115821521793304,-7.946460267530839,29.5848441612001,2.5147470558025593,13.191993921926167,-15.19378836476597,40.51512693702649,19.49411047752029,22.88348986420551,12.223082206849236,-23.195888882610834,-6.854718194814872,23.872118495826133,21.572710780224053,-31.334649357138435,2.175857416539608,11.896632889830668,-22.864433430179485,26.51674681472615,28.758401406735928,17.571089338893966,-15.399157594049678,-36.91445383637283,13.273850006245523,-1.5038989633882662,-25.40257318669546,-20.47769372901816,0.8231602416247729,14.449808888985418,14.468002342264462,6.994873852274417,1.9996584747227562,-6.494390728621927,0.3352378822702806,34.72526570234206,8.166575508461055,-6.940347223856684,36.60076813370563,18.044404228313727,-24.319966964470698,-13.288411205114832,19.33428459572052,27.11213500772775,15.665762197689563,-6.794818187888021,20.03908946535275,-29.15977899526786,-17.576238159630336,17.706407030841184,33.578080121982,-22.60561574954201,-7.434973698969664,53.962793875170995,-16.781114486276653,-22.596332600418854,-1.9472141160541139,23.208785032231507,-12.237217189194343],"intercept":-6.213760821195297}