{"type":"sparse perceptron","classifications":["NEGATIVE","POSITIVE"],"weights":[0.0,-5.5087996395616345,-5.5087996395616345,0.0,17.655134595625622,8.208479889032276,-53.356122577558935,-2.286176499455057,21.963652219091326,30.013442330196195,-27.058516007825094,-19.239303867732243,3.051416464261466,25.434142724001568,-29.035440751874003,7.014576337565507,3.2919296778262432,-3.689834048711599,5.217275636583989,1.2093840229732766,1.175175597173164,12.673052466289533,-6.22779606964242,-6.550808827419712,-29.344923757628358,32.55762950556466,-0.19363992858713258,-12.377717319412357,-11.886093283911066,20.894291652636856,-19.481152614512638,2.7392577451163564,0.33664917247957393,1.6658928127574184,-3.2741790120358516,-3.8690602221919477,18.423506113214376,-20.812231572889708,4.489619914981716,7.696022046060393,11.285761802914445,-1.959840193196419,5.987860648125325,-2.5776517842817306,-6.97874760570116,39.807858103481244,31.689950152897737,19.673184031061442,-36.34118922342593,-6.45670587386976,-4.496732310292172,15.505663761046486,18.353085235998016,20.302087378414292,26.156745770883248,28.245750688089817,-5.972672825278325,-28.40629774966115,-26.56098252346967,-9.85506074230095,-35.67270064564899,15.055217080695812,-36.6556665645635,-39.74902547921679,-29.899758693640198,6.485839989936313,-9.828721682050114,22.978984626723726,24.93505640160764,-18.379618825348867,11.1393253354742,6.163591565697442,-6.150610037546711,31.25980432420897,-7.318825827030816,-10.537365080881338,1.8423234447809562,-30.64549413144639,-50.343416761671065,-32.391361249195896,53.52817641282139,-21.293935003203114,-16.815480723630287,-17.195882523863048,22.006844820446567,5.95885602529052,23.07196442998375,43.783890471966615,-4.8107679442542395,27.117439001085984,5.955659490368234,65.48932390749668,5.9974408150943415,-5.717370266595568,25.146704722149863,-58.61356859381726,-29.92440134296319,-3.142848484531434,-7.824695056196041,-22.14280225856121,-13.608119854883892,-29.72743045055552,13.706039359325485,7.259377099252587,-0.4525241357725588,1.9797233544512811,22.27355215457617,-14.417115556118445,-2.1276220168942994,3.276407226092504,41.35488991000357,22.740905423556818,-18.103765845982203,22.461488383152638,-19.36032545399058,2.548460284067225,24.863813403095573,33.61158306914622,58.05220231212596,57.039675395690985,-24.755883814369405,-22.63105474261935,10.539883212513683,29.420763273530817,-16.95260747434044,-43.508396497282305,15.3387350225169,11.042228677057956,-20.155907447145193,-11.433593467043549,33.41485245785129,-4.036794750977046,11.844417242363654,-19.5230971527443,33.675559295337656,11.091044141540852,15.509209736659646,-1.6542773073905697,-23.908878465103466,1.6736811734096566,-15.430010532169984,15.201115539697177,-14.529140768938138,-7.576508215501006,-17.72959182272928,37.30020126967986,-22.428451907403335,2.913252640084871,24.66737585108454,6.3975545456616665,19.84659340389832,0.36717580361809565,10.307579893612518,41.96122198667325,4.982374133229325,6.804355577651402,-18.43645035029148,7.165460208817407,36.537739942765306,-2.2798279734245654,13.461957835884817,15.908676314273052,2.4284603600404906,-5.231895855365453,-54.69257229392333,2.6263775376611913,21.056348783838764,-31.22385380614207,-18.694985272994195,-0.47707720592303515,-5.138601508629266,8.445124279963826,1.5939566380466934,-5.804531589841603,20.86931626871436,-1.1745487893126285,29.21571638379686,25.840785946035155,42.039433197835194,-0.1867482515983313,-49.67499335288807,3.041670588371904,34.30635888283975,6.4341761797426,-27.121095811749385,10.759309065023864,-58.938564075049904,-28.224344867224964,45.25058568542388,-52.91423337481423,-17.042912697368877,-16.084728601476517,-30.152927459903182,-17.414004489361652,-28.168140400944093,-20.782345608018463,-21.183160930262602,20.7943122991616,-24.6053507385314,30.149289988524234,7.998757155939931,53.07861390952221,-0.18835189792524787,40.421994815708835,-20.95138567647117,42.9070737699652,26.529204687568186,-11.403758249152526,28.72110746315162,-27.086530596522238,35.95260422221702,14.12023099936208,20.785386576474764,-19.234024140259937,9.07487512108326,16.216468853387983,-30.656672173193165,-8.941641062782704,-32.21304290508796,27.252653427368386,34.41974074189577,-24.90409660841017,-40.06781895301502,-4.414598367229208,4.251386276604312,3.4915386652584695,-29.747639273135174,49.11882557615302,24.673390134540067,-75.4205413489124,-2.397266182512607,-11.334022003194372,-15.838596237817562,-38.345423075359896,-80.53617377606247,-19.066900064444535,-1.244385358505367,24.755828646008382,18.859052208747087,11.518383985385679,-3.6806780556342553,-57.44045132275468,28.664318182128135,-54.66199813220434,-28.896036612720824,0.7869455377429616,-7.483211524975197,-18.736345374773403,-13.19595209983336,-144.2006632799506,-2.855384490507712,19.980774364625155,-1.8414267803608693,77.57078886847948,45.81900013562503,-5.671699434191747,-2.2511908442116884,12.81995551474097,-9.500908947219024,-8.038709259539624,18.378646330140203,-44.06986722812914,52.78750841416363,-34.536732587989604,-46.3432055647526,16.49093321659042,-55.137090267254884,8.156991606734938,-27.907278774154314,-15.781053776197515,12.911869098371122,2.7684347841740564,-37.32810670186611,50.33961638217473,2.326078822200468,59.19684537192515,11.541155702431045,-11.373503121811483,-41.52798917096133,-3.245177573705361,-1.6984348375258986,-33.85969199136433,-33.95154539157553,23.77806979059703,16.591429556896617,-4.196107839125,-43.68529211639926,-13.135850930044846,39.4709680654299,-12.810688937160648,-13.088881614254216,5.773061280548753,29.889941366338345,-41.540745132397696,-17.826044331707706,-43.546750169017265,46.55067001677486,-0.7414824862415196,11.105874951786909,16.97110102374154,-37.581564057650716,32.03342871408247,-47.98729669978301,15.303978421580533,-0.16644860706339407,-37.42163176411065,-20.755041861839704,9.233739886473497,-26.211204035315124,0.6736270905771367,-22.747075343100086,11.572719767411318,5.642317404625437,33.344589934563245,-24.282029822008326,-14.978944250238676,34.70185680279338,41.962898743008815,11.757508265957794,10.23167122584524,-41.510671942766756,143.81289400244913,52.10153463662037,14.169122998238135,22.12361223461542,19.747747938015113,-38.81513111114462,38.79133028312354,-6.366420202624844,20.046462586924182,34.209770289497385,-9.303443520465628,-2.5741737192688525,-42.54751881794596,19.528859509831285,50.388509151716995,-6.16118118434629,-0.1908779824376498,-93.60046063495804,-10.162803615911185,-37.39695198703948,30.074365620506295,15.25301844354617,27.358897605959832,-1.7730178718400953,-47.695512744944125,-8.948791625562388,10.28020216420079,15.402932927375279,24.694040012073454,7.334757497631231,-24.849949710601393,2.172620127696138,4.325967611467858,64.79719059646128,-17.561580437448022,51.63985506702627,-59.605135763408406,35.13527593554862,-14.766027563463423,-35.11435576594468,14.398120184789862,-12.267873491324096,25.0043747518794,-40.421334956234354,-13.962852914697201,22.24964743217212,30.876181945401648,61.5359953582538,31.695769236308713,-40.121032061656486,33.24778146977612,35.05176819735225,-107.42267620164704,-4.845990851748516,2.714598628204433,30.971135758913213,20.9592122362804,-12.758592365862773,-76.63398552255958,-15.886765554482507,-27.927539094581846,35.71277753692788,-17.769942160522344,-45.54856907617152,-9.02636584161243,7.1772284624212475,-29.804852104365835,-9.681952670728103,42.79569796441171,40.76354491487132,-36.186128816304205,8.883437973213589,-19.293670339615847,-81.91761486152959,15.149506049761976,15.04539942299806,-12.492407525895743,19.14802065553036,-35.07967003590791,31.603156415347346,39.580490119074646,-15.204500565975334,-23.887084730952058,99.87976807272916,3.0201033056767974,36.05157352477699,-4.731289352560238,44.61854035858014,1.7293361991167935,16.904367900809053,3.986320062840359,-9.729853636150537,4.2415213359237685,-26.650805594868302,10.26436028308673,-30.775836190286654,-26.220804122973192,-33.419777398201894,13.106875494319,-14.191078843196559,12.476659636676873,52.738347472754064,32.23134835208247,-74.20402122958602,34.386084002328936,24.821805582600042,-22.354682221893633,1.9709725397192206,66.47688763204394,-20.136397539857786,-10.308056620919148,-55.48471898217734,-38.56055787935112,-22.37392054105526,24.35875408495377,-47.60145588589398,-107.90948819658013,25.811199134122145,2.2507838304757004,32.29779899467764,-39.00169453304552,-2.6503953819085204,16.99137255555001,81.32246814744542,31.183288925203197,-24.72618258765223,44.132489251674976,-40.231497661426985,-17.103655345509896,9.599528033159675,27.796186923001994,-20.418038843159895,19.2974239845722,10.545060445535496,-17.052561443488955,-8.934674878669995,0.28891859797828223,-28.81207381923472,-43.15594599038323,-22.69927011041619,-0.47806670488999803,2.7237446908630747,36.869702938981064,-27.554779303888875,-32.9013354462324,8.551803318956717,14.324878999140122,-10.041145190463965,44.38057494549261,-13.992366868570153,-1.9129645570720986,-43.80286254803203,-43.61187434888994,39.07712236487092,3.8811417805906974,-16.624670722424263,6.89703025263229,40.18801476131504,18.84076074073697,59.52430112915709,-23.496003520466214,-26.35323412527848,39.93021312310305,-13.717566108877003,-21.48951373683622,-17.04216016214653,6.836561921476709,-22.315744624878082,19.308078803457185,13.100316902764524,-8.806357515857362,4.7915291514139895,4.114967439799372,28.869961911329646,22.78309072227377,-19.559172126204963,-63.24040532409049,0.06752225844068704,-12.154644067755655,-26.20482139818088,29.03311256173219,-25.079345650357485,-12.289282870130307,-18.88702524500965,10.854445879913015,-7.682171233763567,-30.77824882717793,31.076557637555126,12.434917728789822,52.095083205356126,-5.334805663029231,50.00553004870044,-13.525918031805862,37.53348609692315,32.88530938478755,1.5818223808503544,-4.725187878843564,41.09849315847696,2.6568079422863673,-12.37878841560734,-5.568520650697143,-19.738687996632855,-0.47782358840729255,9.057713714947848,0.29938892465682965,-28.842717719105348,-59.07716340771296,12.601378048332341,13.761578513518797,52.89746924226802,-0.31918465634040905,-30.0403470181046,-7.464067089367688,-25.52785290634453,19.867201549056137,11.504382418853394,5.079892867393029,0.4727692399827743,39.369854373280674,5.827669868790595,9.591916686809952,-34.26176138482642,43.66879897505031,14.187687513291177,42.02356853575391,12.484202673395895,-24.247570745490396,37.01531605576405,-32.4699625270857,-28.207415743497688,0.6213595094662483,0.01002102042398878,-30.185922523485416,-15.435609147172428,11.15284136973512,20.606563768808247,-14.197300636510695,-26.11812386884973,5.795643948606633,2.9232081657943914,26.337558606855467,-49.24920042418737,9.051760521445765,40.45273545143856,8.039246480764456,-53.01703072845768,-8.224516112184082,2.7863514344382216,4.531023097366752,-10.195307861114234,2.8729931096823336,3.759418139946255,-19.35628844434315,-19.787208193833717,-34.11422959532834,-27.979326431117304,9.241493317938083,-40.73057916145544,-7.884476927140746,15.803389009391813,53.94215801754543,19.190958010976818,-23.730124214382823,-51.6476284396399,-19.563415034140704,-34.89898428065503,-4.635485336649401,-22.973030706127812,-10.858182582710036,-46.06004426500649,-36.88842470763671,21.80816429501921,0.9393779348406874,-41.74848140423504,-93.64489814670281,-0.6897000628405925,-5.317006842842159,-57.22748768783045,-20.278721325110123,-12.663339248166722,-1.3089109519717648,-13.715725434955637,38.22445364815274,-3.928679497001032,-27.681293783575967,66.46995261953779,-36.52729648572743,-33.528448118857305,-10.402277417087948,-21.399728832782614,4.055550446262802,42.965540237428165,-0.24771070606205312,-37.63535734545983,9.72196766269724,-61.26725907602809,1.3029355246877263,40.23661973321639,-46.89673530527128,-19.656068892321198,13.153440103105591,-29.35139504557845,-1.547709515139691,4.822048447055446,-29.629411584484107,17.327223235886244,1.2942045731196736,-21.003370064667614,9.389936384088971,-41.21843735867485,13.288758600626204,17.990923516238688,7.885647743904131,-13.984401224090956,37.61402177787992,13.952330846032355,-12.448358028350976,37.77882375862799,25.709530156365545,19.344492954729944,-2.45418674928594,40.70565024685846,5.421488240458001,-5.8183985340475495,-6.546637587747413,27.346748898153443,-54.79247046177361,-13.726073352459855,43.094190009560215,-26.51552270247271,4.904710146584447,-6.362335217094836,2.3458677429328687,9.134836346613213,-7.796513093568416,7.9032159221089975,-30.6737668784058,43.948233760425445,-17.10399058770827,23.7254298675882,0.7255451436897186,-36.56180359176154,34.62805038975519,-33.09334868089646,-0.142032275051252,-19.15607736457691,-5.965468131334087,-10.767981578125344,-19.886121617166847,34.02662845275334,22.007755668625652,26.75730129540752,-7.158325011982227,-4.379548235745607,-29.56248867276262,-32.397821909132645,16.660227004097337,9.4266064870998,7.330018475557661,3.7300930853630274,12.644046335068364,20.935652846800473,-32.04661875182641,-5.870772787439678,-24.659374638613045,-1.303239663209028,30.367640969150145,43.19284871226018,-2.8790876229597337,-29.409448599605675,-49.126651330780824,71.53833634978734,54.28241271339678,41.562621046195105,31.541267989662764,46.28950099166359,16.35416645874408,-11.51881006293415,14.046063426575403,-7.822129940678374,6.250512082814685,48.3879678585574,-14.996660616102261,10.208770912241393,13.92698623509932,-31.35641383725884,7.854895354490122,-11.579000503226636,44.56869955305101,-9.368779429601473,-30.088779919489806,44.57270779947961,-9.300127796092644,25.002986051123614,33.756274591682306,-2.4514395219939815,39.582777549909494,16.48639052012013,-19.565950514095274,38.401259611805436,10.884564947937665,-6.687601828345706,15.737809398898047,-10.644065374987035,7.114750975345046,30.66605362296527,-11.798028656051782,44.38075248302133,10.217020858542508,-10.92381457363209,30.911158251995676,12.958608252081,-22.624811217419268,-32.237372006082595,10.024883678115607,3.390861674776506,68.73869433986563,18.1542032459886,-6.680875945818923,-24.362945862850218,4.808001727467984,7.096705667933314,-32.990925207381665,23.645717780381386,-46.99621767876779,-1.619132255761471,-26.27647001116779,6.647749972613596,-12.594253559268944,-7.882372424267215,14.329598535630044,1.4797822372906346,-31.493608731785862,1.717306543890612,1.0594475958743335,43.136869691723156,41.301995715443795,-22.856339985460988,19.25622090553386,-23.001263299876022,6.726538581634602,-38.94917013179057,-34.2731413449749,9.97304873967776,49.79408046948062,-2.827172787713229,11.437829662168534,43.57688756760569,-11.02540298076051,25.774940782212326,-29.529391500916653,-32.32555277035301,0.44924928116765933,3.402887444219132,-3.9519970118314163,29.68545829523651,31.055567615159976,3.5446305115436476,1.9610299046986102,-20.871789331105745,-54.25388900622355,31.143215883206594,17.56134967697694,-10.162460451073088,37.35919098922602,17.151536208911935,13.940200490352739,-15.876816103763396,0.9239023791856426,41.72263311390952,1.5662706386977465,10.191146400148272,-21.245570867217346,11.958093067655636,28.990052149539213,-24.749496345890588,-2.422458230398208,-34.222644326906654,19.42749485442008,2.329060937757808,18.060961211161178,-13.026805699618125,-31.41720257448057,50.87722032751529,-38.540768154589095,-67.44567203925271,-34.31360426217304,-12.524080589816473,-12.038418648662685,1.378304540711104,5.73491425402434,-31.64232273420278,3.515584815501078,-15.237383878787542,-40.12587382429033,21.801775823632603,10.59406415678209,24.79835712572828,-6.381903776235259,9.940817181614497,30.57344794582285,-39.47235445775895,3.306779013925522,-10.258224633890364,-7.897903777298132,23.21955181663196,-23.74062570330483,-3.7795362651547304,65.34606562979921,-40.254555588971265,-27.62367248610105,-18.13785302968129,31.077912933169955,16.510099802050206,-46.56219598007726,-1.0791765905767645,4.8869602438181845,-16.732515765330778,34.88946174453748,-41.89093774191134,37.287233837379226,-18.864864647497665,3.6030109715164538,-16.557395854604447,-4.808967338207306,7.904705084845723,-15.483895456613748,-43.83163142948,17.28506321070197,9.053392663459773,-22.60272040242599,7.935570967607218,-26.434994265854883,8.241011934913246,8.707224899958563,5.515352708125551,42.16173464965846,-0.32165237672238556,5.210007464543208,8.414785247221676,19.356503285765765,-69.09758000794616,-57.34447068924863,-31.824684308341105,3.529779263141695,18.910779940887153,46.19669432255051,9.59316172229045,7.199556348118818,-20.289812619569442,4.702400303612628,6.781125487232617,-50.00049850275925,-14.627302138375008,-1.5862579153327276,28.478465441152924,-14.874471779366035,50.863866213201945,13.240751579498854,1.4619275140040604,-22.879837761573086,-21.05274578561534,21.01674620555908,17.426372248676415,18.960954597889387,0.6596497743476639,-10.117131210727958,-12.596587977877771,-5.47836437460612,9.365335200670424,21.34889053713277,14.281236963863392,28.01216272196206,-44.862848053255746,-19.47699080211466,25.75926026065313,28.70457239156515,-0.059577982081768344,-34.155115221233025,3.005838655803523,1.8997056957338405,-20.10970875702864,11.680259753143293,-0.18540461134187436,-5.959129304179416,26.717509032325776,11.778314615749224,30.943871554634143,-13.532893832435883,-0.8842194027444437,8.141309406454797,-35.901087233667155,-39.377447197843225,-29.464594611663767,-15.47299940941917,-22.928644289642627,3.4700820053912143,-34.21935249453116,-28.766518445691037,-6.122825993581659,23.210395584299,-3.022497016576166,-15.133620982097561,-6.122825993581659,6.453283983141238,20.823146672088964,2.259131200394388,9.824427393431437,-34.743867811490574,9.331490812788568,22.127445296764648,13.7754640952097,7.063482423975603,-52.21240146829914,22.39096636382194,42.596701455054045,20.871012839699905,-0.8534988756074989,10.851801845192515,20.812655374017428,32.59077834683517,0.03907767884889657,-7.483332561412432,31.69786593688031,2.6626165793954253,14.493829102158093,-17.783501367090764,42.66436453094875,19.07947090474553,27.98983556618829,13.131711881572812,-23.24833757460917,-4.4794732554795305,25.500055365297,23.152887192915973,-34.50139001041575,2.042832233713003,10.325492579351435,-24.874980606339292,27.30387179070627,31.026877103587488,19.759845566284522,-14.91187934344731,-41.05668590788457,15.877056450885433,-2.2080174602304776,-24.787519124497564,-21.404272780064527,-0.4640484816538202,17.679303781744483,14.150364566019746,6.911579826178219,2.105874287923955,-6.155029885492182,0.8210721906455418,37.30953335934057,9.559756543653117,-5.273309482298407,37.24460358458141,18.60895108499617,-26.37517538645628,-11.731925965559265,17.62422798920186,28.376351444081013,17.001682026306913,-8.080114870408813,19.859142413528108,-30.598384300251617,-18.177858333426546,17.847088183706905,36.92450977035224,-23.833120325385757,-7.744499142971649,54.98926255663056,-19.319123904014518,-24.949893352895405,-0.9702171522287175,25.5027465750464,-12.887978743316529],"intercept":-5.5087996395616345}