{"type":"sparse perceptron","classifications":["NEGATIVE","POSITIVE"],"weights":[0.0,-4.150073274914423,-4.150073274914423,0.0,18.938445269943678,6.2736450222215545,-46.037568567754086,-2.395590912345587,19.40605706094648,25.96929525187454,-17.683392284190738,-15.164720315278775,4.358660128614988,19.480217295610515,-17.906810331262598,5.66617090297041,0.5543347041740028,-3.74977769356959,1.5501823686240952,1.8752049393846681,-4.698236589511847,8.078683649319077,7.378690848245907,-0.7631350796933939,-15.013886841133473,24.399720828568586,-5.25876921527962,-8.914044350104444,-6.7350414807964984,8.549042019888885,-7.6003217614834035,-2.643075112421065,-2.8863321142260783,2.7110363565900983,-1.2679450482165397,-7.122984241153986,7.973553684891101,-6.910884590142247,0.08611739893205059,6.156929696967013,8.873111847929191,-5.582058519567559,10.567346120506139,-0.5411777723737288,2.7741855479437083,19.824311702828275,22.40597540640417,8.374902148565901,-17.722659189600204,-0.29281353204043836,2.5437759954867394,14.856371238970896,14.132240592298,9.034885779500183,6.881244714291769,7.927610461236144,-0.08348190095979446,-5.430111537107196,-9.825518676465485,-5.852315480984512,-10.533644653832686,4.954486025411192,-21.498254664659957,-18.87091865144732,-16.17045181807011,1.8616284025902234,-1.8649523052190193,10.68930318918878,6.377318701637909,-1.0144934010000293,1.4744265340488263,-0.7452517169086413,-4.900239135518721,16.577659675731432,-2.391515366895115,-7.007329524364113,-3.2916477074484214,-17.136015259167237,-30.049160011179364,-14.047409867062713,24.68257501741384,-9.641836205249414,-10.937643801253145,-3.9754386779952657,14.360881733800147,0.35372259342615253,12.172960627470232,28.34850187807976,-3.896528505708608,13.62397222327352,5.211541355576891,37.1043944159552,9.039064971250333,-1.1201168708191833,13.050995956010492,-36.65914358530777,-15.71379924555896,-2.3253441296344954,-3.1432638715990193,-16.426139254538143,-5.037906573998532,-9.359686872015365,4.581450506235238,4.365932077047812,-3.0019333893973954,-2.2691696319978316,7.790856197826625,-7.482152137925949,-3.4979536652499075,-0.9070493781001159,32.71883499475281,8.018675405711987,-7.635517189140278,13.574839541536027,-14.324946328383087,-0.9355970217420266,22.53990778430614,23.253684261808917,33.46269121049692,32.517128850352776,-17.969159885904574,-18.620858095054974,6.806163624201406,15.821035266893569,-7.211317780933142,-23.6371604196261,12.784187876070924,8.189539406534394,-9.637868606595951,-4.8690903686257005,22.213911028308985,-4.267230676602707,4.801087673730654,-10.588269874179785,21.885525961825408,9.226921880813263,15.74688494651614,2.464421995157812,-16.16169905566164,-4.002253483659674,-10.687495632827293,8.969074740669509,-8.00322072768048,-4.948968045694513,-8.16802965647162,28.876170031286225,-13.582163702783175,3.3976763618582844,15.436270219532165,7.612653443917588,13.008328786146228,4.0606801460611095,8.31992964668439,26.265052828160343,-4.27571818925049,10.751025268091038,-15.494872021069288,2.624775951143249,24.021335378585793,-5.288214382453375,9.701414583991278,12.688907932769313,-0.7244731532063967,-1.2268196998149221,-35.908347464940384,4.064009445534748,18.82585664841141,-22.629168833493747,-17.91818437714144,-0.767096475787837,0.7358181462547291,5.524584655412935,2.7502860944253884,-5.7717179030262,11.651448879979762,-6.051287136347821,23.962428253720663,10.605696513705917,28.58711892466594,-0.621130941810582,-30.925725176690648,2.177999628969538,24.242659549332508,6.100213925869473,-14.301403208529438,0.805141017277605,-43.87642846602553,-17.767034650189775,37.07594500448654,-38.15066616689766,-13.523859913987376,-8.292158258826392,-19.903533883751916,-7.9965855636980185,-18.80340314250837,-19.551290245304955,-12.728497158732093,17.08131719273256,-18.115535782514492,25.728654952262435,7.658888096203529,39.65179809909045,-0.1937072908824221,32.146549542519246,-18.847298954411592,31.27005749039068,15.561685939744782,-9.417395798374656,18.053992505968605,-17.427580150494222,19.993800113569556,6.835619963948312,15.303149901345877,-11.626527274414297,11.038808330909125,10.443002634926229,-22.091522492406305,-12.30337210844432,-24.194031696305007,19.693583565442623,26.07429289547469,-16.92290728223924,-25.46828443573272,-5.350747223005703,3.677321739393483,7.50799416458398,-20.32034021869798,39.70987285149481,20.381151202952914,-55.206675097007995,-3.0790302973329986,-3.710942484382757,-6.877236230576835,-27.564249742929324,-57.558531662116735,-16.253875670949338,-0.015231236171662693,17.847597552413298,17.835610726985827,4.132372613320746,-3.9639897220612275,-44.975074075935986,20.652967676995665,-41.67479882098557,-29.016033049463648,3.210885056658979,-10.035476295089486,-14.13864355922808,-16.015230934465926,-117.45645783341226,2.3545901938391838,13.061775814666273,2.850925659086174,63.145295753688806,36.107097021300966,-5.356002271271091,-3.9009767590088207,8.156450451250898,-11.197319345432984,-0.053297136327053504,16.560003664837748,-32.07794772286625,39.578113132630804,-30.515850033139863,-34.04484945031008,11.194106486712993,-45.588655337195824,10.28248692882883,-23.2266727876819,-10.349778816642099,7.063688515293708,4.092209201518289,-32.60048451553922,41.78967736366231,-1.1768298525537217,48.32076457873924,11.936377132311234,-10.821682492052034,-29.62586789975737,-3.8025483791449113,2.9970763174577235,-21.75049819745161,-27.176246796016425,13.298434409981587,9.755291829500704,-2.0342418682921832,-34.08820135535018,-10.690653800721178,35.73776617219898,-11.443047649001876,-2.2225913010661134,2.077098717276381,26.396514269586255,-33.01841063520886,-11.989165744899195,-35.973369430526134,37.34844442190331,-4.370924978785743,7.900284038911569,17.502063534247107,-30.096474415011887,22.858654568777446,-36.550534077857954,13.07175699561855,2.9817804201518805,-33.79249814477672,-20.842078130041195,5.5834987237982014,-23.03760466111805,4.897765722314423,-23.303452087769884,5.945614787869057,5.260482159727341,31.458001811771556,-18.25312905746965,-8.579766428994976,28.196709450819274,30.457044513925766,15.06262808226288,6.816943387605367,-28.620035995710435,119.98408669249109,42.20732656219912,4.5898692571372965,19.95638820252226,14.021584970782763,-31.13783719286803,32.56384636046794,-5.546856976275282,17.204429102412263,24.451599428411868,-9.83721632737015,-8.254895777838032,-35.26244586612959,16.71780066957888,44.04196063835824,-7.181597046921348,-0.9562274695881774,-82.16460350177442,-9.164228395259219,-33.29819987389175,24.755652450437303,11.605847343671508,21.953265170707418,-1.7691456821916818,-39.78336908088975,-4.5604546354470505,7.013127261924773,10.444713510045615,19.471522730099583,9.701341082002799,-15.439633055366375,9.799537241858493,7.863329010542231,50.45688898002055,-13.714177634947758,41.32213686827633,-51.20718994417277,26.76995250361022,-13.61304961187499,-27.856268482903605,10.492831433670439,-12.811447969596049,21.78200246335076,-27.15994480922995,-11.715049843721168,19.115711493616224,26.000486027386387,48.1115626184749,25.49331143820464,-35.77999942063834,27.037347952457992,26.279986420818833,-91.45795362254547,-2.0912863312971672,-0.8603317580270378,28.283733742364348,13.948109533600404,-12.354598976947976,-63.08948360924644,-15.321532646344473,-22.612137256789136,32.35733292699693,-14.70669624892486,-37.175444385128955,-10.811071071399214,2.9806839863679926,-23.489018312404724,-10.67332173034869,33.41403446036487,32.017349605930995,-31.269672346413895,7.039444299063178,-13.692484253316863,-69.74713421145826,11.094189266704475,12.801619383848804,-8.65324028744886,18.920828598175767,-27.389853246052382,23.44681002939205,32.981513135460986,-15.024921873661128,-20.710890803093736,86.83079153638737,-0.11693402548739265,37.80968334924045,-2.890339969828205,40.584320876557584,0.8598499594720802,16.018738112191453,2.706977474075327,-9.471316643613317,4.81947391719949,-21.085517910290438,10.246566822589196,-28.030517967415655,-19.847988027541973,-26.03837134001142,11.253707967503937,-9.477669960174852,8.780152511446266,45.04533697896113,26.312921752266508,-63.80886912860563,30.858125631294357,22.86240130220391,-17.635003636984276,-0.8262884785127592,56.83467955936885,-17.391247225049277,-10.195033351879296,-46.13478987053769,-29.777872301673266,-19.48314655320208,21.348263289526653,-40.51611193701262,-90.73232695954293,21.510745931070453,0.5332531928881931,29.27966675874234,-32.279394128098176,-1.8562782803641866,14.21703955014119,70.47326822539378,26.78152501291834,-18.924325666741655,33.80243377646652,-34.38372262783539,-12.705531471603164,11.58861669867171,19.412251918432972,-20.31876013164371,13.764022775470714,8.287861197415085,-12.012985562243356,-8.712095008477654,1.4988894464118798,-25.304485302926068,-39.19190831552898,-22.00537608124908,-0.40560321919419523,1.9469097029443372,33.955390608282976,-23.90270701768102,-28.015641945880382,5.857939438935617,13.228251822736382,-9.248017691672956,39.693714803118745,-21.017986047271897,-3.173649148403521,-38.46248177976897,-37.63474363736237,37.7634366426216,4.924650773581312,-17.693606346853052,8.532998888663753,32.38497939788838,15.07987091937023,51.52067806777591,-19.21716400244191,-20.69541346418295,30.272891910831664,-11.865307862946354,-19.953512108505546,-14.393839939632763,5.79493481178345,-20.231643931835706,13.473338673811165,8.002220127220284,-3.4608906340484094,4.128348297221529,7.014110175408585,26.236300007239656,19.355725695839215,-17.492864222695605,-50.483208143743404,-0.5186946558427743,-10.21785899021716,-23.913906752766543,26.720726592663112,-20.10317064023513,-9.352243718022482,-19.5678692196571,9.292355132349634,-5.377728382957029,-26.293610423852012,27.208479206645773,14.121140538527545,44.559909354095076,-4.748750681322968,44.69702253091184,-12.084392425413128,28.80184143403898,26.459851062058277,6.835104572939888,-4.561343883826511,38.314260153748755,4.130577025265544,-13.347938008602709,-1.4633805802956201,-14.60991755920269,-0.5499359725570849,8.859744865051342,-0.2038025930574066,-22.360834735158242,-51.78381892054117,13.683459916467728,11.166847972008135,42.238825647842326,0.3026961014187525,-27.78210320424515,-6.759115529906203,-16.806490980813066,16.184625935181483,11.051724465151377,0.9895531395929059,1.0626448188191135,35.17866797344376,7.236722273060903,8.097214140818611,-26.435561254041477,39.95440667604868,11.614572388401704,35.3483278763248,10.100168236527583,-22.67730032742324,32.131913376206114,-30.029097682739838,-26.654994623511648,0.46142288306999285,-0.028458815769326767,-24.429694569520517,-13.56774930438766,9.232114155150004,22.16466819246024,-12.161219922720056,-19.909603520939633,2.2783438509226066,3.952098405564273,23.993115646693962,-44.79409174843352,9.702707478221685,37.38985670154984,5.6267812678646285,-44.17400089981297,-5.5062211237394125,3.801159176918394,6.171759396600885,-6.536088991102757,3.7599272618384907,1.428393119542613,-15.794972527218919,-15.924769626025405,-27.31472425077057,-24.779934939785473,8.006915016809833,-37.68249295385559,-4.452835542399658,14.836711691314907,48.77858594011091,18.067267648647373,-21.41459778968844,-46.72934823864112,-19.56302686738355,-30.24143734240493,-5.589190382315875,-18.600739484336334,-11.718864243960807,-41.33590062737992,-30.056374455475535,16.823040543847892,1.7628691194233044,-39.03178125585749,-83.23241547332428,-1.736403980557321,-6.255333533143357,-51.77259772992508,-15.110990990340111,-12.341017483080037,0.031077410570447883,-12.62513120515571,36.32193495164162,-3.1757685070323234,-20.937552523893338,62.11418416802912,-32.671360860059835,-27.227297820876167,-8.748529268913599,-22.921065975819133,-0.47419065218873113,37.815420037669945,-2.185544070379803,-34.14842855202407,7.974968886195719,-57.032920376051784,0.2543544861339332,33.80530952255543,-42.62492130700306,-18.00832208914528,11.172593366599381,-22.75388771016027,1.6160663499594747,4.0811621204996245,-25.817664174294013,15.665787904239117,-1.584565823605276,-20.77312892941091,11.694302835313248,-35.348510499020634,10.622526409671462,15.359495820882994,9.245094855933537,-13.868602777839566,36.134020966483746,10.077666965133266,-11.750699865664407,34.72629562475874,23.562611789905727,18.824141117977412,-4.442836030616773,35.89448279957601,7.356419019454851,-5.872310505536648,-6.091674775530746,24.177858521866643,-51.53755371255872,-10.148316911608145,40.33575562444168,-27.175120851685907,4.63422467288189,-6.27549854732078,5.855763682061362,7.562966462964736,-7.199665114741255,9.129943609700165,-27.49978848226469,38.520653219783796,-16.256813335482157,22.225701648154313,3.549775975931093,-33.59066374590592,29.36234969263959,-29.130548514673045,2.238033691161785,-16.03289668354998,-6.926300853663948,-9.867729341563798,-21.99067499424794,28.88030644112827,18.9804697929061,22.74801949566058,-5.4773908436925165,-4.752969366086303,-26.292358857940933,-30.53448788940172,15.365660634076187,9.147236742709504,8.191759605529434,4.324256835751659,13.03799277191751,17.808644110107053,-27.355030565012466,-4.086500380527154,-27.232276255718045,-0.9366793324067637,26.23386616584961,38.67187754132968,-1.9556614542165145,-28.601119597471246,-44.78277357584771,64.36913529860752,52.69523695981539,39.31881069466808,29.314908560831068,38.97638311927801,13.45368722838712,-10.632508584172497,11.194427134841238,-7.541729370380684,8.197632650822067,46.035738627042576,-13.222407026422257,7.733882832796821,10.98906125510495,-27.81961062767452,6.384756435134867,-5.977218698379758,44.912287361337555,-12.359899438440799,-30.00669418304549,41.815918340791264,-9.58528567779744,19.939586947068666,33.66718426549594,1.5085906503197695,35.72563787210919,14.735111974908957,-20.018908318978486,35.10577494007397,8.175810901593282,-5.1158849148693415,15.104299399630223,-10.660383477654001,5.236328575868467,27.89973763627026,-13.328744731588094,40.80659312981133,10.77262797080258,-8.969923921530977,27.77348054377942,9.168491052588521,-17.86658702493853,-27.849184705290543,10.10933705406198,5.512725252692024,61.7346655964548,17.901812092699814,-4.877399721806081,-22.327393994727565,3.6921883664939683,7.509774289868036,-32.51865765754668,21.228925452939336,-40.651137203588235,-1.7616612734127859,-21.210257318178538,6.318162131422202,-12.15687110410581,-7.277931609112954,11.601968719365138,-0.3561471323654743,-28.322838366681108,0.9831697366476522,2.0913200118158906,40.69631006673207,39.21812739438558,-23.09873351362137,17.981634110706583,-18.92260280895396,6.0547648185696445,-34.13711961752526,-32.544279544583944,8.683140243569225,48.372493264168455,-0.5612280147171621,12.868988604878169,41.657469080161015,-11.478128805597276,25.369251531044654,-26.080393848223302,-31.32512354006608,1.5195952835263946,2.524688112955849,-3.806523062211077,27.924838455682075,29.83419970977395,4.152077734332362,1.7725598373992761,-21.025410337592866,-47.8448965729068,29.380743092919726,14.303144032392849,-9.67024933073424,36.86600324952444,16.49275222635556,12.335848071181863,-11.831786643170343,-0.26670384470488623,38.40062474528362,4.985703441421898,7.405734404388663,-23.850513978481313,10.447264670507188,27.596250891602658,-25.28229946316696,-4.735045941480691,-29.865225548898124,18.05156110317922,2.8988237883167574,16.49108669198194,-11.505511578406681,-26.076368755852588,47.0317189400214,-34.967067505904474,-64.23910695966735,-31.78919329568604,-10.97927365309893,-10.758275134019637,-0.1704339506955847,4.735615524655231,-29.313302137277407,5.2036267034195465,-13.55914996007882,-36.29360896445041,22.392034870483393,11.215672560434328,24.786576296061625,-5.077998995404314,7.364241426295972,27.741851467571717,-33.60390434426041,3.7243270060783753,-8.70650387966781,-7.711357389724329,20.48116462447662,-19.478062063600447,-1.1843804293884101,57.91913091849017,-37.54843562732343,-26.111661209361674,-17.57301239823744,27.89154813623034,15.520062987536265,-43.426447089426006,-0.8598514761613968,4.318987167625181,-14.494205964366143,29.46736245148259,-36.54772440474947,38.347409625817996,-18.06486860668489,1.9120739352298783,-15.050606663650138,-4.497248025880078,9.54668413445964,-15.482866944358147,-42.7684026555056,15.975464335944029,9.421656961014552,-23.33315838661807,7.966791993947296,-26.027717500820756,6.810020754406652,8.471683218147943,3.4385606731831064,42.46017243556241,0.24537751349858977,4.006092800684511,6.409912872581404,16.28721162185153,-65.29411334989649,-54.430544379938404,-28.92343508568314,3.680818645477496,17.51780454568383,41.986169081974005,8.720415690564508,8.326977931056264,-16.709013256570977,8.025559620545222,8.631493788988147,-46.631538513323974,-10.349973115811254,-0.7600329124533297,24.497675196657624,-16.46354966709284,47.469718232696756,12.668380155453137,1.2211106010568038,-22.28820613484176,-22.017744863000814,17.004410717070638,17.588209119343297,18.336255055436865,1.9505832665682794,-7.282192456720798,-14.012086465187325,-4.594369823939497,10.999969415173199,20.83047297851432,14.091139555987574,26.946794475402186,-40.55416974791269,-18.751949416781247,23.1438749612926,25.72930322222013,1.471422790970898,-30.64573841534319,4.055365013949907,4.82103616528631,-16.113344519387987,9.55770325941761,0.03985788952438925,-6.749618101166612,24.308534506727348,9.592237986898732,29.642810895444303,-12.23888852086653,0.3918501221662023,7.602509296421129,-33.0571024711016,-37.120889158292236,-28.673011437029814,-14.65916204561904,-22.365189688169973,4.445318566638067,-31.074031712718515,-29.741310286077155,-5.1701634477705065,20.626191050979635,-0.8654935356715021,-14.95746773946865,-5.151540613121189,5.261844119777883,19.168117400488967,3.7417722662966852,9.745447077270175,-32.415237367557836,9.156660239912144,20.9196215393464,13.89257023557924,8.935280502406112,-46.9801779537378,20.80864244669858,37.84067251148581,20.07697419268428,-0.024067770608218464,10.43061450543969,20.800082616054244,28.663838495250367,1.7643861890335346,-9.39904982784892,29.952138443098306,-0.15515748635235072,12.160200285168102,-15.666283532834724,39.48212720623128,16.555450491154527,23.67914859240506,12.714765814548,-21.105811914974602,-7.0242496394083425,21.86925050559029,21.3761513382287,-33.20700497381901,0.9944389518405938,12.276962558620967,-21.87935953680209,26.157652666121038,28.41873201529114,16.89608138610327,-15.722514840150449,-38.226786081966246,12.050451475728169,-1.775861364941202,-23.451966840636317,-18.11145618275367,0.5816834905187507,17.19892491336566,13.690251058220165,6.597296971964295,3.2623352037600926,-7.2883706930206165,1.7042630807823005,34.923377775202226,8.484076902464867,-7.0746025565264095,36.62848932580196,19.680658864464565,-23.237295207969247,-11.68462197381088,17.771398445551608,27.325718868765602,14.925636755097,-6.362293643204002,17.74564591732797,-28.782544864266047,-16.980551836520874,16.103417223621157,32.29721961065099,-21.764727166186404,-5.113563164921183,52.26560427309095,-15.02676797215838,-23.48161110179846,-3.197347814129671,24.643648088384147,-11.137311457619214],"intercept":-4.150073274914423}