{"type":"sparse perceptron","classifications":["NEGATIVE","POSITIVE"],"weights":[0.0,-3.532088556886705,-3.6515229157630595,0.0,19.032597198808297,4.35139815040569,-44.64762240925703,-2.5819824522076504,20.278931963691388,25.57712642107204,-19.950240170628767,-13.918370551483601,4.8144764996679275,17.35956704542686,-20.64793014932235,6.669326160358528,3.8798245207329933,-7.721447143538418,0.17200930749862514,-0.9649458495250335,4.5024935502865455,8.581718865644401,5.308381553815327,0.4848833573754869,-13.896766245457544,24.22222951058952,-4.007123978618802,-14.04409351835242,-5.009679936642379,7.1091061249014675,-5.592492473070893,-6.079849803479476,-4.8530661072596235,0.5572390372949003,-0.8916878164862098,-2.7780412563180086,9.256811058398553,-10.308457727706251,1.8067823112628134,2.1096438485871203,8.812884092249577,0.7517263332655603,7.431174365085135,-3.3321620802553418,3.267784498412374,24.119237806572233,17.396964482598055,11.292739369723504,-23.399463789094735,1.8641861836170963,3.3419307089681785,15.097499249608408,8.133078479395955,13.618124413731783,11.137344303643816,4.986224451015621,1.4842940023854132,-7.44528883235517,-8.619610287440565,-6.6877582557865285,-15.362146623299676,4.118737316636805,-18.24657726449054,-18.60848688927875,-11.8331836459006,-1.0522446340246532,3.1139784465169438,12.69918529967643,9.366205720698739,-6.447920744591342,4.3503565368526225,2.661413397847084,-7.6723227612634854,12.606434799829694,-3.4083838648355003,-5.2792373498515905,-4.568978481308609,-18.14320849321756,-27.642962391274995,-14.88799351050514,24.889830542760162,-5.627754486885787,-12.093099061929092,-3.5945751735037557,13.569065240244685,0.6012099470518368,14.364872681775847,32.5830376380445,-5.964309852091275,13.257459556212321,4.2983878424776325,39.39883018524273,11.08417597241838,2.1041904207441426,12.955801840172226,-35.145125323192964,-14.736699469220229,2.648970056304235,-2.7743140316564974,-19.822020689623255,-4.798039832974645,-13.687357711682488,3.039244371787551,5.319938042005643,-1.1915166588978365,1.9931605166934907,6.247270507390591,-10.68365178878219,-1.4540797361843107,5.095190087518204,33.75829263708791,7.120652965816353,-6.937178832742483,13.592771839777036,-12.251697236452669,0.45717733045554204,23.467069544715496,18.991387714296586,37.221878909281116,34.60012830907534,-20.77462024549485,-15.322407052691586,5.923225246636732,15.27184812579041,-6.845602289097452,-20.450871900410494,15.179757226349096,6.136025694815084,-13.38542112158019,-7.576669634818913,23.671905566889397,-1.1722840555621306,9.073454439522584,-9.458346369499338,23.50522895127006,8.60902265562222,12.674348768443426,1.5701382948589842,-15.93862937726503,-2.1856319851042816,-11.322777468569319,9.900515612745991,-8.031648561793926,-1.8047951844042893,-8.966680061948216,29.360875776177092,-12.248020435785056,1.5849175984527792,11.516432992225022,4.649500270661404,13.344346223260429,4.682106038505787,10.235025920381828,23.156415774478365,-2.205532610995186,13.286045673980928,-20.254420638774707,1.1059810469564402,23.387392754900308,-4.4394549012672915,11.116558996115833,14.945587479354874,0.20054313853056466,0.3580744289162397,-37.517185292375004,5.1241631564135846,21.7197852297103,-25.221385591638803,-12.640227119091886,-1.2621450954664952,4.56712587605624,5.260061934821231,-0.8839306122544411,-5.430827068780377,10.313717751202487,-3.9206974396069376,21.506709639306425,14.826458243362984,31.054916464017616,-0.1291765979484363,-29.792676567217555,4.10860860197847,26.23337214225297,7.204253258134544,-18.750448458316782,2.520934062976164,-42.81895917728838,-15.584524680183568,37.97008365953846,-38.753345305761,-12.655159029383624,-4.883537176309502,-20.301492725187302,-9.299169161675625,-19.78202619150568,-15.700274473317812,-13.7386626287458,16.13468259503978,-20.34549748757188,22.918045923584845,1.1424435806526112,38.20816794034528,1.401872738969855,33.960174603312936,-19.854263302281314,25.91392405477171,19.43945908084954,-10.796646049623693,19.906301535406325,-17.81620176583694,19.984966499381166,8.848312097834036,17.663067711198106,-10.201817642381693,10.145376546769779,11.370808070155832,-16.50177368811348,-15.588661905352465,-24.620145887792813,17.75097182369967,24.3692318011555,-21.208637500386516,-29.883208756825272,-6.341069315415242,4.479132308221907,7.721032023427563,-18.759209018953833,39.86509188300856,20.747413310006923,-58.55442083708813,-2.4630136082360914,-5.809839296802578,-8.576379622582687,-25.246211541407455,-59.35183566168531,-15.744734360598105,1.7905810978134575,17.303027293949103,16.103843273197143,1.9429966153643896,-4.231898710050111,-43.552371775811814,23.522404389309123,-42.4022016987972,-23.891717242914496,0.09856616832295398,-7.826263651896285,-14.956889029977567,-13.642717267933335,-119.40966747268034,-0.7390508668838562,9.070772896328613,3.7652136466851043,62.50769252756472,35.53725342171937,-3.373323183267155,-3.5753503692342115,9.898033882907782,-12.502149222961869,-7.641539972906075,16.082313375422192,-36.3487072505505,43.535057163499104,-29.237411688249836,-35.3614263294903,12.359800980837726,-43.975511560980976,8.091027265045144,-21.375421398197396,-10.68025524061948,9.42692311032916,7.834532713238094,-30.643090930765734,39.12137897564632,1.835380424987919,46.397532718705605,13.018778685807833,-12.111353884732234,-32.626343149872916,-4.859087201291724,-1.018768753342536,-25.42336168801993,-23.61629326820128,14.567754551234046,9.927360685867884,-1.2393404165026443,-35.263930190460236,-13.276665442440455,32.793995311552145,-12.68435973174946,0.016276194236407512,3.3932796298356287,25.345856870021628,-31.51566584463638,-14.533426001252442,-33.52907110665619,35.34851543614711,-3.124464870722538,9.462835980484664,12.75351954256572,-27.28874465736836,20.652411239063643,-38.438822561943354,14.146501275742214,-0.5358956981263332,-30.6968872530951,-21.360751242165293,6.06880798990715,-19.284806419231163,2.4769036825686372,-24.468233951815517,8.891428061043646,3.3417982217632036,32.72899879349772,-16.404637536763666,-7.247587592536442,32.79779496231239,32.27216265314251,15.336556280470223,6.478225135405389,-29.26505022463955,122.74595788727373,41.19509122753303,9.868580697832867,21.52055346873054,15.668105438932836,-31.520133022529876,34.509899855892165,-4.8125793792601,15.010231095668486,25.755198971169637,-10.522287617317518,-8.46388117579335,-36.69525339758208,17.141287932910927,42.84576993090976,-6.18967034116151,-0.9180283645228158,-81.84831320569924,-7.917979554408886,-30.214250876141314,22.323092358656258,10.113267850004027,22.40160830689467,-2.9067425139978873,-40.010452273315444,-5.419230293081057,10.385007001144784,15.647724385122938,20.965606600155606,7.497538680160854,-19.120418517110487,10.541201672737488,6.731238100352008,53.09803962865599,-13.34947025685234,41.48494707308988,-51.95349303184625,27.3416529502265,-10.8268834190524,-26.018240198012585,14.872248653968558,-14.020327508010391,21.1422996494087,-28.563748632140708,-9.400767342210521,18.855523541800164,24.471917608889964,49.315164307764974,25.037779211513232,-32.43704574684113,27.804925096908864,28.31939010377953,-92.86172791568725,-5.223934329654883,4.46161040536955,27.960218567157085,14.894348810476579,-12.157132430437143,-64.82774153322748,-14.582153707454788,-24.055560142937885,28.393903793282924,-17.047736829768105,-38.42535508917087,-8.79740305794466,4.941293450688876,-25.861926572942856,-11.566027060667432,32.6168222512577,31.231960819063037,-32.30655750901503,6.299569394109122,-14.478808618174357,-65.36586840130312,8.238479055998173,13.328089871421753,-9.303056891716189,18.092428146935323,-24.431864559506735,25.58485020762703,35.613303462407956,-17.406028786023494,-19.38752626461814,86.31560302598426,-0.8552531707172104,36.23840059340995,-3.72136120991462,36.2645207894348,1.2344943878472705,18.609935579687342,3.721249552930167,-10.776303390671092,3.2689242077253966,-23.05122100869659,11.279050554827739,-27.873349044036548,-22.208565543535414,-28.783238671120486,12.093525445876951,-8.81609563614195,6.563331027440273,42.161823745455266,26.820597584274616,-62.55454108744917,31.72890720452441,21.93987963261926,-17.4188651888804,2.933048386534066,57.353219962045046,-17.377844247704015,-9.901036976208893,-47.05542219674679,-31.950692635273377,-18.040889643296975,21.42154417663472,-43.086319489079955,-93.18258150664064,18.782229422130136,0.6685518431068074,27.761494085837047,-32.45838902584857,-0.9155744856541349,10.378435297774292,70.74495978083691,25.965295523870136,-18.66950441616727,33.038966183605375,-37.5179468314093,-14.933232652403957,8.814476516873722,19.8184323409372,-22.63803220150269,13.078304848567024,9.570703868570524,-12.782473671294568,-8.203358843384521,2.8559378270604214,-24.981835562219302,-35.39198988744656,-20.448967206461184,0.6753931097451977,0.49026591173770606,34.02648542478877,-24.34777367139161,-26.17750568047254,8.966124493571234,12.451818959848774,-11.080821903230353,37.34526728181217,-17.44926761919455,-4.1630378450659995,-41.367344623581616,-37.0211076969109,36.91170041310255,3.598795262341925,-16.38312439844449,8.183263967036359,32.13809899396891,14.628219354292492,53.921549456222046,-20.53304088376297,-24.3485265851225,34.547542175440505,-12.493409256276044,-18.795722282501433,-15.734906246813283,6.124000050003846,-21.151434359652256,13.277364009597578,12.188973925327456,-3.071254288126342,2.312173943095801,6.979740845336748,27.42655609421367,16.075448915058093,-18.019288352710713,-53.974169935192805,1.7466148691279406,-9.711486937275609,-23.341806405885762,25.12453974814989,-21.944767249342526,-10.225205503321144,-17.123285176742286,11.91509933164644,-7.4762651467166155,-25.933557133109293,25.50533638757386,16.38231447342024,42.766626799801195,-2.8396271860182067,46.162342168270335,-13.439618909828578,30.516574917908784,27.465601766148374,2.7745202065254766,-2.3913261036050164,34.51067504210198,4.434731562440944,-16.557977859580447,-2.051441615650888,-16.111362669987006,-0.7448715856659649,11.274387997176312,-1.0177759416715157,-24.36985372011868,-50.398209167035915,12.703393610875967,10.314234089457937,44.654013776494494,-0.3398754631148792,-27.78070361338719,-5.408162844612131,-18.823975341165387,17.432500284172097,10.232341132601276,2.1517100244685268,-0.70466951384898,36.30609447460524,5.916749919648965,10.580901338678498,-28.152093859418354,40.79904196366525,13.988526131225127,37.94811295144105,11.496026797596222,-23.70506064631908,33.23498286168855,-28.782337191264023,-26.895937779205326,0.7270805555636747,3.9376794393861934,-25.055792040025132,-14.57087983026503,8.578644789148091,21.999723713434353,-11.698461865301367,-21.01429138075244,3.280770177748258,4.94430308372337,24.643783991082874,-45.02427474478388,5.489787493149506,37.13597309335462,8.514991710167847,-46.62723429838564,-6.322738817362744,2.104083689271901,6.656963258336594,-5.420469762397542,5.206804759216094,1.58782307768477,-15.583280702824444,-17.116769359817674,-29.621186389993703,-23.604436611221566,6.224363797586518,-35.489619769193276,-3.5449558476097054,11.102401209278241,48.4869414407999,21.550614347177493,-21.072966339872693,-46.73589410285691,-19.095603364789294,-31.4237698645977,-2.6822709994833156,-20.0230588439164,-9.367426288053428,-43.295159198855295,-32.23632445631479,19.121290114585555,1.3263283610344974,-40.439498383449944,-81.79928540321988,-3.0641971828833805,-6.911298739928564,-50.55172378585084,-14.073793260282583,-9.672152217090682,0.6807823874176332,-11.895923203098368,34.299668420591225,-3.58188560410486,-22.795725763386496,62.09343496696952,-34.10352294463686,-28.451397679944815,-8.406376150539455,-21.608883399232376,0.375960817415917,39.91859145833209,-1.7864066603134106,-33.31812810261942,9.591870861010737,-57.94290528160514,2.0584337751515447,34.31992929389754,-41.79362618081366,-16.093006890628363,11.827329358900414,-24.862885014421064,-0.24865523642913934,2.760441684315985,-26.08573808141789,17.761645782317146,-1.623942940560587,-20.93945450422872,12.850357440830223,-33.30051977098683,11.09737539760022,15.90494548813324,9.59789241539306,-9.269766008870878,33.67422541817274,9.903826634299858,-8.364052761626231,34.51242144522985,25.82676764816933,20.85915316920376,-5.418106181019466,38.79004112511064,7.21396554846923,-6.591535311530835,-7.3418131937236115,23.22609559401329,-50.50548036224033,-10.08837546133434,41.21776875220574,-25.40985951700064,6.497886117490031,-4.081191460925762,4.450056695600969,9.577819810921502,-6.249498991204093,8.024082258687537,-29.355943266570474,38.44481348929571,-14.305785569107668,20.816063181979118,1.7957297874688531,-33.31728464961142,30.021245089700635,-27.28936944174288,1.1568028709500566,-16.34080465517602,-6.726073621747101,-9.611581658029314,-22.555190181323557,30.704503743354397,19.760881184607975,23.026316777643693,-7.398611284106533,-4.85720611241738,-24.845324514091065,-31.917238274178843,17.050091771676733,9.418341999763827,8.690832639204457,2.89940818591988,11.726513805436289,16.6833867675269,-29.951497162641687,-5.312359658772863,-26.270519340795538,0.3652999438906972,24.12191154766301,38.495559661785016,0.13582990788583116,-32.455618135367224,-44.70528144007922,64.67638140749388,52.572507525318045,37.24113660111205,28.96095425113673,39.56458571859473,14.160910063683565,-10.475917540530256,11.42127388356336,-7.690263055995609,8.965872436640682,44.831681573908334,-13.23728022473275,8.008844795583158,10.066944870037688,-28.87688227632292,5.858788085074933,-5.768122916267891,43.40155446728562,-9.729502628168461,-27.779004260749684,43.44464177726493,-8.983965025267773,19.0568755298379,30.14079931627409,2.2885635512484837,33.50939901426022,16.275667182908116,-16.850084137167276,33.94526460766569,8.89105189784836,-6.305820405272915,15.018777854850676,-8.936832704207108,4.874703795658389,27.828662078987872,-13.142827013118552,39.829635669600144,11.384659747718636,-9.87557122123123,26.301937078965743,9.39533514920288,-19.25565576665911,-27.44971743887089,8.855263453779196,4.298292666241631,62.67155071348119,17.55215499780366,-3.8793277481935466,-21.9190682347436,4.732200863840329,4.5367924502795915,-31.28561095176997,22.46479501250921,-42.14185434875699,0.3372955422485113,-21.046996639716138,6.707204883116796,-12.104499012051457,-9.402944302888967,10.53165091841337,-0.41322422350087745,-29.26909628002481,2.572028190068966,1.0555992843040893,40.82585701913859,39.48108987899826,-22.50924391146812,16.797211268496916,-19.70648279941661,5.12692203760427,-34.91082667742306,-30.41464996055361,9.472060601492752,47.071229875301924,-1.5172220417012483,14.128603002142569,40.75475293621818,-13.251227924505397,25.928427648903572,-23.608852953423018,-30.417319665822426,1.4177917790647743,-1.491790185223116,-6.373930092365334,28.395032150173883,28.389359270669683,2.44820118267573,3.2832119602675456,-19.486235712100324,-48.92998272509696,28.7200689445508,16.75922559022687,-9.094688263336808,36.02666933745357,16.0339227542647,12.106590368374679,-10.216334077153334,0.12966235067796106,36.50256971984279,1.3849769713459403,7.138370469801432,-22.09691167270663,9.78992173610719,27.266912250772084,-26.510960526908434,-5.906019403214447,-32.48128927340358,18.25077395640256,2.9366492718273913,15.484640161713692,-12.771907710866905,-28.08404595438535,46.815854170894944,-35.17924261809874,-63.75733501213945,-32.38356349104734,-13.283244940938308,-10.011752964589126,1.330899445711556,4.676122929083779,-28.756702603142024,2.4429257956590504,-14.712105213498596,-37.421722227031545,21.215888241488962,9.937432963300525,25.824701031957318,-5.441412718053097,11.112747918642942,26.844390141361654,-35.56933187626363,2.255591316439809,-9.859963148009099,-6.3661815304208575,20.518375182516646,-22.1161783376758,-1.378596948654414,58.34108438602093,-36.00276399936672,-25.44647016516423,-16.625347612319104,27.543856452779668,17.504002570818624,-43.35927216379526,-2.227542509822781,3.787599444854808,-15.684616262703893,31.097276829038588,-37.86490886746374,38.60528949904452,-17.40207169570918,2.043902939414005,-17.680097721971148,-3.0843012869919595,9.687742029508245,-17.719413612406207,-44.773696134775705,15.294479846332143,7.1730211012853005,-20.887300513738882,6.032809973924036,-24.217077350700915,8.600149067929237,6.491460406906117,4.146625934515339,39.80354571961627,-1.7871397873693156,5.514950319355175,6.376864056791233,16.282319102359516,-65.99402414407047,-51.46287651854051,-29.423785404773003,4.0056564970000075,17.580287521168373,41.909628034807774,8.863811217037796,6.4797207393075364,-16.857757778371088,7.441649927727091,7.245889534852424,-45.1088106198607,-11.536745139596665,-2.516394207372966,27.348518337352214,-16.688984319229018,47.053288988674545,14.765115742416306,2.59297838865147,-22.30125891493947,-19.269097151267985,16.666094196128135,16.767544697395415,17.59173833993654,1.5629248694038265,-7.558088519081099,-13.469522620035526,-5.586398936905497,10.127053818144189,21.368135524135997,11.764960970000446,26.794971049980944,-40.358105293571505,-17.667189916273937,23.66882972937243,26.772594177165217,1.2459117100689265,-31.462641120378205,2.560503731064708,2.802470626855772,-18.472320255840792,10.554662219162001,1.7949707271264548,-7.460558937442971,24.193365842745994,8.800679220271162,31.0552687482052,-12.849846529725864,-2.4184139473592765,6.325782150569514,-33.12126501169197,-35.263371067109595,-29.49514109309959,-14.84111725031647,-19.293169647803182,4.303099755272803,-32.291324139945175,-28.90860399615363,-4.8244701955753815,20.61358078192696,-4.202454799697932,-13.681463116327587,-4.817374692267791,5.671624858020691,19.21499399396381,1.6475803830841083,11.226201760430815,-32.66426233532379,7.088123112865691,22.432828115678447,12.187600588838981,8.397372388671101,-46.15941709683723,21.412718790446398,38.76749345238442,20.497525438486726,-0.033134286722188766,9.597933057003074,20.453646286244574,28.72609562935651,-1.3506930406442959,-7.383449769734836,28.79741282965347,1.87713839768782,13.521457385962307,-14.8591751512995,39.016338140931225,19.921951316408375,23.723616423488608,12.867759335536455,-22.127310757895433,-6.934202756079703,23.39592327815352,20.57639051796153,-32.8383022914764,3.2059667698447774,11.987315808985885,-23.233853300336,25.61976982492152,27.584978085535734,16.398610645244474,-14.609522176780235,-39.105154112828664,10.88272488885818,0.9648751319087102,-22.650245453203677,-18.430116715920803,0.3660713086064908,17.468256051421303,13.861996118717958,4.928776959109205,2.2857835880793695,-5.987393717804315,1.0939630030101601,35.52778927366091,8.820463669009172,-5.252981676431988,36.224994497271986,16.707756770283364,-22.36573584865068,-13.070114867717216,17.197108066776618,24.788824014386257,15.60472803402807,-5.773218041829559,18.76239589979283,-27.840571065290522,-14.442555711961607,15.727514179838717,34.09775949221803,-22.33279429219487,-6.494969161228094,51.28556223512467,-16.521314150465585,-23.38421886425338,-1.6607656543482716,22.95392405073532,-10.661124935646908],"intercept":-3.532088556886705}