{"type":"sparse perceptron","classifications":["NEGATIVE","POSITIVE"],"weights":[0.0,-3.430112820204365,-3.430112820204365,0.0,19.235246993206324,5.892449945625673,-45.246030927441396,-3.2045999199996467,21.85235191061049,20.492357421977,-19.621075478176504,-14.861154529265404,5.911155029764345,12.674456518190789,-18.09128601040226,4.193886853245208,0.6964580063510588,-5.380177100103921,4.730762596398732,1.9749515684907988,-1.1807972047006472,5.252785301505145,5.583424235093484,1.4747330142285162,-12.431040719295357,23.415202525986093,-3.6215068300430033,-11.264191117300559,-7.735756869558029,10.014075865282226,-4.276348155763025,-7.673933746650045,-6.953143842052012,5.063544478087861,-3.623226489883673,-6.501897850333909,7.861890065040451,-9.243779537517378,-1.77955410638736,3.695470571230263,7.621609829828386,-3.768501502457714,8.452370933563941,-3.1445070203487897,0.0800429432723835,22.699647755571085,19.221814997757885,7.752047225549664,-19.23281274672082,-1.041583155283223,2.9698740996299415,11.305152900562192,8.729720752206928,7.811402504672191,12.526045725540369,12.769165088666327,2.074960004147289,-7.338397622677681,-5.11867441121282,-4.838377315153053,-14.661685486807709,1.0812492489221037,-16.21291817688574,-16.167685904335908,-10.968403494447543,-2.6858632314594106,-3.214660516184134,10.129434977646692,7.591137611371809,-7.986314609551058,3.531568763672624,-2.8924401628543626,-5.566571494238542,16.108207530130027,-2.3295708316403836,-7.36269557483525,-1.3808145907658722,-16.913474112879296,-30.58940325409824,-13.260777510736427,31.765046717994096,-7.6946508699576075,-9.226110698653455,-2.305023920907207,17.148235737516323,0.38646485314976514,14.988655957724745,26.896844551671055,-7.709495293882148,13.213315734864887,4.042043944946592,36.276945372164484,8.336456823712192,1.1336511976935295,13.684924240366758,-38.559717945361314,-18.73863957564708,3.979440976554717,-5.843086344967977,-19.025157537252916,-2.0520108523249285,-13.94766296696062,8.529648484090504,3.0224741422601507,-4.780740408782648,-0.44734932437160707,7.631264572040847,-5.909578597656528,-3.025456844936855,3.5050027070614664,36.228621504143554,9.153241034768227,-4.669798866660915,12.263349821807944,-12.409157778646014,0.4743895382598761,22.078284027207317,22.060754426934817,31.625485200211113,31.318124655512943,-20.11075457554668,-18.97007131358127,2.04090781044416,17.415387511232773,-8.928429599781545,-22.259946696481546,10.143922495973056,7.243582001881332,-10.268220253415777,-4.937330417552925,20.84716828425869,-2.387631822072331,6.98672370417477,-9.921175622937861,21.363057038885653,4.618322447053858,13.497831948398112,2.700398431528233,-18.306173097151976,0.4817061468467168,-6.103780593235744,4.07526667005587,-10.7639594542469,-2.9772251140114845,-10.61435253303432,30.966576888994787,-13.565863765779849,3.1862947096477967,12.052216674768294,8.467196077747456,13.95686067585564,2.0547120746712566,6.614385180234505,24.735118948478895,-2.1718954248096947,13.543293732324264,-20.028906907106887,5.884703233361622,21.712887741539447,-3.5364719245730347,9.300678236335044,10.935830020605605,1.9991094075304858,-4.44046509730654,-40.476514854669816,6.809489661175594,20.576302317409596,-19.507426693146716,-17.817723528164446,-2.20902772101235,2.96944825640974,2.1558861589177836,2.370645349713242,-2.533695058972701,12.183023804326137,-6.814718059923821,25.430083295762753,14.005093564253473,27.64989961785992,0.7403196493823276,-30.772427221837397,2.2325481473011837,24.553664538190432,7.347107745265686,-19.084124848099506,2.2066592400521916,-46.91841213297077,-19.899854243737394,35.80443629637099,-39.047747271398144,-15.011378283896978,-8.799275224826067,-17.289760126766165,-10.693657401962115,-21.43280932783149,-15.178984033983326,-11.781867609364976,15.910413731991213,-14.727139342728893,23.65796441707043,5.993082281383527,37.75403989840204,0.3584777831661844,33.953397600939645,-19.17427516425272,27.917050385702254,17.287514511318648,-9.668638778648486,15.09748641268101,-15.358484756284236,18.21130198671938,5.037249159055387,16.564559410237877,-6.406000954827797,11.302537230760448,11.7908254212159,-22.94161171416692,-15.49512921650747,-26.28564612222702,16.925637942439916,26.549617609502626,-16.605281968724658,-30.30794359555484,-7.239583243281075,4.632193997968228,8.692343788221326,-20.433904888359432,39.090104701183094,20.963483735327635,-57.20127261997814,-5.538537966336247,-5.658072479092559,-8.467492433282615,-25.70382494986327,-59.10972882580331,-17.13094172550263,0.7550682389999451,15.364215569747527,17.68986077744591,2.916200479543404,-7.260708538357802,-44.93459001091094,24.084077343239453,-40.530520186811614,-28.51882835869515,-0.288974586901103,-7.231115097490037,-13.193433977243231,-13.644945426820703,-118.88839785873647,0.14295565693831017,8.603154623114603,3.819262774277719,64.36171006370066,36.919526349319106,-5.68115410780721,-1.495117233329543,8.179275185843967,-12.904930782035667,-4.718820504634502,17.59012646717269,-35.54345005597173,40.5374580509127,-30.710366787415385,-36.746377193846016,11.959345565314395,-47.602994881271854,7.15313586032953,-26.20826204053563,-14.272555881329874,6.061018891344266,5.717706608091186,-36.216660488584786,38.39425189387473,0.4129911613210815,45.21315942625493,11.895999436128672,-9.824988808398759,-28.890449089673474,-8.70234041827889,0.42273794729570346,-24.63405057867259,-26.201515091406495,12.186081196831992,11.504017885056946,-3.685082972723425,-32.134910872428264,-11.085046294690542,34.45833063719773,-12.221361637044962,-4.66428241107715,1.559977827453058,22.275907988322874,-29.30440842956024,-15.167359948205759,-34.49494992639695,37.3122054248555,-2.2839303638918036,8.415627312122435,13.228316404748087,-28.557914260781427,23.950617606024586,-38.63172667631471,15.416768320315098,-2.813662994120142,-32.49783797052959,-22.12733635035017,6.517380529309145,-24.38261196320353,2.3065704903482485,-22.52471628461852,7.73384854995988,6.802016092948866,32.7308215525058,-17.52053325732525,-6.157516192658634,28.57777791761487,29.804497032841404,13.143774249110123,4.756192741864327,-26.179742000394132,121.37120610559629,41.3182777788032,10.622738794238268,20.33464012667189,17.108458064387833,-31.7236112631124,34.183368605891815,-2.6488516744906243,17.99706517388073,24.877929565625667,-12.704975782997153,-9.18151457099386,-34.74384049933216,17.703887378873244,44.95378489394202,-8.195281329310806,1.110197582478466,-81.76568670987965,-7.816000587323573,-30.361377827100334,23.9834147390319,11.358344591028846,19.30966352602192,-2.359410924657644,-37.28951957594253,-5.946176166155416,7.840570454476359,11.378391136282092,23.296239371781848,6.693519382330697,-15.27003954975694,7.8980428910531115,5.757979612594097,49.55006293593581,-11.001947919910428,42.02739978205675,-51.70587072964685,26.304186876834038,-12.018991056725108,-28.26436235177369,11.65935335539336,-13.515627673149957,23.38450405982755,-29.783225945287906,-9.599434744764416,20.57697944649021,25.40092193529399,50.90529872744152,24.692199779178797,-32.331137393808284,25.05651349575014,26.73567378228324,-92.93358911946486,-2.4815416094559475,1.2666471778391297,27.25234502466639,13.925149624136377,-11.5997523850051,-62.11289456591804,-13.2360698278273,-22.83439305768517,28.47382538939767,-17.943191457822675,-38.882682906081556,-9.766080109395567,2.038835705209564,-22.110840651045965,-9.959796465545166,30.397224538468944,31.779764023469387,-33.54918264503457,5.43351560208396,-13.368946083993979,-69.50666833665937,10.336451797848035,13.001025233111374,-10.223410499724624,15.868106477524469,-30.08187721250262,24.046417885521677,36.001487370776964,-15.468149230089464,-17.84692794170088,85.02953304151251,3.1042392317993146,38.217088119736935,-4.739341058877232,37.33532387576842,0.07081589389549504,17.409795248364315,1.2898431241495063,-9.075845440575787,3.4891582180723435,-23.734030171375302,8.200941706912523,-26.860513479778785,-19.895468077645916,-28.503068599597974,9.777704147269377,-10.45238578346702,8.316497881265473,44.6529870379502,25.99817104841254,-60.119156866749876,29.43291575561899,23.23340253476745,-19.661998602755528,2.4484400860749536,56.115176783578164,-17.98387499152547,-9.567024162089156,-45.83455403342764,-30.191549556686503,-19.50697189621162,22.30672283806743,-40.94487704612464,-92.38486073356813,23.306060730918247,3.922701108333047,25.482717141819485,-33.06293928532137,-1.9799521912854456,12.098305863692694,70.43591246696093,26.69630369612207,-16.542910496095875,36.05031961094784,-35.81547355991981,-12.322837539735804,11.229317524600871,21.89712193341198,-22.110210615214754,12.635403853600712,12.563978904560392,-11.013939152612247,-8.447358160067568,0.8713482889706959,-25.640485359953136,-37.82143363268193,-20.05814230677793,4.075155196735858,0.9143365678414144,32.145238193838786,-21.86315634327976,-26.001873033323932,9.116872285051238,12.36846005647667,-9.05177242345769,34.74026440142359,-18.600285177095387,-1.57826082636463,-37.823840565484595,-35.387529436695424,35.98645871963425,5.514136691778744,-18.297233374068774,5.74456558004588,31.367237225074025,14.099688331823188,51.19553107876848,-19.160292198486186,-21.920721565607362,29.06339291639593,-12.92541329322714,-15.835842323116259,-14.918875863332628,4.209834838398217,-19.570949076248187,13.82453853953531,8.594947783895737,-3.655967765191542,2.840043225554412,6.576942155923557,27.743399130867356,19.089056402116494,-17.97634389175823,-52.92086105705759,0.3789491030617688,-9.093656534830595,-22.160963153451974,26.319632551856532,-19.133150744920783,-8.192645402906527,-18.10324464720374,9.838060989269756,-4.302829366713064,-24.232777213396503,26.295745098404673,14.263022320759461,46.09902531961205,-4.312600920890646,45.66980226405992,-11.808869506672188,30.357149888543308,27.811713541286643,4.431362734956017,-3.2088385259697025,34.32216611020722,4.067928476874416,-12.625944710450531,-2.282654736771899,-14.117744361943373,-1.4909161480377504,6.666141121031191,-0.21214087990565705,-25.871774361558774,-50.073379869331575,11.63372959051994,11.665156158530252,43.875831146570555,1.1161926269660452,-26.346484964866633,-3.942414820801359,-15.072024053260249,17.151015166459754,10.624559207776167,0.4189340810014166,0.5207638179894782,35.53212143846108,8.765651443020332,10.237925284839227,-25.968086708510242,40.343379297685594,13.122306854554312,35.37374993239824,11.79340580772914,-23.028714367407627,32.615015874086055,-28.118939433140813,-29.138935240364546,1.291737970975067,1.392058805532053,-24.7649761943303,-13.89083539713103,9.641017191035829,24.592262637704227,-14.540464305978338,-21.770406541121822,2.0900518912665076,5.235803292967821,22.816710824013267,-45.07307963775913,8.585211946781069,37.52612601947041,7.992008690509735,-46.928916997814575,-6.287526181161357,4.338649855864493,7.465837433487671,-5.151787903046752,5.256130918717892,0.047119208808005034,-16.45304761385611,-15.365767151252854,-30.488174274516812,-23.520900258211405,5.472092899495789,-38.67141227591419,-6.466411254490306,13.350363653280837,49.213410020734514,18.52291974267825,-20.513782031529495,-44.98155982187906,-18.608751244221295,-29.89718124256663,-4.78403843851682,-18.94146517313528,-11.090553213484432,-41.062497248103824,-31.529738615219557,19.110659868356937,-0.5137878040477807,-41.699422436694505,-82.44586926391875,0.9951047488230766,-5.567384017079581,-50.14177780952791,-13.702794207815131,-13.777299675590426,-0.26348342272871433,-11.391007635614724,34.20573242977274,-4.139751596745796,-23.19809590229132,59.42563322487298,-32.063639180572004,-28.443595074349588,-7.98472290669423,-22.18754484117586,1.1294941605130662,38.23157569471059,-2.2548118074853876,-35.14248806578304,8.657613821767145,-57.60038165557184,1.6743726556027922,35.330620126149554,-42.59966372185068,-17.817031654419434,10.915587740560541,-22.84493112858868,2.1542197663977927,3.581233302218783,-26.76116421308397,17.465531009136047,0.454551873745237,-18.914908619608543,12.501954063735635,-36.841865544512686,12.51083943711915,16.177888016032295,8.906368884537631,-10.316956604903437,34.3077728820537,9.413209045015172,-9.708574820854796,36.178876686050224,23.56605206957711,20.08991683178089,-4.090306509636023,39.228433590786125,6.155748657158785,-5.1189217466476,-6.5639989883958005,24.02801332069834,-49.61871538682503,-10.53280608512097,40.59829973737882,-23.908098246689907,6.091032335924242,-6.689190647503859,4.170398233911669,8.30613433771978,-7.9722519993789644,7.705563138232827,-29.941136505453667,37.809301740204496,-14.158068940528382,21.64136367036301,2.6394170524263614,-32.29809889139263,30.526502244876156,-27.97009117069749,0.5951500000080248,-19.296035106847313,-5.757367828261293,-8.46268881001012,-22.96665345957457,28.552884862662392,21.105832646428414,22.10362639697268,-4.226118295035141,-5.852592657801443,-25.43760602997856,-30.289295282262923,15.61273481392801,8.152813482380939,6.897722364912504,4.066056917576993,11.119451803354256,16.639555556483604,-27.357176928784032,-4.598867065352547,-29.769638531583357,0.6517875369824474,26.481527165314038,40.65611462505963,-1.0507266223188978,-28.959650347883052,-42.68813961894065,63.106840691376206,51.20020282084706,34.89992526829528,30.586163252135716,37.871496466993534,14.397786322408828,-11.07483320789119,12.202403318270958,-8.267302055013104,7.349589409741897,44.938957007913636,-14.991218349539741,8.762056785362907,11.67337532632382,-27.256176635399658,5.995151740042208,-6.70847661152802,44.88837058595604,-10.882641607907729,-27.76516966903088,43.730945274291194,-8.968385539814086,22.322235945734107,31.223448609497662,-1.140018045199287,35.857800014446525,16.810397544841692,-17.157984623921955,35.31286455754998,8.476343147806384,-8.468232903042438,14.094546661316448,-8.195215542005215,5.430143342233538,27.462700420461235,-12.14568325568321,40.228335581145004,12.716468039838048,-10.470571682119715,26.177048286074758,9.786631426466064,-17.371796009476277,-26.922106021593166,7.626627186917298,4.5409552606104056,59.16624900748108,18.83909395165416,-6.31713901342231,-24.62491515941308,3.4612462230308534,7.257735633211082,-31.912031160529576,22.375524267432976,-41.5166705309592,-0.9068871285409978,-21.91086689799156,4.378368861022283,-11.877551362362787,-7.173332731449885,10.113930482810286,-0.5066636301050371,-30.294596488590184,2.016049803545177,3.438955690218527,39.44570600233295,39.632460437507696,-22.664243071075234,17.928490233060383,-20.74175245683271,4.81229283709167,-37.09174676096192,-30.567901544719504,8.596991580976233,47.59364960652644,-1.4197257480623122,13.933800833271727,39.19191515486975,-13.269942137486336,23.99434787548614,-23.994123329456084,-30.697901550567053,-0.5342536672472564,3.5816045463453166,-3.8741526332305742,27.941096216089186,29.43536022770963,3.8334482658119264,1.4598847660639673,-19.062138976902986,-47.0326913470024,28.98502700204209,16.026221555148126,-11.457587014768993,35.400300812698454,17.84657917897811,10.650825168907199,-13.249878810346482,-0.09326132401431558,37.822250954622184,2.8481563340159584,8.003893887005594,-21.674144054052913,9.936781646028942,28.807755328336523,-26.45684513347572,-3.7698096213201033,-31.806419827265064,18.00151729828152,3.4066474780755787,14.190248923051886,-11.931461498168485,-28.9358298131022,46.48169268944555,-33.072767876363436,-62.60375849775227,-29.351615569380826,-11.34939217482326,-10.347854087976204,-0.2447517640373068,3.1118559413103473,-29.44211375742341,2.8643400387017657,-13.709489240844372,-36.15116908874956,19.62685365988505,11.401800246343381,23.927154135781183,-5.7540086399770525,10.13251405177951,27.28246546111367,-35.41168068593626,3.0293222800069604,-8.709663414919726,-8.182899736194011,20.945512530776302,-22.129556650085192,-3.756476405906311,59.032682573688824,-37.17578889913843,-26.56424605846813,-17.76317716612132,25.615705013828432,16.028065430354356,-44.24247908062821,0.057948839852899364,4.290902838058491,-16.885581138885968,27.609145980148604,-36.27107566787019,37.59125358943814,-20.363085272179998,2.437195299759532,-15.537304191093133,-5.19176389898558,8.552451491291489,-15.568335107898816,-42.28995742446524,17.461877231859166,8.17027743805035,-20.050925837454557,8.861635526215041,-24.635729586305015,8.65985365911252,9.389483001060421,5.765442814356987,43.38239635925029,-1.540009397890112,4.769412628642247,6.524245432282554,17.490379085195137,-64.25562906853442,-53.57325405243314,-28.842502318678676,3.335029521567334,17.95419422437579,41.68892315414592,7.633481700109623,9.327076551314631,-15.786432430518476,7.992665399858677,7.592306379881475,-44.209344784519004,-10.440147643149425,-3.516042614348513,26.307658508524803,-15.273257981573188,45.35366561115222,13.676194159771407,2.1101781474576433,-20.87588840446796,-20.339265379659032,17.155308043869308,16.765519234256715,16.58451671036938,0.30175655208873264,-9.547324204266523,-13.81636920687397,-4.8005620437447885,9.856346330090059,19.89912091492231,14.289564788895818,26.162220095794094,-40.215959617940854,-18.552510692396787,22.302657264551446,26.4567433595841,-0.12446262182725033,-30.0657220330954,1.7915877309023014,5.299544962951117,-16.452191946786225,11.353072944094528,1.9590541973477382,-7.7250503156362615,23.21473071473975,8.57654388979535,30.519779283262363,-14.028001637983282,-0.29074920388761555,5.94854224913787,-33.62769495461229,-37.11376511341915,-28.40658644569296,-13.793953335481985,-18.909677344234986,2.5382874383372473,-31.138852303339483,-27.787761785167937,-5.516858417706332,19.53063077929124,-3.454917338692127,-15.179273847749883,-5.176581636250668,4.138840543535743,17.928646593757986,2.8519291347908293,10.95803885754889,-31.92333512709955,7.260034782832019,21.33474600748484,13.805986776064287,9.805785251499113,-43.956111094605234,19.225254856763026,41.09464731870242,21.05171662095417,-1.242640777909445,10.152293272180192,18.735463624626192,29.92594956005525,0.14064955000042395,-8.563241986659243,29.983066323744783,1.1009160793049826,11.978496082043371,-16.429773062934643,39.40906426893397,18.646925730467107,23.11261844237255,11.696308220139187,-20.282746286167452,-4.673764941649991,24.41366504155475,19.660541961808025,-32.72259109858033,0.8482981609128956,11.167875281101848,-22.800043286976305,25.54041555458354,28.391293819416788,16.57523505268276,-14.958468237119119,-38.32584081277008,12.115686057594795,-0.6663100870867709,-22.452192552616758,-18.612754893687246,0.36077979617912465,16.555671517286118,12.247996217292085,6.812242715756601,2.1695907090800333,-6.288980346076027,2.708168521032429,34.64465367463392,9.692752203702355,-4.771948760428272,35.26065366188546,18.519965616832778,-22.609692880594064,-14.259577396420395,18.50038274580222,26.595179046977915,15.742355148607558,-6.777801139872847,17.803371425521465,-29.176894101882688,-14.580506509707156,16.740106744124063,31.625114960297513,-22.162209130897047,-5.523971651876127,52.54690034844867,-17.236595635578364,-23.14584841572701,-2.593804428815557,25.26151832027501,-12.026730416965789],"intercept":-3.430112820204365}