{"type":"sparse perceptron","classifications":["NEGATIVE","POSITIVE"],"weights":[0.0,-1.803719255651584,-1.803719255651584,0.0,19.976675823517496,7.45592272571312,-44.476383450721706,-2.367421794477955,21.11199449728802,24.301230861316775,-20.097284945895268,-14.434401896702672,4.037449847680565,15.958684459588813,-17.30245915745011,2.9790152673930708,0.38274406475666123,-4.619473896173305,1.6268481535955854,0.58902817142118,-0.7279230864120125,7.7691042505442525,5.303211111799268,-2.6954089959118837,-12.078362734995117,24.742805945732577,-4.269665695671876,-9.89588419351298,-2.2519236034906327,8.946774696603493,-1.8871454939712384,-6.830809949162648,-3.961774166376097,2.490110440606385,-3.12833851584385,-5.45428903831069,8.011714303095186,-10.457496629608231,2.209616882301927,0.19677454188430255,7.298745832835165,-4.62220265879745,9.93637637840044,-1.9840712773626215,2.7596692973285277,23.951382536135508,18.628665954697386,11.787607422732476,-19.41994162358263,1.874431667047128,0.4963225430418066,15.691776102194424,9.540465615877483,12.38634250173407,8.000529156873439,5.152260926415516,0.12781156648057096,-7.35029307021624,-7.10424665648851,-7.0967800168271165,-11.769422964945987,4.675470238662295,-19.84648111696565,-15.573892006239133,-12.980353112311274,-3.2627968038327646,-2.2332492189957933,10.885101344269167,8.350830947908737,-4.997914518418109,2.0406352538891976,0.1269895935064198,-6.879283913342141,16.39510354451189,-2.9546730444156935,-4.874479244421637,-4.287240721952463,-15.280546067074374,-27.099053710375987,-9.683765954757988,25.30628374393481,-5.281351475223724,-13.116987136546602,-5.2362217724649485,13.631390450242364,0.4360152392155403,11.409022924926484,27.886104536882925,-1.5606914012851707,16.126292509614938,7.0071780588116965,28.101331195400075,8.09937709379904,0.20635234992065077,12.012842425097855,-34.62378342328551,-19.772560591255637,3.7645442706774443,-0.8423474323423518,-16.002414205284808,-0.6369840885724299,-16.003790583298876,7.189257776252192,3.8955611776164787,-4.311082947112289,2.5245662894225718,7.846213458138379,-7.7095392668300775,-2.7994663049336763,0.018276770455235333,30.238876284194642,8.667430055955007,-8.323001835915221,8.34811095153521,-13.51275016186009,0.0938257545694873,22.134910219023308,18.278064218449256,31.583814675928924,32.5298017911832,-21.12653004441818,-17.30992577677682,3.767100197516473,12.348243592565867,-9.289102684204277,-24.57286322963766,14.323753804661054,7.1552477050271595,-12.433925827417585,-5.460349489898808,20.789240089329077,-2.1743912034908233,8.635045090760821,-9.412984570742152,23.428392897861286,5.3002275303852,13.940488313175235,0.022248739261896328,-15.421734259871497,-2.537206592745205,-8.593806253935234,8.701042710509556,-7.0748109473019305,-3.9250202801408594,-11.4250290784992,27.533942637870346,-14.042681051572544,0.3729949756582432,14.520483711834377,6.737002633539513,11.861108270509487,3.585583741017414,11.654211761930991,26.021772780297812,-0.4884811331082504,8.395614334772667,-17.864807325928428,4.606339076071056,21.068872999926818,-3.4474329962117207,9.865592789680704,8.94925512899168,-2.268258260391725,-2.0676159962504137,-36.636677118753205,5.2655174564444875,23.16421662775684,-21.782274892161713,-17.186178185037402,-0.7836489342978615,0.7824649697877892,4.542331378176997,4.5696035853721995,-2.7146898227363456,12.243648397095914,-6.368816853437498,24.633228192941157,11.75397368300821,28.96075483414193,0.37021947854488024,-33.348874520643015,1.5170809266323984,23.488676151246096,8.639724563532619,-15.745241726921126,1.0989550302111941,-43.24021569407379,-16.95550466018483,37.456936114973324,-38.08100117985642,-16.541666749975228,-7.25110768950203,-22.539054105908413,-9.869885724008151,-17.155143530633932,-17.05199656072963,-10.877873378714904,15.784009316311101,-16.3163555888575,25.938580216234143,3.996502661291522,41.072356251306886,-0.38249839954975295,31.291201863483423,-17.74133667373378,30.457615602919727,20.236181091526838,-9.739540554674848,17.93855520514848,-18.002046677559047,20.187450064208885,6.606552462423857,18.289239948642752,-10.486778266972594,11.11212736574238,11.165372928817376,-22.870988632924966,-13.514729436870194,-23.156060638970317,18.983565852284425,25.146457088386867,-17.17287840352399,-32.72719235959834,-6.1380227822079565,4.46407033146151,6.535559750869997,-19.729144115312177,40.58792217779043,22.737124608126805,-58.726691086525385,-4.786117706208761,-6.7812541436581535,-8.20949784166165,-24.251650924189995,-61.76335038250168,-17.592999443856584,-0.7112672075497807,15.793515359371279,17.19624305015533,3.8832847787486293,-5.448948037923503,-40.92222698975234,22.913763691916298,-43.292369672239715,-27.606876121273572,3.6113883709042605,-7.912519755850683,-12.787402747242277,-14.317465744745366,-117.22011088734975,-2.548682639896967,9.524659066845329,0.27696889317470014,62.6822026700407,36.8068941179267,-4.838897045192071,-3.592578083657423,7.674112875512505,-10.382630330429937,-4.928739894206274,16.60936468644172,-33.9056866748778,39.54944897355429,-30.206737401047377,-34.569156784928396,12.390074411180187,-44.62254937449115,6.845432191307,-25.636111983821827,-9.511914406302251,7.5906820521394085,5.526875812764204,-32.64999876805607,40.48096568610868,0.6011713998734912,46.99818534079365,10.84349498766151,-11.428872375822733,-31.178890183489408,-4.007565366996725,-1.298477162892406,-24.195099963763536,-25.986387581611208,14.869954373374869,12.310212410249449,-1.2574416662816579,-32.472210714594304,-14.088226950202843,33.096758121991684,-9.185297102168008,-3.297116462335613,0.43494578048449967,23.78978929762992,-33.03656003170489,-12.702856467027242,-35.228459801454306,38.57710498536167,-6.4474052560783806,7.4633470326057365,14.281226228507578,-28.435962774002498,21.668779501654754,-38.44135722152962,14.29154630879374,-2.16419423979915,-33.100417766946805,-20.95004205798061,5.104445126972825,-21.607393001772483,1.3584543524063457,-22.132318797882075,9.361252621118322,3.65869218383482,32.418689476530076,-17.940839515211074,-8.812993354256587,32.28463161467928,30.169871929378445,13.477249831939163,5.109554697944724,-26.801493794133457,121.09690993265372,46.26920872295766,10.910796066313459,22.435555411996734,17.488288309003536,-33.03081594533748,31.818729095313657,-3.542629217173142,15.314847502298775,26.608854859641344,-9.406919679541536,-6.931597063073778,-33.015230513129836,20.133853706914717,42.348590815058124,-5.396989954464078,-3.812410077162546,-80.34547279437538,-10.27913330658557,-30.751554793170516,24.210121850269797,11.504318614758786,18.8375638115158,0.06007372491510399,-40.20534355203587,-6.485624730427279,6.76960232737115,13.42354485702687,20.35011740664975,7.386560966725094,-14.80806527900524,7.472898394118502,6.043051328825672,51.410256301956295,-12.23354020892367,40.387846811933805,-50.974191838185696,26.753723240171094,-11.017672961008182,-29.161070518444145,11.163920691303536,-13.099595046712867,19.74674070819866,-30.038460682736517,-13.538188741684921,18.74541221160912,27.848726680751238,48.06785180391236,26.896986579019583,-31.127810833691914,27.217937909477605,28.728196012961547,-93.64139752052509,-3.8780966585105467,-1.331928568342267,29.95456757342945,16.941629432396276,-11.345372105544058,-60.22370617939782,-15.432959758428936,-22.996155626810765,27.908363412728693,-17.032257644234924,-37.24930263154407,-8.507464598911135,4.325732095390246,-24.58498446600071,-11.678884847826527,29.611817816621745,34.163101991494955,-31.392046725074085,6.278077926968447,-12.541385066254971,-67.59240190402252,10.249066839123776,12.210117549090851,-9.132166082103574,18.361203479130523,-25.87203488004953,26.088642563704816,34.92835703429893,-16.14244799004293,-19.065416236879983,86.28533623804385,-0.13831042684986386,32.90274206219306,-3.7382646273675046,39.90962581811598,-1.3302598316496468,15.611689876587981,1.969900618397276,-10.119200297837212,6.4664726788394935,-22.836264291407286,9.76305695046075,-27.356472559997794,-21.75544048597283,-25.36031649682178,10.577010440095075,-10.112538588834779,9.43345871055871,44.19294385567563,28.24751630948637,-63.22481441011878,31.43975769608892,26.30387791853857,-17.06022673514426,2.9564945570443606,57.86694282779074,-17.57974666485318,-9.500970809272252,-48.70787500314683,-31.660698120248014,-21.139330648362307,22.314242310221644,-39.42047976837786,-90.91247841939324,22.400733585907677,0.8630999524922262,25.333695431707316,-33.78530246506427,-0.5216075516517105,14.156475913696719,71.32977537913172,26.826935825157886,-17.375047039466263,34.35747368146364,-35.38061677163575,-14.956054438069113,9.887461343431408,19.893988103272072,-20.394825551644914,14.004802685910823,9.141296012888287,-11.885292989473514,-10.230387202192915,1.4551562706574854,-28.5818326957905,-38.75012691538698,-18.227360923474503,1.1724753763038487,0.6884119997093181,32.33545666504534,-23.444998331556224,-27.743408348201584,7.730840839262885,11.7717120887231,-7.563702241061206,37.34063188291242,-17.39521398531709,-3.180444581927133,-38.66175266430745,-39.42367693205726,34.73969630267958,3.1270731587126663,-17.605985271457403,8.809898987517725,31.75932029673319,13.558973834212631,52.90732054580314,-21.41105004690282,-24.254609913102264,30.809057247382306,-14.009962833166293,-17.18040867916446,-14.897576104489268,3.537368154790931,-18.29259475801642,13.706934853134541,12.190531651085504,-6.328164628315552,2.332489466873999,9.273197032626308,27.57440192505288,18.20664609645437,-16.35334303249492,-52.94879547916788,-1.1271454858422993,-9.010923958179712,-21.322673578663387,27.28349227479908,-19.058923879752886,-9.132044942216492,-18.26421687847463,9.70980857114661,-5.396348748795753,-23.65567402763157,27.17740057629824,12.561307563246126,44.33478604808882,-3.574222967610216,46.617394571581755,-11.797250869103785,27.537334486149156,25.96411156982685,4.334976225439063,-3.1438126082243443,35.28393677297846,2.8268614096776417,-16.19141346588419,-2.0990882649094056,-15.829538928299462,-0.22047596858819057,6.027929249708021,-2.2805003323263966,-24.788878194397032,-50.99626276745972,11.570055366807688,11.98799126063912,41.34202919163152,-0.04634068087476721,-27.72228863755171,-4.957482189905152,-14.577294404499472,18.635741123268247,7.020043324479667,1.437357415681625,0.590614139061401,34.416915369687096,6.376214794597422,9.884189679995862,-27.280812134192814,38.680761862621424,15.95648203645698,38.437183823469134,10.374731942914499,-22.793698471181653,32.88041471748806,-27.971003076607047,-26.648652606204735,-0.275710296215849,0.16674966267882896,-23.37764152336286,-13.908487700787951,9.14587876610218,22.674799226850034,-13.692185095106979,-22.097764041996935,0.6615392730456846,5.260436970647333,24.589256545490848,-42.690546974103796,6.724654196604707,37.27560332656778,7.308274647767155,-46.37237296976119,-2.2112921906643312,3.948461253385898,5.970187787342019,-4.697756250895272,4.987424223246107,-0.1733305881139388,-16.817627645318428,-16.048265563168158,-29.840296172744633,-25.724036801587207,5.789472901574532,-35.95460849354473,-5.481921835353029,13.547705083427362,47.72545272712365,18.738925338063535,-21.140728658803468,-43.73249406460836,-16.747674427688406,-29.073089492847462,-5.640822484318583,-19.177243926463856,-10.006341596816569,-40.39329619712761,-32.71385004446959,18.511751666324948,0.26539465618403996,-41.45134437904212,-80.4111412919945,-4.078408784707934,-5.767956807920672,-53.588422057701166,-14.228926087963764,-11.947538388640025,0.54514982872479,-12.169229798615927,34.42090323442658,-1.59476100924461,-22.359660491021526,60.13945527373296,-32.68376964266518,-29.791715411232666,-7.915901003020509,-22.447411232922814,1.0996319299700041,37.64565480419852,-1.0424143976180646,-32.58235550910295,9.869799964641553,-56.40645855923735,1.5819725103704392,35.40802399739927,-40.77733895591208,-13.97336052311753,10.663976632005834,-22.627974749752312,0.12470114844588716,6.055538491161064,-24.709320286260922,16.118320138965913,-1.7068347531716264,-19.113269639790424,12.567156328177335,-35.73139052073174,10.941038777508139,14.872756360837723,9.759558851616502,-9.784542887293101,35.98053306418639,11.162951207078718,-13.06930538254308,33.07364308717066,23.374511924463167,21.194684627412183,-5.441914528931022,37.18063256627106,6.724007216976097,-5.765962862248113,-6.6219769811477125,24.29633847914033,-50.121011810303656,-10.22685464047665,41.80799886952571,-25.719654215257922,6.785177983221868,-3.4335566412642344,6.5221745304649295,9.185985804193043,-6.862222076575199,7.149303377954568,-26.890144673641146,40.83935864061136,-15.277927445354239,21.201455171230368,1.7359763217790731,-31.498160814203565,28.963842781700706,-27.098179685853964,3.2185860051260486,-21.05701704857766,-7.334192630854692,-10.460125791756157,-21.4209985701275,31.08944121533448,19.69632846032909,21.638601437896703,-6.712571012007075,-5.937761568829438,-25.978763976097394,-29.475338056542153,18.15134565338846,7.8016375456475355,5.643597856458805,3.2058767742356578,10.224059603909906,18.653137150583238,-27.483809819235113,-3.7475087870993393,-28.81807431355655,-2.0389031801060833,26.651957209283285,38.81311871305493,-0.6364684870943355,-29.510116479941058,-43.818100270945976,63.1972208709532,50.869733729966136,36.776109072478775,29.065202262491674,38.71600016625348,14.452221080298846,-10.416069971834673,12.800503852551868,-7.237279064150994,7.571779202356914,46.05000442323194,-13.668523364332685,8.242478098105547,11.743480719008383,-29.31643384655641,4.899028366107174,-6.442952173116241,43.18982691412144,-11.289591214666874,-27.475239120360776,42.520141127539326,-8.820785602778525,20.930521619193257,32.456071098825795,-0.6487135366653553,35.2003813629025,15.98723204313896,-17.597334276162776,35.028478275857196,9.033597463081271,-7.282387218016414,15.23622971003192,-9.207147347267995,4.483605002397988,27.790550172749306,-13.551817944772989,39.74876378854599,12.327578715288118,-8.910002582296645,26.372658521944214,9.680820152474634,-17.022906980118798,-29.11280468135003,9.10016703775386,5.036268242707422,61.869895440744116,17.037494729926028,-4.921573377506551,-20.59459200143179,5.411802342846204,6.6254283376651255,-32.21327559867288,22.42198535695619,-42.35415876131277,-0.4686832676829441,-22.063704351649765,6.52753176307228,-13.266732109718502,-6.600331115267831,10.432517270486736,-0.9565405702014917,-30.034837196472164,3.214539174802682,1.7931478876542477,40.67010762805752,40.57807818964817,-22.063592652432117,17.563232697566807,-18.064935142800646,3.9963418689753665,-34.725879883376635,-30.49039823341701,7.001272104298651,46.43954978969114,-0.7660673047193227,11.068725013096175,38.2374927562871,-11.133625570494784,25.524703128312996,-24.843041692168928,-30.83277139311139,1.2995505049083498,0.785878760230734,-5.953660217658356,26.98191604649933,28.31456677707317,2.0921859239266944,2.6676897538303157,-21.568768909538182,-49.19285766308083,26.982956203055334,16.498219426879047,-9.659952988699022,34.17481237278584,17.245406223139923,8.86856751257208,-12.888446476017949,-0.14966750088273562,36.657985938161374,2.783022811848248,7.182442529462215,-21.006413591470913,10.228641582349457,28.9517186767428,-25.067484612901644,-4.813952224587496,-29.402922336122085,19.56923101194083,1.1753671333087192,16.12879285727054,-10.742924894753692,-27.558596557069283,46.068280023786976,-35.14927562728594,-61.838080205493306,-31.33968737185124,-11.636237736966793,-11.631978935137125,0.6688908190444637,2.632763406495488,-28.23933442964533,3.132601443060257,-12.96200490476664,-37.8196204736383,21.5985855568651,9.849461226048426,25.49758111945838,-6.259042948566707,9.501841096511775,28.153287910133173,-35.932747815863856,3.3611362343719775,-8.611932006051369,-6.489330365176342,21.09201696528513,-21.55963191051406,-3.733599312069885,57.171109848806054,-36.85587926869836,-26.429413640007986,-17.0409419555862,28.264829636988033,15.088317550108737,-43.021176412938225,-2.2311362321504795,4.169887047879182,-16.022202678059113,28.860661464897156,-38.62071555115649,38.51407102232062,-19.832971733664504,3.6424443693911726,-16.07038955104402,-2.626742201147183,8.838380304716093,-13.573990979328208,-43.133538109252015,15.695713443883026,9.85008881988197,-22.13984279628523,7.28382008087201,-23.662933482082085,7.615184433059739,7.79672486303084,3.068743098130575,42.392081611714595,0.04874730295151694,4.003929905502299,6.000018047123075,16.33665339976948,-63.56878311175718,-51.033010359453584,-29.3155143959729,4.2142869026634635,18.333204177914716,42.18728220547864,9.120956725917354,8.711965449123964,-17.09722893404001,7.798149433432347,5.861604471618421,-46.111307821644644,-10.689961757163557,-3.2658932559479075,27.136286938041916,-14.841102051792308,44.37641456978742,13.414103343142726,3.03299168033962,-21.65268722911063,-20.19316945968077,16.779811994832915,18.30388765824068,18.031032221724804,-0.3017156521656402,-9.583103058161143,-12.905534642339713,-6.106245593606828,10.169219772515609,21.970079660593004,12.366259200862562,25.086819860182676,-39.597915431438445,-19.889408138267928,24.155535472199727,23.790335127913888,-0.45610837780424635,-30.74937468941663,2.941329975317799,4.757314320025418,-17.74974886519031,9.844039362729534,1.3113143741259357,-7.329588256823754,23.70491333859785,11.073753145129169,31.15871420949261,-11.838963680958335,-0.7401228183464982,3.9114785826022427,-33.16095685569976,-35.25949181606394,-29.78282595055721,-16.60365228983477,-19.91781819092449,5.476108450978095,-30.536890223299316,-28.848247678183917,-5.288637411701612,19.895725598489165,-2.749534482356312,-13.022918311403277,-5.168243457748141,6.940877957100829,19.306457478039505,0.9581914282118622,9.529698526822784,-32.22737454445439,5.341740376890504,20.634938732038343,13.964050795325187,9.994909750098838,-46.78881984678371,23.094308785097024,38.03464439786664,20.663724337775463,-0.631441999081771,8.875130216617173,18.918215033240863,27.43525816675433,-0.6089474883675791,-10.134879960757878,28.639308698963596,0.6769237964397075,13.33025742486605,-14.780671149733504,38.418500531297816,16.975007997769804,23.873916610243427,13.488302909093054,-21.54200446896484,-7.425113449631659,24.712026091427933,19.948675172272864,-32.7200000033235,2.236936567673356,11.839530618271453,-23.109245714569525,26.765172221184773,30.00109757099409,16.884819283579308,-14.408603491838228,-38.03874830106638,12.210995487985628,0.30233183319129725,-23.423584380986405,-18.41595926735136,0.731158839394932,15.569032869419082,15.294452413904462,5.647678714660492,1.7004244652756964,-5.776261842847589,2.253294045246861,35.16011583864487,10.412463958677005,-5.108552469072961,35.01588383585218,18.36126425721005,-24.223995848497538,-13.711897096333743,17.147533308464105,26.256042680148724,14.913975147746436,-7.316715342697871,18.48376494673097,-28.073041897273143,-16.078877732975315,17.813122413015527,33.2276068890559,-21.74185990188596,-6.935607789729593,52.50921133562789,-15.38399047540029,-23.399717078457808,-1.7555638448703448,23.559054612365433,-13.903146361148178],"intercept":-1.803719255651584}