{"type":"sparse perceptron","classifications":["NEGATIVE","POSITIVE"],"weights":[0.0,-4.182766782973313,-4.060843813905172,0.0,18.643221631682643,5.603822529869983,-46.38210892517322,-1.7374036368640318,20.425576285734778,25.13254715418836,-18.882272490325246,-11.831147751837646,5.526682781704736,14.719087456961235,-20.343980690973922,5.943688324510464,1.8347384501701418,-2.299863102729162,0.8891981129293456,-2.05877015027664,1.269725164012503,8.417140653054211,3.2687381351250764,1.1736350094697903,-13.382901837619492,24.943856961602783,-0.038046251566152836,-9.130095074920492,-3.9088074739958882,9.96657624331181,-6.355609391107416,-5.481482632059621,-1.5840989152225182,5.133088786099679,-2.5999320898066554,-3.3667269922736414,10.735957643422799,-11.073984435051203,-1.0662785244229078,1.4040490604434908,6.6185251847391156,-3.4145787829044245,7.9563040430203955,-3.384553537341662,1.7511136407037262,24.079506689167726,19.14197562775107,11.084381653847325,-18.783538291590926,-2.493052853767075,0.345810419650974,10.088426385668242,10.12287522932875,9.36283553646159,11.7707464782757,6.371982929232651,0.8260972349110931,-8.021895831938119,-8.849167349671626,-2.6386344417897276,-18.809848500914505,5.367182764011226,-22.04260865012206,-19.655245044458123,-13.725236341487758,-1.742922040736244,-2.423268769281257,18.09258460966641,7.651710933732049,-5.686217376314266,4.932324055700246,-1.2315790179268244,-4.7252168687305085,18.184618414934587,-5.685995423898132,-4.51479630213807,-3.3591661837331306,-14.666759419698739,-29.282491896381785,-10.522342177490282,26.11388522250937,-7.682976930998674,-11.10689424429441,-5.017936365911059,12.9745899038899,-0.003154984493265775,11.425813729105887,24.94967327568552,-0.2889103435147647,10.591129690245257,2.589055213050341,37.22560950314828,7.035252638189464,2.8600320451253984,13.68515447850174,-36.70098326932838,-19.382279765038586,1.5223361898433274,-3.966461511153441,-14.522834814333212,-5.439398701788994,-13.21846204013671,7.951741275403885,3.579104428223572,-5.627383705146082,0.5104784744865543,8.404731833221854,-6.9541163033874325,-3.0797470116904764,0.13843391186544177,29.51721992576518,6.340655474989927,-9.40118739227292,13.613767742410996,-14.706418637081489,1.0290339992688688,22.18342550177581,23.35592900701393,35.51496136484866,31.934350342947756,-19.492744207126034,-19.325273983275242,1.1266507335142606,18.231180096101188,-12.52620059000478,-23.245126114045583,13.841341417304466,5.822253867205472,-10.559705893605853,-5.505233862547774,26.85359142660833,-0.3170658326744627,6.605208176237394,-10.883720328519614,20.813726786262674,6.775623783742357,14.737287756780203,3.146843510724305,-13.477636923087088,-1.7949412561014908,-6.681613113458401,8.497804510060913,-6.728483615886636,-3.7549549797685455,-10.81880468774732,28.704929367023595,-14.335694749204276,2.8927845283949267,13.185266032672754,4.811585353919931,11.92127675264825,4.134604905039181,11.216996634081042,25.185197891488777,-1.52966149868437,13.887424564885707,-17.305710452811443,3.7335806738324826,23.203637815066138,-2.632449696123163,9.709047971177908,11.816962307644458,-0.6575817597705871,-0.5589787052513805,-36.96474989850288,5.047220007206689,21.21838479367879,-25.623311117570637,-12.586135003499926,-0.8160410318812824,2.6511439320764385,2.2079815703422647,3.146654958778138,-5.496538144133761,12.087367576338519,-6.410562162749952,21.22840893794445,13.330551165789382,33.19986753850344,-1.5842882208123927,-32.18280408621435,0.0956012634578637,23.2795436404168,10.211189500201824,-16.16538016155436,2.935395586605831,-43.37916893700509,-18.242050977373502,40.21132198088246,-36.95776061748844,-13.46195920379683,-11.197076356013355,-21.131784379299678,-11.486539042162095,-19.191109602106106,-13.973483459521885,-10.22901099466745,16.35881536832686,-18.930759772996005,23.114875369232006,2.3933578083515834,42.34262431637825,-1.082060643651596,34.2607854517549,-19.64311125795969,29.517303627099935,18.237876392058773,-14.163465366481182,20.408691707007588,-17.631105137970295,19.24073203858883,7.776656972343375,21.404669784761037,-10.093146282822723,14.89107412647462,14.20836874186094,-21.832695296431726,-14.529441864650314,-26.429295137334638,16.579223869787022,26.251341817270585,-19.00061594182988,-30.309997910373824,-5.614841407261543,6.490583064007499,8.87604090400674,-20.015492723698095,40.00353971368093,20.467959483102543,-55.59214087482682,-6.833580599567937,-6.543373741510144,-8.475300808525152,-24.371012172807553,-60.44953008031202,-15.947550807476556,-1.1627279595219535,17.150690009916545,14.692146890971655,5.222300639376409,-4.390716966341711,-42.143501611641796,20.63200685623848,-40.94930021594361,-26.241262331919287,1.8989261743148176,-7.7139709841889355,-12.834331125409891,-12.350476786337492,-118.56392265577676,2.4836110415672294,12.53152630825686,1.6687824210493711,65.31619724436779,40.86255825045345,-4.788736934824354,-3.0351726929049083,10.5598052764209,-11.612402578368563,-7.200140606640601,16.694341083591492,-34.24995351549882,41.509674273445974,-30.757157381810146,-33.67127110387908,10.452619404268582,-45.644131754878195,8.261819522932088,-25.97104938601736,-13.330066400585443,7.168682971805205,8.21204627873454,-33.31004293184891,39.96745579214664,-0.4028728844442683,47.52560126518734,12.753652850700174,-8.530588155599167,-32.814073567882204,-4.221807699909231,0.2874807947513025,-21.671798516125676,-26.043882072105625,15.730450520268874,11.453832187794792,-2.1408299508077797,-33.35171107098693,-8.472814682090835,32.205969997685315,-11.226298829284595,-3.549387697087971,1.8425444474364694,24.130153767589306,-31.78542985332167,-13.718780923624209,-30.15867611956557,36.06477328285201,-4.946334011598541,8.879073545430778,14.363615577922962,-28.85963294528275,22.527095205771914,-39.89535556878736,12.340063192550767,1.6568906158238768,-35.05806495785914,-23.710108650059674,5.042672641986902,-19.422297060891747,2.607583201796373,-23.112111548431614,7.675196161118725,4.2313258942416585,30.586176181387962,-18.227146114763457,-5.51125058579432,30.816012985804925,30.200437094725768,15.08772869163619,7.098071911791428,-25.23413568822587,123.41680314808353,41.12851155527144,9.893357452262904,21.1424748676883,18.128416363471832,-30.712510633140553,32.507626254869194,-5.555191058671815,13.059274634336573,29.438393521584498,-10.4206208972555,-8.769251093884332,-35.53582386329044,18.88656590009435,44.80182445285667,-5.6729076580929,-0.6518685199373125,-82.14655111319442,-10.982409861699937,-31.684384281830738,23.675814732850743,11.655341635501006,21.982969949428828,0.5336085412620827,-41.31964054649258,-7.259725331415343,7.111707965611829,12.668168666991624,20.42371995255107,7.269813653693963,-15.044235549512395,8.979091893299746,5.783013571806328,50.57229946539909,-10.760650691736513,42.72362201983675,-54.29683909720536,23.881761787723644,-14.491290490001965,-28.908721811218424,11.635375464987021,-14.095554286759077,21.639466168543827,-30.321888984626156,-9.997927934239444,21.07591026093091,27.096687168647854,51.36987138403403,26.287984652253368,-30.34891902641321,28.987565527719497,27.224342872366023,-94.39675891532202,-5.699013835976358,0.41931677358470026,29.661199034963065,15.078227444152269,-11.240570459536302,-60.090994818793924,-16.318474393863763,-23.72459793674153,26.74440714491841,-16.804424255670448,-38.091763774998,-8.558535977001599,2.3429522793395288,-26.138900141120484,-11.770420786824008,30.894250995094417,35.39726252125166,-32.2623062623728,5.715265596450185,-15.800062317425155,-67.95861779062403,10.934572181960764,14.24235604078013,-11.453508239658719,19.043723525458976,-28.60474797596183,25.51747121623982,32.93547191808944,-18.881036281471516,-18.116352840919042,87.96971251785864,1.2473496094459229,36.469363203764516,-5.482042742803814,40.016979770752826,-0.743676862078519,15.86436189218831,2.9631715309807616,-8.299755171185415,3.272924880486226,-23.152711174904145,8.183744412445838,-25.380469435694746,-22.963374490631278,-28.994149606181846,9.758617760759288,-8.14813574584372,8.699445351123073,44.85978652229227,28.241831549752533,-63.67598816707456,31.6526166795666,19.54480952192949,-18.115233008696258,-0.46436215707526574,55.08868706371079,-19.047157100028283,-8.979800537040106,-48.48496839612469,-32.841881754269494,-19.841646328803193,22.853348645784955,-39.628739047944606,-92.96377627867408,22.408297461696137,3.004587326667303,26.99573438251893,-34.059942011373785,0.3647631807437881,13.472320360913251,71.39852643580303,25.926497162298826,-18.288364372392298,37.05549770744168,-38.07025439486361,-12.804155342818522,7.678373869043364,18.39102330054189,-19.975689558288174,15.122236492071846,9.504912126074421,-11.500027138600576,-8.104868506961799,1.470764946298211,-25.85528572366149,-37.753954011048954,-20.429173029015246,1.7332403284063145,1.749115590255515,32.89971618977625,-23.35830450034292,-28.56382096447345,7.904884758479817,12.893659696459723,-8.30390748107677,38.75978655134109,-16.15697074417378,-1.7469908559065643,-38.97989886413882,-38.15425539017569,34.25283976680189,4.948660077118127,-17.386135122435558,8.086876051633677,33.45139602843249,13.03436157266835,52.054561726813304,-22.045807877465858,-22.57049720145052,30.849137679907052,-12.358103435308871,-18.931976103614687,-14.365065697759373,6.890452905974498,-20.63708813754805,15.2138774227404,9.939351859122628,-5.902240130650446,2.159445060593879,5.517637366300696,25.630414222798567,19.78780131406032,-14.649670210212797,-51.05904760727624,1.274362943361328,-10.623556667900399,-22.592116251781906,25.81572147115529,-20.31886461048124,-9.703076476308073,-16.41516447870034,10.950126591184663,-5.5978851655214035,-26.835266584661145,26.15436497687658,13.352745703093836,43.10530341476483,-2.838337291431375,45.192599772232974,-13.260641211989082,30.445431720364763,26.563510894390163,4.602262181917075,-3.5031195350620834,31.865700395649814,5.061782285312784,-15.985850322564055,0.6437092637236072,-16.903164075285773,-2.187396385945074,10.291895815431035,1.2480224448864476,-24.12384826772452,-52.195692269172284,11.381372206123674,11.185901481713561,41.85906311844967,1.0336503205374472,-27.569530515067314,-4.016929359357529,-16.303287839055855,15.61194760636699,10.272116518474036,1.6748985888819974,-0.7048394500679702,35.45986489080359,8.31029165794239,8.923906456482117,-29.789890524647898,37.0859890160815,14.318127363411392,37.83029205338031,10.701698778402028,-21.633571623645132,34.07146511443832,-29.213156132731946,-27.799757360455203,2.6214315926456098,-0.02779974623567774,-24.684709773792342,-13.239999779675653,8.829706799570012,22.677232340925144,-13.0007361336367,-21.969790340151317,2.275669392362635,4.80291478281117,23.00957036926824,-44.67848278256392,7.764046837160021,38.65532438188105,6.618501656711054,-43.290339185280175,-5.552779063937259,4.569844569444618,4.195697440795281,-7.067979990794305,6.361001169018311,0.809139443383422,-16.27420373103868,-15.329201952483299,-27.789896366843955,-23.990547946436493,7.632420246818423,-38.35177784481594,-5.040082050564498,14.508637981437671,45.769926188458,18.33536186384847,-22.558133140019272,-45.36850243548813,-19.00552802860477,-28.98154036400823,-6.453727572695516,-19.578867928093864,-11.315055572179983,-41.29897326675516,-32.404082068720484,18.455309437834362,2.5756599916831258,-40.140798724096086,-84.90016564033661,0.34422377648821,-4.772863473566706,-51.002101704116065,-17.144194800212887,-10.85374179385678,0.2366324707371908,-13.24591413309728,34.37269708889288,-3.29708887980055,-23.71916687055744,62.51038141205264,-31.61569849840773,-29.516636781594755,-10.084103335036557,-22.9868147423052,0.46965553914196734,40.77402980623405,-0.37131363712624355,-32.311161195729845,9.181267494803587,-56.51451338848953,2.5139779742775255,36.349177892497416,-40.6870148354647,-15.797715860600267,10.978973048044836,-25.74836904336144,3.341258483233951,3.880018940882753,-25.430031969495126,16.648961862898787,-1.0634862866084573,-19.583671448084303,10.872460143904087,-33.95037233971964,11.57497694280546,14.166779225536688,9.69791390273288,-10.909558475595176,35.00892659671327,10.760071832103407,-13.721923503823383,36.1667804134666,25.678102954506322,21.241457412820427,-5.349395179190699,37.20998824818275,6.017498537386606,-6.191990970773581,-6.538811347337899,23.782669597823162,-48.44083733772156,-11.495977193384672,40.89074725299895,-25.041232135303648,4.744724393628101,-5.210678603893203,4.871034782707843,6.212163982675973,-8.017320826624411,7.862313893403256,-28.575819625289213,37.624127611687506,-16.70141098237271,20.712124649121883,1.3444532431512233,-34.087866301729306,30.997401092769696,-29.102717756692872,0.6116147368572433,-17.99911312701913,-6.374198044321257,-11.174769436579775,-22.390163803484512,28.26429657632102,20.115532000549088,23.226964756472935,-7.204430359074226,-7.367887189558476,-26.568414376914703,-29.131096567297437,16.271250162955475,6.671454921656371,7.4839492625416355,3.705349608112679,10.901181369034067,18.99639521292881,-28.862641922210095,-3.557090128270242,-28.09905953084947,-2.647317081699313,25.547454673759557,39.30126093198504,-1.7700252214183612,-29.683003277344213,-46.005295104653975,65.28373522422767,53.89099332685133,36.74756631980913,27.472469475253405,39.96176285318941,14.71392616541322,-9.693894850243842,9.479494817917958,-6.498727843621182,6.712720021939722,45.97218415923359,-13.162479450469116,7.720928931985174,9.862341998067283,-28.393686040906275,7.476328991462615,-5.259101303751493,41.93134803196193,-10.394812596713166,-28.73732160283975,41.83576682511284,-9.078901944498666,21.780861393990943,30.3251738887421,1.6469137819241875,35.33788513958629,14.425707989906476,-17.238504028758257,35.7467443151806,8.604710087543534,-7.545300198036292,14.981777369925773,-9.526462734791494,5.838037732764113,27.65924549787501,-13.913349564318231,38.70484083703739,11.4151181501256,-9.732494576315577,26.644509565773706,9.633902952354909,-18.21798516990359,-29.16825488794102,7.286542375735766,4.207038684101797,63.44666377003376,17.993089907227887,-3.408683461824967,-22.223823051342038,4.112646522228075,6.667539922706294,-32.16345760245999,22.978190473967505,-43.4400643531053,-2.7261475708406135,-23.48404086236623,7.215512491869571,-10.394157012548765,-8.284309679800776,12.096072147903488,0.9147085906620938,-30.3535761398368,2.7676295937557316,1.6942176180833517,39.753878400624004,38.18224827517427,-23.04541211360614,16.957339050661968,-22.378912053593037,3.3785774311309846,-33.5614643855942,-31.448125326392717,10.920674904483716,46.87272497021471,-2.448317335358526,11.70583197394986,39.73756111938768,-13.656685656588344,25.026165060879617,-25.29719355466418,-30.29437056120322,-0.20002379422467897,0.6554759333245812,-4.12627356723708,28.195050948431945,27.987526477965773,4.133129185656626,4.25321244960863,-20.080933835626684,-47.23996171344667,27.948868812063868,16.043672011909567,-9.940238154304508,35.94392876591094,18.351555927502616,12.071602784619358,-12.444680838967546,-0.6084382495159021,36.19348198264705,1.120670201010896,6.440769944025153,-22.49268436917852,9.137674070673834,28.43915907047361,-26.990668995827185,-5.671211095531594,-28.608460759784037,18.911057912396227,3.1604369415030646,15.739305020001675,-11.439164205738807,-29.109533420858376,45.51069292041374,-35.588473176515876,-64.82578574391712,-33.22552957730617,-12.168286083628143,-9.60082647728509,-0.8262434153596535,3.8936412943852314,-26.908473849998565,1.9301801568623858,-14.746757870989944,-37.77111012124477,18.806453988061268,11.627488397805216,26.009055008555897,-8.074407915284235,8.903962837797504,28.26681078516501,-37.27896795544259,3.7101600154502257,-8.556544555872504,-6.634876839237022,22.855457657094803,-19.372403467858305,-1.9660822201510428,57.99669262670764,-36.60603684053589,-26.237746448142087,-19.628477999245224,25.59228909541808,17.166840589167407,-43.68818443368835,-1.4878885854071384,5.689275861578747,-15.539726759747474,30.958925860132315,-38.26816020423867,37.45669158093848,-18.47210173200293,3.645730282793387,-15.315978241543153,-3.056758667577044,8.86606898540445,-15.949380354906168,-42.67331711559238,16.239162396667254,8.348333578806072,-21.552708822984414,7.558882040531911,-24.01673509664457,6.530804531105872,9.07647224669532,3.6525659154520547,42.1508043292259,-1.8194551621753405,5.8499670014866245,5.717877784081913,17.866219378234746,-63.866583853080456,-53.08212005394382,-29.459359497656482,2.623678729732516,17.39591823556278,44.29678875714809,8.705841604859684,8.56377478027793,-20.09104859586986,7.588144313214299,7.223377797228797,-46.30085493840219,-11.813144842613035,-2.3339660613280504,27.523272299505592,-15.271972667715652,45.56447001863872,13.407163442957467,2.407529024940553,-21.092712726600926,-19.60896801363645,17.0382560226363,18.38670681745848,16.787328544895978,0.15455116817221926,-8.139899763550348,-12.341163561072229,-4.4156201789341365,9.17277071796384,21.171964370643654,13.728393245214425,27.279338708327437,-40.717424081395116,-17.132602378449487,23.113855369412622,26.616221613699853,-0.2733723592421928,-32.17833865842434,1.2851913709593092,3.0224367347536996,-15.860347240575269,9.911832241805822,1.494407954870563,-6.1023136543379515,24.4797360604802,12.178314316527466,30.001061727018783,-11.62322239828129,-1.2712556797572505,6.270997035309337,-34.188543935969165,-37.19012284131015,-29.607205478300003,-16.578833676183194,-19.122480946625693,3.867191471888433,-29.017201798224,-29.01927889129603,-5.387615682339317,21.48326784702871,-2.6322751493257854,-14.250716296396138,-5.377403638719808,5.683075610315878,18.73780323717755,1.7816151637450692,10.807082386668672,-32.282089842990636,9.496162561512751,22.313828170343328,13.281276313064726,8.821172993592342,-46.89535483792231,20.144507726259288,39.04965006212482,20.406498626731747,-0.10294100225174671,10.526425536076472,19.91465845244681,28.34504953780949,1.958476619317593,-7.167813293271066,28.50700688106379,1.1347045628456858,11.93288180012551,-16.335595471661936,40.208318592088084,16.29761423128895,23.29429747856744,13.531665969882416,-21.918615920693227,-6.9052430568926155,23.04124397050768,19.348718105514795,-31.874730014969163,2.8006553225326987,11.210766616531606,-22.49032419730355,25.276876701761783,29.31782196706581,17.00379597412647,-14.457039250630121,-37.73128038658424,13.97066098446077,0.10766667810422594,-23.690898305969313,-18.465527998830755,0.03454160395645274,15.423390881335337,14.377101877534574,6.30864012504683,1.5929708709588042,-5.78798564533308,0.6811734566360346,33.11940393258251,8.840587632152543,-3.6536277816724527,36.31168993598385,18.22248348992929,-23.713006617780643,-13.250076583698036,15.903356977156784,26.216620809555806,13.379252952942165,-7.55268139611486,18.8555067699919,-29.115698474846056,-15.527246538125437,15.885812288675327,32.988583537111666,-23.35384133679813,-7.325531377930223,51.91041873090973,-15.867569971781855,-23.730947165530804,-0.06487822902605907,24.329662312879517,-11.266027373876323],"intercept":-4.182766782973313}