{"type":"sparse perceptron","classifications":["NEGATIVE","POSITIVE"],"weights":[0.0,-1.5452505386217497,-1.5452505386217497,0.0,26.647430172266038,7.416349699239506,-48.96789174090547,-9.871091067492584,25.631545294080006,30.792844829342453,-29.475093446996674,-8.386344164635599,3.5112896777478304,2.9360968354041974,-17.999926333794928,-13.639106193760512,5.893162634492818,3.1378227339044544,-4.14153992170306,-3.611263038326828,-4.374021586157882,11.778565899587692,-4.0162443190591866,-2.461639209524055,-11.435757991033412,19.05754517446813,1.9326245862084181,-5.5349872132541895,-4.652131322660159,-4.395900513481911,-13.26462608994795,-7.0487014284867735,5.378734969064482,2.6882085704962706,-0.16178585126070513,13.40530911367463,1.824029093724561,-14.190325201436767,12.97692169209242,1.7942265202488334,0.22731814120212102,-17.156656146294416,1.5412391440384887,-13.370295597863947,0.14491735198891792,16.255909505871678,21.35570821375092,18.011563820678933,-15.935512190493142,-1.858371118594416,-9.290692636924717,0.22068919154921546,5.811582052204377,15.899813988990152,18.843902828416304,11.117567800882311,-1.3852069545574845,-6.4037825801618,-19.730244699162135,-6.879075996527601,-5.937771237132332,17.57869144502481,-17.179039283642023,-18.511342477652782,-15.652400844554144,-2.4067423778267174,-9.40305936981632,7.858465256197736,10.202753494903648,-13.187280568919173,0.46095804295605114,10.09121861047891,-10.425482053453516,21.59877038571947,2.442658612505809,-7.58171291501815,-4.116149951859914,-19.986606600004595,-23.609810949217774,-19.050856694554486,35.06722559611379,-2.5827730657743033,-8.208818309384785,-11.438911344227542,34.62379130582282,-5.511125922310754,18.13989075815108,38.825909838856404,5.7954502427390455,12.989698132177287,-1.0781487671345804,40.16661783208277,6.536428360351318,-12.268087763171815,4.447537341238578,-23.617612603941733,-15.826389667177908,1.7136814706784183,-12.77872101196265,-1.1462292832381757,-1.365630805343826,-8.328366410500006,6.750430510923907,-3.573165451494202,-8.26850079537821,1.3583586394475713,8.145214083215249,-6.239624580139415,5.858487794116231,-5.043297742734197,17.81107615127332,10.655650639269671,-5.775844962291294,17.596186459590218,-12.061741556276928,-0.4420031282489223,15.671610841026737,21.698931074579683,38.39614388793422,36.85218456038771,-15.866328387867167,-17.541773400837936,-2.1994814589807117,9.47824053430693,-12.002034027531671,-20.89468782947016,22.588717863581145,11.879081785782278,5.011546089752003,-3.8890240052586837,9.093230062907194,-7.812724177455618,19.112940631064795,-6.222292609564774,23.908577675656367,10.726415279146751,15.92617118423276,9.691200447995085,-24.612657981405942,-9.356237251555978,-5.524748443789273,3.403696678866376,10.711962913175487,-13.359285994976162,-0.09910196260005008,58.55446775450479,-15.67680990897073,-2.941897812503724,14.687695780302734,1.9998408233736646,11.37614919776441,20.322230985173096,16.595104948125798,40.92392449772735,8.827480931204816,11.045067110056296,-25.84434532308115,-9.128644118055387,29.194907510115346,-5.3230461230963435,13.639609379984096,22.356536444607457,10.242379084839005,-12.232562911795192,-63.75561124302422,7.996815278128997,25.643189755064434,-11.712843149267165,-23.18841490579572,-7.509718294769412,-8.437758156230982,8.267951541907012,-6.970076780717021,-8.464440436928463,28.73554597089109,-16.489251349808328,16.770525778825746,12.308850111969253,45.53709329864483,9.3596106976073,-41.63246126097672,-7.042674980278164,10.933632430686133,7.900979929645397,-28.37354100279986,13.773713840279362,-38.20557134217488,-7.785937176141537,11.57183526485109,-29.01994975413581,-7.624606143041851,-6.955517419899878,-32.67026591453865,-14.320557152124032,-6.8931141010667645,-12.498114383993094,-20.480017287938573,32.81589009024383,-19.363011465479612,25.38365684888377,22.3061822751428,59.417440148603816,-12.29881648866575,31.499555597467126,-21.256515319670633,41.00835765010024,20.923822062978342,-14.80431979115393,20.07257193966505,-20.561611410057775,46.712326821894386,18.61681133081982,9.392759252404927,-13.129298031061055,22.83959286852961,31.736033617061096,-27.17269395123569,-16.26488319030473,-44.70458439248339,18.3472407469443,8.337871294426733,-15.994017278443138,-30.99758133233459,0.6278027459583305,2.850545505757188,-2.3353027724614623,-0.5682721931080043,28.019344089568822,35.82808337322299,-53.574774560877685,-6.163181645894099,-10.2367544190351,-3.558112466316563,-24.89145877639069,-73.5474266624628,-12.63558781326618,4.1233951100396355,26.462479380593685,19.803106412308434,15.54321600920737,-3.3509373921255117,-37.61905390920864,15.693896895006784,-43.233666535488794,-39.69799871616749,-11.193400163527816,9.754974110450075,-26.997159436076572,14.802817762101528,-138.2380075976062,11.21363082976987,12.640239946063396,15.565853949222616,74.14030973890496,23.47184120414578,-21.69131393743811,-6.909477165817395,3.8002398874386465,-8.709477496228136,12.8301970882007,24.35378835220818,-48.023366610683446,25.2632808556461,-30.65841493212076,-39.640841724115994,14.653258112836307,-32.212467893685485,-8.837337727532427,-13.608659886314056,6.841739988322622,10.041632071843052,-4.893273721049373,-29.335775715481525,43.3508096992513,-0.43275080610451555,45.299982176132886,22.17608980099728,-7.382409691696596,-29.68688858654993,-18.644437919639056,-24.21930523121029,-15.566592240401375,-5.107274335319198,30.136690406688036,18.59750109284075,-3.407655221144944,-41.94452017932741,-0.9674617815013681,30.19451082583594,-5.016397588787152,-18.428548969191162,-4.629659187027766,57.91443103869764,-27.902555408780998,-21.861151561286466,-44.50834752874243,32.852657151974725,5.017346292520098,13.502246633520274,-4.441270411039333,-9.203765163031143,28.86519735517595,-21.454451242212354,11.475676866777803,1.4665472908727548,-8.104839325020968,-8.685560381005796,17.941137137158755,-34.11647421765457,9.558123168332838,-19.207021047554573,13.482946548801747,7.018813941070621,38.90088868347502,-11.995718992821763,1.1607549836790452,25.56945202270808,8.964694483188985,16.022323230197884,10.10525503356365,-44.9344071494405,132.9120305027974,41.26570140493367,18.29838721081037,20.069230732228437,17.53412961067559,-45.09283177300632,46.4228320102706,5.772919948678055,18.35559617681715,18.754907736777245,-1.971405464423544,-8.02230734894303,-12.976121389987016,12.51172364474364,21.95315920536129,5.014316339127325,-15.800299167603118,-87.9220845416601,-4.6370757464541335,-21.660991737036976,45.32247648949207,0.5333844357121027,11.36143813669151,-17.729119117010068,-50.36495541089665,10.432134489325874,1.7800161356224593,14.171705615305978,37.27956283405162,-0.37876301021382386,-20.987051476891626,0.7885184583264745,6.285305326450638,60.8526227541948,-13.574295954638572,39.61676541627419,-74.52724499162865,40.61897350450362,-6.9523101738754844,-43.216180106021994,8.016490311371047,-31.30080631466737,2.338367419353746,-24.218709079531987,-12.320311478968557,18.264531342192075,4.784826821442141,60.44096670761695,25.88927247739562,-45.74914531781996,32.21241886290801,31.585471691841988,-131.6012221569718,-8.796161989175575,8.255496623868634,16.94629365913241,26.541661622005233,-32.06635341494801,-85.25039844342675,-28.69762777903016,-33.03195178931434,43.49119303240415,-29.564609084808197,-23.832332516389602,-3.954791452480753,30.982160985250953,-7.817214494696898,7.183793246796592,37.924059581231084,32.535558693145575,-19.671931254595087,-4.095803027248914,-29.600742399606904,-68.88837855334693,38.12493473606908,-0.36177278233275234,-11.300370272811374,13.129689822728057,-20.57695937575964,-2.2722854818766645,31.62035320597151,6.774984630024584,-13.521135648816951,109.81386435583299,7.147957183669534,46.10946519536797,1.6576164071129467,47.36781132829282,-12.82244088709226,15.239739432795146,31.486409080971683,8.33395774580263,31.99822824002937,-47.07929728028184,3.617476819402365,-24.869898414362574,-17.57631440353095,-16.689946261378704,10.414067828024042,-27.052161732955113,14.13780299881375,22.944343206834834,19.68405907689441,-54.45037431258264,13.798316783000365,18.48893189388148,-2.008726015052481,-20.431244008444448,29.474172742840306,-31.90639650631539,-16.759893584032355,-46.71443974670574,-53.60380421501349,-12.843170187316414,18.907321860104823,-36.031716311791286,-111.99283961972618,28.148150515536237,26.140955720799607,29.73923702559542,-15.815380372077977,4.715939300982061,15.61029710360783,58.11096205606424,41.72773267634186,-7.127355225366163,15.391986636812204,-40.9039834180645,-20.135170368805685,18.054154495884454,21.52698108487023,-31.280260740420825,11.331911110660357,13.067593087102624,-19.090440966193,6.059405129428572,-4.99531197326023,-21.22250655384314,-37.49926286301625,-0.623929065842876,-6.57246725318972,-6.322455398608942,33.936516052248,-42.82088033488791,-17.025213107091787,34.38539078964223,16.390344104700006,10.101806907783388,49.75108910383019,-9.277977789718674,3.507773371704697,-55.47519141471518,-63.24536720676978,34.342120668375365,-18.234039983041356,-21.412235548952605,21.358466430558863,28.811025907390892,-6.1520645007186845,43.410847168030344,-48.33679171527498,-48.7318680200603,50.624940894161554,-13.015458145924502,-12.756261114582612,-24.718571856701026,30.30924346717174,-11.196296607341406,-4.075520661263405,19.9691795545605,-5.978522926963144,-1.282070380093644,5.609899078414032,48.19678452754956,28.34627043554023,-23.850878100038987,-46.40382798804378,13.030412349058716,25.171669590605564,-13.321191794516706,22.389269148883287,-19.32305593572902,-6.122249320165984,-41.329135834836634,16.36383279849062,-25.24978204914061,-9.1844481377625,16.228439740238198,-26.13512746123263,59.704057684587184,-33.30092004150239,29.959750198539677,0.911636174932842,47.36751241672397,24.38253610753339,-2.095975126391335,-0.001727144938791253,56.988419928787565,-22.89306138691035,-4.802211068342342,6.254138754997442,-24.36810518141076,32.355798379955,17.90183694816096,-12.716898234401036,-16.87108936500413,-38.154380804665976,35.29838145244381,24.728516969061147,52.31283875305946,25.512460872425237,-16.52295684930082,16.474546399328837,-22.393286266063196,1.4346341531325055,13.675971256929396,4.345260674795613,0.5236698738593109,22.319388297990248,4.357333755638452,23.52753818072005,-19.79341223193485,35.8309031267067,-8.043731923524756,46.26545991143775,4.630707949680546,-8.603222972453322,41.698838941369125,-24.788772533330114,-25.570754303586245,17.809240787532115,-13.918418095079419,-18.03465198455355,-40.226829642981194,7.9359652492346795,-4.602851159369446,-7.23107989033015,-1.1878456236082062,11.477061901601486,18.37184018813974,16.821005640810583,-48.56808775809364,27.02411843946431,37.54108787440306,1.9777205556153583,-58.850218533423124,-13.597074102664884,7.077203621599211,22.475407335703654,-6.157642236967418,0.09690744022599514,7.98698280463226,-10.81649747743797,-9.794343295044053,-20.695361223806213,-24.054526973782018,-10.856581091807353,-47.02313175763774,-15.135089820690963,11.48478233534229,45.45163192832969,4.260228186259449,8.040688922243648,-72.1300136989515,-20.00322325478887,-24.821246863757445,-17.43020930875493,-16.297079293076983,-24.262663373257798,-40.09151039866505,-17.29112625377152,25.166343845717886,-5.8995755143737,-52.095237886581934,-95.85808253723634,-10.206024716411134,-4.2304519331410795,-58.36567497365044,-44.895783921885425],"intercept":-1.5452505386217497}