{"type":"sparse perceptron","classifications":["NEGATIVE","POSITIVE"],"weights":[0.0,-4.734850391524075,-4.734850391524075,0.0,18.428959123416007,8.208665795098826,-52.451904066177775,-1.7705784519437795,22.22125244069532,30.271788600334745,-27.31510372069183,-18.980477045841194,2.794285966499443,26.07871324848675,-28.907275792552625,6.24160642635111,2.393550425959382,-1.8849983562173762,5.991270761164371,1.7255129141613,1.1774252981699955,12.930090957329545,-5.715336133851329,-6.422190874844628,-30.37295583999616,33.073399204053985,1.6111929758087398,-12.637213270191607,-11.503054123183624,21.022003931933455,-21.156106514834235,2.48008372833876,-0.17931231569984413,2.051943977365932,-2.499732709481529,-3.348433703185338,19.711846593617867,-20.939818314514458,5.3936095755948825,9.49799171122437,13.988731384756663,-2.2144368756273134,7.272721506785556,-2.1915965043759384,-8.265613746127238,40.835029816169296,32.0786510555579,20.313800466807884,-37.113623651015274,-6.968764969933144,-5.1383762321417,15.634708604063386,17.967205816071814,19.142808410881585,26.673433723076688,27.48112503422102,-5.974682063618345,-29.308178582788408,-25.659874573606153,-9.597968038742302,-37.345470270765745,15.694598742855478,-36.78596297651188,-40.262415627354294,-29.64141764890999,6.872943443456128,-12.152464958049945,23.10724726033681,25.579207702216554,-19.025951097720665,11.786116067280506,4.874020331961439,-8.088034440285407,32.67852974968018,-6.935149170115064,-9.632872678662975,1.588959802841525,-32.57831859385445,-50.72816149544485,-33.54982842630332,53.66131899468832,-22.192089258453148,-18.490866893364462,-17.70871149588845,23.038966977381072,6.732815138114179,22.809952780740396,43.5237534473841,-4.423327691736661,28.018981828267957,6.7305205119566995,66.13294784824062,6.642056085216518,-7.778724634088501,26.304826718322314,-59.516619316984674,-30.69584568708342,-2.4969330725474133,-8.599649976190923,-22.273351922801684,-13.86461319362232,-30.883889267285905,14.351447771000885,8.672482493799844,-1.3560463403071872,1.4640990530915141,22.271525230029322,-15.320567175190517,-3.800223042920554,2.505214814365454,41.74314243817912,24.801133047648467,-17.977897954123787,23.619279839879603,-19.74580912142952,2.6778796582063906,26.408018995308254,35.54275258727786,57.79211175705677,58.327651600725694,-24.5000609521784,-21.21667939146487,9.641696265200217,30.966379418933354,-17.465790300998336,-43.76554801592172,16.240068744898746,10.781864261512293,-19.638490688538084,-11.435984915128119,33.801279144500924,-4.935658882496553,11.45622862516105,-20.81029498241633,33.93059334046235,12.120693855551215,16.278597495103917,-0.6277249849744193,-23.264505464731386,1.4187051441737935,-15.172174805435,16.10423125248117,-13.244131508253822,-7.8366262347256,-19.27678325291225,38.203377800092674,-22.17107628034171,3.5559608675376855,25.31207355369531,6.524308866364239,20.232517521964237,0.7529918802982304,10.049906213043595,42.604572385934496,5.236628551621173,5.903159224935826,-17.6660408157233,7.035577327392823,37.310732676378365,-2.793751840350004,13.977600134842229,15.908991564080273,2.559018061297971,-5.489055380698129,-55.59432332109216,1.5954040680470878,21.184419136779503,-30.96724536079538,-18.565894340359463,-0.47401359550447364,-4.623490880328795,8.703007763550646,1.7234442916465604,-6.188813049317022,21.90062713559379,-1.1737644820711766,28.31519619938237,26.22880975371475,42.29789960165875,-0.3158571639485469,-49.418153424873104,3.171600451052908,33.40513733905658,6.690719862380437,-27.250661200183377,11.01372505940423,-59.84053652659079,-28.47978192296914,45.375740938831804,-53.171376373795944,-17.55853474227561,-15.824542924744675,-31.18091269618975,-18.184880534942803,-29.06762133638858,-20.139420066261422,-21.82506958565594,20.536117295799333,-24.474276009755382,30.53564942532625,8.514443395753899,53.851882091029445,-0.05773087164575083,40.16507450638081,-20.694001861526917,43.68224704695639,27.560326792210653,-11.662569428270757,29.49395171774483,-27.21595710406789,36.33716315947584,14.121568011863111,21.173076575902808,-19.361295462104838,9.846297006375645,16.21534631967733,-31.43037549480347,-8.555754087329415,-33.11500402535244,27.251608167777807,34.03534471327283,-26.192257128374134,-41.096137911326835,-5.058048920609589,4.250759317111811,3.747479095516792,-30.777128811307136,48.9901088707796,25.447837079285456,-75.80769589418745,-2.523691912178594,-10.949235137318814,-15.581312347745149,-38.47271518939429,-81.04820377490208,-19.06490895887714,-0.3419955547570292,24.62437370353156,19.116763033002567,11.392722832672366,-3.6784098698333265,-57.82865006804676,29.43797259687812,-55.563838211066155,-28.765994506161356,0.5291617270451653,-8.12736607246203,-18.734738909033414,-12.939157130145016,-144.71493438221668,-2.72587758774837,19.976958550752073,-1.0705862198486826,76.92705025009303,45.94672684024688,-5.283624244921957,-2.3825714372118387,13.465498851801268,-9.498579785280407,-8.940216509029113,19.28151635087248,-44.197567660651124,52.91760748861403,-34.404367090263285,-46.85553807109858,16.74401855742204,-55.780611916543194,8.672242542757111,-28.035769316590603,-15.527797985386123,12.912886145635394,3.4112191471173983,-36.81406144027264,49.95049334368425,2.328614354156563,59.45536488710641,11.669888755378677,-12.403568279909361,-41.27014751638866,-3.2451474000163536,-1.3119498408511716,-34.76268265929702,-34.59378374566171,23.262216524689077,16.592675792020643,-4.454390547778779,-44.19946092317486,-13.009447249834679,39.72807422491034,-12.55313723328687,-13.600499006905414,6.030990472798277,29.758941400472164,-42.312661204204275,-17.952706720714517,-44.44657575013575,46.93656993511017,-0.612208615970864,11.74974422549365,16.971610990943287,-37.32359966785081,31.77651146462157,-47.600616060140766,15.432909073342817,0.09025051957384686,-37.034575580431685,-21.14184584669046,8.71801928199786,-26.339430569345254,1.5752012486521787,-23.389680136534807,11.18898159570961,5.89842433922225,33.21576465944543,-23.639339910846086,-14.851944622664972,35.344902863961586,42.991151579934375,12.532973357744991,9.460677669658757,-42.15509217756216,144.07062744875466,52.74432363119716,15.069590391200412,21.994076070717796,20.39072442361069,-39.71613339055665,38.79138800702517,-6.493256556461271,19.78948562326039,33.95073652920267,-9.174825829049448,-2.0584491191971446,-43.19084850141297,19.656377082032375,51.03368849934878,-5.775765837804053,-0.7076137149951522,-93.3407350351972,-10.806347338860578,-38.04277141483895,30.59127248131878,14.47857017085485,27.101432761905745,-1.901228570849576,-48.08298402381243,-8.563615979593033,10.537024077644485,15.788173548478936,25.20896577336616,6.819756035413664,-24.719121428300646,2.430685757771371,4.712847650755324,64.4102427139883,-18.462329648139477,52.54065928527674,-60.63392160252901,35.909478519886406,-14.506825505688882,-34.855271626267864,14.011062523372843,-12.656593954303776,25.26321754791847,-40.42134950632318,-14.093016891273212,21.864054392920835,31.00578732949909,63.33874937732237,32.211075678079155,-41.024239687688755,33.50483001397367,35.568461668672406,-108.32482425713653,-5.617097386476889,2.9725438310534544,31.87277638210594,20.4429518709017,-12.500703070843185,-76.24798342837153,-15.3716233732211,-27.92637804921637,36.228246716395184,-17.899478007780246,-45.55016858731537,-9.028684977793057,6.920810858772261,-30.31962536799533,-9.68294759117267,43.05375434826563,41.40452267977927,-36.44504479894729,9.141076967825894,-18.65187207825827,-81.66046353053429,14.503694920715137,14.27281126604616,-11.97610514568397,19.664047944271164,-35.07932154834573,31.346510281990753,40.61027169975361,-15.075603339655595,-23.630764496309208,100.26450730394069,3.2778687619004887,36.17967478577701,-4.6021421332250405,44.87670308711094,1.2133208437833298,17.80591230002824,3.856926876438399,-8.826652392161375,4.3712195660842985,-26.650935762524366,10.26474771643838,-31.162416044384525,-26.222681685763238,-33.548042708202004,13.103735394674903,-14.062615342511325,12.864250736499498,52.9947818056916,32.231664684520645,-73.68863715741263,35.28657962191736,25.72082386552176,-22.741704127357963,1.9710329625530463,66.34767394797692,-20.392442202204148,-10.050644285233206,-54.96756409004846,-38.94673349786744,-23.017986768422965,24.102295853293437,-47.60202519862965,-108.29591022801519,25.81205718395131,2.121494550312223,32.813954263826936,-38.74387070491285,-2.39377538167851,16.606033436437563,81.70834722187564,31.82619040057634,-24.080963573446212,44.00332921799005,-39.97469603798079,-16.973123807705786,9.858504464033,28.439641025211056,-20.675906366744513,19.16690646188926,11.317775649706249,-16.5371787684951,-8.41920301821735,0.9319008519025906,-28.810813198801476,-43.413539352466984,-22.56881890968063,0.1643697857475925,2.3388315143616945,37.89979465404654,-26.912648363229103,-33.1598001853078,9.067566971558376,14.066645921398552,-10.298857893585646,44.640492654259695,-13.993011759934108,-1.7845150207663538,-44.44768921232846,-43.35350857489299,39.721432656734024,4.009715010472777,-16.3663486076768,6.8978604466770825,40.57371588050995,18.197493594366318,59.39525238138229,-23.238921129216116,-26.09636161237846,39.67281657644834,-13.97535351109186,-20.973395216669086,-16.913827701830385,7.222764455464065,-22.186728751816595,19.437788481195113,12.84355956420645,-9.58131720054082,4.662549267479433,4.629917008387965,28.87119419503068,22.911589204887328,-19.81579781759187,-62.9828983750727,0.7125900963840618,-12.0269119108532,-26.4612061792069,29.677213167281227,-25.594469028075324,-12.548624932707586,-18.759680399224347,10.981589183333199,-7.039441566726379,-30.6494983797446,31.720830798379072,12.692403250614248,52.224276729260815,-5.335287043270034,50.005455935094915,-13.52604015469842,38.17528545085079,33.143534181629434,2.355187078042317,-4.726702946255994,41.357899397314036,2.397639799730191,-12.636054845596354,-5.440389036530074,-20.250533074376253,-0.6062471460766501,9.314864260713227,0.17046204886326816,-28.456231750682893,-58.68945797767545,13.374713624557671,13.505663429450045,52.89656372245935,0.19737607192209697,-30.039499233591528,-7.076215680192379,-26.043081014256142,20.38138251859454,11.633140446005367,4.8225122310972734,0.986166021288654,39.62804064133886,5.8265558905985255,9.72020008329518,-34.261045690756006,44.05653115492682,14.185236761079022,41.766918646263,12.61408422759801,-23.989543427095533,37.531074505315054,-32.98624408658082,-28.206602668281906,1.0073225463050328,0.39683334958023797,-29.799635236631378,-15.82132915141484,11.539211342382961,20.993598044618018,-13.680850859302861,-25.98664571113582,5.666359516711164,2.7939702157224127,25.951195189510234,-49.63321528442968,9.438099557914343,40.96895926014098,7.653656541920121,-53.27482109961593,-8.09465425142922,2.6577925755933616,4.789506807668446,-10.326175942734768,3.2585283088640615,3.501608608200537,-18.84109312177745,-19.657420374679194,-34.2435265694161,-28.10825656773548,9.242279411358533,-40.34382743498889,-7.757291470492463,15.674781244878812,54.329419008806575,19.70643056120209,-23.342530643774868,-52.161359009277604,-19.820377937195882,-35.15752174827797,-4.892504608417904,-23.230156442937265,-10.471199638616921,-46.1886545792497,-37.4039902540394,22.065591050913444,0.5527780274852065,-42.00558219906247,-93.51514537840099,0.08477497605925263,-5.190336425769467,-57.35588555579366,-20.407092677759067,-12.534645601169492,-2.08158260516507,-13.8447726697973,38.48179896729174,-3.6701019444897365,-28.068589232022784,66.59749689427643,-35.36699099021441,-33.270645897285924,-9.628285111696641,-21.657058182892087,3.4126736789235403,42.45202010624888,0.1377516518591926,-37.50689288362131,10.109050589379573,-61.52556795952565,1.6898115411358714,40.62128264912039,-46.766819834105505,-19.65710946001142,13.152729046454148,-28.964703964612738,-1.4187094081466962,5.337265665866548,-29.759013322260678,17.198863417643746,2.0667060939561406,-20.23042826244201,9.260213996911256,-41.21732873719087,13.416661645995749,18.119169822921922,8.787398619944616,-13.98429396039828,38.12736104212781,13.950036684252872,-12.447168806994327,38.29321244642637,25.83763552896873,18.82965383943123,-2.5825123937219985,40.96258732982743,5.421981935390831,-5.431107592930861,-6.546393188799756,27.733649953589815,-55.4377292714807,-13.081226342447652,43.35129542609109,-26.2576232164727,5.290931959708899,-6.491548164819519,2.2172300418736324,8.618667823268137,-7.540021081509319,7.645348537649522,-30.930868124528814,44.07782388158383,-16.975413423087364,23.467105570323078,1.2393330983463198,-35.788547971247084,34.627244021821,-33.22201198534873,-0.3995983645299933,-19.157435899385508,-5.836487698825466,-10.767812009900894,-20.529589433584494,34.02654368913462,22.782591761171993,27.65733665431596,-7.15964042233902,-4.250111514628339,-29.69077940520234,-32.78457871509314,16.661215722600787,9.814577726770436,7.8458363882417474,3.7295126124229716,12.259268382989642,21.451674137284375,-32.43342856051682,-5.612179131470905,-24.660977072942707,-1.8179105147424062,30.365806503619496,43.19327111551855,-2.8803162822827644,-29.27949001033381,-48.74029256016051,71.92439873432434,53.89720019289589,41.69131174096071,31.284751681875317,46.417353266542634,16.61181312426376,-11.261423639661123,14.43102751416293,-7.693117830249851,6.378456303000998,48.774376308820635,-14.480965829309554,10.081655395212964,14.05523254937145,-30.83989724479152,7.726000531414425,-11.450612290737027,44.69765360672169,-9.49800644277468,-30.217524715091866,45.088648801694966,-9.300063093519867,24.876830273878067,34.015393299985526,-2.581453839082446,39.45341658048911,16.35798620059882,-19.694291710120947,38.01499549563592,11.142620989250554,-6.6865199614336825,15.737996353801057,-10.1283979056417,7.114287357027775,30.794153230276205,-11.929490600559568,44.380791768716335,10.475161758231447,-11.182380634941023,31.168164488578036,13.473071050460021,-23.27089345750823,-32.23771615615495,10.154279592792841,3.775620503812067,68.6096027166943,17.76783888877148,-7.06769251160364,-25.134239173977747,5.194403441758423,7.611707732422187,-33.507134689534325,24.03047067805082,-47.12456348775775,-1.747376843839854,-26.27549255541309,7.163986088321607,-12.980816763850973,-8.011480517734329,14.457808029397007,0.8366201463471629,-31.622012925883265,2.1050728845817317,1.0592529869977656,43.13679891189143,41.17291262001191,-22.855702776795592,18.871263137217138,-23.13013978321543,7.369358351068224,-39.20741071047622,-34.402237999388724,9.843752884902864,49.4076989803827,-2.957219727683092,11.567100094744596,43.57726909406695,-10.897482585323122,25.38954295080069,-29.528809244180074,-32.45455303663353,0.7071108339232193,3.4032336273978747,-4.467734366445397,29.812310792894152,31.4413174082908,4.189129421808853,2.089542042467319,-21.257331822396562,-54.76878121375249,31.40089256762354,18.075962547341856,-10.162139486586007,37.358726385207795,17.536178651489223,14.06777744044406,-15.619295289975897,0.7956845218129838,42.10950545435156,1.3098976772316888,10.061183659491569,-21.24672916836911,12.08484834497946,28.730904879715013,-24.23741497851143,-2.1655035545802717,-34.22232877943843,19.298206117968093,2.326809259752975,18.704429777249885,-13.286398951235709,-31.54523291328652,51.26377604483363,-38.02592220396915,-67.57359865955817,-34.44256496784602,-12.780788537198806,-11.652501996382636,1.5056470330149458,6.121342348235493,-31.25678661018365,3.7722062903978304,-15.236748531350521,-39.73845743895978,21.286286168604924,10.595227246538274,25.316170524779942,-6.509946852025432,9.426160303311747,30.82965674145003,-39.47001627176869,3.564635822519446,-10.51724793465627,-8.413395387583368,23.99193872802227,-23.999698069633627,-3.52101782138516,65.47372856239753,-40.51176921515777,-27.23697569057236,-18.393929587935023,30.948312151193896,17.025749141158556,-46.820619705217936,-0.9507079369282547,5.402996596768304,-16.860822506084077,34.762298063524966,-42.01956203906981,37.03093278583582,-18.991771014461243,3.3461488031525346,-16.426215770894565,-4.808144027596862,8.032720618277535,-15.484491214522325,-43.70237401333575,16.642339139514537,9.568978049847455,-22.344690323300647,8.193644352508773,-26.563447345605336,8.496665981343897,8.320056674078613,5.77364015426991,42.67582134273205,-0.45043151806856496,5.724970458930089,8.414138194083193,19.356547833929554,-68.96938802763646,-57.47388038477826,-31.56844400492891,3.9168832127766393,18.524300358673866,46.32518970584511,9.336253280787831,6.812763687031598,-20.934409506409928,4.829807478522722,7.0374621338512355,-49.87234584970403,-14.627446911051182,-1.9717910083645307,28.478671964607994,-15.520050486592519,51.377612666407806,13.497929196906648,1.9781181041070872,-23.009157656599143,-21.180727513422745,21.403336172295674,17.55505415986016,18.83138414632939,0.1451046500416129,-9.73104510520706,-12.596313660203167,-4.963275225008048,9.622219133632248,20.963082518697078,14.281958315883411,28.39877672739388,-44.605145848445105,-19.348282802616293,26.017775577982114,28.704846826699704,-0.3188047092235702,-34.155926174707886,3.520946113859149,1.9000700119604605,-19.852313498605003,12.06635033324366,0.3293427964915311,-6.088830863660553,26.719207673755168,11.263380164647458,31.20133238871369,-13.533111008593469,-1.0136995198630832,7.755057937996248,-35.90058438903419,-39.37613950353056,-29.851139343053507,-15.344488046451863,-23.057933946991717,3.2124121670533006,-34.09148024400661,-28.76484382377506,-5.736066252383804,23.211415324857438,-3.0232098941135925,-15.263578659221675,-5.736066252383804,6.839766088170582,20.951697157862945,2.645308502289876,9.438768876418957,-34.61608334801807,9.331969964002422,21.996652926197815,13.518347488079117,7.451303261103439,-52.72656502222193,22.649127815952575,42.467664787777835,21.38428733632582,-0.7242514831736413,11.108542495113891,20.555585493346747,32.976390267207755,0.5546374230144814,-7.7412907627390455,32.21318117120295,2.534577143370695,14.623104768768938,-17.26729465902939,42.66436453094875,19.46503503503774,27.862032825085205,13.39005401299805,-23.247352047161453,-4.478949363921506,25.627251359411762,23.024458585960495,-34.244382515769594,2.299014872699446,10.712349842023894,-25.004009074070908,26.918476920990816,31.93018621804049,19.630701622753293,-14.911601277474185,-41.18502875901922,16.134027590845722,-2.3361371574751884,-24.788041575493622,-21.276733455203065,-0.20520289865669694,17.808047477189447,13.892598282308604,7.169331464333704,2.3627681539773757,-6.541420243653983,-0.07921068881532595,37.437985557668235,9.302250208778585,-5.660333243233587,37.37545997546725,18.479892388687592,-26.24690633366939,-11.732663878790573,17.75334854906861,28.633551537708367,17.38939597160807,-8.080114870408813,19.730614237018475,-31.11329747223894,-18.56511115701138,17.847618766639403,36.922505319773265,-23.70456374150235,-7.615737857691432,54.990028300084255,-19.706630764206594,-24.693516241775278,-0.7125043392859312,25.37508155488999,-12.758731350882671],"intercept":-4.734850391524075}