{"type":"sparse perceptron","classifications":["NEGATIVE","POSITIVE"],"weights":[0.0,-4.8242510162246806,-4.851550968995761,0.0,35.70635874174531,7.721583034254795,-58.15815011364335,-11.842460923018457,35.053503886277014,20.2163942429984,-21.424917362732884,-0.24169146331651478,10.37760744772319,-3.9266716644672486,-12.067646296362245,-16.600955522139795,2.022305728438173,3.449479956095648,-5.777379629311876,-4.468662593953733,-1.6207414099597357,8.492908824118361,-6.235985033769579,3.4483593179764642,-10.65386988918754,16.84881478268839,3.059033008542911,-4.182254780190895,2.13516778387041,-2.87973309277743,-7.482287839631496,-1.622649231650237,-3.7697041615500524,-7.028346595950394,-1.3506182968326623,4.699208005213203,1.623983892518885,-10.526380946770415,13.231991915377534,-1.6126696721555585,6.91078151625334,-12.730218169012245,10.207547994747785,-13.80144419504526,-2.088317001404954,10.690413716745843,23.455156197954977,16.029041881390075,-10.344994430213157,0.9184169098793145,-7.977475955606172,6.598269511894104,14.42146382425418,19.44866295878925,9.72251195478888,5.958105908004491,1.3781487503693266,-16.85514121553426,-8.748279810076696,-4.971780668575475,-14.528301133643856,25.466231127762214,-24.85633980459572,-27.30549861126756,-10.373166572283314,-0.21854202373617093,-10.914533845184945,17.7371380425093,2.582221899764053,-8.991743095099295,5.24224720824432,10.61250444021118,-4.99707971485995,24.25593114061812,-6.545493552451925,-7.955971343125844,-15.488433613527567,-22.908451375151795,-27.24243593979617,-9.756529377496657,23.6171358022704,-1.792063108406171,3.973308108686441,-11.17327359054455,28.259194818291224,4.951355087331225,18.893327394938584,33.439031263142695,1.97680943401351,16.152954501862776,-2.0094204988030917,38.586026610481596,2.1146749904961495,-13.834702023808532,9.320069820747547,-28.52954203090073,-14.57274679872716,2.5492448279252398,-22.406115379260324,-6.359887565124163,-6.598188247816177,-6.262565660811277,7.074983607499319,8.163813561732987,-10.11989251802239,-0.7394507668294364,10.799635661024595,-10.73757149842929,-3.248192117215973,-1.091249257908946,21.829592756935526,9.160359260442203,-11.701753214718947,18.66927041207807,-16.300038924693705,-2.6518751925509245,16.818869126740495,12.265893677372729,36.18885854460871,25.09363057903984,-7.72972544404504,-22.87170068429996,3.2506437685634966,8.68769460494475,-13.698192390009819,-15.334969887666729,9.830952742617512,1.3294469894548608,-5.754550698225696,-11.830652065080535,13.888639160332513,-1.473365500685906,6.586349242514158,-10.570602184707734,19.031264400496823,16.252946240867146,17.85964941877017,6.517239150468855,-31.126305396904485,-10.002216162835515,-13.824628860175295,3.718221878123669,10.183528576807321,-8.567315607520525,-5.825290343979537,34.64214485318335,-20.420780710303237,-3.8825364636021336,10.256815112794625,3.286628737955768,14.870596909546522,19.363111839260565,24.243971473614245,37.45357896885952,0.6062016172414046,0.9353824517161932,-23.77555612200424,-9.66091076902996,20.36751463682883,1.0633866798167018,26.768690230606126,15.112000776537652,16.50261283484123,2.8683019326604375,-45.94653458686689,-2.8284472752537453,22.032045698627407,-1.5730044948196866,-24.758356211664076,-3.8844212426822793,-8.626972563010979,-7.440616457240044,-1.022129493258296,-11.080430833099726,19.22626904900697,-7.561784658507618,11.996901070728901,11.247279782302204,32.35166570673732,-3.8103166540098394,-35.94846015293317,-14.391772625620982,10.739526266087783,14.383849221346264,-19.026080796389834,11.333108781000472,-46.19318625813435,-7.01216078249769,21.56569236956596,-28.01339696238485,-4.412792929040307,10.28378976665926,-22.155218893282058,-10.273368003466762,-8.699786167979537,-14.942026879446313,-2.628084052769371,19.01180494679746,-18.14599584857176,28.201147199546934,27.85697582509911,47.92865091418559,-19.647038081243153,27.840055191698415,-11.348204405128683,31.50895808741778,13.57542374691573,-24.08977118537525,15.866832249464098,-13.134253343908135,45.943579329121135,14.049017807809905,20.14638943501226,3.742845191762854,28.81455042626895,26.258089204800616,-12.246711177163194,-20.242547940830892,-32.39326368254213,11.672950153028282,1.253552983371103,-12.988873305868495,-24.99116987595634,3.6922747568189793,-0.8989476513347475,5.050657500694648,-9.015137889378725,31.030598458681517,41.39435101744762,-52.20051969100616,3.4684372335947304,-10.066073936101223,4.8226467394617245,-25.64973979165015,-74.97327481330971,0.08829444321653276,-14.755468818575897,24.553707561078575,15.894769902523047,10.964917548808847,-3.3020377136930814,-43.047677866986284,7.95109947988017,-45.872462310158475,-35.37823343706793,-10.13055580770652,1.1080672336764843,-19.087529014747098,0.850437291682151,-127.26375712499524,10.792897517925525,15.694427960102468,5.565742889345795,57.68568974965144,14.524912280058743,-11.879744103363945,-19.75991879339589,2.9187623328056422,-18.55374784830903,9.460532443170889,27.62023199422289,-45.43537008230419,26.909382097809065,-39.2405817710825,-46.240108604934235,14.656443505352307,-33.1041914676446,5.799835860540255,-10.149973063184175,7.64057616365558,3.219814629816459,-23.933549902362703,-20.02927408377282,34.193286852116955,-19.72469478366435,50.817047376231244,24.840060406180104,3.3423948562938834,-30.966169140241742,-4.031721262594432,-29.185770808488968,-12.046032357780616,-3.296086790271269,26.965022964652473,30.32915145865915,-7.053763951040952,-28.27771122414246,-0.9879104544772949,11.774777703748933,-17.330533414509816,-29.904313789458254,16.729285301432547,35.856006672152816,-27.398800856441103,-13.612960385007412,-59.087222188755625,14.781412313192712,-5.962881646612849,3.7230017661317563,-18.297092839099705,-16.005932481484752,27.425061780787725,-39.186644614496025,14.05727373654301,2.8512453833023703,0.7905527512159114,-8.143426059500726,10.24745044867645,-30.67702544960924,-5.722522692032762,2.7716133141384267,0.18222201606971475,18.50305157147894,26.08360665340093,-17.588987825901537,1.1736927157542592,21.67375890162057,0.06056595223472373,7.378713057925992,20.923008706228362,-36.95963544446338,125.34741356177084,36.03616664835318,33.10009677500996,16.42981802810019,22.146631127905305,-42.81294881057091,31.20730997542626,12.814830927830075,25.8517524715793,25.169599657521236,-4.846176776301914,-23.143750419171575,-8.01557377449311,4.200004511391047,26.965085912702495,7.614447467594022,-13.709650119500422,-83.39299745289271,1.0646778543464601,-31.520908949908247,31.80667693108709,25.048357221411706,17.204288905639725,7.595179380995597,-25.903031469148672,18.646291419882253,3.6683784343094463,22.73285665521004,58.41763291728088,-4.62601837414948,-34.57844371452849,3.5729035776681424,1.7261679398644012,66.86059126384244,-6.722993278991312,26.851811333223846,-56.604997206685226,25.324607223188426,3.029679678331861,-30.262959425388125,4.967005158307277,-29.42411198247509,-12.025587107422885,-10.645076247635492,-7.561517573614136,30.60979197382032,3.0572639328851166,48.02418295545955,26.648347214123316,-17.564237098997996,22.15457859009857,35.64332408309943,-110.65882838834207,-8.559987053404614,-6.39815546046499,7.463558523513167,36.27302512474358,-23.22223602733173,-75.27831573564364,-35.356204979341534,-19.135267114144348,52.25642510484417,-32.303693596823784,-29.475988005146984,-3.2304774729450134,4.380400978860219,-17.491507946240684,-2.5538047770216736,35.84882160837876,19.55503198403215,-16.02631723078004,-8.522557259141003,-31.666019600459453,-63.538164090797686,31.04359194355342,-15.614945585750121,-3.1575783372421204,7.258217452528656,-8.31227378422906,6.980124456061354,53.92902060302749,1.2341104378707302,-12.780545962622668,103.1831535115322,8.779580823777854,44.177650256885904,-1.1305921311404927,35.47127898384724,-17.495023042434337,19.43254018593003,28.434215065465064,-5.690853243080212,39.13319829398268,-59.97827541682832,-1.2182486615390844,-17.433270043480185,-19.861076656905443,-17.260086756418993,1.9807786637503149,-14.522619436831764,9.573306843670201,38.341467616284085,16.10192356741056,-45.67561379384122,-18.273237075733498,5.025940248437208,-14.06300821530391,-22.793649303217588,-4.047042677494422,-4.300267027647517,-18.833565912215644,-36.24450884030702,-68.82499076826427,1.0192067942478913,1.2768557563164225,-52.40129857616714,-120.57494976083177,34.80134136031722,31.14801558274233,37.13808015564093,-10.460266532103097,9.204841986870898,6.605421507715471,62.9169925418533,21.664807547186747,-2.084431620679373,23.55506566283416,-45.01701833626096,-6.479619164976544,6.871040717085834,21.66513338264396,-34.58218441030882,1.931690549508228,27.2887277760067,-32.87867797637338,23.40581272290716,-6.367137893595419,-33.26345656970666,-27.376188867183426,-16.830956840634713,-0.20358637711785532,-2.545166923528887,33.5099009202417,-28.109461563166892,-12.831692540436292,28.79506651433638,9.144512951488736,20.70290709216739,34.84181843794637,-26.391581562498683,1.0066207988889,-43.11400618052564,-36.862685701311065,43.58660596086894,-26.411126760666075,-25.92702160939856,9.450835009412275,39.42435811337049,20.79032546676225,68.85035421925268,-27.404135398433617,-56.24881222778323,41.765399035575044,-10.598929407504487,-15.027439990668741,-30.10502504590676,24.97627500969452,-23.099475186882565,23.612196423767628,4.672943591210692,-5.760721996337156,8.613706832276831,-3.4614563152995563,28.597454176765638,15.770750793836855,-7.776135004118983,-55.152993229065196,17.235753074637426,28.83295993738565],"intercept":-4.8242510162246806}