{"type":"sparse perceptron","classifications":["NEGATIVE","POSITIVE"],"weights":[0.0,-4.017328018415156,-4.017328018415156,0.0,18.22409299385529,6.198795821989368,-44.90514521757187,-3.8916686140656003,18.681221281720877,27.720930170618757,-22.38906596007725,-16.083450929017975,6.2392109190764105,15.97746861039424,-20.670399510067792,4.030902361985699,-3.3631399461276694,-3.571178006232411,4.787343671509532,1.5043008176752257,-5.990332724862397,6.945969641046585,5.591322160267431,-2.7385510935507735,-16.710507361727462,27.495018595989684,-5.072886908028169,-9.319632989991707,-7.802675828510312,14.445392701356226,-8.02897140871536,-2.958462103033338,-4.744799158422513,2.0075118723589136,-1.7388167742293459,-4.309487421930465,7.386292917954213,-9.788746259810402,-2.122686186908738,2.330914359483285,4.622295384634662,-2.803187425912125,5.3430952153242774,-4.449875348948369,-0.3412947769552629,25.723049739496286,17.838630575498616,10.937517001642247,-22.080912220164404,-3.1080965699588248,0.9217297942439402,12.69340284766951,12.705066109718778,12.038770331045345,10.766111232097636,15.15202847716605,-0.10814004186175796,-16.001625393143744,-8.92973507214172,-4.665369848666899,-18.618583568337673,8.043021231363632,-21.636968609139284,-23.315331411113885,-17.017807585593918,2.5112025906541726,-3.412772250905812,16.768748632353464,12.093464632962046,-7.838910786002425,5.374772711228403,-3.921417246645757,-5.531274731439207,22.08844853250853,-4.540950352184724,-5.541884847360476,-6.083298401264081,-21.707215905173793,-44.74565203548039,-11.976034837992486,34.9319168370308,-11.635949731490676,-4.913412060793928,-3.478746114621449,12.816775718807762,1.348712364560376,17.544021471486424,42.499857671876995,-7.696876065480065,13.496795902937176,8.06046462833196,40.03765632286412,5.0526042849809745,1.2518228173276826,16.33370664680563,-39.49126228191372,-18.4513451580547,-3.143530747658526,-7.766369893980192,-18.840556475306556,-6.908034794195958,-16.334411739923354,5.665885285025054,3.1235004637776593,0.5602082195755034,-0.060553548805311413,9.817401093397061,-8.982534362346811,0.21061152402812872,2.6145670589923764,30.74233432068554,12.882489231375219,-8.754546324902906,14.330636696868034,-19.29552592540301,2.9871066007541285,17.033996792281172,23.575443581320112,41.72854342434826,40.36382603362752,-25.32849852670365,-19.153903357550455,3.340143803257895,17.841348549196162,-9.31371431553347,-27.97539148709102,12.796286808670162,8.614517368517921,-16.92519576852528,-8.390820528573778,25.252090076064643,3.2653956911882247,11.204515088242646,-11.84945285754946,22.47022173767045,5.0951076280503145,13.239367008235261,2.0027257774429907,-22.89087442625828,-5.415415094633747,-8.477566661689163,8.30010172921548,-12.350735329306769,-4.588733062888204,-15.473518262218507,32.66170071869132,-16.25569887478217,3.9586017464294914,16.45589436452594,3.4986525659163794,15.508104284484553,6.2336047268804,9.420024268671074,29.31957581888948,-0.9670225954844943,6.996986737784638,-18.35858789075752,5.611169664522215,25.585530339328017,-4.331643853745144,8.546412547591911,10.237271894356278,1.3920103913577622,0.8431150511964783,-45.2863733181273,3.916669347982472,22.154678271698714,-26.185058102491947,-15.149991909047102,0.41945508933005116,-0.10900872046311655,3.3949898873223323,0.4872065482663397,-2.304492763146002,14.131877277050604,-2.89606207326754,22.31933353491603,18.09481963129458,33.89943383297906,3.910516400090903,-33.495594300685596,1.6554616054468783,31.599687418131214,9.712732646485055,-20.619605277428654,5.42854016539995,-49.02293785770936,-18.559632140498234,37.50240850057785,-41.09941918029174,-17.204639195309376,-11.869544683520493,-21.41320390817802,-7.761822088079163,-18.729031158267087,-19.230786598259396,-14.64853417020389,15.225792415496562,-19.05635062245812,26.952397973276675,8.205903329227677,43.650202811425025,-0.2365021731636212,37.30252394895127,-19.889855936832298,34.10169153528741,19.946184614500595,-10.862641349911744,20.616249088333735,-16.893748499747993,26.432088623272247,11.85628591288617,17.54913442481512,-10.767184432419896,11.611836337148379,16.191431810669773,-22.334690651469113,-11.627120850991554,-23.761001393346255,20.13555327849279,28.453797062241673,-18.93456352962754,-34.51948567511613,-4.591770787306684,6.202017908212848,4.111385793329635,-21.574877581097137,43.26382565413307,24.391932421278064,-62.39551900504532,-4.931881929351379,-8.342006242189022,-11.18157115515607,-29.10623825653125,-64.52760924406138,-14.030457127107418,2.6858964421199114,18.85341104797642,13.943352047220237,10.35129436696029,-7.037984690629839,-49.68830199021736,23.56303605781452,-42.48049271174426,-29.255858539688873,2.288807309761099,-7.80881146511723,-13.668626417651383,-12.253295244957123,-131.5038856669844,0.1577368764915745,14.274867693638715,2.9390104341132828,67.31469973297614,36.94653606009182,-6.348230481855079,-0.7906160444073274,11.477868423968095,-11.42581175733925,-4.851630182831415,15.710596900183214,-33.93971132795532,43.60782608846827,-28.23344823040195,-35.72703428594999,13.680010060042958,-46.28666692419966,6.923654469171096,-24.12655160006378,-16.476289027583178,7.233870091348501,7.461279579330504,-37.041591601277545,41.00065404104654,1.0792428038254096,51.401511574731686,12.774080430025359,-9.80864305953814,-36.31417612134144,-6.561072228337403,2.6226322187039157,-27.304210748489957,-30.23160657357259,17.12610936474369,11.630189944180037,-4.160491743135472,-36.72944784569895,-9.52815560722468,36.17398544003513,-13.883787905273854,0.39101205738168965,1.0432512788199606,28.805272333255214,-34.77090629782127,-18.898519281413115,-31.957625747093775,36.680650359519916,-3.419010026766168,9.435160862741075,15.920713379972046,-33.78360248440844,21.536958075421015,-41.99794079516927,14.469022875121988,2.482765391093347,-35.521711943454555,-23.1496565653757,10.648900103901878,-18.52116964194012,2.172082286176115,-21.767861319641067,7.7699986172360065,4.3603369329153825,31.18599909863015,-16.17298253132667,-9.86481961680599,32.71442812979384,32.852896418566814,12.780276937913447,8.902344690516765,-32.69135911433764,129.35386629014894,43.068852373446056,10.063759963964936,20.719406828597975,16.680323255538674,-34.74190020626786,33.96507505435329,-3.7737799916768293,17.844703824646448,26.273583829308528,-12.935201381645,-8.27780867589916,-34.36724457701539,14.582549012260849,43.84467804486368,-5.039880121940705,-0.40769891441721934,-86.7133902965591,-8.261395797236215,-33.20462784175442,23.460588249972474,8.61019225463568,20.773072840350085,-0.831172218462594,-44.55565948868496,-7.078784260272369,7.151226385172561,11.999425581646033,22.181572842056035,7.749107299137163,-19.00618398390971,6.043352501121487,4.728907956977367,54.93821565023781,-17.005064269676687,46.10560327677462,-60.70086490157119,30.484703068901673,-12.852356008576715,-30.400149964202807,11.602750289634075,-13.541418226752674,20.555198145842297,-34.42651775666451,-12.722236869791612,20.035046156754795,27.373134379110912,52.300350566559864,27.101419509889446,-33.99732636490727,30.955317797818616,27.831047195972175,-101.96961190745213,-2.6519760483931556,0.5872997762637004,29.038201232253417,16.045709410218464,-12.960879534584565,-68.35658000828411,-14.387305973722437,-21.599658467886965,29.45898206231411,-18.430968278499495,-42.238407043907515,-7.313022881540679,7.6977006573386095,-27.696795667647702,-11.467015894310396,38.165169495029645,34.1706277102348,-32.46756273342963,8.454577304424845,-13.560562837372338,-76.76803178104862,11.30239973594782,14.288381623436884,-9.666469403025728,16.048753604751468,-31.978554134396987,26.670633211336664,35.82033105472178,-14.886041174346884,-20.77258929855341,91.05369968394643,1.8588751998001218,39.246925038478985,2.010870116788112,43.15260164367841,1.4628407874874314,15.292396707301283,1.1736987384844781,-6.879406490948633,5.147910849841815,-24.616003117645946,6.762130189013691,-27.732664317035788,-20.694340083546233,-30.649744045051257,10.397623079953206,-9.720772326832684,7.276470076036783,44.46494498291024,29.189324659083834,-68.55973234359362,30.30719190957673,19.788877221730438,-19.581711019184162,2.30726866651254,58.00752225635051,-18.944336145501882,-6.8655444812346405,-50.2275171089474,-37.304611789590716,-18.77458221678627,21.6345291716149,-42.567598724740684,-99.58403821855569,22.620088655324803,0.9034638838244888,27.48267055122828,-30.978613550978594,-1.9768920879752518,12.929176347672382,73.06396195469809,28.383244119456098,-19.915467385902847,40.80735354870925,-35.793112010353504,-16.26593252937558,10.661561646853052,22.12999738815668,-22.87505041135869,16.139511167991127,11.465355089270096,-13.108207471410193,-7.301769796787751,1.658019477078372,-26.252423251321297,-38.87148210420802,-20.176488900141308,1.1093086738466367,1.8316522464459124,29.99185521496767,-23.63049469263426,-26.527535357086215,6.471684340948205,12.440109499105866,-11.784061811000047,38.16947112369704,-20.801191638409303,-3.0978005615523863,-45.80418342793025,-39.9273342076689,34.23664725121374,4.802050139857245,-17.051386985573806,7.552556903010339,33.80091300437557,15.85384300928308,56.16040313196114,-21.312919432711837,-26.799906232501986,34.728562191454145,-12.991269152481578,-17.70652940145218,-13.12650830372194,3.9777317790535296,-18.044353704440514,13.067056654676005,11.418405578767592,-3.779542021191672,2.657484378231265,6.588756996060659,28.16716809621286,20.738822941069166,-15.485833614079331,-55.41080106623678,0.6671788851327372,-9.719330931357518,-22.02133288358656,26.88458858938747,-19.096512555572577,-11.822707756815044,-19.336616630005327,10.573066502685071,-6.5116022295645735,-25.239308872191863,26.592309545993967,13.260756442449944,47.170355543325144,-3.4684947484794217,46.72132490646982,-10.294948002248976,33.21578126179847,28.816785662804488,3.3106814933905584,-2.828382052559259,37.268520570693944,4.817939134022494,-15.348607190059662,-2.7979697693252352,-12.835304319137023,-0.5039097383277007,10.000965120116222,-0.6456935078853757,-24.63598660745298,-57.33642737202072,13.497097844904436,11.845028159791529,46.78526349660292,0.05253553092573658,-27.008789503436194,-7.546409603740473,-18.727172525256492,16.62843453918846,9.070441358720302,2.82619585493482,-1.1473281624558516,35.25085433481827,5.220442989637861,8.833759702785038,-30.286981254975014,41.03757443403914,14.080011263865686,40.28393401276196,10.362802049006486,-22.066455247359468,32.18436562045412,-31.655113647016506,-28.278598769270026,2.6138184149327226,2.07534530508625,-25.523459182412935,-14.745376409267479,8.698781615962137,22.50558030000882,-12.842543605813116,-23.159079545121187,5.203540760645383,4.313346519874279,25.271732888524863,-44.925782951982775,8.852125442918078,36.82576994876874,8.583747825054541,-45.60349475563409,-5.767934551476828,4.341456000485159,6.066024207119337,-5.837467781136532,4.093186793848278,1.1870704717535892,-15.093674025549092,-17.820233808863133,-28.203115143739897,-26.739257602438872,4.8486067549307865,-39.80310983717049,-5.372930261142801,13.42687619461827,50.6719581298403,18.92701834842379,-22.64553537373644,-46.458726236005134,-17.43912169257144,-31.966055919946417,-3.1426401788310105,-17.837724846278636,-13.505578251717518,-40.457886459272245,-32.681926947867055,21.170135145494697,1.7943023801381799,-43.81523553299308,-88.11018716229944,0.7365689700120832,-5.9805963507658735,-52.07371479388301,-18.847421902044946,-15.075544927697736,-1.1016059875724897,-12.919678285180098,34.96276577938369,-3.776423938268647,-23.291708783808026,64.67140486544463,-35.526581292076905,-31.750924960272478,-8.418257300766967,-23.229206677456673,2.168877611062752,40.9388757468162,-3.010165149730757,-33.54906446147419,8.109563106528066,-60.974666008036195,2.8904860285496947,34.45451115121052,-42.567225295159595,-18.073039171720854,11.925820974582159,-23.600881543606388,0.861216205754243,3.0964614038960567,-27.477620268742434,15.834118257991172,0.7047549298829371,-19.20894476770264,10.12062817215396,-33.823748685640844,11.84293954125925,16.145681732759716,10.031712450503786,-10.023538829061645,35.23185637903468,10.167421522303142,-11.630299966166763,35.57685156659591,27.54398161592373,18.338319666773913,-4.106940543287904,39.96665900366527,7.286220729660544,-4.2635514987975665,-6.198513059382426,25.303717099118863,-54.28769398045357,-10.392979066680352,42.24682992283898,-25.67578973371018,7.389278700962667,-5.085597233390124,5.24143348527561,9.014022540853475,-6.412539030755198,7.170516493897578,-29.183190122498146,38.63279078208917,-13.445970567029082,21.647808048705965,1.7179507344335823,-33.29558210076839,29.275316485630725,-27.853646711928782,0.12637504149459444,-18.046548818750452,-7.337471275840901,-12.327791035554286,-21.70423894734853,29.518515585943323,20.61830166812143,25.46144632437957,-5.3568361582171,-5.325917768188901,-26.00444213916386,-31.128574992335587,16.39765959308843,8.079662924544591,5.654532711492671,3.5916443966944955,9.958994182987558,18.42050266275764,-29.33763383727637,-5.384773578982961,-28.46605008728612,-1.0907813164833327,29.34722700776328,40.28341643548664,-1.9646886271044213,-28.430269496615793,-46.70200455464194,66.09509775287924,55.97326321094634,36.397197022063075,28.23453947535101,39.757699291616355,13.21010700306815,-9.63498575333409,12.371260220008772,-6.883110203310724,8.569688189105134,44.35047561751875,-14.664077000977855,10.108149010066253,12.32632455206502,-30.132342915278105,7.1484073754971895,-4.587801420856928,47.40052618632076,-13.501137148660625,-27.334216778861713,44.0479884081883,-9.737731849314086,22.765528872590487,32.14606761555026,1.0195591524190468,37.049428325857065,17.065034741772344,-16.688688204284116,35.86721967686648,9.849261818033659,-6.610401108193708,15.326070950946558,-9.362967028413163,6.688640592739463,27.898874090969258,-15.999647958197352,42.59225197193629,11.687556061267983,-10.179854941562567,26.496397761662617,9.199749667146767,-20.375699907497545,-29.557567002560784,9.692606457804725,4.806624600620292,64.43195900682163,18.90048607528289,-7.093334098133206,-22.25058027571753,4.912689435498158,7.547605589097154,-32.88379215613239,22.968782260312548,-41.09520836147333,-0.4161560087970171,-22.091241957869173,7.052349644229637,-11.214863755507924,-8.78556387491425,12.518347271169324,0.5133074740798929,-32.41600268266338,1.9550310866551979,1.1387361206415618,41.29849871323292,38.01872419661176,-22.741938786089253,18.618852708474808,-20.833098403482364,3.588053629403438,-37.188961215802934,-31.879371307030816,9.829990447446676,47.934878621596646,-1.0740755465248841,13.462081206337649,40.07766865743433,-13.50913645789098,26.626428773872636,-24.49554278867635,-31.358047389525968,0.7572073165111114,1.2238839379237394,-4.7466593184264045,29.53562694451542,32.60807967145342,5.40018462445061,1.7903789210537286,-20.165789575286908,-49.863978921980916,29.863116151594056,15.045399024009248,-10.743493194952947,35.90578493940882,16.89960793228066,12.662330004020916,-12.890914651089577,-2.559253868197925,40.07988408242472,2.4999625881264893,6.047933072096915,-21.20455704822315,10.246293178108788,27.80391842133935,-26.578750065370468,-3.985712963990953,-33.48866037278534,18.3592043647712,3.5756958457040646,17.70771652371823,-14.38517188239228,-28.849683327907933,47.560633300962245,-36.03813401818484,-65.94280557031465,-33.4731787483208,-10.214122418136427,-10.298897508993313,-0.7781071508253811,4.448957568745726,-29.27316827555265,5.614887568291969,-13.365879789590794,-39.1285463589661,21.31885567144656,12.484338441256623,26.104203219333357,-7.313786427625331,7.205693465448526,28.916516069316437,-36.72707261550407,4.788246499416433,-9.190060636359696,-7.032245702564415,21.671059469690256,-20.95185738975154,-2.876368467201922,59.146786559858796,-37.061065666387464,-27.0565934332587,-17.019173367379597,29.802487478980893,16.37122446104793,-45.54588410071565,-0.3574953346910415,4.770332259149292,-15.47974668780512,31.89969254472548,-37.22791668668246,41.911183946532915,-18.07208558182406,1.9793814383961865,-15.293384076304754,-5.033131661275213,8.979216824920982,-16.7502200972963,-42.895814126269634,16.61691135515646,10.819448615941605,-23.090765156667345,8.463888165948887,-24.186728933840964,6.717821178407682,9.42447842699816,3.1056006037781736,40.41630979188368,-0.41672947798619275,5.069236425692084,5.973289531573365,16.453557496085185,-67.59407516963012,-54.19188987894663,-30.387691004914377,1.8219830370783372,17.88446461736566,45.62792659164839,9.919487927047424,6.625216251470942,-19.120211739312083,7.613488601587634,6.201869427791716,-44.950840050936456,-11.869981930779801,-2.5648648775586977,27.049538275570686,-13.541572689825546,43.3023465240787,12.202397323167054,2.6746004738908438,-22.083849469909648,-20.28448765658875,17.199956640376122,17.673860195426325,18.103257624696127,0.9665502784325286,-9.27914723356876,-14.128547468923143,-4.5324722425832205,9.14277092655662,21.231200664298253,15.005990056940536,27.007957531969197,-44.78920652234108,-18.657202310915864,24.06544108186399,29.152843563934454,-0.6880775644832242,-32.46060624625341,1.2138742582211572,2.013939051024389,-16.7130827421476,9.22595682899091,2.37184002404841,-6.570372201605452,25.36280120151445,9.64472686989366,32.192479304356276,-12.177574417133554,0.5292068483719199,7.041664360401273,-34.69700739071131,-40.55804954169188,-28.98298985265397,-15.320644042493505,-20.082206134988464,4.03189689702805,-32.17163914147326,-29.28461652986542,-5.5816278538365935,21.90238653131295,-1.9022868770350323,-15.822748973310112,-5.711206910572061,6.133219189862529,19.22404383469457,1.6425152358854636,9.540346798718506,-33.04364854628217,6.310900706554686,21.495771471289938,14.017337705778163,9.665682008527227,-47.88976463072485,21.084382581081634,40.54774307243115,20.062705452899557,0.5782092462788111,9.968220801950649,18.073144725166582,30.450581426645652,0.3140160182544552,-7.800508553795383,29.611269689408523,2.2063036640333746,12.291589557876469,-18.61025342237413,40.67515891008875,19.208782549631454,27.013148227222196,11.764153356084206,-22.237146506021922,-7.005849335300552,22.730020509830673,23.142280781062375,-29.90201631401165,2.3049183513853575,12.174126926500376,-23.34622073591387,25.63823614454817,30.0712542764874,16.216711664406777,-16.508304549362126,-39.59908812043621,14.056904525363553,-0.3271180809513429,-22.821655737395037,-19.06076330600043,-1.9076304460670244,18.1459935303097,13.681837113800512,6.172181751284359,1.5251006349346827,-6.800397259318294,0.27293862015488746,36.622642077571975,9.115749997259528,-4.056532944645275,35.094343491313644,18.45304148375205,-24.25617924224678,-13.35485162386253,17.110785404927366,26.29383336031493,16.352807168192488,-7.78661965325635,18.805498941495316,-28.448396734943007,-16.699979681524614,15.908492553396098,36.208087301868716,-23.061832203869145,-5.5503751469160125,51.470105345530094,-17.00241525953232,-26.332400739733256,-1.0963250075639501,25.56129742828043,-11.982060165117316],"intercept":-4.017328018415156}