{"type":"sparse perceptron","classifications":["NEGATIVE","POSITIVE"],"weights":[0.0,-0.44505101297618843,-0.529581152197328,0.0,21.528138973899758,16.064809958088297,-59.25479011071568,-2.2048373582978074,22.1507075916126,26.346972825234808,-19.850150012811206,-10.504475693222467,-7.730865332131124,10.847355036128002,-22.21508999210419,-13.957888341411666,5.0069006193817485,-5.674974316621737,3.7554330054074487,-0.057813671941537303,-5.764280248572747,10.033579020281644,-1.714050104279057,-3.448461218293319,-14.729452963627162,11.056743668575468,0.29622613601563585,-6.196241477665435,-6.517322946499705,4.238912724547612,-13.144858374414394,-0.21386008230223824,-3.4135087646925313,7.312287993902283,-6.415259542725588,9.680236100661292,10.001589365474562,-15.026059879413351,6.47483912322436,-1.910374945393832,9.697757935789113,-9.707695028935817,9.075560855698207,-11.20990290160393,5.825381520453953,27.688393468480967,17.370422977729195,14.942169363288102,-10.623301516222167,-5.157474472736287,-7.340332479809095,1.9085002137910065,10.322113630702498,8.36057538697829,16.097458524641834,19.450030169851523,5.527198532598266,-8.380601292615973,-11.65212875755238,-6.323658030869234,-16.793473298217958,4.263944044251482,-16.642096920914057,-15.323679028906776,-17.316350548974942,2.845313240286104,-7.165785477817663,20.53719998724795,11.669995960757102,-7.780033623140428,2.1112661932683623,6.778372420936445,-3.7335666047145337,15.151479738010838,-5.8769650009146055,-6.356078738624225,-12.356993827031438,-18.576879662408842,-35.503740504655646,-8.94756696581626,34.76878594921682,-11.159730500423446,-4.949929371361027,-7.278772193545131,22.364752706462095,-3.383154218937841,12.34290852763545,30.25520464151292,6.206967693932784,18.720021738242522,1.5548519918498818,38.80364205946498,0.4526088802981679,-6.02046828144227,7.659905947904468,-29.231449930489134,-12.04347564545262,5.368726665790415,-16.185787777430306,-10.532477785573883,2.810423397705197,-14.83235884328606,11.256160721995842,0.79352427984896,-4.675574354098455,-0.03468290851312843,11.604204319466957,-18.08280092711447,0.1672853228164434,-8.4047676344376,23.77432921842013,5.059209730007742,-3.6798120370453673,11.114911663574075,-11.672994159694948,-2.9006258368028144,19.267776191952695,21.809169171582187,32.46092249582668,41.606065508006786,-26.56343908630539,-7.010261727162796,-1.2415361448954376,6.121595410623938,-4.045064166859178,-18.195693143438437,9.561749007859703,2.1077680983970413,-6.909846933118798,5.682108812536861,22.355329952644468,-2.0791736369903107,13.308480102695032,-8.345361967902658,16.379114307198087,14.192137464911331,9.997700473572735,-4.561772265206256,-22.626498956703962,6.93077761633667,-15.133335844019351,4.008038945424287,-5.410213724864408,-15.936972210098624,-2.5147598828886726,26.49300963906073,-4.0653171496315785,1.0582182795608701,9.864382469721976,-10.419953962683973,27.188712572071935,7.291382087365487,-1.8806808321794395,32.454807401457934,-16.222914757157394,12.011429056080113,-14.53255266330568,-5.779175319753809,35.6860092545826,-13.030904324086263,5.886497460243868,23.887115629516373,9.897858806917029,-4.373456822459532,-48.75434940946943,0.6024263347351172,33.478018570913044,-26.775519182567386,-17.387159563765447,-11.989139034099296,-8.131369735350429,-1.7564939107143918,-5.095963460180544,-6.010848234452113,25.39226231483959,-13.444955030770075,17.773809635524955,27.173935592584083,36.71922998801838,-2.8623632436060324,-21.26447939795365,5.725522054952267,22.06780943562229,3.589989702698844,-20.973822569755423,-7.416939646521105,-36.842505361770506,-27.735292765092137,18.776273927095104,-39.65456672576984,-10.770333979103658,-22.990137512344248,-16.01467510157964,-19.777501556974595,-15.736577721323863,-26.073256212583896,-7.046819982130949,11.495505014641118,-20.91605099836997,30.915208932790826,5.6636469863875725,50.98613637287536,-3.1928275312124463,25.412025631240446,-22.350776686021188,30.789050922796733,22.810299408155082,0.40026626754080963,8.509031025802482,-21.017217240736795,34.313057007693025,6.134353216477331,3.342789047969595,-17.006818991991896,13.406014198736377,27.049196287141463,-14.908028907557151,-2.8288320976237564,-24.26092014317994,10.156685947069478,21.044946023001007,-24.497176551578132,-27.075101997606392,-2.033574350179826,7.517995147964554,5.923612823703877,-21.514878641213592,55.55445184846679,26.608033173739543,-56.48023066432075,4.202762283916068,-1.5987591911283492,-10.961892018630088,-31.33687767305227,-66.34057252155169,-7.951710945535037,2.3529542111220945,20.174025087429385,23.85424499905033,2.0630686947402066,-12.16508582972629,-45.83335358458448,3.0578471040935757,-36.02229370817686,-32.99905801962488,-1.060196965865751,0.8025134176827762,-13.676716499452649,-11.803583574943294,-111.28487366446886,1.7086101189062755,22.36466736036167,7.438144819299957,54.59287337191721,25.660666406699814,-0.505807989928095,3.9794787401009315,4.435631630994238,-3.6480501050006313,0.6967431725457041,22.695569461281714,-42.086505661490165,38.2040251217806,-23.288784040176523,-43.26683299722839,14.341957784296923,-30.161636313643527,-2.4777314832809396,-10.411787409231597,-10.675012963284587,13.563061333099856,-6.931429920408827,-34.16551909597723,38.187860640266344,3.2127237245107083,48.44255040850524,12.018652886150617,-28.124170236827414,-39.26053816556218,-20.252547864174446,-17.29164259146108,-15.816551001974508,-14.474294602358267,19.653024318852893,1.6696344630370061,1.1514955481513809,-40.6667086300208,-7.291384774124989,18.722778156689024,-7.113981422104266,4.9899637461702495,4.356028480890585,50.27892219684638,-35.788688372592176,-4.613931024021691,-36.218482411691326,33.518119678693594,5.138097194249099,-6.4793663652530915,14.505131841389039,-14.107645602802103,28.37218073650882,-30.567609107683502,11.351450378069993,-6.17064900376308,-9.33978634911055,-7.114515299156252,17.004140529555464,1.1194369741170704,13.099237532670177,-19.219592362140666,7.542876507554575,-11.318101941337513,38.89026447518093,-8.655474862774167,-15.871099220768738,23.39177669032922,16.189948586038117,8.546632618079784,20.859697549103227,-40.67701724234955,121.37919499959212,36.25319905353062,-0.6370553027502683,18.057594990350175,23.123296770888125,-40.195430816955984,15.891600395057424,-0.12369317535713248,9.511492100101382,19.501348895254104,4.389516257793759,-18.017038078385937,-22.123474573593544,9.763622933957038,23.327488575617092,-12.65309288529669,-5.417032133236439,-83.53498636396019,5.325617125850277,-24.7042716203344,34.462432074942384,11.046170362575973,6.406601945470923,19.38105993966327,-42.363060511471865,-14.87476542021254,2.8478529899642675,17.730130019241386,17.826927462921994,-2.2933149223965854,-6.739204690797317,5.979622693871568,1.6777984937301487,51.94014337766046,-10.748747208445064,38.688001442584664,-68.35063625730595,27.983574099981354,-6.836606955322888,-19.214778689614185,6.311505121771126,-40.97478665351902,6.018216656426468,-31.67600586098377,3.4810496406667877,13.9230344786317,13.805447277163632,62.40120048457551,35.00134139660485,-24.690652961238907,27.484480975049948,26.257117568440492,-101.80777751064299,6.050923479237643,3.9508776469414206,24.118831764403723,29.6777823258858,-11.072708212137796,-78.40280741717687,-19.751621287238198,-16.31354220604799,31.753539881468026,-21.29932794786201,-47.429025620951975,-8.410170384284047,26.636338105840643,-18.48352147238821,-8.590418735597153,17.19967610474762,17.93211748497922,-16.046772302737406,14.329615701951148,5.926171420899799,-53.316020274861586,18.309122067605564,14.181750574071472,-13.306965479566802,11.112577627889607,-11.34360128262772,10.897971268893743,15.295587363845364,-9.065558389188935,-15.29222484438397,94.85472265180755,16.238587611527176,47.1740875220795,5.200072659772698,23.40281122436554,-4.5187508544268535,26.96710779403753,13.950083709091745,-11.113527240991377,24.89946454105443,-36.181757380299814,4.707782739386948,-23.912897618948644,-30.680143615065116,-21.068369728757844,12.351992498766169,-21.773343602491654,11.254389366897511,47.72073053553481,34.41847371424133,-72.35984355794842,-3.8759905720792562,18.97843556300693,-1.9754628176980678,2.6790322054867413,36.0170448996989,-7.675346685726008,-15.844694993504053,-47.368052440891134,-38.19526428038639,-5.137873511170418,5.214278928306862,-37.7103837239644,-97.39542901049977,15.377248645083395,20.845882640453386,27.87147086060961,-13.546969902645788,10.681155448581436,-4.629857081775477,55.65912458070314,30.71386369330897,-14.808091789039212,21.41881036668437,-36.13522992206366,-31.66170675075832,19.523009925408445,14.617711676088662,-25.64491432793558,33.87382445047369,13.944003369227087,-19.68582750671345,17.460078537918587,-5.8845096644662815,-21.45342901318521,-34.069367825773355,-7.409287623659246,-8.550383968922455,-6.592372806449664,26.07227992027099,-16.941305409442027,-22.767813390073115,11.946671976813521,12.209259931374882,-6.650286657558674,38.64173003607299,-29.467549319925812,-9.477927966876884,-50.69968237254559,-64.0553643891575,27.663813224921956,-0.24400668636751757,-23.468639345274536,4.350458073181329,30.891725278207605,3.6544363854728417,37.227698837308914,-39.0806370259422,-27.432085560332713,48.31469736275492,-9.500021455855915,-0.06776730409493188,-27.558807090455364,1.4744805403488643,0.19588960600225275,4.323500066363461,20.083351275693936,-13.204515879994942,-2.650357321452815,-0.14462904959248085,45.96081490622047,40.27934261812829,-27.39695125956812,-40.03719151333887,0.9771809686523575,5.9613153737188505,-20.61511611312684,28.057606125110212,-10.051975419596783,-5.3669680571101255,-22.37169030978398,21.044200981042383,-10.569589926152997,-21.857078309085132,18.744353494638947,-4.014291014858116,53.94679776663119,-12.073147583918507,34.824562282364205,-6.53251363126132,35.45827316458475,37.92518479353077,21.341902334334122,4.383015619713063,50.02315849340333,-8.004020927243793,-21.94614435244492,2.5099827093764353,-13.132704077225744,8.47390992094189,-10.47522560056942,-3.701317051046924,-17.96844973516558,-40.2759582226974,12.11607988459825,13.749790996788805,52.56548740763989,7.994631578567862,-25.037099290175316,2.526889285225512,-19.83549374874526,15.563496350846457,17.783875328541434,14.484624922455241,1.4390339408686377,14.185089497018181,6.942103837078648,24.105478422155908,-19.587696558936948,35.690998149502214,0.3825764028178135,45.602372214680386,23.43718827885062,-3.4081650225782663,40.676228704615724,-18.601057863052375,-28.6445159785838,4.341084087029424,-15.991243045134341,-8.0269652564443,-33.18800329377326,18.63862021494805,22.053188719303403,-5.913467097052148,-23.700949507164886,-1.573966200164585,5.453632627583595,33.000074534907306,-52.00113522476761,25.949378390235157,57.17726698049287,7.345830521232999,-46.02046827418729,-15.083535808864461,0.37246708876303525,7.555465604621361,7.097758399294689,9.848703322775457,-9.647532004132339,-11.585024089253958,-4.724882520637071,-25.191523903658045,-23.27146447655496,-1.5668084428789444,-57.52695772974755,-32.298928925541844,2.827352452353149,45.360818161720495,18.612676950872633,-2.5656367687908714,-65.57924902255687,-7.414577638738193,-36.77202404384337,-13.821937638967544,-14.001469440918617,-11.545610653515187,-40.008611362216826,-38.293723438753396,26.69076042436328,12.49849452941144,-45.61814668443188,-85.41365203149294,5.814232635921463,-10.763903560171137,-50.4271820682017,-15.217395804393384,-14.06294488389995,-10.234973107496623,-28.370047789505936,27.585437589538707,-2.293094294658722,-28.394170967857505,70.97944110895251,-32.804118163053865,-30.524960545262832,-13.803948509589874,-0.6779366366870387,20.96542106024707,21.820054172590332,-13.278256058845338,-37.77300456113476,6.912521464699998,-59.17556489490756,3.7416839673499767,37.23608313285567,-40.62040125934108,-9.206016220749174,9.631384665323331,-6.764707208014653,4.437588028901943,2.5121901078044324,-28.041005043918595,5.841904512160982,6.5573311262830645,-20.206084209368996,0.8945452608604857,-41.06910809756289,9.73662051221256,7.891931316616965,5.567782268307314,-3.5127038743013412,35.18609079429203,27.4474112856218,-18.874766764549996,32.33530980604733,10.461310253651954,36.209086788141825,-0.1808027755002315,25.557823264490754,-3.274024129104034,-18.323831049587717,8.32080551466949,31.64548345784024,-40.87253445538994,-7.936751526470906,8.59237953357561,-16.76334676030682,-5.236657977234996,11.60986752362355,6.824926457328414,37.77685430705754,-8.146107689449508,-5.485546655082459,-20.6853168492256,38.77597297322174,1.122923671152949,10.824645011525199,6.37755088343153,-38.58145901737001,42.82522272800351,-28.48699132833846,-18.14840166492897,-13.042113761848798,-23.148263763813933,0.13532107358217627,-18.529999254536392,23.85448211091089,23.978725669915463,23.777820706364306,-8.509082282465158,-9.974358111715514,-33.945205673732005,-34.48235878834726,12.814152524566508,29.06993890377615,16.49205436482921,-4.057833016414877,24.459060957862032,10.49016851808982,-19.45457117869601,-22.431489260458424,-40.13824218922566,-13.244305414062305,5.889075232619547,52.48699646583001,1.2536071956307764,-18.324294045412568,-47.48912003358093,59.41278614850067,43.38040979751514,48.42623247433804,27.20551288989131,46.482525766344644,18.20084890172081,-8.598209632290443,3.261987856197557,-8.846557239004499,-2.3021547517168925,42.809665851907724,-0.018947371530900606,-9.96904740966791,-7.062505935938942,-34.57203121513893,3.1999643313482085,4.061286377886419,40.090846841035024,-20.310499325917473,-10.126530997930203,48.44581428013054,4.572833732145446,30.792878534920263,28.639030891062717,3.444585309599873,41.35442507464365,32.92440225115561,-32.1091067446308,18.506062624006145,10.996333118037539,18.36738258302747,25.48475060281866,-9.513545233169635,19.174757065690887,25.611188897472875,4.356099444181174,35.21007611391115,-5.161958893449604,0.5567351559058944,26.530409247438065,-9.531525539500123,-30.772584717828437,-21.86818785069247,17.7429872679695,6.848469525454299,61.638869816894584,21.476783120940368,-15.925705969781076,-3.0886874695088986,3.9917472253972526,-14.258473013401856,-12.53774798512656,36.639598676103006,-54.05191532672568,4.906056677711121,-34.197416623237906,5.951060176086828,-7.046181733094621,8.47042510309645,-2.571930349375685,1.320018707451209,-52.2704139774473,9.831154251203987,8.60604398429,53.08029185198806,35.98510471904799,-25.414150500970138,19.425857133423698,-8.903692850090373,1.720237769462068,-16.66593836128967,-28.36002723342398,27.036167235637475,38.954615092998424,3.8880640289626713,3.594286480562185,39.76597875687202,-13.678014765680626,31.505971656670837,-39.20844280642277,-48.84636913979473,-2.1426843068813533,-12.012677865722432,-9.6293673426583,23.261887144849705,39.01733939324343,29.739830436356474,8.353010684800601,-20.814973789566046,-25.175304205273452,18.985895652576808,13.306527907262138,-4.156481959865137,46.66457501294181,17.640960667355433,29.22403629799132,-18.775977153883332,16.81305988393315,38.409574536213,-1.8625596044105783,11.567618253795333,-23.086406827109403,15.132466697241346,44.52109265820575,-23.079386218416246,1.0474504237322841,-42.531212979144975,0.8996208025311416],"intercept":-0.44505101297618843}