{"type":"sparse perceptron","classifications":["NEGATIVE","POSITIVE"],"weights":[0.0,-0.07935785125000452,-0.07935785125000452,0.0,-0.11663152621513831,0.1447141781692059,-0.14364267001833253,-0.051352762108784575,-0.042022414884176615,0.2527942866533643,0.16899184378237547,0.18148472213786615,-0.07996803757726459,0.029335607926983004,-0.031653699372258995,0.04223347167668736,0.06707467774339139,0.2852878838622828,0.0007410111143961416,-0.04536376206145906,-0.08585058663179976,0.1325924636117098,-0.05873395700246308,0.062387634844890655,-0.11241191852333494,0.1500024032431246,0.07671823865862443,-0.005582222424432012,0.007842129609273312,0.03774133034960517,-0.036641030447983516,0.23315744679734052,0.07411846685559312,0.13992666764736042,0.026428162665218507,0.05307061465626192,0.04816163921806805,0.11770649303577634,-0.11953520320202791,-0.1627864613994279,-0.037707998946093974,0.10569065383920094,-0.28428724727920845,-0.13959740896838513,0.25362735023265365,0.1872442589702326,0.33413248002036955,0.06637909480445835,-0.08661901918777985,-0.21754617943408835,-0.26952410266722965,0.1662589455718693,0.16782917855937374,0.1996800874609948,0.10589398497171837,0.21872193163576922,-0.1028058595955806,-0.18106804522081626,0.405318792084528,0.03062606128517685,-0.1123850042402201,-0.09066441112970319,0.02962637519656705,0.0840608765284032,-0.0345291704223671,-0.03294804786967162,-0.02398388675513785,0.03426923945457437,-0.43555410166370667,-0.024014322460923953,0.05558407258481558,-0.22367348496990352,-0.07227099800910289,0.2375369321065917,0.024624713521524472,-0.05745235207949896,-0.020146524303230155,0.1531522695645631,-0.48084143995320566,-0.2546108605323299,0.29501345732996875,0.1316070063358656,0.22814798169823453,-0.09096036121722448,0.015683010719742926,-0.0020488822011631817,0.14107600959823424,0.29078485132746434,0.2190019935369847,0.06834265230769664,0.08528904973069455,-0.03083805993326713,-0.13772803190118443,0.16113505066573325,-0.25271952709123946,0.03628956121414478,-0.1706318806718172,0.13555944697886324,-0.053888439433138154,-0.2682922910069122,0.24142718381744072,-0.23458928804030027,0.29315304097671874,-0.0025261925261300423,-0.020452579800707485,-0.07732113773417584,-0.05026349791191054,-0.19654560494425816,0.07463307840483882,-0.0012219568398770565,0.12701472851169893,-0.002599528082426465,0.04044823567483778,-0.021932705547999483,-0.36893376471125716,0.047178518471759245,-0.4352960727131343,0.01746001982881201,-0.0733005842023221,0.11511756746152749,-0.04712153221385504,-0.2012214155445476,-0.15703469256655447,-0.14348285936294586,0.005627518342134968,-0.16037130485517204,0.052276588366274565,-0.06086152560250845,-0.22180821885600732,0.020745440628885406,-0.23655135702303515,0.19981317687109051,0.1553141837215936,-0.09707146439867367,-0.12313151482717828,-0.1583511566718425,-0.1477205119002848,0.08200912745766309,-0.04407431496509323,-0.04183293134326692,-0.22739569282899635,-0.06614494064998248,-0.1671079887853439,-0.30568044575694137,0.04180279292746675,0.127055539673011,0.18386150523609218,0.03432388844634377,0.29282292593841036,0.044259705643053704,0.058312331275320206,0.376065269143529,0.013977615154196241,0.16526465508713983,0.09678144825979215,0.0883817948212575,0.024030601986476403,-0.13173885085115988,-0.010142021897394979,0.16727243774432915,-0.01805891503294479,0.01823459024226399,0.1394214938832826,-0.2138012232441773,-0.2734870530047639,0.2006642830415995,0.07213365296368125,0.11910912898638985,-0.1841528234902788,-0.09775222583508622,0.073179228802503,-0.04463086464230004,-0.047651147515186724,0.11065693925127827,0.05991192286261057,0.05298643638434385,0.2589425592636158,-0.0024791383466024434,0.15964992788290833,-0.1335035725243207,0.14058520721753515,-0.1921289725896125,0.44992768430351976,0.09104585441565885,0.07700052840192724,0.008677713887962481,0.04664853443865264,-0.1661389188300508,0.0421634964072195,0.1029375362969783,-0.06560043215706717,-0.23193912433761846,0.11422251133602643,-0.23579649354126575,0.06084736565256134,0.04673805596736362,-0.1796755160906207,0.07030592469364734,0.021360942999596337,0.2648974486666932,0.30591362305705994,0.033474609862620935,-0.23066628377674203,-0.03247758527580608,-0.43223779301702214,0.08425561687098322,-0.27740433226340866,-0.0487937066445584,-0.04233252661597393,0.03928784226622001,0.2804122195266515,0.3089174760113602,-0.06303081738155358,-0.17188702064999295,-0.06465815501266986,0.18424730781720192,0.2614006995753343,0.16576553889991516,-0.12039857413456675,-0.4456103781408991,0.02033870103252145,-0.098335914491554,0.060737012865421894,0.41190916803013633,0.06450000226976324,0.06887052845857591,-0.035740647638695014,-0.0245174617782457,0.3058942261133147,-0.19756935741085851,-0.5252410777164551,-0.13470064273687765,0.09399402621729269,0.0007095391645537269,-0.07039245361195488,0.24520286406512642,0.017459668611030592,0.1307863687319456,-0.22941758794013303,0.2689687946620712,-0.13697300794527395,-0.24236330616376095,0.3301935367211858,0.06260418519490289,-0.019325985439296055,0.1203249745436575,0.24273958349154431,0.02596129227673575,-0.10186242328800976,-0.7106463774603612,-0.08643274031871073,-0.03763504882513882,-0.043309683056845585,0.3734174872210191,-0.08916516241264594,-0.06062258447038946,0.1732747612506429,-0.00212010370012097,-0.2326598996077437,0.20472745979458656,-0.03434106712484239,0.2506293020431724,0.1814743262922599,0.2561320934587799,0.02437981675265131,-0.29354161002995527,-0.13702710357429781,-0.13332315531105376,0.13727923152830113,-0.12695027607857154,0.07545236876291404,0.20902900593881923,-0.09003821346383123,0.059147329339290095,-0.4682810630260503,-0.04576883055934515,0.07034938402185038,0.03611667801915688,-0.26643618147212084,0.06778914527360339,0.14110629749888381,0.13004954196146676,0.012202562193381322,0.04609819135352222,-0.07338983173326852,-0.01191872079126793,0.3125613852799265,0.24842071852346823,0.41040308734251985,0.09480770485861327,-0.19118053217106373,0.17478890349444903,0.20216212637992753,-0.08465323784077923,-0.09251649220968211,0.04592088073327391,-0.02808558208335109,0.3416998139670811,0.19310698840232912,0.2614599071678468],"intercept":-0.07935785125000452}