{"type":"sparse perceptron","classifications":["NEGATIVE","POSITIVE"],"weights":[0.0,-3.7047588883961398,-3.7047588883961398,0.0,18.233254401957332,6.54792261638507,-44.27510195093823,-2.904855483393425,19.81819174922403,25.987842806393928,-20.2231683069719,-15.73099700576925,4.881125586770748,14.796835528538026,-21.66583557296512,4.494051775487149,-3.0485597648748524,-3.6994190392189177,2.043387559348461,1.9562285593219964,-3.548791275450904,8.249709873886328,6.251623175722669,-1.773160315782184,-16.96355129944224,24.881278618118188,-1.8581020447480623,-10.343885004283742,-5.5839801443084145,13.747698282594632,-8.59696765590175,-1.9940919409494955,-4.945551597599415,-0.22743968009696552,-2.135226210230083,-1.5751948877548547,5.529010028821926,-9.171597789466169,-3.254709603555243,-0.6882850927398733,5.372198042456362,-1.2816375846920975,6.387488609649854,-2.983268535058369,-1.6071867821645989,24.753538905639477,19.659164268156896,14.141680270105569,-22.865085701697538,-3.1793150882426446,-1.476031952085194,10.575250111693538,13.822939623984404,15.494575189064594,13.499238415885102,14.258341683274264,2.062322097219272,-15.836761666852764,-9.123123672544438,-5.035095596315136,-19.62111396593468,7.532474774810132,-23.34850885366596,-19.425290161387256,-15.697389450330153,1.8677307423932086,-3.2648511084241245,12.47474531200999,10.016925915509969,-6.567437488695846,6.90568776220913,-0.7479331537917091,-4.5946787278820285,20.16786863209573,-3.510733843351533,-4.045602142293342,-7.967653040234117,-17.824470713018734,-41.598174573320215,-14.731801122376922,31.953676981402804,-11.231050817001263,-7.179094601604334,-2.5313553244393,13.83581128143317,2.306331445677379,14.22773552840106,40.13860025977118,-5.381576407261403,13.301769195919249,4.301921189990336,40.52887535454754,5.35196184176638,0.9514052751614435,18.95413120534971,-38.00157102410104,-16.5523408445668,-4.181796182948328,-3.426093785109784,-21.756443652335584,-6.271206176059466,-19.144605557338178,5.588956870810729,-0.1681362498425918,-0.0006604659269762309,1.6046047701073372,8.597457773706179,-5.926515745788319,-2.895942900909641,0.9605347466626664,34.817101559375,9.487585996113834,-9.91399663451717,15.298998312046031,-19.62228888633411,1.9078425237328749,14.721346638478325,24.28988525901466,43.201945728800645,40.127603343921045,-25.337844001961344,-16.764287287389394,3.7940036548330047,17.165957974950274,-9.291366506633967,-24.349329143412234,10.216925521023395,9.523650078622563,-14.49259146188953,-9.280394081089412,25.592163763025717,2.546351963455048,11.037659235952628,-11.729582394884513,24.372000716273917,4.9096420141769235,11.693005133286666,1.3485619215849425,-19.643464997796954,-5.006185362974946,-9.804221324266095,8.79873614593023,-11.822954308812177,-2.6874645625855367,-16.439531148649188,30.46024952488235,-15.873934141331468,2.6661699140546116,18.7076015148822,4.001557766022175,13.062870261031346,5.123233918158566,7.81511283796007,28.594959277837003,-0.9886511303893588,7.676613101036408,-19.32705825494608,3.927349990000807,24.632201847612524,-3.097437478321697,10.770590150841242,9.554446715721783,3.181918519238216,-1.6922988790275286,-46.598992782773635,3.034329596765753,21.552602845276024,-24.86346278173172,-13.988910717634113,2.566580013389064,0.4928549900419102,4.429690288253534,-0.2609536145749972,-3.9278406528164496,14.392760916447715,-6.736493363976419,25.376522430196097,17.77900117385623,31.164144818659985,4.482143910386683,-33.60609446731547,-0.1668607183934272,27.923141794829963,9.014543127490203,-16.931896299096543,6.927021607602837,-48.02522565435699,-17.570723019871963,37.4944701235534,-40.60289019785527,-16.023267780496038,-8.240523519186151,-21.116099326105797,-9.325030701882127,-19.186507047518994,-17.755939115591467,-14.182252352227186,14.55890238734685,-21.713154163874318,31.185597481485686,5.704055854202302,42.49323561118948,-0.07699287990028013,37.57313476235851,-19.444199866356307,32.33930307763421,19.552718450940365,-9.836889255673562,19.977990967604786,-16.816000281389826,25.639317953032315,8.60855865177984,18.099415380210502,-12.172295771663363,11.95322037856379,15.64184094573186,-22.010474522821724,-11.729284676967298,-26.309596107255256,19.839112603039617,27.547808349627672,-21.84568963029013,-33.918511659234746,-5.8104237971644235,6.435870290224075,6.954376747540271,-20.682456048452458,42.41460146586905,23.031002560850915,-61.625405284270364,-5.735282475216967,-7.400179084377786,-10.31335226901647,-27.431684468665026,-65.63848655111615,-13.931150876748914,0.9474245097441405,18.989257230106382,14.372098727016837,7.256796022345364,-5.400429408750357,-49.64625876297528,23.42164234277625,-41.83771488976125,-27.38202696343162,1.5981460258670934,-4.942446840459986,-11.578381185389418,-13.581215300947829,-130.27345869659385,-0.6628949458330402,14.089893998743833,1.1770087672593417,67.57548104524612,35.96894683511955,-5.048770765303109,-2.6799912500731753,12.082439299765662,-9.722028245179619,-6.5899513680981405,16.350240760232513,-31.86726670495148,45.086993504774256,-28.67878041040358,-38.011851464631995,15.17752961784215,-45.54025555135575,7.666911267732328,-24.784966633478653,-12.827535222496575,7.931233422682327,4.73640139684263,-32.67067812896667,41.15963380582477,1.3572511858674925,50.826950944037804,13.593057028904038,-8.24686195819289,-35.57449530963993,-7.044209372807673,1.1840533475479273,-24.628502106280397,-30.458423183440587,17.35789634784666,8.771520639413792,-2.6844623536486023,-38.00148346467409,-9.414589210212704,33.784452935741335,-12.738736850162189,-3.6523138957190358,2.373031251320006,28.068660803371852,-34.50277081710398,-18.815091131536384,-32.26390807743452,36.318019954177224,-2.864933590847288,8.263669880880052,15.016983177855925,-34.28606260182729,22.6396134407822,-40.22199527000762,15.028605585136816,0.5150802556945211,-35.586841700556505,-21.03248399617622,9.1434637972741,-19.375170892443055,0.7098454257715083,-21.405654289097402,6.7790463675333825,2.8320299701161993,31.54021847626361,-16.10661485572802,-7.382516619297643,31.36077043713454,29.690649014812895,14.594858806282042,6.787074052770131,-29.579745721747315,128.39318373904902,42.111241060180454,9.309683503613766,22.544756870821654,16.181501129621115,-34.92854421300241,34.31485545784316,-3.3375765030234197,16.303207517307477,27.557246348257916,-11.118019681978478,-6.910956980821675,-35.6054444384199,16.57594237608107,43.1354217933734,-4.873069935876369,-1.2925825106422573,-85.9189063548374,-7.332784537759967,-35.43809489833745,24.545060451687394,10.808676057066204,21.885758718301084,0.2869833187360032,-44.64103303768973,-5.905185364476058,6.549201350889119,10.780715484554037,23.448087731551027,7.107766515725369,-16.867247061717276,6.121840399015313,5.2077809379291455,55.53918180254999,-15.72453679729945,43.110324056351494,-57.154703004649285,28.70966143277048,-11.961293793028492,-29.17325803522109,11.724179599144314,-13.296700811518662,20.47938093977267,-34.461006859243525,-15.825229199546364,21.818874181066068,28.721132818921905,52.43679410242433,27.17789661022896,-33.91501831448078,29.78336542771866,28.249093668312167,-102.70595639037101,-4.301784474914657,3.2914162559177575,28.313542340158573,15.71198325695409,-11.356402982177512,-67.51861610727114,-15.918202817118,-25.066874054224954,29.9466765508694,-16.91816529282037,-40.86851556039839,-9.588193931463632,6.7299882114105465,-23.78176885597914,-13.356809664493271,38.40848450336449,35.86388824412444,-32.40928865408538,7.969326874210264,-12.433500086906975,-75.06051687144914,8.297911609533296,12.159450292856118,-9.971894830918485,16.970456564711302,-30.739167067466184,26.653268545771756,34.960833979007695,-15.6209367435642,-19.03316297930311,90.55082767707644,1.4323926681672035,38.22288292912712,-0.8356346810995335,41.8528713556548,3.777959662387097,16.35035048494356,2.5546789869204902,-8.8651551518613,5.4359268418913365,-22.941511020181686,7.414395149596813,-27.72937384262806,-19.440032462861716,-28.822445396078866,10.449312276436697,-10.767928184145257,9.096568173596065,45.54583372531722,29.495746341457142,-66.77418738245231,31.086365755939628,20.97649108251111,-19.700186728559945,2.634324740235179,58.304404886112465,-18.053839347234053,-4.329803848218125,-49.93253260485316,-35.99158609186598,-20.682972591967925,21.154756287357955,-41.73940140872898,-101.14547220541192,24.432723894900032,0.252146967706242,26.9941803631949,-30.166977330082986,-3.182034169177241,14.180331758500479,73.19416803362535,28.32432605492127,-18.85729969091042,39.29070358417097,-36.775325001190595,-15.083425847438837,10.47413506960685,21.026089725859467,-21.792045247456123,15.29012650644934,9.911475663078592,-12.845471117012313,-8.81610224103175,2.9555214229219318,-27.972783573375914,-39.452107490697436,-20.156804607903343,0.777230386959324,2.2093276865198046,30.15533155440616,-23.98315518008976,-25.551387357048736,7.762402277836714,13.71361278389185,-13.029406912692329,39.819434407012665,-18.553515595943704,-1.419574461982991,-42.97416792322845,-38.51927733050582,35.05868425371638,3.7935570793818103,-18.46353778144228,8.849096143570469,33.76599119740004,17.466763559650047,55.37596646545657,-20.655773853751647,-25.120851611999107,35.17413253518053,-12.439619295013221,-18.995470768111662,-11.876048785819336,4.1639378672422,-17.92743163402399,12.541400011729092,11.155792663784714,-3.485760064352811,3.1076246490282484,3.855131671379441,28.720712707252655,20.092719932558758,-15.769224310884576,-55.02174536005301,-0.2198963568164773,-9.197812840711807,-23.744058607229686,25.659739030292315,-20.056816251388238,-10.546963288007857,-17.514956578164888,11.507750428565005,-5.419373429320089,-26.23009105513629,26.986063293130105,12.45404387943797,46.45668501265344,-3.0669638125329017,47.17198115444745,-11.928920805479205,35.894981317745646,28.682506418441342,5.277307050453751,-3.5128906431186286,38.026079658219416,4.587896617735276,-13.056403526706411,-1.402844855245423,-12.745350722720861,-0.226689785809999,10.186944595843006,-0.8502595429933055,-23.479188074067963,-55.84147143424712,13.486603091549442,11.949228240464553,47.46495416354841,0.692097234727298,-27.59951671795069,-6.2568595173731785,-17.57484104173814,18.566524365123904,9.244117221732786,1.6182249532961637,-0.7985498875330747,34.689896655502196,5.405661714293885,8.760796655380334,-29.659809722391973,40.70411039308675,13.041008005422276,42.544162204792435,11.401806776492053,-21.809167107173987,32.094754330178475,-29.12050754582378,-26.744466099591993,0.3563788878513642,2.2624309604970545,-25.399023258193374,-14.042535382439397,12.675130336884072,20.981570705821923,-12.821647444869983,-22.956486743070837,3.547524280457983,3.552088712607034,24.79760808813581,-43.41304822209039,8.180289093482266,37.92091472243767,9.372151881442107,-45.20974709338849,-5.415890652047882,4.204128655547355,7.472298936234261,-5.1849920620167715,4.290825947338143,0.028723892631692782,-15.069884733425718,-15.795234813733888,-31.014620153577386,-25.764847857185273,4.6991264914698165,-40.46188315698507,-4.686217605992731,11.846500537211398,49.336845402679124,18.272266293396253,-23.002257037852154,-47.282058746456734,-17.913733613212013,-31.61507287837912,-3.446369068635287,-17.94841050929398,-13.050342474544541,-41.3429150652101,-33.92047782182365,18.26576352808747,1.4549651230466676,-40.82470173572202,-86.70140898940147,-1.1039527606880328,-6.082322526324046,-51.5190923947879,-18.63467310693289,-13.80081879151017,-1.969716577827543,-14.465237186333018,36.136432324291036,-5.415767923717337,-25.395102608624075,64.38793401409579,-35.36015076479933,-31.705421239391033,-8.284397941303853,-23.53297662296655,1.8963851725450114,39.60804721938491,-2.437189927396364,-33.88598611411613,8.263015134919632,-59.34562293933146,1.1667942588233928,35.83762648405253,-41.69779820172657,-17.50219587124915,12.708866984816435,-23.26981106613917,1.7499514478022455,3.8359593957267135,-26.704549250208707,15.38178223810501,-0.16188084774581674,-18.708800719798628,10.215019138606202,-35.84184095883146,13.774232403065913,15.579189116426617,8.735290180562203,-11.690759743460726,34.51602428669379,10.25467498384213,-11.64677208930303,35.569595196586484,27.66119195623119,19.529614414592544,-3.5431571899492225,39.14387071075177,7.116725058781651,-5.431195833417702,-6.400099343690133,23.821802128230743,-54.204682667885116,-9.836313280931915,42.46884286239908,-25.638663660416324,6.19061650591659,-4.501980264658868,6.0054262642555,9.19154514987642,-7.366664117427975,7.39005345584478,-27.682729574515285,39.14195584049265,-15.71103484664492,21.510105633713625,2.935890701774873,-34.15255433245809,30.025179700793736,-28.652879240273396,1.22472805534332,-19.150144073189225,-7.138197010336195,-12.203061898118577,-22.07032498551752,30.196419542035876,20.867149142510886,25.535654591928505,-6.0738112788237455,-5.768257145551811,-25.716546119211838,-31.178817846071247,16.258011500915124,7.89684830506628,6.767079740207496,4.19334847647201,11.324199832761492,17.60623234717729,-28.80093227193837,-6.187997049863661,-29.41041700497478,-2.5587915615772987,27.33148038094554,40.77422038299365,-1.57780067791919,-28.97523839086375,-45.83534628689332,64.64380366993029,55.47459003010415,37.938559836759836,29.215322498658274,40.741996074418715,13.957105172116265,-9.679523411240975,12.45034506542411,-7.000944486711249,7.518740958492795,42.979049061870136,-12.281426707044707,10.262846085774937,10.787261380349182,-29.336620321943816,6.8803300537210745,-5.191738505716816,47.36186554921964,-11.11090936388344,-27.494406203753904,41.849402269851,-10.633389063631691,21.089226356801387,30.64251324843781,1.2456849822816611,37.084319659641984,17.403752766446825,-16.469565304553782,36.180120098797616,9.127508458824709,-6.298385973729964,15.073547515906377,-8.979962117119454,6.610343654840559,27.21809570030317,-16.364678813406467,42.36155801726811,12.245386282656566,-9.76992802859656,28.31190001979709,9.103894908482697,-19.852985479110778,-28.7733881414197,8.988026992102647,5.627462164750975,65.32261210465303,18.844601547490512,-6.032116503625029,-22.110867157813363,5.642316034099802,8.791591989057965,-31.748065848300545,24.538697587976376,-41.01876799147936,-0.6009159955450504,-24.043091758194333,6.453910343948379,-11.577098304873044,-8.95631990981121,12.392559349654825,-0.253861388147022,-31.96296955276463,1.446621220831443,0.44879123206729693,39.448492589766026,37.92057689860979,-22.793520161389143,17.586831676984076,-21.03136199150561,5.884634260210571,-35.82621861081771,-30.432344002256364,9.026744642174323,48.17074996227697,-2.2349724312552577,13.2504448481469,40.09751193461384,-12.785408425228976,26.22082709502307,-24.90301296365047,-29.893630022620012,1.0459826465339033,2.85874813946914,-4.524350727594364,29.81744594088227,31.17393203537553,3.5441595677510644,2.0337229224340834,-20.79932517371294,-52.65377648127643,30.260174913169678,14.439183623960586,-10.083649910322643,34.77728142612237,17.048215833304695,13.650862243875856,-13.696865594799897,-2.579133733751082,39.1289019898152,2.562159750215361,6.580900938745284,-20.21840084314344,11.216028348131282,29.970433670018757,-23.991378795841513,-5.038737278537332,-32.97304679825548,18.689993308295456,2.9278759707159265,16.91278087566524,-12.434684232480915,-27.021684850051045,46.72277716334233,-35.71499170831531,-64.54577357878745,-32.20688007873632,-10.834387358392563,-10.151284702039066,0.34950850430435043,5.203785037497955,-28.511860968992533,5.239771348473526,-13.923728792034385,-39.09544036691373,21.625423978760107,11.820191676788122,25.262565712773096,-6.906434153254306,7.275272591435489,29.94293133742443,-35.87199362454995,4.41192252732352,-9.269590587770248,-7.596569010978344,22.85727349441882,-21.556918168478298,-1.5327309256077646,59.66221080328977,-37.9395876055578,-24.77959304636132,-16.739576709245874,29.052618886831084,15.93434941677641,-45.61553620158398,-0.8642681316000503,4.626781034110787,-15.501257782889983,31.330939244611887,-36.846469397923386,39.833240239207484,-17.899735742050268,3.5945837730244508,-15.502421761491348,-3.1421132545069317,8.546705689737946,-14.247759604306417,-42.837955307853065,16.654390094750518,8.433253306589815,-22.501828547801445,7.347914660187404,-24.49137198781858,7.318095741126143,9.168696112039074,4.5264103030610885,41.84560353076199,0.1591862784849012,4.954887116527279,6.683802575863149,17.276499274404173,-67.47688107090774,-53.66153790581193,-29.11267059769642,2.5662401226852807,17.61373161574883,44.1307472775532,7.544510075267304,6.263366005219208,-16.714794644578195,7.024049063068794,6.615764025897843,-47.907383875134656,-10.82720543220188,-3.8739103854280197,27.1954358690775,-14.77332527727981,44.37055773711737,14.320108208280057,1.0994123608041464,-22.48061538771959,-20.640031019062164,16.502920517756436,18.479794945516083,17.461137974926444,1.5450874018677738,-9.148546766140445,-12.789936035973865,-4.601809305822751,9.15737775129686,19.948793104644047,13.944122098624566,27.029874208145618,-44.71914936527578,-19.236598563211153,24.702848162475306,28.815481790317335,0.6351840926003687,-32.03158033924767,2.3243495475563356,2.683248462895225,-15.228459851970873,10.239873826655915,1.7424069915446851,-6.214816560514497,26.106077222171752,11.232749649380262,30.806968324866688,-11.336670041976909,-0.7594742311545418,7.024647944620145,-34.78867953089016,-40.524781287273605,-28.838177691365168,-15.53607425469474,-21.03778460510236,3.9707057509858092,-32.210755104047784,-28.32096620216501,-3.8205092572841943,22.03152383928336,-2.030758628268644,-16.036134331514052,-3.6998878156167234,5.8004252861473535,19.057492111706853,1.8133372431246617,9.006456417330313,-32.49183173306824,7.1013416357604475,22.095994976769543,14.746828454404914,9.890399932977997,-48.64950227117056,21.93575450173292,39.50686535251933,20.816983864091238,1.2718393639355354,9.650882809845156,19.282052949908195,30.356528321754535,-0.8494703981825868,-8.659792363532256,30.031120009226928,3.3257999657487027,11.634450496924272,-17.70589602826157,40.72019567329022,18.75679108603764,26.118472134561355,11.88656412282424,-20.688135948119783,-7.434788936762598,24.041363389235993,21.67922057747563,-32.653547735762686,2.6326104216548636,12.184907143488603,-23.666342162546222,26.558048567772772,28.49762344271799,17.22740989108872,-15.175177456770651,-39.625975160315825,15.867021222849054,-0.9782502693289764,-24.50500871301184,-19.34540288043531,-1.2989463189751211,18.456734145687562,14.007074466233764,5.466195572308138,1.3244372938508158,-6.814275453606949,0.25888111611219733,36.07270715912729,9.170414711599294,-5.163727417781399,35.767455304878666,18.157790854627013,-23.3622542572619,-13.874285579570206,17.65971073007965,26.352746667571225,16.28421181875419,-8.886135460564589,18.069000273646846,-28.07063372691422,-15.397052283776887,16.256095330595908,34.95128714687261,-22.23101092028323,-5.20203715970318,52.4947917514469,-16.88192896996054,-25.490951319168293,-2.610712341244481,24.501845186483607,-12.072049426734615],"intercept":-3.7047588883961398}