{"type":"sparse perceptron","classifications":["NEGATIVE","POSITIVE"],"weights":[0.0,-6.390031578796005,-6.390031578796005,0.0,17.275771676763842,4.923497806524599,-52.079427228298094,-3.92754171823666,19.582015565638685,25.610782550109825,-22.62439472340438,-20.131512943329735,-1.5049326054473555,19.173096868125256,-28.91256088341387,5.457628988625636,2.1790972361126233,-4.963794659210754,1.9156060439633982,2.159041849297351,0.2994015724387627,11.18706772990714,-6.100574902964973,-5.109597707884464,-24.732170571185737,31.36300345051717,-5.705901268045326,-10.278499660074067,-10.728021472086889,21.49927548941448,-17.843956059862798,0.14881485551524515,-3.775282591134185,1.666912488074294,-1.4748358657388305,-3.2153641589630335,17.688697941317972,-18.99030710191812,4.123881772931123,6.6704381763457805,9.570700798221957,-2.2454599941451714,8.285173689629106,-5.419144595947723,-3.032094853884237,38.562249794178484,28.323994145082505,17.52260951055794,-32.15627263488402,-7.342353104685257,-1.2439807792286566,16.059809848032405,17.34492905281943,21.06659646726031,19.094944435061837,23.465060259753496,-8.18821153954498,-21.480149493435448,-21.167233242953177,-8.347734102569653,-31.369869553575782,9.146241712653344,-32.327710870902195,-35.23352005441202,-26.406810207670834,6.244232156164929,-7.190484555154858,19.481475532817566,20.774179851896406,-16.741512801050327,9.891129937606777,7.686638679693775,-10.835819201408027,28.467755860831,-4.680330775867037,-8.916197574802675,-0.4534998413230519,-29.153029047656812,-42.16391253463257,-29.132351506572142,44.74177394795034,-17.39190899536637,-14.054515728382073,-13.323766810197373,18.85982769430727,5.056298384368707,19.621564342948837,38.61580913316112,-6.313383916193388,24.625906656286034,8.323806402626767,60.70749212495922,5.558700319610847,-5.227166929236953,22.792526510930404,-55.69200612256296,-25.654098483842297,-2.7236784007106296,-7.089681871469806,-22.793039500885108,-10.689104924712774,-28.57404830929074,11.7245564414927,8.791853995665376,-0.32543518530575,2.73111638608434,18.13864440464571,-14.279916425367416,-2.504084979479211,5.769723810991897,39.97391531322156,16.93763125337407,-16.113073338629484,21.941947451931014,-16.19665719574934,3.1962325069727133,24.880093725326773,33.217860338405615,51.752936200550515,53.39764758871492,-21.333062226710084,-19.960123116280233,12.4235864504393,27.558390272699203,-14.197965345040021,-37.8112415002729,15.46528323583732,11.576013020350468,-17.494188708100243,-9.382231020139326,34.57008977618403,-3.4698709255845532,9.22872923645228,-18.166393028343034,31.057076370916306,10.699110004809304,13.875906251169704,-0.7235900263745173,-23.25032598768684,-2.6100141055232693,-13.791605939059362,13.444573811293356,-12.013093974318345,-7.723182353117791,-16.120969943010255,35.94047664929013,-20.828953293197078,4.976332405878913,21.906095252524647,3.0119565303589453,17.18588934238484,1.652684922613263,8.573098444631986,36.66721115637964,3.7795921169638147,5.797491330621847,-16.30444164290979,2.379144362413993,34.680714042341975,-3.6751800621815596,14.867339222436811,14.05932756695133,1.9101375524765023,-5.069200400822999,-52.82644140593998,2.849358849226154,21.384341870430518,-28.672071611741256,-18.29518843901352,-4.020332159181007,-3.386595144267976,2.557431300796834,1.605797914702501,-5.0692626691627085,19.910804465912484,-2.677168161483862,28.471775767106948,24.477444419334248,40.02838833827663,-1.9214740869136633,-45.595253373501826,4.5797978894482725,32.38900994659942,5.6607192547345075,-23.10228362839551,9.498921322359104,-55.6833913190354,-25.957160803927003,42.347749336772246,-50.12034994534022,-18.30084949626043,-15.469537656364045,-29.505789407456724,-14.162229488835772,-24.546022406421297,-19.267001284235935,-19.442270854707647,20.684447524785877,-20.55647560282764,30.88676585549409,7.464160580987014,51.09094903133696,0.22935758141150048,39.53052500601639,-19.560111862252214,40.51040535718222,25.666237128134266,-11.065175102361216,25.464520758672457,-25.201252163835047,33.68788318359782,12.625839215179859,19.76835318057705,-17.239647049292916,9.818227672146861,15.597082502971798,-27.63067939149893,-9.456358803851519,-30.20059452911596,21.96709711724718,35.182583288300926,-24.044971798350403,-39.15423243144693,-4.27911884986728,5.3731848150802675,1.7035936462949501,-27.09150061337501,47.97941878202849,22.281000691416175,-70.97676380454543,-3.9999092317364755,-9.048950303066764,-13.074183465876214,-33.92736054888642,-76.00524393498317,-19.918506231916123,0.9053792465920286,25.348212226198093,19.375462425833877,8.992807131674473,-1.6605059753186193,-57.078236651685856,28.16515538767514,-51.78370066505268,-29.251562661206343,-2.240057779174762,-9.496822055805657,-16.114734502573114,-14.561822214780841,-139.534196894882,-2.2241547595954088,17.43647056412027,-0.7085443220073004,73.66747934290673,43.940343323243056,-4.769839104540769,-1.3865384799812186,13.315893483983587,-9.869603220745791,-8.926320012005501,21.895263091017497,-43.08443502004679,51.139425736992074,-32.22743329255721,-44.4880869477584,16.990368345442572,-53.1202036572544,8.062812273326076,-28.17168735694502,-15.29897373766621,13.416118060520956,3.907934469734232,-36.207605869259496,48.711261198257475,1.0605987182914165,56.56190575892698,11.413147475560441,-12.75483437163333,-38.340745506553716,-4.518276915496016,-2.2183679892156025,-32.473287999539025,-32.82536043381636,20.875357576906037,15.96412994618283,-1.821400335869399,-42.073010783702934,-13.754778581571268,38.34820383810438,-13.430313796729473,-10.818683162532983,5.541500406709089,29.126976287523423,-39.39479086310223,-18.12083381623223,-41.52967864581952,44.14346877012975,-0.6468849558351703,12.097163184644643,17.19272828915367,-36.4133165246308,28.779707206850283,-46.34036325669423,16.830997862231865,1.3385219443738998,-34.31415830181733,-18.711275933277257,6.8327167160744695,-24.821953965611822,1.7167832963865197,-22.78575560693002,10.091989512785341,6.3826517961578695,32.96388086324195,-21.33598346416902,-14.723311789087763,34.43965948163994,39.49800098763275,12.517484133022156,9.827944203915106,-37.60472056794187,137.89389155430155,50.588861889779444,12.918565045982493,21.48790887224236,19.645155608262513,-37.6962720417058,38.314940557866585,-5.5167395629108436,20.026876705198713,32.58160636594367,-8.425347204018012,-1.9225971591647137,-40.53067673652523,18.85649869607089,48.51026904549069,-5.6501145871549365,-0.208170884640539,-91.4436778335234,-9.648933025589125,-37.52114670564504,27.566979815446714,13.998849231701099,26.246139217670187,-2.408197134750163,-45.92079386231319,-9.435757242502937,10.426841856473166,14.77861857899087,24.56054135349335,5.057830037067512,-22.840789158964544,4.442435257891401,5.098469048108131,61.13530831445256,-17.175562455767974,49.673271035552496,-59.745158140138884,31.359179346979097,-13.776893297786602,-33.98652198411802,14.020389831739337,-13.156294890835394,23.505195924228634,-37.65581914111437,-13.706565870675421,21.131606833437186,31.009237524121144,60.80591402010969,30.570589929723017,-38.99957648820479,33.755828206456655,36.043944334708065,-105.14907838233002,-5.474976719596093,-0.06179626969575401,29.712668207281375,19.55579822265477,-12.244072672251217,-74.6503829426522,-16.112723016560132,-27.705098510630517,35.063357602327635,-16.12177750539703,-43.42727696853798,-11.543913043614706,5.927447920593163,-28.41706269622933,-9.696805621002127,40.416080693285444,38.00345946278844,-36.06479599186441,9.525799735331939,-18.410416495625032,-81.3971904096168,13.634425024825463,15.0302999887662,-11.85300507440329,20.28410741018272,-34.81112214582233,30.07551246514677,38.44005490726655,-16.199006606519607,-22.734176066974612,97.74673368101296,1.8765777541308046,36.16737573244577,-4.722618424640342,44.73729802738719,0.5889648863318303,16.661732678930914,3.995932928556169,-12.486174815248708,5.142467127352287,-24.136001435050655,10.894896117405736,-31.028149771091172,-24.0797544193009,-32.665458688309286,12.595601020560736,-12.192975861573077,11.083252053785554,51.509478783448166,32.764115852725745,-71.80778534171328,34.40854493509061,25.211908759057557,-22.724992733789964,2.7108823236634403,65.1197740763763,-18.742913799088296,-10.41469276046072,-53.950985776598635,-38.309717245542636,-22.888516944195683,24.47912643391643,-46.966614939939106,-106.14686685615281,24.80491797436201,1.8809106548736791,30.176616631032328,-38.119363972768745,-2.647616269902579,16.8626083068724,80.45169375676099,30.196408104047496,-23.218272974532347,42.22286594172186,-39.228110436160705,-16.593106029095857,7.8178280384540235,25.911412057820232,-20.682819946023752,17.91951568690303,11.57806398191679,-16.550812553420677,-9.313111660460251,0.4432220323437654,-30.061603814649345,-42.39279279560773,-23.184727828434212,0.17035040321952438,2.957463374519387,35.0026115860266,-26.407332143063936,-32.668827437367895,9.59787153376309,13.82615577521305,-10.944233248072251,44.161926912711316,-14.497504217335935,-1.2668543274686384,-43.664461430252295,-42.75954708425533,37.185387250985876,3.880680948741706,-15.244291531451944,7.542380019085774,37.17019223004427,18.57565843637074,56.12480815101261,-22.48153782319816,-24.960125770063684,38.03153245831769,-13.845668105033623,-19.444523594730732,-16.532543964035607,5.965395262321106,-22.433050809548693,17.92529253171127,12.352557368353832,-6.816925771407943,5.055637679500307,6.016931788894278,28.734746619015635,23.025995074390746,-21.23257255591865,-60.70306144477745,-0.17491655950384336,-11.92721741283024,-26.70571901316001,28.286689577957148,-24.074849807130512,-11.05126032556156,-20.405065368432442,10.336254834649452,-6.546976346344425,-29.797504783967923,30.353264784107836,13.71105303896632,49.565970308065616,-4.067025822902495,48.743854516769396,-12.89914457567657,34.90104145095919,31.38691475321714,1.8595682114329437,-4.22874253889469,40.08406863778406,2.6418728261888047,-13.341480665999407,-4.172329138603483,-18.118337708103166,-1.3688516418606462,8.553664588858293,-0.0841828986047262,-25.69491069699134,-55.275758377118876,12.223388118247092,12.898817235821852,51.50759037485202,-0.6985162367971187,-27.389997907261783,-6.584111819085997,-22.91360395712432,20.348662572626484,10.508245681840782,4.450607911889272,-1.046866996302811,37.852661163769746,6.728629861897223,9.32704385367464,-33.37294732882673,40.99263160385414,15.078111318412988,41.791129062054125,11.598728725815905,-24.271405515458763,35.89901291312264,-32.72898946881379,-28.589416401019022,2.8996667438778037,0.013138218692265752,-29.425195146661306,-16.06669107433893,9.518421780594526,21.894727700983864,-14.049241870777111,-25.360265312433356,5.280459642828464,4.321194295145924,25.3137269802972,-49.01835584813612,9.312514025562526,40.32203986440426,7.619366198841687,-51.859869762517796,-7.588222048520989,3.6583432239013325,5.305748092249304,-10.34166264450904,3.866040361282331,2.482892085286028,-19.11895123433448,-18.65703112182151,-33.3731883710105,-26.595309108461084,8.984966695584818,-40.349631069014734,-7.135888474836345,16.051774744008434,54.07509280456964,18.92966458006447,-22.22682209279833,-50.26897507363126,-19.16521128461302,-33.26461777220571,-4.760753456712524,-22.3361963261547,-10.454209513888136,-43.91321796722737,-36.51014584826855,21.189752178500616,0.9370515632893323,-41.776213070357926,-91.8811178544771,-1.3219895714899805,-5.570604598285941,-55.84510573596233,-19.776854649996576,-11.410891495887087,-2.45644361974781,-12.477375519389344,37.59460356852859,-3.6636596828904033,-27.28928507644234,65.84945341187736,-35.26610723336166,-32.87873428495401,-8.886529907064705,-22.670307192700765,3.9136342195851976,42.317991949723826,-0.12211296713186467,-35.86982438685122,11.113352912797078,-59.632613378818164,2.428534847397531,39.877137304152825,-46.784021627062145,-18.764796458820047,13.149697416614037,-27.73598729699505,-0.8952357398822065,4.064506440481277,-29.52230809151153,16.6830296505457,0.5276388142147358,-19.877891788166295,10.150308960026692,-39.43926230184428,14.184671849063639,17.004129504687796,7.742993871106334,-12.739379657481136,36.62487541318949,13.33093414227007,-12.938975396752484,38.05622080308665,25.0778577113188,19.104320842420435,-3.0585761611173385,40.07898664213291,6.676168040894542,-5.931186562907001,-6.297094435315948,26.21378604192258,-54.040492670621695,-12.452045288573004,42.95553629975688,-26.137876059347814,4.031285493185484,-6.8826151817669405,2.8367083467540266,7.464714912924375,-7.024212016544809,7.386931277463872,-29.78901296997434,42.45863714817844,-17.481809401374413,22.3525795760072,0.605127438797193,-35.914354939299336,32.60335530539786,-32.32374136948556,-0.4079942880609177,-19.017810080338105,-6.34182708326764,-10.384167848958677,-21.03497664489203,32.145585833380785,22.39014122710394,26.150712996848945,-7.531610938002416,-4.641131939360179,-29.788813795815248,-32.63242037071797,16.781492668906036,9.701207154971504,7.831806562491766,4.747611963300003,10.756970477309117,20.578898884639603,-31.161429106896172,-4.592268292245812,-26.177975946532523,-1.067527190393689,30.760268356514068,43.176606385527634,-3.011413952703821,-31.04448095366643,-49.01008014156621,70.17958568224175,52.13968627614282,41.43163416811495,29.658673543232368,44.8989307125378,15.351288999636784,-10.519100704068824,13.67549724597527,-7.932309511500942,5.11712461928168,47.77317344448569,-14.10807971758338,10.225947137703933,12.285608512495129,-30.8460591950124,6.460370524425973,-9.936744073172942,45.44620668005782,-8.612437252937331,-29.710120451801476,43.699156933815736,-7.523344275119059,23.613206168143172,32.63318428475337,-1.951571643587522,37.69053766503707,15.982707621264963,-19.930947068908655,37.6393136579708,10.776957680023898,-7.444748341997273,16.222766057167835,-10.389602592227718,6.878976741978542,29.272537460134945,-11.642624437551918,44.37354537053249,11.741286731085106,-10.422070481039793,30.166710139922948,13.21292708136524,-21.362410239052807,-30.467801880992802,10.026355639985685,5.673522417277111,66.5948111326713,18.032778304226298,-6.453389866580318,-23.496323298796554,5.44719275177838,6.970783203594179,-32.48909700060647,24.43404691525065,-45.356238583492456,-1.7608277950229765,-26.524393887347774,5.763779889926916,-12.59654656133703,-8.512432746184938,14.20172999702981,0.08088609515203113,-30.728894383110624,2.3600643823413243,1.2108484592649529,43.51185474620768,41.164955692780296,-22.479220259405263,17.119231772388428,-23.625172803184906,6.610713842674537,-38.700654326849715,-34.0116088121213,10.225298702293694,48.90648783889652,-2.06403347537231,11.806482008289356,44.07443985283958,-11.647360804853655,26.150898396491844,-27.774161195567338,-32.041372931851356,0.9606287251271437,3.2882284613534773,-4.331173364110155,28.288995187088787,29.413269442659125,4.170104621933646,2.2087336955348187,-20.744828569987313,-53.89988847768746,30.240756689133704,16.42811591620038,-9.273156827340772,37.72867329436915,16.906694970087205,13.185349060352271,-14.341775154306115,0.4254238846844116,41.08780370218214,1.9428447036288432,9.311070859552464,-21.006229038975295,11.83079237879542,28.48312366951201,-24.735276115506775,-3.433751075707862,-34.352746552139074,19.901519379021142,2.1999195504190148,18.79706200377728,-13.026317851706171,-30.924109623967695,50.12517539551601,-38.14398026859022,-66.95371012081934,-35.0597509861492,-11.390662644370666,-11.656855230671917,1.2619224956709512,4.864356439626582,-31.5201674383607,2.751600014840422,-14.746310640720235,-39.61252045454445,20.79746028602264,11.358749173263169,23.78933130811083,-6.629437518832414,8.914037112207476,30.075218710943545,-38.09090788102729,2.4245818059678923,-10.38753668099414,-8.27263579091275,23.362270711927305,-23.757080713137345,-3.62871390637938,64.5930175485003,-40.12576372330568,-27.502876894715715,-18.27184771200477,30.181264671692457,16.896389249870264,-46.04638732861164,-0.9472918500363026,4.499580010484784,-16.73282033823674,34.12415672864248,-42.276631536680505,37.16270441491519,-19.492698954492514,2.9560373243216302,-15.923935156953084,-4.810164488312918,7.1499143505507075,-15.985828059672759,-44.33365040934008,16.656790400767726,10.191971984272813,-22.75122372388357,7.181732400511209,-25.683406990571985,8.122805331609875,8.075013826374517,5.911522991207482,42.28716135198689,-0.6838522873561045,5.976276440212154,7.919697809442372,19.008861321533065,-68.84653812369784,-56.70504778989747,-31.943251156001963,3.7854462776624276,18.916814943296536,46.052457990166936,9.193841194885376,6.566964930841107,-19.798980580862498,5.4480564788363095,7.419788298034191,-50.258224286760054,-14.76175183307535,-0.9607255957640761,28.9864130915178,-16.391429726839114,51.24181915507733,14.000296838740521,0.9459493273597704,-23.129326493390195,-21.301511257700128,20.776349639249,18.809332060583134,18.82616713435683,-0.5918625807404583,-8.840386659475481,-12.497199417124627,-5.486709781758322,8.467515317860645,20.837336012345546,14.289687975471791,28.510391762655438,-42.96537597105942,-18.0850621953023,26.1502736127132,27.952732047847963,0.19596462574464518,-33.91129504217186,3.5055507569551807,3.6377031186377757,-18.577446494092044,11.170864705575973,-0.18598506154769567,-6.35514735695489,26.08237616060905,11.151223429892788,31.568703658844854,-13.664947368601478,-0.8683265520506837,8.013626351816571,-36.0216414232524,-39.75786914131193,-29.472731408487288,-14.215836889953989,-23.298168984035637,3.1029063611702643,-32.84598402535862,-29.28455713281298,-4.738370686931902,22.33712938657622,-2.7787061873699987,-15.01799503399671,-4.738370686931902,6.594737299080698,21.44644135819983,2.865040045533138,9.321493196675046,-34.604038974918424,8.324574984242659,22.247385739075423,14.161272729907978,7.187882968638727,-51.58960534606707,22.281812477292146,41.717343481792575,20.233858370997307,-0.7274716872617064,10.364238494993268,20.941819720962965,32.72130366609576,0.1711643520186396,-7.10577355749651,31.580682029650628,2.5200096911121754,12.991045691492918,-17.418664750202765,42.79166490008175,19.07547712994367,26.464064162162927,13.254310575323885,-23.618295263885443,-5.126846560050925,26.128220761467585,23.15869303110154,-33.243566605106004,2.0522984934245643,10.963352371992551,-24.257212512406387,26.414453963283226,30.40510786661743,18.746090867616346,-14.671018937455928,-40.428939407943794,15.86127591025996,-2.0710675270928256,-25.046627384872483,-22.41808418767412,-0.0869651302718435,16.425864894823757,14.027150612450756,7.80105145636579,3.371436209251804,-6.52837405294432,0.4445944599792141,36.16582563287667,10.567803723055569,-5.656516468649469,36.24026936579418,18.87213115625802,-26.13390819973679,-12.734403002411586,19.015633544518874,28.64094725124939,16.359072486108563,-7.185431040872524,20.013073153910955,-29.105492700594507,-17.910717312305866,17.480301676134165,35.91784340863335,-22.70418679797833,-7.361851384069497,54.74918572086286,-18.822890034899373,-24.427616455347867,-0.9715343685026667,25.49215068504013,-13.020186647706035],"intercept":-6.390031578796005}