{"type":"sparse perceptron","classifications":["NEGATIVE","POSITIVE"],"weights":[0.0,-4.358261545181272,-4.358261545181272,0.0,18.40284600275334,6.111931769014581,-44.210706955989174,0.7667029722407922,18.950986036889717,24.28554489250592,-17.620262654444176,-16.314368099146293,5.556140290611,15.081273927814953,-19.335817079857403,5.808453370748012,3.6399026195008797,-3.9098667702145793,4.828985698070405,0.4024189138000778,1.8102921890820722,6.779542788410806,2.5132116896808765,-1.9178046832826061,-15.115859830960558,24.948102043066882,-3.4205984980770134,-11.830695095060722,-4.846533512868789,11.940591831628634,-4.727355936698931,-3.344538753415481,-0.5444368406320661,1.356520517337651,-6.11845890812547,-4.1975893574335705,10.68182742772034,-10.654592662862656,-2.0223660531779197,4.582873954689217,7.748608662888425,-6.061430114044446,7.7732301317869625,0.8095044122545522,2.360824360332469,21.356790681004274,17.13781277735623,8.023509069734802,-18.83462713617257,-1.4261913613180903,3.792219328254135,12.309109743592455,12.994810641299857,9.181229538158156,9.779808337753765,4.024511690112327,2.7268322930718853,-5.061534184522797,-6.240861038901274,-6.376838720367646,-12.111613622013913,4.337023561282169,-18.971403220523126,-17.33255910594424,-12.695681645738409,-0.9746893570986549,-1.6695004178630302,11.089395718841628,5.528277101263196,-7.841778569137568,1.3695723994415068,-2.013618348406425,-5.599633777044784,13.470948211146691,-1.815672058416296,-5.44579748964385,-5.048640078785008,-15.076701195062027,-25.493887349359703,-14.10976850293848,28.15817602112673,-8.983230595893735,-11.853657625713536,-7.21156481600599,15.901153183009196,-2.4737470201427088,11.419772627312003,23.450620399920766,-3.114426239012821,15.407060637263069,5.195602570170133,36.500507339186015,9.642224125144187,2.770781934012277,12.7942971369665,-33.779439415288415,-14.855369048991209,2.2533018086539633,-6.760521162869969,-20.591717334105308,-3.2977649448830806,-10.844559624977997,5.589073761890634,1.8283737992282356,-4.549211846200343,-1.7241991494251387,4.645224143356852,-8.54421006887848,-1.8115617218590752,1.5367022734293625,26.51783557932295,6.54298961490562,-10.337348166253065,12.968093594458765,-11.23555233629578,1.427579175508196,19.34397621197637,23.461261313146533,29.401128013689988,31.883003728609303,-22.97463561589595,-15.550713206170421,4.771389718861948,17.246061843037545,-8.584779550737242,-19.862652275926834,13.216249722766365,6.972997892794026,-10.734843355526685,-4.743458136250201,18.361220998946735,0.3040667765153013,8.11715425569195,-9.239574132251743,19.958833752320185,6.467063696776619,12.156946771806126,-1.5686889662300925,-17.34489221055537,0.4896984804818046,-9.747090956331421,3.4672291860982534,-3.8000865929288112,-3.3157086611628017,-7.72385406004885,28.108111166276938,-13.927503972624567,2.2274930602355845,15.170375985280138,5.914654895149898,12.756996413863723,3.187088944239558,9.832459955996192,23.416134123655862,0.757114958862144,9.727787168887012,-19.66560659977086,4.177941489114798,22.136595797926912,-1.5337804409327025,9.777520584605652,11.156024641074575,0.9441850549132931,-2.757596868594377,-36.138684632928715,5.533553762722547,19.980159565993052,-21.733533329993392,-14.075585728922457,-1.7675070963331927,2.6941885392583997,3.4382658379113322,2.809396543579843,-4.4264242049065885,12.781393236338944,-6.079611989453259,26.405446153467906,12.551048971491802,31.20879315805649,-0.9668421337691935,-29.994063355259478,4.926956703138704,25.950979564727785,3.468284485683746,-18.279521628451263,1.8789606255170634,-43.739332853013416,-20.280510816761254,38.94548031561878,-36.56410425012051,-16.173927871493497,-5.079453419381835,-21.841637840361468,-12.898243736360625,-22.18240979276134,-15.104826017848428,-15.112478722961566,15.45924758527356,-18.472321034526914,22.750967894045782,4.242649964854008,37.89507247384791,-1.6310765582116846,34.01101240251499,-17.231998239107384,27.595032514032855,19.832519994733588,-12.786325724394809,19.212319348100976,-18.30731846868817,19.859894415675235,8.980396394388702,16.513761550178195,-9.309785072889671,11.67850013177304,14.135222915764366,-20.4653866559162,-13.78913922121246,-21.412051133605242,20.833596497690596,23.893837388709834,-20.456058040447015,-31.4470109118383,-11.662201990990082,4.808559078613081,6.440992609755428,-21.473990818209643,40.6284320464344,21.614014798764728,-56.098642151418495,-3.348134823980737,-5.300224981584768,-8.514422678456016,-23.43044236599312,-61.12381771983681,-12.349366379526773,-2.3289038277143703,16.16647978486974,16.94431979056649,2.2832788724553574,-3.8708361634475232,-44.25143247434711,20.263600356162186,-42.94834656104612,-25.87450633830944,2.315918421810667,-9.356062629649196,-14.128280968455925,-11.61186252088233,-116.04739128775506,4.500150194644659,10.560417830582141,0.21178574668958988,61.06219353280929,33.26516154987128,-5.9916917879262845,-4.275733113166975,6.482389884337111,-11.46603047644287,-5.404596164084944,13.95532802586007,-36.98721593363354,38.314843674447765,-31.215649968426778,-37.40259624534295,9.769719658927615,-47.270057227616185,8.883918869808397,-25.788824605506868,-15.042703106363057,5.154757113878526,8.239041730273751,-33.3174746652793,38.46635776118769,2.33364581371213,47.15488134017336,14.962870655015312,-12.901184055137138,-30.436953235879265,-3.088449526793585,2.20211291248085,-24.343319197501263,-24.43726637671623,12.435210143812354,8.3290218318095,-3.4058467910479995,-34.16600686284239,-12.853020148167165,32.337141275292,-12.20857793231592,-4.762282362998471,0.9708644699027049,24.30863029174296,-33.668148776279295,-11.779231525874353,-35.623632296843624,37.316678154293534,-3.8280788103143344,7.667128554483133,15.192709487509632,-28.279002310992,20.570145426061714,-38.18834185817494,11.128248989733146,2.7251172538625803,-33.43978261883165,-21.995092709919444,4.816259154459484,-21.765868646022106,3.2671924772418675,-20.582855574920746,9.78004979850643,4.419814816083093,30.197686723856084,-15.594620123615865,-10.507819355431575,30.19799835077232,32.91762433901994,16.033376988376673,5.566953100090922,-26.99864232232161,120.78676379253343,39.68879590084176,10.883792280907834,23.601074853930562,13.486986855674882,-32.05549679057167,32.51178964026426,-2.772168709320677,16.92006769098568,25.791623816826057,-8.073161889987272,-8.289578480073747,-33.895277492960844,15.84337267107946,43.12423821521587,-5.246877713401559,-0.24183861300760123,-79.96878875030332,-7.802622315209856,-33.154993498330704,25.116665133313674,12.824109944491196,21.832550573562287,0.2274843250762974,-40.45922320079703,-5.709119322431422,4.810836633956944,13.132957532278347,19.65139508054239,4.897464553462729,-18.870760947066742,11.289690229922812,4.566954520580048,50.551958652296214,-12.095725694906289,39.130665770152234,-51.843840267614276,26.68666974390558,-14.736827661097667,-27.420175894532335,11.859930133230352,-15.539034575997121,20.93929693760569,-26.95845301374193,-10.384027433721709,18.51566608351669,27.25157021163589,50.2273932658978,25.46285370798182,-31.167957610984484,28.169666652845727,28.290755222892688,-90.11901081242569,-2.8149679799674137,4.3461001845394,31.87284742407073,16.23761583077088,-12.989945228620746,-62.00580800429639,-13.844507936485096,-23.071528285379607,27.818203534344192,-15.821433345159987,-34.95209027554855,-7.92210151327846,4.737004954460803,-25.96473783699225,-13.353667501599242,29.14833750019774,29.1517758927363,-32.0020091313961,7.097973159560667,-13.364121706775668,-68.73654762183291,13.671475441849491,14.53784231027474,-10.949785940073413,14.791118541547903,-27.994760961366815,25.494545378608056,34.04633997341778,-15.42671462511339,-18.171230665560785,83.28981658181927,2.344189652024248,33.34547180493746,-4.186507122279613,39.036286807581874,-0.30343271783134995,15.917907192321733,3.0255699677025114,-10.254461805426919,1.1991838491978308,-23.099938471043085,11.030716096284193,-26.975560610734668,-20.210335275515583,-28.161447568431203,9.717819292988912,-10.04072166527897,7.822311103097755,45.391002827575626,28.383230435198794,-59.30791726835376,32.4148864867596,21.264350317520705,-13.975932063195517,1.1132982609291824,58.49532596120074,-16.29502767724976,-9.08718126476914,-47.47062567415052,-30.029770615408268,-19.061687132947963,21.26127880558389,-42.70066272834604,-88.86506947450887,20.98796569578181,4.040280941910404,25.309809638722445,-33.99477896020479,0.44360708875818167,11.329237792161235,71.59026280274361,26.291705591325947,-18.707348979737052,33.12093259579126,-36.973470320285955,-13.693527202783292,12.247601727825723,19.73319052960538,-21.06777896443219,14.798194632891445,9.791603395343301,-13.448595513526865,-9.72503015790436,3.0954615536718535,-27.986592657688313,-38.679806356833815,-19.468577546058917,0.7376999431861488,2.038906796590455,30.253087093528027,-21.746043521356558,-29.68698359211643,7.412168997419277,13.577506769761218,-9.23861755321401,35.0098580172874,-17.33191815385909,0.4770940674475853,-40.886428293932994,-38.07143216908555,34.525220900587804,2.5207038377781243,-17.334803452513,8.262968720125349,31.225483834665802,13.454441669853338,50.77073600407879,-18.728243258249144,-22.90576727652417,31.97050438774084,-14.836362034908472,-19.58177229917161,-12.405237676892266,3.3134744200061994,-19.254800598182015,15.849282524939843,11.200047114243365,-5.157076771055225,2.386291550416147,6.568569181148511,29.571113451616235,16.787305339784847,-17.27983740528853,-53.23305981454978,0.8537095578466465,-11.023604488420636,-24.19298169768653,24.137078835568435,-21.54766908658758,-11.385040720745025,-18.29682802110129,8.571604977489955,-4.241785969739159,-23.158261111383005,26.418790298459143,13.115916826329233,47.48821598394503,-4.584218795469316,42.44131226103748,-12.030577846982622,29.16617949817473,28.276209348602904,4.730361836632828,-0.8255258073957935,35.950643251436965,5.113659888543646,-15.329424727770128,-2.0702555049751044,-15.779506905101208,1.0113728873670786,8.501490830111315,-1.7180281247914817,-22.403017385149145,-49.833660703860694,13.384080772238887,12.402254512004976,44.51157391724718,0.6028606938541694,-27.47070590171399,-6.008167015772533,-17.090760930628477,17.36942008411005,10.524742711897755,-1.155669328868921,-0.7453257294367013,34.52897370894556,6.946509101887354,10.922127181418345,-25.816191680762685,41.4186510389189,15.5504993221916,36.32149971517354,10.837913624864962,-22.22373956348572,33.91220371018613,-26.627371373953277,-27.46802356637755,-1.071319307111071,0.8510760606106922,-21.852223825805844,-15.322944818895175,7.135167268757182,23.619217437985007,-12.71770642755309,-20.025978188188724,1.150295237113052,3.3881589562964427,23.34808093714458,-44.62509036129088,9.658984154919226,35.3081583162347,5.299597082315328,-45.94794134358364,-6.20006340674837,4.5402395499974055,7.181251172506656,-5.505471211113578,6.131096450670132,-1.8871748829236508,-14.451647885216232,-14.013716494238464,-31.376961671709843,-24.995669262983213,5.916480813360411,-38.352294623703926,-3.372703136294608,13.742364469752404,48.38140628163517,17.533103813398792,-20.140035820269457,-45.71551078636665,-17.251260030190114,-29.49847644607461,-3.879300647910255,-19.462880310616768,-8.962227332104941,-38.99788729109756,-30.31792740513049,17.674589961275192,-1.9854542521199001,-39.616838178920666,-84.33574254162377,-1.7813745784378032,-8.591840255355919,-50.165005828282915,-14.304031258549905,-13.35201416092098,2.20697319994777,-11.66604089040754,34.1511871689083,-3.748069695315903,-22.784242516569098,62.18643384989355,-31.052325822455845,-29.26792683383671,-6.80974965019809,-22.534192995048866,1.8870670784870776,37.10934339942249,-1.0153289958275857,-33.55616960226407,10.161438884115002,-55.207441957043244,0.6006799699986458,35.171059482676256,-42.79031281070739,-16.497863352066492,11.622374203805911,-25.525896486092606,0.06840365667793967,4.0868479928555335,-27.4584626241251,15.698106451953628,-1.9019841807796785,-20.74598351023161,13.373129420522604,-32.930430678589296,13.108056151480145,14.773130116803829,8.579682478480555,-11.150454138577338,35.19756564080808,11.523660361382353,-12.7135814637628,36.42243342730126,24.6161462357089,20.79787911307129,-4.685911476473334,36.79628284100186,7.073576994710912,-4.849368810673674,-4.295242191244764,24.51546949736086,-49.80714209782626,-8.97935758734946,41.77432608742433,-26.202343225239943,5.913718329798988,-7.12926910895205,5.225298331000566,7.8144744347400685,-8.356571679630541,7.040846113249463,-28.355515371249886,39.45757494327166,-13.528084360349883,20.47469931120236,2.7134326824494552,-29.607724767382223,27.731302484514217,-28.347513559438923,1.1191821375858897,-19.037960762274526,-6.772562251550486,-8.406881344158572,-21.25691256618463,30.92707109293578,19.12988547616042,21.21959700199198,-6.898554433494314,-6.382472433199641,-26.11421881134596,-32.19507373748335,16.430146620215993,7.2282621997241945,5.871620605985435,3.0812978453564313,11.223252559885141,17.836825368458857,-27.64973082679785,-3.5389154708357533,-26.283531857461746,0.1887256321528959,25.665695373056415,38.41895353489746,-2.708359766966186,-29.520130801716288,-41.94816126058927,63.54262032460045,52.097829001387005,36.3149370997079,28.081307185696318,39.58450352316822,15.529842100081092,-11.358614862793424,10.986560014867631,-8.956563321758567,7.02479314964033,44.44318960393794,-12.793796067372398,8.249692203872666,11.38857328224436,-27.865213493640162,8.15632967756841,-6.7674294735766525,42.56943305799524,-10.714805483343339,-29.4066229545462,43.30456404740003,-9.819248037285739,20.782472360306347,31.058102218713803,0.4947798500031517,33.84922997934364,18.487355215039823,-17.201582676710526,34.6598120237863,5.495308343926102,-7.722880019418254,14.243169200449152,-9.772424152396232,5.000733955726842,28.438249919011973,-12.81052590764695,41.29499848280673,10.672564687876461,-9.886344789258121,28.18335743247315,10.402259749378201,-18.684957343743314,-27.285776027867957,7.545766785389165,4.797196933267213,62.2515913072408,18.648812960562353,-4.4248907846499606,-22.16363549476195,6.163185702321647,6.23326656994986,-33.49735478779767,23.28566457341509,-41.89567512785743,-1.76609401471792,-23.458221050567815,6.328315925825392,-11.699778183191869,-5.650971344458706,13.272895569331602,-0.2960319445002418,-28.443523570520505,3.372875672435189,1.4258092239380749,39.57596387011704,37.962477439501995,-23.655111217409466,17.78096289218824,-19.506381222708214,3.957702439378809,-33.920814883543855,-30.771177789492484,11.17393111539484,49.28861658531236,-0.8787249369692152,11.455317763541636,38.60149182448237,-12.495495136010003,23.630470833216215,-26.59461994406699,-30.57696364821886,2.2307202575166913,0.9887915963212038,-6.357101774704628,27.336007735439324,26.753781012423673,2.8717007715806533,1.2098523375909063,-18.99036003872951,-48.01374712134038,31.16274572088841,15.491932901713978,-9.392360878951761,34.8313322385325,14.011692369359935,10.700882371415677,-11.80336295458214,-1.1077933154292445,35.6338073295661,1.0562364624099494,6.607810683131696,-19.04127239218232,9.073230426138352,28.868459807037173,-24.65712972435855,-4.741101135914112,-28.613151236309346,19.00351085842567,4.517375993859174,14.954571619422731,-11.682694769025671,-26.848128368469347,44.21005761418181,-36.193066968969546,-63.88379218296085,-30.819033694025,-13.15359194406942,-9.222038838826403,-0.20620027907925886,3.0246353259642684,-29.34141352562109,4.189838857531779,-12.664661751286182,-36.361938985393365,21.50930652353355,10.077786864782398,24.47297800058775,-6.545664887638131,5.648972693786752,27.10308085751691,-35.809888895474295,3.673177960155241,-9.620930468759228,-7.059225198371762,21.603926999370017,-21.67463624687883,-2.0268553392240087,57.22589901545713,-35.919745325897814,-26.949677385310544,-17.298394141345327,26.244300011432095,15.846680570694808,-43.709299300991844,-1.5170632846955108,4.608440295888303,-15.969637336734714,28.33369803111736,-36.23154216460421,39.361809172093515,-18.826472764186192,1.7718093532413348,-15.39491660636242,-0.7133030642241113,8.173838404502241,-15.117215225880612,-43.18235097435918,15.744165006597356,8.671524368241448,-20.708030255633464,7.998498990179964,-24.91805932422231,6.793316654275776,8.909211924275914,5.032343545625914,41.34605063511808,0.14805075872391188,3.8678087730881687,6.985560541076906,16.247169866218716,-63.973913464904626,-52.69543993085502,-27.898812879414837,3.5820765957929317,16.95632208063918,41.858729619276346,9.224495911611918,8.524699266034705,-18.773321114212404,7.511352483243605,6.9054869307404925,-47.64295233103783,-10.808390142821908,-2.2293255982675904,26.334471671860083,-14.38179816419159,45.13637665462157,12.963300996791558,1.7020874412127611,-22.095469641022927,-21.202828958787865,15.843511726871053,18.78703337424239,16.195310906522145,-1.3113770580376924,-6.618568552078679,-11.23942362904322,-4.9627591252029335,9.903076033613726,20.77378378046984,13.616246590246634,26.301370141574836,-40.66934102354272,-19.29335937231235,23.047064185416964,22.78779351623787,1.3698542968443586,-31.64289581684345,2.6378580237595113,3.812171381707234,-17.372318400440843,10.825842879439108,1.2541647069973596,-7.562977808326847,24.263888664569688,11.12642009244191,28.2804687695304,-11.83347304501169,-2.334952984466638,6.166296317912472,-32.61405754366664,-35.81390961135433,-29.74164385238671,-15.77529104162214,-20.195606311824314,5.555467861239918,-31.21450567411831,-27.320806120048456,-6.037967374969765,20.288386282870366,-3.461011749579671,-14.26440053148281,-5.917345933302294,4.998884137113946,19.251786801399074,2.236139776970077,11.01301068504098,-31.755433673428637,6.907853681801472,21.25168473030718,14.623148901591849,5.8741293307603994,-46.45288247367771,21.319984817763945,39.43845703668571,19.889926981513963,-2.306350782855301,10.02554344313271,19.081395232428573,29.340495877147575,0.6958867935926022,-8.511020021552259,27.317082663373803,2.5162268242780255,12.449824210229039,-14.814609175836267,39.34741771376046,18.232943232653582,25.27694113664531,10.788669237105744,-22.157008669972953,-7.4574103220364405,25.510250024947247,18.81579329139977,-32.26796360492109,3.053216994743555,12.10825747405765,-21.954529814027445,26.17940270026096,28.9286462024887,15.83262188979251,-15.184791466264318,-38.25564818395876,13.26003796684049,-0.803160433797944,-23.986837954625862,-19.610018622427248,0.7684240089300811,15.626300290448404,13.725654489325626,6.0156169250748235,0.6814171738960072,-4.765274345245465,2.766947082635898,36.19624220617684,9.004628203221568,-4.937081800263903,33.38269551795368,19.185238208617093,-21.391812819812348,-12.522780588650996,17.896102784154344,25.5265394442084,14.682133605370428,-6.312218392289174,19.072248806918232,-28.565311123379395,-14.944532406487676,16.393591922042887,34.42537267001044,-20.48611776617974,-7.333772354282169,51.73120364555025,-15.34277579203499,-22.680422991398014,-2.510717794284643,22.9802601092981,-12.412237878964433],"intercept":-4.358261545181272}