{"type":"sparse perceptron","classifications":["NEGATIVE","POSITIVE"],"weights":[0.0,-3.095544055318218,-3.095544055318218,0.0,19.34017498982255,4.742947026619417,-43.532132300745246,-0.8639724842630353,20.27971569254124,23.179963019020388,-18.24103819596427,-13.35210153952313,7.848370542043546,17.52413942598107,-20.621294538522324,4.692773163964881,1.2799410952989059,-5.666206903584083,2.5780945153998953,-1.5114924993318355,0.5643501506219539,8.962699874395847,-0.21306068866964406,2.132121793082447,-16.25775228786656,26.59870983772188,-6.893401135650247,-11.905788178772067,-5.096589518755055,6.714733747740752,-7.155220844236358,-8.6444651047085,-3.665905597082756,4.286532706930145,-4.985138650054088,-2.9186831547158163,8.84346217712571,-8.704171560662855,-2.0638146564382085,2.576001410806319,8.837267323598901,-1.7004253110594876,10.386286984420805,-2.0875980655787147,0.13430490771097547,21.115404181533574,22.020598229450208,8.796911647854225,-19.139469573554734,-2.1769663234066448,-1.3155843040037412,11.206831939472012,12.888253286669832,11.062287609135508,9.686761818998148,6.379969654774699,0.27061359556267783,-8.835339111201243,-11.58069029416319,-7.668769674063382,-10.037663891942259,7.623073469668927,-18.14938741981585,-20.110054250416592,-14.442907232039044,-0.5002588670879148,-1.7246788295318995,10.598051175626281,6.002322797102155,-7.799087337156181,3.6999643843725623,-0.9911708631227232,-5.076540533005334,16.480005524911476,-3.681968238383136,-7.13365354288833,-2.0928062043502718,-13.261659366922212,-26.53018511913939,-13.385385295240486,25.730655572720348,-8.225681095303324,-14.657396188666624,-2.2006577874855258,16.74507505688288,-0.5837461078371,15.40309313070611,26.605544705084515,-1.3334226020989093,15.782853702474352,4.398038171661856,35.079103299736445,10.83502516001496,2.808526458163433,15.934523470996293,-33.0182817008894,-13.98312357002559,0.8363079089332306,-6.731094676390966,-17.76542189305593,-2.401536099903067,-12.486502098625818,6.549631473942852,3.6636216784618476,-2.9485765352931,1.2605639830130442,8.211807694578932,-6.987390263900539,-1.7110864800493337,2.995990390594802,28.7861546639852,6.091896048749468,-7.842562086377525,12.08144032469646,-9.747909506598724,2.339618871949987,23.446897642989857,21.922056107948574,35.13606277931996,33.952275937917236,-19.369489279065185,-17.88305732534709,2.5808975053235157,15.11710622988276,-7.556515873275558,-23.42466856783133,11.599403835914119,8.650776142100867,-15.623103818976958,-3.65114817681097,22.466853282633654,-5.399253423225527,7.642603870838664,-10.660623320670606,20.38743628926063,8.711863768911604,12.65074035590933,-1.9947388986562946,-15.289864519134731,0.15684362778440417,-11.869053208752042,7.667433347181377,-8.603925342920018,-4.110699039287109,-9.334211735436668,29.396211323950553,-13.253420370662901,1.902623724759242,15.70711987722549,7.463418642947405,14.572915273013807,1.3144705293364747,12.468231355429593,22.89078996205509,-2.513412479577636,11.159233383316284,-18.873317571377804,3.4557683437674656,22.853218315905366,-4.548758499132511,7.506024470525558,13.721499322039996,0.12635179627866605,-2.915428022994239,-33.62117343306352,4.212758014006819,19.44871305051213,-22.969234097033556,-15.313477518067515,1.4797626676296884,0.561052157184968,4.823967971254632,2.654879019056314,-3.7972266590101986,13.599242584039335,-4.733796296381518,24.265331529185858,15.170134744998439,27.91253101684248,1.721025315116896,-32.60923574295256,3.796213226655939,25.073393845143098,7.877645006902457,-16.6005363425227,3.791538106098785,-43.65023260011293,-18.47503939239849,36.437789498005145,-38.88164163931419,-14.307251672890652,-7.608276854134571,-20.379659534065826,-9.951215764361152,-22.251550491177017,-16.890912688437513,-9.768625753385159,15.366502915889454,-14.714698916906439,24.89339196785882,3.6690492459444455,39.46707720302885,-2.3888227407043825,34.46013976719929,-21.0166948972596,30.682199420881947,16.914275382586165,-8.428940231229765,16.992007713539646,-19.8364000768015,20.926821966477963,7.6270131047159735,15.368080265822337,-7.775052875741033,10.38145458042292,13.797179333606882,-21.03840967545384,-13.294019091844623,-26.029150589272053,18.03447817111421,26.569418902983298,-19.187454095917918,-30.09761539631906,-9.188736259683447,6.747503443476375,6.637988359807945,-16.074422668640672,37.5331332364705,19.839877670845024,-58.02326917473245,0.2468488288732037,-5.956494062678117,-9.36577848274383,-25.567295960195906,-60.359890174777824,-18.145493965609546,0.7263176829481103,20.343376456611825,20.626095737341785,4.6485483440803295,-5.30391384747543,-45.72199412668708,25.84042335468776,-41.29784957140522,-29.070841441605122,3.110584152340355,-8.311102228359625,-10.092351239273839,-11.041170923320847,-116.28878549165654,-0.038304178481778195,10.431883111740841,3.0237510852744247,60.295443828730996,34.898269276513666,-3.221329867010965,-4.052340622872663,8.821454912392912,-11.9940428744201,-4.8813441208779365,19.206667962562115,-34.66076974208598,40.94600065055123,-30.008550532198267,-34.46028024344749,8.717083759566867,-42.90408215146316,6.522815126946999,-25.692444503862482,-8.857371589250468,10.22406630569699,4.277796226266034,-33.136214915522544,37.45837544627604,1.9394248271647456,45.25544326474044,11.60784514045095,-11.990805387386265,-31.684942418946385,-2.4421017149461717,-1.5288191035823362,-23.6427526274724,-22.432752628157612,12.255206225196238,10.953304782483427,-2.6853116476295438,-33.73171376764629,-16.007737605949675,32.85217418694464,-13.186804435750576,-1.5195934928708277,1.4350146343678198,23.36230146355094,-35.28867852403262,-14.594643074455835,-33.918221795133995,38.76928138022756,-3.3243677853485325,10.43232887412037,13.479941410591016,-28.90405382218161,21.675690485580493,-39.12364351098186,10.71744539900819,-1.740959249436953,-29.239378230418335,-20.906245023267193,3.7218256565683894,-21.711694793587366,0.8672747337334745,-21.991931994317873,7.524381662113224,2.104124026507205,29.64193670071791,-16.494976808100336,-9.494868076106895,29.137096149356974,29.864201852526662,14.369030555214936,4.356154490910681,-27.57935584507169,120.96635709424906,40.79163968162497,9.76357644657054,22.239603035260018,14.854650077684289,-31.49649473442351,34.33475104198956,-4.4576173419569365,15.879988626685002,25.46738520038602,-8.832924804104413,-7.3648806477778725,-34.28979626615097,18.494641706919143,42.48607703294184,-6.5643123525104485,-2.165279835223245,-76.54470160537312,-10.662211456269407,-32.06510129659881,24.73683560130871,13.616268741869579,21.785889084651252,-0.4257476809656895,-41.26531930589592,-7.424907382668248,6.809587842899195,8.713876441255461,21.309489824374744,8.83318097745908,-17.99682390054051,11.003854710459887,6.212676924484664,50.963284128207164,-15.898894263173853,38.85047227510164,-52.04682925688572,25.893494498602266,-11.863869376763896,-28.154466766469856,10.030246756920807,-11.557399046759981,19.436365136351178,-28.471991818862588,-10.783057292089422,18.77562167556496,26.34699139887036,50.55776059780841,24.006559966816486,-31.26955269659901,24.404613181480034,28.498882209057694,-92.32393591890103,-2.507298859408577,1.5846714910756527,27.772298258069316,13.955033579781636,-12.8502407390248,-60.736387390923056,-14.439028321549038,-22.886621833282998,29.136973019541596,-14.968813671415095,-36.22359093057997,-9.933481078266578,2.7065147632029714,-23.847289643371855,-13.447796602210586,33.44093386784332,34.52051445518852,-32.784911745727335,3.6022420315234007,-13.605816320517416,-69.32196664417405,10.714198322693651,13.335287590476918,-10.677758511156512,14.859829642776836,-28.571553516317003,25.34210975499431,31.800495999583745,-16.230791220277222,-18.944994397174202,84.73490604774115,0.6885831105171434,32.48282157847521,-5.779879128395655,37.8186706460906,0.06059158930165902,14.897909135393666,-0.06928522052732185,-9.742970391818059,2.3385201813063445,-23.482207719031575,9.622767267610818,-26.79975335099258,-20.09426535576161,-27.05001307272606,9.645677056312563,-10.926425388911492,8.728577970151878,45.364122425387016,26.076605715741266,-61.86683825194091,31.997901013021917,21.468059480682037,-16.206218918981005,0.824325613344161,57.11524681179024,-19.092919309878663,-7.162477740433375,-48.30564390651166,-32.282082457533036,-20.20388182135405,20.95987167852511,-40.134997713517656,-92.34079984421624,19.099355310313204,3.589746944439455,25.5586087656309,-32.917660751054385,-1.3921204149810231,13.5780983028754,71.4013225830086,26.87313396272919,-19.951080241708652,33.62197942736922,-34.42743783724625,-14.783477002317158,11.976536173996617,18.573003253336324,-21.59501631332094,12.494818861083381,7.935523812932661,-11.472454962102828,-11.419980758593894,1.6646138551118912,-24.05809347083103,-39.171515331584914,-19.185814665139063,0.49232531017437253,1.0322281333295311,32.13666068867359,-24.63707533555685,-28.49981682278382,8.148497662969662,12.264868392083216,-9.88324766266285,37.994016966715996,-16.512539868880186,-2.49226569379554,-39.220040908368794,-39.44748951070453,33.06226871485004,4.381298298292054,-18.373187074424422,5.767265094007789,30.77755889998993,14.241464424802714,52.56664599831319,-17.418382296408023,-21.169180833438226,31.383041240751208,-11.324303917041753,-18.523310502790316,-13.785075669808691,5.47992173726365,-19.132583399747094,15.603617133872007,11.018757310814609,-4.464259586537166,2.062555132448585,7.741801719316102,28.146810730490348,18.001892676622273,-16.185243380741586,-53.37422638054729,-0.8690406412491145,-9.973997804337513,-23.006872528900917,24.074898533520926,-20.6152021565707,-9.857082486398532,-18.08335094134276,9.693858485367947,-5.728528690070463,-27.96016928463023,28.177613492628893,14.047166649601307,43.95392639957384,-1.6908595685547325,46.95946876810681,-13.099467832918721,31.208646503411625,25.364658165586253,4.834853554921226,-4.822569080803015,34.318587279940736,2.8422806470667354,-16.795304095687463,-3.0366813953793015,-14.238780365196007,1.5998614109746405,9.194692573801849,-1.1655661800047061,-25.23501216561884,-51.15207340973685,12.549566783883039,11.62343764313841,44.71138060121185,-0.9220449874725071,-27.836871013531802,-7.717879465335327,-14.657761640612996,18.81294597496434,9.370525897383375,1.4985184939477776,-0.8917017134947094,33.768349622050856,8.560971036248102,8.00818193377676,-26.287599975028225,38.39172780463593,14.309969318260316,35.72446157661716,11.261602873383925,-24.588942882649004,33.26561077028627,-26.330675874204967,-26.02851623188406,1.84642861025887,-0.2135900971954694,-25.389639645796173,-13.660049843466284,7.599651595672739,22.522836058512713,-13.093544027202869,-23.454962851534468,1.6775974667222464,3.163995175673882,21.88477759025429,-44.80698111742977,8.017335159050898,37.875460633748574,5.955688766349823,-45.307912615531606,-5.464985976805182,3.89442009647777,5.331944187523116,-5.455618195628224,4.401770497048711,3.2528164358193767,-15.124561673155643,-18.72944154894108,-28.75027535042626,-25.513530024094795,6.609410754914273,-37.12108095642013,-5.416651017285429,12.033337039606298,48.24297626211877,20.575971679007097,-19.421142607657224,-47.138158976035676,-18.338304089163582,-32.06837221531297,-3.3269698784962616,-20.62053231776055,-10.36454785801892,-40.32662945392291,-32.765990146435776,20.559587488683096,1.6777357282992136,-40.41751108044624,-83.78092016569057,-3.833468698662447,-5.715604103200232,-52.994403752090385,-16.264287479714476,-10.974177753613771,1.6259225150894836,-13.449679731218431,35.43959068648286,-7.679839383452496,-21.634858674944876,61.855429186347,-31.989487110840717,-29.245832307947005,-8.365405720092562,-21.036563694775516,2.2307232658723177,38.665121166190296,-2.9569889586141334,-33.24386345453501,9.2204714411686,-56.32032545924084,1.2085969343788683,38.917852586908715,-42.594833854003724,-15.87379474633192,11.384137352186046,-23.910487287959302,0.9468504816716808,5.667922661283719,-27.23252771800404,13.84306156530843,-1.3503593982268995,-20.950727828352584,11.640971813585432,-34.54425785170469,11.73367488078963,16.026691161935236,7.23110575614762,-8.969418406645833,33.078881093041666,11.301804245811878,-8.93636013608049,36.70090256115451,24.15231074137914,20.52629622741884,-3.3644099926526154,35.736109116503066,6.011937661625793,-5.076149728055074,-5.775465109877518,24.960920998695908,-50.495847188278844,-8.67861285821353,39.6715818391068,-25.470188328648653,5.322834353960007,-6.226203093156307,3.0462766567757344,6.571957105716088,-7.0848104901087074,7.279796912401759,-25.9482259617207,38.033745333680585,-16.592741186116882,21.692762173655765,3.3141796535697177,-32.8259247417677,27.87012040882439,-30.380793140295204,2.8097320140345587,-20.399368479760916,-6.49709831422774,-10.602079801419293,-21.520209027461668,28.710099213263923,18.42102976274991,23.729243565662333,-8.75936224037448,-6.6504801772692215,-26.41090675539602,-31.403770825294313,15.568467575141197,6.761419649688715,6.903143459370592,3.1933358538466057,12.016908532951179,16.160629082064446,-28.07367508777192,-4.611641701288094,-26.943103644581672,-1.1581835526071453,27.01639631313094,38.57006527295518,0.6094773122498892,-28.293419744362094,-44.323891496827834,62.57353214105519,52.727244869057806,36.92577445397766,29.472268178365557,38.70418215978496,15.802250665519406,-9.166770727925565,9.881636205781232,-7.4845252143621845,7.624710216877963,43.25347872350946,-14.959063792352083,7.73757270272373,10.879697115807495,-27.042417000539288,5.733518831451313,-5.075645833391192,43.341939321207505,-11.672999134947345,-27.938469452733592,41.83169283135203,-7.794361489812834,19.99291736102266,32.95430669235193,-1.1214605741878514,37.458891742160404,17.032070900973693,-18.9752332881989,35.682959054823506,6.990200073797098,-5.5072941350596105,16.466415303393287,-7.775332497294987,5.335453817753495,28.55036293649221,-12.75298921433393,41.105155504576004,12.633770832628251,-9.89863781991233,26.381851511053547,10.891339020889502,-17.571011780147753,-27.271218841965908,7.062245092568524,4.290621604718927,62.40194721745713,18.12591504011741,-4.708387159404333,-21.280507765834333,3.9207629251990896,6.8995240479022355,-30.573876457095118,21.22059158315819,-42.6139492052991,-1.330833517167005,-22.467780558922765,7.181627976014756,-12.0268569596881,-7.190405118803639,12.166188118866748,-0.7558736551166285,-27.757333528204605,1.6862309083885887,0.44803638374397686,38.452844353878305,38.67373679167583,-24.67550407917263,17.657805537804734,-20.13130500007215,5.631893310810908,-35.7829894009503,-30.97174858551493,8.801764532307535,48.881838356022705,-0.9868004394399764,12.647556105082197,39.476456964386394,-12.62015725443373,24.440711390177057,-25.07060247150912,-29.100460218108747,0.8520789549066612,-0.19143589669346917,-4.993184368452133,27.00606689652097,27.76613265661637,3.891361309714964,4.324114040926756,-19.661167034362933,-47.4527035687259,28.870594012265332,14.252664013362457,-10.905507576732566,35.77568638847648,17.343595091978628,10.692483810161848,-11.207763658333892,0.11070382293959381,39.096486651249585,0.4941617268625718,6.380500634857252,-21.101364626897468,11.175139402991434,26.651178688488102,-24.74186680895482,-5.064804239568867,-28.107807126928893,17.80093915555147,1.5243181176181553,14.606822472241877,-12.027187592080624,-26.65278311953319,44.96454829549034,-34.74005573260144,-62.447210695111075,-29.875823874862988,-11.10080613260534,-10.638432589952021,-0.43767956996718294,4.0974753177947525,-28.59397273806856,3.157107285717967,-13.863052623918808,-35.33305131708005,20.36642822472118,11.903963414009109,24.723244544570182,-6.510047722467571,7.874174386160178,26.18174138248703,-35.48009562618203,3.890416703168468,-8.967916733716347,-8.611669545698692,21.168728994711145,-21.62149142004508,-4.082023928459577,59.17164485072165,-36.728452819542554,-26.646818347215042,-16.601292459743284,26.79220972337226,16.51284607419862,-44.01988098709912,0.33440808046138104,2.5676564018816683,-14.42158734766044,29.681833178227542,-37.04958664668317,37.716412156491565,-17.381091708356337,2.7430339192087283,-16.130512097144006,-1.9038810213972408,7.130428500848273,-16.472900237525668,-43.44420642761158,15.15165567634442,7.076677641974081,-21.215754834925022,8.034628306934389,-26.630885048537827,7.435023383551939,7.1588266178068745,4.135615464669049,41.34272632782038,-0.507356620881057,6.298519899094753,7.036083671873658,16.928264024169483,-64.48728077762294,-53.023006322996125,-28.287684774142367,2.9629985601106696,15.234307016432409,42.359894226747876,8.873760133318562,8.64685042908385,-16.32604697417161,6.732075745817718,8.983460155761406,-44.58364519904253,-11.886471262798953,-3.4265381694329236,25.1327074536315,-17.218691060057058,45.15981335521259,10.498051048887987,1.1184096995673511,-22.504763783264416,-22.73721813233226,17.522765437179764,18.66029494289255,16.314595609181584,-0.06551537401520091,-10.864462188772663,-12.75990721856601,-6.008563882853971,9.699456645627784,20.09316324975883,12.366197873779939,25.05464213017996,-39.76249151885705,-18.087797937055907,21.056366843865973,25.169877803427294,1.1878862012080906,-31.573144072856635,3.291380532575124,4.254533983193945,-16.359687400912506,11.790153850857754,-0.12588885127523955,-9.465956548942174,21.498083118528697,10.858696470811068,29.393279174712276,-12.80219359989496,-1.125335340846647,6.20057550605537,-34.130439609360266,-34.67667173957632,-27.883148520617947,-15.165880829297306,-19.612763156492093,4.002297998283238,-33.03042314749845,-28.696423193166552,-4.849522937629972,20.80770031085094,-1.6772495480299086,-13.753736346950523,-4.635233020584012,4.275800966577863,17.90167982205178,2.560272433396291,9.194646129468008,-32.171215515315566,8.501388783622426,21.074145159799293,12.498950945881692,8.07088255489022,-47.734898224895396,20.861876740474106,39.32060737766594,18.84782643444932,-2.1109914080405168,8.489692351956501,17.84164262730346,29.76345545603401,0.5359480814555643,-9.198306189450516,27.783234971574426,0.7379072820494568,12.163081300833895,-15.665214796341436,41.201557529009825,16.95713183833411,24.70094961244802,11.076480675370282,-22.642673040637074,-6.120019486657377,23.06382397091794,20.081834592419064,-30.761070510806007,1.9214987241478882,13.094829172818317,-21.963907842914765,25.036256634474167,25.63469528926718,15.515930042030062,-14.347526464784107,-36.46350584189643,12.136024418802382,-1.7349873413658485,-23.768035054705166,-19.470237493334928,-1.4952043059990894,18.636390711087966,12.047131945091452,5.9156726816516745,3.3513513813734734,-5.964774015445916,2.4684938579217848,34.39184298454975,10.540703554476192,-3.5263678879557867,36.26820435197518,18.024374587122047,-23.869656236745616,-12.30501860218942,17.144068697796634,26.488696050921554,16.509686201294286,-5.588508322641404,18.977404442774986,-27.89077145578329,-15.532776002691811,16.250555781482685,32.89494651497755,-21.505807006050784,-6.718480546170712,51.121122889314705,-16.517655104508144,-24.110836067303616,-1.5455204167316645,23.794035405921232,-11.148259657413345],"intercept":-3.095544055318218}