{"type":"sparse perceptron","classifications":["NEGATIVE","POSITIVE"],"weights":[0.0,-2.4652474054107207,-2.4652474054107207,0.0,19.974733324746154,7.795501140623839,-46.128844720444164,-2.1327174581358257,20.10364892892864,28.063455971530345,-15.753095690782558,-15.067774784139507,5.839715702940246,15.339439267538811,-18.13615072086886,3.0035590840034443,1.2803479008396963,-7.208722248968033,3.217140666424008,1.6871366970352828,2.1921063798331435,6.9575848562539635,2.2874601234516847,-1.0320976264968864,-16.271918491242435,21.503972508254755,-4.214632027157775,-11.027588731610244,-5.628924642429748,12.664303096060053,-7.933571154345453,-6.936395192823258,-1.551099585120186,2.8389668053548016,-2.019897116668702,-6.050049164618259,10.867453046411782,-8.63990712638689,-2.910444900656028,-2.737642768600554,7.941309889639594,-3.0547586663838384,7.975910732727383,2.577141072271325,1.971087455743532,26.65019632977594,18.732350190102927,8.250024011750282,-19.908943247035136,-0.2051798148770792,4.219359747109669,10.136986341546049,12.820441105813646,11.507644590283386,10.491325283998552,7.587858214484129,1.0957584100789166,-5.720527103119861,-9.215057289122944,-10.013263138881781,-12.894899882169332,2.6383969655469164,-15.703787843404289,-19.18963740723491,-11.066484147849794,-1.4401366873440635,-0.7933593463401473,12.087363388059154,7.178810654657804,-4.951564153574064,1.974402090619456,2.609205575940604,-7.85582067434423,14.971418038530594,-1.7547583260737627,-4.1149561189290855,-3.9599202683418238,-12.683294174332088,-29.772720001111274,-15.54893568397519,24.41055846324567,-5.4267504164170335,-12.601420131048501,-6.903817927332588,14.688367556678518,3.468320764533393,18.050221559433567,25.604509216572538,-5.786495435545323,10.291688104106015,4.4838283854582075,34.75170153709702,6.884508699124725,-0.4601674400534747,13.237543627151313,-35.53862406431495,-16.732886499023984,4.9379391004596185,-3.1310382900833806,-17.533366764648154,-1.5471809733568664,-14.426267224657387,6.97479537447617,1.528945124663528,-2.857766949963951,2.3180879988226852,7.363325284003659,-8.271148169167722,-6.343326213564085,3.1781260967526137,30.041141550823905,9.109047496216142,-9.58538765245249,12.464981153505672,-12.953839698579397,3.8301017117354923,27.116445899328397,21.638749102859528,35.596571581583994,32.64299123014539,-18.45740326511239,-13.4938030719688,2.4428962206479974,14.877039942416799,-9.785083726622387,-23.22835257029821,13.888908269084483,4.21334108439777,-12.40114880611765,-3.3580324804297423,21.97041578030542,-2.623754217835474,9.532775500046064,-9.7129364398043,21.553890128035732,4.623574371738425,14.697974762265806,-1.6097817472033809,-15.22468317252101,-5.663772464064061,-5.5858085244835864,9.677736943803094,-9.884286323706563,-5.166517782214224,-11.63372261575067,29.19378510610385,-14.808617199560032,0.7972932164829654,10.83386689676274,9.069037347672765,13.007799263342253,3.27234097232821,10.133059335525529,21.25263662406556,0.8692552604715704,12.29871609065397,-17.221082306520177,3.586870195187576,23.163439162966327,-4.698532572492173,10.677072614841322,11.137457671995795,-3.4425574264453593,-0.3056242553671039,-39.94727335139827,2.360730982346434,22.925780260122202,-20.961651053731046,-13.879352582352725,-1.8869076642213878,1.175918158225821,3.9596911219517423,-0.37953742290459913,-3.1768263122495153,12.970214379377774,-6.614341374355928,26.200010907501078,16.107745603416717,30.961809009569492,-4.53753365477358,-29.734523665929473,4.831311569324792,22.713864316549486,9.244309704581774,-16.00275855094286,1.7725243715157262,-45.75721299236724,-17.496526571003336,36.30219305931097,-36.090840797123526,-16.499952604007824,-8.79417947638056,-19.491421278187676,-10.641879151026657,-20.545681523760475,-14.892216240882583,-12.549131049380913,15.08940684851776,-17.90766186813318,21.341766641262538,2.8380760038633297,38.12668196078351,1.2365012617716007,29.956237935268213,-22.09126587883069,30.194074274182995,18.704260149215557,-11.245708783864382,18.69112413984194,-18.490325024519287,22.38886487462508,6.296015372089327,15.780015688133167,-12.259189238783147,10.714010915159884,9.10550764084956,-22.435010243858567,-15.061866937639795,-25.402816182344733,18.417331214380805,27.50333699393458,-18.72249791674226,-30.64883139806073,-6.812923994101773,3.1175802522325418,8.88513804580445,-17.99657843313732,39.46492023884081,22.063030264632804,-55.49730937000779,-4.470141240809149,-4.4604355318419895,-7.944862635811412,-25.81943264206384,-58.108025699222964,-15.462049805865895,2.124145947027207,20.169646813999492,16.88201957079914,4.828377567093753,-8.777504474486925,-42.50254680000569,20.64128698438332,-42.14925025308672,-26.249985164113617,2.709739657995165,-6.481168235376573,-12.654947988939641,-11.427483093240255,-117.36949705325105,0.907572819075599,9.850187288284598,1.66344598425404,62.095716544652255,37.41356621796993,-3.773782500002638,-5.6315317196287555,8.6126961302793,-14.065653709091526,-3.240302778023309,16.236548325071357,-34.19730299535841,39.847442183770795,-29.241709098501435,-35.72139716328572,12.060084248924024,-45.35383906157007,8.128542488871577,-24.99924221829977,-13.120263553414096,8.419425151156181,5.196407964772932,-29.602393262678916,39.67426802679208,1.95261936429449,46.073481097418025,12.041903052966585,-9.453439163994965,-29.86254662053037,-5.708285802145069,0.07238765764254158,-24.493847219455976,-23.630284379688472,15.240526470441663,9.539091263723616,-4.083540771734268,-32.40984455933932,-13.67252795184858,36.91438954087011,-10.776436155922159,-2.519202574897851,0.49310386509508936,23.390145622638677,-33.836029751589976,-11.922220575768213,-32.967366752642135,38.767622009720384,-5.172407984482994,8.048612608872967,12.982503815923806,-27.883624244734484,24.754430226308372,-36.95357985915504,13.503446901258453,-0.8168568400604015,-28.362376749762767,-24.481070671286382,4.34849303876104,-22.211664779835044,-0.8353618125337201,-23.02064068737985,6.9831858763573145,3.7327319834298445,32.90585626416621,-16.21270654156067,-5.787224178200376,29.406179968410015,32.287173824350894,13.096073540180944,5.8996345290526016,-25.117598970602714,120.57325694534238,41.41424484295461,7.9744267627518965,22.01022885681401,16.451796725564567,-29.819767855877522,35.657142524466565,-5.541578419710642,18.39845334075444,25.54831897913061,-11.838828866357831,-6.185371378996633,-34.40981335767876,20.02753945641456,43.16969557810204,-10.331735814116584,-1.6165925000066839,-79.83082653768649,-9.046327191118273,-32.17539044842595,22.877417435884844,14.461513207414814,20.98544531079431,0.5003794983558606,-40.752199654035316,-6.415980880021686,8.388019685198264,11.299565170875116,18.55435221172535,7.5517679985546975,-15.992351994002354,8.986832301201698,3.6349775784417377,51.06356183440543,-13.23120462233926,42.50438253851939,-51.46807215741723,24.1059372241888,-12.598538518918657,-28.57125332467784,13.864886080768843,-13.580795087378743,20.122330258292568,-29.227407457354435,-10.696656784253205,21.132999445138953,29.2087303582152,49.265088392671515,27.122904216588303,-33.2282944665724,28.851370262452303,29.02903275288981,-91.49570572348621,-3.0134417419203086,1.050015850661476,27.242217078305945,16.86899273775143,-12.443180872879505,-61.794202375115226,-15.002615745168555,-23.820348793147772,30.81257087761103,-14.527424974877013,-39.39425809556743,-7.6346794601457075,4.549319034061448,-21.838971946955958,-11.826640807871419,33.00705342964992,33.683937977109224,-31.221627497081716,6.63879997781953,-13.866854193507326,-66.8756327632743,9.62980078952881,12.765931718050684,-8.163327988742358,16.613935500350596,-29.749499280701123,26.79571755725131,36.280945425435405,-15.635139439278328,-22.217695377503752,85.79611311828143,-0.2659185917651983,33.46800282510751,-3.5252017230938595,42.269762429115985,1.7705015332955576,16.14823438873953,1.2345182522349045,-9.758537362265157,3.5247424442008,-24.030340959356415,10.481405782692045,-27.068149672670373,-21.74631548411565,-26.733262855435772,11.63752603715992,-11.107615295999876,10.542887872709702,43.4746739304408,28.10385457397154,-63.191404217934846,31.217008697972787,20.816957426656312,-17.501560942433475,1.8031511762467496,55.425452329131424,-18.098172902614294,-9.539346065633746,-48.041000839453396,-30.99035764111185,-19.80327773045798,20.716157991715242,-41.42582036982413,-90.5921006790439,20.888673913919153,3.177497286304525,27.351593104561573,-30.824108251842752,-0.1595239627764963,11.191868369225304,70.05588845138031,26.688295961036907,-18.13954898917272,33.292358897846725,-36.76157966431686,-15.62895366471422,8.089016947089341,19.72221921247775,-23.139851558236387,14.634273995975489,8.975220565268964,-10.604229110553034,-9.044019882404244,2.4291174133265807,-24.719506318243873,-35.9376524769426,-19.947047693146626,1.3401164984999434,1.2221768104468533,30.73946759342233,-26.928780330921946,-26.59483012597962,6.108271766010001,11.457642286895226,-10.044949116666485,35.300187110988226,-15.342579142877863,-2.093542008320568,-41.74714531719352,-38.03566038772826,34.56318195047946,3.584118603404727,-17.992020450549962,7.094519738753774,34.50950011377073,16.07292201455968,53.207894208662026,-19.03669893916932,-24.34004019541766,29.454631449144625,-11.69908848855207,-18.92012584575667,-15.789314886014845,5.910334253346501,-19.168627940506326,15.771664767372327,10.26315116846838,-3.603256740818807,3.146771050729277,6.187735516828339,28.15720386118476,17.065994126503536,-17.616237654177844,-53.12757266135861,0.7269302446322006,-9.407732191414603,-23.653944877866532,26.34264804873883,-18.069359001563573,-9.616198736895141,-19.175519618302747,8.605425651926414,-5.245559584399485,-24.68553008351088,24.118242954681318,14.406788418152287,45.18353879383593,-1.848166919075199,46.41285071915805,-13.11290919606212,30.56339805725561,25.46367174112629,5.051110127274661,-0.15659871214112508,34.34661101902776,3.942218396250981,-15.080659546138662,-1.764059829268064,-15.184891830138469,-1.149029322654417,8.275976309457867,0.620366177062027,-24.890777439467062,-50.19588394645515,11.304752956351606,10.704164302448037,41.05189026528595,0.9640599562420447,-27.932957431614195,-6.59521292280335,-15.156073482671639,17.204515059797174,11.650190304377961,2.58797112884819,0.019707959417459286,35.798821404348956,7.330506513385272,8.561308397788842,-26.132119706998555,38.94218929286211,12.185373460109576,37.554597695012134,9.457372017101767,-21.548082273032325,32.13296351239476,-27.522422723704814,-27.755680419764232,0.25138295490386414,0.47447881979945794,-24.181736284860627,-12.777337699531817,7.057857870983722,25.48717704819688,-14.599834705213128,-20.840589713037982,5.7252296342489855,3.650899196282295,23.08871331810145,-43.790873482480556,6.985521993284192,37.24913870611327,7.45994953153315,-45.40823202249375,-3.8449267954904722,3.746649352411878,7.062478315947413,-6.848071160678333,4.244220684928528,0.21417229605883598,-17.65110739547171,-13.882391428300187,-32.254386736897004,-25.645314012185008,5.542917930815978,-38.45615808771478,-5.637678889818153,13.407790129596185,48.46910157578182,17.689222466765223,-19.45238902638697,-47.25909425995155,-17.785254208739318,-31.997328668897637,-4.9842645332004825,-18.237107549259296,-12.328272163878795,-40.09161621900708,-30.163898467400998,16.271495892627453,1.0453360148632107,-41.887462954712554,-80.6004362144618,-2.437347715845472,-6.444346131750993,-50.964633235182426,-14.986171996197555,-11.824496039554086,1.1793223192466267,-13.61599119478572,34.15007974204489,-3.513069262084135,-22.93881758638527,62.28353372971797,-34.065162141307205,-30.188088560089806,-8.558937226567704,-24.116423728329668,0.26547537983980457,39.6544198960247,-1.6013080913181457,-34.34079862758951,9.018475665799492,-59.012442588565044,0.3057765862655155,35.83485999831852,-41.63711250697963,-17.23064304413989,10.888949651909032,-23.40572199491529,1.2048550382477266,3.6125248238362815,-25.74946907332263,16.861269384847947,-0.42204136051013624,-21.11257276943974,12.062544157008437,-33.44178079435167,13.413637437667376,14.885110153930595,7.56652285102575,-11.725937356186952,33.81754681892806,10.123758576979101,-11.872372889589377,37.84992174505509,24.33820829943083,20.233859267005396,-4.104673073521509,37.22254664412051,6.155441471225677,-5.908398694759753,-5.719624311950331,27.082189692652086,-50.5063308169629,-12.536979130505822,40.31090537608053,-25.907827568726862,5.531235163181981,-7.124064500665604,3.8632403874675814,8.203597603461494,-6.368068925098429,8.947421625028683,-29.343642846063105,39.15956053429094,-15.0018331735542,23.645613114129798,1.887074154814815,-33.52541042176628,28.64191852781339,-30.378640649605455,2.5006345198058555,-18.48955530481666,-8.190610012666024,-10.694049424529858,-21.826621848007477,28.25684768717555,19.2069575877618,23.04362298439305,-5.2745586210074595,-5.609052909006501,-26.48452453609113,-31.12810405848017,15.523098325187643,7.805335124857007,6.875558417086144,3.114329065674097,10.555137136132965,16.579113491369633,-29.003625702867748,-6.559055009547658,-29.97030639919574,0.3815036749356927,25.211802347368995,37.282745060026954,-2.621580651923568,-28.995792493855205,-44.359748710838836,64.19394972182207,49.52772486056676,38.058653950985985,30.84380759233865,38.35140716289075,11.94069503974995,-11.062635182253677,10.551389668805104,-8.307863648786627,8.916114589287956,43.5445311916817,-14.895653409318669,7.981431547428343,8.186691774985187,-25.736887686340364,6.766232716560054,-5.853776007222415,42.480085147471456,-11.12367558186123,-28.583192138476516,42.27556689196149,-7.22422507301857,22.514972072192432,28.928141987737906,-0.19617580272173923,36.52288058305028,16.695852905307504,-18.259980129374483,35.715342254739205,8.27386405576355,-6.722552569138774,13.508121775768563,-11.26081118564571,4.404900406112611,28.241996993735132,-14.61674056474327,41.565868161763376,10.602368170521537,-9.863993010214656,25.993902180892764,10.264064892623114,-17.94491887395246,-28.27962140782902,8.037683407988062,5.164760303861574,59.57192359372029,18.031417953465443,-4.0475925769083885,-21.509453419716063,5.111449724516284,6.539306407826335,-32.9523384533616,22.94320367667338,-41.8483594468635,-0.9522210664078485,-23.078729724158435,4.705716521138887,-12.303430485668253,-7.2594106915530485,11.964998183922463,0.41467838682313224,-28.862017395305642,2.5530591333377326,-0.18972994990445902,38.79800458139236,39.93998217127497,-22.485874540072793,16.87804341756804,-21.458974100897496,5.0658593292035885,-33.95708195246867,-30.18196411716071,9.839921069119223,47.96001941756086,-2.7018257170251707,13.77492496791849,38.14159419161836,-11.578039690633593,25.00453144178049,-24.88830379453069,-29.491577099086182,2.97412587517445,0.11884046765272162,-4.507385380683173,27.98914386731867,29.024280979467104,4.657598832575073,3.8552686594809074,-20.152054096724857,-47.92934688806308,28.7138309351468,16.766294302348715,-11.997573913198801,36.34256536154277,16.1840453371229,9.625819919482694,-10.724286311316426,-1.5223903393287568,37.632571118359536,2.947654811861745,8.821201529226753,-20.751814163760887,10.054855897862081,27.154245493826647,-24.688526860159843,-3.79426246442752,-29.698217913280168,17.10699998441395,1.5074590540724564,15.639487574752252,-10.994064779083498,-26.813960971487592,45.61464122151681,-36.308520079349734,-64.63814859198823,-31.15174866764638,-11.004715950774166,-11.130110350013494,0.4422721190864598,4.407637943560738,-28.227104833486244,3.5706346336878907,-12.690419294577108,-36.89151082945917,20.768345872839053,10.70474989642399,25.996175271442308,-6.165199286015674,8.202407371583085,26.82847627465267,-36.0200580880895,4.282008419996649,-10.382900715942537,-7.355145467819807,21.165305026244706,-20.713174328482193,-2.3778165312177024,57.997035073211954,-36.60404567885843,-28.820527766174028,-16.101371003601656,26.79930353723227,17.22342866108907,-43.48761347622679,-0.8166612821983643,4.2163753276888745,-16.522344373429284,31.081750758615858,-36.59949301008738,37.566649867768874,-18.48929573587667,1.3008600481554153,-17.159375919033444,-4.163214799494004,9.343581264994873,-16.560715555468498,-43.848441346386686,14.935572132166413,7.474369557865353,-22.411699182441133,8.946713622358208,-22.62800930193797,6.868433256150354,8.602985560835421,5.755117909354618,41.770245076944484,-2.09389937222291,2.8244919528929486,7.782692061432291,17.375217459343652,-65.62947005899834,-53.463233055893056,-28.408631916548533,3.216345461733316,14.934510895090364,42.11311510461102,9.023304957242692,8.924920007857507,-17.53658629677903,5.440495302460586,6.991670824076161,-47.02758292260804,-11.685654360022138,-3.5107390864117765,25.53071886847706,-14.90765867461275,46.418767845385446,12.807215159785917,1.5244225504168583,-21.406982769928725,-21.93765919967464,16.82986771893692,17.247734099702022,17.00930447523076,-0.32154311206991626,-8.850618907932246,-14.29863647674368,-6.269824023034194,10.07643530340035,22.094479734825956,12.724409267142452,27.007336818994546,-40.58128392869023,-16.755044506393233,21.603189388667307,26.924072686795842,-0.3348557570417849,-31.405425241849787,1.1857956331877295,4.05337641030263,-15.711158273898782,10.62649415638975,0.2463395894760898,-8.112027608978256,26.026335237515646,8.254132937173795,30.153558240452245,-11.30611687466427,-2.2110503203561906,5.1024465565656785,-33.817854872662004,-36.98248290557488,-28.75307476256293,-13.954471378005206,-17.835673504251627,1.881230501301063,-31.591127756970433,-28.634958412278742,-5.368963960209425,18.8351322252813,-1.8404855769104043,-15.02056775263626,-5.250358726118246,5.756224712821573,17.47635159484563,2.321579159405749,9.816259336520284,-31.786234600804868,7.394008657954438,22.31927836616297,12.36262840519143,6.678098268505517,-48.310664900337514,21.008987012075185,39.38194883400567,19.922558607035732,-1.8618109297299836,9.823340189157193,20.46942882374787,30.480914138076393,1.7476442674747656,-8.3221373819524,29.37989666556521,1.8014275455826807,12.799994875329087,-16.513694230186356,40.559282338289975,16.456768585516205,24.483585575585682,11.979299971535298,-21.712977858571886,-6.369932170614318,24.281883466333305,20.48837835819176,-31.94602458743842,1.8361607514788783,11.873086812552685,-22.97540268683587,25.481304839179003,30.57216820948207,17.133543249736288,-14.635942170896213,-37.28462073880082,12.519549137401812,0.6190328092882104,-22.913458122041252,-19.13230787230412,0.25021133676799784,16.39730735971258,12.244907895277626,6.985894797455678,0.9165767886372997,-8.455750902306704,0.03113472504281954,34.839045533541075,10.51091843218694,-6.129024631727294,35.681895827575964,18.889291363129495,-23.057843264710833,-12.837756484892092,18.644986204046784,26.513269649669606,15.305222784128755,-7.805071030082298,17.155975600434317,-29.50196525702722,-16.43241666500046,16.548908097050504,32.24749534283926,-23.6868884319213,-5.797384532407292,53.22442342831338,-14.552299808967996,-24.277281163802872,-1.828693753392771,25.543377238156705,-12.765622017506308],"intercept":-2.4652474054107207}