{"type":"sparse perceptron","classifications":["NEGATIVE","POSITIVE"],"weights":[0.0,-4.863389656479218,-4.863389656479218,0.0,18.300419858460863,7.950664284069022,-52.45100575755986,-2.0283502988870086,22.3518846520765,30.143344623074448,-26.924963109042928,-19.499059685477548,3.183535142549423,25.819945009039543,-29.165182888708394,6.111903440363676,2.3940035649215043,-2.5323868990274345,6.120924360939244,0.9482304045239897,1.1786332315950783,13.7088466657099,-5.844031223525917,-6.163000592518414,-29.983930687417253,33.4626195615763,0.9647234593716535,-12.376809693376343,-11.632219736359547,21.4116325260846,-21.675352518184894,2.6117671900351946,-0.30667026037986256,2.0527741744154238,-3.2760738544134194,-4.383017101615815,20.360202497523392,-21.069757489266888,4.876144215718434,9.108674324791611,13.601526535286519,-3.1202878955111943,7.6628180562717265,-2.320841275389577,-8.652491147689112,40.57663401092594,31.042543474350893,20.703909765928742,-36.98361826193389,-7.87484589132156,-5.010121688021293,15.376702814212704,18.614272246009467,17.97666674640073,26.413767577464554,27.352143116170915,-5.974324022920356,-28.65988716660115,-26.048015659198843,-10.763616678227187,-37.344752075448845,15.95325513665239,-36.52615770136707,-40.65136541797958,-29.641082496644756,6.615638972148934,-11.37542622913818,23.754597352723987,25.060422984432495,-17.599648045725786,11.26824222313938,5.133568591465008,-7.828906466656664,31.772375674346726,-7.193909924461495,-9.63277692977088,1.4594105302611085,-31.153842976603915,-50.33874613057135,-33.290908708605,53.79043825260491,-21.802974541615832,-17.97269380823343,-18.355682125138316,23.04052359205084,6.992111317618822,22.292478375509692,43.005939921712766,-4.422284476782857,28.146842651059487,6.213379207159532,66.65127379714372,7.1616261311354465,-8.166150098466645,26.564568313240432,-59.128802731433545,-30.954305044204954,-2.8845011463171235,-9.117847120578315,-22.40296457811211,-13.735323403691421,-30.235747528540315,14.87052550657422,8.80286412131501,-0.5784014101651107,1.7226551884150851,22.531264228629446,-15.319777176028953,-3.9286841679167126,2.895040840325075,40.96552954683137,24.54130691764886,-18.36620310627527,23.489870721003744,-19.09773807131692,2.2899290097905496,27.186650904742734,35.41349835446496,57.920337311728424,58.32729564580282,-25.407311323261002,-20.95870480437638,8.994530041925076,30.448559433981785,-17.85469096407155,-44.02333403442462,16.630207884213142,11.171346700452444,-19.897279273740978,-11.435611404940976,34.19037486827192,-5.1943329480030105,12.233480628546342,-20.162701959617962,33.54304764520334,12.639523768146804,16.408703623424,-1.7927305768270636,-23.65279593572139,2.067525215246225,-15.300721501252468,15.846002335566258,-13.632606620386067,-7.965718132375891,-18.88811334613112,37.944311816986875,-21.653018356817725,4.073917527687798,25.31185966345341,7.042593649498772,20.231528239992016,1.142296150685079,10.439091420727648,42.21556497719279,5.883150929002378,5.515509286413394,-17.406947185337103,7.035595063976828,36.663161158815235,-3.3112940661480077,13.459927458967522,16.167534270746863,1.5231797206875723,-5.488438784182419,-55.46441271532215,1.9847045500450444,20.278572337299217,-30.966275909471594,-18.954410988310258,-0.21516756317565713,-3.9757479214904308,9.480178254003727,2.112427146869971,-6.317854150318181,21.12424573386482,-1.302396009819038,28.18490191495233,25.581461390137342,41.910064399561676,-0.18619144505722657,-49.289096746470136,3.171670361284734,33.40482899908355,7.208359987965868,-27.379163881447067,11.661813596953161,-59.711601248936944,-28.479805774726596,46.0240912228213,-53.430533426728225,-17.94730652881612,-15.824437009909808,-31.309562602945274,-18.703105028877598,-29.19722688612324,-20.00933637214893,-21.824950063538534,20.92596914424017,-24.473485295572083,30.276533264581126,8.514721492866185,53.85147518315348,-0.05688918345234922,40.423832467232195,-20.046772198688853,43.29433304652525,27.56050588216681,-12.049907994444643,28.97631005611897,-26.95649913650298,36.07891996154263,13.992047114108379,21.04310212852085,-19.620316769130294,9.587949406937797,16.08644119279162,-31.4295889866544,-8.68534944166125,-32.46721433797304,26.991043836172587,34.29450988269925,-26.06290577890875,-40.96632742504987,-4.5403308231205175,4.120944890878233,3.7477960955896967,-30.776688005622024,49.11958925754521,25.32008858808135,-75.41911281036224,-2.7830636941825766,-10.81885310544916,-15.969393613714477,-38.21304582902985,-81.17768817796465,-19.065394104803904,-0.08285674294734463,25.012524434437204,18.858568592760175,10.745679746556888,-3.4187342122849054,-58.21588761493445,29.439264329210648,-55.563064797106364,-28.50668015416667,0.9180745712340328,-8.257619733631344,-19.25201077154983,-12.42108625026652,-144.19537211901095,-2.8562205924561876,20.107147659683804,-0.8118071091480852,76.79783296440453,46.07609809998711,-5.28285123697731,-1.9943051507326388,13.07737177115449,-9.628424393281373,-8.681743290225048,19.022602502152612,-43.93896147258526,52.78690624995431,-34.403870876933,-46.984824385048455,16.873534077682635,-55.9100186721554,8.283364013453943,-28.29485411584844,-15.009912257114424,12.524254407895203,3.2820484179393143,-36.55460650784819,49.56216099155139,2.0692394913649172,59.58511150674994,11.41114947832508,-11.885547841715374,-41.13970154802803,-3.3745369771755525,-1.311880527801432,-34.50446385309367,-34.5930048392224,23.39187992868963,16.205411121050044,-4.842596400205593,-43.941416279535524,-12.491411872193348,39.727562393939365,-12.552694147314993,-14.117786304684111,6.030955336696714,29.50055588180012,-42.052762920739426,-18.60102805098229,-44.31741232120092,47.32494621125487,-0.35315784151873886,11.750399230582039,16.84185367987779,-37.45254601660656,31.259368227007805,-47.34175122000814,15.044323149459741,-0.4277610967397044,-37.0348349218432,-21.14146038391483,8.718099830089484,-26.339036747320183,1.4453958984485593,-23.260330763879264,10.930760506861011,5.898885946226158,33.21498525997114,-23.768486831492176,-14.722496671613854,35.60448916240523,43.12162462761721,12.532946552374009,8.941981390466154,-41.507009311620145,143.16351144082643,52.48554785482335,14.811279251563692,22.124711242637275,20.520549626458504,-39.1986712861514,39.18012928285079,-5.975077701593109,19.789638079641332,34.08049727633191,-9.17456216095035,-2.577158916987883,-43.190856860662414,19.26784179855342,51.03348207997002,-5.387410098787119,-1.0960926841661194,-93.34106724796744,-10.806222814120767,-37.783589167434094,30.592018064002414,14.997776097262019,26.842243293765108,-2.419843415153611,-48.21241882810841,-8.433498468903005,10.407798779812346,15.269919318160165,25.338821650650488,6.949496685628803,-24.978599511139933,2.6900067301742836,4.324797739740829,64.2807978784618,-18.332654872476837,52.67047604147297,-60.504291171111525,35.52143825561641,-15.024603863250618,-35.114068512627696,13.752146705248961,-12.786945628545048,25.652139670316945,-40.421099657986574,-14.09302090457346,21.734886924912118,30.87571897526626,63.597477421213995,32.469952000553256,-40.50532320533857,33.3750296566779,35.43938501147579,-108.06574338375448,-5.616815258234641,2.7133934842583405,31.614179656703865,20.183880604662303,-12.2412717454203,-76.1186592975433,-15.760780907323639,-28.056307067401043,36.357171049184814,-17.510897935923744,-45.42134698108928,-8.899163110872411,6.661757695263161,-30.578459828017568,-9.682821127773193,42.92418902514532,41.274704814244615,-36.185796506464236,9.400525924946932,-18.651686137564216,-81.4012697357971,14.504205749291282,14.013945247387177,-12.105277109745687,19.79391401480454,-34.690403997671964,31.087332373208262,40.22142735023528,-14.816413388841996,-23.501113258139885,99.87575304684361,3.1488214494226945,36.308970640551905,-4.860784882912941,44.48820697745519,1.3430811630929866,17.676485367879277,4.116309922375532,-9.34499954505598,4.241487160286012,-26.521284524355043,10.524371081240778,-30.90377769176674,-26.222251494615787,-33.54823488455189,12.97388212277072,-14.321737422070315,12.734479732666669,53.12450887615262,31.843303361222773,-73.81822029851152,35.28605598334857,26.498293375549665,-22.482498533355162,1.9709876692964972,66.21812180971887,-20.392442202204148,-9.92134843045831,-55.22641019869219,-38.816883604344355,-23.147639889844992,24.101722583406524,-47.21311892470333,-107.77744396127395,25.68268773066662,1.9911904148040318,33.07286754265044,-39.0025696008941,-2.9114979698820758,16.346627589991513,81.32055442251254,31.82619040057634,-24.21006023068082,43.61383781306871,-39.84485367969175,-17.1026508624155,9.599832456717776,28.051960224786498,-20.935579891177845,18.908121526321963,11.058847480411755,-16.795760691595262,-8.548889565831766,0.802387336455707,-28.940454352089176,-43.413510992201715,-22.439540210116363,0.29372585125350403,2.5979593196734996,37.64166034482794,-27.0419622334321,-33.16004854803493,8.55026141344065,14.196555346808317,-10.428215604238165,44.25228666135239,-13.8635170901457,-2.0433612260079625,-44.05860358214227,-43.612976061826416,39.98054714028798,4.26865040228339,-16.496178271158314,6.638726569171235,40.574071026713874,18.326990369896606,59.524729399655925,-23.108909434383143,-26.225665826402793,39.67241120056997,-14.104805025027316,-20.84346064986242,-16.655519527860285,7.09307790784965,-22.186234209319938,19.696993434883748,12.843442327107358,-9.580890212467274,4.662701484588281,5.01922533720033,28.6124143079791,22.782023933890585,-19.686158440362686,-62.982896704562265,0.32431895700956215,-11.89671164893541,-26.460922720698374,29.418181605920296,-25.46494961666074,-12.289603490516491,-18.888954306761235,11.110871612494327,-7.039754671161361,-31.03802187892901,31.85068162108964,12.692903369612889,52.0943026880219,-5.464770337473439,50.26494440818303,-13.914549973891374,38.174814487313526,33.142881237180845,2.225936714227091,-4.985757273531207,40.96924205443856,2.5275255365194544,-13.02453120812101,-5.440219460215192,-20.768403427628378,-0.7354978795745627,9.31529026016698,0.29998230583145796,-28.585878491792993,-58.688977537437054,13.115809998259024,13.893800424127534,52.89681999267532,0.19706227711097885,-30.1694537658227,-7.205440509108769,-25.784164005662827,20.38120409328235,12.15153642664688,4.562898390027275,0.7269808178760107,39.110377795358424,5.826462355664581,9.979204353552072,-34.13147271159424,43.668429403788615,14.055494688319667,41.24926674384327,12.613801704084473,-23.860377133673747,37.53105098002476,-32.72731651160488,-28.2064583428895,0.7487023595224297,0.13809937810282702,-30.058233633710415,-15.821854532797756,11.409154496940694,20.8643425252124,-14.068204880165242,-26.115962166378583,5.666359516711164,2.923856566768731,25.95101683227231,-49.762845223677324,9.697166937842063,41.358297277666495,7.524101345158662,-53.14573691746246,-8.483033747132461,2.658306133947441,4.530078187294676,-10.066396675010038,2.999353657631113,3.501608608200537,-18.71124965855091,-19.78667612031301,-33.98477942317385,-27.978759792205192,9.24237142415904,-40.34383485773035,-8.016915417133838,15.675027446145345,54.329230469261596,19.706925318406743,-23.212730588893603,-52.29112451336946,-19.820215022990904,-34.898252132374225,-5.281184754390032,-23.359751588819442,-9.952849118482247,-45.930074399019944,-37.404095994736466,21.806362434512188,0.9413228311392954,-42.006126122001874,-93.51472080474447,-0.04513190190923119,-4.931727985224945,-57.61436174221875,-20.407092677759067,-12.405222424148999,-1.5634593803504493,-13.45678018399349,38.741045996189776,-3.4109437524962423,-27.939092456492496,66.72728264192601,-35.4963604434991,-33.14097112162329,-9.628209552486071,-21.916339420706056,3.5421401734544413,42.32276937275097,0.5268185401638619,-37.63608986226493,9.850770744095621,-61.39570844464778,1.6898115411358714,40.62158172576219,-46.767076737647876,-19.65710946001142,13.153129551125561,-29.09396138075699,-1.548624147273662,5.337265665866548,-29.88849009180544,17.457552126708894,1.9374486778118893,-20.61854203086864,10.036874029858836,-41.21732873719087,14.323323273575234,18.507372072813027,8.39940721258563,-14.113963030980402,38.127168644972436,13.950370636155766,-12.576563759015494,38.42309994862844,25.4489613111517,18.700274343493746,-2.453443721612872,41.22144230661424,5.16311071058748,-5.689851618244058,-6.546805113394152,27.733161639437636,-55.04979470181615,-13.080877284900847,43.09222938253919,-26.386858259796174,5.420420375989749,-6.4911397313961015,1.9578062289124742,8.61804380327157,-7.280694754809308,7.386619534431153,-30.80089571019115,43.68891651189028,-17.234499556623103,23.596857743671983,1.3690516091778155,-36.17721875883433,34.62729587330257,-33.222519119503794,-0.5292613703777949,-19.157529584760187,-5.836487698825466,-10.767902844490923,-20.529589433584494,34.02654368913462,22.653691392883125,27.786987892485282,-7.159170413978758,-4.508901214928669,-29.69077940520234,-32.78416225028092,16.272799982532405,9.944204761471505,7.71658899580789,3.7295126124229716,12.130245953849942,21.58138255276637,-32.43342856051682,-5.741338806685941,-24.27231446843194,-1.9476275240143845,30.754161479220596,42.80454308853305,-2.751040922958241,-29.149628313041426,-48.74029256016051,71.79496469759663,53.897401665953524,41.820846955121645,30.896277723539484,46.15825615517076,16.482265674204676,-11.261458949106213,14.560524289693218,-7.563321869500149,6.507773896883834,48.6450720947963,-14.610677896084878,10.081655395212964,13.925101820819911,-31.09901099232707,7.336833175312867,-11.579768671446843,44.179616764458025,-9.368650377268768,-30.217524715091866,45.0888367311705,-8.781922442655771,24.61767704590221,33.885572063827716,-2.5818886353539776,39.45341658048911,16.487342266104733,-19.694228050657635,38.27410989916362,11.142912565954935,-6.815777377577934,15.608626728081829,-9.999048532986157,7.37317900253139,30.923509295782118,-11.410536542066748,44.251229559421546,10.60508453321549,-11.312164803868097,30.909046003376826,13.73212883859756,-23.011870921632855,-32.10846213548379,10.283612236352075,3.904895304497456,68.48038543719343,17.2493218854463,-7.197693133809788,-25.26414904941391,5.194403441758423,7.741204507952476,-33.50667257816327,23.771455306658975,-47.25442838570348,-1.8769884479393992,-26.27529252032223,7.163986088321607,-12.981109769693518,-8.011393993908383,14.587459267566333,0.9659695190027054,-31.622012925883265,2.3645974236860057,1.05928643480718,43.26619360078911,41.302620837429075,-22.72584107950321,18.87096782343313,-23.13013978321543,6.980805142935135,-39.33687057761163,-34.53207777710303,9.843798006179847,49.018893947567065,-2.8277264164295626,11.307842623212519,43.318927631640065,-10.767543371435405,25.518875594359923,-29.39915800601075,-32.19546047037452,0.5778183225454783,3.533095324690258,-4.208675396832933,29.812155133733594,31.31128892322194,3.8008043438959653,1.9599899042092768,-21.516297370854495,-54.89855527710819,31.141677044168173,18.076309571486846,-10.161766809174587,37.358667865918946,17.795350146626735,14.197073295218955,-15.48922662466585,0.6659979741985678,41.72093011674605,1.0513427297094413,9.67268406915854,-21.246687307194247,12.344007583474681,28.60144789364492,-23.848607399700427,-2.4247392374428016,-34.351698232723116,19.55715321091231,2.456672643473301,18.70473180719447,-13.156535567515382,-31.285952285541992,51.39322260709813,-38.15537371790461,-67.31520837544801,-34.31296004868125,-12.781315744573808,-11.911046912935252,1.3763962995170331,5.991974568574696,-31.386120926457785,3.6429020763734954,-14.977497711017678,-39.738194598135834,21.415937406774248,10.595227246538274,25.316294988909725,-6.380614208466198,9.426227842446883,30.829802947637234,-39.46965034611519,3.30559423744812,-10.387398041133183,-8.543509629583724,23.73246801148078,-23.8698346859133,-3.392038288208914,65.73276405057209,-40.12335143893303,-27.366269873627065,-18.523067699401764,30.948312151193896,16.896454958103853,-46.690889414492354,-0.9507079369282547,5.2735199414092655,-16.990294098998984,34.63254908742304,-42.01963396395571,37.03076655551831,-19.25043456596148,3.0873730267787276,-16.556139148332285,-5.066988677232645,8.032198607517776,-15.225210215768765,-43.83129241458599,16.642339139514537,9.309626331371154,-22.344511962787948,8.064310036234636,-26.30444673478047,8.367445114841942,8.190911676761068,5.644109831221284,42.54636982879659,-0.19140224554390053,5.4656458023402275,8.543434048858089,19.22754876984863,-68.71036076638595,-57.473608642546424,-31.30986399651273,3.787220206928838,18.65362631180614,46.32545666122744,9.206223814631691,6.683459473007263,-20.804712750054932,4.829618938977745,7.037208327463728,-50.00149023276452,-14.498268293375379,-2.1014775559789465,28.219443348206738,-15.649589575337048,51.377612666407806,13.627580435075973,1.8488255927293462,-23.009192966044235,-21.18073928537452,21.27403195827134,17.555424721498465,18.702079932305057,0.14506618854237183,-9.86014505507885,-12.46663888454053,-5.2222242012049715,9.49230360247287,20.833454809477956,14.282305340028401,28.269135622350824,-44.4755282204477,-19.60745101208515,26.018084407542787,28.704846826699704,-0.18859817413984464,-34.02652790541416,3.3914728112541463,1.8994960046701515,-19.593066370478734,12.06635033324366,0.45894824509387433,-6.218517411274968,26.719207673755168,11.522507632363833,30.94225411133366,-13.533111008593469,-1.013489415301018,7.755057937996248,-36.28865267678574,-39.50539691967481,-29.98077103467319,-15.344139161339596,-23.05798244568907,3.601347648791168,-34.09148024400661,-28.635676136467502,-5.86541912716163,22.952758322791862,-3.4125011616660457,-15.392946438882474,-5.994763480633879,6.969262863700871,20.822113122616088,2.645308502289876,9.4382784713602,-34.61610515983672,9.331969964002422,22.38534564563335,13.518347488079117,7.321514031321751,-52.72656502222193,22.649760261194025,42.20833855006392,21.254994824948078,-0.9832850758702465,10.979090981178436,20.555585493346747,32.97626987686736,0.03613424734049922,-7.481888902278508,32.34270142817114,2.6639097869299295,14.623126518000712,-17.266900837004318,42.53470152510095,19.724549520251557,27.732556169726166,13.130727775284138,-23.377158181692764,-4.60873353284858,26.015648760191105,22.7652806654075,-34.244382515769594,2.299103901573978,10.842211539316278,-24.874706728827373,26.918823945135806,31.670728914927103,19.50127021492787,-14.652308541194195,-41.18474697413458,16.00465813756103,-2.4654296688529294,-25.046584820369276,-21.276937063363466,-0.46374447414525893,17.937544252719736,13.633414527460205,7.428519114758362,2.3627681539773757,-6.541420243653983,-0.07873113158765704,37.437985557668235,9.431867836775993,-5.529931574392954,36.986193164555665,18.738494138805155,-26.24690633366939,-11.603337925658298,17.623530683533954,28.504247323684034,17.51912791604027,-7.950618094878524,19.730540781896806,-31.11329747223894,-18.43561438148109,17.97721455736812,36.79313754011247,-23.574977904955887,-7.486316500579081,54.860341752469836,-19.706714405369183,-24.56401946624499,-0.8417517317197888,25.24553948610315,-12.887978743316529],"intercept":-4.863389656479218}