{"type":"sparse perceptron","classifications":["NEGATIVE","POSITIVE"],"weights":[0.0,-5.121522253341087,-5.121522253341087,0.0,18.042287261598997,7.692792134176754,-52.83849072109668,-2.8053650843236664,21.96339008693285,29.36681706565326,-27.052678558464457,-19.88558722059217,3.0551383530775134,25.432490003035173,-28.775713174652694,5.336148014584944,1.8770169557088625,-3.309656035288007,5.3460231449499505,1.3379242852434117,0.6616425655829685,13.06203394951393,-5.842598565749618,-7.0688560977529225,-30.63059578926004,32.557134153789846,0.7063008274490032,-13.542787548389644,-10.983640895855372,19.986196254163204,-20.639288245118436,1.9638806864428453,-0.17836486220267633,1.6645581061905372,-3.923030803585323,-4.253508441979319,20.61899501954484,-20.810007566753132,5.7811639943907185,8.461766393156314,13.343006460712564,-2.732022991197087,6.755562445238468,-2.7095670371362384,-8.393446678139526,40.57643223260208,32.077822826598606,20.574149645920176,-37.24253192407325,-6.838398454660719,-4.492503208397501,16.025161272376828,18.226244847060137,18.107896585093734,26.673350885277085,25.92869256850123,-6.103557434821224,-28.917902634408904,-25.78880648284371,-9.986340040157172,-38.1240210658274,15.306179646668966,-36.786505316491265,-40.52234791033902,-29.511670080911507,6.744463141691519,-11.116343197075192,23.236760564574706,25.838353763725305,-18.63573175880443,11.655655473527089,4.485754015656177,-7.6985068148280345,31.77191817451218,-7.452211986312421,-9.890838503049586,1.589013699299246,-31.54147209546785,-51.50538842259736,-33.161895377158096,53.66080631791812,-22.19149123906213,-18.61996010227265,-17.837857824921592,23.040051815630562,6.215783708644272,22.810939373653472,42.35840540685353,-5.0704970298901495,28.407131605133927,5.824487869364116,66.91060814660571,6.901650781106225,-7.907565240415186,26.17629284800808,-59.25740828774805,-31.083615291583165,-2.8847288598477356,-8.47121056803495,-22.532565937123817,-13.735674351188903,-30.36562462600422,13.835113810201499,8.80281495396816,-1.2268994444927437,1.5935706996694348,22.400954749101608,-15.838196230972919,-4.187888617582577,2.5065151412396687,41.61323462396499,24.153112767837786,-17.718855218490944,23.748728658393127,-19.614553399149052,2.808427806157452,26.27981655564847,34.63647917498351,57.66200714797288,58.71554574698758,-24.75808174345985,-21.60621645019497,9.383734747133198,30.44868869041145,-17.46635304054432,-43.76404291589555,16.11173035659065,10.783715278401088,-19.508131922822173,-12.084690699522744,33.93130853680379,-4.676469153333519,11.585508709817777,-20.68068358300583,34.061141440979036,12.89761172462573,16.40808114079388,-1.7916358296643602,-23.263395617291817,1.4187868967154944,-15.17258486977477,15.716059416262624,-13.762120548186308,-8.224598765512011,-19.147515661060325,37.94431704366434,-22.041470568373647,4.203528438556421,25.183049490510108,6.3951821433162745,19.972843343802136,0.10554839320088236,10.438592888493353,42.34671647980331,5.366201519678071,5.773692587825057,-17.536365064160467,7.424147286964769,36.79299296262869,-3.310270831091805,13.460244223079718,16.297376329527477,2.1715399827200206,-5.487658637793033,-55.205394982647775,1.5953422660652332,20.66808935912985,-30.708066556914027,-18.436559626184728,-0.7328440409636949,-4.493509401361,8.962123737128781,1.8534622431107648,-6.965423879388704,21.771978776354874,-1.1723799084562556,28.185154806096534,25.9698845404994,42.16936695213014,-0.31570599740426875,-49.418953058181614,2.9127072081981895,33.53415057421103,7.208306410564438,-26.731593275728553,10.885068054594063,-59.71163978257926,-28.608923459631058,45.635376877233114,-53.1714185191232,-17.55823173876332,-15.824241285361161,-31.30973759732257,-18.31416528180622,-28.938632637153376,-20.52735419238187,-22.34261686554598,20.53685128887818,-24.60402964232473,30.146987276739228,8.385731821693922,53.851679045913464,0.0718976502873073,40.55342285707695,-20.69375947469746,42.77622638928626,27.301096937807127,-12.051042374728661,29.105271447160067,-27.214696918530294,36.07855452481594,13.60435367248289,21.042892457546092,-19.101868101348092,10.105871020674828,15.827611697933552,-31.559054229208552,-9.202938869378483,-32.8558240499286,27.12272601659776,34.165010211758144,-26.45081460487744,-40.83618539965168,-5.058605280687387,4.120766589912295,3.7480941683194806,-30.77665102719271,48.472320856529734,25.319282003426487,-75.03083699182648,-3.0421030338153026,-11.206719738115426,-15.322099092854009,-38.342187859741145,-80.7879189985694,-19.065231949845465,-0.4716232639761519,24.494841076606654,18.728870482087444,10.874866235560757,-3.937651797285439,-58.08665474968419,29.30915598328864,-55.43332926492934,-29.154119935824713,0.3994567798580978,-8.38677113405919,-18.60505976021744,-12.549731497531207,-144.32518918242178,-3.1145537394104057,19.589262404850192,-1.070142886934966,76.79810061167103,46.33462470970927,-5.152880829020866,-2.5121267162050755,13.207027946164255,-9.49826987806849,-8.551794609636127,19.152399219329347,-44.32731035682529,52.39911632617071,-34.92191366812211,-47.502592704444034,16.743976664526006,-56.16885159173631,8.801732610868887,-28.683320609345046,-15.009829931541155,13.043092635022095,3.6702489642752725,-36.81351884168119,50.080141160490165,2.0692429302966846,59.06729939138357,12.058833338674352,-12.403724273903247,-40.492232070791964,-3.5039904542223455,-1.3116955454881476,-34.63331176024512,-34.593578781947244,23.00309512270879,15.945954120644508,-4.584163702579006,-43.42267701738812,-13.268404079916767,39.2102859596897,-12.42322118820143,-14.246817230520428,6.0313868728390965,29.888898552020688,-42.70143082970051,-18.341869509151415,-44.5766647034162,46.41910602297892,-0.4823650854669671,11.491648899157193,16.971728346921726,-37.45322478058985,32.165262734216526,-47.60052532442985,15.17350716025555,-0.03987723355488021,-36.64611088995584,-21.271408348074885,7.941197239479829,-26.209672574477935,1.1860887279989598,-23.777975349863436,10.931061036335016,6.157632918165521,33.086117780013424,-23.89791494877064,-14.462918475591136,35.60387043773738,43.250454966746126,12.403942428763163,9.201635435787443,-41.24852369480125,143.1640021664637,52.48569854238081,15.199078846454455,22.383420697603963,20.391183764253345,-39.457023101685316,39.43891302085846,-6.492310339578351,19.660548602611275,34.33927977036697,-9.433383168917219,-2.188191191956499,-43.1908686931597,19.65582103213065,51.03415231601858,-6.035204613145513,-0.8377132006574197,-93.59890447809642,-10.676937476932531,-37.65395845924429,30.5919676552784,14.220254359807328,27.36095462043801,-2.4199261607552205,-48.471564149115984,-8.563116223282845,10.537174991982914,16.176649379522278,25.33899588166821,6.431446352852808,-25.237744163038005,2.8192641133009735,5.101916007403665,64.02206600492447,-17.9441692184671,52.28174866055907,-60.763392887691005,35.65045318506845,-14.636140273849295,-35.24385380197656,14.011178504045448,-12.527341089099007,25.39316341673734,-40.29176098442137,-14.481722691458128,21.86396802848451,30.357022896238046,63.209092310771474,32.08161070535379,-40.89425016279798,33.3752476786185,35.310321223392066,-108.06607023532902,-5.358004405255653,3.102816463675204,31.87287309264338,20.44299732172157,-11.982009855901678,-76.5070187193095,-14.983829539285967,-27.79703091709718,36.09880549113298,-17.769693417154784,-45.55038807706588,-9.028684977793057,6.662046953910385,-30.060823203687086,-9.683251483873121,42.92440862106752,41.27443766825807,-36.18627904872747,8.623211704346206,-18.522043332190187,-81.53086257835663,14.762937694267007,14.273297881215706,-11.845950999282675,19.66441093194528,-35.33867770440978,31.087557044404093,40.0917973759265,-15.205404139809112,-23.50101400650111,99.6164683317116,3.2782184080285597,35.920867067734385,-4.860952798684094,44.74791936937337,1.213270653896115,17.80626389358908,3.5982801955781785,-9.21535060238355,4.241567668194386,-26.779958691242232,10.393615425340977,-31.29172017711651,-26.222735187037177,-33.677433780241735,12.71513152069117,-14.322081084413766,13.123173978292149,52.9947818056916,32.23171155993782,-73.04174065975624,35.54558228639014,25.980277088558797,-23.00047259960474,2.2300271468698343,66.47742443778502,-19.874279619493137,-10.050644285233206,-55.35577791218227,-38.68734656970615,-23.14742864144929,24.231222608882213,-47.47277613568535,-108.0367029593054,25.423705909750083,2.1212774980992446,32.94333698247733,-39.132462931989785,-2.1342594801378927,16.346906551960572,81.83821060559596,31.95567947685246,-24.469191875068876,43.48529095271743,-39.84496574725521,-17.36199247016655,9.470536404666529,28.181167393824985,-20.675514650138666,19.55604823000051,11.18829899434721,-16.796136716730853,-8.41920301821735,0.8019709173472982,-28.681366630406092,-43.284436579034754,-23.087337197080995,0.2941566724839918,2.338925248225263,37.64157614660872,-27.171536598185327,-33.288806222230235,8.938319579124519,13.936986277962571,-10.428438570515102,44.12284806995291,-13.73336488138705,-1.785046978496332,-44.31792063199872,-43.48313628411211,39.98012806834482,4.1389991641140655,-16.366188870272612,6.768324849968742,40.57422800543493,18.068128771432384,59.13647521221514,-23.627600411402433,-25.966859805828257,39.67232356663328,-13.975410775999027,-20.972720482701636,-17.043725802679976,7.0936879172107865,-22.445586108469545,19.179452727272544,12.58469336639935,-9.710528804191572,4.403674312151531,4.241561910311891,28.61250256289516,23.041275710529213,-19.81579781759187,-62.85347367243947,0.5833326802398106,-12.155931790914522,-26.4612061792069,29.547841580734165,-25.464619134552237,-12.548593200391677,-18.889238248022334,10.852328010629087,-7.039783256185993,-30.908485848582394,31.980315746704907,12.821893318726024,52.22417570762207,-4.8168237650905805,50.00551131216711,-13.914804586476274,37.657256182093775,32.88408860687566,2.225936714227091,-4.726702946255994,41.098524169959745,2.397370757659198,-12.89508974802134,-5.310805126474698,-20.250533074376253,-0.6060078114627869,9.31537229958285,0.17048552361229646,-28.84493733302913,-58.688977537437054,13.115659110555953,13.634947583091334,52.508299446604234,0.19731703094309436,-29.65126678657769,-7.464996089207945,-25.91381524383215,20.510499602552272,12.021865731393628,4.8225122310972734,0.985798426188996,39.369535832760754,5.8265558905985255,9.590609330891272,-34.00170572912114,43.79801463372806,13.79627958727811,40.990496933206735,12.614041291214878,-24.11925520751943,37.66082499512315,-33.115834838984725,-28.206602668281906,0.6193144935165037,0.13791649748771906,-29.799735920923514,-15.951150387572651,11.539238331411756,20.993598044618018,-14.068564463074715,-26.375522094442754,5.536995084168247,2.923539139911635,25.821373953352424,-49.76252284245645,9.308645787524732,40.96953121106966,7.394738367021011,-53.27482109961593,-8.094499064964513,2.5285000642156206,4.529950715328255,-10.066757125022459,2.8697814954087884,3.242787503056742,-18.840633781134795,-19.5276958881637,-34.37338639923593,-28.10825656773548,8.983557239079689,-40.344220555395815,-7.886666157177887,15.80411345808621,54.32932828955982,20.095586922168284,-23.342447006939295,-52.29083734107878,-20.208997885037633,-34.89849551882034,-4.892591922417349,-23.619001613654046,-10.47102229635115,-46.05961755989728,-37.404466556374764,22.195262463553814,0.6821541756985219,-41.87597813422637,-93.64451483168568,0.08513299606132241,-5.060747826697614,-57.22567250169344,-20.40736279413254,-12.534638906240867,-1.82313539087432,-13.97402613342411,38.35199121257647,-3.799692696893645,-27.938838742214685,66.72704729731741,-35.4963604434991,-33.01155145252276,-9.627940197328444,-21.786957669068283,3.2828388022711894,42.45230640738917,0.1377516518591926,-37.50689288362131,9.850547424693401,-61.39557949519056,1.5605039831091048,40.62128264912039,-47.02588433352356,-19.65710946001142,12.764079805837062,-28.96410136984875,-1.5484966169702754,5.078241410147267,-29.629602014300588,17.32898790171562,1.678182705736276,-20.489026686152712,9.260213996911256,-40.95816693942268,13.675961320353512,18.119169822921922,8.52860717464463,-13.854830544622981,38.12691514761205,13.950763580976034,-12.446874904867407,38.164105876920466,25.837363263893895,18.82977102799435,-2.3235625513804234,41.09217466848263,5.422139800914172,-5.6899136514256305,-6.4171140704014205,27.604479866741116,-55.04941045533083,-12.692079126240447,43.221942707096936,-26.2576232164727,5.031862875503817,-6.491393228756485,2.347009368659944,8.48899863511005,-7.410452157320096,7.516161851475256,-30.801925053405743,43.818603059504696,-17.234326556125716,23.596651531415034,1.498426404923336,-35.788547971247084,34.627244021821,-33.351772650423456,-0.3995983645299933,-19.287448182816917,-5.577574584315175,-11.027067629777276,-20.659180185988404,33.89723613110785,22.65310775742495,27.527772354750567,-7.547926785480501,-4.379919269343605,-29.69061966779815,-32.6547241653775,16.53216149954081,9.684865946346537,7.587338723952354,3.7295126124229716,12.13061354037857,21.451674137284375,-32.43363308923296,-5.871275509578842,-24.272870138197522,-1.9476275240143845,30.365806503619496,43.06375756840152,-2.6214584875003273,-29.409201790757706,-48.74034798460894,71.40618571991965,53.63850476886319,41.56249725659779,31.284793536550715,46.158437942284486,16.48252061288602,-11.649666060350526,14.431719119600007,-7.692540869861962,6.378456303000998,48.64506875079387,-14.869960256020374,10.211405885021064,14.184771262015724,-31.099004312443906,7.4668316397796985,-11.450612290737027,44.56783574118703,-9.627519989891708,-30.217524715091866,45.08858177785388,-9.040840111692482,24.747009037720257,33.88568288545009,-2.5814875182014214,39.19471114037975,16.35798620059882,-19.82369129604227,38.14474598544402,11.012909208826656,-6.945084935604701,15.478461674262544,-10.12854217122326,7.243984129070171,30.535626671887623,-11.540551335972753,44.380791768716335,10.4755877576852,-11.052877279421795,31.29757729628141,13.473071050460021,-23.01130315587441,-31.978795724794214,10.024754302980005,3.645750698891618,68.6097281314097,17.638063136893148,-6.808603945181925,-25.134508200338786,5.194403441758423,7.611707732422187,-33.37729371753578,24.289566564797592,-47.2543055605171,-1.8769675962437624,-26.0163307576449,6.646480673126329,-12.98122734434266,-8.011888538448087,14.457808029397007,0.8366201463471629,-31.622012925883265,2.1058234526865633,1.0593666390104903,43.13685570851491,41.17293937203164,-22.855702776795592,18.871263137217138,-23.000820519817953,6.851475844675908,-39.077668573868074,-34.272826691428634,9.714502151404952,49.40762493348019,-2.8271495255925325,11.567066415625622,43.447929116685266,-10.637077442450206,25.13058776585386,-29.399362757357725,-32.45455303663353,0.5778183225454783,3.2737552955967018,-4.597446049641012,29.942037640040265,31.181746832995795,4.319319107269093,2.2194255527446076,-21.257331822396562,-54.63940506553917,31.40089256762354,17.946302903905874,-10.032413756203638,37.09942960887265,17.407235410495176,14.06777744044406,-15.489151002754197,0.7956845218129838,41.98028812372318,1.3102952499540175,9.80189590242151,-21.24660302719866,12.08490397398452,28.860153195849858,-24.10787626586716,-2.295287723507346,-34.351698232723116,19.428044209867494,2.586532654381542,18.31642506552541,-13.285993784875728,-31.156716673258593,51.1343764589123,-38.15551295637306,-67.96209830376871,-34.31328081420473,-12.781349015630056,-11.781752729880548,1.3763962995170331,6.120795351246788,-31.386481567643703,3.7722062903978304,-15.366475235081182,-39.867714855104026,21.286286168604924,10.595227246538274,25.187342033031285,-6.510262468888589,9.42603991297135,30.70006598904612,-39.59926294446441,3.30559423744812,-10.387408075994935,-8.413977595658638,24.121316356863385,-23.999301386760198,-3.2615959189366914,65.47380905768145,-40.252568769561414,-27.236837788738807,-18.393827367306145,30.818798604076868,16.766941058126264,-46.30271235631244,-0.8213317887149394,5.2735199414092655,-16.990232180303703,34.633024432594425,-42.01956203906981,36.901419238718795,-19.12088132662676,3.2166352560355063,-16.685495224412723,-4.9374365389746036,7.90290275274288,-15.354695253772624,-43.57216242884041,16.512951273508612,9.439318406411475,-22.47431803251977,8.193831650647837,-26.303858763897836,8.237782717562247,8.708759966366733,5.90305146223,42.93528757786682,-0.5800592272876876,5.594679129890761,8.28491919372138,19.486254567006068,-69.09909980806036,-57.21489686331771,-31.438773794022442,3.787369665659611,18.524300358673866,46.454758630034334,8.947015258677505,7.201573169140696,-20.934363988224256,4.830032678517985,6.907735209027988,-49.87234584970403,-14.756925242852356,-2.101598763079797,28.608173771158196,-15.520138061401592,51.377612666407806,13.368316608932105,1.8488255927293462,-23.13852208914206,-21.180318031181095,21.532782659118023,17.42554061274313,18.96056921961976,-0.11423790948076276,-9.731018353187327,-12.854840218591747,-4.9627871637824565,9.492434964705174,20.704235809116142,14.411495350521614,28.528343877720214,-44.605145848445105,-19.348282802616293,26.147885496600562,28.575482394156786,-0.3183251519959013,-34.02641765952301,3.521270658641522,2.288418380642001,-19.85223300332108,12.06635033324366,0.20001653367841854,-6.088830863660553,26.719207673755168,11.39264593507145,31.20133238871369,-13.533111008593469,-1.0136995198630832,7.755057937996248,-36.159501249049576,-39.37598561171472,-29.851386477342377,-15.214769535620368,-22.928365022802495,3.471403215505444,-33.96197843745641,-29.023845323330516,-5.99455119901996,22.82316757038795,-2.8932291883601606,-15.263578659221675,-5.99455119901996,6.451776302962443,21.081266082052167,2.645308502289876,9.438768876418957,-34.35680265412472,9.331969964002422,22.125918696621806,13.647916412268339,7.321482024945628,-52.8563727769372,22.64940614705149,42.337825194402335,21.254994824948078,-0.8533028485357448,10.849473410908809,20.4261272759864,33.10564602508068,0.5542829811388288,-7.482595351128254,32.34262765802529,2.4049174999347143,14.752613233056694,-17.266801585365542,42.66436453094875,19.72454453957751,27.732556169726166,13.13090541152806,-23.376979756380575,-4.60846747455783,25.497737812294734,23.15370764890479,-34.503451599974674,2.299014872699446,10.712349842023894,-25.133485734303036,27.048227410798916,31.670728914927103,19.760452112561392,-14.911146324290932,-41.31439821230391,16.00465813756103,-2.3356791790448304,-25.046584820369276,-21.2770646232491,-0.46367430091157935,17.808047477189447,13.633414527460205,7.16923078004157,2.23330148227752,-6.411669753845883,0.18046584504278962,37.437985557668235,9.431696695600932,-5.660093190226669,37.11576208874489,18.609168185672882,-26.24690633366939,-11.603173810678797,17.623530683533954,28.633551537708367,17.38951875219705,-8.080114870408813,19.85986329996277,-31.242605030265707,-18.56511115701138,17.84757512434815,37.05201383495814,-23.57505849831509,-7.485987367883332,55.11960226090109,-19.706630764206594,-24.43457116937274,-0.9713424841236972,25.37508155488999,-12.887978743316529],"intercept":-5.121522253341087}