{"type":"sparse perceptron","classifications":["NEGATIVE","POSITIVE"],"weights":[0.0,-1.9819437946712786,-1.9819437946712786,0.0,26.294616034989662,8.58743432421677,-50.3477848728858,-10.319268379447921,25.712752228883843,31.08962252847654,-31.885345958164574,-9.49499728306912,2.417277753945995,1.8252001988027315,-20.340782904885383,-15.608023268241435,8.150319953212419,1.604894597625525,-3.6006654943098733,-5.3319236964811845,-4.907719559525871,12.775900342143048,-8.97946662117603,-1.4048365103450948,-14.24174510016431,20.312110999847967,2.0297419359668645,-5.989236665686148,-4.398528796742475,-4.048464426265029,-14.056603094126897,-8.683820554644889,8.897116258375766,1.2746006332764899,-1.6174529472309607,13.61498248290275,2.574880463454976,-18.52622310217814,13.234030849629805,2.111369947446167,0.7555368258944934,-19.519338432044062,1.1330313702667991,-13.728712619618692,0.32396397601317817,16.062853830838996,23.71373485828386,19.788326488439345,-17.079480288584374,-1.8820340446504171,-9.301274239785698,0.07272065873500977,6.2418865548852205,19.26251143602522,20.52606241654524,12.196545319445736,-1.7799839394317372,-6.171443982810075,-21.841643368193356,-8.928933821029677,-7.205578686813597,19.204373496226808,-17.73373024902094,-23.584553166462474,-18.444499907034352,-1.1765424736286478,-10.733926172481675,8.871790600805154,12.451746114756233,-15.142771023455733,3.2711993780007957,14.126552661429708,-10.453150535376555,24.31088408757402,4.346592547789012,-9.182843161527591,-1.8645399760026138,-20.609270624289774,-25.3015245461024,-22.217419638035377,36.75033873629737,-2.556840082085304,-10.941695142481507,-13.229708177214535,36.89918072218032,-3.485106319895113,21.00905263290578,40.33132973363894,7.660745748845251,13.08630724306307,-0.11473762136541091,46.24965019860619,5.06982905041567,-13.04853359036632,4.9010331896061485,-27.974354725293722,-16.729648131189528,1.9123454858390172,-13.23500869757707,-0.18033564591465404,-1.241009495609839,-7.7726437809121265,6.475361617340077,-3.086716190521213,-8.282596055454007,1.6405294470816523,8.018278021602802,-7.344706760226623,6.730001587585485,-5.01227813814758,16.987838288326838,11.86629029498769,-5.760224255345378,18.518861168944998,-12.035570852482257,-2.5811866766447604,15.493386916598768,24.403590427186174,39.23504263467444,40.19639138149322,-13.851243049452936,-19.389407608249577,-1.1908285120717401,10.193473315928905,-14.252904830380286,-23.058386667686392,23.77271580717302,13.047147046507632,4.994898570025265,-6.072664046548223,10.091783949852932,-6.923047086160677,17.99901248825755,-6.571260935252867,26.163749751951283,8.770172657587505,15.095243357121728,9.204028457251944,-25.271069187827262,-11.127112619312596,-6.917948356820733,2.2441089866190453,12.685367079260617,-13.407751648472159,0.7697801589081633,61.633893256092335,-15.327670884209095,-5.140941341033242,16.417708747141067,1.5552982500587034,12.553551003737022,20.881276499040172,15.117197942075627,46.26343101982064,9.781707598224536,11.779187018077408,-25.650261863882548,-8.167208481957633,31.155386015724474,-6.056766715974004,14.34347502209444,24.134709371992006,12.160761708369321,-14.384935151173512,-67.77795968616165,6.210749992597852,25.27382691401232,-11.489734646033794,-24.748208273303344,-7.441946120822231,-9.940647476270083,8.027438763333636,-6.513787737188139,-8.873384042279556,32.33156042037699,-16.299539520560312,17.35620713371274,11.55100098544752,47.66020521262793,8.377431802086882,-44.912064561729416,-6.594769590001766,9.098106060363552,9.064111965446443,-30.54893052064157,13.949273175807967,-39.17735925493634,-9.84458388168615,11.734649292510744,-31.51422248631667,-7.826972281488406,-8.682732258670598,-36.1701320624643,-15.769310157446645,-8.731496204174366,-12.719763916731043,-19.812301906940405,35.06481652029802,-18.822181910938735,25.762769366395414,24.32961084092664,63.27350905532781,-11.931174109727579,32.964175975189434,-21.508131386789564,45.51464126947793,21.60979982180089,-14.97706886605128,19.663154021926854,-21.705319948769112,49.507570718840846,19.26707182745896,8.634533113592221,-13.540608946763477,21.83545540815012,30.68089202286928,-29.13941420996016,-17.585518247761975,-45.35913275556479,19.904468729453793,7.266262263756367,-16.288700348401665,-30.328503941969604,-0.9067722622553324,2.203481184921475,-2.342683742543145,-0.8845141952924352,28.805201418847822,36.095620707246255,-56.17899854755845,-6.272698531472667,-10.8615267391126,-4.874690511689763,-28.038340874193285,-75.60924664924524,-11.355218911974353,4.151693875812534,27.293579043202225,19.86564521001958,16.080760381810094,-1.8992711012549723,-36.76958125376511,16.760387414486786,-46.15684663972921,-40.60253174060894,-10.508231045370486,9.68861533053142,-26.58685014883134,16.367763881497183,-141.14451628819208,10.307291680641109,13.670227983635824,17.501702121178823,76.70089766737367,25.417218650347998,-23.028808707567407,-6.003721506476961,4.70803048656486,-10.057615659337591,13.274278529898837,26.340032555179103,-49.218532954953936,26.026564645251355,-31.06149801562802,-40.954501015254216,15.28795744495238,-33.970944286952786,-10.054454139673911,-14.275959336337422,6.988332008076006,11.690472311222612,-7.04433909532628,-30.377761965660383,43.59857783822021,-0.07109472810836595,47.6181988104769,20.680964643470393,-7.536788600831017,-30.63105246537722,-19.41355388416276,-26.04769207711314,-17.32387566917195,-3.7874055522485293,32.02794758619166,19.713654426530077,-3.3822754476605814,-43.5075606521822,0.1042088351080851,31.25641292674784,-3.9880539980720546,-19.792217337727923,-4.776340908635971,59.62633881459836,-30.056042700718038,-21.477411291144925,-45.45068702915685,32.955764148570694,5.286284885434646,14.020766517986493,-6.021374413181595,-8.081623643754225,29.895762488617102,-21.0274362879444,12.511699127263471,-0.010593414753953326,-8.778421007059078,-8.1735667124487,17.158254702272362,-35.36862828233498,9.78067639896849,-19.793643376653954,13.326771369875592,5.85356183949058,39.99686101733578,-13.124687964026874,0.0925457701996743,26.083497870166276,12.263508249727032,17.1981190661549,11.461051853604122,-45.60909172457262,135.77835727340198,43.522772296216445,19.98321671945953,19.285045674624357,18.06209323803614,-45.91657548444778,47.74042861454338,5.0003116050035885,19.959250368620324,19.688409698226256,-3.0048244984841,-6.933709069131057,-13.990868730755585,12.373864284583439,22.684563731124985,6.308861221461683,-16.123207661094785,-91.02635735778291,-4.385962663011591,-23.033541978379,45.27500653231318,2.4760257279625035,11.173736080781316,-18.47877754504322,-50.1809505376549,10.031345552668471,2.1467882195888564,12.843719077908851,39.00720838702525,-0.6440155254422222,-22.14773626980937,0.4589455090679624,5.024427540545477,61.00162206444414,-13.491416550606784,40.997299800091746,-76.6375745220644,40.26251179714327,-6.109246060268273,-44.25334924258466,8.209266595614315,-32.348934061609,2.1927384287630134,-24.723091358951752,-12.766706846577792,17.75604081901666,4.963720601676907,61.10623637311542,26.41605364005706,-48.24000440413853,33.0761510033047,32.5951780499396,-133.8594585180648,-9.591950694922026,7.92966757021683,16.48534931041766,28.30010705974955,-32.457033315550426,-86.04471097467324,-29.66387999129159,-33.5761443662512,43.80662675245171,-29.35012506021693,-24.476298446121696,-2.48678837780005,31.17498018381172,-8.578719135719746,7.786657724548472,40.15932577048675,33.90636143905016,-21.10239334451149,-3.716194785905739,-31.322989316142344,-70.54060070979627,40.273229193813556,-0.9550290963477179,-13.002800318697288,12.924073012193173,-21.62853635977308,-2.212623394466771,32.66153030988182,7.763513695136126,-15.228705223072582,112.63008151564242,7.36431996897298,46.39623984726404,0.5141898956420059,47.597906336912864,-13.524918701161537,14.986110117359704,33.003263670100594,8.924066653918533,32.14496566093694,-48.07106167117478,2.654076668266736,-24.55570399350049,-19.725804078759907,-17.819931289912738,10.904668445825479,-27.849118911590878,15.095137870365335,24.5632174912468,20.631802327196713,-56.43073921891988,14.56303028552056,18.689808796391425,-2.574288601661421,-20.41965549051161,30.733669606560237,-32.4942390030149,-17.455923812786,-47.65855495388541,-53.821874303503634,-13.168198088115076,17.87267692859023,-36.983214761890174,-113.18987426921636,27.62069912825571,25.56954333751627,30.691033526215723,-16.106606144444374,5.391535389639857,15.720117006606628,59.78920746194244,43.66098810549541,-8.263353766865249,15.271130744738882,-42.26445868971404,-22.03401268746036,18.424734506693113,21.820921321229793,-31.31829853634463,10.690407715003607,13.876594665365625,-19.590256654341545,5.988172269229943,-5.257106548305114,-22.21352612563153,-38.77586972652723,-1.0500166017335848,-6.9608205194379025,-4.862448087335619,34.35373669881694,-44.44426827023122,-18.333878098342023,35.47132606257468,17.084414246044922,12.078008398295045,50.84785061255388,-9.154676342934483,4.516731970516876,-55.89416459898843,-63.84649744268701,34.24885615255388,-19.03608889561261,-20.970187306819973,22.081379886920065,28.473014255435675,-6.137443208531012,42.91696715020315,-49.256380546857976,-50.18539404164079,53.105648012406455,-12.45903014994441,-13.531565861088199,-25.027148257286022,31.073518379762824,-11.677211024946159,-4.044598167678876,21.153280465374152,-5.665442254339461,-0.4944640359237603,4.334833216474778,49.30658991326348,29.076749090488807,-25.564287855801837,-47.13464614859859,11.837653443586307,25.986665353300776,-12.864537055611601,22.25037540628533,-19.8496303798626,-5.675791425237092,-41.45017300624929,15.506260374779863,-25.6431685191874,-9.77694221232131,16.518144348638366,-27.72104185726543,61.61822868564387,-34.21300751022868,29.150244473523614,1.7634243920390922,48.13104775355593,24.46130446215865,-1.9070611728911098,0.2505206420757331,58.332922226408876,-23.969920546481884,-5.0447671512497525,6.187938295505338,-24.628374060491282,32.20534091729484,18.233768549605657,-12.383672625471567,-16.78937589318108,-39.32374230614468,33.711236924662366,25.217243515240586,53.192326408878294,25.571860048437006,-15.936540325541772,17.097054184919614,-23.61398309061836,1.6503632310522025,14.873494169558791,5.357919706538535,0.2774317625350701,21.177739049284234,5.096581715867684,23.529063751263248,-19.2079883278479,36.450605586043636,-7.732183595227331,46.091585495114224,4.371277405100206,-7.596096020091089,42.78295825132302,-25.492733053842002,-25.710827962480966,17.689920050033123,-14.480493213282724,-19.105856911960398,-40.851540661070835,7.717886239387384,-4.826400846358568,-7.485916142114126,-2.291969142908719,12.167819101845051,17.625341708334368,16.776133723203618,-49.81087107964606,27.115651177368235,39.29664885174184,0.9324213799717367,-59.7501018467805,-14.076826536886067,6.755910069142687,22.785219230945092,-6.93211830941265,-0.8912224303253458,9.126687533829541,-11.278892124904846,-9.662501499644636,-21.938323813660123,-25.258424674056407,-11.282265566030732,-47.52004167482113,-15.538618575657955,10.745088304195708,47.31982630494988,4.687945021512783,8.177147403808103,-73.35987321337714,-21.591260429646464,-25.444748178262635,-18.119377576083796,-17.227178431459652,-23.774118626693035,-40.53726996632534,-17.253234112036786,25.449351287093783,-6.605897190966486,-52.268478235972054,-97.73005274460402,-10.516078425810019,-3.141351119153266,-59.47894248920579,-45.68440650757864],"intercept":-1.9819437946712786}