{"type":"sparse perceptron","classifications":["NEGATIVE","POSITIVE"],"weights":[0.0,-4.599208492649481,-4.599208492649481,0.0,17.712317478364028,3.4832033102081428,-45.30626567873193,-3.063013801210499,18.27792678530793,26.983189246326486,-18.637831227202433,-13.968884717425349,3.7996128489157597,14.759894153671537,-18.61940424337656,5.366473587332897,-0.37454560552846333,-4.419528497119897,3.2821813438946568,-0.025723522742082047,-0.9339265785820957,9.93942756711864,2.6111758663039466,2.2551588817168153,-13.749585430747535,22.19604801701355,-5.577450113327103,-6.763072193498707,-5.8241980371796656,10.79884464987572,-8.179294553567548,-4.192369354489793,-3.8550709199392714,3.5724919250884555,-2.3983799821859333,-1.0998194354803632,9.157914836227446,-9.075416121644235,3.0988100970215458,3.0866258801233397,8.79284844772076,-4.721686019076905,9.586536544602609,1.5505810275770837,2.1109957846475145,21.242790974923288,17.874636613190713,6.218957933320332,-20.821811952136468,3.3171371432921224,1.6197302105570905,11.540193870073384,10.045002533557222,10.480112508502666,14.102629018704363,6.602901916465584,3.0411596498531575,-7.129643241499167,-7.379076858632941,-3.819784158680793,-13.28128672481268,2.0631342918803575,-19.539467201376596,-17.09866945949275,-13.284714232259683,-4.582222551341687,-2.3445287033141318,11.449364771207584,10.12566614696597,-6.33884049814312,2.169044988605638,-1.1636320314047897,0.00501497777348936,16.841122876830816,-3.220127186447328,-3.363080367002978,-6.220665295262306,-15.058807651440757,-25.37548495081214,-14.973860659315518,26.69610815991995,-7.254333275741593,-17.820318532845032,-3.5124930791728595,15.00451784044991,1.0438315718758482,10.9768238047852,24.23834358853348,-6.572644657065636,14.489363354319218,6.93320690138687,37.83555806252224,10.437011381146348,2.2237632835336014,13.575251082008702,-33.59441959207604,-18.091875489428297,2.428548581349622,-1.823872031583023,-17.836525564318286,-2.2293888171173033,-9.551377330489643,5.8365403689201365,3.7931067514723042,-2.4651483154406857,1.220541400140645,8.054190678231535,-6.420473185554773,-5.241487841269431,3.271681010437757,29.50431443655618,5.9592293368619265,-7.93815737960115,14.268471893270021,-9.708850552758742,2.914234655016678,24.380686222340287,18.42155880475782,32.95781555591493,32.551519044769584,-18.058947662769317,-18.54397538999,2.749906629565678,18.18330579747817,-7.3639628526223,-21.982337798208665,8.136362065420133,8.454841854600174,-9.007261089902125,-4.543912024649357,23.44100262254315,-2.963773821993408,8.007600558195255,-7.66182049538526,21.32284087109788,7.657279533969713,13.379666886621797,-2.16104972717745,-16.547372048784904,-2.442671582230752,-10.714114344940903,7.967936525509355,-7.421027412897273,-3.399306295865302,-12.229435276496131,24.15293994625909,-11.878910935829754,1.9188495345556869,14.700771389398183,4.620410023124717,12.162215495937941,3.303276718296379,12.789018676349473,24.332442252843162,-2.8812730936608095,12.558628699980325,-17.309220121652466,6.952226356156272,21.38729124346474,-2.787333826268976,14.27990152935014,12.41961584963942,-2.148305618388751,-0.634950870639072,-38.48003049584226,4.251459183601122,19.843801950497404,-23.189279600864946,-14.11223330396503,-2.1451560693875296,-0.35443545212026983,2.4962081778590135,3.0115503127458685,-7.087903688833278,12.954588028487752,-5.409688442067038,24.367851336621236,10.788975711746707,30.25502346613102,0.4425815588729213,-32.041554590187594,-1.0355657412623758,25.924472126804673,6.086773056526739,-19.925718107209896,2.5545167410559944,-47.504597040704226,-17.55070949512596,41.53810713440701,-36.52714336099429,-13.270459846702304,-5.811184097285919,-20.788266684715094,-13.108152610862437,-19.18357432973798,-13.898249832788578,-13.504014709070711,14.231865526451735,-17.736446968829874,21.41073920790679,3.181213068113758,38.577854664914675,-0.28932508662565526,33.26760578244796,-17.462488535058338,31.352440859240136,19.176570869129375,-9.12295032311107,17.641486033902886,-16.58219993416765,21.874628747750872,4.8016414268133625,16.4554849811439,-8.130748404509273,11.611521750813251,10.228679298807087,-22.903625797628436,-11.152243984282219,-22.084496037658184,20.858159010884663,24.88281199558572,-17.949366855384813,-29.204597966653527,-6.944263279193341,5.3435992660006075,7.978869158882162,-18.66741984930352,37.59314156020762,21.327057321722016,-54.48955257123946,-2.915033826380912,-3.8582830908939267,-5.2431611914775464,-22.965354063551782,-58.88141997329113,-15.852206698342092,-1.2869148596866726,18.675588245453817,16.517274452977848,5.007170821648809,-5.939676062687064,-42.32442928471288,23.173215897876805,-41.56125508280986,-26.483584167863352,3.827254000566057,-6.647951813391108,-12.33468367533373,-13.170448250444634,-118.77268006571988,1.775939220571051,13.84399423974837,1.6211328661206679,61.76082116762987,34.971149813550106,-5.7735590399714205,-2.4658630225990548,7.595970669228427,-9.704079367639372,-6.129589062803165,15.962214835761557,-33.41599024015069,41.69073026923108,-30.741182011783266,-34.535533036283766,11.879186386869844,-42.080925828587475,8.042450110395906,-26.48096237104387,-12.625686107916316,7.777216117921009,6.364334066736538,-31.727678239353118,39.08193861838956,0.5382392015800982,47.324139978405874,15.45174720301492,-8.642233105355146,-30.354159944579347,-7.086324743103707,-1.9425661104296437,-26.56002379070771,-21.177051957161268,12.408548641466146,10.278195308352688,-2.2558468772992195,-31.400664657946454,-14.396385298703434,34.60769019640225,-12.592225550044912,-3.3367165792831646,0.16944974200352292,24.93239761702434,-34.34192271345675,-13.671506376741611,-33.40323821777315,40.41111228579173,-3.531599560544654,7.809060440274412,11.373083723090089,-28.411682306181476,24.74587216019311,-35.94846004557554,14.03989204809174,-0.0231077482316029,-30.579846542708097,-21.39401952737707,4.582008131262357,-22.36925627076508,-1.2172682408612816,-19.74058866438031,8.81931365852544,2.5830988270117237,34.490743793999634,-16.37802676142599,-7.106965757094751,29.711130749603452,31.389496625941185,15.919581801748263,7.663345553757888,-27.42605472296058,117.9546919866069,42.08738975578748,10.296108771261446,23.721259082304858,15.95279603427025,-31.903030950442247,34.854504907970586,-2.5537928358190545,14.395953418791605,26.35208516731238,-11.310057005992705,-8.061687370081684,-35.41028853887024,17.629727331152868,44.50060168840094,-6.435226388000214,-0.11178195765861693,-80.18417209626818,-9.840271796117,-32.339293711417135,27.54277272971326,12.046091128496576,20.407418407161835,-0.3385646434054862,-42.40357018012934,-7.404076090868318,6.540429080015538,9.818291341701794,20.56350526282052,6.9035527020586605,-16.661981366649428,8.29829443178322,9.855705618010102,52.089730477795115,-14.548621954975223,40.45912551087531,-50.69499063748003,24.76151650645537,-10.519000136776613,-27.840405917799597,13.870746494046013,-13.720209112760692,21.968015812593617,-29.783411965402923,-11.451999360718217,19.797519577799726,26.48304821687762,51.427270481269346,24.647716086662843,-30.991480115776085,26.424008970828247,28.851017538337103,-91.37013101161388,-2.308792222440833,-0.1561729916976316,30.431790898246266,14.555072262442131,-11.985444561656758,-63.21743613205878,-12.574216989721037,-23.22347027592987,28.238536083221078,-15.841583597854479,-38.97203692153023,-10.144621028618465,1.9986936465419627,-23.820323193818222,-12.999411463786243,31.74793808996295,33.057823193089604,-34.16320457300488,5.693630757283677,-13.040913105945545,-69.53576947723492,9.276259144030655,14.499411359535426,-6.5059032323758395,16.511029398031468,-26.41358763799398,27.92650161927623,37.625644666855166,-14.681536245708015,-19.764589256551034,84.93238979662222,2.7615527987908903,35.02609035823546,-3.3040212604045562,39.20859248896552,-2.0555528141306656,14.57754156069952,1.7657303056686284,-10.116450960432825,3.1456553786846126,-21.710173314342285,7.8067825963567685,-26.61354712339502,-21.137821847189656,-26.79718841156375,10.390235067576402,-11.176622823710241,9.310356557593074,45.317043637012205,26.62328311514132,-60.95795269579069,32.08668344096111,22.032691046743015,-16.4120791069087,2.966302248407456,57.04418093862877,-17.73624408652501,-6.178806563676261,-45.96635513046506,-30.645124535574148,-18.541604534186103,22.805159676350065,-38.50548392177081,-90.62157524981978,19.783201316882398,3.1263526555147574,26.638599591984505,-32.64735412992325,-3.119546076617449,10.361571185415444,73.38907430522947,28.588172030621045,-19.86477580507284,34.95260199588319,-35.77014890643354,-13.244417187154378,7.714537740689838,21.043023968801652,-21.97471580809159,13.176354120364,12.326690444953302,-12.762444027960278,-8.95710633214614,1.7539068760678391,-25.413567691727952,-37.640586084039164,-18.14558965958432,1.8703546227613603,1.9514179100344775,31.477157543463687,-24.522852772454154,-27.86759765760275,8.8281779697177,11.613384470363455,-11.30231882224055,37.48884811535099,-16.351379211453523,-1.412138952003202,-39.361001530160614,-38.19784242328733,35.44220832394272,3.49303228074356,-16.61016079673048,7.356819026162684,34.25589669906025,12.193229640981565,50.775420011963654,-19.873900897280446,-23.5765034609141,31.58181643896864,-10.834787586275018,-17.623278189246385,-13.591870680014493,5.544529562870575,-20.164113298986905,11.987854862901532,10.939842622751677,-5.269875319493595,2.4583404068136905,9.31781107694634,26.007142184205904,15.597124764387804,-16.748972383848802,-51.863700995886646,-0.11408776901757062,-9.805109512367146,-24.03532201247264,25.538501321203956,-19.350327564283788,-8.09207734473561,-17.410344172201427,11.264396938850462,-7.838010633454735,-22.935618382002914,27.749542892139786,15.958891155031,45.075880620465185,-4.67740760406451,45.83173149419928,-10.03289503614248,31.228938670179186,26.08897683505162,5.797837348919364,-1.0252617274793099,37.32873593271358,5.130889165213177,-15.640056217104723,-1.706933492221892,-12.791338684341833,1.7566469577359023,8.375184128350325,2.1203777198336557,-25.745453650781926,-50.2293412410405,12.188249849363043,13.376199848877619,41.56600833275023,-0.11379489648554462,-27.234791608010113,-3.308123506661128,-16.242869628533317,18.747116580119663,9.832621992002334,0.8387133936288681,-0.23455505823884976,36.00634960144817,7.336184331866344,10.176064899528384,-27.16054293319046,39.01136438398937,13.923966343174612,36.949935537809814,11.282326342378136,-20.61144573783002,33.90798552852817,-26.82630300604037,-27.91422251693245,0.6705387478366127,-0.8845767940007124,-25.93684549992226,-15.443614016528413,8.380796260811039,23.573788163976328,-15.950899122529739,-20.253833039611397,1.8568671964730574,4.022928797395661,22.372819390688154,-45.424388956808926,7.314236872281712,38.24043802950549,5.397693466965363,-43.72028748389369,-5.097172613092811,4.507458489927609,5.681310049298839,-3.91843511529074,4.07283200242091,2.9443070512421574,-15.39138406191511,-17.740277432056292,-28.52970047074898,-23.69026824709802,6.862040863392794,-37.73238358060061,-6.384980693930504,12.5841678560894,45.644588069721394,18.86635052971783,-18.291762431320475,-44.24872455770901,-19.642116294326936,-30.733255181186056,-5.171748629594133,-17.095131795424443,-9.430050499173774,-39.5951807833259,-30.462444134150665,18.029994231335273,1.5317343784921593,-41.094009382552954,-83.08372655618061,-3.577174769218121,-5.430345325796202,-51.951437884748955,-13.780803179104462,-11.233783374614212,1.0893308911963708,-11.2964072541579,34.731150898059106,-2.5666708127905276,-22.802669353182008,61.042886184041144,-30.39453790877231,-30.72535686172244,-9.232704282019071,-23.14723764070508,1.7077898088683177,37.39755070113981,-2.3602986059911117,-34.361616471555465,8.909441841065998,-56.454880452232324,3.474312929291493,35.49543146325837,-42.73833189999792,-15.216499260574311,11.955325286269467,-24.31814515130429,-1.3028424821243245,4.346949896593455,-26.396900364711236,14.892435573043075,-0.5509003024351471,-21.623059294665946,12.053393180972112,-33.267630604721184,9.613271846113909,16.861526505029207,8.308126710022337,-11.497773848067597,34.1181485317251,12.551836621669953,-11.861876272161005,35.953890504827136,21.51466964617217,19.978379968692284,-6.924004929141078,36.842883648078434,6.477597177445569,-5.3517693375862265,-5.601178241049682,25.8247380745603,-47.90539285385191,-11.599797254961011,41.14198592480054,-25.45846399244515,6.264691977712702,-4.907985682990367,3.5650247937394255,9.347205119958478,-8.610675390901495,8.668911026819146,-28.349815425857418,41.24134439128059,-14.089348659577269,20.103051805287368,1.8732495522191575,-33.55892071168141,31.029788011519194,-29.64927644816172,3.092161297395134,-16.60473772157859,-7.019628543686645,-12.003758888902366,-19.31913207836531,29.928810246537996,19.542122976162215,22.122045167376267,-6.350223984148436,-5.886561428562779,-27.637919101779563,-31.013364688178548,17.934094704293663,6.985483343718177,9.61258383967234,3.152985009081186,11.618302775026182,16.802268483116883,-28.755422210771364,-5.462288393140872,-26.63537584888668,-2.165681401885353,26.823687730017163,39.24219956594659,-3.5861359663513555,-28.807346079610102,-43.066882771253226,65.18123193667945,51.97441365348325,37.567250447994944,29.0118062090362,37.958252992213126,15.451692026460309,-12.555056740925433,10.616714257805777,-6.128215339360133,8.859742429779898,45.657301327161235,-14.160089131205766,8.99128426563576,11.373073501147406,-26.520598621800488,6.956503649134089,-4.945417805937988,43.16533441451323,-9.298549011441,-28.141245424634512,41.90257437022293,-6.715180045651989,21.647033384540578,32.74531909746531,-0.5024956365463256,35.582710377224345,15.925340954523978,-17.953813340953925,35.86664850552486,8.856572114866955,-5.6018733123766395,13.254107883585684,-11.205463293020127,5.758249890431884,26.94286672493339,-10.894262150648643,40.03115690279249,12.082605572643661,-10.367580490486855,26.173200557652688,10.746096334522532,-16.80718073337011,-27.69547429617061,7.225228984970895,5.493729565609184,62.075502401292574,17.106082174477294,-4.152691758708465,-21.819075600558204,4.474103674703426,5.441689055931796,-33.36834526973807,21.419239406039527,-41.17054842433795,-0.5315675413073496,-22.50627220052483,6.02986449899439,-11.399113923573298,-9.331000451089293,12.033151757816192,0.8866178986239139,-30.814099830247887,2.6237908599485733,1.1060078792370227,39.810196154789594,38.12070647926585,-23.1193273768189,17.507335319548563,-20.551086175597806,5.762714060615475,-34.22538274566371,-30.67752850965684,10.814644772960294,48.4143429718471,-1.8923884803054725,11.733830690108007,40.79893986364482,-10.224796986527625,25.26636429240226,-25.237814470356355,-30.491812269751883,0.8934014247779327,0.9675842167764418,-4.486562465711244,27.937940147428147,26.26074633769922,2.0954240578425067,2.878756663110193,-20.60523803992807,-48.13560565867271,30.531216948087483,15.354504910542023,-9.50330798205265,35.144329204295595,15.939336521737083,10.81232438024608,-13.414026350227914,-0.9575056743468848,37.18982131955629,1.832896418688868,7.619537146941927,-19.332178484746063,11.186008163058085,30.679005924963732,-25.797827537653816,-4.976927232173375,-29.823667055462227,16.910209629949538,2.001774348768072,16.071599552417048,-12.168847741100695,-26.474216033633567,46.27554572426722,-34.585036291225954,-63.157126518144395,-32.26646075968092,-12.446475279224137,-8.593788432186175,0.06285492649363511,3.1460804259327273,-28.79671731299792,4.327124047616173,-14.204298972794257,-36.09445767991973,20.102000110296654,10.72744352416928,24.775434699819588,-6.43887199355188,9.153372369952525,27.859749560050332,-34.482046187093395,4.94481003415711,-8.717231870507037,-8.128404268489271,21.960374666443375,-22.87793150339265,-3.9449769301692386,58.98608449293831,-36.49173343895825,-25.420486000540123,-15.687598614135146,25.789175055250443,15.869181315057467,-42.008464579534746,0.16599590540075787,4.2460626710277065,-15.545441145364137,30.10066949884383,-38.886767787991126,38.48772270264143,-18.7035866004334,1.2086651829794868,-15.486657027910127,-2.0576217333318083,7.388602859606876,-17.55349668831397,-42.755634080699444,18.489975658659112,6.703413501079093,-21.387557265693392,6.810957332225625,-23.97118469188289,6.465493779239181,8.939945916506366,5.139379573774329,39.792999166414454,-0.6063279928187582,3.9548798941077985,6.1402814291240935,15.500373718877325,-63.890959228226535,-53.32836377190985,-28.48103872331257,2.745180870559227,17.791291752939205,42.71944454079512,8.984267288343018,9.681465479442087,-16.71147436670972,5.461182534691431,7.561431014502757,-44.69251692186191,-10.942873142874568,-2.658538011471767,26.48402060791003,-15.38867990314963,43.5934695186279,12.833396415948373,1.2401530912456626,-21.368745922917327,-19.172945458144504,16.775601778749305,16.998999669884654,17.96435503293679,-0.9762673473782565,-9.11179767892348,-11.703107106335526,-5.483706862074457,10.121599923463881,21.21478062038729,12.63013804169209,27.998345939550042,-39.5069858507679,-18.496187326822078,23.933240869232645,23.527739781234057,2.657209669763264,-31.20233809256964,3.7642228095535253,3.268752893001372,-17.394120841822915,10.646661373888254,1.9736076571578614,-7.8058322913667775,23.9067658557525,8.993528355270897,30.147386589322902,-11.739672790137929,-0.3509003048251231,7.418004402163014,-34.725748469895876,-37.14051223700289,-28.50060102274488,-14.981022404965925,-19.975764461623793,4.100295669931561,-31.188985832196202,-27.883942214429915,-4.112461899500842,19.745959666122957,-3.8763536698812926,-14.332933331703584,-3.993809980370311,4.395518663411026,18.747515401085792,1.2319695493086746,9.420620800765885,-31.622121091553844,6.240500812966509,20.737139449639617,15.086257030850879,7.805499641872848,-46.55739696190835,20.01142186037487,39.35053298825665,20.2068079887755,-0.940043914649363,8.993459912418421,19.91144849610079,28.291064055927144,-0.7257119957496031,-7.25653487079985,29.42659060170587,2.196045908580239,13.243986251273853,-15.811446731167548,40.75955902314526,19.151752896327913,23.302596253519766,13.171661080969336,-22.877334421975384,-7.169675226914522,24.61177128738761,19.86297125747288,-34.037044860531516,3.1037583289304904,12.127033765025047,-22.738092082033784,24.614809853346667,27.621463173907966,14.784379748257544,-14.026543016113083,-37.39998590892991,11.708886456538037,-0.9000888705737091,-24.623267982085252,-17.956212249937465,-0.09648014503160086,17.73024462234238,13.240923225477504,5.455088667414383,1.5152459577632853,-7.392681187839427,2.5511805155911764,34.217247723561535,9.933963860621786,-2.7029019466303885,36.07332874642023,19.85837019715742,-22.117833679429154,-12.389787843392455,16.769814461828496,26.194568232097488,16.370648087334857,-6.930115337655544,18.943479565954657,-28.02298181953991,-16.239174902125672,17.123652923418902,32.853489474025885,-21.924601330177687,-6.971822155709409,51.985804507421356,-15.871149584295077,-22.8934722196809,-0.9206812772644295,25.10885150185138,-11.481277937566224],"intercept":-4.599208492649481}