{"type":"sparse perceptron","classifications":["NEGATIVE","POSITIVE"],"weights":[0.0,-5.638139218682108,-5.638139218682108,0.0,17.525795016505157,7.305492924493276,-53.22427793835493,-3.0627539725520943,22.09315321239942,29.497765825644528,-27.312187017639864,-20.01472228147172,2.40723069167279,25.822382710402472,-29.03399174156669,5.597244085384025,3.1690582699844256,-2.918933503825548,5.605568567082376,1.3366590466361763,0.27483082446234003,11.900315726149806,-5.582608920935131,-7.065780897814932,-29.208270299950815,31.914796562808082,-0.06595531219863104,-13.285715138058068,-11.759904603417635,20.63431218641593,-21.157458199007223,1.8337067037168626,-0.9548607399760163,1.2799733666611801,-4.311421171912146,-5.289988420607635,19.329423317484924,-21.331011892569865,3.9720082247532504,7.693138003450262,12.702763763494891,-3.379167683449159,7.273764409679673,-1.8009299330831363,-7.876188284234745,40.31649332194825,30.789353460271442,19.15460392838605,-36.72262789306906,-6.5831348060519606,-5.655818998941206,16.153967395974114,16.93483011353163,19.789175801812565,24.867593108107645,26.960889782971876,-5.457806749180227,-29.43993375529377,-26.173684492516195,-9.730155259710173,-36.82685618231686,14.661479596905819,-36.52741530485872,-40.133682501449115,-29.769573733699954,6.096641523244081,-11.245959251606507,21.686007334819994,25.19317616882336,-18.376781073816662,9.720704027354149,4.870628858590897,-6.798428761941355,31.51471828775288,-6.935618986565535,-10.797665240047799,1.2017451122565097,-31.285694051540908,-49.95639788011389,-33.93449660092341,51.72558598667976,-21.544115876469732,-18.366562653530266,-18.353676566724307,21.877847959491625,5.309225972132769,22.16539127078209,43.65079850746793,-4.812239971106552,26.46821249288983,5.695516387437525,64.97419751312434,6.000371157879238,-8.164146941182956,24.628164158682676,-58.870288123760325,-31.212974219967908,-2.62423839478583,-8.985923721728506,-22.40108389469255,-13.477957823297697,-31.013290453633083,13.576460376094577,7.641855696434743,-0.3226327763741165,0.8188991259375455,21.372834843933685,-15.44874813679137,-3.416096518932324,2.763786347742911,41.74483506797254,22.476281364091598,-17.847515214864195,22.069533154398528,-19.100858865014963,2.806552350780814,27.5713404577466,34.25283158161037,56.884922990442504,56.00387387126082,-24.756454828982946,-21.34599375195435,10.80287160180592,29.027822402937986,-17.98257673514734,-44.0271289223243,15.20748797365103,10.265893775122086,-20.15354164543419,-11.437563206768404,33.93227434007322,-6.098858228335697,11.970238740536299,-20.422246174552242,33.28805778461794,11.476224287393476,16.14988203288261,-1.0173561113340779,-24.296632108850456,1.8043253600980849,-16.0769361785274,14.943221017791148,-14.408718542784111,-7.83934490552481,-18.114417654894446,36.524732129087226,-23.075144422858745,3.042124143243569,24.66865537552779,6.399046278689019,20.36122437359529,0.3669219402022855,10.311729885497877,41.69883219901638,5.107629830081085,6.80640004366274,-18.699024565119522,7.1640169683926755,36.66272122179617,-3.183538423723183,13.333953674487622,16.295857341365316,1.2689195118716374,-5.489813102415796,-54.68986916125601,2.6281666265405255,20.019982923012446,-31.09717072833945,-18.69529089496388,-1.3765276063415288,-4.624822074720323,8.576648240948007,1.5954100389434398,-6.059796596128693,21.772170055146418,-1.692734789045692,28.44415840123288,25.84227247821887,41.52289720717668,-0.7028047238897948,-49.41827590755226,2.913757799604298,32.758587354768316,5.916623121525904,-26.7333098363637,10.369431150996604,-59.58335953891899,-28.99647149542021,45.63423446186051,-53.94828545221636,-16.783822649809814,-15.822643522227823,-30.793590821208188,-18.702126754655723,-28.938685257780648,-20.913225580267056,-22.471409670932108,20.022016536016455,-24.473375393801025,29.632011466402723,7.998112531979129,52.68943268110233,-0.4442746855739896,39.77850537155986,-20.564472320230415,42.90617807537327,26.26890386547704,-11.663980850493632,28.975432599504835,-27.474908100414023,35.8190098787292,14.897382097146012,20.657852371567174,-20.007920573255948,8.556797082901786,16.087098364199278,-30.524893929369853,-10.492920186192581,-32.8587284821954,27.379292023232473,33.130338255921245,-25.67689992796806,-40.4498942196012,-5.316812544185824,4.636568610184898,3.489066824940364,-29.486149456835886,48.60410758050193,24.4152966113252,-75.54964662195738,-2.6550261561253383,-12.107517766946351,-15.70912432674195,-38.34302064211269,-80.66138565923298,-19.192696675185317,-0.8580436919889858,24.626057055707196,19.377323193827532,10.876045496644563,-3.8071857649972,-57.44071086453203,27.370446370904173,-55.69425192206007,-29.022995007315437,0.9162379762761141,-7.869981586294259,-18.73538190316905,-12.937047565415659,-143.4233844857642,-2.98575451797978,20.49418554690671,-2.2316045548575576,77.44335835649038,45.55840518327818,-5.412983087497914,-2.2521017712135776,13.594612640449155,-9.757842410557863,-8.294320383028364,18.76854411145676,-44.84250781978741,52.656446646771236,-35.179376714908734,-46.46754029861253,15.969140397677082,-55.26518810267274,7.897465005063955,-28.037036668729428,-15.008448159620409,12.78301960039165,3.5406883942440093,-36.94190176005243,50.081637723141824,1.5562817570158638,59.068228586333916,11.283631085627405,-11.887779670056329,-41.65558914200473,-4.277805276357324,-2.2150426358247226,-33.342620623408635,-34.98129524496334,23.38885737960168,16.07463026025497,-4.971363598751225,-43.81161826926259,-12.75306480229655,39.857414848787705,-12.9399820650975,-13.733182327625395,5.645315011820401,29.63039007433534,-41.92734678979048,-18.470952635326682,-44.833999761932894,46.8088093765088,0.16306951291396876,12.139255667507353,16.971581890411716,-36.93571720144946,31.64673309128955,-47.21390504425147,14.916126909470213,-0.04124670527382959,-38.32559089853985,-21.141430078321164,8.329557733253457,-25.695898450926496,1.445797449865741,-23.517773034989332,10.80224526331671,6.027721871560232,32.699275270182014,-23.76957222724667,-14.206654340981094,35.08722730650702,42.99186527790575,12.274389315300745,9.073423249921929,-41.12047011088243,143.42409937667105,51.9679924316683,14.167196216939468,21.994436604374375,20.262759043734437,-39.84511840818384,38.92037437446526,-6.363409622994397,19.790591302985167,33.56365472543874,-9.94700707949251,-2.574748739444244,-43.44881476380128,19.655768940875152,50.905428180109006,-5.907415668898036,-1.0963628074936982,-93.08174784596973,-10.54824433767642,-38.04332249411963,30.077265817411057,14.867627552944652,27.10172040259208,-2.1612614008353876,-47.308653755224086,-8.694149186249543,10.278546175703253,15.6601995772087,24.953274564024035,7.077052965634471,-24.978566985621672,2.559591657972096,4.582964131410225,64.66595258877439,-18.07675137943361,51.895758637520274,-61.02050655063703,35.26411140669221,-14.636293102128446,-34.59948226756187,14.5259525898039,-12.13980493562258,24.74720032398706,-40.292296104731264,-14.35177149587983,21.993557350794983,30.229110862098473,62.56705015824812,31.563365773937704,-40.508072188704,33.76289216288801,34.665565490190694,-107.80953452953081,-5.61980540006946,2.199573872780331,30.968413294820557,20.82974180644155,-13.146676752639125,-76.37758244839073,-16.404057622078938,-28.959087726310695,35.324482737910664,-18.157140898425176,-45.550858551789936,-9.159234959601118,7.050279879649931,-30.31834688230261,-9.94075162134286,42.278377618485,41.27605859663361,-36.57274896792794,8.365694584334417,-18.264098516777526,-81.01382798023708,15.02089698864445,14.660805715105026,-11.976273669830857,19.277394472580916,-35.46565976825949,31.086803549795466,39.580059674483316,-15.203254703033853,-23.116271414147526,99.61735360814811,2.501156733234577,35.792885861566674,-4.732559222411773,44.23114414937915,1.3412597202321288,16.513739681378794,3.986048512373567,-9.344657539283432,3.9832064530551827,-26.780383330762273,10.264230465433757,-31.161429597586753,-26.222549049506213,-33.0321729076601,12.97550172630715,-14.58023969724188,11.960288448103912,53.12365144706943,32.48943788992806,-73.55844066659283,35.0281126535764,25.20486239142211,-23.12954704541479,2.1013897391494125,66.73438446545819,-20.522248496245673,-9.923027948364815,-55.0974671704987,-38.42826600874986,-22.889935651423716,24.359039057803543,-47.602407795179815,-108.03797715822634,25.16583297549596,1.8653025731456807,32.29971480194024,-38.87387515662073,-2.6532493433585755,15.959626209443096,81.32279264765297,31.569325964658013,-24.98563968932299,43.35836141924458,-40.75075392660315,-16.845250571830178,9.857933973828326,27.407883909422477,-20.289120682873428,19.94309709192238,10.543306963544852,-16.537257810580012,-9.324038612639189,-0.09921484666996022,-29.198786014095095,-43.80093213491086,-23.34337019097594,0.035726077372948695,2.596214888198192,38.02992511597513,-26.9132418466281,-32.90225138239883,8.67939901450427,14.06786365468777,-10.428093183145426,44.381920310381325,-14.507030153611083,-1.7848009172782333,-44.31861826218694,-43.871063568428745,39.20608372148811,3.880908339100057,-16.495400557266326,6.638951809677864,40.31584882534901,17.939789867928386,59.783352616174305,-23.240743105733554,-25.710080571592993,38.90008903933085,-13.97556296249792,-21.36109976797494,-16.784487859276858,6.965074587240576,-22.70440678592447,19.180070291378268,12.32794116545546,-8.678525916533602,4.532159703089966,4.499932291700389,28.61191071578113,22.52330956368361,-19.945902449744736,-63.111197498613656,0.3248211994452108,-12.15578573020944,-26.332905216822528,29.031535681595006,-24.949280540388465,-12.420822301912146,-18.889973854961582,10.98106296965692,-7.16933453176029,-31.03876700869234,31.85174842249345,13.079465211872085,51.708414631902876,-5.20468824913599,49.74740840509275,-13.656238427350239,37.271177514857136,33.014638668443354,2.225316903294803,-4.597594081108556,40.711789058842584,2.525730247557275,-12.120252985758635,-5.700266829320515,-20.63771914370377,-0.21848832899152618,9.1840505822495,0.42905844483255107,-28.1979575774938,-58.68854042305061,13.504153094851189,13.119665424536674,52.50951869400458,-0.19039573354997097,-30.169616775949862,-7.206407641003513,-25.526456412747432,19.865924416452327,11.375413128296012,4.692125495256031,0.21239465820314438,39.36894893943707,6.085371938859415,9.33351821056982,-33.61542654394418,43.15346028483214,14.958923001069554,41.50657680238576,12.486368611691914,-24.633324662885155,37.144285528096304,-32.598045880823356,-28.33631692784599,0.8775088185652962,0.010304208190970582,-29.92882671311826,-15.564219523816913,11.669270249575098,21.122331199062025,-13.809509235425729,-26.504414905728026,5.536968771727391,2.404121812569628,26.080219696413796,-49.89318075039588,8.791573828438485,40.19424476631127,7.911310615103123,-52.886852331454385,-8.223702521942348,2.526905776068084,4.402401977531432,-10.066030692980071,3.000632019490159,2.9851090922428516,-19.229026774636772,-19.529561892229566,-34.242944291826305,-28.23666821061938,9.112493824965412,-40.3435609105999,-7.498457341902538,16.19303341099166,54.201949270675165,19.061843907808626,-23.600138148677825,-52.03203260623138,-19.94978936494494,-35.02975983308502,-4.632575767045515,-23.231284340428143,-10.858443331768266,-45.80114228545308,-37.14687417033801,21.67749946811743,1.198607354349951,-42.00654199603621,-93.25708294648346,-1.0762654010830497,-5.061546144585136,-57.483779718498624,-20.537053830255786,-12.276741911894163,-1.3064097988356091,-13.975155975180106,37.96478962233898,-3.6719058688282664,-27.42496781626434,66.72702485972022,-35.62515197751108,-33.91570932284005,-9.886061396255434,-21.400007757886268,3.4111135298118715,42.58131839087187,0.2679483573319593,-37.37774266181797,9.852072075835533,-60.49236146334341,1.0436665309710569,40.492091584914526,-46.63769569884196,-19.529206655039623,13.022921291738882,-29.351718156034917,-1.0290123816285344,4.821337560482888,-29.888113499461596,17.585500061839717,1.8075431054355233,-20.618007444005784,9.517636429920838,-41.475409514173855,13.418395813692308,18.120346386118918,7.625361352913687,-14.242084888515448,37.73998207010261,14.208808292591765,-12.96358259617908,38.68066815078821,26.096156390225303,19.08901713323248,-2.4542641885495966,40.70512044137213,5.421888105057332,-5.817893212671193,-6.675572643850022,27.34632309002468,-55.30787850450083,-13.467618361790642,42.70414975296576,-26.38689585201512,4.903737674100286,-6.74890209195219,2.863108820379385,8.87825926218928,-7.7982070184256775,7.516207044701049,-30.80265896525148,44.077583843436486,-17.23511522234278,23.339149921616155,1.1107323215260847,-36.432998776951145,34.88371543332934,-32.83479933943587,-0.2706959738752658,-19.157723469695384,-5.707918973741927,-11.285759247197111,-20.27161523279036,33.76804650805225,22.266887092356228,27.013263519882376,-7.0302979863703055,-4.896634441596424,-29.69210775641559,-32.7851523536198,16.401956029205188,9.428787855585597,7.459226228391962,3.9879386111004025,12.001924110759889,20.934259375877556,-32.30439530532943,-5.611824539737037,-24.399578521004628,-1.4298993491489043,30.881630756361517,42.676194233734186,-2.750089735624923,-29.278520035425217,-48.869480731649496,71.40759513700603,53.89610395235459,41.0447741613222,31.80145817800242,45.900730055844306,15.966018559198927,-11.26009595226105,14.689334287796424,-7.691788516921505,6.379735597313378,48.644938626543336,-14.99844705859722,10.081587304103763,14.054172768055865,-30.96975020096621,7.725323164833089,-11.708772082392164,44.568358688257945,-9.756138948695249,-30.088794728522917,44.83006871911768,-9.298959938900754,24.61830756883843,33.62712142476581,-2.58067831738571,39.065706105625935,16.35798620059882,-19.954081951631604,38.14399031721428,11.01436847011605,-6.686620128627337,15.737664819120328,-11.033313524952588,7.244256880930288,30.79365788184575,-11.797629049711611,44.38088238688218,10.089163480294852,-10.536706993180712,30.909649187971333,13.214800216920976,-22.88304847577664,-32.23748306830753,10.153546029608322,3.387364624976986,68.35143783068723,18.15454196745688,-7.19784306401392,-25.005195828183552,4.807245839010226,7.354332117657026,-32.7316296016975,24.160046022445,-47.124672138056575,-2.393120072825021,-26.534192977973234,6.518558591242757,-12.722296313153931,-7.753826548400279,14.586795789158788,0.4495566904535695,-30.975433756252666,1.9760608987775323,0.6708871229655973,43.13731559577688,41.30243390361181,-22.725882367499015,17.968429126398917,-23.129873590895627,7.369800562240958,-38.82120855009234,-34.01625906785905,9.97304873967776,49.407651105556305,-2.8278038856899035,11.309303217852616,43.44687589719626,-11.411999094988543,25.516700812499238,-29.78757871200239,-32.196637100545345,0.44901820696119105,3.6622970033850475,-4.078614059204685,29.94149928792175,31.05346825203551,3.5439892444255086,1.9619388744998982,-20.999854323559564,-54.38197615884402,31.014100711694702,17.817390126242188,-9.774844144001017,36.84307186755538,17.148966082733352,13.680423994266436,-16.005463528017373,0.6668729602951449,41.59300123289729,1.3097810383827169,9.672748207405752,-21.376360535301913,12.341685134208788,28.600631018153717,-24.107801687840272,-2.1656380631502214,-34.221745195221594,19.29821500703659,2.4565628316100683,18.57530333976191,-12.898268480285516,-31.803435265383605,50.61674269888915,-38.92860369938696,-67.83143362371632,-34.18456623774292,-13.169205432253845,-11.65234268693054,1.7639234889076316,5.345089862882488,-31.12758909262612,3.6429571733073676,-15.238623620047631,-40.12650971498174,21.415061741589955,10.335519551934434,24.66998665766532,-6.381648634824883,9.940754979212285,30.700949986919554,-39.59997461627395,3.4358277387243468,-10.774646358873337,-8.414802295994946,23.734635250146404,-23.870124275656348,-4.03868149320307,65.47436078374906,-40.640986545786156,-27.36652076612578,-18.265491071474894,30.818028495612566,16.767733820569646,-46.820104230430196,-0.9505958067361343,5.015101157374049,-17.119489311167484,34.890252093909126,-41.76228780808292,36.77172660185179,-19.12109658334617,3.345949502586049,-16.943444257073295,-4.808034645072062,8.420533050324947,-15.355518933362879,-43.83163142948,16.125325198471614,9.310061847429195,-22.215577979925627,8.065036752819124,-26.69279671826088,8.626960006609904,8.321367087987081,5.644509094120929,42.546680773222135,-0.5791334643340145,5.466237787368033,8.543165939342233,19.356950352981734,-68.45251682464048,-57.34434335014006,-31.30892780044537,3.4002657160246668,18.522982577861608,45.93786192773187,9.723964538299242,7.071004147475502,-20.288136110852466,4.570349266135597,6.649387581908631,-49.87234584970403,-14.626795518912708,-2.1011132278061306,28.737358516914806,-15.391819444884792,51.24891419405867,13.110544598132298,1.8500692290965237,-22.622524900941517,-21.439165765458597,20.886325408455868,17.167042156991034,18.31582849451825,0.5336025988266635,-10.118006688537955,-12.467541856446434,-5.607708605883185,9.493028362069326,21.091916737735417,14.024251264791227,28.011684765393994,-44.47569052892643,-19.347125416994793,25.37146456323914,28.44650576001524,-0.060441943126537445,-33.639222183975924,3.1335260085575025,2.0300508232360404,-19.8507681726774,12.065470156348418,0.45911045866873135,-5.959718596719226,26.331039828808606,11.522743956404994,30.943738537865567,-13.661731313583319,-0.8848020113070035,7.7544506355272995,-35.772771949559605,-39.63385396104421,-29.721602308415303,-15.603495482025988,-22.799855242647702,3.471121591972119,-33.83348777946826,-29.022438178004357,-6.383089797661949,22.82466003006345,-3.0244792434423737,-15.522619309434054,-6.383089797661949,6.0661072402907,20.56378442840425,1.8726052727335105,9.43654704006703,-34.22762204671751,9.331375936912812,22.255920953900432,13.647150393872671,7.063782958356949,-52.72790666187306,22.7791857411965,42.46763638616347,21.383997839045577,-0.7247390966652176,10.849518235062604,20.42617077688631,32.846759142946865,0.16701460832404205,-7.48316733121321,31.56900784169272,2.6652793573980915,14.624053479160889,-17.137899166167557,42.66431933374739,19.465333829593728,27.34513204349972,13.132441466637964,-23.377495226374947,-4.607323841488291,25.496829657655002,22.379025881826564,-34.373140643626414,2.1701090255302184,10.455354276643819,-24.74530472179354,26.788686595172123,31.413029922827494,19.629217394272988,-15.040242764986038,-40.798166591922154,15.360310427957398,-2.0769187236630406,-24.658849285689477,-20.889795226238988,-0.07758776043056193,17.29289170385016,13.891882871885246,7.817217953432808,2.362925266580376,-6.5411001671439895,-0.07921068881532595,37.4377647914292,9.430757520336208,-5.142501113122987,37.11523605932274,18.867060038772358,-26.117222026860883,-11.344958580444334,17.62422798920186,28.633285224387784,16.87231566395492,-8.079744001948614,19.730018394150775,-30.984950641704614,-18.306089878676694,17.848585074890416,37.18043826861118,-23.575026706864147,-7.743337932844903,54.98959878628779,-19.18896619175188,-24.69393312328159,-1.0986158996421658,25.50385294703751,-12.500475338255852],"intercept":-5.638139218682108}