{"type":"sparse perceptron","classifications":["NEGATIVE","POSITIVE"],"weights":[0.0,-1.8933989315561055,-1.8933989315561055,0.0,26.556887876021243,7.79403924321203,-50.25769761650117,-10.24462225513024,26.055337416666855,29.670559277334824,-29.51924465052906,-9.901900239160407,1.9378250269103394,1.862528390131212,-18.910097547388865,-14.86311218220108,6.240376722213414,2.4938520467177265,-2.467796776716221,-4.307286778264486,-4.678159092424758,11.962688986747555,-5.174948387261298,-1.5368605819524617,-13.708047031992363,19.739401451883364,1.1501188196250869,-4.789521516857713,-4.969088106566549,-1.8628865526721379,-11.231427714231724,-9.61240315697579,6.407782393680219,2.3608070249847897,-0.9233768568779867,13.638573201844801,2.340635862458457,-14.667507115708409,12.737868712640626,2.3332599138536483,-0.13696375633000654,-17.588558688481086,0.49194296812163446,-12.542469092562968,-1.238229664589728,14.743134842355285,22.928467244035176,18.96774207219271,-17.839752706635934,-2.2700632006378547,-9.919433454298549,0.03324322821753586,6.731600805068065,18.705799655334673,19.257230111156964,12.765689143807418,-1.6957822416245598,-6.320312737815149,-20.168726970962474,-6.598112207428817,-7.48665086835813,18.643663588563616,-16.808863162177932,-20.565895600611217,-16.28257189280591,-4.629988467318281,-8.170388147120239,7.584566975900725,10.979094617197081,-12.866791220046913,-0.19016100888549925,11.588535737333329,-8.568433626707295,21.932665493614174,3.1825375137322283,-6.124004049642342,-2.4545916599753475,-18.82865072492998,-26.36542572087876,-17.912469201725994,36.13257817332075,-2.441434751552872,-9.430653878520289,-11.752283318258884,34.40175567097801,-3.6962943239327304,19.08680254936073,38.326736408721146,6.502384539414765,12.418155554902876,0.6518727006379041,42.35113579437608,6.933729419078379,-12.225610117168634,3.838734064443217,-26.57835732594595,-15.768444170234492,1.2159569219795823,-12.798041910918174,-1.132634751912645,-1.8705391819780537,-7.646337074892474,6.593539664210131,-2.5767552142487595,-10.074207094525342,0.19478369976033488,8.917658434336685,-5.723504915407199,4.017140820892894,-5.0492193031671055,16.476553744986475,9.702826825978773,-5.392132377471053,18.04606405430558,-12.904948433209048,0.0824025102386936,14.697491589881285,19.749669216992032,37.17331822714459,36.83727533819095,-14.608171786442949,-20.161869436030784,-3.1507680426318565,9.82560488963088,-12.119403024357673,-20.41199289859852,22.59922288542389,11.574034755197728,4.293241271814899,-4.129304653424347,9.049942874270053,-6.739841917987825,19.787531971979156,-5.524602842905587,24.89503811563257,10.116319718232115,16.446789509397735,9.192908309126908,-25.14296630233781,-10.929948205448353,-6.164322221670204,1.6250220616654938,10.849981769307467,-12.573402479525642,-1.672223884290182,57.994024621998406,-14.08322054871911,-4.286510851975936,15.481738720672125,1.535212091724538,11.003348746850085,22.06042381479762,16.65406815173729,41.069591631230516,7.227429488213208,10.991087714428168,-25.851263953779007,-8.435211222313383,29.5067340440193,-6.690682152242045,13.100869874560082,22.803675703399456,10.435779769687162,-13.332109033853131,-64.49560729958044,7.650361143221023,25.644062569962518,-12.000140747923233,-23.08282474979646,-6.478668317712884,-6.983881269994736,7.873026574102449,-6.6186924371706715,-8.164947586747592,30.779663659967685,-16.751461697528985,15.125015045207384,12.129027522880625,45.88639645812966,8.480646894297944,-41.852536545302144,-7.068903851246723,9.974843378923142,8.878610748344697,-29.355893763558445,13.4008728292532,-37.31340776303386,-9.407196591543398,12.842581203246361,-30.591972909474926,-9.80488624713966,-6.937889604421551,-32.11046321059275,-15.381483622581815,-8.380766840402298,-12.15880866295214,-19.32157312174104,34.411184217457595,-18.960601801867742,25.043629784449568,23.181106284090866,59.858151155060625,-10.435776339282054,31.281755756890334,-22.588605425821644,42.536455606940265,20.681197329446306,-14.673259162302157,18.75596432935792,-21.02971847481634,47.64245336152971,18.878364327783814,10.202647440201169,-13.819899551871965,22.533018406630624,30.893117589549863,-27.06708193517345,-17.054200979351283,-44.7254281938772,18.985164748759885,8.0740161543666,-16.20338326719054,-29.821595174161068,-1.1905502816577833,3.8324629507149126,-1.3383395723671794,-3.37548974102041,28.486862277295767,35.599634847147506,-53.77918262408718,-7.611724066025485,-9.97683603350391,-4.638001267807165,-24.89477316271339,-72.97451206444006,-10.57065444761947,3.8018037647319023,25.095665677859955,19.82093425912196,15.712282576756582,-2.9147924026646055,-35.92988919838988,16.281769994777484,-43.07712524000508,-40.20491169716662,-9.777879550208974,11.126951509149787,-26.79961358718179,15.441399262100733,-139.63201745741702,11.232407719558893,12.70551872342254,17.17873520514754,74.29005610749661,23.48511316356037,-21.844039212369605,-6.1655272286683855,4.073041518036969,-9.034422515957536,12.407430533540149,25.666342416141184,-47.085892423876636,24.52534008992703,-30.585589958540375,-40.014801615288434,14.065129875770285,-31.471565399294626,-10.543559177284829,-14.029320249214056,6.042208259302867,10.059225242971818,-4.711606434607547,-29.63642211179571,43.57922106320379,-0.753091694430734,45.473645755458236,21.11450108280319,-7.361244126285065,-28.585838721772834,-18.490518930276068,-24.97697693846766,-16.775909750372804,-3.0359742665456966,29.74080556674884,18.398362858832872,-4.198600577933312,-42.17046790652746,-0.0983580977195458,30.086126961304444,-5.641147583297428,-17.24203841508743,-5.849892872863161,58.43967316985832,-27.749270976121093,-22.7591353286031,-45.793061097053695,33.43844982829591,5.747550268026579,14.158159297245213,-5.191694704638432,-8.316347465377559,28.58878291085611,-21.06863877813748,11.57711803237234,1.7880959368913696,-8.138349358355157,-8.123159145642845,18.295272176108703,-33.85627726950439,10.13758394076087,-19.447251254127142,12.730767935448442,7.656781153600659,39.94849074550357,-11.057311261150755,1.7059489630714084,25.817844734637422,11.731173214220696,16.42780536083305,11.012003456595664,-45.56887556948888,134.40413432563327,40.93895170200971,19.07467577251405,19.161450154299086,17.336589863972783,-45.49155017127989,47.3013071715555,6.290631981897866,18.66157771060135,19.11214061926482,-2.3984743063276186,-8.028612495024854,-13.19081115993407,12.009784300274243,21.83340106456182,5.6111205497155545,-16.506007329490096,-88.74692938991406,-4.9188801843150145,-22.403551632540612,43.87384522887124,1.058035453902605,10.809403707548539,-18.314700414091487,-49.628702630025565,10.771573782896386,1.6447126367436646,12.218875577899464,37.25998830416906,-1.1828656234431199,-22.289224201893212,0.4066638591300329,4.923818419024861,60.894113695791795,-13.650194686769634,40.71950443652677,-74.42420735416636,40.610663706826905,-5.572847857359721,-42.881816972472954,8.362313014605057,-31.973019148963385,1.7768273206161196,-23.797670886607555,-11.59609810878235,19.91542161939634,5.794985305956767,60.70706462961637,26.9985285195282,-46.6113050448409,32.56726620590243,31.331297286129306,-132.12060251521797,-8.771977985419818,7.828917797002736,15.583504975918006,26.672133439783178,-31.36033756336141,-84.12096701223078,-28.48278600495684,-30.99691224401236,42.91308026895988,-28.889457217708028,-23.184275474360152,-4.158220400412857,30.53876743333949,-6.860422149566227,8.501575494131558,38.87102316694571,33.30914047976793,-19.994956716127746,-4.618501701915238,-28.251062503895835,-69.53847600654079,38.62873029719657,0.1516571887677202,-11.689678106336954,12.71106175490105,-21.355688823222618,-1.6276587947417065,33.02617339853272,7.460437010230016,-14.677029601110481,109.5108575358841,6.185189161372871,46.08438417642551,1.7472912172865394,47.38128520162729,-12.780018566789202,14.64536602034767,31.781035462401675,7.452711076563774,32.08287556197115,-46.9350412320957,3.820074264400533,-24.343939756557816,-17.54768965789261,-17.52116613127884,11.087720214575077,-28.028823926464668,14.864933871920863,23.400988900202105,19.639218556026723,-54.91375779648429,13.758420928147725,18.46970124649895,-1.0533142729962852,-20.292728335930185,29.36243963473319,-32.2151271415736,-17.674808375492095,-47.19362967668815,-54.32145248104987,-13.29164988373253,18.70682103870568,-36.72384451834473,-111.88313718259657,27.075936246824295,25.7852586511946,30.25804600599038,-15.833387216423763,4.6821498311253364,15.790273909450983,58.4531842709655,42.2377906477589,-7.310498467846996,14.784696689787038,-40.28059421544096,-20.805468521868466,18.597634885868768,21.327876641932566,-30.484739715843837,10.650687685583504,15.425766193032478,-18.992866971110868,5.356224301448753,-4.588302255410865,-20.734387880527976,-37.9992587107556,-1.0356034549729132,-6.256205364916414,-5.726984274742395,33.98646388159814,-42.33363189797021,-17.333408380931292,34.435848304324786,16.51756557403142,10.626099142376184,49.77433897426546,-9.644465032321342,3.4077868665968682,-55.77370923637808,-62.119207899511,34.55217711825651,-17.596943665181136,-20.96079172918537,21.08643619502345,28.028590733145705,-5.70524608066099,43.20315893758708,-48.12179281738983,-48.45269805811119,50.007767610548406,-13.30542873131515,-13.169528091770184,-25.201471646450816,30.330882637520375,-11.20571615151544,-4.166962178574327,20.36345853595404,-6.238535889817677,-0.20515518197266439,4.824160066515358,47.11599052544673,29.243442780319388,-24.991661143316676,-46.50543184466637,12.310929882749878,25.74786024483698,-12.814010729042383,23.075276697331223,-19.189533005377626,-6.369777706367617,-41.0233418637082,15.499615303889096,-25.660212447385113,-9.06777616678423,17.733119788860392,-26.21880793398656,59.62964857508925,-33.185048538473865,28.87307573670395,1.2755431357517557,48.6039533507464,24.100974515546362,-2.371619653679916,-0.1992693986048344,57.721927370147974,-23.255397492724377,-5.051510909427709,7.333725923255534,-24.34971959449791,32.81397398169974,18.160043039543346,-12.049373626035637,-16.70872395579669,-38.26034729910084,34.51544347415043,24.530219720170386,51.92119387999692,25.21098078869338,-16.324761318453213,16.929473427211455,-22.016203773507804,2.4569409405784137,14.121866126818702,4.290922359953195,0.4031822737151409,21.463109889588893,3.8905219352424654,23.027237367077124,-18.67701526329749,36.90508408617002,-6.937842565396727,46.14585401714692,3.95892082840735,-7.945711669038794,42.81894313975306,-24.98171657693209,-25.647766815590668,17.834442400144336,-13.771004233822575,-17.938204446193158,-40.27140077785284,7.35514948100282,-4.383126199839031,-7.505093828433037,-1.652866298954058,11.974126445280582,17.911863558459707,16.73157049041942,-49.37577695027166,26.36817722326149,37.850208998970814,1.3264892389637084,-57.75377001412843,-14.051751204999485,7.454096647064186,22.16659320463329,-6.358331562776435,-0.1725211416230238,7.868165778460168,-11.272477194742716,-9.952880027434473,-21.356246924709144,-25.011406113081176,-11.145777467269706,-47.039506513847954,-15.742342931905718,11.843791385005273,45.59182044551066,5.465767242137614,8.6422808284766,-72.0619298997756,-20.86874372946093,-25.026921676783537,-16.47826526278255,-17.39719031383035,-23.471315885202067,-39.24288707468516,-16.510875146755854,25.534057851551314,-5.943005545480852,-52.241418842427294,-95.91051509677465,-10.577322419802888,-3.8924375453280513,-58.45815142099877,-45.04609472966133],"intercept":-1.8933989315561055}