{"type":"sparse perceptron","classifications":["NEGATIVE","POSITIVE"],"weights":[0.0,-3.041814536926083,-3.041814536926083,0.0,19.56975123984416,4.802850096598359,-44.30365980410402,-2.898081001736347,20.172418558228173,26.005702740384667,-17.688928113970555,-13.821411421510312,5.1223337669954665,16.88531667648694,-19.282305341452847,3.8572233220898986,1.4519649545535307,-0.8662606401783575,1.4360549510973861,0.7232622613079271,-4.715344701198575,8.896924887452617,4.174231347941595,-2.5232491002956,-18.15759463649826,24.492744375092443,-5.072884209662431,-9.29220745312002,-7.123765773192028,12.165123295365646,-7.78335837462371,-1.9985985237736625,-5.470351707711954,3.6265037794343256,-1.4997341258283654,-1.1721103877337238,6.710811841688477,-7.5006528201445954,-4.013775056400341,1.5124677245107405,6.615519929539652,-1.2765302436479435,5.671432548881663,-4.5957318311031194,2.6575690049446234,24.76896637972549,16.921758548076788,9.792314643012073,-22.893448052966615,0.27916782345927377,-1.3929474795208172,11.604996114954094,9.26653693299955,13.568764805013034,13.81657887135045,13.993247093765703,-1.5534374101283719,-13.30185566712344,-6.995069207100967,-7.637946125942281,-18.30614624570407,8.186902138822978,-23.434750580296527,-20.855372058200427,-15.48219963181517,0.30035480360451067,-3.1371008200432793,14.759098647299805,10.37306704534426,-6.763284824220176,3.58262226695493,-1.5391529567844469,-6.006305110109014,20.8900036683835,-3.100171726787278,-5.13189594981179,-5.56150877103627,-19.07150486296659,-38.26496973052656,-13.040265914583214,30.751475452960467,-10.126360575101192,-3.3562603891203224,-1.0892867289255042,12.90318505974341,3.072554814741565,15.83741812345257,38.42803382391582,-7.915863625789239,15.469706763751995,7.844618353522189,38.98279614307516,4.066726676310978,0.9435378820316955,15.582491130679578,-41.12556020229698,-15.125936238748336,0.6867087890596835,-4.375100160043968,-17.831864046361854,-7.639816858283579,-19.152836474348568,4.3822208816922705,2.853826971181004,-3.0854739768640305,-4.5436902035393745,9.071741059027651,-8.039675932253004,-1.7872584914450276,-0.025261969243324467,30.683266969880073,11.897193363376047,-7.664014045462329,13.212569110580866,-19.941915966155435,2.6850703511964658,18.28390005260847,23.96740811325886,39.74978663791521,35.34037888222118,-22.917635247455735,-19.53789973362929,4.455462647466917,17.908729783697154,-8.147410489824646,-23.520055019823097,12.57743343618616,10.773621402008475,-14.15318887400723,-6.888822294893817,20.88699884767121,-0.641567649280675,8.049222334173137,-10.60000751745119,22.87954402207697,6.887286700015511,13.602568177181675,4.098211319283419,-18.71811787032641,-5.055777121580073,-9.186416978431172,8.882320725599133,-9.890775087524489,-4.303543884791183,-15.484751458422759,30.001540840200853,-15.488288883625014,1.793344725896787,16.9680555616399,3.665701793554844,16.179552538994255,5.004043016319701,10.024088640952263,27.918819140224027,-1.4565981897184594,6.49289477279041,-19.009453996413548,6.247412089682359,25.521044719669817,-1.8797397549428867,10.565118311164282,10.700755829374152,-0.6561421323701444,-1.9657510091044381,-41.82989287965497,5.115791281138214,23.56455116805332,-23.980362251570227,-14.106734085173882,1.0548842880679117,0.5455823689253584,6.189484686514156,0.2594965597797608,-4.2218666788525026,14.725841686023188,-6.408691839035766,26.525285708042603,16.211114539531746,31.001481332494265,1.5204161550931028,-33.54438225857082,-0.10193541961726629,26.553059225389113,6.768138427672074,-18.450821727049128,7.419484139727607,-46.9426718338151,-20.728721823889064,36.22843515481443,-38.24564015091623,-16.058871558699416,-9.715046519964265,-19.735579839287386,-12.330771169179487,-16.954820842570776,-17.126102098787218,-12.638140345452973,17.93550834127395,-18.636365513326464,28.035675708294296,5.364527606483477,41.82420599333938,-0.17003643871059837,35.23855535619045,-20.677814755938066,34.255835434801995,19.895702830998452,-10.474656198484453,19.078554061646244,-17.106234275978558,23.278046245295748,11.07064183639788,16.73541791451918,-9.421471295609802,8.350654161136761,11.585880247059407,-22.777201926099952,-13.163642412515166,-23.670033895317328,18.326622774379874,29.81030434120503,-20.367784830200687,-30.952752153173318,-6.202735441000182,7.815142559023553,6.0897738970488495,-20.816742784000112,41.670956890197715,23.069088301669243,-61.34999038774879,-1.7976041201738813,-6.813020062599467,-8.527279554892122,-28.2223187605992,-64.0043906130627,-14.7734177910856,1.9503500443550417,18.2407541351966,16.433913657117905,7.054421590980299,-6.562293808845614,-47.0213943382594,22.97818457346305,-39.98819128104062,-28.89470787216983,2.837751844248261,-6.00021833440501,-10.91918241269662,-16.648814745726014,-125.26300774156563,0.7892721553949057,13.987561493797408,2.525281825749262,67.08902085879387,38.014758223716,-2.8429295700526582,-1.8102660455938373,10.103900531327696,-10.216512468502426,-4.60705972497767,18.47808114658911,-34.724288341380024,44.39175172471797,-28.97714373592791,-36.91235513142298,11.641442947292997,-46.47979377491664,7.19753071312891,-24.062779405313062,-14.150958429044659,7.846013374516229,6.62527588886439,-31.971560191379606,41.793411555737585,0.5295022743727035,51.50770582214428,13.273766983696737,-10.871613344710564,-33.26607495550983,-9.181661961958397,0.9650540322238629,-26.051960179656213,-28.188095309941005,17.072861416269017,9.553473876131259,-1.986245725888382,-34.02476776548418,-11.993959677635493,34.940453726499484,-12.630815533935113,-3.4490354898057367,2.1939900584719547,25.82249036259126,-33.76983303657132,-16.73778814655504,-33.24908622278214,37.546564301799584,-2.13725784654457,9.047852772240496,13.724659149858777,-34.8153461176668,24.055942133618196,-40.689728339231955,15.67859730086199,1.1869356446544084,-34.78155497461198,-21.91976131454744,9.662019684226122,-21.0086155508013,2.2652052171365353,-21.5026860151718,6.670415522714023,4.028190585103159,34.05723956469905,-17.050885579623554,-8.828774696161704,31.30188902293954,30.794570669190836,13.298682193956592,5.48353543673159,-29.874472659646386,127.24105091955356,45.46031273690301,9.810620422214702,22.76310815846874,17.520863016886814,-30.889519245081004,35.64332593588185,-2.21664831121516,15.324276270616654,27.23171715457657,-11.250166524771153,-7.081102891713614,-35.98045893576879,15.382019235122176,43.86785711141038,-5.250311842299131,-2.5225716225205717,-85.99668189456014,-8.922987746154092,-33.09331591061997,22.725019698446484,9.599081120396129,22.27866437507436,0.6224560724054589,-43.02515431588323,-7.067074110883432,6.8471376801830335,11.576397348941894,22.654869918512173,8.649978381212096,-17.988221376095193,7.831376772109564,4.518460744150788,51.2870423751503,-16.164906513307635,41.547659729960685,-59.15391113064683,29.160501058265744,-13.671532812382893,-29.078907041021957,12.240722482514284,-12.94184934103795,21.85877080861023,-32.54977164389469,-11.29402653640977,19.21828458309459,28.845025774701956,51.1682076234065,26.175455233485998,-34.621723344006384,30.851228143458908,26.279911445080643,-97.94079535911631,-2.9709325193735743,1.6533793670827177,28.030837025984756,16.31406451707201,-11.020293104588898,-65.74109088089091,-16.884079623974344,-24.89275415654289,26.755947397717524,-16.415656043790715,-39.81105024013234,-7.059197481869004,7.551299890406696,-24.797180930412186,-12.801437557746928,34.780529495401886,35.34776978229238,-32.66801386827996,7.181198097014761,-11.883261589205318,-72.39268706165039,9.10375252212258,13.73963598983136,-7.718795085566971,17.640085137422567,-29.348007970244552,26.056394490192275,35.620381724239415,-14.252798333457774,-19.98592786178837,89.89024488794831,1.9524636486448155,38.82862282244571,-1.1624796540884457,42.61360013916732,2.9728358021545973,16.627239892707635,3.143978614300781,-5.916378802620764,3.5303385573646158,-24.973559321123375,8.265445787922264,-27.40990491477257,-21.329858881770452,-27.96622760890672,12.365656382594379,-10.196662706622021,7.090188684390968,44.18190526819672,27.46845559533838,-66.74792137578413,29.325832919872816,20.035228446845256,-19.6428153407945,3.3327957606266674,57.101375068464165,-20.087425586768433,-8.915579356050756,-46.937376785782234,-35.50695019842131,-17.404640750812984,22.93575075363871,-42.03049406003139,-97.0343096831075,23.867018351286685,2.708375991513811,26.087018866211018,-31.609051388147176,-0.7056063068317847,12.917415850004678,72.92363395926213,27.79094734004424,-20.046502389756885,37.33908708890979,-35.477238925250546,-16.257433412588792,10.372801484617185,21.90642586678092,-21.00815019537637,16.243332844973523,9.524850977196628,-13.292078585638167,-6.3064847406274644,1.3487240593096292,-26.013558856940705,-40.06905856289755,-20.652607602791093,-0.7902946985811125,-1.140352230429088,33.11803763303672,-25.42589351444704,-28.806401372226233,8.173155288892378,13.677804372309291,-11.73931178060031,38.98986431191607,-18.564042968208874,-2.8095536684275384,-42.16461603919987,-39.93865221201992,36.86158172924525,3.7622480397246667,-15.97062205704484,8.304544696835473,33.23761481312553,17.56030910631362,53.86343385333242,-22.30048110866268,-23.44135505951774,33.79708112318586,-12.674607802631291,-19.029280664381027,-10.940436881057849,3.4513481089106346,-18.545503945525773,13.420601257550036,11.067146070548276,-3.3691722438008807,1.7829844840063303,6.601873549816569,28.315854198879848,18.554394664233318,-17.934511155621234,-52.93541979182049,1.0663177187705812,-9.881409021705723,-25.20034174365124,25.40625035986488,-20.760403283780168,-9.282936306506103,-17.30375780071954,10.3513862802286,-5.235807766542109,-27.413917951541155,25.02103690768633,13.707434868599622,44.62832218984447,-4.0679972057964795,45.84332515319064,-12.487367888956118,33.66565744878829,27.132351510845638,5.472574587264116,-3.357798575457101,36.80618017618945,3.670179061058802,-15.227431717316726,-2.7177417249925817,-12.92539725537217,-0.7502465602185456,7.542993192021131,-0.5468418953688184,-23.346613855489277,-53.064387073223216,13.00452546159993,9.722575154193827,46.66310707387713,0.37557487587039307,-28.132625521250258,-7.065136146648963,-18.547232950969686,18.704669774801378,10.995686611387743,3.193803806927032,-1.177524897828921,35.46760609058595,5.849529137787568,8.946489103957944,-29.97629141773736,41.57789134001364,14.440457420623172,39.5444247488454,10.998059873309714,-20.99537165231406,33.45174161267234,-30.695457415206473,-27.449782757425407,-0.5911387564614875,2.0768747941395596,-22.851078399645324,-13.846117551496954,8.71104551390909,24.104434604074513,-12.329880175154774,-21.962787868972182,4.4366595831472235,3.6580718679547783,24.211939226922805,-43.29158885327662,9.248822357716357,34.88233688466539,7.853789596867195,-46.870860447398705,-4.939394315178397,2.2429781922659515,7.036917239553475,-6.6325543021266355,5.436223359238705,0.7319692282161825,-15.406709303576438,-15.232854414149509,-29.92778659390886,-24.13048050183803,6.122969434290611,-37.31684002752564,-4.828951241245904,13.858350920753274,49.05307165355142,19.49989156339931,-20.933541531163886,-44.95055634331189,-15.91874030540499,-30.686330860850305,-3.488245010658471,-18.660045084668685,-11.950404972891743,-41.60326405984131,-32.86941613287762,18.747082396547302,0.5515202477467849,-42.51106481444066,-87.05639604319435,-0.9004341580188233,-5.971963218786775,-52.272207330017665,-17.099422697486755,-11.877254009371066,-0.6884584847481051,-12.283540413807915,35.105468221951284,-5.318314076205408,-24.404360611236058,63.1038570338875,-34.17851233068998,-30.943945067950647,-9.154759447537957,-23.496240221283834,2.7164693953653454,40.493892173436755,-2.2052769709690634,-34.236923077252186,10.108952622300361,-58.64115297492099,2.912322503729143,36.06874465603669,-40.81067995004563,-16.18733414710914,11.410962154235968,-23.728839053880638,2.948793512705626,4.10733075327649,-25.866824950546818,15.585227044653152,1.0205077115700092,-18.517271508236384,11.336012137312053,-33.35644536406097,12.132675644544964,16.31355696009638,7.128851225533756,-11.744251842426651,35.11045804704113,10.669494766603844,-10.680007665251612,36.929708665812036,27.356289938441424,18.123652619115816,-5.957616981186547,38.940919026723876,7.162224154658262,-4.691865456430809,-5.71329279001388,25.84712093558739,-54.170536878752365,-9.915604889473688,42.43793864027903,-23.794399909558095,6.1896297611226885,-5.621940198505311,4.566427581955459,8.82429863145459,-6.381439648732092,9.110994189576003,-28.531441437542693,38.66740849918653,-14.34374110832307,20.34547021353875,2.6368360222158045,-33.04831098266201,31.705383596424554,-27.23930971242446,2.1469804509447314,-18.196293624552972,-7.20934401633344,-12.21319753660741,-20.471080956494905,29.347279193344107,19.780383136644684,24.409101201716762,-6.261256216980421,-5.6569396809824575,-25.641008895163694,-31.612024764319443,15.057331287570813,7.245261287487566,6.028597966615501,4.411530594868739,9.363228742876256,20.013193993502163,-27.27198782691696,-4.313222508050538,-28.29895204158878,-0.6222257146700243,27.31178318374571,41.56532423820652,-2.3943247602773683,-28.5997570580324,-46.56007640277891,65.05022631851674,55.57148789088044,37.35129962187553,29.67951114091911,38.9709274630737,16.00744420306482,-10.345482137930219,11.61200695361738,-7.026930435018428,8.776173180257935,44.5633664103767,-13.980306096342588,9.347851561259205,10.685289747171728,-28.112057938259095,6.87234545316096,-5.627968124412714,46.97183395431396,-11.395922318399238,-28.23052127075533,41.17262126405987,-9.23117724385432,21.813053456683956,33.774675218117636,-0.4428233345233223,36.228016273370095,15.826138342404327,-17.602532373092515,34.527794654792665,7.962750938557104,-6.9498192505345715,17.909150733667218,-10.28952400718694,5.879257893069528,27.093248359136997,-15.19495953072031,42.25001374252742,12.103738497262542,-9.950248203691354,27.78023135419347,11.421036736356164,-19.34224453257944,-29.59253221659338,7.616337902867703,3.9584144173955544,63.87842757764119,17.162729126086116,-6.009998770646368,-23.051350254637214,4.646629071880289,6.907414931397971,-31.234571786493028,22.623816389937428,-41.22676463570352,-1.3026403094012016,-23.01009934315586,6.6347992731037415,-9.252381592033466,-7.539751666035401,11.963375720072088,0.012527420420002183,-31.68619110290119,2.4209003582448747,3.2995942044320103,39.50532840610045,39.669357108138676,-24.2878621282815,17.760661456279447,-19.178113182520764,6.6874461189114225,-36.20684748416099,-30.8492494669778,9.980715920848683,49.095336239103986,-1.4531943009735402,13.379941019367696,39.242053409460084,-12.205676428786594,27.350354940845744,-23.931180068703586,-30.393954870861368,0.35141145830641435,0.4194716864337366,-4.5837551724301795,28.523553679647268,29.801529040605633,5.417052226239949,2.9848392319257933,-19.38741515299245,-50.186241545496785,29.37067956440294,16.538362759819137,-11.687478347233629,36.19704377833377,16.367108548442303,11.567198981392643,-12.707736039736846,-1.903124624384691,40.54355780285989,1.9796727949734596,6.695412748076693,-19.486243217351255,11.088793909488412,29.390454010252142,-24.998011861204517,-3.1532736027319794,-33.1593153446636,18.611137429160838,4.516809355304454,16.081780440170867,-13.412635561104745,-26.44982193878122,47.072818060739344,-34.28764233274213,-64.62667571012489,-33.59853246174171,-11.820443898583845,-9.274595424068776,1.3481279214027033,3.0188619403239803,-29.351403147305557,4.701326695220253,-12.612944917047356,-38.116841292532406,20.675432048932457,10.765652777443176,22.64251425556757,-6.480836481335596,9.506020517473084,28.843091696631802,-36.57096767513345,4.224792760606293,-10.39753740180238,-7.2918312020713145,20.934229212166,-21.667191025281515,-3.5250045960598633,60.47567574846264,-38.345745981396355,-28.902947356965985,-17.213677956171498,29.319006987219066,14.874128647088659,-45.02681663469091,-1.146291505143888,5.456463687857428,-17.0795623671189,31.031556453099647,-38.70443730981767,39.630455300551674,-17.110629999981754,1.5655199656003564,-14.445370127640592,-4.469502593863905,9.682396390379347,-15.140555501319945,-42.665549639085164,17.158526006046163,9.467682501649088,-23.365720051445013,7.510365696481205,-26.622329724224514,6.427019064171559,8.883506658454616,2.810245756208508,43.31603627584545,-1.9491230018645225,4.3303625405707065,5.728317079452512,17.154667506154915,-66.85898918568185,-53.382805688304714,-29.378884507762265,4.074032208399855,17.950775179458592,44.693533350540974,9.315034805964993,6.949038385774353,-19.332114450568774,6.687192190187846,6.176683149054505,-47.69338965507566,-10.769561835190501,-1.6630656841370395,26.36765830571744,-15.66650163008179,44.9509702572981,13.797780765221216,0.6044571011932183,-22.67913877007504,-20.565412071513972,16.037579915782757,18.42383513213013,17.83689953240537,0.3077928461072699,-9.409865593009107,-12.201012912102339,-5.667176001655717,10.118235319277854,21.615525596369107,12.434143636851669,27.264118715952932,-43.28781440257769,-17.54670697504404,24.089442268156535,27.629415227908453,-0.23665869689276792,-32.80339141877374,3.483326035366108,2.8509794550782592,-17.239645580402843,10.019877451567204,0.8220189770571845,-7.354266723038306,25.079761914675604,9.949047379412065,30.420638620017655,-12.060226294512006,-0.9492723753359389,6.077400871417,-32.69854837547974,-39.20454927567097,-28.25399053060445,-15.018494495720688,-19.956790857393727,4.124614560581004,-32.189890360872745,-27.8741527804887,-5.400371918968765,21.489122720534077,-1.8886513861209626,-13.830669444798964,-5.172011593260655,5.953349885705131,19.961175038339324,1.5366465944316563,10.332586972212656,-32.98872096043383,6.920806334799385,19.237975074984522,15.293706837199906,9.030150464382126,-46.89381819790975,20.188356462030704,39.14546818508459,21.521128735610237,-0.15403079975730055,9.90067122004911,18.760257425753824,29.52794963199633,0.45704943443722,-8.748340551249802,29.062600034586104,1.8117143487053444,12.792923067042723,-17.723858266500297,39.83708410828871,18.731444216689894,26.718674846887577,13.470444989375933,-21.863473852726187,-7.731676205570916,22.441838783914225,21.098762239738384,-32.98906319188781,2.886309498206398,12.720899402807815,-22.006517262911157,26.499194926557543,29.2607261645589,16.928243971749787,-15.631194277904195,-38.26236099748568,13.81261971309636,0.024461232562277238,-24.377204290658536,-18.726711846571284,-1.0862132882106081,18.2554980620436,13.272008736926377,6.43578604448909,1.7644096687850197,-6.399355768897295,0.1768186145417152,36.711699425057645,8.169347062789269,-3.141803309308567,37.371727458445676,19.021240405556878,-23.67369959707255,-13.938672180101499,17.32965057799383,27.180805083393643,15.021255618909716,-7.386426194987493,18.16820823764757,-27.32850078908385,-16.357534570072772,14.841662273509668,36.511991619465796,-23.175008315420104,-3.722761923878486,53.055217182666496,-17.712581238051335,-24.406288298637214,-2.5191145896085745,24.3791233566761,-11.412342644576931],"intercept":-3.041814536926083}