{"type":"sparse perceptron","classifications":["NEGATIVE","POSITIVE"],"weights":[0.0,-3.1576042276943426,-3.2791094341924416,0.0,18.27790683018225,6.151174338505158,-44.17963595449351,-2.4064726196309945,21.34575625356074,26.69228814584656,-20.218220625456475,-14.269652875261148,7.434331171416953,14.990226795486368,-19.950242673608052,1.1058899778788187,4.409478501558821,-4.596260406821459,4.666172791834023,-3.5629673352858986,-2.9985144568098883,5.935925814224197,3.863120337025724,0.9885832864502486,-14.512372606466794,22.10730232380748,-5.088663666082029,-9.79388316222706,-2.3113939809875763,12.085689193553083,-5.061159929599809,-7.130110807768398,-3.079783279214288,4.856918698747943,-4.520295292051574,-4.49906379604542,8.270660927123686,-11.609244652739449,2.4516854561396944,3.872616161263627,5.266649545838645,-3.734268193248965,11.443799107382924,2.3743616603142486,0.7569200416728709,22.379537839704778,19.148945276406767,5.271837006894536,-19.645695093218162,-0.10486221156316153,3.172340662551341,13.208602302689908,12.355353182839385,11.806103836128013,10.46905864578366,7.72727250988699,2.3840652338996393,-3.7857625830836725,-7.449875310384992,-7.2018915879191345,-15.132388146976005,3.617411401757019,-21.61954459784817,-17.932667336901826,-14.990212943591427,-2.61767222299321,-0.6090242142719603,12.561537959828705,9.453595652229449,-2.6287242365369883,2.6500633214531066,-0.9649322417380819,-4.283755973981183,15.036033469231057,-2.99967627465863,-6.846315314253425,-3.822199951769837,-17.15356193375955,-24.004528869531093,-15.371035002569162,28.384763662844787,-6.056856916534929,-11.342622032561161,-4.571242040013455,13.464224086224068,-2.133461207280578,14.031906900242255,28.21615740521288,-1.5590718542122513,13.14187680439662,6.812135057066516,35.06015199768089,6.699128633130769,4.112482030279194,11.858812280419848,-36.823426217069645,-17.3006834543234,-0.36899500858450857,-6.479474148065582,-15.261310209440488,-2.1405145592814296,-13.073813897560747,5.706754821903394,1.6994870779671705,-1.7867558186392916,-1.778906845639864,6.799719716353484,-10.966388919240345,-2.996084858991566,-0.35565715930118014,32.518203554500516,7.4657584710312195,-7.193123472801112,13.740556167108757,-12.863976667805865,1.8478829771576957,25.335293659179253,24.96658223570278,31.133495916688602,30.266052979211892,-22.489438957412897,-16.047625008292094,7.291795490463347,15.332048120813532,-6.9009877721589925,-21.692204023300587,13.830179807787859,6.608558479463688,-7.863738715519398,-6.09604109506335,23.7904957691532,-1.986203624284998,6.81075552271177,-8.883900005631086,20.660258402511484,11.823677636067014,16.568843856909616,0.6553359439050528,-18.33321857539361,-1.986884658109207,-9.82854805389935,9.760140120502284,-10.307449575167032,-3.1094692367770183,-10.693048935518672,31.02422410473685,-10.356991953557063,1.8375975111702996,14.565660572239262,4.631786153774298,12.24191990215606,1.6161055159394149,9.439619662846177,19.691293972219583,-3.0669520879966035,11.984916635952038,-14.835615133404428,4.0871001176243,24.47804046010781,-3.3466716671476844,9.033680998540566,12.810190363922711,-1.7067339477385683,-0.7699772742987477,-37.474932122826594,5.732444020368046,19.063504654950005,-22.228106785823957,-13.396809591532218,-3.177734012021787,5.770645129170456,2.258184454782151,2.9011200874354874,-4.611113730936312,17.20502873236041,-3.30301452005589,24.29517858697595,13.346957616749998,32.42115299399208,1.5585237026669276,-31.17750420307399,5.371876591786981,29.009903685819076,7.879759763067293,-16.098622875591456,1.8221780815208606,-43.20059007908857,-20.344164799401796,40.18614156703816,-36.7172782749577,-14.839342208126116,-8.094689040272787,-18.552304265980176,-9.617986441806273,-20.155639504735035,-15.327986257565204,-17.21135387202878,10.979974253120258,-16.95264204552563,22.837306460695196,5.925093493959851,41.14312733043677,-2.1791766376015613,33.164313727688125,-20.801895726737936,28.54348547276827,16.824961786238667,-8.445787447191277,20.96403267236615,-16.394989332308214,21.97456079588588,8.560610862511407,16.896925819165865,-12.94103362015238,8.221513685218257,11.97717475332377,-18.850902115158792,-13.60057229285108,-23.435407249703378,19.103116598906517,25.039022620029787,-18.437124450674915,-27.14703862527505,-7.43548230575678,6.7516159990952085,8.274082989239998,-18.9548700346155,40.645197773222826,22.67438743892388,-54.520562315398514,-3.873567299057038,-3.9296107161113794,-9.13261170736203,-24.81196372892383,-58.21069129261341,-13.368594843186642,-1.2263491614823179,15.80119671784238,16.61250292890924,2.690209576823098,-6.426018418977709,-43.17280332846871,20.016798483206976,-42.356848220643684,-27.220940330918108,4.469993163539296,-6.9074650980803805,-13.171639079945825,-14.005360061924838,-115.6929256190011,-0.7464291925861062,12.98026804143047,2.179303072021732,62.14774696793638,36.116552354229746,-7.213568623992142,-5.011284809747107,8.27797399027002,-13.411977328636432,-7.026162527120535,16.9654627011775,-34.6268684163615,38.91619425396218,-30.61602475469103,-34.67121867946782,13.045092057394868,-43.571879422417624,10.154697153396905,-24.483833889962323,-10.077464319490481,6.775491489363796,7.5551087729710575,-32.41680276146704,41.22448879111533,-0.5525519957335691,46.58184199431143,14.502738598029858,-10.265653359069516,-26.873131080101896,-5.149674833817122,1.8370068918720177,-26.750380016928975,-23.387780034065475,16.967017185334228,9.670941308553736,-0.37564718565285304,-31.776234806664544,-11.687713041812469,33.1527440039797,-13.435519387139152,-3.8759886309322185,-0.719198425988926,25.438644164116017,-32.54594777938724,-15.360220350209435,-35.07688046778801,39.35064422400124,-4.674555007503738,6.69592994549095,12.800402395073455,-28.72282745790116,26.367709810144603,-34.757172632607805,14.14497255227208,0.9447515950038285,-31.418028200966468,-23.784750811951604,7.5599336836082776,-22.00757976438889,0.30524920179637244,-21.40846430801069,10.162536029206837,5.795343964380589,30.423471786073847,-19.160327294479703,-8.019145662000655,30.124254390701992,32.41907277053667,15.850824035209087,7.514281449351994,-27.36327330025407,122.2574499419424,38.67093878961132,9.707069679172838,21.71418493679731,15.879340510361207,-33.37855553195761,35.492596231758135,-5.9447577045380955,16.288407323204233,24.27033621142559,-10.33487264002772,-8.611272302747869,-34.50944533588585,18.50624451005619,42.45885608616695,-7.543815711903003,-1.4270557436668885,-79.84737885254104,-6.760294862161676,-30.132427100652944,21.987066857893797,14.307695676173415,22.17150912801202,-1.154741945785268,-39.89209739962985,-9.62142322790207,6.167107937040063,13.18900693308906,19.018630073492584,9.307579602515903,-17.159592633602962,9.370929184659952,6.109913662236989,51.313670085504256,-14.402685281137565,40.60867617211669,-52.16531440508,25.875429723080632,-14.226957784621044,-27.583464617572975,14.727271114105442,-12.762823131041808,18.948259782052933,-29.802496680017487,-11.483674285154082,20.065336695906296,29.008466365904322,51.65614398675679,25.53066199602532,-32.12710775657295,29.037036039433815,25.95331361614979,-91.46306978670978,-1.7443428665945295,1.217556269981827,28.405968837455063,16.017024844037163,-13.252242919989774,-63.26303372914165,-11.458072432090013,-23.770928934593087,29.81544437297786,-15.764421897895284,-37.4226846728259,-10.143566289214695,2.5292067496951747,-22.67038773147644,-13.442392370005177,30.96559434845903,35.09868187152328,-32.336081389840835,5.691655429103098,-12.846750346428223,-69.24182895405784,10.76504553276539,14.104381591904115,-10.706647056596823,17.51918152528349,-26.730633108745327,23.767510473936987,36.18501702548143,-13.442161534025217,-21.28765888481562,84.95300525688285,0.8360211592445072,33.9665509759105,-2.575423463769546,40.00825318996593,0.573256272498078,15.548420237902175,1.8399706017176267,-8.336991536406405,1.8213463180759932,-21.908799363295866,7.2778133863070265,-30.04264223979148,-22.94978810820053,-27.872953405333043,9.375782716458279,-10.502829545964579,6.955546776205019,44.827576825767764,27.665380832777586,-62.080559585267366,31.780640897034516,21.130970491190805,-18.180428498824522,1.8303398758832445,55.69745945015438,-18.742067176844998,-7.0721301768808535,-48.15324505116042,-30.748513300558443,-19.309318204889767,19.6155058737549,-42.934910962220904,-93.78325074841257,20.995352413527065,4.344619963547387,27.28617484757628,-30.55100001947619,0.8191467536269039,12.890779170112493,71.93234463977383,25.92240946217664,-18.621157222421843,34.196447430278084,-35.405365293264744,-13.410379617604576,10.911065891779847,19.872462786936275,-22.925677190638936,12.265958998202272,11.468619260737517,-12.355066868617092,-9.41448219757402,4.2333208092553996,-26.90956569220416,-38.446210781161675,-18.50525091271052,0.2463704502995021,1.4291698681746279,32.61175345630591,-24.95825905884972,-28.386297992308187,7.144264670943074,13.678037773331381,-8.509765930940924,38.09157236736605,-14.327806331671749,-3.488275261969143,-39.65618140147904,-37.14466296508337,34.92254308716878,4.191170876954266,-16.781383054317413,6.9014086557103145,31.930224455970155,13.447803786943968,53.23368760773873,-19.587479697239328,-23.317089991514774,30.945195219198453,-11.102256255638547,-18.87643025729459,-15.028884504620644,3.309701542155493,-16.93701634475189,15.021604144883204,11.015584083676318,-5.520667477712275,2.778438179973427,7.568176358255638,26.496336988368274,17.42145399387743,-17.094515482745912,-53.012314299704265,-0.5510758448229813,-8.749110141751252,-24.808589808099036,24.89305353733149,-18.306336956710517,-8.165539267577124,-17.350848742667804,9.921034040971213,-4.975770051741991,-26.53847196116724,26.76712553866697,15.14784397857185,42.38241178361581,-3.9025289259903833,42.51253276684642,-12.297554616890604,29.370321287639467,24.941946806674345,6.454448236468922,-1.256586288589385,38.76431976452782,3.353432625827627,-14.854221892132202,-3.143481361954649,-12.679048749776152,-1.747755597357245,9.292656295979315,-0.6394978154851633,-21.10209406289784,-50.351698945937926,11.994045440518573,11.292527475314184,43.36420769629856,0.677895588397358,-29.675916207310316,-5.738015486110225,-17.213767326213397,19.078402645878707,9.573325209689267,2.1654575982388193,-1.0979797017762296,33.83691440436006,7.608406247682907,11.501929259065923,-23.61943239392216,41.03592097098722,14.310554923410898,37.43470889929368,10.298711105107865,-23.37193843472969,32.323919046828834,-27.281796163357992,-25.632124491742037,0.4855691199215434,1.7025819054584503,-22.771844229083765,-12.959905106537844,6.708600805527472,23.86792966099897,-14.611521646705265,-20.1387642112722,3.039725095516244,4.218089352364933,22.376856721671462,-42.87488201323535,8.461464231227566,36.81853484684462,6.5938880125746495,-43.19550969452736,-5.831950506780758,3.484222190094975,4.5880008198145985,-5.529956018459369,5.2347774447485715,-0.9866903066968804,-16.89231692852424,-17.3324358180798,-29.112531375026993,-26.562021777908868,5.3594939251351965,-37.25896698917196,-6.96431158177084,12.169001382365327,47.65688944438992,17.765229139204546,-18.176275332862485,-46.50013329010515,-19.936249067621773,-31.083500382913083,-6.588195348060829,-18.85739907369588,-11.075874362925441,-38.82321492694805,-31.45781090300117,20.663468314342254,1.423193731672442,-38.01277520063473,-82.41943721873183,-3.749015305226572,-5.096896452871683,-49.28335637430375,-15.691682636421978,-13.87119720289219,0.3089171172689785,-12.68016808768508,34.63610850437515,-3.473119128774242,-23.617583730523027,61.01254977858067,-32.404197120892775,-28.621378952082686,-6.044731868192916,-21.962964401312274,2.2796062855951367,38.445887160588036,-2.7544642988755794,-32.61097145817531,8.79424663700917,-56.709409871767306,2.860017879362933,36.433173714196904,-43.45227143810292,-18.119283012179586,11.621489335523087,-24.30996448392185,1.336695091241824,3.11270359547974,-28.36113820224921,16.796596204098314,-1.6313830606330635,-20.22573308658534,10.70426933246559,-34.45583513130228,11.41647720335459,14.22453045194127,8.206095010625985,-11.052163737369444,35.46835250754678,10.821364011282647,-8.499882861777367,34.14930755268555,21.3613022736147,17.912841595431185,-4.957999554119383,38.13879648862659,6.783958679912854,-4.916998851910788,-6.708006438013602,25.43970482086209,-49.55386022492807,-8.432585291249616,41.13429870622521,-26.528715170274154,6.591260860271675,-5.769671362039403,5.818771324690639,10.780216507959812,-6.6973849662198095,7.581378891398353,-29.111268789293717,37.173364835082694,-15.94129075728338,23.88482486296884,1.7743983469782743,-33.08485110902325,30.915728830685865,-29.936386482013035,3.2958521660872844,-15.79672565798712,-8.731347117296007,-9.967211585164264,-20.630597321120536,29.696073790459245,19.00021969133466,23.21524260161322,-6.71436861960801,-6.551986718515834,-26.0424985103433,-31.015737704244852,17.22559016383575,9.82789889437808,8.759437491230894,2.1409845946470583,12.10864627794138,17.76957867206841,-28.5710735476175,-3.4135265449483496,-26.038369496050127,-2.6573114442520613,25.73715897457473,38.400850532536715,1.0887128363404566,-28.11368930566278,-44.04292975126439,64.59194703055482,51.152891325390755,36.54859341016994,28.812290584136782,38.8776397829418,14.040808175345264,-10.425051363284267,11.656033844497685,-8.130735426856505,8.937745350915566,43.50006704814553,-13.43004582723783,7.331771248683251,10.034218389284735,-27.895511973313965,5.715839748250058,-7.183891396178038,43.98550438919576,-8.336688937765578,-28.34957124329024,42.28424799618068,-10.1619922428909,21.05044456654206,29.3955159479721,0.29577716384163605,33.08755489967306,17.55291433866015,-18.852635367761568,36.82214953391238,7.711814572901741,-7.286141336409867,15.354438687044139,-10.102753023450484,4.517560674449652,27.934160290472494,-12.369662682656205,39.99116425440564,8.31203004949645,-9.529369436118667,25.38999880648552,11.069532536862946,-17.36920098769587,-28.987677419297892,7.483841118808018,5.136402098139501,61.30296320892922,16.788276560904617,-4.836027302916975,-25.018575580936563,3.9696750113802,7.355419276562307,-32.15072192285041,22.902479271744255,-41.77177538562752,-0.7416442080035034,-22.733407067068896,4.953575961791892,-12.576573654748303,-6.899153737935982,11.841895295022914,-0.6618066445174662,-29.657790102788198,3.078217308885606,0.8895657122177946,40.29128577926117,37.68464542840246,-23.056048765639368,19.76978957444825,-19.974920196939063,5.314630933011912,-35.277998266885426,-31.33812146689817,8.21124273522759,47.66751389314157,-1.5459369903960993,14.317291463209605,40.31253828639889,-12.951423620124773,25.31329377528233,-26.355497219547917,-31.01924021658914,-1.4916794431810785,1.8918380950125586,-5.460706556130025,25.940123660023445,28.560701093439228,3.9629090332131955,2.7212455087725593,-19.590759978936724,-48.932990866254464,29.449007333561305,13.725738987889576,-11.596665272091876,35.512304415682834,16.711366759398317,10.579644972376252,-11.184250420816635,-1.6786804183394446,38.799089263784715,1.5198975157980432,6.814698281527787,-21.380460784323514,7.646655911864887,28.023887614948038,-27.225292102916256,-4.570219553561838,-27.832196555487286,18.14980176334923,4.4402253436693275,16.37589468398638,-9.717025669338957,-27.059873533605728,46.07418629504628,-32.51532773857153,-61.331137158661726,-33.153520587568345,-10.147427084801636,-8.574905292949708,-0.24288961553916982,5.045925042993062,-29.26872348556868,3.256890761512333,-15.419140024261324,-36.33157054629898,19.223070977161584,11.474090333704842,25.58559904633318,-4.697012023042618,7.869889140909861,27.766661123959445,-35.17049946729748,3.7655189900814565,-10.062543305160856,-8.326536414128878,20.098850326572805,-21.50168064309185,-0.30139013048799246,57.73114354801602,-36.596430522242926,-27.08325946756363,-17.572203110785775,27.062883302476862,16.31202049727477,-42.86174463412567,1.206479720517245,5.03541180167096,-15.070495910613628,29.718222615205768,-35.87778899182523,37.8201799240713,-19.31368696116308,0.29183440359408674,-16.64824687184821,-2.451261859845959,9.073670407408814,-17.65754032466878,-42.81546851263749,17.725018975460983,7.769352530353598,-20.09067497255572,7.443271943357987,-24.26157745318736,6.214483012400952,8.413658577915973,4.17790607995299,42.63569621759143,-0.7616454252194705,6.905232131223568,5.628232715778377,15.70811592508809,-64.46295977880148,-52.112867611972966,-28.43107100974177,2.9497321171103805,18.526372641675916,44.97290246468502,10.204532534573124,7.040046058959075,-18.75824139850915,7.01946969667368,7.157505415005724,-45.477574048583215,-12.925733223000453,-3.002404393331963,26.572892532872388,-16.03887457288606,44.86930540939043,14.345638860251666,1.0939562081617995,-21.897960185058857,-19.629790811977326,17.697344177487537,16.439610459789677,18.143452515378534,1.8215626627285646,-8.136063945869813,-11.939776079382641,-5.0012590611477865,9.468589657935443,18.671173228519258,12.443672902922954,28.135973554370374,-40.45487533470424,-19.168658129527806,23.86342770960777,25.074445034534765,0.17846639784124446,-31.250238735127933,4.919635763685784,5.656867475575486,-15.361520172379992,11.742303328004573,1.641830620437524,-8.03992683948716,22.39621380709645,9.99955329998388,30.100561894015293,-13.751591229874782,-1.483081892784627,6.050666338249587,-33.85039966060329,-36.81895713653279,-28.702691743519235,-13.870131088085248,-19.936739458419012,4.528621809952611,-31.866827963678496,-27.06348237200378,-6.266438787116578,19.22417761771388,-2.3915596621235347,-14.847680691201358,-6.141617702998375,6.3707899971494095,17.66848094297836,3.0578472416419356,8.524776507849111,-33.674064736998574,9.164119246118673,22.023710162329323,13.169249290915825,8.491305652100774,-47.27410919636281,22.49256914618783,39.16068839423414,19.78319629894954,-1.3542497178730293,10.048132438896586,18.39631003999774,29.350859127812765,0.6807747934591644,-8.264993814392922,29.797271287267023,1.0249965418110005,12.739202983133096,-14.992007061537487,40.37349211259792,18.79099512516081,24.013557772451595,10.066853733182446,-21.566452119665605,-6.499317188159588,22.509387062158382,21.07585919656,-31.777127723771663,1.8853759286409542,11.080127389199538,-22.05722007984357,26.41155222801738,29.872385450711413,14.228806993861253,-16.842301665570645,-37.77003192375018,11.769671769344544,-1.1962989997790143,-22.879955843484577,-17.09685661050603,-0.13989927575725153,19.021392328934066,14.630385810560698,4.501538176202367,3.427653438952629,-5.893680368083819,2.1536238817644353,33.236685349133325,9.389092195878321,-3.9543520972570247,36.43698820085578,20.218254338507514,-22.162693858303463,-13.092911627983105,18.06365031202513,26.66873254192128,14.4206678671551,-4.777963827743303,17.942867340871246,-28.25439132013669,-15.987089429915397,16.26114350991587,33.148497899158265,-23.14719898975875,-6.384281687626083,52.852832019735025,-17.242965082143243,-24.763481680145954,-2.114511956693104,23.071835961631376,-13.946285265076162],"intercept":-3.1576042276943426}