{"type":"sparse perceptron","classifications":["NEGATIVE","POSITIVE"],"weights":[0.0,-3.7329083752301475,-3.7329083752301475,0.0,17.77279362883617,4.276816489798216,-44.73854355993964,-3.259227605823183,19.944754233788842,26.871238078768346,-18.811904254671276,-16.204568672797304,4.687946536477761,16.91760863123121,-19.484552534516602,2.778593732945887,-1.0448054109811924,-4.7300360428470904,5.3276484846028485,1.4801973435503797,-1.6925866714540625,9.690347395015802,4.472902283065572,0.57154866508753,-17.745289435284867,25.20612968496156,-1.4107147355072747,-10.16318039597431,-7.673683302318971,12.848783655043004,-6.464831717606719,-3.9430271092698828,-5.008247307891138,2.889746855894187,-2.8596604045140377,-3.665685560432511,5.370742397731226,-9.669069123650683,-3.635584392243422,4.636179972886334,4.385900994010413,-2.049394376009205,8.238478560774267,-4.4477056005732445,1.2247903899101886,27.143257012477758,19.737911803083335,10.448500960142425,-20.868375841760006,-1.151905488476775,0.048955765049338185,11.091297318416661,12.444019989956095,13.505342226004071,13.047325400340005,14.276838813849642,-1.8686360129636852,-17.218691746986597,-7.806395421551647,-5.358483638646704,-18.560204159052542,6.742071065159999,-24.492553449457926,-21.69783796357374,-14.635530773976619,4.176731748653715,-4.2585414787619476,15.621237438823954,11.736932468023777,-6.829656029803814,3.931973688284768,-0.7804535110668005,-5.246689256399678,22.57113419040479,-5.3218784796133685,-4.179734210113262,-4.178525037279668,-21.006230604767044,-40.71208095390434,-13.829077099540765,36.35878553497916,-10.450916372393399,-4.7693326141616685,-4.79593498991408,15.42105559636859,0.7649055890215113,15.165734993526636,42.33184915587418,-6.188726779171319,14.90601436541523,9.96485119500817,39.21003969603119,2.880570126151063,1.6025686835692765,16.46965197872289,-40.246354433039365,-14.671952026181456,-2.5760927517622796,-4.526100394812038,-16.86126226955417,-7.564546937460051,-19.066379457338048,5.857868670254688,5.49157514375806,-1.0927143317080934,-0.032072695218801545,9.299774356477622,-6.690220385486684,-3.6187949553790046,1.830390481073388,32.70382226104165,12.657558255787453,-7.555867973972153,15.898654614002787,-18.565852804644116,1.7596373309896876,15.964446282379612,26.32326008588283,41.505119024275274,39.3858147894566,-21.593048530561326,-18.065758792901498,2.358411937761849,17.565638803636823,-7.217114004160871,-25.239480319711976,13.599446496759047,4.558697834630414,-16.613995006457575,-7.131927989857239,23.275385222430874,2.5898159124851308,9.695912311881889,-8.931202532899995,23.040492878282087,9.155581588585008,14.048080770667033,0.25594425808633625,-20.22832359522542,-2.8664200468545795,-8.531537468693536,7.114557303794901,-12.354603627493834,-3.5090225921882365,-16.11529403260764,31.28315774096665,-14.806681384924827,3.4099975249876473,18.13163606270734,5.652728087470031,14.258683666239127,5.380757291103775,8.751279178786099,29.342126016889196,-3.427849551060894,7.469841295705004,-19.036582150277297,6.310530259535917,24.172762664675066,-2.1512954859215596,8.853052797194588,10.841598588133321,2.5246633462949477,-0.6526726499914923,-45.7587528983289,4.105329443003722,24.38752198760987,-26.23552216437987,-15.728935603466375,0.18724361699706785,0.6220933389955641,5.001949365058993,0.6051186607632484,-2.796482532077503,12.900642682375885,-2.574168069187509,24.564468413856556,15.636233728328639,32.21674235768996,2.840598556711773,-34.564623995938504,4.654996062585679,31.659070524267516,9.865130806880988,-18.51322823498194,4.743637545422222,-47.914273740188555,-17.10932731683437,38.77404104264287,-40.865071189055556,-13.700141589171501,-9.500134423755588,-20.311559013283862,-10.553259246195296,-20.22337616993278,-18.380322154175413,-12.66980398046084,14.306546052675223,-17.622904506166,28.18963512769996,3.771295755944167,41.14042170782662,-1.4934512543505087,36.31148942666158,-20.752487717687963,34.19563479232253,20.405990044302488,-9.948835106801697,20.193569281208852,-15.115643739363781,26.29062084923684,11.5338603390812,16.91598825168473,-11.94285229530872,10.014640738811332,13.141129539565627,-21.826504052557933,-11.771309945712149,-26.543446290675742,22.1724008374587,27.16700660082648,-20.192710422582778,-33.71024843361101,-5.783273548578727,6.968238536555861,4.53086751489252,-23.054642548792817,43.537173341137674,23.665849975169003,-59.5456060281453,-5.315422114567805,-8.893142191884007,-11.338659726605474,-26.945380084287574,-63.76075999524873,-14.419382463780106,2.067997573219164,18.31991814685272,16.554345386027364,8.366350407253892,-6.570557086236527,-49.41695084708913,23.46116502341391,-40.11748536863283,-26.388689710678463,0.6188182576280514,-5.773184027950091,-15.031196559790036,-13.262081814298002,-131.70575222553018,-0.5741464211040178,13.568657723954562,1.5897623787178288,67.4063819021525,35.789968319440675,-6.45594249870065,-0.5876495652889155,12.7218020846744,-11.016086058876116,-6.337117779340759,16.85042464604726,-32.89413055024578,44.84599015569884,-28.80213630398672,-38.53704581586611,15.303751766737193,-46.620529688376706,6.38405903683312,-26.089521759856794,-15.888601123802815,7.200197544741196,4.657265776444281,-35.40089072666356,40.365200614203985,2.439604639340544,52.35292116823633,14.040167859076567,-9.758101072091176,-35.80315230822058,-6.174282240024046,1.2206570656297075,-24.96632807704554,-30.103419101827168,19.72353749687037,11.348940936573879,-1.3263326102088921,-35.67055078549239,-9.091768332843298,35.027164722537414,-14.2604872069661,-2.375640984485352,0.6728315666153998,30.046717768283337,-33.401145026559625,-15.746718769131263,-33.91547991472783,39.36055344673707,-3.1023788188478596,10.861872279095746,13.852770093484954,-34.97172721680569,21.945311464624464,-41.68022170464346,15.10270834165182,0.8402610771157875,-36.486169277820665,-20.574266561085764,12.152558675863084,-21.106990954856307,0.899673651169645,-22.695615582794428,7.0514543570663495,3.626087560005491,32.26304755920155,-18.032512941846562,-7.943936160378002,32.57947295042537,29.55141448421279,13.542656861631816,7.296641118111635,-33.40494975991958,131.68038239131167,43.74925388744883,11.459987898642423,22.84213086351946,15.640506469590745,-34.14938702625019,36.019148976597414,-5.08940091258967,14.427725312458389,27.184681574075665,-12.373754154266413,-8.978554093277545,-35.77999971067161,17.74627536969699,42.14496912224194,-4.3032396798110195,0.0908305212867227,-86.16035849163144,-10.213745031308433,-33.88967104089494,24.30475395841742,9.15069453963721,20.26604654210885,0.501615972780559,-43.69356256015762,-7.6883658262606165,6.107213056763453,10.043275642352523,21.64792047137603,8.553748025502948,-18.651533791868644,7.801824106059821,5.90776405890134,54.530974955262266,-15.431644503344183,45.41735279370891,-59.1314690989954,28.455465924061667,-11.518137444163093,-29.829813215489356,11.744618527068656,-11.785740228909724,20.785694063568908,-32.017275467611405,-14.572594533278638,20.365581363833712,27.61977097617075,51.38307176328486,27.818475472515438,-32.77890901585014,29.573166286025852,26.606807435834874,-101.37405161775979,-4.454684880922804,0.37678977282597576,29.093883712998213,15.621346913545436,-11.28120102325503,-68.4664960942351,-16.0288012126797,-24.671347663065088,30.237326675232424,-16.84028201480103,-39.002743567085425,-8.850557324440112,7.163134440466224,-26.130885917919436,-11.39937558293617,37.207105642398645,34.9806980004413,-32.54844607539625,7.152807691232455,-13.735606278892973,-77.4947720772783,11.535017428504805,13.503495324086646,-9.445147887154143,17.224349990738034,-31.790105577103983,26.7532271825877,35.314699313657385,-14.031515990010883,-19.88573800382533,92.03863548851217,2.890872233710774,36.917242940266775,-0.11220500537185807,41.15186405133182,2.1576189504246295,15.722066913712679,2.201005597575602,-7.556225039863971,3.7032571086966284,-23.474278662254974,9.286357380819203,-27.284168087651516,-20.879560116853682,-30.26740619890772,9.92225867761976,-9.893149206276298,7.883966337120118,45.57152942860723,28.095148696067568,-66.25137093380151,30.942811018784642,20.186417901180885,-18.85981378875635,1.4572349148760166,58.80989089176467,-17.645593250212297,-7.411661273588945,-50.08536661246199,-35.01892050313935,-18.96651062061048,23.184723137544527,-41.957197961501805,-101.0915867399087,21.15004828263256,1.9932902014212561,27.632888070130942,-31.049062481127265,-0.1349343339119719,13.232108838751886,72.0606386737434,26.364581667953008,-18.416620216221087,38.52023615272685,-34.16205260751582,-16.234156582465904,11.725060343850489,22.35991290636447,-20.866473725428236,15.129958206043762,9.805260289593958,-12.469033987524215,-8.257636918993274,2.591758655176896,-27.860554021459283,-38.248894930638976,-21.414994691294293,0.842895990786605,1.661857493121141,32.14386681289075,-22.753552696279737,-28.272079912013613,8.401368437706667,14.433725309857111,-11.20645689276968,39.397694113555126,-18.82923524245522,-2.3002047584371934,-43.12444961394524,-41.521094278009286,35.48552579550443,3.9288783365129376,-16.085638043007513,6.807262987620542,33.85134226066539,15.735286022795192,56.642151207383336,-20.367114520304312,-25.17317457173506,35.18022642528829,-12.16086855809099,-17.687876467727442,-12.491194933858033,4.727819587828299,-19.738667433009443,14.229489435800792,10.99714767174769,-3.8795588405742514,1.8410677567499192,6.344067814543217,27.072896866456638,19.877776944892968,-17.139655725564563,-56.0999862353434,0.9021155431202426,-8.455923734287259,-24.38974136795262,26.19812155863817,-20.06533957919826,-10.603760717336442,-17.361730615821624,10.994562282507458,-4.278363411990052,-26.06792393443088,27.098912955374338,12.087792773866237,47.76182427207992,-5.974208128560014,46.19654751750919,-10.70519246412563,34.341563352713116,27.25608130567556,4.096760130578516,-2.6217749670639034,38.77860713880121,4.597098972202591,-14.035830922864392,-1.6797573510866002,-13.262339103500732,-1.453664769383314,9.248226807630239,-1.893976374438585,-24.234725651770642,-55.724436952285274,14.25824445487257,13.202657262649108,46.99485755560252,1.6618861676901118,-27.537259845673923,-5.96352340429086,-19.206428595861453,18.32332030783023,11.009149712443403,2.1975463539977618,0.6979103765702869,35.43696313814676,7.37138877709233,8.485352011542442,-29.278689664322897,39.790830537628985,12.679476655815446,40.909565611032875,10.877220910642897,-21.58225194815242,32.39515196501558,-30.623321230885434,-28.063898520666573,0.09134066756242892,2.0524366945449186,-23.96203366042531,-13.346889286892182,11.255121989394219,22.092233072010977,-12.174091582373372,-22.393390497717363,3.6561735396956783,5.214172009961071,23.49186113656047,-45.596550799088654,8.456542543836393,36.78587933219058,9.885274226253204,-45.426065149732175,-5.0837971235920545,4.5671653845723155,6.779841850711904,-5.527915785761409,5.008099131335722,1.805046573468343,-14.36822427350394,-18.064497400410627,-29.811382841285013,-23.550294383500056,6.204717880939914,-38.88616751331684,-4.181833003728088,15.12162824338599,50.37426930920197,19.43634880874847,-22.88495050461854,-46.12274900336947,-16.148664636809023,-32.7381021187308,-4.755342183019034,-16.65827197093394,-14.306890045661044,-41.88492935058269,-33.97764622652681,20.32438997317704,0.7477706571530155,-42.06223689286602,-88.20033998634456,0.2073497347503335,-5.677886843440266,-51.19678934111112,-17.18075405060236,-12.873619711620378,-1.2750564281691235,-13.102766724394986,35.46472827865723,-5.114800080572614,-24.681990723446635,64.40884789352269,-34.63837997654282,-31.468746632508065,-11.202740793676636,-22.832994733922323,1.4577964231989844,39.25268092955691,-1.9835624145859054,-35.31168535366101,8.075066869285669,-60.96893302978145,3.3941716310879366,35.43289323516976,-42.99403165884785,-17.607835589343825,11.343896345750235,-22.769802157242292,1.384398046118935,5.074044911900053,-25.68549173626948,16.885197045390544,0.17594150085631105,-19.29466190019548,11.449691948242606,-34.94203992550671,11.727627723146975,14.862008602642426,8.79965167850559,-11.267646146855823,36.451975889030194,11.609765616831842,-12.847683482055373,35.177614496986706,27.640248057979655,19.911220614047227,-5.391500067172815,38.74339803976057,6.111428502108418,-4.056728271141282,-6.712002086640634,24.99379997987078,-53.60388082134669,-11.335671310677839,41.858965525245694,-24.503398616950083,5.819029227344265,-5.377636876427617,5.814589960155754,10.229254699062528,-8.435314865849683,8.469960608390766,-27.542673616510125,41.13534080124352,-15.189702316620554,20.271592889375526,0.9214517343536012,-33.593421398174016,30.79768705150679,-27.97835096741341,1.147466275863265,-17.59200730032377,-7.382685242215754,-10.970316783443907,-21.206744899521514,31.460473850788247,20.94978312267892,25.351184166039467,-7.072150014522503,-4.01760785784135,-27.015749242849388,-33.10325740241798,15.941548336544615,5.801391996126727,5.649807345953856,4.0285397149472395,9.778672518989648,18.10089986314378,-29.086276470176557,-6.007191693995588,-28.30221540541185,-1.9697303495922105,28.008092594263996,40.9621633482914,-1.257294851011633,-29.048016644866014,-46.008209212490065,65.10112289278705,55.00788218396339,36.95144945131263,28.28226479213587,40.402663895938,14.969219475751437,-11.131523987765888,10.914367732992437,-6.59834686152832,7.133761630757187,44.99040167682683,-13.560579967902703,8.609180682096323,11.44775330455961,-29.98796524378431,6.835790424252511,-4.814392099273028,47.151942185838585,-12.5906062487672,-28.286067761675454,43.39735303180586,-8.873499282466469,21.73623821003949,32.884701602599705,0.72863634251076,36.51853506087993,16.238098656454454,-18.99535128700087,35.399756990625555,8.592030669574285,-5.3393002489536885,15.958403297732987,-10.26631570085113,4.806199976700785,28.331807642460305,-15.77453444820784,43.00306356621055,11.496187500000785,-10.420626526344618,27.505651831887302,10.132317522026637,-19.795636067152046,-29.41349688156185,10.225467030252748,6.012876739393302,64.3509568899269,19.607527612355707,-6.362238290900371,-22.782489423568673,5.405549056631791,5.977480738005187,-32.49433441543438,22.095704306650607,-41.33083352921715,0.40566349075066954,-23.90158729037371,7.6245195062774,-11.752012086827229,-7.734165486749717,10.154238874882838,-0.03337840963919389,-32.452425543004395,2.562296737154195,0.7570342420293152,41.19210037989,39.06697092643466,-22.29704470155387,17.737743179404738,-21.331081943973853,5.1226951865199455,-37.0160102003624,-30.65560266521182,8.326707611806206,48.46729265143657,-1.4366372042821247,13.261078727816487,41.54252045107188,-12.515612991990075,27.749836851335385,-26.065325404049826,-31.158370965934353,1.111500778505604,2.276005516390828,-2.767074477296702,30.838821583075358,31.437447926907772,4.587811231503991,3.2075134151604994,-19.11348612491794,-51.15866080164326,29.372561110846213,14.789753117255993,-9.94664240647617,36.64316967820738,15.651472623961052,12.055376719471333,-12.326476199967903,-0.8752054455174847,41.871859621169634,1.5582977166652334,7.251604639955362,-19.217509774993943,10.937066886265116,28.021638352545537,-25.501340071957575,-5.0496790115675365,-32.66106976134717,18.242706472912406,2.5333329343920687,17.86623171008261,-12.413937073594704,-29.148575643197596,47.80283568288822,-36.03010147186231,-65.29954017856069,-32.8769261656371,-12.451738122953723,-9.878347624917676,0.1943915474659395,5.051293775594949,-27.61112141821501,4.011069325090328,-13.095088123082022,-38.070409750729034,22.13187394927939,11.44232657836354,26.706880523708595,-5.811447105898558,7.364101397306988,29.109140657235763,-35.242094775096,5.061445040993326,-9.391683367764607,-7.170635505739341,21.16097989043141,-20.815595380625844,-4.339393267486567,59.67505029576342,-36.91818815957338,-26.447426588099997,-16.2594626512286,28.653429506219812,16.373883878003323,-46.896825144637745,0.07344913686635134,4.294762262080773,-17.15052312427974,31.702275048718693,-37.24307925955482,40.07312400000428,-18.685032394916778,2.2190983313481643,-15.388263147407237,-4.121356021414676,9.357334565036032,-15.354310166070777,-42.948356352545616,16.378139666356088,8.077009730528674,-22.20656307415325,7.5422807494199695,-24.60706857493702,6.959753553579663,9.21776874789038,2.9333125204886765,41.052955615144604,0.01730635746390441,5.7169862250716905,7.402432207722683,17.1808799270818,-69.64549459645757,-55.741588753575655,-30.00417795661408,2.0112908902812805,16.92218152829676,45.4234832357849,8.41730004792322,6.680358283931527,-18.405310402540444,7.050664730380292,6.920725557270797,-45.714626325066504,-10.600423422256178,-2.5091803051366233,27.631616083138784,-14.477354196545367,47.405317986726644,13.719876209648353,1.570011229779591,-22.912113484325484,-21.34324660405842,17.16270377960977,17.33248367111001,16.91868138221762,0.10937540136884809,-9.246432292931045,-13.773299951176929,-5.2614908354131575,9.879658112924997,21.52019808122102,14.802377595425327,26.934116368569022,-43.19877971205389,-17.75085810106201,23.358785142261713,28.03236037979621,0.05964904540146709,-33.6887126654926,1.7346071505719627,3.198992072649272,-16.800486989117324,10.846205812878058,2.2086219267764173,-5.9586663122657955,24.579218836530245,10.553793036062208,30.83931285844301,-11.402356080731222,-0.3267061339966969,6.624236353423743,-33.64969197508088,-40.561028034250874,-29.074978029749925,-15.311935115158668,-18.551568558647954,2.50373022074049,-33.099322343500454,-29.22442351685487,-5.558284397997773,21.459891998935692,-1.2224099164087197,-13.633024816991812,-5.4376629563303025,6.307212672422374,19.7313251411069,2.066203258173945,10.390366551234996,-32.52997017634415,6.67300095983592,21.590300881824607,13.857478044515656,8.1464737184455,-47.73332343400018,19.39276372917061,40.48216156209078,20.296055464019094,0.6417725215626896,10.916459983945694,19.028556272250373,29.55603945515417,-0.5158953666238839,-9.047683777278603,29.24174432793002,2.4998226412376594,12.791491118583165,-17.81493819539039,40.11408738729943,18.854046306607806,26.28147035208541,12.748177230206293,-22.612004566849564,-7.252733461572036,21.833382225178067,22.01075449951306,-32.45156052793028,1.1787763386906445,12.254079864567712,-22.78528554161477,23.911335784024597,30.636710076424208,16.028335870500044,-14.24806278415592,-40.478577939357095,14.683063432363554,-0.36041754949326454,-23.99757048974855,-18.231427978132277,-1.7828851665576004,17.73981585023268,14.317255585513939,4.977093671553788,0.9279252206394903,-5.904138060069342,-1.2191632789621867,37.2633726943239,8.081075390997079,-4.025032766749122,35.741107685225955,17.675984267914306,-23.746936341383265,-14.010873561666383,18.183634012532817,26.93330750293706,16.912027950968675,-7.876029205366366,19.002875738328534,-28.8844730536568,-15.522979380146273,15.46357000734089,35.773296248363486,-23.427565946428526,-6.471326685384248,53.897377866439875,-18.12401532350251,-25.85199643640476,-0.34051006581105553,25.807254952974898,-10.900857354860886],"intercept":-3.7329083752301475}